<?xml version="1.0"?>
<opencv_storage>
<my_svm type_id="opencv-ml-svm">
  <svm_type>C_SVC</svm_type>
  <kernel><type>RBF</type>
    <gamma>4.0000000000000001e-002</gamma></kernel>
  <C>10.</C>
  <term_criteria><epsilon>1.1920928955078125e-007</epsilon>
    <iterations>1000</iterations></term_criteria>
  <var_all>1152</var_all>
  <var_count>1152</var_count>
  <class_count>2</class_count>
  <class_labels type_id="opencv-matrix">
    <rows>1</rows>
    <cols>2</cols>
    <dt>i</dt>
    <data>
      -1 1</data></class_labels>
  <sv_total>69</sv_total>
  <support_vectors>
    <_>
      3.15637290e-001 2.79789418e-002 8.13708678e-002 3.79658714e-002
      6.35967925e-002 3.63917463e-002 8.77878338e-005 5.01757095e-005
      2.39496320e-001 3.15637290e-001 4.59859846e-003 1.87819693e-002
      5.11848787e-003 4.29881853e-004 5.02935844e-003 1.03686424e-003
      3.81232763e-004 3.15637290e-001 3.15637290e-001 4.17998396e-002
      2.39839926e-001 7.48409033e-002 2.41341338e-001 3.15637290e-001
      1.09764181e-001 3.65105923e-004 2.53973514e-001 3.15637290e-001
      8.88118614e-003 8.46036598e-002 9.72101931e-003 5.22474274e-002
      1.30437836e-001 2.63702888e-002 4.45934059e-003 3.15637290e-001
      3.45642895e-001 0. 0. 0. 2.62327230e-005 0. 0. 0. 3.45642895e-001
      3.45642895e-001 0. 0. 0. 5.30811492e-003 1.00111319e-002
      3.89871895e-002 3.18115652e-002 3.45642895e-001 3.45642895e-001
      2.07277946e-003 0. 0. 6.29290298e-004 1.05277065e-003
      2.00737442e-004 0. 3.45642895e-001 3.45642895e-001 3.45463259e-003
      3.90982896e-005 4.81867827e-002 1.21521249e-001 8.17897022e-002
      6.56350181e-002 1.00146338e-001 3.45642895e-001 4.24508844e-003
      2.70316564e-003 8.08887091e-003 1.26387151e-002 7.04228580e-001 0.
      2.40853103e-003 8.04890762e-004 4.24508844e-003 0. 0. 0. 0.
      1.32757304e-002 0. 0. 0. 0. 6.06441288e-004 0. 0. 7.58322980e-003
      7.04228580e-001 0. 1.51120117e-002 5.05016884e-003 6.06441288e-004
      0. 0. 0. 0. 1.81934051e-002 0. 0. 0. 0. 6.83835968e-002 0. 0. 0.
      1.21646620e-001 0. 5.07718557e-003 1.69670617e-003 6.83835968e-002
      1.13972656e-001 0. 0. 0. 1.77198425e-001 0. 3.55402976e-002
      1.18769426e-002 1.13972656e-001 1.00502327e-001 4.08145562e-002
      1.22132257e-001 0. 3.81671906e-001 0. 1.06661573e-001
      1.80745557e-001 1.30568847e-001 1.67503864e-001 2.44887359e-002
      7.32793510e-002 0. 4.93468195e-001 0. 4.47784275e-001
      3.91476899e-001 2.17614740e-001 3.39846797e-002 1.88225489e-002 0.
      1.01889800e-002 2.25304589e-001 2.20772624e-001 2.67528296e-001
      1.85522631e-001 5.34466133e-002 2.35250652e-001 2.23360136e-002
      2.17904133e-004 9.06616915e-003 6.49999902e-002 1.89917669e-001
      2.61765152e-001 1.37296915e-001 2.67528296e-001 4.63719442e-002
      2.16807704e-002 0. 2.61710342e-002 2.67528296e-001 2.67528296e-001
      2.67528296e-001 4.55999412e-002 3.65603529e-002 2.63215482e-001
      3.61346193e-002 0. 4.36183959e-002 2.67528296e-001 2.19639748e-001
      2.07596287e-001 6.16178103e-002 2.67528296e-001 3.03575188e-001
      2.55454890e-002 1.41352019e-003 2.75761035e-004 0. 0. 0.
      4.03153681e-004 3.03575188e-001 3.03575188e-001 2.28096277e-001
      1.75299495e-001 1.47138193e-001 7.23781362e-002 8.63989964e-002
      4.77840491e-002 2.82207597e-003 3.03575188e-001 3.03575188e-001
      1.13474801e-002 7.27898208e-004 0. 4.71742731e-003 0.
      2.11052466e-004 2.89260619e-003 3.03575188e-001 3.03575188e-001
      1.08015202e-001 6.91064820e-002 1.35978088e-001 3.03575188e-001
      9.04268324e-002 6.18355200e-002 1.98720824e-002 3.03575188e-001 0.
      1.87703036e-003 5.61679062e-003 0. 5.28326094e-001 2.59332657e-001
      1.66157052e-001 1.34974137e-001 3.51653136e-002 0. 2.47069838e-004
      7.39327224e-004 0. 1.04073035e-002 0. 1.29077199e-003
      4.31353314e-004 0. 0. 2.47069838e-004 7.39327224e-004
      8.52129480e-004 5.28326094e-001 5.28326094e-001 1.78692967e-001
      6.05124682e-002 5.02361590e-003 0. 3.52956922e-005 1.05618172e-004
      0. 8.51754695e-002 0. 1.33169477e-003 4.45029000e-004 0.
      3.25792208e-002 1.11285364e-003 4.57602404e-002 1.80710390e-001
      7.74868652e-002 3.26446560e-003 0. 7.39337702e-004 4.71487269e-002
      2.14680925e-001 1.05250289e-003 7.38664269e-002 3.01183969e-001
      1.73482075e-001 2.35937655e-001 2.79334914e-002 5.38137369e-003
      3.08251113e-001 1.20381182e-002 8.03445349e-004 1.45024449e-001
      3.08251113e-001 3.08251113e-001 5.97838406e-003 0. 1.23222964e-003
      3.21024209e-002 8.01330432e-002 1.11538255e-004 2.47809380e-001
      3.08251113e-001 3.08251113e-001 3.08251113e-001 1.22961596e-001
      8.62560701e-003 2.20583171e-001 0. 0. 0. 2.62822636e-004
      4.98753071e-001 0. 0. 0. 0. 0. 1.19575616e-005 3.57815807e-005
      1.57693590e-004 4.98753071e-001 0. 0. 0. 0. 0. 0. 0. 0.
      4.98753071e-001 0. 0. 0. 0. 0. 0. 0. 0. 4.98753071e-001 0. 0. 0.
      0. 3.66981985e-004 0. 0. 0. 3.22550461e-002 0. 2.01075411e-004
      6.71960370e-005 3.66981985e-004 1.02879443e-004 0. 0. 0.
      7.03605831e-001 2.34424230e-003 3.35125660e-004 1.11993402e-004
      1.02879443e-004 0. 0. 0. 0. 4.25207391e-002 0. 0. 0. 0. 0. 0. 0.
      0. 7.03605831e-001 0. 0. 0. 0. 0. 0. 0. 2.60098674e-003
      6.96401477e-001 8.43810500e-004 0. 0. 0. 0. 0. 0. 0.
      9.20443907e-002 0. 0. 0. 0. 0. 0. 0. 0. 6.96401477e-001
      5.63990371e-003 0. 0. 0. 0. 0. 0. 0. 1.20774917e-001 0. 0. 0. 0.
      0. 0. 0. 0. 4.98750657e-001 3.59305908e-004 0. 0. 0. 0. 0. 0.
      5.08484023e-004 4.98750657e-001 3.04801995e-003 0. 0. 0. 0. 0. 0.
      0. 4.98750657e-001 0. 0. 0. 0. 0. 0. 0. 0. 4.98750657e-001
      2.27897588e-004 0. 0. 0. 0. 0. 0. 0. 4.98753130e-001 0. 0. 0. 0.
      0. 0. 0. 0. 4.98753130e-001 0. 0. 0. 0. 0. 0. 0. 0.
      4.98753130e-001 0. 0. 0. 0. 0. 0. 0. 0. 4.98753130e-001 0. 0. 0.
      0. 0. 0. 0. 0. 3.23969796e-002 0. 0. 0. 0. 0. 0. 0.
      1.27943081e-003 7.03605831e-001 0. 0. 0. 0. 0. 0. 0. 0.
      4.24581431e-002 0. 0. 0. 0. 0. 0. 0. 0. 7.03605831e-001 0. 0. 0.
      0. 0. 0. 0. 8.02475493e-003 6.96323276e-001 4.51674405e-003 0. 0.
      0. 0. 0. 0. 0. 9.22116563e-002 0. 0. 0. 0. 0. 0. 0.
      2.19981163e-003 6.96323276e-001 5.55598224e-003 0. 0. 0. 0. 0. 0.
      0. 1.21215224e-001 0. 0. 0. 0. 0. 0. 0. 0. 4.98753130e-001 0. 0.
      0. 0. 0. 0. 0. 0. 4.98753130e-001 0. 0. 0. 0. 0. 0. 0. 0.
      4.98753130e-001 0. 0. 0. 0. 0. 0. 0. 0. 4.98753130e-001 0. 0. 0.
      0. 0. 0. 0. 0. 4.98753130e-001 0. 0. 0. 0. 0. 0. 0. 0.
      4.98753130e-001 0. 0. 0. 0. 0. 0. 0. 0. 4.98753130e-001 0. 0. 0.
      0. 0. 0. 0. 0. 4.98753130e-001 0. 0. 0. 0. 0. 0. 0. 0.
      3.23733538e-002 0. 0. 0. 0. 0. 0. 0. 0. 7.03607976e-001 0. 0. 0.
      0. 0. 0. 0. 0. 4.24271822e-002 0. 0. 0. 0. 0. 0. 0. 0.
      7.03607976e-001 0. 0. 0. 0. 0. 0. 0. 0. 6.96420670e-001 0. 0. 0.
      0. 0. 0. 0. 0. 9.20808390e-002 0. 0. 0. 0. 0. 0. 0. 0.
      6.96420670e-001 1.56056869e-003 0. 0. 0. 0. 0. 0. 0.
      1.20677345e-001 0. 0. 0. 0. 0. 0. 0. 0. 4.98753130e-001 0. 0. 0.
      0. 0. 0. 0. 0. 4.98753130e-001 0. 0. 0. 0. 0. 0. 0. 0.
      4.98753130e-001 0. 0. 0. 0. 0. 0. 0. 0. 4.98753130e-001 0. 0. 0.
      0. 0. 0. 0. 2.51572998e-003 4.98568058e-001 6.06405200e-004 0. 0.
      0. 0. 0. 0. 6.25098590e-004 4.98568058e-001 0. 0. 0. 0. 0. 0. 0.
      2.50462238e-002 4.98568058e-001 7.25223217e-003 0. 0. 0. 0. 0. 0.
      7.23285088e-003 4.98568058e-001 0. 8.20249319e-004 2.74112885e-004
      0. 0. 0. 0. 0. 3.25813927e-002 0. 0. 0. 0. 0. 0. 0.
      6.11053687e-003 7.03431547e-001 0. 0. 0. 0. 0. 0. 0. 0.
      4.34655100e-002 0. 0. 0. 0. 0. 0. 0. 1.82985440e-002
      7.03431547e-001 4.83400514e-003 0. 0. 0. 1.39749236e-003 0. 0.
      1.10879738e-003 6.95476770e-001 6.49097899e-004 2.06760247e-003
      6.90956367e-004 1.39749236e-003 4.77224449e-003 0. 0. 0.
      9.18250978e-002 0. 1.24056137e-003 4.14573791e-004 4.77224449e-003
      5.66996215e-003 0. 0. 3.19226552e-003 6.95476770e-001
      7.30563421e-003 4.56475746e-003 1.52546167e-003 5.66996215e-003
      1.55436117e-002 0. 0. 0. 1.28644541e-001 0. 2.73885462e-003
      9.15277051e-004 1.55436117e-002 1.31060166e-004 7.55443252e-005
      2.26056567e-004 1.84991397e-003 4.98390734e-001 6.14590768e-004 0.
      0. 1.31060166e-004 8.37173684e-006 0. 0. 5.36547042e-003
      4.98390734e-001 4.63784998e-003 0. 0. 8.37173684e-006
      8.97838967e-004 1.25907201e-004 3.76760901e-004 4.34828224e-003
      4.98390734e-001 4.30864422e-003 2.28517063e-004 7.63665885e-005
      8.97838967e-004 5.86021633e-005 0. 0. 2.34164689e-002
      4.98390734e-001 2.84137018e-002 3.26452973e-005 1.09095126e-005
      5.86021633e-005 1.83703937e-002 1.04517058e-001 2.95450151e-001
      2.95450151e-001 2.95450151e-001 2.95450151e-001 2.18399420e-001
      1.88674480e-001 2.09659502e-001 5.04370267e-003 6.50760308e-002
      2.95450151e-001 2.00622141e-001 2.95450151e-001 2.07068454e-002
      3.01817302e-002 2.72355750e-002 3.04920506e-002 9.01944339e-002
      1.49936259e-001 2.28989929e-001 2.21118554e-002 2.13475361e-001
      2.18724217e-002 3.46535519e-002 1.14934050e-001 2.95450151e-001
      2.59613823e-002 9.17191580e-002 1.43352449e-001 1.12039326e-002
      1.53714582e-001 1.09712104e-003 1.18008982e-002 1.87084321e-002
      4.57593203e-002 0. 0. 0. 0. 2.22528242e-002 0. 1.86365025e-004
      6.22800799e-005 0. 0. 0. 0. 0. 4.58836615e-001 4.58836615e-001
      4.02020484e-001 1.95355907e-001 1.56167131e-002 0. 0. 0. 0.
      1.17418142e-002 0. 2.20116205e-003 7.35591573e-004 0. 0.
      1.44153240e-003 4.31359792e-003 0. 4.58836615e-001 7.87692294e-002
      1.93358749e-001 3.42975318e-001 4.37268242e-002 3.33579123e-001
      2.06446409e-001 1.27763018e-001 8.11089426e-002 1.30821750e-001
      2.05777586e-002 3.60260233e-002 1.27564417e-002 3.33579123e-001
      3.33579123e-001 2.59181373e-002 7.07171345e-003 7.95807937e-005
      1.52901711e-003 3.61840095e-004 4.03861189e-003 1.34668045e-003
      3.33579123e-001 2.26758450e-001 1.50201499e-001 2.19493896e-001
      2.26159737e-001 1.24794640e-001 8.16464983e-003 1.65624693e-002
      1.33165484e-002 2.31839836e-001 3.33579123e-001 1.98592395e-002
      1.28076226e-002 2.49518524e-003 8.03724688e-004 2.53288075e-003
      1.23828358e-003 5.77772595e-003 3.33579123e-001 2.41166875e-001
      5.47156446e-002 9.49636940e-003 3.40086035e-002 7.90760145e-002
      2.04191804e-001 1.59909964e-001 1.56819269e-001 2.41166875e-001
      2.41166875e-001 1.16051413e-001 9.94957909e-002 2.41166875e-001
      1.96230635e-001 2.41166875e-001 2.10302860e-001 1.10068470e-001
      3.22713703e-002 1.58316001e-001 1.79502144e-002 1.04007982e-002
      7.87283927e-002 2.13113800e-001 2.41166875e-001 1.83776438e-001
      9.41230580e-002 1.09221563e-001 2.26938188e-001 8.18912834e-002
      6.75851852e-002 2.41166875e-001 2.41166875e-001 2.41166875e-001
      2.31309935e-001 6.60410821e-002 1.46600557e-002 3.35741967e-001 0.
      0. 0. 0. 0. 0. 0. 3.35741967e-001 5.59569955e-001 0. 0. 0. 0. 0.
      0. 0. 5.59569955e-001 0. 0. 0. 0. 0. 0. 0. 0. 0. 0. 0. 0. 0. 0. 0.
      0. 0. 0. 0. 0. 0. 0. 2.69713793e-002 0. 0. 0. 0. 0. 0. 0.
      5.40717617e-002 8.64227712e-001 0. 1.26379192e-001 4.22338136e-002
      0. 0. 0. 0. 0. 7.56113511e-003 0. 0. 0. 0. 0. 0. 0.
      3.24430615e-002 4.61679012e-001 0. 8.90874118e-002 2.97715236e-002
      0. 3.81285936e-001 1.46548948e-004 3.71220987e-004 1.29744783e-003
      1.94382053e-002 1.74580738e-002 5.00165634e-002 4.59884107e-002
      3.81285936e-001 3.81285936e-001 4.77728929e-004 1.13388247e-004
      1.62039432e-004 1.01568512e-004 8.85086309e-004 4.08725289e-004
      2.16666856e-004 3.81285936e-001 2.52949089e-001 2.64938874e-003
      1.67433522e-003 0. 2.05108174e-003 4.78602108e-003 7.33103557e-003
      7.49264704e-003 2.80854076e-001 3.70434314e-001 1.33384694e-003
      2.39190776e-004 0. 1.58026791e-003 2.87161232e-003 2.13618693e-003
      7.13876216e-004 3.59338492e-001 3.17598730e-001 3.17598730e-001
      2.55347639e-001 3.17598730e-001 1.50324270e-001 0. 0. 0.
      3.17598730e-001 2.21290946e-001 2.30793074e-001 2.01771855e-001
      3.17598730e-001 2.69603163e-001 0. 2.02963618e-003 6.78268785e-004
      5.10054789e-002 3.17598730e-001 6.20401166e-002 2.60407999e-002
      1.44914929e-002 3.19295526e-002 0. 1.85600249e-003 6.20243431e-004
      2.37417281e-001 1.26899704e-001 3.73529717e-002 2.11899225e-002
      2.41524857e-002 6.04277402e-002 0. 5.63326897e-003 1.88253960e-003
      3.50541733e-002</_>
    <_>
      0. 0. 0. 0. 0. 0. 0. 0. 0. 0. 0. 0. 0. 0. 0. 0. 0. 0. 0. 0. 0. 0.
      0. 0. 0. 0. 0. 0. 0. 0. 0. 0. 0. 0. 0. 0. 0. 0. 0. 0. 0. 0. 0. 0.
      0. 0. 0. 0. 0. 0. 0. 0. 0. 0. 0. 0. 0. 0. 0. 0. 0. 0. 0. 0. 0. 0.
      0. 0. 0. 0. 0. 0. 0. 0. 0. 0. 0. 0. 0. 0. 0. 0. 0. 0. 0. 0. 0. 0.
      0. 0. 0. 0. 0. 0. 0. 0. 0. 0. 0. 0. 0. 0. 0. 0. 0. 0. 0. 0. 0. 0.
      0. 0. 0. 0. 0. 0. 0. 0. 0. 0. 0. 0. 0. 0. 0. 0. 0. 0. 0. 0. 0. 0.
      0. 0. 0. 0. 0. 0. 0. 0. 0. 0. 0. 0. 8.89337733e-002
      2.61895433e-002 1.57328299e-003 0. 3.83989178e-002 0. 0. 0.
      1.10564634e-001 1.23579716e-002 0. 0. 0. 2.09483579e-002 0. 0. 0.
      1.55554283e-002 3.94434541e-001 1.46154925e-001 2.08310157e-001
      3.46540838e-001 4.14563954e-001 0. 0. 2.73439884e-001
      4.14563954e-001 5.55622466e-002 0. 0. 0. 4.14563954e-001 0. 0.
      3.90628427e-002 1.93217188e-001 0. 0. 0. 0. 0. 0. 0. 0. 0. 0. 0.
      0. 0. 0. 0. 0. 0. 0. 0. 0. 0. 0. 0. 0. 0. 0. 0. 0. 0. 0. 0. 0. 0.
      0. 0. 0. 0. 0. 0. 0. 0. 0. 0. 0. 0. 0. 0. 0. 0. 0. 0. 0. 0. 0. 0.
      0. 0. 0. 0. 0. 0. 0. 0. 0. 0. 0. 0. 0. 0. 0. 0. 0. 0. 0. 0. 0. 0.
      0. 0. 0. 0. 0. 0. 0. 0. 0. 0. 0. 0. 0. 0. 0. 0. 0. 0. 0. 0. 0. 0.
      0. 0. 0. 0. 0. 0. 0. 0. 0. 1.18452626e-005 0. 1.32320402e-002
      1.70394748e-001 4.44250673e-001 3.64165187e-001 1.41834039e-002 0.
      1.18452626e-005 0. 0. 0. 1.45327998e-003 4.27671522e-001
      1.86506525e-001 2.02620076e-003 0. 0. 1.39904689e-004 0. 0.
      7.05969632e-002 4.44250673e-001 1.20384701e-001 0. 0.
      1.39904689e-004 0. 0. 0. 7.96751026e-003 4.44250673e-001
      6.50056824e-002 0. 0. 0. 0. 0. 0. 0. 0. 0. 0. 0. 0. 0. 0. 0. 0. 0.
      0. 0. 0. 0. 0. 0. 0. 0. 0. 0. 0. 0. 0. 0. 0. 0. 0. 0. 0. 0. 0. 0.
      0. 0. 0. 0. 0. 0. 0. 0. 0. 0. 0. 0. 0. 0. 0. 0. 0. 0. 0. 0. 0. 0.
      0. 0. 0. 0. 0. 0. 0. 0. 0. 0. 0. 0. 0. 0. 0. 0. 0. 0. 0. 0. 0. 0.
      0. 0. 0. 0. 0. 0. 0. 0. 0. 0. 0. 0. 0. 0. 0. 0. 0. 0. 0. 0. 0. 0.
      0. 0. 0. 0. 0. 0. 1.67428181e-002 0. 2.20315158e-003
      3.30564141e-001 3.30564141e-001 2.53289696e-002 2.45364499e-005
      7.65481871e-003 3.23821278e-003 6.84979558e-002 4.90630919e-005
      8.40664085e-004 1.97912037e-001 3.30564141e-001 2.28081644e-002
      4.08940796e-005 1.46270627e-002 4.43351716e-002 2.22517222e-001
      5.70104532e-002 2.02445894e-001 3.30564141e-001 3.30564141e-001
      1.32828563e-001 4.08940796e-005 1.23609658e-002 5.04336767e-002
      3.30564141e-001 9.29442570e-002 6.90949708e-002 1.70145616e-001
      1.42705023e-001 8.35493207e-002 6.81568054e-005 2.08686125e-002
      3.30564141e-001 1.30004182e-001 2.43517407e-003 0. 0. 0.
      2.40226233e-004 1.17442636e-004 1.97216542e-003 1.17870614e-001
      9.65157673e-002 7.01072207e-003 0. 0. 1.39592225e-002
      2.83731776e-003 4.54491610e-003 2.13471223e-002 1.38451353e-001
      4.00178283e-001 3.47882014e-004 0. 0. 0. 6.27006963e-003
      1.15717165e-002 6.03633411e-002 4.00178283e-001 4.00178283e-001
      1.00153172e-003 0. 0. 2.04595663e-002 3.23093683e-001
      1.63235381e-001 4.00178283e-001 4.00178283e-001 1.18956372e-001
      5.48284547e-003 7.04187667e-004 1.22784998e-003 1.27515162e-003 0.
      0. 5.25945053e-003 1.05262101e-001 1.55422494e-001 0. 0. 0. 0. 0.
      0. 1.97666604e-003 1.56874463e-001 4.71801013e-001 1.59833863e-001
      3.88779901e-002 6.14769831e-002 1.63323164e-003 0. 0.
      7.51350250e-004 4.71801013e-001 4.71801013e-001 0. 0. 0. 0. 0. 0.
      2.82380846e-004 4.71801013e-001 1.21622860e-001 5.25034266e-003 0.
      0. 5.23188291e-003 9.43443738e-004 3.32828029e-003 8.12033098e-003
      1.43226057e-001 4.87825982e-002 4.06256830e-003 0. 0.
      2.47964803e-002 1.57240615e-003 1.43760908e-002 1.33745130e-002
      9.97938365e-002 3.68345827e-001 7.50049017e-004 0. 0.
      1.28995767e-002 1.07429706e-001 7.20299557e-002 2.46711254e-001
      3.68345827e-001 3.60265851e-001 5.80366876e-004 0. 0.
      1.45595178e-001 3.68345827e-001 2.00941354e-001 3.68345827e-001
      3.68345827e-001 4.02743649e-003 9.26008150e-002 3.10550064e-001
      3.10550064e-001 3.10550064e-001 1.25084922e-001 9.74866450e-002
      1.25907063e-001 6.96705207e-002 2.37913635e-002 1.56184584e-002
      1.04652576e-001 2.14833260e-001 3.10550064e-001 5.45424856e-002
      2.58224667e-003 5.01703564e-003 2.33881064e-002 2.01917104e-002
      4.35631573e-002 3.10550064e-001 3.10550064e-001 3.10550064e-001
      3.10550064e-001 1.40876010e-001 6.00437969e-002 1.68127138e-002
      3.80891040e-002 1.68989338e-002 7.53331482e-002 1.04089648e-001
      2.40641564e-001 7.12655261e-002 1.40890609e-002 1.77919585e-002
      4.07656804e-002 5.57201952e-002 1.08085349e-002 1.14656473e-002
      2.24490780e-002 2.34716665e-002 1.12895695e-002 8.23000260e-003
      1.52683689e-003 5.40565513e-002 1.14170276e-001 2.23040283e-002
      7.09805489e-002 6.99975938e-002 4.79592770e-001 4.79592770e-001
      2.01052930e-002 2.47317599e-003 4.34697904e-002 6.05027229e-002
      1.46273372e-003 8.87482520e-003 4.11256440e-002 1.18232984e-002
      1.64440982e-002 4.06513270e-003 1.08145755e-002 5.48374653e-002
      9.47372094e-002 1.04702674e-002 1.54676549e-002 2.02024445e-001
      4.79592770e-001 4.55785722e-001 1.15896193e-002 2.84209810e-002
      6.38768077e-002 1.47077546e-001 3.57148573e-002 5.69982864e-002
      3.68822634e-001 3.68822634e-001 8.40115249e-002 4.06250022e-002
      1.20994695e-001 1.20505281e-001 2.82842934e-001 1.22005083e-002
      4.36212402e-003 3.59790982e-003 1.23811634e-002 1.41328722e-002
      1.92548260e-002 2.81030182e-002 3.32175970e-001 1.44791067e-001
      5.53213432e-002 9.83508024e-003 2.35951468e-001 3.68822634e-001
      1.20634601e-001 3.86831835e-002 1.49572104e-001 1.54665023e-001
      3.09886426e-001 1.88719351e-002 6.23160566e-004 5.13987092e-004
      8.35538730e-002 2.95813307e-002 3.72756571e-002 5.52936681e-002
      2.85196543e-001 1.24520119e-002 4.64362511e-003 2.41411012e-003
      5.93080893e-002 1.37435257e-001 8.40447098e-002 1.21772867e-002
      2.76965206e-004 1.00969505e-002 1.60436134e-003 2.36525643e-003
      1.07121794e-002 2.79212385e-001 4.35868740e-001 4.35868740e-001
      2.84705702e-002 1.66179147e-004 7.36904622e-004 1.00461747e-002
      2.16654758e-003 2.09259950e-002 2.15530917e-001 2.31101453e-001
      3.70137431e-002 1.26719719e-003 1.49217853e-003 1.62082929e-002
      7.18596217e-004 3.09506810e-004 1.29325449e-001 4.35868740e-001
      4.35868740e-001 9.02348384e-002 7.60318362e-004 8.95307167e-004
      3.62690305e-003 4.06429291e-001 0. 2.88219191e-004 5.89547621e-004
      4.34024446e-002 1.21519759e-001 7.29728565e-002 2.67869681e-001
      4.06429291e-001 4.06429291e-001 0. 1.72931526e-004 3.53728567e-004
      3.96739546e-004 2.43871403e-003 4.14430536e-003 3.76899354e-002
      4.06429291e-001 1.62026346e-001 0. 2.01753434e-003 4.12683375e-003
      7.10516609e-003 5.80211310e-003 6.28038915e-003 2.15570703e-002
      2.04807967e-001 2.96180755e-001 0. 1.21052063e-003 2.47609988e-003
      3.03677493e-003 0. 0. 4.33242088e-003 2.88893104e-001
      4.08061832e-001 0. 0. 0. 9.35732678e-004 5.88040333e-004
      2.87483243e-004 0. 4.08061832e-001 4.08061832e-001 2.96407729e-001
      6.21253066e-002 2.11264547e-002 1.26410718e-003 3.52824223e-004
      1.72489948e-004 0. 4.08061832e-001 2.17825070e-001 3.48917209e-003
      0. 0. 7.83086102e-003 4.11628280e-003 2.01238273e-003 0.
      2.21358120e-001 2.79146582e-001 2.58696694e-002 0. 0.
      1.09833051e-002 2.46976968e-003 1.20742957e-003 0. 2.49874949e-001
      4.33108240e-001 0. 2.79716885e-004 5.72156277e-004 9.43952356e-004
      3.37549020e-003 9.62790381e-003 4.55952585e-002 4.33108240e-001
      4.33108240e-001 0. 1.67830134e-004 3.43293766e-004 1.17144838e-003
      0. 4.57589718e-004 1.52918845e-004 4.33108240e-001 2.00052321e-001
      2.30816868e-003 1.95801817e-003 4.00509406e-003 8.37124605e-003 0.
      1.92187668e-003 7.67088914e-003 2.16619954e-001 2.78311104e-001
      3.84694780e-003 1.17481092e-003 2.40305625e-003 8.45207833e-003 0.
      3.20312777e-003 3.10738268e-003 2.80148327e-001 3.40545714e-001
      2.38827795e-001 1.65378839e-001 5.24794683e-002 6.27031103e-002
      7.53140892e-004 3.68198176e-004 0. 3.40545714e-001 3.40545714e-001
      3.40545714e-001 2.75631428e-001 1.68435752e-001 3.40545714e-001
      4.51884553e-004 2.20918912e-004 0. 2.42704988e-001 2.69222528e-001
      3.14897373e-002 4.50332789e-003 0. 1.25240833e-002 5.27198659e-003
      2.57738726e-003 0. 2.31292754e-001 1.48574919e-001 4.77161668e-002
      7.50554632e-003 0. 5.37943058e-002 3.16319172e-003 1.54643226e-003
      0. 8.90034735e-002 0. 0. 0. 0. 0. 0. 0. 0. 0. 0. 0. 0. 0. 0. 0. 0.
      0. 0. 0. 0. 0. 0. 0. 0. 0. 0. 0. 0. 0. 0. 0. 0. 0. 0. 0. 0. 0. 0.
      0. 0. 0. 0. 0. 0. 0. 0. 0. 0. 0. 0. 0. 0. 0. 0. 0. 0. 0. 0. 0. 0.
      0. 0. 0. 0. 0. 0. 0. 0. 0. 0. 0. 0. 0. 0. 0. 0. 0. 0. 0. 0. 0. 0.
      0. 0. 0. 0. 0. 0. 0. 0. 0. 0. 0. 0. 0. 0. 0. 0. 0. 0. 0. 0. 0. 0.
      0. 0. 0. 0. 0. 0. 0. 0. 0. 0. 0. 0. 0. 0. 0. 0. 0. 0. 0. 0. 0. 0.
      0. 0. 0. 0. 0. 0. 0. 0. 0. 0. 0. 0. 0. 0. 0. 0. 0. 0. 0. 0. 0. 0.
      0. 0. 0. 0. 0. 0. 0. 0. 0. 0. 0. 0. 0. 0. 0. 0. 0. 0. 0. 0. 0. 0.
      0. 0. 0. 0. 0. 0. 0. 0. 0. 0. 0. 0. 0. 0. 0. 0. 0. 0. 0. 0. 0. 0.
      0. 0. 0. 0. 0. 0. 0. 0. 0. 0. 0. 0. 0. 0. 0. 0. 0. 0. 0. 0. 0. 0.
      0. 0. 0. 0. 0. 0. 0. 0. 0. 0. 0. 0. 0. 0. 0. 0. 0. 0. 0. 0. 0. 0.
      0. 0. 0. 0. 0. 0. 0. 0. 0. 0. 0. 0. 0. 0. 0. 0. 0. 0. 0. 0. 0. 0.
      0. 0. 0. 0. 0. 0. 0. 0. 0. 0. 0. 0. 0. 0. 0. 0. 0. 0. 0. 0. 0. 0.
      0. 0. 0. 0. 0. 0. 0. 0.</_>
    <_>
      6.42189607e-002 8.46903771e-002 6.93919808e-002 3.68908094e-003
      9.48509127e-002 2.43627210e-003 2.88235373e-003 4.49427515e-002
      2.06256032e-001 2.66318917e-002 1.23270936e-002 9.77244228e-003
      6.14846731e-003 1.20806254e-001 1.64335652e-003 6.09163055e-003
      2.69239023e-002 1.23908162e-001 3.64810005e-002 1.32924646e-001
      3.17609251e-001 2.69627184e-001 3.17609251e-001 2.19640732e-001
      2.50542402e-001 3.17609251e-001 3.17609251e-001 1.41283423e-002
      1.90218724e-002 9.46830288e-002 4.18910459e-002 3.17609251e-001
      2.51002520e-001 1.56926870e-001 1.96117908e-001 2.25743681e-001 0.
      0. 0. 0. 0. 0. 0. 0. 0. 0. 0. 0. 0. 0. 0. 0. 0. 0. 0. 0. 0. 0. 0.
      0. 0. 0. 0. 0. 0. 0. 0. 0. 0. 0. 0. 0. 0. 0. 0. 0. 0. 0. 0. 0. 0.
      0. 0. 0. 0. 0. 0. 0. 0. 0. 0. 0. 0. 0. 0. 0. 0. 0. 0. 0. 0. 0. 0.
      0. 0. 0. 0. 0. 0. 0. 0. 0. 0. 0. 0. 0. 0. 0. 0. 0. 0. 0. 0. 0. 0.
      0. 0. 0. 0. 0. 0. 0. 0. 0. 0. 0. 0. 0. 0. 0. 0. 0. 0. 0.
      6.23774758e-006 0. 0. 2.86671668e-002 4.97950137e-001
      2.84644160e-002 0. 0. 6.23774758e-006 0. 0. 0. 6.09345129e-003
      4.97950137e-001 3.72751169e-002 0. 0. 0. 0. 0. 0. 6.24778215e-003
      4.97950137e-001 7.20160222e-003 0. 0. 0. 0. 0. 0. 3.47335148e-003
      4.97950137e-001 6.91484008e-003 0. 0. 0. 0. 0. 0. 0. 0. 0. 0. 0.
      0. 0. 0. 0. 0. 0. 0. 0. 0. 0. 0. 0. 0. 0. 0. 0. 0. 0. 0. 0. 0. 0.
      0. 0. 0. 0. 0. 0. 0. 0. 0. 0. 0. 0. 0. 0. 0. 0. 0. 0. 0. 0. 0. 0.
      0. 0. 0. 0. 0. 0. 0. 0. 0. 0. 0. 0. 0. 0. 0. 0. 0. 0. 0. 0. 0. 0.
      0. 0. 0. 0. 0. 0. 0. 0. 0. 0. 0. 0. 0. 0. 0. 0. 0. 0. 0. 0. 0. 0.
      0. 0. 0. 0. 0. 0. 0. 0. 0. 0. 0. 0. 0. 0. 0. 4.42667305e-003
      4.98728752e-001 2.97679589e-003 0. 0. 0. 0. 0. 0. 2.83514755e-003
      4.98728752e-001 2.07325211e-003 0. 0. 0. 0. 0. 0. 4.14322969e-003
      4.98728752e-001 3.81335989e-003 0. 0. 0. 0. 0. 0. 4.44518914e-003
      4.98728752e-001 2.28801579e-003 0. 0. 0. 0. 0. 0. 0. 0. 0. 0. 0.
      0. 0. 0. 0. 0. 0. 0. 0. 0. 0. 0. 0. 0. 0. 0. 0. 0. 0. 0. 0. 0. 0.
      0. 0. 0. 0. 0. 0. 0. 0. 0. 0. 0. 0. 0. 0. 0. 0. 0. 0. 0. 0. 0. 0.
      0. 0. 0. 0. 0. 0. 0. 0. 0. 0. 0. 0. 0. 0. 0. 0. 0. 0. 0. 0. 0. 0.
      0. 0. 0. 0. 0. 0. 0. 0. 0. 0. 0. 0. 0. 0. 0. 0. 0. 0. 0. 0. 0. 0.
      0. 0. 0. 0. 0. 0. 0. 0. 0. 0. 0. 0. 0. 0. 0. 6.92228496e-004
      4.98749942e-001 9.79744596e-004 0. 0. 0. 0. 0. 0. 1.15371426e-003
      4.98749942e-001 1.63290766e-003 4.69194521e-004 1.56796552e-004 0.
      0. 0. 0. 1.15371426e-003 4.98749942e-001 1.39963508e-004 0. 0. 0.
      0. 0. 0. 1.92285702e-003 4.98749942e-001 2.33272527e-004
      1.35078316e-003 4.51407977e-004 0. 0. 0. 0. 0. 0. 0. 0. 0. 0. 0.
      0. 0. 0. 0. 0. 0. 0. 0. 0. 0. 0. 0. 0. 0. 0. 0. 0. 0. 0. 0. 0. 0.
      0. 0. 0. 0. 0. 0. 0. 0. 0. 0. 0. 0. 0. 0. 0. 0. 0. 0. 0. 0. 0. 0.
      0. 0. 0. 0. 0. 0. 0. 0. 0. 0. 0. 0. 0. 0. 0. 0. 0. 0. 0. 0. 0. 0.
      0. 0. 0. 0. 0. 0. 0. 0. 0. 0. 0. 0. 0. 0. 0. 0. 0. 0. 0. 0. 0. 0.
      0. 0. 0. 0. 0. 0. 0. 0. 0. 0. 0. 0. 0. 2.52789725e-003
      4.98719215e-001 2.17475509e-003 0. 0. 0. 0. 0. 0. 1.51673832e-003
      4.98719215e-001 3.04523250e-003 1.05143455e-003 3.51370923e-004 0.
      0. 0. 0. 6.62550097e-003 4.98719215e-001 5.71069214e-003 0. 0. 0.
      0. 6.58759018e-005 1.97125817e-004 4.14498430e-003 4.98719215e-001
      4.21944261e-003 3.95161944e-004 1.32056171e-004 0. 0. 0. 0. 0. 0.
      0. 0. 0. 0. 0. 0. 0. 0. 0. 0. 0. 0. 0. 0. 0. 0. 0. 0. 0. 0. 0. 0.
      0. 0. 0. 0. 0. 0. 0. 0. 0. 0. 0. 0. 0. 0. 0. 0. 0. 0. 0. 0. 0. 0.
      0. 0. 0. 0. 0. 2.43927449e-001 2.98115741e-002 8.92072544e-002 0.
      8.09782371e-002 0. 0. 0. 2.43927449e-001 6.53790116e-001
      1.78869460e-002 5.35243563e-002 0. 1.15683191e-002 0. 0. 0.
      6.53790116e-001 0. 0. 0. 0. 0. 0. 0. 0. 0. 0. 0. 0. 0. 0. 0. 0. 0.
      0. 3.10832649e-001 0. 0. 0. 7.98234046e-001 0. 2.51938403e-001
      8.41933712e-002 3.10832649e-001 0. 0. 0. 0. 0. 0. 0. 0. 0. 0. 0.
      0. 1.52926950e-003 4.98726994e-001 3.03501100e-003 0. 0. 0.
      6.55543554e-005 2.73991118e-005 8.19885827e-005 1.01441494e-003
      4.98726994e-001 1.51090405e-003 1.06926513e-004 3.57329627e-005
      6.55543554e-005 0. 0. 0. 6.02553412e-003 4.98726994e-001
      3.75295058e-003 0. 0. 0. 1.80473158e-004 3.43686726e-004 0.
      5.45183988e-003 4.98726994e-001 2.63698003e-003 1.45123433e-003
      4.22042911e-004 1.09257278e-004 9.30177867e-002 1.44373374e-002
      4.32018526e-002 0. 0. 0. 0. 0. 9.30177867e-002 1.35924235e-001
      4.15642411e-002 1.24375589e-001 0. 0. 0. 7.06195310e-002
      2.35998072e-002 1.35924235e-001 4.01821762e-001 1.37239575e-001
      1.16276629e-001 0. 2.62219235e-002 0. 1.06267855e-002
      3.55129410e-003 4.01821762e-001 4.01821762e-001 1.06479771e-001
      3.18627059e-001 0. 1.83553472e-001 9.47319344e-002 2.76511192e-001
      7.69282877e-002 4.01821762e-001 2.26353332e-001 3.91247571e-002
      1.17076121e-001 0. 1.77593440e-001 6.82904422e-002 1.40873641e-001
      1.64443880e-001 2.26353332e-001 3.96090388e-001 1.96814388e-002
      5.88943660e-002 0. 2.64449231e-002 9.75577906e-003 2.82780044e-002
      8.49701613e-002 3.96090388e-001 2.38347858e-001 4.60203923e-003
      1.37710553e-002 0. 4.12147157e-002 4.09742706e-002 1.38188288e-001
      1.16599977e-001 2.38347858e-001 3.96090388e-001 2.76122359e-003
      8.26263428e-003 0. 2.67872517e-003 5.85346716e-003 3.96915898e-002
      5.85763194e-002 3.96090388e-001 1.13900237e-001 1.25943407e-001
      2.45071515e-001 1.21799231e-001 2.42919981e-001 1.41660636e-002
      1.78428948e-001 4.93731424e-002 1.01728484e-001 1.03614353e-001
      1.90776493e-002 5.70874624e-002 0. 1.60453305e-001 0.
      8.06634054e-002 2.69562900e-002 1.03614353e-001 1.70798510e-001
      1.43420368e-001 3.66039693e-001 1.73998903e-002 4.12371218e-001
      2.02372344e-003 1.71029791e-001 5.56902699e-002 1.70798510e-001
      1.79533616e-001 5.99773563e-002 1.79474905e-001 0. 4.12371218e-001
      0. 1.99650005e-001 6.67195693e-002 1.79533616e-001 4.73073460e-002
      8.29938278e-002 2.61948496e-001 2.61948496e-001 2.61948496e-001
      6.70256838e-002 2.95121386e-003 5.21776779e-003 8.66774656e-003
      2.61948496e-001 2.50203460e-001 2.61948496e-001 2.10717961e-001
      1.43769965e-001 8.52384418e-002 5.14653977e-003 2.01109406e-002
      2.27275372e-001 2.00411342e-002 1.41042158e-001 2.61948496e-001
      2.48479620e-001 2.61948496e-001 3.84472236e-002 3.50337429e-003
      5.74938767e-002 1.05025634e-001 9.18966383e-002 1.90547958e-001
      2.61948496e-001 2.61948496e-001 1.32621899e-001 3.27806100e-002
      2.73787393e-003 1.22142835e-002 1.32812038e-001 2.89007902e-001
      5.12541854e-004 0. 0. 0. 1.80644536e-004 4.09103777e-005
      2.34522652e-002 2.89007902e-001 2.89007902e-001 8.54236307e-004 0.
      0. 9.28556994e-002 1.44124046e-001 2.73561031e-001 2.54611045e-001
      2.89007902e-001 2.89007902e-001 3.45860515e-003 0. 0.
      9.98213422e-004 3.71203735e-003 1.25509046e-004 1.93327274e-002
      2.62530863e-001 1.90746680e-001 5.76434191e-003 0. 7.48657109e-003
      2.89007902e-001 2.89007902e-001 2.62940526e-001 1.50368094e-001
      2.12793157e-001 3.34362656e-001 1.97776869e-001 1.75192624e-001
      8.67630914e-002 4.63106781e-002 0. 2.63811689e-005 1.84999823e-004
      3.34362656e-001 3.34362656e-001 2.14035194e-002 0. 1.69639723e-004
      1.43646366e-005 0. 0. 1.70524581e-004 3.34362656e-001
      1.98631108e-001 1.28114462e-001 1.54292181e-001 3.03928763e-001
      1.76789865e-001 2.87300092e-003 1.07935909e-003 2.87633645e-003
      2.05484778e-001 3.34362656e-001 1.90722290e-002 0. 3.12036439e-003
      9.09540686e-004 0. 6.47615525e-004 3.54734040e-003 3.34362656e-001
      3.15964490e-001 7.13931723e-003 5.04945463e-004 1.70259969e-003
      6.40055258e-003 8.74996334e-002 1.01472855e-001 1.08929567e-001
      3.15964490e-001 1.54090494e-001 4.23767604e-003 7.54539098e-004
      1.73595129e-003 1.36260659e-001 3.15964490e-001 3.15964490e-001
      1.81594208e-001 2.06450626e-001 2.24474162e-001 1.48290033e-002
      3.62775498e-003 3.22487988e-002 8.03062618e-002 1.70514226e-001
      9.72619802e-002 4.29315865e-002 1.59907147e-001 7.38193318e-002
      6.81128167e-003 2.12077098e-003 1.18484400e-001 3.15964490e-001
      3.15964490e-001 3.15964490e-001 6.99344352e-002 4.09255102e-002
      2.39444628e-001 1.04135112e-003 2.41360869e-002 1.30505249e-001
      3.31677645e-001 2.35138580e-001 9.56573486e-002 1.45027652e-001
      2.91541547e-001 3.31677645e-001 7.49238580e-003 1.44816525e-002
      6.20502420e-002 6.20547198e-002 7.99026489e-002 5.02352230e-002
      7.58691952e-002 3.31677645e-001 2.24691957e-001 0. 0.
      5.07903425e-003 7.24637583e-002 7.63842016e-002 2.19115093e-002
      1.20502219e-001 3.15174460e-001 3.31677645e-001 0. 0.
      7.25576305e-004 9.50166676e-003 1.72808915e-002 8.16689897e-003
      4.68623973e-002 3.31677645e-001 3.48205030e-001 6.28032431e-005 0.
      1.68965606e-004 1.29818858e-004 1.19445191e-004 1.00244081e-003
      8.29061173e-005 3.48205030e-001 3.48205030e-001 1.41037405e-001
      5.15706129e-002 1.84212681e-002 4.25361544e-002 4.59504128e-003
      7.01708579e-003 1.38176867e-004 3.48205030e-001 3.48205030e-001
      3.13279306e-004 9.37451143e-004 0. 6.57743716e-004 0.
      6.96635514e-004 2.32803955e-004 3.48205030e-001 3.48205030e-001
      4.13719751e-002 7.50115188e-003 0. 0. 0. 2.30143243e-003
      7.69100268e-004 3.48205030e-001 3.52014452e-001 3.44176823e-003
      2.56517134e-003 1.53069058e-003 1.91225186e-002 1.10412156e-002
      1.80790108e-002 6.34215325e-002 3.52014452e-001 3.52014452e-001
      6.15171972e-004 3.66453052e-004 0. 1.06680018e-004 1.13386268e-004
      0. 4.38502029e-005 3.52014452e-001 3.52014452e-001 1.12458663e-004
      3.36519181e-004 0. 8.17699358e-003 0. 2.58271559e-003
      1.40981702e-002 3.52014452e-001 3.52014452e-001 7.51794782e-004
      2.24965671e-003 0. 5.78865083e-003 0. 3.50351271e-004
      1.17081538e-004 3.52014452e-001 2.94680804e-001 1.52284205e-001
      1.39009893e-001 1.66510016e-001 8.25490654e-002 6.69616926e-003
      1.87355137e-004 3.68434761e-004 2.94680804e-001 2.44893759e-001
      2.54608512e-001 2.94680804e-001 2.94680804e-001 2.94680804e-001
      5.80079714e-003 0. 4.36891387e-005 1.31153062e-001 2.94680804e-001
      1.08636126e-001 3.23548913e-002 2.06395127e-002 1.74493883e-002 0.
      1.75012610e-004 5.84862901e-005 2.94680804e-001 2.81056851e-001
      1.83253840e-001 6.04889356e-002 8.98268074e-002 1.24069624e-001 0.
      0. 0. 1.29578635e-001</_>
    <_>
      0. 0. 0. 0. 0. 0. 0. 0. 0. 0. 0. 0. 0. 0. 0. 0. 0. 0. 0. 0. 0. 0.
      0. 0. 0. 0. 0. 6.28730774e-001 0. 0. 0. 0. 0. 0. 0.
      6.28730774e-001 0. 0. 0. 0. 0. 0. 0. 0. 0. 0. 0. 0. 0. 0. 0. 0. 0.
      0. 6.60258651e-001 0. 0. 0. 0. 0. 0. 0. 6.60258651e-001
      2.39099428e-001 0. 0. 0. 0. 0. 0. 0. 2.39099428e-001 0. 0. 0. 0.
      0. 0. 0. 0. 0. 0. 0. 0. 0. 0. 0. 0. 0. 0. 4.13093895e-001 0. 0. 0.
      0. 0. 0. 0. 4.13093895e-001 5.66114485e-001 0. 0. 0. 0. 0. 0. 0.
      5.66114485e-001 0. 0. 0. 0. 0. 0. 0. 0. 0. 0. 0. 0. 0. 0. 0. 0. 0.
      0. 5.51909924e-001 0. 0. 0. 0. 0. 5.58583736e-001 1.86669350e-001
      5.51909924e-001 0. 0. 0. 0. 0. 0. 7.97976777e-002 2.66670510e-002
      0. 0. 0. 0. 8.09485652e-003 6.79693371e-002 0. 0. 0. 0.
      1.16493642e-001 2.16158196e-001 2.93336451e-001 4.03899103e-001
      4.21375722e-001 0. 0. 0. 2.15242002e-002 0. 3.87326698e-003
      5.44618757e-004 4.40852307e-002 2.22913697e-001 2.85585294e-003 0.
      0. 0. 2.21804176e-002 7.78750032e-002 2.72936583e-001
      4.21375722e-001 4.21375722e-001 1.25472099e-001 6.27040258e-003
      1.35837414e-003 1.02728757e-003 3.59115809e-001 8.61764303e-004 0.
      0. 1.49009502e-004 0. 0. 1.31078658e-003 3.59115809e-001
      3.59115809e-001 5.95315220e-003 0. 0. 9.79881175e-003
      6.87078834e-002 1.32454783e-001 1.75846368e-001 3.59115809e-001
      2.97149330e-001 1.89024431e-003 1.94516051e-005 6.74749142e-004 0.
      0. 0. 2.40206369e-003 2.92673707e-001 3.04665208e-001
      1.26773259e-002 3.30510437e-002 8.92293602e-002 9.26150233e-002
      1.73643157e-001 1.16925679e-001 8.38970095e-002 3.02974403e-001
      3.32621008e-001 1.65907443e-001 2.89601475e-001 1.10395849e-001
      5.44756539e-002 4.85507911e-003 4.09103092e-003 1.18142553e-002
      3.32621008e-001 3.32621008e-001 2.25898437e-002 1.43659059e-002
      2.23716791e-003 4.64833295e-003 3.47868445e-005 2.91947770e-004
      7.08855316e-003 3.32621008e-001 1.29290953e-001 7.82157406e-002
      2.32365102e-001 2.38896966e-001 1.55397728e-001 1.30796313e-001
      8.49481225e-002 2.38468684e-002 1.61972061e-001 3.25478643e-001
      1.31610902e-002 1.09708821e-002 7.47490954e-003 1.49907414e-002
      1.61411369e-003 5.01257600e-003 1.60349309e-002 3.32621008e-001
      6.79578930e-002 0. 0. 3.20012006e-003 2.58415848e-001
      3.26490253e-001 3.26490253e-001 2.00361848e-001 2.33688742e-001
      1.48129591e-003 0. 0. 1.92007225e-003 1.55189827e-001
      1.26776323e-001 5.36187477e-002 2.01261882e-002 5.94205828e-003
      1.86164118e-002 5.45187650e-005 1.05974125e-002 1.32396713e-001
      3.26490253e-001 3.26490253e-001 3.26490253e-001 6.32472858e-002
      5.51880226e-002 0. 0. 6.35844795e-003 6.23490438e-002
      3.26490253e-001 3.26490253e-001 1.09317236e-001 3.81291867e-003
      7.04523176e-004 3.62734403e-003 1.41984886e-002 8.61530751e-002
      1.09799132e-001 4.02408183e-001 1.27055505e-002 1.68386772e-002 0.
      7.70175178e-003 5.16454428e-002 2.36641467e-002 1.58206567e-001
      2.28029162e-001 4.68242317e-001 1.36084408e-001 1.36835620e-001
      1.22280717e-002 9.78772268e-002 0. 0. 8.90563987e-003
      6.47598431e-002 4.68242317e-001 1.12929717e-002 2.40552519e-003 0.
      0. 1.38751010e-003 0. 1.48427337e-002 1.16695046e-001
      4.68242317e-001 9.83960107e-002 1.68386772e-002 0. 1.69452117e-003
      3.93108487e-001 0. 0. 0. 0. 0. 0. 0. 3.93108487e-001
      3.93108487e-001 9.10889059e-002 4.80536334e-002 1.54397130e-001
      3.93108487e-001 2.74248887e-002 4.53507481e-003 1.43065304e-001
      3.93108487e-001 4.96012904e-002 0. 0. 0. 0. 0. 0. 0.
      4.90858406e-002 4.77784760e-002 0. 0. 5.51043302e-002
      3.93108487e-001 0. 0. 2.04379018e-002 5.07468805e-002
      2.88083464e-001 1.43037692e-001 1.58977229e-002 1.11804984e-003
      3.87971967e-001 3.17172348e-001 1.51731148e-001 1.17751285e-001
      3.24912339e-001 3.87971967e-001 1.94235686e-002 2.27110321e-003 0.
      5.11448495e-002 2.32227426e-003 4.65651089e-003 2.21457127e-002
      3.87971967e-001 2.06249934e-002 2.04339568e-002 2.27110321e-003
      7.82634877e-003 3.87971967e-001 1.46153659e-001 1.75941512e-002
      6.25506917e-004 2.14359518e-002 5.09360470e-002 2.77479552e-003
      3.24443274e-004 0. 1.25433967e-001 0. 1.71928422e-003
      3.89078562e-003 4.86395136e-002 1.06007151e-001 4.07754853e-002
      1.11859724e-001 1.80131361e-001 4.52135324e-001 7.96012431e-002
      1.03627451e-001 9.83782858e-003 6.06380105e-002 1.69777926e-002
      1.60386153e-002 6.00381456e-002 1.07789643e-001 4.52135324e-001
      2.02232078e-001 9.30762663e-002 1.63963810e-002 4.83737066e-002
      3.36438557e-003 3.27578164e-005 1.38688320e-002 1.06202066e-001
      4.52135324e-001 3.69090028e-002 1.48039218e-002 0. 2.99699139e-003
      0. 0. 8.26248620e-003 7.19843805e-002 4.52135324e-001
      1.12389579e-001 1.32966097e-002 0. 0. 0. 0. 0. 1.10122759e-003
      4.98739928e-001 8.90623312e-004 0. 0. 0. 0. 0. 0. 4.45876922e-003
      4.98739928e-001 1.87436119e-003 0. 0. 0. 0. 0. 0. 2.19788938e-003
      4.98739928e-001 5.11309248e-004 0. 0. 0. 0. 0. 0. 4.64907149e-003
      4.98739928e-001 8.52181984e-004 0. 0. 0. 0. 0. 0. 0. 0. 0. 0. 0.
      0. 0. 0. 0. 6.11274550e-003 7.04588354e-001 0. 0. 0. 0. 0. 0. 0.
      0. 0. 0. 0. 0. 0. 0. 0. 0. 6.30651508e-003 7.04588354e-001 0. 0.
      0. 0. 0. 0. 0. 1.76535294e-004 6.80229127e-001 6.69979071e-003 0.
      0. 0. 0. 0. 0. 0. 1.57606259e-001 0. 0. 0. 0. 0. 0. 0.
      1.23574701e-003 6.80229127e-001 2.71586026e-003 0. 0. 0. 0. 0. 0.
      0. 2.07104564e-001 0. 0. 0. 0. 0. 0. 0. 0. 4.98753130e-001 0. 0.
      0. 0. 0. 0. 0. 0. 4.98753130e-001 0. 0. 0. 0. 0. 0. 0. 0.
      4.98753130e-001 0. 0. 0. 0. 0. 0. 0. 0. 4.98753130e-001 0. 0. 0.
      0. 0. 0. 0. 0. 4.98753130e-001 0. 0. 0. 0. 0. 0. 0. 0.
      4.98753130e-001 0. 0. 0. 0. 0. 0. 0. 0. 4.98753130e-001 0. 0. 0.
      0. 0. 0. 0. 0. 4.98753130e-001 0. 0. 0. 0. 0. 0. 0. 0. 0. 0. 0. 0.
      0. 0. 0. 0. 0. 7.04615593e-001 0. 0. 0. 0. 0. 0. 0. 0. 0. 0. 0. 0.
      0. 0. 0. 0. 0. 7.04615593e-001 0. 0. 0. 0. 0. 0. 0. 0.
      6.80335224e-001 0. 0. 0. 0. 0. 0. 0. 0. 1.57597840e-001 0. 0. 0.
      0. 0. 0. 0. 0. 6.80335224e-001 0. 0. 0. 0. 0. 0. 0. 0.
      2.06541255e-001 0. 0. 0. 0. 0. 0. 0. 0. 4.98753130e-001 0. 0. 0.
      0. 0. 0. 0. 0. 4.98753130e-001 0. 0. 0. 0. 0. 0. 0. 0.
      4.98753130e-001 0. 0. 0. 0. 0. 0. 0. 0. 4.98753130e-001 0. 0. 0.
      0. 0. 0. 0. 0. 4.98738915e-001 0. 0. 0. 0. 0. 0. 0. 0.
      4.98738915e-001 0. 0. 0. 0. 0. 0. 0. 8.18332366e-004
      4.98738915e-001 2.37449375e-003 0. 0. 0. 0. 0. 0. 1.36388710e-003
      4.98738915e-001 6.98302547e-003 0. 0. 0. 0. 0. 0. 0. 0. 0. 0. 0.
      0. 0. 0. 0. 0. 7.04609096e-001 0. 0. 0. 0. 2.21912330e-003 0. 0.
      0. 0. 0. 0. 0. 2.21912330e-003 2.06748885e-003 0. 0. 0.
      7.04609096e-001 0. 0. 0. 2.06748885e-003 0. 0. 0. 0.
      6.80290639e-001 0. 0. 0. 0. 0. 0. 0. 0. 1.57724038e-001 0. 0. 0.
      0. 3.24547058e-004 0. 0. 3.24035238e-004 6.80290639e-001
      3.02399672e-003 0. 0. 3.24547058e-004 1.42495323e-003 0. 0. 0.
      2.06706658e-001 0. 0. 0. 1.42495323e-003 0. 0. 0. 2.18135840e-003
      4.98733521e-001 0. 0. 0. 0. 0. 0. 0. 1.30881509e-003
      4.98733521e-001 0. 0. 0. 0. 0. 0. 0. 4.42879600e-003
      4.98733521e-001 2.49906967e-004 0. 0. 0. 0. 0. 0. 7.01926788e-003
      4.98733521e-001 1.74934871e-003 0. 0. 0. 1.05244517e-002
      1.58384945e-002 0. 1.40749123e-002 2.16336519e-001 1.17376775e-001
      2.28763789e-001 3.50376852e-002 1.03255291e-003 1.93091199e-001
      2.98157036e-001 7.21117631e-002 1.95933878e-001 2.98746943e-001
      2.98746943e-001 2.98746943e-001 2.43385881e-001 1.67342592e-002
      1.50349317e-003 2.26264214e-003 0. 1.73686892e-002 1.61945030e-001
      6.76911995e-002 7.66571760e-002 2.15520076e-002 6.19531784e-004
      5.91338649e-002 1.30903319e-001 1.20268270e-001 2.98746943e-001
      2.98746943e-001 2.98746943e-001 1.53313369e-001 1.46452412e-001
      4.33672266e-003 3.47589731e-001 0. 0. 0. 2.47112421e-005 0. 0.
      2.68264957e-005 3.47589731e-001 3.47589731e-001 0. 4.43043076e-002
      5.42668700e-002 7.90813267e-002 4.94800992e-002 4.32115756e-002
      1.10160567e-001 3.47589731e-001 3.17559391e-001 8.62235262e-004
      1.34265370e-004 0. 0. 0. 1.83896802e-004 2.54163309e-003
      3.17721695e-001 3.47589731e-001 4.16362006e-003 2.11877446e-003
      7.47631267e-002 1.38731718e-001 7.27634281e-002 7.33065829e-002
      8.17209110e-002 3.47589731e-001 3.17912370e-001 1.63701415e-001
      2.49751776e-001 2.19898596e-001 5.54077178e-002 7.85947964e-002
      1.41271390e-003 3.30106840e-002 3.17912370e-001 3.17912370e-001
      1.66293513e-002 1.56049291e-002 1.09233418e-002 5.63112646e-003
      1.12278285e-002 2.72833186e-005 8.19179229e-003 3.17912370e-001
      1.44893840e-001 1.27888218e-001 2.91133434e-001 2.51309991e-001
      1.29453957e-001 9.00066867e-002 2.19416879e-002 3.19305547e-002
      1.69786200e-001 3.17912370e-001 1.32404603e-002 1.41297439e-002
      2.32129972e-002 5.56165166e-003 9.35306214e-003 1.38072099e-003
      1.39370672e-002 3.17912370e-001 1.74276352e-001 2.06805214e-001
      1.53422505e-001 1.45128712e-001 2.40409672e-001 2.70322591e-001
      1.19821578e-001 2.40727946e-001 1.44658893e-001 7.83569589e-002
      2.09061608e-001 1.81060731e-001 1.92577511e-001 2.70322591e-001
      1.39638156e-001 5.99089712e-002 6.49421513e-002 0. 6.91049397e-002
      9.12571698e-002 1.02080911e-001 2.70322591e-001 2.70322591e-001
      2.70322591e-001 3.81224602e-002 1.14208885e-001 5.13034798e-002
      4.30939049e-002 1.17333457e-001 9.96973887e-002 1.64232597e-001
      2.70322591e-001 2.22105712e-001 1.06957499e-002 2.06308234e-002 0.
      0. 0. 0. 0. 1.23919159e-001 0. 0. 0. 0. 4.38598365e-001 0. 0. 0.
      4.38598365e-001 6.04457073e-002 4.38598365e-001 4.38598365e-001
      4.38598365e-001 0. 0. 0. 0. 1.70801219e-003 0. 0. 0. 0.
      8.47248733e-002 0. 0. 0. 2.01733764e-002 0. 0. 0. 8.47248733e-002
      4.86661166e-001 0. 0. 0. 4.35801892e-004 0. 0. 0. 4.86661166e-001
      4.86661166e-001 1.44922629e-001 4.96614575e-002 4.31797653e-003
      3.77981435e-003 0. 0. 0. 4.86661166e-001 6.80755302e-002 0. 0. 0.
      2.61481124e-004 0. 0. 0. 6.80755302e-002 8.66233781e-002 0. 0. 0.
      2.26788875e-003 0. 0. 0. 8.66233781e-002 4.75463390e-001 0. 0. 0.
      1.91782229e-002 1.72123816e-002 1.85084254e-001 1.77756473e-001
      4.75463390e-001 4.75463390e-001 0. 0. 0. 4.24392195e-003 0.
      6.92598568e-003 2.36449540e-002 4.75463390e-001 6.09994940e-002 0.
      0. 0. 1.03431353e-002 0. 0. 0. 6.09994940e-002 9.02245417e-002 0.
      0. 0. 4.09114547e-003 0. 0. 0. 9.02245417e-002 4.17753279e-001
      4.17753279e-001 2.93059468e-001 2.67980009e-001 4.17753279e-001 0.
      0. 0. 4.17753279e-001 7.96315372e-002 1.16082177e-001
      4.18656394e-002 1.26333788e-001 2.87530303e-001 0. 0. 0.
      4.73080538e-002 9.32903141e-002 0. 0. 0. 9.45893116e-003 0. 0. 0.
      9.32903141e-002 7.43111921e-003 0. 0. 0. 3.40170530e-003 0. 0. 0.
      7.43111921e-003</_>
    <_>
      0. 0. 0. 0. 0. 0. 0. 0. 0. 0. 0. 0. 0. 0. 0. 0. 0. 0. 0. 0. 0. 0.
      0. 0. 0. 0. 0. 0. 0. 0. 0. 0. 0. 0. 0. 0. 0. 0. 0. 0. 0. 0. 0. 0.
      0. 0. 0. 0. 0. 0. 0. 0. 0. 0. 0. 0. 0. 0. 0. 0. 0. 0. 0. 0. 0. 0.
      0. 0. 0. 0. 0. 0. 0. 0. 0. 0. 0. 0. 0. 0. 0. 0. 0. 0. 0. 0. 0. 0.
      0. 0. 0. 0. 0. 0. 0. 0. 0. 0. 0. 0. 0. 0. 0. 0. 0. 0. 0. 0. 0. 0.
      0. 0. 0. 0. 0. 0. 0. 0. 0. 0. 0. 0. 0. 0. 0. 0. 0. 0. 0. 0. 0. 0.
      0. 0. 0. 0. 0. 0. 0. 0. 0. 0. 0. 0. 0. 0. 0. 0. 0. 0. 0. 0. 0. 0.
      0. 0. 0. 0. 0. 0. 0. 0. 0. 0. 0. 0. 0. 0. 0. 0. 0. 0. 0. 0. 0. 0.
      0. 0. 0. 0. 0. 0. 0. 0. 0. 0. 0. 0. 0. 0. 0. 0. 0. 0. 0. 0. 0. 0.
      0. 0. 0. 0. 0. 0. 0. 0. 0. 0. 0. 0. 0. 0. 0. 0. 0. 0. 0. 0. 0. 0.
      0. 0. 0. 0. 0. 0. 0. 0. 0. 0. 0. 0. 0. 0. 0. 0. 0. 0. 0. 0. 0. 0.
      0. 0. 0. 0. 0. 0. 0. 0. 0. 0. 0. 0. 0. 0. 0. 0. 0. 0. 0. 0. 0. 0.
      0. 0. 0. 0. 0. 0. 0. 0. 0. 0. 0. 0. 0. 0. 0. 0. 0. 0. 0. 0. 0. 0.
      0. 0. 0. 0. 0. 0. 0. 0. 0. 0. 0. 0. 0. 0. 0. 0. 0. 0. 0. 0. 0. 0.
      0. 0. 0. 0. 0. 0. 0. 0. 0. 0. 0. 0. 0. 0. 0. 0. 0. 0. 0. 0. 0. 0.
      0. 0. 0. 0. 0. 0. 0. 0. 0. 0. 0. 0. 0. 0. 0. 0. 0. 0. 0. 0. 0. 0.
      0. 0. 0. 0. 0. 0. 0. 0. 0. 0. 0. 0. 0. 0. 0. 0. 0. 0. 0. 0. 0. 0.
      0. 0. 0. 0. 0. 0. 0. 0. 0. 0. 0. 0. 0. 0. 0. 0. 0. 0. 0. 0. 0. 0.
      0. 0. 0. 0. 0. 0. 0. 0. 0. 0. 0. 0. 0. 0. 0. 0. 0. 0. 0. 0. 0. 0.
      0. 0. 0. 0. 0. 0. 0. 0. 0. 0. 0. 0. 0. 0. 0. 0. 0. 0. 0. 0. 0. 0.
      0. 0. 0. 0. 0. 0. 0. 0. 0. 0. 0. 0. 0. 0. 0. 0. 0. 0. 0. 0. 0. 0.
      0. 0. 0. 0. 0. 0. 0. 0. 0. 0. 0. 0. 0. 0. 0. 0. 0. 0. 0. 0. 0. 0.
      0. 0. 0. 0. 0. 0. 0. 0. 0. 0. 0. 0. 0. 0. 0. 0. 0. 0. 0. 0. 0. 0.
      0. 0. 0. 0. 0. 0. 0. 0. 0. 0. 0. 0. 0. 0. 0. 0. 0. 0. 0. 0. 0. 0.
      0. 0. 0. 0. 0. 0. 0. 0. 0. 0. 0. 0. 0. 0. 0. 0. 0. 0. 0. 0. 0. 0.
      0. 0. 0. 0. 0. 0. 0. 0. 0. 0. 0. 0. 0. 0. 0. 0. 0. 0. 0. 0. 0. 0.
      0. 0. 0. 0. 0. 0. 0. 0. 0. 0. 0. 0. 0. 0. 0. 0. 0. 0. 0. 0. 0. 0.
      0. 0. 0. 0. 0. 0. 0. 0. 0. 0. 0. 0. 0. 0. 0. 0. 0. 0. 0. 0. 0. 0.
      0. 0. 0. 0. 0. 0. 0. 0. 0. 0. 0. 0. 0. 0. 0. 0. 0. 0. 0. 0. 0. 0.
      0. 0. 0. 0. 0. 0. 0. 0. 0. 0. 0. 0. 0. 0. 0. 0. 0. 0. 0. 0. 0. 0.
      0. 0. 0. 0. 0. 0. 0. 0. 0. 0. 0. 0. 0. 0. 0. 0. 0. 0. 0. 0. 0. 0.
      0. 0. 0. 0. 0. 0. 0. 0. 0. 0. 0. 0. 0. 0. 0. 0. 0. 0. 0. 0. 0. 0.
      0. 0. 0. 0. 0. 0. 0. 0. 0. 0. 0. 0. 0. 0. 0. 0. 0. 0. 0. 0. 0. 0.
      0. 0. 0. 0. 0. 0. 0. 0. 0. 0. 0. 0. 0. 0. 0. 0. 0. 0. 0. 0. 0. 0.
      0. 0. 0. 0. 0. 0. 0. 0. 0. 0. 0. 0. 0. 0. 0. 0. 0. 0. 0. 0. 0. 0.
      0. 0. 0. 0. 0. 0. 0. 0. 0. 0. 0. 0. 0. 0. 0. 0. 0. 0. 0. 0. 0. 0.
      0. 0. 0. 0. 0. 0. 0. 0. 0. 0. 0. 0. 0. 0. 0. 0. 0. 0. 0. 0. 0. 0.
      0. 0. 0. 0. 0. 0. 0. 0. 0. 0. 0. 0. 0. 0. 0. 0. 0. 0. 0. 0. 0. 0.
      0. 0. 0. 0. 0. 0. 0. 0. 0. 0. 0. 0. 0. 0. 0. 0. 0. 0. 0. 0. 0. 0.
      0. 0. 0. 0. 0. 0. 0. 0. 0. 0. 0. 0. 0. 0. 0. 0. 0. 0. 0. 0. 0. 0.
      0. 0. 0. 0. 0. 0. 0. 0. 0. 0. 0. 0. 0. 0. 0. 0. 0. 0. 0. 0. 0. 0.
      0. 0. 0. 0. 0. 0. 0. 0. 0. 0. 0. 0. 0. 0. 0. 0. 0. 0. 0. 0. 0. 0.
      0. 0. 0. 0. 0. 0. 0. 0. 0. 0. 0. 0. 0. 0. 0. 0. 0. 0. 0. 0. 0. 0.
      0. 0. 0. 0. 0. 0. 0. 0. 0. 0. 0. 0. 0. 0. 0. 0. 0. 0. 0. 0. 0. 0.
      0. 0. 0. 0. 0. 0. 0. 0. 0. 0. 0. 0. 0. 0. 0. 0. 0. 0. 0. 0. 0. 0.
      0. 0. 0. 0. 0. 0. 0. 0. 0. 0. 0. 0. 0. 0. 0. 0. 0. 0. 0. 0. 0. 0.
      0. 0. 0. 0. 0. 0. 0. 0. 0. 0. 0. 0. 0. 0. 0. 0. 0. 0. 0. 0. 0. 0.
      0. 0. 0. 0. 0. 0. 0. 0. 0. 0. 0. 0. 0. 0. 0. 0. 0. 0. 0. 0. 0. 0.
      0. 0. 0. 0. 0. 0. 0. 0. 0. 0. 0. 0. 0. 0. 0. 0. 0. 0. 0. 0. 0. 0.
      0. 0. 0. 0. 0. 0. 0. 0. 0. 0. 0. 0. 0. 0. 0. 0. 0. 0. 0. 0. 0. 0.
      0. 0. 0. 0. 0. 0. 0. 0. 0. 0. 0. 0. 0. 0. 0. 0. 0. 0. 0. 0. 0. 0.
      0. 0. 0. 0. 0. 0. 0. 0. 0. 0. 0. 0. 0. 0. 0. 0. 0. 0. 0. 0. 0. 0.
      0. 0. 0. 0. 0. 0. 0. 0.</_>
    <_>
      1.96376085e-001 1.26442939e-001 3.69186886e-002 5.73276468e-002
      1.11003339e-001 1.01558253e-001 1.22099675e-001 1.67338088e-001
      1.71953753e-001 1.45415232e-001 1.42968833e-001 6.05612397e-002
      1.92809254e-001 2.80124962e-001 2.65637845e-001 9.15827155e-002
      1.53878868e-001 1.42932132e-001 2.08746985e-001 5.31362332e-002
      7.74930865e-002 6.31081015e-002 1.66684791e-001 2.80124962e-001
      2.56240219e-001 2.08791375e-001 1.33169711e-001 8.97577181e-002
      7.83706009e-002 1.30472049e-001 1.65537283e-001 1.53103814e-001
      2.80124962e-001 2.57408708e-001 1.76433474e-001 1.06665954e-001
      3.59719433e-002 6.84057921e-002 2.65941676e-002 8.58407244e-002
      2.55657732e-001 1.48133636e-001 1.70683563e-001 1.08021282e-001
      8.46939683e-002 1.62715524e-001 1.63910598e-001 1.15226023e-001
      2.14065328e-001 2.55657732e-001 1.04059994e-001 1.86009780e-001
      1.18409380e-001 1.84412569e-001 7.68043995e-002 4.61613871e-002
      2.19407156e-002 9.87286642e-002 2.55657732e-001 2.55657732e-001
      1.60826921e-001 2.55657732e-001 1.71397388e-001 1.60366565e-001
      9.12293866e-002 7.97650367e-002 2.55657732e-001 2.55657732e-001
      1.75364107e-001 1.09381124e-001 1.67539239e-001 2.55657732e-001
      1.79447219e-001 1.00054525e-001 1.48559496e-001 1.85600773e-001
      9.75071862e-002 2.50394940e-001 1.73561513e-001 7.49863982e-002
      1.66727856e-001 1.49648279e-001 1.60222113e-001 1.62795559e-001
      1.26819253e-001 2.08381668e-001 2.50394940e-001 4.41278778e-002
      1.44271739e-002 5.20718209e-002 1.11518562e-001 6.47938028e-002
      1.45953447e-001 2.08571404e-001 1.64715588e-001 2.50394940e-001
      1.86956525e-001 1.33530155e-001 2.50394940e-001 2.47885302e-001
      1.42652720e-001 1.84657902e-001 1.40362918e-001 2.27062434e-001
      2.50394940e-001 1.21218249e-001 3.67553420e-002 9.34532359e-002
      4.01894487e-002 5.87944761e-002 9.27550942e-002 2.58942008e-001
      2.58942008e-001 2.62255371e-002 9.03560147e-002 9.89995077e-002
      4.21027131e-002 8.75067413e-002 7.65183866e-002 1.09978318e-001
      2.58942008e-001 2.58942008e-001 5.34054153e-002 1.10806458e-001
      1.30256489e-001 2.08372161e-001 1.50806963e-001 2.24848941e-001
      2.58942008e-001 2.58942008e-001 1.90491319e-001 1.03540875e-001
      7.25529119e-002 7.35073686e-002 8.93998984e-003 1.41618922e-001
      2.36493275e-001 2.58942008e-001 2.58942008e-001 2.58942008e-001
      6.34689927e-002 9.99031439e-002 1.48113191e-001 1.25470757e-001
      1.80882722e-001 1.24984466e-001 1.74314305e-001 1.23143472e-001
      7.43323192e-002 7.87129104e-002 7.68578649e-002 1.52757168e-001
      1.93641901e-001 1.79995462e-001 7.01892450e-002 1.49466082e-001
      1.74577206e-001 2.72757202e-001 5.69432154e-002 8.97086337e-002
      1.32560581e-001 1.44373044e-001 1.91905782e-001 6.57525733e-002
      6.43711388e-002 7.22210035e-002 2.72757202e-001 8.71359780e-002
      2.12010652e-001 2.08858609e-001 2.63562560e-001 1.24684468e-001
      2.78647449e-002 1.34273142e-001 1.21033207e-001 2.72757202e-001
      5.52554540e-002 2.72757202e-001 2.72757202e-001 2.11898148e-001
      1.72760114e-001 1.57298535e-001 1.38354972e-001 1.85623959e-001
      2.53533095e-001 4.44841720e-002 4.46379781e-002 2.85379756e-002
      2.04553232e-002 1.30899742e-001 2.26977155e-001 2.53533095e-001
      2.06207439e-001 2.18126476e-001 2.53533095e-001 7.05258176e-002
      9.03824642e-002 1.65674631e-002 1.03355803e-001 9.32605565e-002
      1.52335048e-001 1.94463432e-001 2.53533095e-001 1.29772186e-001
      8.36217776e-002 6.23815879e-002 1.02957122e-001 1.38043955e-001
      1.86802357e-001 1.80586711e-001 2.31571019e-001 2.53533095e-001
      2.41825044e-001 2.22854227e-001 1.13062866e-001 1.03279635e-001
      6.47027865e-002 2.71872252e-001 1.32950023e-001 1.43232480e-001
      7.28894845e-002 2.06111118e-001 1.13059849e-001 4.07427400e-002
      1.48787545e-002 6.68866783e-002 2.21966833e-001 9.04506668e-002
      3.39291953e-002 6.42311797e-002 2.71872252e-001 2.71872252e-001
      1.76365256e-001 6.52593151e-002 8.97496492e-002 2.71872252e-001
      7.12799504e-002 1.07251711e-001 2.71872252e-001 2.71872252e-001
      1.12072214e-001 5.10097779e-002 4.97759357e-002 1.26748964e-001
      2.71872252e-001 1.41518146e-001 3.07561029e-002 2.09487751e-001
      2.71872252e-001 2.45237976e-001 7.22809881e-002 9.99873877e-002
      4.25274782e-002 2.12894857e-001 4.64418568e-002 8.18584785e-002
      2.35811219e-001 9.67020541e-002 2.62499571e-001 1.82811633e-001
      7.07393885e-002 2.32545242e-001 4.08761241e-002 2.13720407e-002
      5.54620363e-002 2.62968838e-001 2.62968838e-001 8.37684199e-002
      8.47160146e-002 1.56945944e-001 3.49151678e-002 1.35102510e-001
      7.25719333e-002 1.57818750e-001 1.29400432e-001 2.09577650e-001
      2.47988909e-001 1.39500961e-001 1.38130859e-001 2.22976357e-001
      1.96641430e-001 2.10740611e-001 2.62968838e-001 1.09018452e-001
      2.62968838e-001 5.44175170e-002 9.59225968e-002 1.64860457e-001
      1.91038679e-002 1.38659254e-001 2.82114714e-001 2.52356559e-001
      1.40894398e-001 2.26373617e-002 3.75138670e-002 1.46041848e-002
      1.99400745e-002 4.58275825e-002 1.19036011e-001 2.65406311e-001
      2.82114714e-001 2.62795419e-001 1.08642697e-001 7.44295344e-002
      6.76726550e-002 2.72330474e-002 2.55212262e-002 2.82114714e-001
      1.78106040e-001 2.02350110e-001 2.82114714e-001 3.26298811e-002
      5.92025183e-002 2.47748774e-002 3.35177071e-002 1.84999760e-002
      2.82114714e-001 2.54231721e-001 2.82114714e-001 2.82114714e-001
      3.58494595e-002 5.51417470e-003 9.42920074e-002 3.40389684e-002
      5.38748764e-002 6.53138459e-002 1.09144941e-001 1.54676750e-001
      1.89168975e-001 8.33837762e-002 1.20535731e-001 7.72945061e-002
      1.00200653e-001 6.01431951e-002 1.52605370e-001 1.61341563e-001
      1.28177688e-001 1.54361293e-001 1.39588982e-001 1.78881571e-001
      5.56991696e-002 2.24552453e-001 3.28000300e-002 1.12130277e-001
      2.59444565e-001 1.11244887e-001 2.16386169e-001 2.59444565e-001
      2.36990422e-001 1.50327384e-001 1.01265103e-001 4.71939258e-002
      2.59444565e-001 2.59444565e-001 2.59444565e-001 1.00544274e-001
      2.48440653e-001 2.59444565e-001 6.27039075e-002 1.97969526e-001
      1.12548813e-001 6.15669489e-002 1.13017105e-001 1.64771080e-001
      1.08406611e-001 8.95132646e-002 2.06527278e-001 1.49993002e-001
      2.08464209e-002 1.42249092e-001 1.13828599e-001 1.21502861e-001
      1.68369159e-001 2.24569663e-001 1.22632198e-001 1.83570653e-001
      1.72238082e-001 1.04240566e-001 1.75645873e-001 2.52055436e-001
      1.74171492e-001 2.30195045e-001 1.30701616e-001 1.40794009e-001
      2.52055436e-001 9.93177742e-002 5.92083335e-002 2.52055436e-001
      1.88142061e-001 1.50802895e-001 1.65504873e-001 2.25640997e-001
      1.98395476e-001 2.52055436e-001 1.30428597e-001 1.68373913e-001
      6.16044179e-002 7.34348968e-002 4.30640429e-002 1.29187644e-001
      8.66813064e-002 2.00239480e-001 1.26287073e-001 2.18569010e-001
      6.26643226e-002 5.60231693e-002 1.42388865e-001 1.85117945e-001
      2.38763005e-001 2.07871571e-001 2.39427552e-001 1.03864767e-001
      1.21510915e-001 4.33665104e-002 7.67370462e-002 2.67264783e-001
      1.60131067e-001 1.14818498e-001 7.25408122e-002 2.67264783e-001
      2.67264783e-001 1.75857440e-001 6.19286336e-002 7.93009922e-002
      2.67264783e-001 2.67264783e-001 2.41394281e-001 6.62728101e-002
      1.59907401e-001 2.67264783e-001 5.34985699e-002 3.12563181e-002
      1.87984452e-001 1.15352832e-001 1.71565428e-001 7.19990134e-002
      9.37157124e-002 1.22133993e-001 8.66419524e-002 4.57397811e-002
      1.32894725e-001 6.45875186e-002 1.76547080e-001 2.13013187e-001
      7.50939399e-002 1.41682521e-001 2.61351228e-001 1.14203647e-001
      5.56068942e-002 2.67378658e-001 2.76007831e-001 1.01096816e-001
      1.98819768e-002 7.90311769e-002 2.76007831e-001 1.88720033e-001
      1.60484612e-001 1.25896588e-001 1.89167216e-001 1.16171770e-001
      6.68408945e-002 1.90146733e-002 1.44982904e-001 2.76007831e-001
      2.76007831e-001 1.76118329e-001 1.39750406e-001 2.76007831e-001
      7.19078705e-002 1.28713742e-001 1.72590241e-001 8.11836421e-002
      1.13124721e-001 1.32656962e-001 7.12793171e-002 9.54072699e-002
      6.76950440e-002 2.72825304e-002 1.05927587e-001 2.40354285e-001
      8.27092379e-002 1.28489494e-001 1.79444864e-001 2.67084897e-001
      1.90165535e-001 6.50215521e-002 3.10516451e-002 1.04290411e-001
      2.29830891e-001 9.66683924e-002 2.67084897e-001 2.02930138e-001
      2.43895128e-001 4.19100411e-002 1.32053504e-002 1.04290932e-001
      2.67084897e-001 2.67084897e-001 1.72475845e-001 2.67084897e-001
      2.67084897e-001 2.67084897e-001 8.34411755e-002 2.90834904e-002
      9.35532376e-002 2.44553797e-002 6.74251541e-002 1.83897823e-001
      2.02143267e-001 1.92733943e-001 1.58982992e-001 1.09721452e-001
      9.74438339e-002 4.67173494e-002 7.17516690e-002 1.45271927e-001
      2.45515212e-001 2.11743265e-001 2.84847707e-001 2.41204500e-001
      2.27403473e-002 3.69340815e-002 1.13005310e-001 3.38110304e-003
      2.84847707e-001 2.84847707e-001 1.73185319e-001 4.83975336e-002
      5.09651937e-002 7.60747939e-002 1.69852719e-001 1.16837204e-001
      3.29959951e-002 2.84847707e-001 2.84847707e-001 2.84847707e-001
      1.94252625e-001 5.38312979e-002 1.83106586e-002 7.82570243e-002
      8.49783346e-002 2.98229661e-002 6.89742789e-002 2.65384354e-002
      1.90081775e-001 2.21510962e-001 1.48330420e-001 1.03852913e-001
      6.70986846e-002 9.78831202e-002 2.99772713e-002 9.92826093e-003
      2.47487184e-002 2.82587916e-001 2.34502643e-001 2.57799983e-001
      1.85708418e-001 7.84129053e-002 5.16291857e-002 4.79379576e-003
      9.15159360e-002 1.60715938e-001 2.50813603e-001 1.54408187e-001
      2.82587916e-001 2.82587916e-001 1.33996323e-001 9.30199474e-002
      1.87347196e-002 8.24473575e-002 1.79628462e-001 2.82587916e-001
      7.51738846e-002 2.82587916e-001 2.70736873e-001 1.41216666e-001
      2.89187551e-001 7.27035031e-002 4.40394804e-002 9.25665647e-002
      1.31073460e-001 1.75874054e-001 7.27270618e-002 1.12503089e-001
      9.76875499e-002 2.92233050e-001 2.39465684e-001 1.58119887e-001
      1.05760209e-001 1.27039909e-001 1.58072174e-001 5.07961586e-002
      6.91541061e-002 7.48591647e-002 2.92233050e-001 1.66448087e-001
      1.92098022e-002 3.32608409e-002 8.04621726e-002 1.50057912e-001
      8.45781043e-002 1.95654675e-001 2.11847320e-001 2.92233050e-001
      2.92233050e-001 1.73242867e-001 2.92233050e-001 1.82985589e-001
      6.37992769e-002 2.36723404e-002 1.04131341e-001 1.41334340e-001
      2.06684694e-001 1.58211410e-001 1.36107221e-001 1.09789915e-001
      1.46629632e-001 6.50298744e-002 8.24537799e-002 5.79321831e-002
      8.25397223e-002 2.61945605e-001 1.46090597e-001 1.73970953e-001
      2.00855568e-001 6.88370392e-002 9.18305293e-002 1.78413510e-001
      7.54036456e-002 2.00694114e-001 7.75428489e-002 1.69030845e-001
      2.61945605e-001 1.98997155e-001 1.89667404e-001 9.31668505e-002
      1.05684772e-001 8.39233994e-002 2.05348164e-001 1.29141375e-001
      1.54227957e-001 2.61945605e-001 2.61945605e-001 1.53354734e-001
      8.35326985e-002 2.61945605e-001 1.34072348e-001 2.49417514e-001
      1.42974108e-001 9.43434462e-002 1.23224489e-001 1.25981793e-001
      1.85643822e-001 1.23251610e-001 2.44528800e-001 5.11668846e-002
      9.57358256e-002 9.96152312e-002 1.71132147e-001 1.97626576e-001
      1.77008599e-001 2.26967290e-001 1.23401850e-001 1.26353770e-001
      1.32799953e-001 5.79477213e-002 2.09558934e-001 1.51497990e-001
      7.71719813e-002 4.95924912e-002 9.55731869e-002 2.52708793e-001
      2.52708793e-001 8.97080004e-002 1.66978940e-001 1.56311065e-001
      2.52708793e-001 1.94484353e-001 1.97536618e-001 1.77049443e-001
      2.21569315e-001 2.45877370e-001 1.67783886e-001 1.42443776e-001
      1.05541386e-001 8.33660886e-002 1.20492555e-001 2.06886515e-001
      1.73850104e-001 1.11888438e-001 7.84240514e-002 1.46656930e-001
      1.54090628e-001 2.41698354e-001 5.38995042e-002 1.18474863e-001
      2.56381631e-001 1.56355470e-001 5.44304810e-002 8.49907547e-002
      1.61311761e-001 1.37189284e-001 1.57298654e-001 1.98946550e-001
      1.32557511e-001 1.05664544e-001 1.54650599e-001 2.12466031e-001
      2.56381631e-001 1.11873917e-001 2.01835930e-001 2.56381631e-001
      1.92431837e-001 6.61259294e-002 1.75679117e-001 1.14269480e-001
      1.37529612e-001 2.20150873e-001 2.05052376e-001 2.56381631e-001
      2.32139751e-002 5.63228801e-002 1.53872490e-001 4.31235731e-002
      1.43161342e-001 3.57974321e-001 3.36361825e-001 7.07224905e-002
      1.70904715e-002 3.91748361e-002 9.66020301e-003 2.87058717e-003
      2.18270551e-002 1.31685510e-001 2.38071695e-001 7.56013319e-002
      2.51563862e-002 2.11909432e-002 4.12842408e-002 1.47824651e-002
      1.22891992e-001 1.63333610e-001 3.57974321e-001 3.57974321e-001
      2.33435184e-001 3.72539787e-003 2.79654693e-002 3.12793925e-002
      1.31635666e-002 1.86528880e-002 3.08434777e-002 3.57974321e-001
      3.57974321e-001 4.84961309e-002 2.01264303e-002 1.97797846e-002
      1.83960944e-001 1.06911078e-001 6.95165768e-002 1.29502028e-001
      5.97156659e-002 2.10038386e-002 4.80572395e-002 9.76457745e-002
      1.76702186e-001 2.49504074e-001 1.20543420e-001 4.25259285e-002
      8.64743143e-002 8.22614282e-002 1.64186999e-001 2.49504074e-001
      1.09308966e-001 2.09505081e-001 2.09098995e-001 1.50961861e-001
      2.49504074e-001 1.42346948e-001 2.32418627e-001 6.08021319e-002
      5.04250787e-002 1.08212501e-001 2.32824460e-001 2.49504074e-001
      1.87356174e-001 2.21476182e-001 2.25773096e-001 2.44614065e-001
      1.34770393e-001 2.49504074e-001 6.25237450e-002 1.70081049e-001
      7.31585473e-002 4.78656180e-002 1.10492028e-001 1.61266908e-001
      1.87904879e-001 9.63470265e-002 4.54757065e-002 1.11915059e-001
      1.22528657e-001 5.86336516e-002 8.37569311e-002 2.46078104e-001
      2.69236773e-001 2.34814540e-001 4.42482717e-002 1.42814741e-002
      1.19804583e-001 2.69236773e-001 8.52879584e-002 4.76353504e-002
      9.89040360e-002 1.15203798e-001 2.18079627e-001 1.12689957e-001
      2.62566209e-001 2.20218047e-001 2.69236773e-001 5.90596423e-002
      1.08946890e-001 1.66030064e-001 2.69236773e-001 2.69236773e-001
      5.98953553e-002 1.21439487e-001 1.67665914e-001 2.69236773e-001
      5.03967106e-002 7.68528134e-002 5.18394187e-002 4.70690541e-002
      2.17384562e-001 2.51178473e-001 1.55691296e-001 9.51833799e-002
      4.99171689e-002 1.16047509e-001 6.35760650e-002 2.56543588e-002
      1.39457554e-001 1.21946797e-001 2.70556420e-001 1.80146232e-001
      1.09039411e-001 1.84822679e-001 1.40884265e-001 5.19571938e-002
      5.75823756e-003 6.92138597e-002 2.70556420e-001 2.70556420e-001
      1.74850985e-001 1.53958037e-001 8.58943537e-002 2.70556420e-001
      5.66539802e-002 4.26706765e-003 1.56303495e-001 2.70556420e-001
      2.70556420e-001 2.70556420e-001 2.34290808e-001 1.51126787e-001
      3.07700522e-002 6.20554015e-003 1.91795435e-002 6.11852221e-002
      1.90832987e-001 2.91181386e-001 1.77236423e-001 4.53194454e-002
      4.53938060e-002 2.91181386e-001 1.37178824e-004 0. 0.
      6.32398650e-002 2.91181386e-001 2.30118215e-001 7.55323991e-002
      2.91181386e-001 4.48643826e-002 0. 9.78776603e-004 4.61855829e-002
      2.09514558e-001 2.91181386e-001 2.51305282e-001 1.14929818e-001
      9.38794911e-002 2.91181386e-001 0. 0. 0. 1.23821134e-002
      2.25652531e-001 2.09566250e-001 1.88875586e-001 2.91181386e-001
      3.11481714e-001 2.88844734e-001 7.80820772e-002 0. 0. 0.
      5.42779230e-002 1.09265432e-001 8.13207701e-002 3.11481714e-001
      1.59127191e-001 4.68492471e-002 0. 0. 0. 0. 4.63019460e-005
      3.11481714e-001 3.11481714e-001 3.11481714e-001 2.06184268e-001 0.
      0. 0. 8.77735540e-002 1.91280469e-001 7.34398365e-002
      3.11481714e-001 2.68061161e-001 1.23063482e-001 0. 0. 0. 0.
      4.22021112e-005 3.11481714e-001 2.22906955e-002 0. 0.
      5.45858406e-004 6.20091967e-002 2.24563017e-001 3.11066359e-001
      2.68282682e-001 2.14974910e-001 0. 3.54331313e-003 1.47131563e-003
      1.77538441e-003 1.24984555e-001 2.34167099e-001 1.60831332e-001
      4.93111275e-002 3.94797884e-003 2.70496737e-002 0. 0. 0.
      2.43624568e-001 3.17514628e-001 3.17514628e-001 2.75317460e-001
      2.03236818e-001 0. 3.05908965e-003 4.66696220e-003 3.71823437e-004
      3.17514628e-001 3.17514628e-001 2.15161070e-001 3.92414667e-002
      3.41249601e-004 2.63559431e-001 1.94292411e-001 6.86571822e-002
      7.70702884e-002 2.47665524e-001 2.18937006e-002 5.80019988e-002
      4.31615487e-002 2.11485401e-002 2.63559431e-001 2.15021893e-001
      6.48030788e-002 2.63559431e-001 1.91603467e-001 2.43387800e-002
      5.32997549e-002 1.43105403e-001 5.44453524e-002 1.82257742e-001
      2.10178837e-001 2.23691568e-001 1.25993446e-001 2.63559431e-001
      5.81189431e-002 4.80427817e-002 8.43305886e-002 9.82652530e-002
      2.63559431e-001 2.63559431e-001 2.29982480e-001 2.50967681e-001
      1.56803176e-001 5.59545457e-002 1.12784319e-002 1.29204690e-001
      1.56500280e-001 1.33323789e-001 5.68767525e-002 3.01735718e-002
      4.86170948e-002 3.94618601e-001 3.94618601e-001 1.61386784e-002
      5.32906242e-002 8.50863978e-002 3.94618601e-001 1.08002573e-001
      4.57195900e-002 3.51955071e-002 5.33175841e-002 3.17207463e-002
      1.00319488e-002 3.54524553e-002 1.86761230e-001 4.54393625e-002
      3.08639556e-002 2.86509003e-002 5.48992045e-002 3.94618601e-001
      3.94618601e-001 3.16320322e-002 1.74002498e-002 3.98465097e-002
      7.00273886e-002 7.69021437e-002 6.06334619e-002 5.49264215e-002
      2.09950775e-001 2.06432790e-001 4.08271439e-002 9.00934413e-002
      6.32627085e-002 3.98658775e-002 2.64886498e-001 2.75399446e-001
      2.75399446e-001 1.08854175e-001 1.19823098e-001 1.76959351e-001
      2.14126576e-002 8.69122520e-003 2.75399446e-001 1.85833260e-001
      2.75399446e-001 2.52804995e-001 6.67893514e-002 4.50030575e-003
      1.14636961e-003 1.82550086e-003 2.06597880e-001 8.98633618e-003
      1.72044411e-002 1.40880734e-001 2.75399446e-001 2.75399446e-001
      2.53721744e-001 7.11601451e-002 1.08709466e-003 9.89992823e-003
      9.49932039e-002 4.76204120e-002 8.71619806e-002 2.30262786e-001
      2.75399446e-001 1.21895708e-001 1.41013768e-002 1.22239022e-002
      1.18462622e-001 1.36746431e-003 0. 0. 9.88798123e-003
      4.26315844e-001 3.82569969e-001 2.34074369e-002 7.54986517e-003
      6.39406312e-003 0. 1.43554644e-004 1.18493894e-003 2.21681204e-002
      4.26315844e-001 2.25162759e-001 9.29903984e-003 8.30534962e-004 0.
      4.65094308e-005 0. 0. 1.34010434e-001 4.26315844e-001
      1.40461475e-001 2.55400711e-003 1.37338310e-003 2.32334528e-003 0.
      1.00488251e-003 6.03555003e-003 1.68856785e-001 4.26315844e-001
      6.39689937e-002 5.50338859e-003 1.58700161e-003 0. 9.87548381e-002
      1.32135645e-001 1.59724131e-001 2.24598244e-001 2.25975946e-001
      1.33686617e-001 7.38401115e-002 6.59328252e-002 9.21598375e-002
      2.43263245e-001 2.43263245e-001 1.74209759e-001 2.21506312e-001
      8.45935792e-002 3.40846963e-002 1.16098143e-001 5.40984049e-002
      1.53756768e-001 1.20907307e-001 1.38262495e-001 1.51296318e-001
      1.87502667e-001 2.34831423e-001 1.16890639e-001 1.18373707e-001
      1.42236620e-001 8.75981152e-002 2.43263245e-001 2.43263245e-001
      1.94794461e-001 2.43263245e-001 2.43263245e-001 6.83798268e-003
      2.38255095e-002 2.00976446e-001 2.07049638e-001</_>
    <_>
      1.14668764e-001 3.85630094e-002 7.40545839e-002 1.54609740e-001
      1.27267554e-001 1.80484891e-001 1.85753986e-001 8.55761617e-002
      6.36048689e-002 8.09070021e-002 1.17018498e-001 5.01601733e-002
      2.95935959e-001 2.95935959e-001 1.77741453e-001 8.26767758e-002
      1.81246251e-002 4.68550511e-002 8.35280940e-002 1.25527233e-001
      2.95935959e-001 1.89814150e-001 1.61602676e-001 2.35912874e-001
      1.53732598e-001 6.62649944e-002 6.11463562e-002 1.04307346e-001
      2.34351277e-001 2.46424571e-001 2.95935959e-001 2.95935959e-001
      2.17366442e-001 6.80290163e-002 1.16325375e-002 7.70843029e-002
      1.21226929e-001 6.22483902e-002 2.21961364e-002 2.46573724e-002
      1.71161145e-001 2.51512885e-001 1.79992437e-001 7.74849877e-002
      7.43630305e-002 1.73933163e-001 8.56367648e-002 3.12352162e-002
      1.58006623e-001 2.78210729e-001 2.78210729e-001 1.58059895e-001
      2.13832855e-002 5.51784523e-002 6.85232356e-002 2.01609358e-001
      2.06616327e-001 1.95190877e-001 1.71091974e-001 2.78210729e-001
      1.26295775e-001 1.81666967e-002 4.91103418e-002 5.50123230e-002
      9.50060561e-002 2.43681952e-001 2.78210729e-001 2.78210729e-001
      2.78210729e-001 1.96071908e-001 1.35297365e-002 2.20228937e-002
      2.84301788e-002 9.69351530e-002 1.29865140e-001 2.27970183e-002
      2.04897568e-001 2.02232197e-001 5.63282408e-002 1.45899013e-001
      2.39682347e-001 1.10115983e-001 5.27378581e-002 1.77230060e-001
      3.60250436e-002 2.48660550e-001 2.06631199e-001 2.04786777e-001
      2.01561868e-001 2.15846702e-001 2.48660550e-001 1.03212610e-001
      9.31256935e-002 8.62426087e-002 2.48660550e-001 6.75897747e-002
      1.38326272e-001 1.30247787e-001 1.93284139e-001 2.48660550e-001
      2.16382831e-001 1.96509674e-001 1.28879696e-001 2.48660550e-001
      1.11721516e-001 1.58666417e-001 1.10028327e-001 1.41109407e-001
      5.33158891e-002 1.83782712e-001 2.55376786e-001 1.88723281e-001
      1.31687194e-001 3.41819599e-002 6.93743750e-002 1.19011924e-002
      1.88865848e-002 9.64305103e-002 1.55722365e-001 2.28435397e-001
      2.55376786e-001 2.21244827e-001 1.11001879e-001 3.15654390e-002 0.
      6.89466745e-002 1.21532388e-001 2.55376786e-001 2.03730121e-001
      1.06511354e-001 2.55376786e-001 1.45284906e-001 1.51853710e-001
      3.79060917e-002 9.11643449e-003 1.44337818e-001 2.55376786e-001
      2.55376786e-001 2.55376786e-001 2.55376786e-001 2.55376786e-001
      9.69815031e-002 1.56088555e-002 1.33767232e-001 4.79682609e-002
      3.11477464e-002 8.98305327e-002 8.74392167e-002 5.20795770e-002
      1.26314968e-001 1.59513295e-001 1.82102144e-001 1.76092342e-001
      7.81008974e-002 2.51151204e-001 2.51151204e-001 1.81800470e-001
      1.61900550e-001 1.50556952e-001 1.11911848e-001 1.32230788e-001
      2.51151204e-001 5.17667644e-002 9.90361795e-002 3.67221721e-002
      9.67838541e-002 7.81118050e-002 7.32885003e-002 2.51151204e-001
      2.21372083e-001 2.23390356e-001 7.84620047e-002 2.51151204e-001
      2.33941302e-001 2.51151204e-001 2.30712339e-001 1.29619002e-001
      1.98216796e-001 1.48134559e-001 2.19061241e-001 9.96327698e-002
      2.19443753e-001 1.85504287e-001 5.58516681e-002 1.47665858e-001
      1.18242942e-001 5.90691902e-003 1.36316847e-002 1.43474847e-001
      2.49595881e-001 2.19139993e-001 1.20461315e-001 1.50314838e-001
      2.91964710e-001 1.47060901e-001 4.97373082e-002 4.11736667e-002
      1.09679066e-001 1.67424724e-001 1.71718702e-001 1.47001147e-001
      7.21881464e-002 2.91964710e-001 2.91964710e-001 2.05660164e-002
      1.97859872e-002 6.38261661e-002 1.07803188e-001 1.46785796e-001
      2.30487436e-001 8.88995230e-002 2.91964710e-001 2.91964710e-001
      1.90338969e-001 1.11494564e-001 3.64158154e-002 1.76680356e-001
      4.65323627e-002 6.32024556e-002 1.52109057e-001 1.35861307e-001
      1.82940736e-001 8.91285911e-002 1.28770769e-001 1.18421435e-001
      2.50101894e-001 1.20017819e-001 1.81164101e-001 2.38664523e-001
      1.98020682e-001 1.24340385e-001 3.55566852e-002 2.60672495e-002
      1.96693525e-001 2.02283531e-001 1.30324960e-001 1.72091976e-001
      1.11281566e-001 4.13635001e-002 1.93422154e-001 2.50101894e-001
      1.11759640e-001 1.50566399e-001 2.50101894e-001 1.57206044e-001
      2.42894247e-001 2.49436975e-001 2.38961384e-001 1.12905033e-001
      4.81745079e-002 6.73163682e-002 2.50101894e-001 1.15667410e-001
      1.98170021e-002 3.14240903e-002 2.46794745e-001 1.51108727e-001
      1.23074073e-002 6.42104149e-002 2.02496931e-001 2.09826857e-001
      1.31027341e-001 3.03530935e-002 7.56157115e-002 2.46794745e-001
      1.48141369e-001 2.19014287e-001 6.46788925e-002 2.36188233e-001
      2.35302538e-001 1.02254413e-001 4.03428525e-002 1.76846102e-001
      2.46794745e-001 2.46794745e-001 1.39101475e-001 1.33755133e-001
      1.06731996e-001 5.84484600e-002 1.93154961e-001 1.05832480e-001
      2.46794745e-001 1.27317265e-001 1.94982007e-001 1.94325924e-001
      1.75557151e-001 2.22516358e-001 2.01991513e-001 4.19293121e-002
      8.91394913e-002 1.49197191e-001 2.63233870e-001 1.61756307e-001
      7.61676654e-002 5.75836040e-002 1.93624884e-001 2.06457693e-002
      8.49126205e-002 3.96893919e-002 2.63233870e-001 2.63233870e-001
      2.38507673e-001 9.94385779e-002 6.66358992e-002 2.63233870e-001
      1.30158797e-001 4.13133651e-002 4.94315438e-002 2.16021985e-001
      1.07892491e-001 5.36765754e-002 1.16934933e-001 1.78681582e-001
      2.63233870e-001 6.22203015e-002 1.05539814e-001 4.09372784e-002
      2.15172887e-001 1.97040528e-001 2.37173915e-001 2.11288884e-001
      2.47194305e-001 2.63233870e-001 6.90270215e-002 5.71658239e-002
      9.27256867e-002 1.51736662e-001 5.60421459e-002 1.41493976e-001
      1.31603733e-001 2.46936679e-001 7.79743418e-002 1.15748897e-001
      1.48466751e-001 1.95037499e-001 1.80704758e-001 8.56533125e-002
      1.33700013e-001 2.10720271e-001 1.22009784e-001 1.01576559e-001
      1.41939372e-001 3.54864113e-002 6.36074394e-002 2.56010979e-001
      1.24381155e-001 1.13107935e-001 2.57536799e-001 2.57536799e-001
      1.17414452e-001 2.22525090e-001 1.76589534e-001 2.39529356e-001
      1.58428654e-001 9.29334834e-002 1.26767412e-001 2.57536799e-001
      1.03444085e-001 2.38992333e-001 2.57536799e-001 8.36578757e-002
      1.32746354e-001 2.57412702e-001 2.06933185e-001 1.66113049e-001
      1.06823280e-001 9.97469574e-002 6.35273159e-002 3.55393551e-002
      2.50563115e-001 1.04353890e-001 9.24969167e-002 1.70180380e-001
      2.74526685e-001 1.39959604e-001 1.37889892e-001 3.71285118e-002
      6.21911362e-002 6.59294426e-002 1.37303799e-001 2.74526685e-001
      2.74526685e-001 2.74526685e-001 4.90065813e-002 9.73914042e-002
      1.05708174e-001 1.58765689e-001 1.83307856e-001 1.88996270e-002
      6.62810355e-002 1.97258517e-001 2.74526685e-001 1.86279774e-001
      2.74526685e-001 1.10919796e-001 7.96322972e-002 2.66203862e-002
      2.66906228e-002 9.45086703e-002 9.15132910e-002 2.57078022e-001
      2.24094719e-001 2.34954178e-001 1.96730554e-001 3.37033421e-002
      1.47288099e-001 2.01464836e-002 1.46710128e-001 1.99265674e-001
      2.57078022e-001 1.92591786e-001 1.30358696e-001 5.85745834e-002
      1.04018129e-001 3.49322185e-002 1.53991997e-001 2.33970210e-001
      1.24917760e-001 1.73819289e-001 1.51811823e-001 2.57078022e-001
      1.32202625e-001 2.70508807e-002 1.06156059e-001 8.29707459e-002
      2.57078022e-001 2.13861361e-001 2.57078022e-001 2.57078022e-001
      2.15190306e-001 4.72180918e-002 7.78829083e-002 1.03295110e-001
      8.24373811e-002 1.11894466e-001 1.34265974e-001 1.77450523e-001
      2.71285456e-002 1.53723165e-001 2.37122342e-001 6.84742257e-002
      4.98026572e-002 5.56125492e-003 5.04537858e-002 1.54959694e-001
      1.74969867e-001 5.44384718e-002 2.84045398e-001 2.84045398e-001
      1.17202714e-001 2.84045398e-001 1.03862502e-001 1.61411569e-001
      1.09106563e-001 1.90767139e-001 1.28000397e-002 1.26094937e-001
      2.60111213e-001 8.66791680e-002 1.36632919e-001 7.80328363e-002
      1.11368477e-001 1.70582622e-001 2.84045398e-001 1.27171054e-001
      2.84045398e-001 2.84045398e-001 1.14449203e-001 7.24378675e-002
      7.32540041e-002 8.12240466e-002 4.60841060e-002 2.40386605e-001
      1.41998410e-001 1.50934979e-001 7.00421780e-002 1.95179388e-001
      2.41912883e-002 1.48237050e-001 2.57633507e-001 4.68852147e-002
      1.36866033e-001 1.77428633e-001 2.57633507e-001 4.13201302e-002
      7.10831955e-002 1.75762400e-001 6.09362312e-003 9.74706188e-002
      1.11829333e-001 2.57633507e-001 2.57502109e-001 1.60375148e-001
      6.69499263e-002 2.57633507e-001 5.35131879e-002 1.14264339e-001
      2.57633507e-001 1.95581704e-001 2.57633507e-001 2.57633507e-001
      2.34825537e-001 4.66201045e-002 1.64525673e-001 1.27408862e-001
      8.84208828e-002 9.89648551e-002 1.30723491e-001 1.07491516e-001
      1.66613132e-001 6.63082749e-002 2.59629041e-001 1.52728736e-001
      1.08070984e-001 1.44347891e-001 1.19943351e-001 2.59629041e-001
      2.59629041e-001 1.22745357e-001 9.84773785e-002 9.85774472e-002
      1.25948504e-001 1.73805818e-001 1.22315086e-001 7.58377090e-002
      6.22536875e-002 1.79618150e-001 2.59629041e-001 1.15853310e-001
      2.59629041e-001 1.20695435e-001 6.97796345e-002 2.42925167e-001
      1.34162068e-001 2.59629041e-001 2.59629041e-001 2.59629041e-001
      9.63559747e-002 9.94043201e-002 1.63811356e-001 2.10205261e-002
      5.21904714e-002 4.52523977e-002 1.45246610e-001 2.45448798e-001
      1.88819617e-001 5.01986332e-002 2.65782565e-001 1.21181011e-001
      7.57203847e-002 1.99905843e-001 8.44881758e-002 2.14880168e-001
      2.39893630e-001 2.65219092e-001 1.33067325e-001 1.06516764e-001
      8.96984339e-002 4.27841060e-002 2.50980984e-002 1.34240136e-001
      1.48165107e-001 2.65782565e-001 2.07024589e-001 2.25785393e-002
      1.73304126e-001 1.62238970e-001 7.40813166e-002 7.81053156e-002
      2.32103974e-001 2.65782565e-001 2.65782565e-001 2.65782565e-001
      1.34456709e-001 4.97931391e-002 1.12053350e-001 4.40367833e-002
      1.93294510e-002 4.41474169e-002 1.62784472e-001 1.56848758e-001
      1.14639737e-001 9.12090018e-002 1.39123738e-001 4.63258959e-002
      6.67544967e-003 3.71981822e-002 1.02235608e-001 2.19048053e-001
      1.63321823e-001 1.67164981e-001 1.01953991e-001 1.28860041e-001
      2.30094474e-002 2.96288967e-001 1.20052554e-001 1.09074973e-001
      1.01381637e-001 5.18850684e-002 2.96288967e-001 2.96288967e-001
      2.96288967e-001 1.40374646e-001 2.69925292e-003 3.67587581e-002
      2.26475388e-001 2.28759527e-001 1.21366240e-001 2.55327702e-001
      2.96288967e-001 2.47650430e-001 1.12028763e-001 1.28853261e-001
      8.77856016e-002 4.07841317e-002 1.26893908e-001 1.11308083e-001
      9.82291177e-002 1.14290714e-001 7.05379695e-002 2.57365644e-001
      2.19981715e-001 2.10576534e-001 3.81660089e-002 2.57365644e-001
      1.50978297e-001 1.85304374e-001 2.22936235e-002 4.95951399e-002
      2.57365644e-001 1.26131266e-001 2.25486055e-001 2.80579049e-002
      1.31067812e-001 2.57365644e-001 2.57365644e-001 1.13979012e-001
      2.99571007e-002 1.79782182e-001 1.73069641e-001 2.57365644e-001
      5.18805757e-002 2.57365644e-001 2.57365644e-001 1.33425146e-001
      8.26185495e-002 3.92116569e-002 2.03372762e-001 7.81638101e-002
      1.30412251e-001 8.22992176e-002 1.06029868e-001 2.03099653e-001
      1.99684277e-001 9.65684578e-002 7.04183802e-002 6.96295276e-002
      4.64736000e-002 8.00018683e-002 6.40698671e-002 3.02798804e-002
      2.20543951e-001 2.63351411e-001 2.63351411e-001 2.04572752e-001
      9.43556726e-002 1.02424800e-001 7.98692554e-002 1.12244904e-001
      2.33471245e-001 2.63351411e-001 1.58393070e-001 2.33986124e-001
      1.21146590e-001 8.53313953e-002 1.39345422e-001 1.48383677e-001
      6.35424331e-002 5.05222604e-002 2.63351411e-001 2.63351411e-001
      2.63351411e-001 2.63351411e-001 1.54042780e-001 9.35207754e-002
      6.22154400e-002 3.06370892e-002 1.59441069e-001 2.62471169e-001
      1.79702103e-001 1.70668796e-001 7.16914460e-002 7.81496242e-002
      1.33565336e-001 1.19818822e-001 1.08955197e-001 2.62471169e-001
      2.62471169e-001 1.28250301e-001 3.57368141e-002 1.40635539e-002
      1.14701152e-001 9.66567844e-002 5.12407459e-002 2.34171823e-001
      2.25195587e-001 2.62471169e-001 2.33482331e-001 1.95051968e-001
      5.72612993e-002 4.26982567e-002 1.35248110e-001 2.10108683e-001
      2.62471169e-001 2.62471169e-001 2.62471169e-001 7.42973462e-002
      3.42374630e-002 1.57864049e-001 1.38266519e-001 1.88951902e-002
      9.63263884e-002 2.33699866e-002 4.12816735e-004 2.03714535e-001
      3.62265021e-001 1.89690247e-001 1.21485256e-003 1.90718416e-002
      9.94122494e-003 3.65768792e-003 2.53068958e-003 4.82013496e-003
      2.84518242e-001 3.62265021e-001 5.38522974e-002 1.30336396e-002
      1.28032463e-002 2.23953035e-002 5.21904416e-002 2.38990765e-002 0.
      3.62265021e-001 3.62265021e-001 8.24101865e-002 1.36095975e-002
      3.74445431e-002 6.71712160e-002 2.19461299e-003 1.58017466e-003
      3.23221111e-003 3.62265021e-001 3.62265021e-001 5.02846129e-002
      9.11871623e-003 1.31501272e-001 8.90835673e-002 4.00936417e-002
      5.88433929e-002 6.54055625e-002 6.88005015e-002 6.07826486e-002
      6.59445822e-002 4.47484441e-002 8.19161534e-002 1.34088874e-001
      1.12200782e-001 1.49660259e-001 4.57572341e-002 1.82450656e-002
      4.20731232e-002 1.54518103e-002 1.35577977e-001 2.02921942e-001
      3.74679774e-001 3.74679774e-001 8.44598487e-002 1.26628339e-001
      5.14815748e-002 4.28061709e-002 4.12730165e-002 1.61831230e-001
      2.45048851e-001 3.74679774e-001 3.74679774e-001 1.44619375e-001
      3.22572999e-002 5.93977934e-003 1.26554230e-002 3.29631323e-004
      2.92264149e-002 3.74679774e-001 2.36167274e-002 1.03880442e-003
      1.65353585e-002 1.03222512e-001 4.04722616e-002 6.77417740e-002
      3.04492056e-001 2.24207267e-001 6.27132580e-002 2.40837242e-002
      1.43471351e-002 5.08863367e-002 2.13352948e-001 2.05926612e-001
      8.03516507e-002 1.71350121e-001 1.12986863e-001 1.09239876e-001
      8.73931944e-002 1.73134054e-003 4.86422665e-002 3.15397717e-002
      6.66331872e-002 1.62479445e-001 3.04492056e-001 3.04492056e-001
      3.04492056e-001 1.41249644e-002 4.85126972e-002 1.44828791e-002
      1.12467870e-001 2.14137301e-001 3.04492056e-001 3.04492056e-001
      3.03513527e-001 1.47322699e-001 1.60976782e-001 2.59583332e-002
      1.01761565e-001 2.55397052e-001 2.14062795e-001 1.05619177e-001
      1.42985791e-001 9.66664478e-002 7.40565509e-002 1.75061569e-001
      1.26388595e-001 2.43392184e-001 2.55397052e-001 1.69388354e-001
      1.17515661e-001 1.01825260e-001 1.11202933e-001 1.62259564e-001
      6.48784712e-002 5.92417233e-002 1.54333770e-001 2.36193091e-001
      2.55397052e-001 1.23349980e-001 2.12673917e-001 1.44309834e-001
      4.83035408e-002 9.65235904e-002 2.42843106e-001 2.23245293e-001
      2.55397052e-001 1.08831860e-001 1.46850452e-001 1.36450976e-001
      1.97161570e-001 1.73086539e-001 4.72383723e-002 1.54834474e-002
      1.99207142e-002 1.20911011e-002 3.35897272e-003 1.22479014e-001
      2.84352154e-001 2.46268928e-001 7.24826828e-002 2.84352154e-001 0.
      0. 0. 2.01538368e-003 7.32941478e-002 2.84352154e-001
      2.82683343e-001 2.84352154e-001 7.79070631e-002 1.08862557e-002
      2.81888023e-002 1.03273839e-001 5.41776279e-003 2.85384618e-003
      2.84352154e-001 2.84352154e-001 1.12397127e-001 2.84352154e-001
      3.06828617e-004 0. 0. 0. 1.71230780e-003 2.64417678e-001
      2.84352154e-001 2.84352154e-001 2.99948484e-001 2.99948484e-001
      1.31220579e-001 0. 0. 0. 2.32383087e-002 1.64922297e-001
      6.84619546e-002 2.99948484e-001 2.46309310e-001 7.89129809e-002 0.
      0. 0. 0. 0. 2.99948484e-001 2.46204674e-001 2.99948484e-001
      2.26871133e-001 0. 0. 0. 4.61878963e-002 1.45192191e-001
      5.53902090e-002 2.99948484e-001 2.99948484e-001 1.52991608e-001 0.
      0. 0. 0. 0. 2.98165470e-001 2.27853376e-002 0. 2.79548665e-004
      1.79670053e-003 5.58019951e-002 3.74072999e-001 2.79346973e-001
      1.21218532e-001 7.48163760e-002 2.73712398e-003 1.07380713e-003
      2.51790532e-003 1.29699409e-002 1.46128237e-001 3.74072999e-001
      1.08855411e-001 1.17276227e-002 1.12786898e-002 1.02298064e-002 0.
      0. 0. 2.81607896e-001 3.74072999e-001 2.60534436e-001
      8.21340755e-002 3.09687573e-002 1.79510319e-003 2.57462205e-004
      3.75428982e-003 1.14689860e-002 3.74072999e-001 3.74072999e-001
      7.64541700e-002 8.50639946e-004 3.25713214e-003 2.79250406e-002
      1.63224548e-001 2.60000020e-001 2.31817603e-001 9.86684114e-002
      2.87669059e-002 8.52850303e-002 9.04070213e-002 1.10663641e-002
      4.46683839e-002 2.31534451e-001 2.60000020e-001 2.57918626e-001
      2.02767700e-001 3.79240625e-002 1.12684429e-001 1.68709531e-001
      5.14218248e-002 1.40152887e-001 1.16974816e-001 2.60000020e-001
      1.87321767e-001 1.96458712e-001 1.00547999e-001 1.08699657e-001
      5.40180616e-002 2.87758131e-002 1.48808077e-001 1.28597438e-001
      1.89036384e-001 2.60000020e-001 2.60000020e-001 4.70835119e-002
      1.82094604e-001 2.60000020e-001 1.83167592e-001 6.12995885e-002
      1.74384341e-002 1.60254110e-002 1.02666870e-001 3.88107538e-001
      3.28492433e-001 5.26499599e-002 9.70224515e-002 7.36399516e-002
      2.84199655e-001 1.35998130e-001 4.59598340e-002 6.68296814e-002
      7.19029382e-002 8.60443190e-002 8.56150165e-002 1.27908379e-001
      7.95689672e-002 5.75265959e-002 4.38610464e-003 4.74182190e-003
      3.69833596e-002 3.88107538e-001 3.88107538e-001 7.94450045e-002
      3.70079791e-003 5.97317927e-002 4.06529978e-002 5.33475913e-002
      5.61118685e-002 1.35231167e-001 3.88107538e-001 2.28738368e-001
      9.85139310e-002 3.52828093e-002 3.13333198e-002 6.38095103e-003
      1.21208042e-001 2.99423486e-001 2.99423486e-001 2.14719519e-001
      5.97707406e-002 5.95366396e-003 5.45294695e-002 2.40393411e-002
      1.48401439e-001 1.50393918e-001 2.81748086e-001 2.99423486e-001
      2.11436018e-001 1.41437147e-002 2.74563511e-003 0. 6.53987601e-002
      1.51721615e-004 1.33216074e-002 6.32605031e-002 2.99423486e-001
      2.99423486e-001 2.80568391e-001 1.27948886e-002 3.87195125e-003
      1.28370128e-003 2.35892627e-002 1.32776713e-002 5.61733767e-002
      2.79085159e-001 2.99423486e-001 2.21208766e-001 5.66094182e-002
      2.26107687e-002 1.91899110e-002 0. 0. 0. 2.97713582e-003
      4.72200006e-001 2.15124682e-001 2.06959224e-003 1.72039436e-003
      2.25934768e-004 0. 3.38085199e-004 1.29299890e-003 1.18299611e-002
      4.72200006e-001 2.10097060e-001 8.40477645e-004 6.71106682e-004 0.
      0. 0. 0. 4.31347303e-002 4.72200006e-001 6.01728559e-002
      4.94435662e-004 9.15260534e-005 0. 0. 4.82978830e-005
      1.32170506e-003 6.81035668e-002 4.72200006e-001 5.18166460e-002
      2.43966654e-003 1.11851131e-003 0. 7.21153319e-002 6.15349337e-002
      5.12567721e-002 1.36905700e-001 2.58217245e-001 7.03232065e-002
      2.58217245e-001 4.13509272e-002 6.47924468e-002 1.78379804e-001
      1.60612807e-001 6.95808157e-002 1.82559773e-001 2.58217245e-001
      7.25270361e-002 2.44137242e-001 1.22825332e-001 1.58053681e-001
      1.30619377e-001 8.06975588e-002 6.37417808e-002 2.58217245e-001
      2.58217245e-001 1.67409718e-001 8.07035640e-002 1.71311162e-002
      1.02728106e-001 2.58217245e-001 1.23205155e-001 9.67720374e-002
      2.58217245e-001 2.58217245e-001 1.45444885e-001 1.86301127e-001
      4.44850996e-002 2.58217245e-001</_>
    <_>
      8.75245407e-002 9.05224904e-002 7.82268718e-002 1.14859834e-001
      1.15583137e-001 1.06927365e-001 2.74745882e-001 2.78258055e-001
      1.41710564e-001 2.23089337e-001 1.65217131e-001 2.69399911e-001
      1.93197876e-001 8.41259286e-002 8.15201830e-003 9.79585722e-002
      1.25352785e-001 2.78258055e-001 5.64303286e-002 1.64479807e-001
      2.78258055e-001 1.43642783e-001 7.28081092e-002 1.35282233e-001
      1.98247015e-001 1.03929207e-001 3.02346610e-002 9.42432135e-002
      2.11519495e-001 2.78258055e-001 2.78258055e-001 3.81089039e-002
      5.69901541e-002 1.26849353e-001 5.15011214e-002 1.80493966e-001
      1.93919793e-001 3.66393961e-002 1.03496313e-002 4.32661511e-002
      1.16277389e-001 3.59568968e-002 1.64353371e-001 1.94590881e-001
      2.86382228e-001 2.86382228e-001 8.94550383e-002 3.02576763e-003
      3.26787196e-002 7.55779371e-002 1.78092476e-002 1.09982707e-001
      1.33240879e-001 2.86382228e-001 1.01605095e-001 3.96982096e-002
      7.92625025e-002 1.33346513e-001 1.33273304e-001 2.51197875e-001
      2.44085550e-001 1.86710134e-001 2.41262883e-001 2.86382228e-001
      1.11976728e-001 6.01177141e-002 8.65335986e-002 8.43976289e-002
      1.14548683e-001 2.19689772e-001 2.44680285e-001 2.86382228e-001
      1.49752572e-001 8.76582116e-002 2.80584902e-001 2.80584902e-001
      2.44331434e-001 3.95541489e-002 6.09464012e-002 1.28829561e-003
      5.73475510e-002 2.92468127e-002 4.40361463e-002 1.56086072e-001
      2.80584902e-001 2.80584902e-001 1.93183973e-001 1.28349930e-001
      2.03117523e-002 3.55060436e-002 1.09576181e-001 7.36105964e-002
      7.82986954e-002 2.80584902e-001 2.80584902e-001 1.07534938e-001
      4.15619761e-002 1.84058957e-002 8.95526111e-002 7.70854801e-002
      9.70777050e-002 1.12406969e-001 2.80584902e-001 2.80584902e-001
      2.80584902e-001 9.53202099e-002 9.96943638e-002 1.24142222e-001
      1.59557424e-002 1.64914146e-001 1.08933583e-001 1.97338432e-001
      2.00757742e-001 1.50459498e-001 6.11418746e-002 3.90507877e-002
      6.75626546e-002 3.67442630e-002 1.76033154e-001 2.50421107e-001
      2.05114603e-001 1.96053147e-001 1.71634063e-001 1.39586195e-001
      1.34376019e-001 1.13363616e-001 1.05616584e-001 2.04682350e-001
      1.11583509e-001 2.50421107e-001 2.50421107e-001 1.38907731e-001
      6.35444745e-002 8.48228708e-002 1.32321253e-001 9.99360457e-002
      1.13514498e-001 1.11896969e-001 2.50421107e-001 1.95831731e-001
      1.65871724e-001 2.50421107e-001 2.50421107e-001 2.50421107e-001
      9.78308544e-002 1.41266525e-001 1.15843505e-001 9.52586159e-002
      8.18827078e-002 1.09516248e-001 1.88144177e-001 4.09872308e-002
      4.64852564e-002 1.35200843e-001 7.39140362e-002 2.25478441e-001
      9.52150449e-002 1.40751392e-001 1.69413254e-001 2.59309500e-001
      1.52188763e-001 2.53583282e-001 7.72297457e-002 2.59309500e-001
      2.59309500e-001 8.48400891e-002 2.43382514e-001 1.08455382e-001
      1.54752061e-001 6.48461208e-002 5.94158694e-002 1.40000835e-001
      2.52162546e-001 2.59309500e-001 4.71079573e-002 2.10975677e-001
      1.52601227e-001 2.59309500e-001 6.33691847e-002 2.41979271e-001
      1.08802781e-001 3.61371934e-002 1.72181696e-001 9.92276818e-002
      2.22876638e-001 2.20412776e-001 1.00280829e-001 4.16465774e-002
      1.01193801e-001 1.20782912e-001 2.02699780e-001 2.25508630e-001
      1.10750973e-001 2.62588680e-001 7.97079876e-002 2.33885963e-002
      1.62360817e-001 1.34607926e-001 1.47121280e-001 1.75034851e-002
      1.49754971e-001 2.50848293e-001 2.62588680e-001 1.94409326e-001
      1.29435077e-001 1.13216341e-001 1.79252356e-001 1.09204397e-001
      1.90452754e-001 2.62588680e-001 1.84897378e-001 2.62588680e-001
      2.59816766e-001 2.94710267e-002 1.18567534e-001 8.27550068e-002
      2.57589780e-002 5.44740111e-002 1.84759215e-001 1.24517240e-001
      2.02685222e-001 2.37814024e-001 3.06704771e-002 8.51586536e-002
      1.12360366e-001 1.20774657e-001 1.19130597e-001 2.37814024e-001
      6.95868060e-002 1.23714387e-001 1.86418250e-001 1.15203768e-001
      1.69952124e-001 2.37814024e-001 7.55460486e-002 4.43297289e-002
      1.10122390e-001 2.19535068e-001 2.37814024e-001 2.28879511e-001
      2.06028730e-001 1.51105821e-001 5.70605844e-002 1.69281602e-001
      2.20949680e-001 2.01653361e-001 2.37814024e-001 2.37814024e-001
      1.50685340e-001 2.37814024e-001 1.40561551e-001 1.05879851e-001
      8.13203901e-002 4.15007770e-002 3.03759538e-002 2.12098598e-001
      1.34846747e-001 2.45374188e-001 6.15530796e-002 1.53002173e-001
      1.55199572e-001 1.07785113e-001 3.46899927e-002 2.70234078e-001
      2.78985769e-001 1.83893606e-001 1.71784237e-001 1.83180436e-001
      1.27750650e-001 1.57960534e-001 1.55493304e-001 2.15314120e-001
      1.09829761e-001 2.14879528e-001 1.41336843e-001 1.29822478e-001
      1.15933351e-001 1.88221231e-001 8.00323784e-002 1.86429664e-001
      9.60203037e-002 2.78985769e-001 2.78985769e-001 1.18557177e-001
      4.46000695e-002 5.90389185e-002 1.82374552e-001 1.95311546e-001
      4.16209884e-002 3.60305943e-002 8.25796798e-002 6.40450940e-002
      2.41607547e-001 1.33894712e-001 2.25891560e-001 6.43301383e-002
      8.30787197e-002 3.16566415e-002 6.37190640e-002 1.31177053e-001
      2.15074584e-001 2.50568002e-001 1.00083552e-001 2.38126770e-001
      1.82283774e-001 1.30626708e-001 2.67479382e-002 1.85655728e-001
      1.51491821e-001 1.51100680e-001 2.41213933e-001 1.79978356e-001
      2.10144714e-001 8.04403573e-002 8.12562853e-002 1.38132842e-002
      2.50568002e-001 1.66230828e-001 2.08585188e-001 2.50568002e-001
      2.50568002e-001 1.51735604e-001 1.50281236e-001 2.50568002e-001
      1.91833913e-001 6.88943118e-002 3.45121957e-002 1.28545672e-001
      9.93356854e-002 7.81336054e-002 1.23400494e-001 1.15111180e-001
      9.82253999e-002 1.98075801e-001 1.69085816e-001 8.62131566e-002
      1.32393986e-001 1.21710308e-001 1.24802984e-001 9.09087956e-002
      1.74671665e-001 5.65421656e-002 2.37875611e-001 4.69669923e-002
      1.82347015e-001 2.53893167e-001 1.42406672e-001 1.18007526e-001
      1.53854966e-001 2.12811530e-001 2.53893167e-001 2.24163577e-001
      1.06367022e-001 1.99776784e-001 2.53893167e-001 2.53893167e-001
      9.61843506e-002 2.03337610e-001 2.53893167e-001 2.22191900e-001
      7.47934058e-002 1.75564215e-001 2.07541287e-001 1.13644473e-001
      7.27900192e-002 8.62357616e-002 9.87357348e-002 3.09142768e-002
      9.61917192e-002 5.73390089e-002 2.15738282e-001 2.45617434e-001
      1.13380834e-001 1.26976728e-001 1.48014218e-001 2.07042977e-001
      2.03661621e-001 8.94465074e-002 1.08775139e-001 9.49147865e-002
      2.00300217e-001 6.37005642e-002 2.00898558e-001 2.76007980e-001
      1.03739150e-001 1.10133953e-001 2.02173561e-001 2.68088859e-002
      7.27384612e-002 2.25511581e-001 6.67378977e-002 1.13915786e-001
      2.76007980e-001 2.65691102e-001 2.76007980e-001 2.76007980e-001
      1.08941376e-001 1.38204157e-001 5.43069206e-002 5.88865243e-002
      2.22192794e-001 1.90847248e-001 8.79950896e-002 1.29503369e-001
      2.90178526e-002 1.44429371e-001 2.61935085e-001 2.90621333e-002
      6.77260980e-002 2.30431527e-001 1.94794744e-001 2.32997179e-001
      1.57510310e-001 7.60780275e-002 1.31943285e-001 8.06441680e-002
      7.91449249e-002 6.13530986e-002 2.61935085e-001 2.21835300e-001
      1.53519467e-001 2.61935085e-001 5.52000366e-002 1.71842337e-001
      1.20167717e-001 1.12796471e-001 4.86701243e-002 2.31097564e-001
      2.61935085e-001 2.61935085e-001 2.61935085e-001 1.12843223e-001
      8.74871388e-002 6.07386455e-002 3.41675207e-002 1.42713666e-001
      7.00758249e-002 1.28167868e-001 2.13494286e-001 2.15269759e-001
      1.59495920e-001 8.27302113e-002 2.43414156e-002 2.50519384e-002
      1.76090896e-001 1.94602668e-001 1.65059835e-001 1.83465615e-001
      2.52578467e-001 1.18379951e-001 7.63111934e-002 8.00259784e-002
      1.27288401e-001 2.52578467e-001 1.04656570e-001 2.52578467e-001
      1.87099084e-001 1.95039511e-001 1.03550531e-001 2.05461770e-001
      1.90809935e-001 1.85745403e-001 2.52578467e-001 2.52578467e-001
      2.52578467e-001 1.27068549e-001 1.77696973e-001 8.52371380e-002
      1.20016195e-001 1.30127728e-001 2.32718065e-001 8.30754116e-002
      6.67573139e-002 1.13099329e-001 5.94198555e-002 1.55384704e-001
      8.09630230e-002 6.43278062e-002 8.31935033e-002 2.32752606e-001
      7.27519318e-002 2.61341691e-001 2.63367385e-001 1.49159163e-001
      2.61383682e-001 1.00285359e-001 1.56023845e-001 1.26829430e-001
      2.18339950e-001 5.92430718e-002 2.58439511e-001 2.63367385e-001
      1.04040064e-001 1.41922429e-001 1.71453282e-002 8.05458352e-002
      1.41147017e-001 2.63367385e-001 1.10392138e-001 2.63367385e-001
      2.63367385e-001 1.68754548e-001 9.23129320e-002 4.43912856e-002
      2.02807322e-001 1.51879832e-001 7.75509551e-002 3.23914550e-002
      1.54747203e-001 2.50410259e-001 8.89286250e-002 1.43662095e-001
      1.29103601e-001 1.56076878e-001 2.44352326e-001 1.29609942e-001
      9.47585627e-002 1.34574518e-001 2.54084527e-001 5.62506802e-002
      1.57473132e-001 1.15622006e-001 1.11559860e-001 1.32734179e-001
      1.51535168e-001 2.12124698e-002 1.02562487e-001 2.54084527e-001
      2.00725600e-001 1.87698871e-001 1.72718465e-001 9.73949507e-002
      2.40667313e-001 2.54084527e-001 1.17340229e-001 2.54084527e-001
      2.54084527e-001 1.71266735e-001 1.30798861e-001 7.27035925e-002
      2.97769811e-002 7.94749856e-002 9.52836126e-002 9.60189030e-002
      2.30951160e-001 2.70881265e-001 7.08672777e-002 5.18405735e-002
      7.96477869e-002 9.94513556e-002 1.53884321e-001 1.55485824e-001
      1.70533955e-001 2.70881265e-001 1.97769001e-001 5.97113604e-003
      1.43524045e-002 1.35259226e-001 7.39422366e-002 2.70881265e-001
      5.31516261e-002 1.92644402e-001 2.70881265e-001 2.08147660e-001
      8.21757317e-002 7.17609599e-002 8.02614391e-002 1.44172996e-001
      2.70881265e-001 2.23798707e-001 2.70881265e-001 2.70881265e-001
      2.55500615e-001 2.61341431e-003 9.57182329e-003 5.44071123e-002
      4.00297791e-002 5.52718751e-002 1.39698610e-001 6.16024286e-002
      1.95928097e-001 1.32927209e-001 3.57922204e-002 4.88333888e-002
      7.74198547e-002 1.27561390e-001 2.74257734e-002 1.08745217e-001
      3.44811082e-002 2.07701221e-001 2.62243539e-001 1.49674909e-002
      5.21121025e-002 2.49057576e-001 2.62243539e-001 1.84965491e-001
      5.29617630e-002 1.15842462e-001 2.62243539e-001 2.61557728e-001
      2.30461672e-001 2.62243539e-001 2.62243539e-001 1.62553459e-001
      3.15324962e-002 2.87763849e-002 1.42441437e-001 2.62243539e-001
      2.62243539e-001 9.26142558e-002 1.00740798e-001 2.11947352e-001
      5.89455888e-002 2.72779129e-002 4.42989506e-002 1.01216033e-001
      1.71604082e-001 2.42747411e-001 1.99767336e-001 2.02264890e-001
      5.27007617e-002 9.25102159e-002 7.68281743e-002 1.56836718e-001
      1.02438644e-001 1.27363116e-001 2.55751550e-001 2.55751550e-001
      1.49743915e-001 1.14322767e-001 7.43723139e-002 4.19494044e-003
      1.48303524e-001 2.37778336e-001 1.11310713e-001 2.28181332e-001
      1.42566726e-001 2.16334656e-001 1.41776875e-001 1.08482234e-001
      2.38226485e-002 1.19433142e-001 2.55751550e-001 1.29630208e-001
      2.55751550e-001 2.55751550e-001 2.55751550e-001 1.90157980e-001
      8.59224796e-002 6.19958714e-002 5.16501516e-002 2.66682446e-001
      2.06151769e-001 7.49006495e-002 2.06704557e-001 1.33693233e-001
      8.90218392e-002 4.48819995e-002 6.74598292e-002 5.59424572e-002
      2.15325907e-001 2.90476292e-001 1.99499294e-001 2.04840988e-001
      2.52465814e-001 4.09101024e-002 1.17285863e-001 8.10039192e-002
      1.20815329e-001 1.47020906e-001 2.90476292e-001 7.21959248e-002
      1.99923903e-001 1.76135957e-001 1.13639168e-001 1.12112030e-001
      8.69289711e-002 5.62153049e-002 1.66740969e-001 2.90476292e-001
      2.27039441e-001 1.73808739e-001 2.30755493e-001 8.57115537e-002
      1.72344580e-001 1.46874070e-001 1.09047413e-001 2.05305845e-001
      1.24339879e-001 7.31690377e-002 2.90193949e-002 1.45547271e-001
      2.50744559e-002 2.48643115e-001 1.76060513e-001 2.74184108e-001
      2.27573141e-001 9.38638672e-002 6.67713881e-002 5.13834804e-002
      1.27245098e-001 1.27480164e-001 7.12984428e-002 2.11249903e-001
      2.43930221e-001 1.66459098e-001 8.46954957e-002 2.04285696e-001
      1.04768589e-001 2.41030261e-001 2.40158848e-002 2.46336237e-001
      2.14111134e-001 2.74184108e-001 2.74184108e-001 3.95930782e-002
      1.62067339e-001 7.64234811e-002 1.43552989e-001 1.17048144e-001
      1.85061842e-002 8.21850598e-002 5.28542437e-002 1.68739003e-003
      1.51554510e-001 3.77919436e-001 2.06372008e-001 4.10375977e-003
      1.78618412e-002 4.94733825e-003 1.60285886e-002 8.97904765e-003
      9.85240564e-003 1.92696914e-001 3.77919436e-001 4.17213514e-002
      9.81687475e-003 6.31499942e-003 1.82275567e-002 4.51827422e-002
      5.08285016e-002 1.32456999e-002 3.77919436e-001 3.77919436e-001
      8.96223783e-002 1.27465557e-002 2.11067721e-002 1.09192291e-002
      1.93852652e-003 2.94855470e-003 7.55266240e-003 3.77919436e-001
