<?xml version="1.0"?>
<opencv_storage>
<my_svm type_id="opencv-ml-svm">
  <svm_type>C_SVC</svm_type>
  <kernel><type>RBF</type>
    <gamma>4.0000000000000001e-002</gamma></kernel>
  <C>10.</C>
  <term_criteria><epsilon>1.1920928955078125e-007</epsilon>
    <iterations>1000</iterations></term_criteria>
  <var_all>1152</var_all>
  <var_count>1152</var_count>
  <class_count>2</class_count>
  <class_labels type_id="opencv-matrix">
    <rows>1</rows>
    <cols>2</cols>
    <dt>i</dt>
    <data>
      -1 1</data></class_labels>
  <sv_total>37</sv_total>
  <support_vectors>
    <_>
      4.84411083e-002 2.15312536e-003 4.39387921e-004 0. 1.12256715e-002
      0. 3.77010927e-003 4.15061275e-003 4.14077640e-002 1.07574508e-001
      2.86612776e-004 0. 0. 5.07165026e-003 0. 2.17968621e-003
      2.46283808e-003 1.01020947e-001 4.25626189e-001 3.02818507e-001
      3.16193134e-001 1.44793794e-001 4.56690975e-002 0. 1.21296418e-003
      2.16599251e-003 4.16144371e-001 4.25626189e-001 1.75270990e-001
      8.29317197e-002 2.68133152e-002 2.99842865e-003 0. 6.27624046e-004
      1.26612559e-003 4.25626189e-001 7.73422346e-002 1.00497164e-004
      3.00724700e-004 0. 0. 0. 3.12537217e-004 1.04444443e-004
      7.91662931e-002 9.06438455e-002 7.03480153e-004 2.10507284e-003 0.
      3.30530270e-003 0. 2.76264013e-003 9.23226355e-004 9.97735634e-002
      4.86648560e-001 1.43567377e-005 4.29606698e-005 0. 0. 0.
      1.87522339e-004 6.26666661e-005 4.86648560e-001 4.86648560e-001
      1.00497164e-004 3.00724700e-004 0. 4.08165297e-003 4.42334376e-002
      4.67057712e-002 1.15032874e-001 4.86648560e-001 9.19849332e-003 0.
      0. 0. 1.32469982e-001 0. 1.41879484e-001 4.74136248e-002
      9.19849332e-003 0. 0. 0. 0. 1.45092951e-002 0. 0. 0. 0.
      5.51909627e-003 0. 0. 0. 9.47672546e-001 0. 2.07873791e-001
      6.94677681e-002 5.51909627e-003 0. 0. 0. 0. 6.37043789e-002 0. 0.
      0. 0. 0. 0. 0. 0. 0. 0. 0. 0. 0. 0. 0. 0. 0. 0. 0. 0. 0. 0. 0. 0.
      0. 0. 0. 0. 0. 0. 0. 0. 0. 0. 0. 0. 0. 0. 0. 0. 6.87234700e-002
      4.37997421e-003 1.84292402e-002 1.27235457e-001 3.06623757e-001
      2.86731273e-001 1.80738598e-001 1.02595411e-001 7.63995498e-002
      2.74560541e-001 5.94573049e-003 4.49349079e-003 1.49607752e-002
      2.02883165e-002 4.58947308e-002 2.66127978e-002 5.32139950e-002
      2.25259945e-001 2.64170438e-001 1.62138697e-003 1.14417468e-004
      2.34039035e-004 1.33659258e-001 1.67298093e-001 2.85426587e-001
      3.00903827e-001 3.22984755e-001 3.22984755e-001 2.70231161e-003 0.
      0. 3.67474277e-003 2.35707946e-002 4.08885106e-002 1.22139499e-001
      3.22984755e-001 1.96771920e-001 1.68400332e-002 2.88828975e-003
      2.65543326e-003 6.55749347e-004 8.21587862e-004 0. 6.02456927e-003
      2.29461104e-001 1.42704263e-001 2.00168133e-001 1.50618613e-001
      2.72270590e-001 1.73728123e-001 1.47586493e-002 8.29116162e-003
      5.98213077e-002 1.42369628e-001 3.23719203e-001 3.50277610e-002
      4.12612833e-004 1.49825262e-003 2.24397774e-003 0. 0.
      3.88823356e-003 3.23719203e-001 3.23719203e-001 3.23719203e-001
      1.16227947e-001 1.68570191e-001 3.03673238e-001 6.98802294e-003
      4.62008268e-002 1.78737834e-001 3.23719203e-001 0. 2.13680253e-003
      6.39412785e-003 0. 4.75989878e-001 7.79532734e-003 1.23174869e-001
      1.63066015e-001 0. 0. 3.05257505e-004 9.13446886e-004 0.
      8.75375140e-003 0. 1.56144914e-003 5.21808863e-004 0. 0.
      3.56133725e-003 1.06568793e-002 0. 4.75989878e-001 4.75989878e-001
      4.75989878e-001 2.14265451e-001 0. 0. 5.08762489e-004
      1.52241148e-003 0. 3.13078165e-002 0. 3.35835433e-003
      1.12230296e-003 0. 0. 0. 0. 0. 0. 0. 0. 0. 0. 0. 0. 0. 0. 0. 0. 0.
      0. 0. 0. 0. 0. 0. 0. 0. 0. 0. 0. 0. 0. 0. 0. 0. 0. 0. 0. 0.
      2.20474049e-001 2.58783232e-002 7.74378106e-002 0. 4.90703173e-002
      0. 3.98828499e-002 1.33281816e-002 2.20474049e-001 5.17990053e-001
      1.55269941e-002 4.64626886e-002 0. 5.79570711e-001 0. 0. 0.
      5.17990053e-001 0. 0. 0. 0. 0. 0. 0. 0. 0. 4.35485877e-002 0. 0.
      0. 0. 0. 0. 0. 4.35485877e-002 3.71257984e-003 0. 0. 0.
      4.69855368e-002 0. 1.20036292e-003 4.01141180e-004 3.71257984e-003
      1.04078185e-003 0. 0. 7.31603068e-004 7.02429473e-001
      3.39641585e-003 2.00060476e-003 6.68568653e-004 1.04078185e-003
      3.12968274e-004 0. 0. 0. 6.25935346e-002 0. 1.71480395e-004
      5.73058860e-005 3.12968274e-004 8.77372804e-005 0. 0. 0.
      7.02429473e-001 0. 2.85800663e-004 9.55098076e-005 8.77372804e-005
      0. 0. 0. 3.18169827e-003 7.00778008e-001 8.38922616e-003 0. 0. 0.
      0. 0. 0. 0. 6.29214570e-002 0. 0. 0. 0. 0. 0. 0. 0.
      7.00778008e-001 0. 0. 0. 0. 0. 0. 0. 0. 8.23731199e-002 0. 0. 0.
      0. 0. 0. 0. 0. 0. 0. 0. 0. 0. 0. 0. 0. 0. 0. 0. 0. 0. 0. 0. 0. 0.
      0. 0. 0. 0. 0. 0. 0. 0. 0. 0. 0. 0. 0. 0. 0. 0. 0. 0. 0. 0. 0. 0.
      0. 0. 0. 0. 0. 0. 0. 0. 0. 0. 0. 0. 0. 0. 0. 0. 0. 0. 0. 0. 0. 0.
      0. 0. 0. 0. 0. 0. 0. 0. 0. 0. 0. 4.78383042e-002 0. 0. 0. 0. 0. 0.
      0. 0. 7.02413440e-001 0. 0. 0. 0. 0. 0. 0. 0. 6.26949146e-002 0.
      0. 0. 0. 0. 0. 0. 0. 7.02413440e-001 0. 0. 0. 0. 0. 0. 0. 0.
      7.00823247e-001 0. 0. 0. 0. 0. 0. 0. 0. 6.27408922e-002 0. 0. 0.
      0. 0. 0. 0. 0. 7.00823247e-001 0. 0. 0. 0. 0. 0. 0. 0.
      8.22256282e-002 0. 0. 0. 0. 0. 0. 0. 0. 0. 0. 0. 0. 0. 0. 0. 0. 0.
      0. 0. 0. 0. 0. 0. 0. 0. 0. 0. 0. 0. 0. 0. 0. 0. 0. 0. 0. 0. 0. 0.
      0. 0. 0. 0. 0. 0. 0. 0. 0. 0. 0. 0. 0. 0. 0. 0. 0. 0. 0. 0. 0. 0.
      0. 0. 0. 0. 0. 0. 0. 0. 0. 0. 0. 0. 0. 0. 0. 0. 0. 0. 0.
      4.78383042e-002 0. 0. 0. 0. 0. 0. 0. 0. 7.02413440e-001 0. 0. 0.
      0. 0. 0. 0. 0. 6.26949146e-002 0. 0. 0. 0. 0. 0. 0. 0.
      7.02413440e-001 0. 0. 0. 0. 0. 0. 0. 0. 7.00823247e-001 0. 0. 0.
      0. 0. 0. 0. 0. 6.27408922e-002 0. 0. 0. 0. 0. 0. 0. 0.
      7.00823247e-001 0. 0. 0. 0. 0. 0. 0. 0. 8.22256282e-002 0. 0. 0.
      0. 0. 0. 0. 0. 0. 0. 0. 0. 0. 0. 0. 0. 0. 0. 0. 0. 0. 0. 0. 0. 0.
      0. 0. 0. 0. 0. 0. 0. 0. 0. 0. 0. 0. 0. 0. 0. 1.59721430e-002
      1.09607237e-003 3.27985385e-003 0. 4.48488723e-003 0.
      9.84150101e-004 3.28885682e-004 1.59721430e-002 1.54322935e-002 0.
      0. 0. 3.47028021e-003 0. 8.28185771e-003 2.76765134e-003
      1.54322935e-002 4.91665095e-001 1.50866196e-001 1.30291972e-002 0.
      5.07996678e-002 0. 1.64025021e-003 5.48142823e-004 4.91665095e-001
      4.91665095e-001 2.09302939e-002 0. 0. 2.42919605e-002 0.
      2.12313998e-002 7.09516043e-003 4.91665095e-001 1.85507571e-003
      3.39672610e-004 1.01642613e-003 0. 4.34453450e-002 0. 0. 0.
      1.85507571e-003 5.20050526e-004 5.66121074e-004 1.69404363e-003 0.
      5.87714553e-001 1.14113921e-002 0. 0. 5.20050526e-004
      2.60956466e-001 1.20752435e-002 6.03174698e-003 0. 3.89985181e-002
      0. 0. 0. 2.69227117e-001 1.71449006e-001 7.93112516e-002
      5.10095656e-002 8.52993652e-002 5.87714553e-001 2.21364707e-001 0.
      0. 2.53841400e-001 5.52841835e-003 6.42057369e-003 1.44932175e-003
      8.04520398e-003 4.46171969e-001 6.51827198e-004 1.48146378e-003
      1.68232725e-003 5.52841835e-003 2.42730230e-002 3.85234412e-003
      8.69592943e-004 0. 4.21093553e-002 0. 8.88878363e-004
      1.00939639e-003 2.42730230e-002 3.08192760e-001 3.85234412e-003
      1.80475917e-002 1.87858641e-001 4.46171969e-001 5.93305789e-002
      2.16374788e-002 9.54475254e-002 2.24610642e-001 4.46171969e-001
      2.31140642e-003 5.21755836e-004 0. 4.03783359e-002 0.
      2.88186432e-003 1.77445300e-002 4.46171969e-001 4.68601994e-002
      2.54006288e-003 1.43930910e-003 0. 2.62402054e-002 7.87877943e-003
      6.53791800e-003 1.11930063e-002 5.81442267e-002 1.70668997e-002
      4.40826314e-003 9.49428231e-003 0. 3.25420462e-002 1.31312981e-002
      3.30922715e-002 1.78411342e-002 2.44072285e-002 4.73420382e-001
      1.77804418e-002 1.00751631e-002 0. 3.60417850e-002 4.72726766e-003
      4.38952120e-003 4.20411378e-002 4.73420382e-001 4.73420382e-001
      3.45537066e-002 3.79234739e-002 0. 7.69238546e-002 7.87877943e-003
      2.31227558e-002 2.75584579e-001 4.73420382e-001 4.35334407e-002
      4.95765917e-002 1.17414162e-001 2.74329573e-001 3.11163396e-001
      3.11163396e-001 1.37466252e-001 0. 3.30810435e-002 1.51513472e-001
      3.07695754e-002 2.18071043e-002 4.81863581e-002 2.02650763e-002
      5.05864881e-002 3.31685804e-002 0. 1.45646989e-001 2.01425210e-001
      9.64367937e-004 5.40103065e-004 7.08989501e-002 2.62618870e-001
      3.11163396e-001 3.11163396e-001 2.27255166e-001 1.64107770e-001
      3.11163396e-001 2.50244397e-003 3.24061839e-004 3.13387290e-002
      6.95773773e-003 1.30015910e-001 1.45842388e-001 1.35013223e-001
      3.11163396e-001 1.79448113e-001 0. 2.17534881e-003 3.72641208e-003
      5.55203948e-003 2.26952834e-003 0. 3.52643011e-003 1.80280924e-001
      1.62601665e-001 4.27177874e-003 6.88976198e-002 8.65796655e-002
      3.74465078e-001 1.56244367e-001 5.81048839e-002 9.16179717e-002
      1.84233725e-001 3.74465078e-001 0. 1.62834849e-003 2.12537916e-003
      2.41480558e-003 3.24218359e-004 0. 1.28693809e-003 3.74465078e-001
      3.74465078e-001 1.41763523e-001 2.07038254e-001 7.09844828e-002
      2.13940278e-001 8.68821591e-002 1.44560952e-002 7.72162864e-004
      3.74465078e-001 1.26476303e-001 8.90117213e-002 1.42248183e-001
      1.63985923e-001 1.63676724e-001 1.68452524e-002 2.14033294e-002
      1.24107590e-002 1.29890680e-001 2.51422852e-001 1.18992282e-002
      1.75353815e-003 2.53344607e-003 1.32355501e-003 1.37546950e-003
      7.12356414e-004 2.55098403e-003 2.63494730e-001 4.22009468e-001
      2.85904715e-003 2.60083694e-002 4.49441560e-002 1.20985419e-001
      3.82005237e-002 8.98588374e-002 9.01027694e-002 4.22009468e-001
      4.22009468e-001 2.70518358e-003 2.02154290e-004 9.05191933e-004
      7.94132997e-004 2.29244912e-003 3.09796538e-004 3.64426320e-004
      4.22009468e-001 9.25038233e-002 7.89186393e-004 3.39604542e-002
      5.97585738e-002 2.81486921e-002 5.25864251e-002 2.66663898e-002
      2.39825584e-002 8.09744000e-002 2.76117753e-002 0. 1.65389374e-001
      3.09410214e-001 3.09410214e-001 3.09410214e-001 1.36409014e-001
      4.47669476e-002 3.06305140e-002 3.09410214e-001 1.35062814e-001
      1.52445987e-001 1.43150538e-001 1.11993114e-002 2.88036037e-002
      2.32690317e-003 7.84447417e-003 3.09410214e-001 1.30941331e-001
      2.29608715e-001 3.09410214e-001 3.09410214e-001 3.09410214e-001
      7.24047348e-002 3.87817202e-003 4.45608143e-003 1.36174411e-001
      3.74100745e-001 3.79588194e-002 3.64599749e-002 1.15284687e-002
      2.90148348e-001 0. 1.51839852e-001 6.51204363e-002 3.70009989e-001
      4.16197032e-001 1.23369910e-001 3.08873773e-001 8.06992799e-002
      1.46838143e-001 0. 4.11216915e-002 1.57961939e-002 4.16197032e-001
      8.80209059e-002 0. 3.56748933e-003 1.64692418e-003 2.86510643e-002
      0. 6.95968270e-002 2.32580956e-002 8.80209059e-002 2.13793486e-001
      1.07581140e-002 5.71648069e-002 1.15284687e-002 1.40099339e-002 0.
      2.46730149e-002 8.24530795e-003 2.13793486e-001 4.35883999e-001
      2.73219962e-002 1.04098823e-002 0. 0. 0. 1.08187664e-002
      3.86847034e-002 4.35883999e-001 4.35883999e-001 6.40902296e-002
      7.28691742e-002 0. 0. 5.38048334e-002 2.84191579e-001
      7.70643875e-002 4.35883999e-001 1.63795337e-001 4.96970781e-004
      1.48712611e-003 0. 0. 0. 6.49125967e-003 2.16927053e-003
      1.63795337e-001 1.94218516e-001 3.47879529e-003 1.04098823e-002 0.
      0. 7.68640498e-003 6.75596893e-002 1.70131493e-002 1.94218516e-001
      4.13712889e-001 1.84676319e-001 3.41544926e-001 5.02996296e-002 0.
      0. 0. 0. 4.13712889e-001 4.13712889e-001 9.86620858e-002
      1.78432241e-001 3.01797800e-002 0. 0. 0. 0. 4.13712889e-001
      1.47585943e-001 2.28418335e-002 8.39166492e-002 7.18566170e-003 0.
      0. 0. 0. 1.47585943e-001 1.73228309e-001 1.78310964e-002
      6.26965761e-002 4.31139721e-003 0. 0. 0. 0. 1.73228309e-001
      4.04909700e-001 5.76172508e-002 5.59607446e-002 0. 1.44079864e-001
      9.28204879e-003 6.81376010e-002 1.88104600e-001 4.04909700e-001
      3.20495695e-001 1.42286420e-001 2.31688514e-001 0. 3.25128496e-001
      6.49743378e-002 1.01442628e-001 1.79259881e-001 4.04909700e-001
      1.55413330e-001 1.12206787e-002 3.35764475e-002 0. 1.97941475e-002
      0. 3.81598547e-002 2.02342235e-002 1.65663734e-001 1.14224806e-001
      4.45740148e-002 1.33382276e-001 0. 4.09260914e-002 0.
      2.28959154e-002 2.01211609e-002 1.31308809e-001</_>
    <_>
      1.48504004e-001 1.01093523e-001 1.48896545e-001 9.54981819e-002
      7.15864599e-002 0. 0. 0. 5.56654893e-002 3.00554574e-001
      1.43762127e-001 1.07010782e-001 7.12447241e-002 1.02266371e-002 0.
      0. 0. 3.00554574e-001 1.05840929e-001 1.43071741e-001
      3.00554574e-001 3.00554574e-001 3.00554574e-001 0. 0. 0.
      3.77834775e-002 3.00554574e-001 2.25629628e-001 2.75399983e-001
      3.00554574e-001 7.34378695e-002 0. 0. 0. 3.00554574e-001
      3.32261890e-001 0. 0. 0. 0. 0. 0. 0. 3.32261890e-001
      3.32261890e-001 0. 0. 0. 3.08634859e-004 2.78194044e-002
      3.21913548e-002 1.10864408e-001 3.32261890e-001 3.32261890e-001 0.
      9.80562647e-004 4.52672743e-004 0. 7.28441810e-004 1.09272962e-003
      0. 3.32261890e-001 3.32261890e-001 1.95117400e-003 6.86393911e-003
      3.16870911e-003 1.77963570e-001 1.95949897e-001 6.19675033e-002
      1.59449145e-001 3.32261890e-001 3.52477700e-001 1.72024537e-002
      4.80610831e-003 4.30890033e-003 1.15648087e-004 0. 0. 0.
      3.52477700e-001 3.52477700e-001 0. 0. 0. 0. 0. 0. 0.
      3.52477700e-001 3.52477700e-001 2.49613672e-002 1.21293943e-002
      3.01623009e-002 2.03185659e-002 1.09893596e-002 1.69983658e-003 0.
      3.52477700e-001 3.52477700e-001 0. 0. 0. 0. 2.00290597e-004
      2.42833776e-004 0. 3.52477700e-001 3.04099262e-001 0. 0. 0.
      5.14866002e-002 1.11421883e-001 1.49450287e-001 1.14980876e-001
      3.05865228e-001 3.96733657e-002 0. 0. 0. 9.48097482e-002
      1.51527822e-001 1.21091545e-001 6.89885318e-002 9.91387069e-002
      3.05865228e-001 0. 7.15859496e-005 6.17653038e-003 1.28325775e-001
      3.05865228e-001 3.05865228e-001 1.15282670e-001 3.05865228e-001
      3.61681581e-002 0. 1.02265640e-005 8.82361550e-004 3.05865228e-001
      3.05865228e-001 3.05865228e-001 6.74412549e-002 8.36054608e-002
      1.68598309e-001 7.52224624e-002 9.96529758e-002 7.47300014e-002
      1.69663057e-001 2.53795773e-001 1.99686140e-001 1.37743294e-001
      1.67024925e-001 2.92688996e-001 2.86349542e-002 3.69685367e-002
      1.54876923e-002 4.10647057e-002 1.30670905e-001 1.24958180e-001
      9.97032300e-002 2.92688996e-001 1.39938831e-001 7.23814592e-002
      1.51835009e-001 1.98530629e-001 2.92688996e-001 2.17689544e-001
      1.58768237e-001 1.29049852e-001 1.88374519e-001 2.92688996e-001
      3.16342488e-002 4.76474650e-002 7.10060224e-002 2.51938015e-001
      4.00209017e-002 5.12635335e-002 6.64510652e-002 2.92688996e-001
      3.02207083e-001 1.97554193e-002 2.91940644e-002 2.57083252e-002
      5.17711788e-003 2.73802271e-003 1.83028739e-003 3.01308883e-003
      3.02207083e-001 3.02207083e-001 1.38287932e-001 3.02207083e-001
      3.02207083e-001 8.33551586e-002 1.91661566e-002 3.05047887e-003
      5.02181426e-003 2.86631167e-001 3.02207083e-001 2.07777992e-002
      1.75164398e-002 3.62428580e-003 4.31304041e-004 0. 0. 0.
      3.02207083e-001 3.02207083e-001 1.45444602e-001 1.48893759e-001
      1.33426651e-001 5.05880341e-002 0. 0. 0. 3.02207083e-001
      3.45976979e-001 0. 0. 2.53489614e-002 5.98596260e-002
      1.17634758e-001 1.08084150e-001 5.45166545e-002 3.45976979e-001
      3.45976979e-001 0. 0. 3.12596676e-003 3.18948738e-003 0.
      9.48508387e-006 7.38096947e-004 3.45976979e-001 3.45976979e-001 0.
      0. 2.89358664e-003 1.66329462e-002 2.24506501e-002 4.99909371e-002
      5.39975129e-002 3.45976979e-001 3.45976979e-001 0. 0.
      4.13369504e-004 4.46076068e-004 0. 0. 0. 3.45976979e-001
      2.37116680e-001 1.44768700e-001 2.45802432e-001 1.53519943e-001
      4.62734103e-002 1.52984662e-002 6.00306783e-003 1.91842597e-002
      1.83240592e-001 1.10425554e-001 1.99533090e-001 2.45802432e-001
      1.70675278e-001 7.31040910e-002 1.70427531e-001 2.13061810e-001
      1.01063594e-001 2.52971239e-002 2.45802432e-001 1.01291142e-001
      2.26547331e-001 2.40617305e-001 1.80109784e-001 0. 2.38194373e-002
      4.21876535e-002 1.97725400e-001 1.02232710e-001 1.06864341e-001
      2.45802432e-001 2.45802432e-001 2.45802432e-001 2.45802432e-001
      2.20426351e-001 3.97474915e-002 1.80810485e-002 6.29861024e-004 0.
      0. 0. 5.03681839e-001 0. 0. 0. 6.29861024e-004 0. 0. 0. 0.
      4.83614087e-001 0. 0. 0. 0. 2.92027777e-004 0. 0. 0.
      5.03681839e-001 0. 0. 0. 2.92027777e-004 0. 0. 0. 0.
      5.03681839e-001 0. 0. 0. 0. 0. 0. 0. 0. 0. 0. 0. 0. 0. 0. 0. 0. 0.
      0. 0. 0. 0. 0. 0. 0. 0. 0. 0. 0. 0. 0. 0. 0. 0. 0. 0. 0. 0. 0. 0.
      0. 0. 0. 0. 0. 0. 0. 0. 0. 0. 0. 0. 0. 0. 0. 0. 0. 0. 0. 0. 0. 0.
      0. 0. 0. 0. 0. 0. 0. 0. 0. 0. 0. 0. 0. 0. 0. 0. 0. 0.
      6.79372170e-004 4.98534054e-001 1.51647860e-002 0. 0. 0. 0. 0. 0.
      1.13228697e-003 4.98534054e-001 2.52746418e-002 0. 0. 0. 0. 0. 0.
      1.13228697e-003 4.98534054e-001 4.12073743e-004 0. 0. 0. 0. 0. 0.
      1.88714499e-003 4.98534054e-001 6.86789572e-004 0. 0. 0.
      7.98818473e-006 0. 0. 0. 5.03688931e-001 0. 0. 0. 7.98818473e-006
      0. 0. 0. 0. 4.83592689e-001 0. 0. 0. 0. 0. 0. 0. 0.
      5.03688931e-001 0. 0. 0. 0. 0. 0. 0. 0. 5.03688931e-001 0. 0. 0.
      0. 0. 0. 0. 0. 0. 0. 0. 0. 0. 0. 0. 0. 0. 0. 0. 0. 0. 0. 0. 0. 0.
      0. 0. 0. 0. 0. 0. 0. 0. 0. 0. 0. 0. 0. 0. 0. 0. 0. 0. 0. 0. 0. 0.
      0. 0. 0. 0. 0. 0. 0. 0. 0. 0. 0. 0. 0. 0. 0. 0. 0. 0. 0. 0. 0. 0.
      0. 0. 0. 0. 0. 0. 0. 0. 0. 0. 0. 4.98753130e-001 0. 0. 0. 0. 0. 0.
      0. 0. 4.98753130e-001 0. 0. 0. 0. 0. 0. 0. 0. 4.98753130e-001 0.
      0. 0. 0. 0. 0. 0. 0. 4.98753130e-001 0. 0. 0. 0. 0. 0. 0. 0.
      5.03688931e-001 0. 0. 0. 0. 0. 0. 0. 0. 4.83592689e-001 0. 0. 0.
      0. 0. 0. 0. 0. 5.03688931e-001 0. 0. 0. 0. 0. 0. 0. 0.
      5.03688931e-001 0. 0. 0. 0. 0. 0. 0. 0. 0. 0. 0. 0. 0. 0. 0. 0. 0.
      0. 0. 0. 0. 0. 0. 0. 0. 0. 0. 0. 0. 0. 0. 0. 0. 0. 0. 0. 0. 0. 0.
      0. 0. 0. 0. 0. 0. 0. 0. 0. 0. 0. 0. 0. 0. 0. 0. 0. 0. 0. 0. 0. 0.
      0. 0. 0. 0. 0. 0. 0. 0. 0. 0. 0. 0. 0. 0. 0. 0. 0. 0. 0.
      4.98753130e-001 0. 0. 0. 0. 0. 0. 0. 0. 4.98753130e-001 0. 0. 0.
      0. 0. 0. 0. 0. 4.98753130e-001 0. 0. 0. 0. 0. 0. 0. 0.
      4.98753130e-001 0. 0. 0. 0. 1.87258265e-004 0. 0. 0.
      5.03688216e-001 0. 0. 0. 1.87258265e-004 0. 0. 0. 0.
      4.83594358e-001 0. 0. 0. 0. 4.75235109e-004 0. 0. 0.
      5.03688216e-001 0. 0. 0. 4.75235109e-004 0. 0. 0. 0.
      5.03688216e-001 0. 0. 0. 0. 0. 0. 0. 0. 0. 0. 0. 0. 0. 0. 0. 0. 0.
      0. 0. 0. 0. 0. 0. 0. 0. 0. 0. 0. 0. 0. 0. 0. 0. 0. 0. 0. 0. 0. 0.
      0. 0. 0. 0. 0. 0. 0. 0. 0. 0. 0. 0. 0. 0. 0. 0. 0. 0. 0. 0. 0. 0.
      0. 0. 0. 0. 0. 0. 0. 0. 0. 0. 0. 0. 0. 0. 0. 0. 0. 0.
      1.99593231e-003 4.98712152e-001 1.11275772e-003 0. 0. 0. 0. 0. 0.
      3.32655408e-003 4.98712152e-001 1.85459643e-003 0. 0. 0. 0. 0. 0.
      3.40053020e-003 4.98712152e-001 5.15172724e-003 0. 0. 0. 0. 0. 0.
      5.66755049e-003 4.98712152e-001 8.58621113e-003 0. 0. 0.
      3.07758804e-002 1.08635807e-002 2.69721262e-002 2.51153976e-001
      3.21223795e-001 1.21801615e-001 5.84515231e-003 2.16860157e-002
      4.47445288e-002 1.04573883e-001 1.55194011e-003 3.85316089e-003
      3.58791389e-002 3.21223795e-001 5.03957495e-002 0. 7.73788895e-003
      1.12955078e-001 1.58349916e-001 1.71475634e-001 1.83473513e-001
      3.21223795e-001 2.55660951e-001 2.08267778e-001 1.23177215e-001
      1.76338986e-001 3.04997534e-001 3.21223795e-001 6.81219399e-002
      5.28246835e-002 7.07289651e-002 1.03599586e-001 9.27680731e-002
      1.17515931e-002 5.45321479e-002 3.21223795e-001 1.57921433e-001 0.
      0. 0. 0. 0. 0. 0. 1.59697771e-001 1.62401929e-001 0. 0. 0.
      4.64357156e-003 0. 0. 2.05800366e-002 1.92961603e-001
      4.36913937e-001 0. 0. 0. 0. 0. 0. 1.94626010e-003 4.36913937e-001
      4.36913937e-001 0. 0. 0. 1.38135567e-001 8.89664292e-002
      2.30725363e-001 1.93209261e-001 4.36913937e-001 1.49599776e-001
      9.50758718e-003 0. 0. 2.10922956e-003 0. 0. 0. 1.36811718e-001
      2.01975971e-001 0. 0. 0. 0. 0. 0. 0. 2.01975971e-001
      4.58789319e-001 1.02580562e-001 1.21692888e-001 6.95225149e-002
      2.28165481e-002 0. 0. 0. 4.58789319e-001 4.58789319e-001 0. 0. 0.
      0. 0. 0. 0. 4.58789319e-001 4.07624543e-002 2.44539138e-002
      1.03212576e-002 1.55906240e-002 2.73701578e-001 1.87816635e-001
      3.91052924e-002 4.78712464e-004 6.27832040e-002 4.56221821e-003
      1.46723492e-002 1.02549747e-001 2.73701578e-001 2.73701578e-001
      2.73701578e-001 9.70463902e-002 3.35098710e-003 4.36711162e-002
      2.73701578e-001 5.67351356e-002 4.08436395e-002 5.60413897e-002
      7.64397681e-002 2.12727085e-001 9.77863818e-002 1.05196461e-001
      2.73701578e-001 8.14452916e-002 1.69347823e-001 2.73701578e-001
      2.73701578e-001 1.17616616e-001 2.73701578e-001 2.03334287e-001
      1.11590154e-001 2.73701578e-001 2.66547333e-002 7.30411615e-004
      1.32423756e-003 3.75599042e-002 2.72082716e-001 2.80933350e-001
      2.80933350e-001 1.23938017e-001 4.56027649e-002 2.80933350e-001
      3.32228793e-003 2.20706267e-003 1.91317704e-002 8.92214105e-002
      1.46183178e-001 1.93759888e-001 1.62009761e-001 2.45735154e-001
      5.96998669e-002 0. 0. 1.29056897e-003 1.50781885e-001
      1.49119720e-001 2.80933350e-001 2.75648713e-001 9.63849798e-002
      2.80933350e-001 0. 0. 2.15094816e-003 2.55042817e-002
      5.43994308e-002 2.44587690e-001 2.80933350e-001 2.80933350e-001
      3.31690848e-001 0. 1.71038439e-003 3.78304074e-004 0.
      1.21980680e-004 4.63124336e-004 1.66249694e-003 3.31690848e-001
      2.61541545e-001 6.71067014e-002 1.36385992e-001 1.41258791e-001
      1.88632801e-001 2.03499217e-002 3.24187055e-003 1.28851412e-002
      3.31690848e-001 3.31690848e-001 0. 0. 0. 0. 0. 0. 2.37499538e-004
      3.31690848e-001 3.31690848e-001 2.40157202e-001 1.34857163e-001
      5.38880937e-002 1.20004416e-002 0. 0. 1.66249694e-003
      3.31690848e-001 3.34588259e-001 6.11855043e-003 6.34226855e-003
      1.92612410e-002 2.24806480e-002 1.93716064e-002 2.82398723e-002
      1.19735152e-002 3.28776151e-001 3.58693272e-001 9.92295681e-004
      2.14360378e-004 1.60880067e-004 0. 5.40302484e-004 7.19914562e-004
      5.21088718e-004 3.58693272e-001 3.58693272e-001 8.37135885e-004 0.
      0. 2.34585372e-003 5.80827938e-003 2.21636333e-002 4.00568843e-002
      3.58693272e-001 3.58693272e-001 1.19590833e-004 0. 0. 0. 0. 0. 0.
      3.58693272e-001 8.92988890e-002 5.24139367e-002 2.76708454e-001
      2.76708454e-001 1.67319566e-001 1.96322575e-002 5.27884054e-004
      1.23485988e-002 2.18865693e-001 3.41767888e-003 3.10716685e-002
      2.76708454e-001 2.76708454e-001 2.76708454e-001 2.78492570e-002
      3.16730438e-004 1.76408561e-003 2.18149442e-002 2.23238647e-001
      2.38882259e-001 2.76708454e-001 1.92185774e-001 5.02410159e-002 0.
      0. 3.78047340e-002 2.76708454e-001 4.77866717e-002 1.43329352e-001
      2.76708454e-001 2.76708454e-001 2.14445725e-001 0. 0.
      5.40067675e-003 4.58826683e-002</_>
    <_>
      1.28786368e-002 0. 0. 0. 2.52275374e-002 0. 0. 2.02176394e-003
      1.32975709e-002 7.37735108e-002 0. 0. 0. 4.72971946e-002
      2.68101189e-002 1.31070260e-002 1.41523471e-002 7.67060369e-002
      3.77105027e-001 0. 0. 0. 1.05061434e-001 0. 0. 1.41523471e-002
      3.80037546e-001 5.58452189e-001 0. 0. 0. 2.11861461e-001
      4.46835309e-002 2.18450390e-002 9.90664288e-002 5.58452189e-001
      1.66963451e-002 0. 0. 0. 6.27293158e-003 0. 0. 0. 1.66963451e-002
      5.36749559e-003 0. 0. 0. 6.47180993e-003 0. 0. 0. 5.36749559e-003
      4.97114956e-001 0. 0. 0. 4.39105257e-002 0. 0. 0. 4.97114956e-001
      4.97114956e-001 0. 0. 0. 6.25886992e-002 0. 0. 0. 4.97114956e-001
      0. 0. 0. 0. 0. 0. 0. 0. 0. 0. 0. 0. 0. 1.38584198e-003 0. 0. 0. 0.
      4.98727173e-001 0. 0. 0. 2.77935248e-003 0. 0. 0. 4.98727173e-001
      4.98727173e-001 0. 0. 0. 9.70089436e-003 0. 0. 0. 4.98727173e-001
      1.57192033e-002 0. 0. 0. 3.10590491e-002 0. 0. 0. 1.57192033e-002
      0. 0. 0. 0. 0. 0. 0. 0. 0. 6.86354935e-001 0. 0. 0.
      2.17413336e-001 0. 0. 0. 6.86354935e-001 0. 0. 0. 0. 0. 0. 0. 0.
      0. 1.61645450e-002 1.02506494e-002 2.69645303e-001 2.69645303e-001
      2.69645303e-001 6.99536428e-002 2.52084620e-002 0. 1.05235856e-002
      1.19321212e-001 1.77127477e-002 2.45830238e-001 2.08524495e-001
      2.59883821e-001 6.30796328e-002 1.81163643e-002 5.55550912e-004
      1.33944392e-001 2.46496443e-002 0. 6.97890222e-002 1.06318474e-001
      2.69645303e-001 2.69645303e-001 2.69645303e-001 4.36475202e-002
      4.39210571e-002 2.69645303e-001 8.97616919e-005 4.38411124e-002
      9.84093174e-002 2.58019149e-001 1.83574140e-001 2.69645303e-001
      7.30791911e-002 2.52071291e-001 2.18512878e-001 0. 2.34233378e-003
      5.17539214e-003 8.25119019e-003 1.25002619e-002 2.03430443e-003
      1.17120391e-003 2.20280558e-001 1.97903484e-001 4.71892068e-003
      1.57337740e-001 2.85022706e-001 1.56477362e-001 8.03563893e-002
      9.26620215e-002 7.73650557e-002 2.68397391e-001 2.85022706e-001
      1.37789482e-002 4.13939320e-002 1.33652659e-002 5.14414236e-002
      2.52293944e-002 1.22058252e-003 4.18614451e-004 2.85022706e-001
      2.85022706e-001 1.79703102e-001 2.85022706e-001 2.85022706e-001
      2.85022706e-001 1.65983230e-001 4.32985164e-002 4.62147146e-002
      2.85022706e-001 3.04665208e-001 1.69201717e-002 1.24649033e-002
      1.08311819e-002 9.98405591e-002 3.87248769e-002 9.04896669e-003
      4.95488290e-003 3.41265440e-001 3.45678777e-001 3.37066106e-003
      3.07454285e-003 8.64545174e-004 9.59522277e-003 1.11774420e-002
      1.43171765e-003 2.94566364e-003 3.45678777e-001 3.45678777e-001
      8.20940174e-003 1.53465178e-002 2.05493979e-002 7.73308501e-002
      1.05051681e-001 1.02375038e-001 1.71662390e-001 3.45678777e-001
      3.45678777e-001 1.88356952e-003 6.18797028e-003 1.63874042e-003
      5.85448509e-003 1.21421507e-002 8.59030581e-004 1.01770193e-003
      3.45678777e-001 0. 0. 3.35252881e-002 7.72135705e-002
      3.40117514e-001 3.40117514e-001 3.40117514e-001 5.45950839e-003
      5.22753829e-003 0. 0. 0. 0. 9.52707380e-002 5.14169084e-003
      2.81831273e-003 0. 0. 6.43258542e-002 1.94431879e-002
      3.40117514e-001 2.47491062e-001 3.40117514e-001 3.40117514e-001
      2.29307875e-001 6.03599362e-002 3.40117514e-001 6.91161631e-003 0.
      0. 0. 1.89098105e-001 9.66448039e-002 1.97281893e-002
      8.62284936e-003 5.46420179e-002 3.93503278e-001 0. 0. 0. 0. 0. 0.
      0. 3.93503278e-001 5.85008085e-001 0. 0. 0. 0. 0. 0. 0.
      5.85008085e-001 0. 0. 0. 0. 0. 0. 0. 0. 0. 0. 0. 0. 0. 0. 0. 0. 0.
      0. 2.19078772e-002 0. 0. 0. 1.37994066e-001 5.44508453e-003
      5.00318944e-004 0. 2.19078772e-002 1.23048509e-002 0.
      4.50181263e-003 8.04610178e-002 6.80954039e-001 5.52332662e-002
      6.32598158e-003 0. 1.23048509e-002 0. 0. 0. 0. 1.89426497e-001 0.
      0. 0. 0. 0. 0. 0. 1.71710132e-003 6.80954039e-001 0. 0. 0. 0.
      1.82152987e-001 0. 0. 3.74808186e-003 6.35912120e-001
      1.33964300e-001 0. 0. 1.58966392e-001 2.29236260e-001 0. 0. 0. 0.
      0. 0. 0. 2.36449346e-001 0. 0. 0. 2.24884925e-003 6.35912120e-001
      3.09158815e-003 0. 0. 0. 0. 0. 0. 0. 0. 0. 0. 0. 0.
      1.28616521e-003 0. 8.61413125e-003 7.97462612e-002 4.91907328e-001
      1.23623885e-001 4.87402035e-003 1.47655781e-003 4.06575855e-003
      1.83737895e-004 0. 7.96644017e-004 2.38133501e-003 4.91907328e-001
      7.34477565e-002 2.72442983e-003 0. 5.80822700e-004 0. 0. 0.
      3.85047845e-003 4.91907328e-001 2.98934919e-003 0. 0. 0. 0. 0. 0.
      9.80884186e-004 4.91907328e-001 1.35766191e-003 0. 0. 0. 0. 0. 0.
      0. 0. 0. 0. 0. 0. 0. 0. 0. 0. 0. 0. 0. 0. 0. 0. 0. 0. 0. 0. 0. 0.
      0. 0. 0. 0. 0. 0. 0. 0. 0. 0. 0. 0. 0. 0. 0. 1.41835764e-001 0. 0.
      0. 0. 0. 0. 0. 0. 6.85015082e-001 0. 0. 0. 0. 0. 0. 0. 0.
      1.85884118e-001 0. 0. 0. 0. 0. 0. 0. 0. 6.85015082e-001 0. 0. 0.
      0. 0. 0. 0. 0. 7.04615593e-001 0. 0. 0. 0. 0. 0. 0. 0. 0. 0. 0. 0.
      0. 0. 0. 0. 0. 7.04615593e-001 0. 0. 0. 0. 0. 0. 0. 0. 0. 0. 0. 0.
      0. 0. 0. 0. 0. 4.98753130e-001 0. 0. 0. 0. 0. 0. 0. 0.
      4.98753130e-001 0. 0. 0. 0. 0. 0. 0. 0. 4.98753130e-001 0. 0. 0.
      0. 0. 0. 0. 0. 4.98753130e-001 0. 0. 0. 0. 0. 0. 0. 0. 0. 0. 0. 0.
      0. 0. 0. 0. 0. 0. 0. 0. 0. 0. 0. 0. 0. 0. 0. 0. 0. 0. 0. 0. 0. 0.
      0. 0. 0. 0. 0. 0. 0. 0. 0. 0. 1.41835764e-001 0. 0. 0. 0. 0. 0. 0.
      0. 6.85015082e-001 0. 0. 0. 0. 0. 0. 0. 0. 1.85884118e-001 0. 0.
      0. 0. 0. 0. 0. 0. 6.85015082e-001 0. 0. 0. 0. 0. 0. 0. 0.
      7.04615593e-001 0. 0. 0. 0. 0. 0. 0. 0. 0. 0. 0. 0. 0. 0. 0. 0. 0.
      7.04615593e-001 0. 0. 0. 0. 0. 0. 0. 0. 0. 0. 0. 0. 0. 0. 0. 0. 0.
      4.98753130e-001 0. 0. 0. 0. 0. 0. 0. 0. 4.98753130e-001 0. 0. 0.
      0. 0. 0. 0. 0. 4.98753130e-001 0. 0. 0. 0. 0. 0. 0. 0.
      4.98753130e-001 0. 0. 0. 0. 0. 0. 0. 0. 0. 0. 0. 0. 0. 0. 0. 0. 0.
      0. 0. 0. 0. 0. 0. 0. 0. 0. 0. 0. 0. 0. 0. 0. 0. 0. 0. 0. 0. 0. 0.
      0. 0. 0. 0. 0. 1.46069139e-001 0. 0. 0. 0. 0. 0. 0.
      1.24648097e-003 6.72238946e-001 8.09957332e-004 0. 0. 0. 0. 0. 0.
      0. 1.89538032e-001 0. 0. 0. 0. 0. 0. 0. 2.65315268e-002
      6.72238946e-001 1.77161738e-001 1.12040089e-002 0. 0.
      2.81525194e-003 0. 0. 0. 4.58178520e-001 2.82808742e-003 0. 0.
      2.81525194e-003 5.40392194e-003 0. 0. 0. 0. 0. 0. 0.
      5.40392194e-003 2.65981585e-001 0. 0. 1.11804396e-001
      4.58178520e-001 1.03001697e-002 0. 2.18149703e-002 3.44442189e-001
      4.31817085e-001 0. 0. 0. 9.23992135e-003 0. 0. 0. 4.31817085e-001
      0. 0. 0. 6.24953164e-003 4.62418050e-001 3.72161414e-003 0. 0. 0.
      0. 0. 0. 3.45340231e-003 4.62418050e-001 2.02178140e-003 0. 0. 0.
      0. 8.31637823e-004 2.72217933e-002 3.09573650e-001 4.62418050e-001
      1.02504112e-001 0. 0. 0. 0. 0. 7.07645854e-003 1.81192607e-001
      4.62418050e-001 4.99459868e-003 0. 0. 0. 0. 0. 0. 0. 0. 0. 0. 0.
      0. 0. 0. 0. 0. 0. 0. 0. 0. 0. 0. 0. 0. 0. 0. 0. 0. 0. 0. 0. 0. 0.
      0. 0. 0. 0. 0. 0. 0. 0. 0. 0. 2.58964524e-002 0. 0. 0. 0.
      4.05716151e-003 3.34168971e-002 0. 2.54570007e-001 4.11044925e-001
      4.11044925e-001 4.11044925e-001 2.42462143e-001 4.59962860e-002 0.
      0. 0. 0. 0. 0. 0. 0. 0. 0. 0. 0. 1.52742028e-001 4.11044925e-001
      4.11044925e-001 5.25998836e-003 1.52596245e-002 0. 2.78897554e-001
      1.05637014e-001 3.68511379e-002 6.02556318e-002 4.67851274e-002
      1.78080909e-002 4.73709032e-003 0. 3.27444524e-001 3.60040784e-001
      1.08031789e-002 2.23376337e-004 4.30065999e-003 3.64168343e-004 0.
      2.09545717e-003 7.37423776e-003 3.60040784e-001 3.60040784e-001
      1.92761477e-002 6.50578365e-003 2.44439431e-002 5.97146675e-002
      7.98581764e-002 5.35204336e-002 1.87801179e-002 3.60040784e-001
      3.60040784e-001 3.92375514e-003 1.34025802e-004 2.58039613e-003
      2.18501038e-004 0. 3.09297256e-003 2.34354660e-002 3.60040784e-001
      1.77405983e-001 9.24795195e-002 2.70801097e-001 3.34067225e-001
      3.73061895e-001 2.85359502e-001 2.40161151e-001 3.42974961e-002
      9.61208344e-003 2.53437124e-002 1.32113621e-002 3.10081653e-002
      3.51942256e-002 1.84102505e-001 0. 0. 0. 0. 1.70183368e-002
      3.28379795e-002 3.73061895e-001 3.73061895e-001 3.73061895e-001
      1.06861934e-001 2.55801398e-002 0. 0. 0. 0. 4.42973711e-003
      2.41252291e-003 1.54462799e-001 0. 0. 0. 0. 0. 0. 0. 0. 0. 0. 0.
      0. 0. 0. 0. 0. 0. 0. 0. 0. 0. 0. 0. 0. 0. 0. 0. 0. 0. 0. 0. 0. 0.
      0. 0. 0. 0. 0. 0. 0. 0. 0. 0. 0. 0. 0. 0. 0. 0. 0. 0. 0. 0. 0. 0.
      0. 0. 0. 0. 0. 0. 0. 0. 0. 0. 0. 0. 0. 0. 0. 0. 0. 0. 0. 0. 0.
      4.98753130e-001 0. 0. 0. 0. 0. 0. 0. 4.98753130e-001
      4.98753130e-001 0. 0. 0. 0. 0. 0. 0. 4.98753130e-001 0. 0. 0. 0.
      0. 0. 0. 0. 0. 0. 0. 0. 0. 0. 0. 0. 0. 0. 6.99944556e-001 0. 0. 0.
      0. 0. 0. 0. 6.99944556e-001 0. 0. 0. 0. 0. 0. 0. 0. 0. 0. 0. 0. 0.
      0. 0. 0. 0. 0. 0. 0. 0. 0. 0. 0. 0. 0. 0.</_>
    <_>
      6.42189607e-002 8.46903771e-002 6.93919808e-002 3.68908094e-003
      9.48509127e-002 2.43627210e-003 2.88235373e-003 4.49427515e-002
      2.06256032e-001 2.66318917e-002 1.23270936e-002 9.77244228e-003
      6.14846731e-003 1.20806254e-001 1.64335652e-003 6.09163055e-003
      2.69239023e-002 1.23908162e-001 3.64810005e-002 1.32924646e-001
      3.17609251e-001 2.69627184e-001 3.17609251e-001 2.19640732e-001
      2.50542402e-001 3.17609251e-001 3.17609251e-001 1.41283423e-002
      1.90218724e-002 9.46830288e-002 4.18910459e-002 3.17609251e-001
      2.51002520e-001 1.56926870e-001 1.96117908e-001 2.25743681e-001 0.
      0. 0. 0. 0. 0. 0. 0. 0. 0. 0. 0. 0. 0. 0. 0. 0. 0. 0. 0. 0. 0. 0.
      0. 0. 0. 0. 0. 0. 0. 0. 0. 0. 0. 0. 0. 0. 0. 0. 0. 0. 0. 0. 0. 0.
      0. 0. 0. 0. 0. 0. 0. 0. 0. 0. 0. 0. 0. 0. 0. 0. 0. 0. 0. 0. 0. 0.
      0. 0. 0. 0. 0. 0. 0. 0. 0. 0. 0. 0. 0. 0. 0. 0. 0. 0. 0. 0. 0. 0.
      0. 0. 0. 0. 0. 0. 0. 0. 0. 0. 0. 0. 0. 0. 0. 0. 0. 0. 0.
      6.23774758e-006 0. 0. 2.86671668e-002 4.97950137e-001
      2.84644160e-002 0. 0. 6.23774758e-006 0. 0. 0. 6.09345129e-003
      4.97950137e-001 3.72751169e-002 0. 0. 0. 0. 0. 0. 6.24778215e-003
      4.97950137e-001 7.20160222e-003 0. 0. 0. 0. 0. 0. 3.47335148e-003
      4.97950137e-001 6.91484008e-003 0. 0. 0. 0. 0. 0. 0. 0. 0. 0. 0.
      0. 0. 0. 0. 0. 0. 0. 0. 0. 0. 0. 0. 0. 0. 0. 0. 0. 0. 0. 0. 0. 0.
      0. 0. 0. 0. 0. 0. 0. 0. 0. 0. 0. 0. 0. 0. 0. 0. 0. 0. 0. 0. 0. 0.
      0. 0. 0. 0. 0. 0. 0. 0. 0. 0. 0. 0. 0. 0. 0. 0. 0. 0. 0. 0. 0. 0.
      0. 0. 0. 0. 0. 0. 0. 0. 0. 0. 0. 0. 0. 0. 0. 0. 0. 0. 0. 0. 0. 0.
      0. 0. 0. 0. 0. 0. 0. 0. 0. 0. 0. 0. 0. 0. 0. 4.42667305e-003
      4.98728752e-001 2.97679589e-003 0. 0. 0. 0. 0. 0. 2.83514755e-003
      4.98728752e-001 2.07325211e-003 0. 0. 0. 0. 0. 0. 4.14322969e-003
      4.98728752e-001 3.81335989e-003 0. 0. 0. 0. 0. 0. 4.44518914e-003
      4.98728752e-001 2.28801579e-003 0. 0. 0. 0. 0. 0. 0. 0. 0. 0. 0.
      0. 0. 0. 0. 0. 0. 0. 0. 0. 0. 0. 0. 0. 0. 0. 0. 0. 0. 0. 0. 0. 0.
      0. 0. 0. 0. 0. 0. 0. 0. 0. 0. 0. 0. 0. 0. 0. 0. 0. 0. 0. 0. 0. 0.
      0. 0. 0. 0. 0. 0. 0. 0. 0. 0. 0. 0. 0. 0. 0. 0. 0. 0. 0. 0. 0. 0.
      0. 0. 0. 0. 0. 0. 0. 0. 0. 0. 0. 0. 0. 0. 0. 0. 0. 0. 0. 0. 0. 0.
      0. 0. 0. 0. 0. 0. 0. 0. 0. 0. 0. 0. 0. 0. 0. 6.92228496e-004
      4.98749942e-001 9.79744596e-004 0. 0. 0. 0. 0. 0. 1.15371426e-003
      4.98749942e-001 1.63290766e-003 4.69194521e-004 1.56796552e-004 0.
      0. 0. 0. 1.15371426e-003 4.98749942e-001 1.39963508e-004 0. 0. 0.
      0. 0. 0. 1.92285702e-003 4.98749942e-001 2.33272527e-004
      1.35078316e-003 4.51407977e-004 0. 0. 0. 0. 0. 0. 0. 0. 0. 0. 0.
      0. 0. 0. 0. 0. 0. 0. 0. 0. 0. 0. 0. 0. 0. 0. 0. 0. 0. 0. 0. 0. 0.
      0. 0. 0. 0. 0. 0. 0. 0. 0. 0. 0. 0. 0. 0. 0. 0. 0. 0. 0. 0. 0. 0.
      0. 0. 0. 0. 0. 0. 0. 0. 0. 0. 0. 0. 0. 0. 0. 0. 0. 0. 0. 0. 0. 0.
      0. 0. 0. 0. 0. 0. 0. 0. 0. 0. 0. 0. 0. 0. 0. 0. 0. 0. 0. 0. 0. 0.
      0. 0. 0. 0. 0. 0. 0. 0. 0. 0. 0. 0. 0. 2.52789725e-003
      4.98719215e-001 2.17475509e-003 0. 0. 0. 0. 0. 0. 1.51673832e-003
      4.98719215e-001 3.04523250e-003 1.05143455e-003 3.51370923e-004 0.
      0. 0. 0. 6.62550097e-003 4.98719215e-001 5.71069214e-003 0. 0. 0.
      0. 6.58759018e-005 1.97125817e-004 4.14498430e-003 4.98719215e-001
      4.21944261e-003 3.95161944e-004 1.32056171e-004 0. 0. 0. 0. 0. 0.
      0. 0. 0. 0. 0. 0. 0. 0. 0. 0. 0. 0. 0. 0. 0. 0. 0. 0. 0. 0. 0. 0.
      0. 0. 0. 0. 0. 0. 0. 0. 0. 0. 0. 0. 0. 0. 0. 0. 0. 0. 0. 0. 0. 0.
      0. 0. 0. 0. 0. 2.43927449e-001 2.98115741e-002 8.92072544e-002 0.
      8.09782371e-002 0. 0. 0. 2.43927449e-001 6.53790116e-001
      1.78869460e-002 5.35243563e-002 0. 1.15683191e-002 0. 0. 0.
      6.53790116e-001 0. 0. 0. 0. 0. 0. 0. 0. 0. 0. 0. 0. 0. 0. 0. 0. 0.
      0. 3.10832649e-001 0. 0. 0. 7.98234046e-001 0. 2.51938403e-001
      8.41933712e-002 3.10832649e-001 0. 0. 0. 0. 0. 0. 0. 0. 0. 0. 0.
      0. 1.52926950e-003 4.98726994e-001 3.03501100e-003 0. 0. 0.
      6.55543554e-005 2.73991118e-005 8.19885827e-005 1.01441494e-003
      4.98726994e-001 1.51090405e-003 1.06926513e-004 3.57329627e-005
      6.55543554e-005 0. 0. 0. 6.02553412e-003 4.98726994e-001
      3.75295058e-003 0. 0. 0. 1.80473158e-004 3.43686726e-004 0.
      5.45183988e-003 4.98726994e-001 2.63698003e-003 1.45123433e-003
      4.22042911e-004 1.09257278e-004 9.30177867e-002 1.44373374e-002
      4.32018526e-002 0. 0. 0. 0. 0. 9.30177867e-002 1.35924235e-001
      4.15642411e-002 1.24375589e-001 0. 0. 0. 7.06195310e-002
      2.35998072e-002 1.35924235e-001 4.01821762e-001 1.37239575e-001
      1.16276629e-001 0. 2.62219235e-002 0. 1.06267855e-002
      3.55129410e-003 4.01821762e-001 4.01821762e-001 1.06479771e-001
      3.18627059e-001 0. 1.83553472e-001 9.47319344e-002 2.76511192e-001
      7.69282877e-002 4.01821762e-001 2.26353332e-001 3.91247571e-002
      1.17076121e-001 0. 1.77593440e-001 6.82904422e-002 1.40873641e-001
      1.64443880e-001 2.26353332e-001 3.96090388e-001 1.96814388e-002
      5.88943660e-002 0. 2.64449231e-002 9.75577906e-003 2.82780044e-002
      8.49701613e-002 3.96090388e-001 2.38347858e-001 4.60203923e-003
      1.37710553e-002 0. 4.12147157e-002 4.09742706e-002 1.38188288e-001
      1.16599977e-001 2.38347858e-001 3.96090388e-001 2.76122359e-003
      8.26263428e-003 0. 2.67872517e-003 5.85346716e-003 3.96915898e-002
      5.85763194e-002 3.96090388e-001 1.13900237e-001 1.25943407e-001
      2.45071515e-001 1.21799231e-001 2.42919981e-001 1.41660636e-002
      1.78428948e-001 4.93731424e-002 1.01728484e-001 1.03614353e-001
      1.90776493e-002 5.70874624e-002 0. 1.60453305e-001 0.
      8.06634054e-002 2.69562900e-002 1.03614353e-001 1.70798510e-001
      1.43420368e-001 3.66039693e-001 1.73998903e-002 4.12371218e-001
      2.02372344e-003 1.71029791e-001 5.56902699e-002 1.70798510e-001
      1.79533616e-001 5.99773563e-002 1.79474905e-001 0. 4.12371218e-001
      0. 1.99650005e-001 6.67195693e-002 1.79533616e-001 4.73073460e-002
      8.29938278e-002 2.61948496e-001 2.61948496e-001 2.61948496e-001
      6.70256838e-002 2.95121386e-003 5.21776779e-003 8.66774656e-003
      2.61948496e-001 2.50203460e-001 2.61948496e-001 2.10717961e-001
      1.43769965e-001 8.52384418e-002 5.14653977e-003 2.01109406e-002
      2.27275372e-001 2.00411342e-002 1.41042158e-001 2.61948496e-001
      2.48479620e-001 2.61948496e-001 3.84472236e-002 3.50337429e-003
      5.74938767e-002 1.05025634e-001 9.18966383e-002 1.90547958e-001
      2.61948496e-001 2.61948496e-001 1.32621899e-001 3.27806100e-002
      2.73787393e-003 1.22142835e-002 1.32812038e-001 2.89007902e-001
      5.12541854e-004 0. 0. 0. 1.80644536e-004 4.09103777e-005
      2.34522652e-002 2.89007902e-001 2.89007902e-001 8.54236307e-004 0.
      0. 9.28556994e-002 1.44124046e-001 2.73561031e-001 2.54611045e-001
      2.89007902e-001 2.89007902e-001 3.45860515e-003 0. 0.
      9.98213422e-004 3.71203735e-003 1.25509046e-004 1.93327274e-002
      2.62530863e-001 1.90746680e-001 5.76434191e-003 0. 7.48657109e-003
      2.89007902e-001 2.89007902e-001 2.62940526e-001 1.50368094e-001
      2.12793157e-001 3.34362656e-001 1.97776869e-001 1.75192624e-001
      8.67630914e-002 4.63106781e-002 0. 2.63811689e-005 1.84999823e-004
      3.34362656e-001 3.34362656e-001 2.14035194e-002 0. 1.69639723e-004
      1.43646366e-005 0. 0. 1.70524581e-004 3.34362656e-001
      1.98631108e-001 1.28114462e-001 1.54292181e-001 3.03928763e-001
      1.76789865e-001 2.87300092e-003 1.07935909e-003 2.87633645e-003
      2.05484778e-001 3.34362656e-001 1.90722290e-002 0. 3.12036439e-003
      9.09540686e-004 0. 6.47615525e-004 3.54734040e-003 3.34362656e-001
      3.15964490e-001 7.13931723e-003 5.04945463e-004 1.70259969e-003
      6.40055258e-003 8.74996334e-002 1.01472855e-001 1.08929567e-001
      3.15964490e-001 1.54090494e-001 4.23767604e-003 7.54539098e-004
      1.73595129e-003 1.36260659e-001 3.15964490e-001 3.15964490e-001
      1.81594208e-001 2.06450626e-001 2.24474162e-001 1.48290033e-002
      3.62775498e-003 3.22487988e-002 8.03062618e-002 1.70514226e-001
      9.72619802e-002 4.29315865e-002 1.59907147e-001 7.38193318e-002
      6.81128167e-003 2.12077098e-003 1.18484400e-001 3.15964490e-001
      3.15964490e-001 3.15964490e-001 6.99344352e-002 4.09255102e-002
      2.39444628e-001 1.04135112e-003 2.41360869e-002 1.30505249e-001
      3.31677645e-001 2.35138580e-001 9.56573486e-002 1.45027652e-001
      2.91541547e-001 3.31677645e-001 7.49238580e-003 1.44816525e-002
      6.20502420e-002 6.20547198e-002 7.99026489e-002 5.02352230e-002
      7.58691952e-002 3.31677645e-001 2.24691957e-001 0. 0.
      5.07903425e-003 7.24637583e-002 7.63842016e-002 2.19115093e-002
      1.20502219e-001 3.15174460e-001 3.31677645e-001 0. 0.
      7.25576305e-004 9.50166676e-003 1.72808915e-002 8.16689897e-003
      4.68623973e-002 3.31677645e-001 3.48205030e-001 6.28032431e-005 0.
      1.68965606e-004 1.29818858e-004 1.19445191e-004 1.00244081e-003
      8.29061173e-005 3.48205030e-001 3.48205030e-001 1.41037405e-001
      5.15706129e-002 1.84212681e-002 4.25361544e-002 4.59504128e-003
      7.01708579e-003 1.38176867e-004 3.48205030e-001 3.48205030e-001
      3.13279306e-004 9.37451143e-004 0. 6.57743716e-004 0.
      6.96635514e-004 2.32803955e-004 3.48205030e-001 3.48205030e-001
      4.13719751e-002 7.50115188e-003 0. 0. 0. 2.30143243e-003
      7.69100268e-004 3.48205030e-001 3.52014452e-001 3.44176823e-003
      2.56517134e-003 1.53069058e-003 1.91225186e-002 1.10412156e-002
      1.80790108e-002 6.34215325e-002 3.52014452e-001 3.52014452e-001
      6.15171972e-004 3.66453052e-004 0. 1.06680018e-004 1.13386268e-004
      0. 4.38502029e-005 3.52014452e-001 3.52014452e-001 1.12458663e-004
      3.36519181e-004 0. 8.17699358e-003 0. 2.58271559e-003
      1.40981702e-002 3.52014452e-001 3.52014452e-001 7.51794782e-004
      2.24965671e-003 0. 5.78865083e-003 0. 3.50351271e-004
      1.17081538e-004 3.52014452e-001 2.94680804e-001 1.52284205e-001
      1.39009893e-001 1.66510016e-001 8.25490654e-002 6.69616926e-003
      1.87355137e-004 3.68434761e-004 2.94680804e-001 2.44893759e-001
      2.54608512e-001 2.94680804e-001 2.94680804e-001 2.94680804e-001
      5.80079714e-003 0. 4.36891387e-005 1.31153062e-001 2.94680804e-001
      1.08636126e-001 3.23548913e-002 2.06395127e-002 1.74493883e-002 0.
      1.75012610e-004 5.84862901e-005 2.94680804e-001 2.81056851e-001
      1.83253840e-001 6.04889356e-002 8.98268074e-002 1.24069624e-001 0.
      0. 0. 1.29578635e-001</_>
    <_>
      0. 0. 0. 0. 0. 0. 0. 0. 0. 0. 0. 0. 0. 0. 0. 0. 0. 0. 0. 0. 0. 0.
      0. 0. 0. 0. 0. 6.28730774e-001 0. 0. 0. 0. 0. 0. 0.
      6.28730774e-001 0. 0. 0. 0. 0. 0. 0. 0. 0. 0. 0. 0. 0. 0. 0. 0. 0.
      0. 6.60258651e-001 0. 0. 0. 0. 0. 0. 0. 6.60258651e-001
      2.39099428e-001 0. 0. 0. 0. 0. 0. 0. 2.39099428e-001 0. 0. 0. 0.
      0. 0. 0. 0. 0. 0. 0. 0. 0. 0. 0. 0. 0. 0. 4.13093895e-001 0. 0. 0.
      0. 0. 0. 0. 4.13093895e-001 5.66114485e-001 0. 0. 0. 0. 0. 0. 0.
      5.66114485e-001 0. 0. 0. 0. 0. 0. 0. 0. 0. 0. 0. 0. 0. 0. 0. 0. 0.
      0. 5.51909924e-001 0. 0. 0. 0. 0. 5.58583736e-001 1.86669350e-001
      5.51909924e-001 0. 0. 0. 0. 0. 0. 7.97976777e-002 2.66670510e-002
      0. 0. 0. 0. 8.09485652e-003 6.79693371e-002 0. 0. 0. 0.
      1.16493642e-001 2.16158196e-001 2.93336451e-001 4.03899103e-001
      4.21375722e-001 0. 0. 0. 2.15242002e-002 0. 3.87326698e-003
      5.44618757e-004 4.40852307e-002 2.22913697e-001 2.85585294e-003 0.
      0. 0. 2.21804176e-002 7.78750032e-002 2.72936583e-001
      4.21375722e-001 4.21375722e-001 1.25472099e-001 6.27040258e-003
      1.35837414e-003 1.02728757e-003 3.59115809e-001 8.61764303e-004 0.
      0. 1.49009502e-004 0. 0. 1.31078658e-003 3.59115809e-001
      3.59115809e-001 5.95315220e-003 0. 0. 9.79881175e-003
      6.87078834e-002 1.32454783e-001 1.75846368e-001 3.59115809e-001
      2.97149330e-001 1.89024431e-003 1.94516051e-005 6.74749142e-004 0.
      0. 0. 2.40206369e-003 2.92673707e-001 3.04665208e-001
      1.26773259e-002 3.30510437e-002 8.92293602e-002 9.26150233e-002
      1.73643157e-001 1.16925679e-001 8.38970095e-002 3.02974403e-001
      3.32621008e-001 1.65907443e-001 2.89601475e-001 1.10395849e-001
      5.44756539e-002 4.85507911e-003 4.09103092e-003 1.18142553e-002
      3.32621008e-001 3.32621008e-001 2.25898437e-002 1.43659059e-002
      2.23716791e-003 4.64833295e-003 3.47868445e-005 2.91947770e-004
      7.08855316e-003 3.32621008e-001 1.29290953e-001 7.82157406e-002
      2.32365102e-001 2.38896966e-001 1.55397728e-001 1.30796313e-001
      8.49481225e-002 2.38468684e-002 1.61972061e-001 3.25478643e-001
      1.31610902e-002 1.09708821e-002 7.47490954e-003 1.49907414e-002
      1.61411369e-003 5.01257600e-003 1.60349309e-002 3.32621008e-001
      6.79578930e-002 0. 0. 3.20012006e-003 2.58415848e-001
      3.26490253e-001 3.26490253e-001 2.00361848e-001 2.33688742e-001
      1.48129591e-003 0. 0. 1.92007225e-003 1.55189827e-001
      1.26776323e-001 5.36187477e-002 2.01261882e-002 5.94205828e-003
      1.86164118e-002 5.45187650e-005 1.05974125e-002 1.32396713e-001
      3.26490253e-001 3.26490253e-001 3.26490253e-001 6.32472858e-002
      5.51880226e-002 0. 0. 6.35844795e-003 6.23490438e-002
      3.26490253e-001 3.26490253e-001 1.09317236e-001 3.81291867e-003
      7.04523176e-004 3.62734403e-003 1.41984886e-002 8.61530751e-002
      1.09799132e-001 4.02408183e-001 1.27055505e-002 1.68386772e-002 0.
      7.70175178e-003 5.16454428e-002 2.36641467e-002 1.58206567e-001
      2.28029162e-001 4.68242317e-001 1.36084408e-001 1.36835620e-001
      1.22280717e-002 9.78772268e-002 0. 0. 8.90563987e-003
      6.47598431e-002 4.68242317e-001 1.12929717e-002 2.40552519e-003 0.
      0. 1.38751010e-003 0. 1.48427337e-002 1.16695046e-001
      4.68242317e-001 9.83960107e-002 1.68386772e-002 0. 1.69452117e-003
      3.93108487e-001 0. 0. 0. 0. 0. 0. 0. 3.93108487e-001
      3.93108487e-001 9.10889059e-002 4.80536334e-002 1.54397130e-001
      3.93108487e-001 2.74248887e-002 4.53507481e-003 1.43065304e-001
      3.93108487e-001 4.96012904e-002 0. 0. 0. 0. 0. 0. 0.
      4.90858406e-002 4.77784760e-002 0. 0. 5.51043302e-002
      3.93108487e-001 0. 0. 2.04379018e-002 5.07468805e-002
      2.88083464e-001 1.43037692e-001 1.58977229e-002 1.11804984e-003
      3.87971967e-001 3.17172348e-001 1.51731148e-001 1.17751285e-001
      3.24912339e-001 3.87971967e-001 1.94235686e-002 2.27110321e-003 0.
      5.11448495e-002 2.32227426e-003 4.65651089e-003 2.21457127e-002
      3.87971967e-001 2.06249934e-002 2.04339568e-002 2.27110321e-003
      7.82634877e-003 3.87971967e-001 1.46153659e-001 1.75941512e-002
      6.25506917e-004 2.14359518e-002 5.09360470e-002 2.77479552e-003
      3.24443274e-004 0. 1.25433967e-001 0. 1.71928422e-003
      3.89078562e-003 4.86395136e-002 1.06007151e-001 4.07754853e-002
      1.11859724e-001 1.80131361e-001 4.52135324e-001 7.96012431e-002
      1.03627451e-001 9.83782858e-003 6.06380105e-002 1.69777926e-002
      1.60386153e-002 6.00381456e-002 1.07789643e-001 4.52135324e-001
      2.02232078e-001 9.30762663e-002 1.63963810e-002 4.83737066e-002
      3.36438557e-003 3.27578164e-005 1.38688320e-002 1.06202066e-001
      4.52135324e-001 3.69090028e-002 1.48039218e-002 0. 2.99699139e-003
      0. 0. 8.26248620e-003 7.19843805e-002 4.52135324e-001
      1.12389579e-001 1.32966097e-002 0. 0. 0. 0. 0. 1.10122759e-003
      4.98739928e-001 8.90623312e-004 0. 0. 0. 0. 0. 0. 4.45876922e-003
      4.98739928e-001 1.87436119e-003 0. 0. 0. 0. 0. 0. 2.19788938e-003
      4.98739928e-001 5.11309248e-004 0. 0. 0. 0. 0. 0. 4.64907149e-003
      4.98739928e-001 8.52181984e-004 0. 0. 0. 0. 0. 0. 0. 0. 0. 0. 0.
      0. 0. 0. 0. 6.11274550e-003 7.04588354e-001 0. 0. 0. 0. 0. 0. 0.
      0. 0. 0. 0. 0. 0. 0. 0. 0. 6.30651508e-003 7.04588354e-001 0. 0.
      0. 0. 0. 0. 0. 1.76535294e-004 6.80229127e-001 6.69979071e-003 0.
      0. 0. 0. 0. 0. 0. 1.57606259e-001 0. 0. 0. 0. 0. 0. 0.
      1.23574701e-003 6.80229127e-001 2.71586026e-003 0. 0. 0. 0. 0. 0.
      0. 2.07104564e-001 0. 0. 0. 0. 0. 0. 0. 0. 4.98753130e-001 0. 0.
      0. 0. 0. 0. 0. 0. 4.98753130e-001 0. 0. 0. 0. 0. 0. 0. 0.
      4.98753130e-001 0. 0. 0. 0. 0. 0. 0. 0. 4.98753130e-001 0. 0. 0.
      0. 0. 0. 0. 0. 4.98753130e-001 0. 0. 0. 0. 0. 0. 0. 0.
      4.98753130e-001 0. 0. 0. 0. 0. 0. 0. 0. 4.98753130e-001 0. 0. 0.
      0. 0. 0. 0. 0. 4.98753130e-001 0. 0. 0. 0. 0. 0. 0. 0. 0. 0. 0. 0.
      0. 0. 0. 0. 0. 7.04615593e-001 0. 0. 0. 0. 0. 0. 0. 0. 0. 0. 0. 0.
      0. 0. 0. 0. 0. 7.04615593e-001 0. 0. 0. 0. 0. 0. 0. 0.
      6.80335224e-001 0. 0. 0. 0. 0. 0. 0. 0. 1.57597840e-001 0. 0. 0.
      0. 0. 0. 0. 0. 6.80335224e-001 0. 0. 0. 0. 0. 0. 0. 0.
      2.06541255e-001 0. 0. 0. 0. 0. 0. 0. 0. 4.98753130e-001 0. 0. 0.
      0. 0. 0. 0. 0. 4.98753130e-001 0. 0. 0. 0. 0. 0. 0. 0.
      4.98753130e-001 0. 0. 0. 0. 0. 0. 0. 0. 4.98753130e-001 0. 0. 0.
      0. 0. 0. 0. 0. 4.98738915e-001 0. 0. 0. 0. 0. 0. 0. 0.
      4.98738915e-001 0. 0. 0. 0. 0. 0. 0. 8.18332366e-004
      4.98738915e-001 2.37449375e-003 0. 0. 0. 0. 0. 0. 1.36388710e-003
      4.98738915e-001 6.98302547e-003 0. 0. 0. 0. 0. 0. 0. 0. 0. 0. 0.
      0. 0. 0. 0. 0. 7.04609096e-001 0. 0. 0. 0. 2.21912330e-003 0. 0.
      0. 0. 0. 0. 0. 2.21912330e-003 2.06748885e-003 0. 0. 0.
      7.04609096e-001 0. 0. 0. 2.06748885e-003 0. 0. 0. 0.
      6.80290639e-001 0. 0. 0. 0. 0. 0. 0. 0. 1.57724038e-001 0. 0. 0.
      0. 3.24547058e-004 0. 0. 3.24035238e-004 6.80290639e-001
      3.02399672e-003 0. 0. 3.24547058e-004 1.42495323e-003 0. 0. 0.
      2.06706658e-001 0. 0. 0. 1.42495323e-003 0. 0. 0. 2.18135840e-003
      4.98733521e-001 0. 0. 0. 0. 0. 0. 0. 1.30881509e-003
      4.98733521e-001 0. 0. 0. 0. 0. 0. 0. 4.42879600e-003
      4.98733521e-001 2.49906967e-004 0. 0. 0. 0. 0. 0. 7.01926788e-003
      4.98733521e-001 1.74934871e-003 0. 0. 0. 1.05244517e-002
      1.58384945e-002 0. 1.40749123e-002 2.16336519e-001 1.17376775e-001
      2.28763789e-001 3.50376852e-002 1.03255291e-003 1.93091199e-001
      2.98157036e-001 7.21117631e-002 1.95933878e-001 2.98746943e-001
      2.98746943e-001 2.98746943e-001 2.43385881e-001 1.67342592e-002
      1.50349317e-003 2.26264214e-003 0. 1.73686892e-002 1.61945030e-001
      6.76911995e-002 7.66571760e-002 2.15520076e-002 6.19531784e-004
      5.91338649e-002 1.30903319e-001 1.20268270e-001 2.98746943e-001
      2.98746943e-001 2.98746943e-001 1.53313369e-001 1.46452412e-001
      4.33672266e-003 3.47589731e-001 0. 0. 0. 2.47112421e-005 0. 0.
      2.68264957e-005 3.47589731e-001 3.47589731e-001 0. 4.43043076e-002
      5.42668700e-002 7.90813267e-002 4.94800992e-002 4.32115756e-002
      1.10160567e-001 3.47589731e-001 3.17559391e-001 8.62235262e-004
      1.34265370e-004 0. 0. 0. 1.83896802e-004 2.54163309e-003
      3.17721695e-001 3.47589731e-001 4.16362006e-003 2.11877446e-003
      7.47631267e-002 1.38731718e-001 7.27634281e-002 7.33065829e-002
      8.17209110e-002 3.47589731e-001 3.17912370e-001 1.63701415e-001
      2.49751776e-001 2.19898596e-001 5.54077178e-002 7.85947964e-002
      1.41271390e-003 3.30106840e-002 3.17912370e-001 3.17912370e-001
      1.66293513e-002 1.56049291e-002 1.09233418e-002 5.63112646e-003
      1.12278285e-002 2.72833186e-005 8.19179229e-003 3.17912370e-001
      1.44893840e-001 1.27888218e-001 2.91133434e-001 2.51309991e-001
      1.29453957e-001 9.00066867e-002 2.19416879e-002 3.19305547e-002
      1.69786200e-001 3.17912370e-001 1.32404603e-002 1.41297439e-002
      2.32129972e-002 5.56165166e-003 9.35306214e-003 1.38072099e-003
      1.39370672e-002 3.17912370e-001 1.74276352e-001 2.06805214e-001
      1.53422505e-001 1.45128712e-001 2.40409672e-001 2.70322591e-001
      1.19821578e-001 2.40727946e-001 1.44658893e-001 7.83569589e-002
      2.09061608e-001 1.81060731e-001 1.92577511e-001 2.70322591e-001
      1.39638156e-001 5.99089712e-002 6.49421513e-002 0. 6.91049397e-002
      9.12571698e-002 1.02080911e-001 2.70322591e-001 2.70322591e-001
      2.70322591e-001 3.81224602e-002 1.14208885e-001 5.13034798e-002
      4.30939049e-002 1.17333457e-001 9.96973887e-002 1.64232597e-001
      2.70322591e-001 2.22105712e-001 1.06957499e-002 2.06308234e-002 0.
      0. 0. 0. 0. 1.23919159e-001 0. 0. 0. 0. 4.38598365e-001 0. 0. 0.
      4.38598365e-001 6.04457073e-002 4.38598365e-001 4.38598365e-001
      4.38598365e-001 0. 0. 0. 0. 1.70801219e-003 0. 0. 0. 0.
      8.47248733e-002 0. 0. 0. 2.01733764e-002 0. 0. 0. 8.47248733e-002
      4.86661166e-001 0. 0. 0. 4.35801892e-004 0. 0. 0. 4.86661166e-001
      4.86661166e-001 1.44922629e-001 4.96614575e-002 4.31797653e-003
      3.77981435e-003 0. 0. 0. 4.86661166e-001 6.80755302e-002 0. 0. 0.
      2.61481124e-004 0. 0. 0. 6.80755302e-002 8.66233781e-002 0. 0. 0.
      2.26788875e-003 0. 0. 0. 8.66233781e-002 4.75463390e-001 0. 0. 0.
      1.91782229e-002 1.72123816e-002 1.85084254e-001 1.77756473e-001
      4.75463390e-001 4.75463390e-001 0. 0. 0. 4.24392195e-003 0.
      6.92598568e-003 2.36449540e-002 4.75463390e-001 6.09994940e-002 0.
      0. 0. 1.03431353e-002 0. 0. 0. 6.09994940e-002 9.02245417e-002 0.
      0. 0. 4.09114547e-003 0. 0. 0. 9.02245417e-002 4.17753279e-001
      4.17753279e-001 2.93059468e-001 2.67980009e-001 4.17753279e-001 0.
      0. 0. 4.17753279e-001 7.96315372e-002 1.16082177e-001
      4.18656394e-002 1.26333788e-001 2.87530303e-001 0. 0. 0.
      4.73080538e-002 9.32903141e-002 0. 0. 0. 9.45893116e-003 0. 0. 0.
      9.32903141e-002 7.43111921e-003 0. 0. 0. 3.40170530e-003 0. 0. 0.
      7.43111921e-003</_>
    <_>
      0. 0. 0. 0. 0. 0. 0. 0. 0. 0. 0. 0. 0. 0. 0. 0. 0. 0. 0. 0. 0. 0.
      0. 0. 0. 0. 0. 0. 0. 0. 0. 0. 0. 0. 0. 0. 0. 0. 0. 0. 0. 0. 0. 0.
      0. 0. 0. 0. 0. 0. 0. 0. 0. 0. 0. 0. 0. 0. 0. 0. 0. 0. 0. 0. 0. 0.
      0. 0. 0. 0. 0. 0. 0. 0. 0. 0. 0. 0. 0. 0. 0. 0. 0. 0. 0. 0. 0. 0.
      0. 0. 0. 0. 0. 0. 0. 0. 0. 0. 0. 0. 0. 0. 0. 0. 0. 0. 0. 0. 0. 0.
      0. 0. 0. 0. 0. 0. 0. 0. 0. 0. 0. 0. 0. 0. 0. 0. 0. 0. 0. 0. 0. 0.
      0. 0. 0. 0. 0. 0. 0. 0. 0. 0. 0. 0. 0. 0. 0. 0. 0. 0. 0. 0. 0. 0.
      0. 0. 0. 0. 0. 0. 0. 0. 0. 0. 0. 0. 0. 0. 0. 0. 0. 0. 0. 0. 0. 0.
      0. 0. 0. 0. 0. 0. 0. 0. 0. 0. 0. 0. 0. 0. 0. 0. 0. 0. 0. 0. 0. 0.
      0. 0. 0. 0. 0. 0. 0. 0. 0. 0. 0. 0. 0. 0. 0. 0. 0. 0. 0. 0. 0. 0.
      0. 0. 0. 0. 0. 0. 0. 0. 0. 0. 0. 0. 0. 0. 0. 0. 0. 0. 0. 0. 0. 0.
      0. 0. 0. 0. 0. 0. 0. 0. 0. 0. 0. 0. 0. 0. 0. 0. 0. 0. 0. 0. 0. 0.
      0. 0. 0. 0. 0. 0. 0. 0. 0. 0. 0. 0. 0. 0. 0. 0. 0. 0. 0. 0. 0. 0.
      0. 0. 0. 0. 0. 0. 0. 0. 0. 0. 0. 0. 0. 0. 0. 0. 0. 0. 0. 0. 0. 0.
      0. 0. 0. 0. 0. 0. 0. 0. 0. 0. 0. 0. 0. 0. 0. 0. 0. 0. 0. 0. 0. 0.
      0. 0. 0. 0. 0. 0. 0. 0. 0. 0. 0. 0. 0. 0. 0. 0. 0. 0. 0. 0. 0. 0.
      0. 0. 0. 0. 0. 0. 0. 0. 0. 0. 0. 0. 0. 0. 0. 0. 0. 0. 0. 0. 0. 0.
      0. 0. 0. 0. 0. 0. 0. 0. 0. 0. 0. 0. 0. 0. 0. 0. 0. 0. 0. 0. 0. 0.
      0. 0. 0. 0. 0. 0. 0. 0. 0. 0. 0. 0. 0. 0. 0. 0. 0. 0. 0. 0. 0. 0.
      0. 0. 0. 0. 0. 0. 0. 0. 0. 0. 0. 0. 0. 0. 0. 0. 0. 0. 0. 0. 0. 0.
      0. 0. 0. 0. 0. 0. 0. 0. 0. 0. 0. 0. 0. 0. 0. 0. 0. 0. 0. 0. 0. 0.
      0. 0. 0. 0. 0. 0. 0. 0. 0. 0. 0. 0. 0. 0. 0. 0. 0. 0. 0. 0. 0. 0.
      0. 0. 0. 0. 0. 0. 0. 0. 0. 0. 0. 0. 0. 0. 0. 0. 0. 0. 0. 0. 0. 0.
      0. 0. 0. 0. 0. 0. 0. 0. 0. 0. 0. 0. 0. 0. 0. 0. 0. 0. 0. 0. 0. 0.
      0. 0. 0. 0. 0. 0. 0. 0. 0. 0. 0. 0. 0. 0. 0. 0. 0. 0. 0. 0. 0. 0.
      0. 0. 0. 0. 0. 0. 0. 0. 0. 0. 0. 0. 0. 0. 0. 0. 0. 0. 0. 0. 0. 0.
      0. 0. 0. 0. 0. 0. 0. 0. 0. 0. 0. 0. 0. 0. 0. 0. 0. 0. 0. 0. 0. 0.
      0. 0. 0. 0. 0. 0. 0. 0. 0. 0. 0. 0. 0. 0. 0. 0. 0. 0. 0. 0. 0. 0.
      0. 0. 0. 0. 0. 0. 0. 0. 0. 0. 0. 0. 0. 0. 0. 0. 0. 0. 0. 0. 0. 0.
      0. 0. 0. 0. 0. 0. 0. 0. 0. 0. 0. 0. 0. 0. 0. 0. 0. 0. 0. 0. 0. 0.
      0. 0. 0. 0. 0. 0. 0. 0. 0. 0. 0. 0. 0. 0. 0. 0. 0. 0. 0. 0. 0. 0.
      0. 0. 0. 0. 0. 0. 0. 0. 0. 0. 0. 0. 0. 0. 0. 0. 0. 0. 0. 0. 0. 0.
      0. 0. 0. 0. 0. 0. 0. 0. 0. 0. 0. 0. 0. 0. 0. 0. 0. 0. 0. 0. 0. 0.
      0. 0. 0. 0. 0. 0. 0. 0. 0. 0. 0. 0. 0. 0. 0. 0. 0. 0. 0. 0. 0. 0.
      0. 0. 0. 0. 0. 0. 0. 0. 0. 0. 0. 0. 0. 0. 0. 0. 0. 0. 0. 0. 0. 0.
      0. 0. 0. 0. 0. 0. 0. 0. 0. 0. 0. 0. 0. 0. 0. 0. 0. 0. 0. 0. 0. 0.
      0. 0. 0. 0. 0. 0. 0. 0. 0. 0. 0. 0. 0. 0. 0. 0. 0. 0. 0. 0. 0. 0.
      0. 0. 0. 0. 0. 0. 0. 0. 0. 0. 0. 0. 0. 0. 0. 0. 0. 0. 0. 0. 0. 0.
      0. 0. 0. 0. 0. 0. 0. 0. 0. 0. 0. 0. 0. 0. 0. 0. 0. 0. 0. 0. 0. 0.
      0. 0. 0. 0. 0. 0. 0. 0. 0. 0. 0. 0. 0. 0. 0. 0. 0. 0. 0. 0. 0. 0.
      0. 0. 0. 0. 0. 0. 0. 0. 0. 0. 0. 0. 0. 0. 0. 0. 0. 0. 0. 0. 0. 0.
      0. 0. 0. 0. 0. 0. 0. 0. 0. 0. 0. 0. 0. 0. 0. 0. 0. 0. 0. 0. 0. 0.
      0. 0. 0. 0. 0. 0. 0. 0. 0. 0. 0. 0. 0. 0. 0. 0. 0. 0. 0. 0. 0. 0.
      0. 0. 0. 0. 0. 0. 0. 0. 0. 0. 0. 0. 0. 0. 0. 0. 0. 0. 0. 0. 0. 0.
      0. 0. 0. 0. 0. 0. 0. 0. 0. 0. 0. 0. 0. 0. 0. 0. 0. 0. 0. 0. 0. 0.
      0. 0. 0. 0. 0. 0. 0. 0. 0. 0. 0. 0. 0. 0. 0. 0. 0. 0. 0. 0. 0. 0.
      0. 0. 0. 0. 0. 0. 0. 0. 0. 0. 0. 0. 0. 0. 0. 0. 0. 0. 0. 0. 0. 0.
      0. 0. 0. 0. 0. 0. 0. 0. 0. 0. 0. 0. 0. 0. 0. 0. 0. 0. 0. 0. 0. 0.
      0. 0. 0. 0. 0. 0. 0. 0. 0. 0. 0. 0. 0. 0. 0. 0. 0. 0. 0. 0. 0. 0.
      0. 0. 0. 0. 0. 0. 0. 0. 0. 0. 0. 0. 0. 0. 0. 0. 0. 0. 0. 0. 0. 0.
      0. 0. 0. 0. 0. 0. 0. 0. 0. 0. 0. 0. 0. 0. 0. 0. 0. 0. 0. 0. 0. 0.
      0. 0. 0. 0. 0. 0. 0. 0. 0. 0. 0. 0. 0. 0. 0. 0. 0. 0. 0. 0. 0. 0.
      0. 0. 0. 0. 0. 0. 0. 0.</_>
    <_>
      1.30290333e-002 6.68330910e-003 7.76105793e-003 5.02553508e-002
      1.10647373e-001 1.83340292e-002 3.28382547e-003 1.89981014e-002
      8.39112792e-003 2.98128091e-003 3.49922571e-003 7.58798188e-003
      4.77891982e-001 4.77891982e-001 5.27403923e-003 2.09510932e-003
      1.03570241e-002 9.03335167e-005 1.14643285e-002 1.99989486e-003
      1.51394785e-003 1.43956825e-001 2.07111672e-001 2.49726642e-002
      8.95453058e-003 2.80372053e-002 1.42095573e-002 1.78876868e-003
      4.52484412e-004 2.52324645e-003 4.77891982e-001 4.77891982e-001
      5.21156797e-003 4.37004957e-003 1.22800302e-002 3.04538221e-003
      2.97981381e-001 1.14843726e-001 6.07088581e-002 5.47223315e-002
      2.38108896e-002 1.50023894e-002 2.64200084e-002 4.55582701e-002
      1.19900949e-001 2.97981381e-001 8.44484419e-002 1.48622617e-002
      1.19950983e-003 9.17213783e-002 2.11086482e-001 2.97981381e-001
      2.97981381e-001 1.06269628e-001 2.97981381e-001 1.26829654e-001
      6.10899813e-002 1.17085434e-001 7.19636977e-002 4.55665290e-002
      1.33635979e-002 5.62877357e-002 1.61875471e-001 2.14796469e-001
      5.16736247e-002 6.80790991e-002 2.64220715e-001 2.97981381e-001
      2.97981381e-001 1.79878727e-001 9.90663767e-002 1.74028009e-001
      3.19188952e-001 1.21526934e-001 1.11845814e-001 5.10129146e-002
      3.30861956e-002 4.18412918e-003 4.81914310e-003 2.77587045e-002
      1.35035545e-001 3.19188952e-001 5.69376908e-003 0. 9.24868975e-003
      2.57949144e-001 3.19188952e-001 1.59625739e-001 1.62677616e-001
      2.59123743e-001 2.58598208e-001 5.89925796e-002 5.31270131e-002
      9.41103771e-002 1.05596304e-001 7.92546421e-002 4.06830609e-002
      5.55738322e-002 1.45169646e-001 2.13445142e-001 7.51952454e-002
      3.95329036e-002 1.82490543e-001 3.19188952e-001 3.19188952e-001
      7.41084442e-002 1.27667800e-001 1.35956883e-001 2.05533346e-003
      3.59399174e-003 3.70665863e-002 4.17311229e-002 4.64559466e-001
      4.64559466e-001 5.88529818e-002 1.11524342e-002 2.12059982e-004
      2.69789677e-002 5.98998647e-003 7.12278485e-002 4.64228466e-002
      6.87136576e-002 9.27460566e-002 9.75951850e-002 5.63903451e-002
      2.22884435e-002 0. 2.51579415e-002 5.52601293e-002 3.19116041e-002
      4.64559466e-001 4.64559466e-001 2.41131913e-002 3.13289440e-003 0.
      2.22813655e-002 5.79452626e-002 9.76846442e-002 9.12688673e-002
      1.53242558e-001 1.88548505e-001 4.67369594e-002 3.31682824e-002
      3.89732309e-002 3.00904131e-003 2.92230607e-003 7.07985833e-003
      2.32856080e-001 3.25992912e-001 4.35677916e-003 3.11188470e-003
      4.85912373e-004 2.69742589e-003 4.36515576e-004 1.56637635e-002
      1.27615919e-002 3.96332234e-001 3.96332234e-001 1.68798715e-002
      1.95199437e-003 0. 0. 4.24025720e-003 2.04561446e-002
      2.56049191e-003 2.08430767e-001 3.96332234e-001 4.08565961e-002 0.
      5.27749676e-003 4.77595441e-003 5.46814641e-004 4.54683267e-002
      1.65189803e-002 3.96332234e-001 3.96332234e-001 2.53688637e-002
      9.07030236e-003 2.59908289e-002 1.37468334e-003 3.14989060e-001
      4.69841808e-002 3.68140414e-002 1.19758118e-003 0. 0.
      9.99299809e-004 3.01744835e-003 2.34686196e-001 3.14989060e-001
      2.00233370e-001 3.14989060e-001 1.48993954e-002 0. 0. 0.
      1.59893371e-002 1.58369824e-001 3.14989060e-001 9.77037326e-002
      4.46715094e-002 9.85618122e-003 5.70528908e-004 0. 0. 0.
      3.14989060e-001 3.14989060e-001 3.14989060e-001 3.14989060e-001
      3.90979601e-003 0. 0. 4.38687362e-004 1.73371937e-002
      2.58550853e-001 3.08109581e-001 0. 0. 0. 0. 7.76270917e-003
      3.24957147e-002 3.88490893e-002 2.91971534e-001 3.08109581e-001
      4.43956256e-003 0. 3.19076725e-003 4.76633795e-002 8.80632699e-002
      1.13892853e-001 6.50975481e-002 3.08109581e-001 3.08109581e-001 0.
      0. 0. 0. 7.44228065e-003 3.94542739e-002 5.26027270e-002
      3.08109581e-001 3.08109581e-001 0. 0. 7.12509267e-003
      2.17592031e-001 3.03447992e-001 2.14247391e-001 1.65840343e-001
      3.08109581e-001 3.20536736e-003 1.05695575e-002 7.29816360e-003
      4.43922691e-002 4.19395834e-001 4.19395834e-001 1.00123351e-002
      1.43914612e-003 4.74678236e-004 1.79707948e-002 3.88971865e-002
      2.89839376e-002 4.82575446e-002 3.04846674e-001 4.14414778e-002
      7.46853068e-004 3.75951640e-003 1.34028895e-002 1.96043542e-003
      1.30504528e-002 1.33334976e-002 3.20646130e-002 4.19395834e-001
      4.19395834e-001 1.21360738e-002 9.09070484e-003 3.32274754e-003
      2.96577364e-002 7.25766122e-002 4.33432050e-002 3.77348028e-002
      4.19395834e-001 4.64386605e-002 1.01566361e-003 6.60963403e-003
      3.12702097e-002 1.86309323e-003 3.47394729e-004 6.55762525e-003
      3.90973017e-002 4.92753327e-001 3.65190357e-002 3.33763962e-003
      3.21425172e-003 1.86309323e-003 0. 0. 4.86726058e-004
      5.92439920e-002 4.92753327e-001 5.20919450e-002 1.59390608e-003
      1.98710914e-004 0. 4.04518144e-003 0. 2.41767894e-003
      1.79130342e-002 4.92753327e-001 7.12538213e-002 1.78383640e-003
      2.32018740e-003 4.97811893e-003 2.76660052e-004 0. 5.58052234e-005
      4.78988998e-002 4.92753327e-001 8.33491161e-002 1.75583948e-004
      1.01762445e-004 4.09936882e-004 1.13510832e-001 1.26294151e-001
      4.60670628e-002 3.16502154e-001 4.07142639e-001 8.88942108e-002
      6.15957677e-002 4.35503386e-002 9.85331386e-002 1.49107128e-001
      1.02044731e-001 6.79189935e-002 8.84356797e-002 4.76092026e-002
      8.55874866e-002 1.89973146e-001 1.70388699e-001 1.26754180e-001
      1.66255239e-004 4.15751487e-002 1.65235549e-001 2.28623033e-001
      4.07142639e-001 2.28258252e-001 5.83683550e-002 6.82193739e-003
      1.20118372e-002 1.42956432e-002 6.41915500e-002 2.22553730e-001
      1.70807406e-001 7.25419819e-002 1.48721352e-001 3.45009357e-001
      7.15757236e-002 5.04504144e-002 2.09397804e-002 2.66452543e-002
      2.96377372e-002 4.71229199e-003 7.48212487e-002 3.90373282e-002
      5.05763479e-002 2.14446746e-002 4.18843143e-002 6.63571386e-003
      1.31860105e-002 1.56655721e-002 1.68943685e-002 6.59971297e-001
      2.13792250e-001 5.98435290e-002 1.19010033e-002 1.33837713e-002
      1.60169154e-002 2.24290807e-002 9.56722256e-003 9.38810781e-003
      1.21913947e-001 3.80138494e-002 6.74579293e-002 4.25035208e-002
      1.14857014e-002 9.65824444e-003 8.48194025e-003 2.10552406e-003
      8.17323774e-002 6.59971297e-001 1.52443692e-001 5.89662828e-002
      2.58392971e-002 3.98901571e-003 9.22307954e-004 3.64541914e-003
      3.18024214e-003 2.59473845e-002 5.23223579e-001 7.18397126e-002
      1.06203435e-002 1.24766713e-003 0. 7.29868235e-003 7.56496191e-003
      2.30931230e-002 4.24925908e-002 3.88408810e-001 5.22788465e-002
      2.58096140e-002 9.96810850e-003 4.56257444e-003 4.18505428e-004
      2.21163407e-003 8.45130626e-003 4.62458804e-002 5.23223579e-001
      5.49771190e-002 6.16139080e-003 0. 0. 1.07999435e-002
      4.70965682e-003 3.86166610e-002 4.94565144e-002 5.22588849e-001
      3.86842042e-002 1.22182146e-002 1.40233720e-002 1.23643698e-002
      7.08075194e-003 6.36363355e-003 6.39592856e-003 2.38564722e-002
      4.94229406e-001 2.17621140e-002 1.61278632e-003 1.97162502e-003
      3.47638293e-003 3.24008433e-004 2.60769273e-004 7.31915701e-004
      3.99567559e-002 4.94229406e-001 4.04634997e-002 2.07002686e-005
      1.76829388e-004 2.32785533e-004 9.06165875e-003 1.49383573e-002
      1.44770741e-003 1.42282685e-002 4.94229406e-001 6.91233203e-002 0.
      8.71273782e-003 7.66453985e-003 7.48550287e-004 1.44101237e-003
      1.04559389e-004 4.37765978e-002 4.94229406e-001 7.90162683e-002 0.
      5.10857615e-004 2.96818238e-004 9.83605310e-002 3.17918733e-002
      4.91040610e-002 1.63555726e-001 4.40094858e-001 1.74056038e-001
      1.18258493e-002 4.04836461e-002 9.15716812e-002 5.90163171e-002
      4.42978516e-002 1.38201416e-001 2.79815584e-001 1.63544893e-001
      9.83697847e-002 2.98026875e-002 3.17415893e-002 2.02007759e-002
      4.88423780e-002 3.99445072e-002 8.22008699e-002 1.01603493e-001
      4.40094858e-001 3.00500542e-001 9.73564852e-003 5.77061027e-002
      5.44333570e-002 2.93054264e-002 4.55172397e-002 1.38475224e-001
      2.09986940e-001 2.49736115e-001 3.71844351e-001 2.86180750e-002
      2.72883046e-002 1.45169199e-002 2.77974363e-002 2.56102104e-002
      1.51311969e-002 1.11447340e-002 9.30380300e-002 3.32762301e-002
      2.90648658e-002 3.15697268e-002 1.94867365e-002 1.97917074e-002
      1.12373158e-002 3.28628859e-003 6.09619431e-002 6.83589458e-001
      5.51089682e-002 1.87811516e-002 2.14719195e-002 6.28689397e-003
      4.48421873e-002 1.24204075e-002 1.04058534e-002 3.96926049e-003
      1.32219851e-001 4.93680760e-002 3.78925987e-002 5.09744063e-002
      1.62573531e-002 5.52493967e-002 4.19294601e-003 0. 6.24645092e-002
      6.83589458e-001 4.62517999e-002 2.65110675e-002 1.65795237e-002
      9.44326818e-003 0. 2.49643897e-004 2.67629884e-003 2.11230014e-002
      5.18126011e-001 7.05507025e-002 8.04843009e-003 6.98782410e-003
      1.31350162e-003 5.85832773e-003 1.95258507e-003 2.18057130e-002
      6.03116527e-002 4.06625390e-001 3.53173092e-002 1.49740269e-002
      1.46076819e-002 8.04749690e-003 0. 0. 1.54853030e-003
      5.26826419e-002 5.18126011e-001 5.91182075e-002 4.73386282e-003
      9.05563356e-004 1.87643091e-004 7.59859849e-003 3.37995327e-004
      2.31398270e-002 4.41711582e-002 5.18126011e-001 5.40298112e-002
      1.88096091e-002 2.22384352e-002 7.91133661e-003 5.73200220e-003
      3.16994410e-004 6.23591198e-003 2.67383885e-002 4.92442995e-001
      4.72270101e-002 3.35214194e-004 2.81924848e-003 1.29575690e-003 0.
      0. 8.13947176e-004 5.51849678e-002 4.92442995e-001 4.44487184e-002
      0. 3.59716978e-005 7.45372154e-006 6.42298860e-003 3.97129310e-003
      2.03737593e-003 3.50206159e-002 4.92442995e-001 6.83095530e-002
      4.84223105e-003 4.37011151e-003 1.75096351e-003 0. 0.
      1.16278170e-004 6.09524734e-002 4.92442995e-001 8.55425671e-002
      6.84906205e-004 1.30048766e-005 0. 6.18636310e-002 2.01486629e-002
      4.44570258e-002 1.69360757e-001 4.81588274e-001 1.45402655e-001
      3.99999171e-002 1.09736912e-003 1.52916806e-002 9.99598801e-002
      1.25730962e-001 1.82808951e-001 1.69887334e-001 1.45201907e-001
      5.60157560e-002 3.87119465e-002 3.60180922e-002 4.82334048e-002
      9.52905789e-002 3.73922251e-002 7.36105517e-002 1.36371061e-001
      4.81588274e-001 1.04358904e-001 2.52298103e-003 6.81649195e-003
      2.34506391e-002 7.44886696e-002 1.68837890e-001 3.10790807e-001
      2.00307623e-001 3.23529810e-001 1.55187875e-001 1.01643525e-001
      7.43111735e-003 1.19660562e-002 8.41779727e-003 3.40304077e-002
      4.04188596e-002 3.90651338e-002 1.00909725e-001 3.79893593e-002
      1.01547949e-002 3.12623307e-002 9.13824514e-003 8.69869080e-004
      4.44616899e-002 3.36706191e-002 8.43802169e-002 6.69469476e-001
      5.72047383e-002 5.68081439e-003 2.95848232e-002 1.10768285e-002
      1.57845225e-002 5.03209233e-002 4.71150018e-002 1.18795119e-001
      1.52188897e-001 1.92041863e-002 4.55419347e-003 4.36682999e-002
      1.77221149e-002 1.19570801e-002 6.72636926e-002 3.73268835e-002
      1.14551716e-001 6.69469476e-001 2.21365429e-002 3.00905522e-004
      1.85164716e-002 1.80018600e-002 1.99389597e-003 3.39729036e-003
      8.06243345e-003 7.29933605e-002 5.24821699e-001 3.36279720e-002
      5.19412430e-003 0. 0. 3.04135960e-002 8.45976360e-003
      3.56388278e-002 8.46082717e-002 3.91146809e-001 1.69807859e-002
      8.65687337e-003 1.31742354e-006 1.25323748e-002 1.19633763e-003
      1.79857877e-003 1.43784415e-002 4.33566831e-002 5.24821699e-001
      6.43412024e-002 2.38293409e-003 1.19747780e-003 0. 1.29736504e-002
      3.39729036e-003 3.02075092e-002 6.66706637e-002 5.08412659e-001
      6.16763085e-002 1.27231106e-002 8.38234462e-003 8.95746052e-003
      1.90705038e-003 3.55735421e-003 4.02014004e-003 1.40576931e-002
      4.95028734e-001 1.83184296e-002 8.96387268e-003 6.18957868e-003
      3.04325763e-003 2.94760412e-005 1.42251505e-004 3.07862158e-003
      2.97156386e-002 4.95028734e-001 2.70820055e-002 1.11971225e-003
      3.17384751e-004 0. 4.21342114e-003 7.33626587e-003 1.84521468e-005
      4.95169545e-003 4.95028734e-001 6.27572089e-002 1.11326985e-002
      4.49947547e-003 3.40397540e-003 5.51541569e-003 7.62166036e-003
      2.82730386e-002 3.07044741e-002 4.95028734e-001 8.06164891e-002
      1.05278881e-003 2.57150474e-004 0. 1.03686742e-001 2.00998634e-002
      1.70076620e-002 5.33232838e-002 3.50061029e-001 1.54640570e-001
      2.00559087e-002 4.52782996e-002 5.27173355e-002 1.36156067e-001
      5.31404726e-002 3.76238488e-002 3.83997224e-002 3.05910632e-002
      4.59024357e-003 1.87772550e-002 1.26482204e-001 8.28370526e-002
      3.50061029e-001 3.65284272e-002 1.05356041e-003 4.10530437e-003
      2.36253381e-001 2.85867572e-001 8.36185068e-002 1.41138136e-001
      3.50061029e-001 3.50061029e-001 5.73166460e-002 1.23578673e-002
      2.24937405e-003 9.47672967e-003 4.28736908e-004 7.65471673e-003
      3.50061029e-001 3.50061029e-001 1.29972875e-001 4.52798344e-002
      4.69697639e-002 2.22883448e-002 4.10010964e-002 0. 3.76999269e-005
      2.93368008e-003 6.63362816e-002 8.79811347e-002 4.40849662e-002
      1.07634671e-001 2.01249540e-001 3.69801313e-001 2.38947086e-002 0.
      0. 4.34621386e-002 3.69801313e-001 1.60098895e-001 3.80656198e-002
      5.81285823e-003 8.62301979e-003 0. 2.26199591e-005 1.76020805e-003
      1.25416115e-001 3.69801313e-001 3.02135229e-001 2.72825122e-001
      3.69801313e-001 3.69801313e-001 2.89795385e-003 0. 0.
      1.09199762e-001 3.33417091e-003 4.82711621e-004 2.12117191e-002
      8.93298015e-002 4.97395366e-001 6.64528310e-002 1.38028152e-003
      6.72762922e-004 2.92515499e-004 1.86839681e-002 1.42634418e-002
      7.08057210e-002 3.42895016e-002 3.93031240e-001 5.94385862e-002
      6.87780650e-003 8.11166503e-003 1.25307078e-002 3.62961297e-003
      6.00000005e-003 1.90443564e-002 2.61497289e-001 4.97395366e-001
      6.11175336e-002 4.74795979e-003 1.33432751e-003 0. 4.53550834e-003
      4.95997397e-003 5.32506816e-002 6.28710017e-002 4.86221522e-001
      7.60184973e-002 2.11960226e-002 1.42380055e-002 1.10380724e-002
      3.84750636e-003 2.16737064e-003 0. 1.80000439e-002 3.94914418e-001
      1.22119613e-001 4.05449886e-003 6.61500730e-003 5.65041369e-003
      2.76763312e-004 3.09624389e-004 0. 7.39276689e-003 3.94914418e-001
      3.94914418e-001 1.58737209e-002 5.62140672e-003 5.34321531e-004
      2.75565800e-003 3.32496571e-003 0. 3.27880448e-003 3.94914418e-001
      2.08655730e-001 9.65164416e-003 9.24598612e-003 3.53790889e-003
      9.84244980e-005 4.74995119e-004 0. 6.87883759e-004 3.94914418e-001
      3.94914418e-001 2.92974096e-002 2.47302698e-003 2.10174621e-004
      3.15605283e-001 2.36932430e-002 1.21836551e-003 1.23571593e-003 0.
      5.58921928e-003 2.70767212e-002 6.00816645e-002 2.15277344e-001
      3.15605283e-001 1.87647995e-002 0. 0. 0. 4.08510976e-002
      3.15605283e-001 3.15605283e-001 2.42395878e-001 3.15605283e-001
      1.06416196e-001 2.79239509e-002 2.37553082e-002 1.51552223e-002
      3.04283071e-002 2.92550027e-002 2.31852252e-002 1.40417680e-001
      3.15605283e-001 6.00504726e-002 9.42314416e-003 8.14887288e-004
      9.64465663e-002 3.15605283e-001 3.15605283e-001 1.44228786e-001
      1.38561368e-001 3.67353529e-001 2.21437991e-001 1.71937853e-001
      2.13191751e-002 0. 0. 0. 1.19936955e-003 1.47034451e-001
      3.67353529e-001 1.19472183e-001 8.20489749e-002 4.78205718e-002
      8.18515122e-002 2.33752094e-002 1.58740822e-002 3.60214897e-002
      2.20730662e-001 3.67353529e-001 1.97559133e-001 1.94010183e-001
      1.42516539e-001 3.60396877e-002 1.10391190e-003 2.39124219e-003
      1.35442624e-002 8.20430592e-002 3.67353529e-001 6.56740814e-002
      1.00844800e-002 1.22697361e-001 2.68206775e-001 1.87145695e-001
      4.31954972e-002 1.07901484e-001 1.72960654e-001 1.88166939e-003
      1.05290404e-002 1.05764987e-002 4.43362862e-001 4.43362862e-001
      1.44720180e-002 5.15332818e-003 8.39464657e-004 0. 6.50071446e-003
      2.18977574e-002 4.96185757e-002 1.37128234e-001 2.93121278e-001
      4.46811803e-002 2.01782770e-002 4.45540575e-003 3.36459931e-003
      4.00825543e-003 1.79727226e-002 3.08115650e-002 4.43362862e-001
      4.43362862e-001 4.29773144e-003 2.42778473e-002 3.77818896e-003 0.
      1.58136748e-002 4.14924473e-002 7.81578943e-002 1.53062075e-001
      2.47175545e-001 1.92196481e-002 5.86797930e-002 1.65013969e-002
      9.13324859e-003 5.20655094e-003 1.61879801e-003 1.35868015e-002
      9.54401039e-005 1.42552406e-001 1.13132201e-001 1.19968606e-002
      8.07864219e-003 9.60758328e-003 9.34835523e-004 2.69799680e-003
      7.72122014e-003 1.36342996e-005 4.82003212e-001 4.82003212e-001
      1.05183758e-002 7.77501939e-003 5.68998978e-003 1.41488537e-002
      4.57079476e-003 3.02077737e-002 7.03281024e-004 1.14273116e-001
      5.45699336e-002 1.81279294e-002 8.39085132e-003 2.75210775e-002
      6.54384820e-003 7.61799142e-003 2.54738741e-002 9.29747534e-004
      4.82003212e-001 4.82003212e-001 1.12685069e-001 5.48592024e-003
      1.28331603e-002 2.92350739e-001 3.78469564e-002 9.27889720e-003
      4.77244658e-003 5.35621354e-003 1.16485674e-002 3.07896007e-002
      2.48629916e-002 3.13285708e-001 3.07258904e-001 3.13285708e-001
      2.14307621e-001 9.23166722e-002 2.42648479e-002 1.08604669e-003
      1.30861066e-003 4.19636257e-003 2.42004007e-001 3.13285708e-001
      3.17060314e-002 1.44183985e-003 0. 1.89163312e-002 6.66630862e-004
      1.31823476e-002 2.80154422e-002 3.13285708e-001 3.13285708e-001
      3.13285708e-001 9.62823778e-002 3.21413972e-003 3.81462723e-002 0.
      0. 0. 3.13285708e-001 3.13692898e-001 1.06442347e-002 0. 0.
      2.19783536e-003 1.04552926e-002 3.14258374e-002 7.27744997e-002
      3.13692898e-001 3.13692898e-001 1.79386720e-001 2.38906220e-001
      1.39213830e-001 1.43862674e-002 0. 0. 4.64463257e-004
      1.68343291e-001 3.13692898e-001 4.94002970e-003 0. 0.
      1.52866542e-002 1.32206449e-004 8.75778962e-003 5.33809550e-002
      3.13692898e-001 3.13692898e-001 2.56826460e-001 2.89381862e-001
      1.02457486e-001 3.94072458e-002 0. 0. 0. 3.12754840e-001
      5.07939570e-002 3.28656919e-002 2.74070110e-002 3.99044842e-001
      3.99044842e-001 1.03433870e-001 2.83772312e-002 3.75830978e-002
      9.73096024e-003 1.36533052e-001 1.97194200e-002 1.34507999e-001
      1.22343577e-001 1.63533762e-001 8.07247236e-002 7.21370056e-002
      5.80501221e-002 6.71439767e-002 4.67711724e-002 1.48306768e-002
      5.62786199e-002 3.99044842e-001 3.99044842e-001 1.31129935e-001
      1.34268068e-002 9.33421254e-002 4.26587053e-002 1.42577395e-001
      1.97096877e-002 6.88703358e-002 1.31429985e-001 3.44902039e-001
      7.62070194e-002 1.83279701e-002 1.23451613e-001 1.63261399e-001</_>
    <_>
      3.67206559e-002 4.99000363e-002 7.12129334e-003 1.75534204e-001
      1.84471518e-001 9.05341804e-002 7.59484619e-002 1.39100015e-001
      6.53893650e-002 3.40497233e-002 5.48483618e-002 7.92776123e-002
      2.72304058e-001 2.72304058e-001 2.70019602e-002 1.63387001e-001
      2.72304058e-001 6.00809492e-002 6.92890212e-002 1.76973715e-001
      1.35807037e-001 2.08633199e-001 1.54850319e-001 2.54719317e-001
      4.44896780e-002 1.10367604e-001 1.35053799e-001 7.50548542e-002
      2.68545747e-001 2.47893989e-001 2.72304058e-001 2.72304058e-001
      2.72304058e-001 9.22951922e-002 1.80770695e-001 6.94567487e-002
      3.82429063e-001 6.05612956e-002 1.24343950e-002 6.32958440e-003
      9.21951979e-003 2.79210997e-003 1.82820414e-003 8.28443735e-004
      1.01739325e-001 3.82429063e-001 1.93838670e-003 3.37172300e-004 0.
      5.02835168e-003 2.39986158e-003 1.31266005e-002 5.48567250e-003
      3.81412387e-001 3.82429063e-001 1.37535170e-001 7.87272677e-002
      1.09397367e-001 3.29782963e-002 5.64894523e-004 0. 1.61397347e-005
      2.41575852e-001 3.82429063e-001 2.15835217e-003 0. 0.
      3.56795564e-002 3.31473239e-002 7.29728043e-002 2.58210599e-002
      3.82429063e-001 3.70297134e-001 2.69205384e-002 1.89950727e-002
      9.75256320e-004 1.20847230e-003 4.67032150e-005 2.51121266e-004 0.
      1.98687345e-001 3.70297134e-001 6.40016329e-003 7.75790395e-005 0.
      3.62156052e-003 7.60602625e-003 9.78152081e-003 5.31448051e-002
      3.70297134e-001 3.70297134e-001 3.44219729e-002 1.27139956e-001
      2.48072669e-002 6.03168346e-002 0. 0. 0. 3.16042185e-001
      3.70297134e-001 5.47468383e-003 0. 0. 3.67187448e-002
      5.68495169e-002 3.77978124e-002 4.95950729e-002 3.70297134e-001
      2.03043204e-002 3.04611381e-002 2.75526550e-002 1.10768348e-001
      3.28147978e-001 3.28147978e-001 5.45775965e-002 1.26901837e-002
      1.10220967e-003 3.20742875e-002 3.82839814e-002 5.94356060e-002
      9.82378945e-002 2.66637474e-001 2.24414110e-001 2.99941190e-002
      3.26102749e-002 1.69998873e-002 5.47473493e-004 2.25860588e-002
      7.75016919e-002 2.72082418e-001 3.28147978e-001 3.28147978e-001
      2.58064777e-001 9.41427145e-003 0. 3.79041843e-002 3.92992720e-002
      4.55370322e-002 1.97911039e-001 3.28147978e-001 3.28147978e-001
      2.14611497e-002 3.74577241e-003 4.25159261e-002 1.67210232e-002
      2.49423627e-002 1.14915119e-002 7.34675527e-002 8.01380128e-002
      7.31694549e-002 1.44952759e-002 1.37906102e-003 3.23533751e-002
      7.62612000e-002 1.14556625e-001 1.22075565e-002 3.19350690e-001
      5.18618762e-001 1.08049780e-001 8.40835348e-002 5.46930777e-003
      3.42070535e-002 1.59748383e-002 4.24007028e-002 2.31440254e-002
      8.26359466e-002 1.22876465e-001 5.37586994e-002 2.51139607e-002
      6.89324038e-003 2.65299007e-002 2.92808980e-001 2.32694328e-001
      2.57408563e-002 2.73859322e-001 5.18618762e-001 6.20658584e-002
      1.95759498e-002 2.77393498e-003 2.18700185e-001 1.86800033e-001 0.
      1.83003943e-003 1.44830104e-002 1.05978645e-001 1.20554805e-001
      8.08436200e-002 3.78403775e-002 1.93537220e-001 3.23309064e-001
      3.63505259e-002 5.90454303e-002 6.06720373e-002 1.26661256e-001
      9.82022472e-003 1.14708198e-002 3.61663625e-002 2.53660649e-001
      3.89442086e-001 5.45051396e-002 4.01065685e-003 1.64646190e-002
      3.90669629e-002 1.04396194e-001 1.21944807e-001 1.27325132e-001
      3.89442086e-001 3.89442086e-001 1.73313528e-001 9.90772694e-002
      3.21715735e-002 2.23098937e-002 0. 1.23892899e-003 7.67289894e-003
      3.89442086e-001 2.50901967e-001 2.19984073e-003 0. 0.
      1.97402343e-001 2.87517793e-002 6.67077675e-002 4.21497691e-003
      1.87476829e-001 3.91976923e-001 2.59266514e-002 2.93345265e-002
      2.77006440e-002 5.42840594e-003 0. 0. 0. 2.46123657e-001
      3.91976923e-001 1.46745646e-003 0. 0. 5.66574596e-002
      2.11882796e-002 1.11179605e-001 3.70417126e-002 3.91976923e-001
      3.91976923e-001 4.28758748e-002 4.38858904e-002 1.62227340e-002
      8.34756158e-003 1.31635638e-002 3.02845053e-002 3.34238313e-004
      3.91976923e-001 3.83623280e-002 5.91870584e-002 6.68143407e-002
      1.70977816e-001 4.68956470e-001 2.78235257e-001 5.81377968e-002
      1.81886435e-001 8.86122733e-002 1.31863048e-002 1.10688414e-002
      5.66007681e-002 1.01232849e-001 1.75301895e-001 7.22781718e-002
      1.26311900e-002 7.27902399e-003 7.87922088e-003 5.04589044e-002
      2.87081432e-002 3.34464051e-002 2.48132780e-001 4.68956470e-001
      1.58196852e-001 2.67380904e-002 1.09131865e-001 1.47687107e-001
      1.14590628e-002 6.79377513e-003 3.51168923e-002 9.32376608e-002
      4.32664841e-001 1.47382572e-001 7.57871429e-003 4.36741486e-003
      2.17728391e-002 2.12163031e-002 2.21184492e-002 4.41125082e-003
      2.70606242e-002 2.42997892e-002 2.24833544e-002 5.10083586e-002
      2.52097063e-002 2.28483253e-003 3.20072565e-003 1.03844441e-002
      2.38253549e-003 1.05273426e-001 6.80641592e-001 6.67619482e-002
      3.81631516e-002 1.43315736e-002 0. 8.80277809e-003 5.04096737e-003
      1.85653474e-002 5.72462976e-002 3.94674614e-002 5.50965182e-002
      4.46903445e-002 2.97751669e-002 2.35182792e-003 8.97213875e-004
      1.29260472e-003 1.42007275e-002 1.25254378e-001 6.80641592e-001
      1.22057125e-001 2.65690442e-002 2.45013796e-002 0. 2.23565977e-002
      3.07367593e-002 1.28318489e-001 8.41842145e-002 6.24912500e-001
      1.23231553e-001 8.64257105e-003 0. 6.83267508e-003 5.00616543e-002
      4.01745364e-002 1.42913401e-001 7.81993717e-002 6.02841489e-002
      8.84753093e-002 1.35655524e-002 1.40598770e-002 2.53124107e-002
      1.56898964e-002 7.81033514e-003 1.33329883e-001 1.57987177e-001
      6.24912500e-001 7.26640895e-002 5.62226446e-003 0. 1.56898964e-002
      1.74640603e-002 4.62224670e-002 1.58201024e-001 1.99866906e-001
      8.99043307e-002 6.88362643e-002 1.67866070e-002 4.40504262e-003
      1.18580936e-002 9.61277634e-002 9.49774235e-002 5.93625233e-002
      4.16979976e-002 1.13797024e-001 5.38870022e-002 3.48111764e-002
      1.12291183e-002 1.02459021e-001 9.84643549e-002 7.94184431e-002
      4.67112698e-002 1.41926020e-001 5.23895204e-001 1.04354352e-001
      9.62959304e-002 2.99699418e-002 1.68517739e-001 1.64022312e-001
      9.81250107e-002 1.62081584e-001 9.67871845e-002 1.70744941e-001
      1.05173133e-001 5.01191877e-002 1.34254145e-002 8.57381448e-002
      1.06624939e-001 4.50297706e-002 3.46174501e-002 1.22926719e-001
      5.23895204e-001 2.79725730e-001 2.57225275e-001 6.13784455e-002
      8.07647631e-002 0. 5.33358718e-004 1.12691149e-002 1.01322204e-001
      5.75021863e-001 5.76799884e-002 0. 0. 0. 1.84967776e-003
      4.04143101e-003 3.84469964e-002 5.57696447e-002 2.98508555e-001
      4.57892194e-002 1.34400697e-002 1.13721713e-002 7.14643439e-003 0.
      3.20015242e-004 1.98843842e-003 1.24046721e-001 5.75021863e-001
      4.09622639e-002 2.97678722e-004 0. 0. 3.65001336e-003
      8.97362642e-003 1.85128618e-002 6.96038976e-002 4.46030855e-001
      4.12090421e-002 3.69070075e-003 3.39197391e-003 6.82806876e-003
      6.73274975e-003 3.51650198e-003 7.18443841e-003 9.92907211e-003
      2.23429389e-002 4.73396182e-002 5.03916331e-002 1.66690443e-002
      1.27029838e-002 2.60115438e-003 1.86101685e-003 5.25509520e-003
      6.45229593e-002 6.81589723e-001 1.32369548e-001 4.91519459e-002
      1.03346016e-002 4.92947735e-003 2.67434157e-002 3.30125317e-002
      1.22049833e-002 1.10442340e-002 4.02741954e-002 4.05787267e-002
      4.47094291e-002 1.22187845e-002 8.28368776e-003 1.83304306e-002
      1.71996392e-002 8.85933451e-003 4.41992320e-002 6.81589723e-001
      1.47886783e-001 4.21078950e-002 1.08054420e-003 3.70454916e-004 0.
      0. 2.69390270e-003 1.11627288e-001 5.99074244e-001 1.16197169e-001
      1.89315137e-002 4.46557114e-003 0. 3.04396749e-002 5.02693616e-002
      2.60040760e-002 1.29847899e-001 1.30845383e-001 1.30671531e-001
      2.00180244e-002 7.44261872e-003 0. 0. 0. 1.50609966e-002
      1.26109764e-001 5.99074244e-001 2.30990872e-001 2.40074228e-002 0.
      0. 4.80272546e-002 3.07319798e-002 1.41980434e-002 1.62888005e-001
      1.64432451e-001 2.49679014e-001 6.54269829e-002 2.32657827e-002 0.
      1.66088995e-002 1.88217517e-002 9.66111571e-002 1.16172805e-001
      1.12923190e-001 1.01311959e-001 4.73099984e-002 5.60423210e-002
      5.36983423e-002 2.07516886e-002 6.66453782e-003 3.97910587e-002
      1.56583786e-001 5.69835246e-001 1.95102185e-001 4.16822135e-002
      3.93099636e-002 5.12471348e-002 5.41252904e-002 1.69150867e-002
      6.70725405e-002 1.08011208e-001 6.27521947e-002 1.67374611e-001
      1.14438027e-001 1.23720832e-001 1.23317838e-001 3.59294973e-002
      3.79310846e-002 6.72688335e-002 2.21115336e-001 5.69835246e-001
      1.83647946e-001 9.92710367e-002 1.10607095e-001 1.12656042e-001 0.
      1.75585551e-003 2.05158722e-003 6.60471171e-002 5.74161708e-001
      5.95520809e-002 4.93942352e-004 0. 0. 8.72909371e-003
      1.24908648e-002 1.54614076e-002 6.34982213e-002 3.22369635e-001
      4.66809832e-002 4.86595323e-003 0. 8.72909371e-003 0.
      2.50836485e-004 3.03679076e-003 8.13382268e-002 5.74161708e-001
      9.11420882e-002 7.31838460e-004 0. 0. 9.07824002e-003
      3.15498328e-003 2.73085535e-002 7.45860785e-002 4.36702132e-001
      6.43568113e-002 7.47013092e-003 0. 9.07824002e-003 3.05096712e-002
      1.37961181e-002 1.47005776e-002 3.27515453e-002 7.95043632e-002
      2.77996510e-002 3.38570699e-002 6.19945582e-003 9.09457076e-003
      7.66303809e-003 6.29705284e-003 8.05457029e-003 4.64534163e-002
      6.87293708e-001 2.44003329e-002 1.33277280e-002 1.03324261e-002
      1.02498485e-002 1.33786369e-002 1.38867106e-002 3.31292339e-002
      9.66764987e-002 7.45417252e-002 3.28699127e-002 2.93327812e-002
      2.90715671e-003 6.91536255e-003 1.03502360e-003 5.91452280e-003
      1.90009046e-002 1.04003653e-001 6.87293708e-001 6.73230216e-002
      1.32657997e-002 4.84526157e-003 1.30314974e-003 5.76775102e-003
      3.47256511e-002 1.48095796e-002 1.04683042e-001 6.16125166e-001
      1.22843675e-001 1.54537270e-002 3.70058930e-003 0. 9.61291883e-003
      6.39276654e-002 3.09245288e-002 9.68770161e-002 1.94397911e-001
      4.49248217e-002 2.57562138e-002 2.83961985e-002 1.79936097e-003
      1.39190191e-002 1.45189660e-002 2.83409655e-003 2.10735470e-001
      6.16125166e-001 1.30941063e-001 1.98161453e-002 2.22035358e-003 0.
      2.31983680e-002 5.83351105e-002 4.42979187e-002 1.53783783e-001
      2.19554007e-001 1.00992925e-001 2.70165466e-002 3.70058930e-003 0.
      6.29013358e-003 4.26315004e-003 4.60558832e-002 7.60758147e-002
      1.10493459e-001 1.26772150e-001 7.43490234e-002 9.85264480e-002
      1.23903090e-002 3.77408043e-003 6.36375509e-003 1.41563356e-001
      2.00077951e-001 4.77804273e-001 1.90499663e-001 6.19219765e-002
      5.81912808e-002 1.55654168e-004 0. 1.82993375e-002 3.27410772e-002
      8.93815011e-002 1.36374846e-001 1.75462797e-001 8.68532434e-002
      1.80221930e-001 2.06505135e-002 0. 3.50305177e-002 1.09935373e-001
      2.15362936e-001 4.77804273e-001 4.67129320e-001 6.98884651e-002
      3.66397463e-002 1.00596502e-004 0. 4.32344992e-003 1.03498073e-002
      6.02536127e-002 5.82318485e-001 4.41603959e-002 0. 6.35741279e-004
      1.50195358e-003 4.72697150e-003 1.93769094e-002 2.46982407e-002
      3.61673459e-002 3.18041831e-001 5.86958416e-002 3.53774958e-004
      4.45018895e-003 1.52406478e-002 0. 4.09511058e-003 3.75970639e-003
      4.67438325e-002 5.82318485e-001 6.89103976e-002 8.49442463e-003
      3.81444755e-004 9.01172229e-004 4.19917516e-003 2.71104537e-002
      2.20335051e-002 6.18110113e-002 4.31432813e-001 6.57327026e-002
      2.13044211e-002 2.67011323e-003 1.05073787e-002 1.35799404e-002
      2.64842603e-002 1.36348112e-002 1.08286571e-002 5.17137833e-002
      2.26387847e-002 8.76968075e-003 1.88601632e-002 3.60524841e-002
      7.85531197e-003 1.48086054e-002 1.15736267e-002 5.02097234e-002
      6.85720801e-001 9.76440907e-002 1.88420285e-002 2.02017836e-002
      2.50816271e-002 3.39098051e-002 7.96354003e-003 1.98838115e-002
      3.40711512e-002 5.59721254e-002 3.50273289e-002 1.85536277e-002
      2.72356756e-002 4.14961763e-002 1.61962993e-002 9.23985802e-003
      2.61100736e-002 6.51626363e-002 6.85720801e-001 1.29110783e-001
      2.09003538e-002 1.21853733e-002 1.70371290e-002 0. 1.16910525e-002
      3.30889504e-003 8.93801376e-002 6.14124656e-001 9.81628299e-002
      9.05049965e-003 2.35682516e-003 8.76899983e-004 4.96805692e-003
      8.14465247e-003 7.99909513e-003 1.51817039e-001 1.52267024e-001
      8.11339468e-002 4.53866683e-002 1.01049244e-002 1.11063560e-002
      1.03790127e-003 5.12592308e-003 6.35025417e-003 7.74440616e-002
      6.14124656e-001 2.03316346e-001 5.17059825e-002 8.12809542e-003
      6.76362496e-003 1.02461427e-002 4.37916033e-002 1.52793368e-002
      1.15484051e-001 1.43279150e-001 2.30761349e-001 1.63341954e-001
      1.27268257e-002 7.03900866e-003 2.56145075e-002 4.12678011e-002
      5.32127991e-002 1.11405384e-002 1.56407833e-001 9.91138741e-002
      1.22502185e-001 6.98119476e-002 3.00548673e-002 2.69707758e-002
      6.04640096e-002 5.61931878e-002 9.10132006e-002 5.71464002e-001
      1.73846528e-001 1.88747734e-001 7.92259127e-002 1.11884554e-003
      5.55427969e-002 6.05731197e-002 1.27384454e-001 7.27704912e-002
      1.01952523e-001 6.22605197e-002 4.61606085e-002 8.63941088e-002
      1.09537825e-001 5.57673611e-002 3.41764130e-002 1.97196424e-001
      2.24027649e-001 5.71464002e-001 1.79302230e-001 4.08067256e-002
      3.65172476e-002 1.31882420e-002 2.56574899e-003 2.54524930e-004
      4.43384610e-003 6.90990984e-002 5.57864964e-001 7.11928457e-002
      2.16963980e-003 0. 1.02051685e-003 2.85071023e-002 2.22864351e-003
      1.43381637e-002 5.87781481e-002 3.33348423e-001 7.51422495e-002
      4.96649044e-003 0. 1.59235131e-002 8.12974933e-004 0. 0.
      1.12657435e-001 5.57864964e-001 6.34553730e-002 2.63968972e-003 0.
      5.92227501e-004 3.03221922e-002 3.12878238e-003 0. 7.50449672e-002
      4.59525436e-001 7.57218078e-002 1.22331977e-002 0. 1.64082069e-002
      2.86763683e-002 1.26148770e-002 3.62216458e-002 5.56041896e-002
      3.68571770e-003 2.44574565e-002 3.50201428e-002 3.34747508e-002
      1.86974183e-002 9.94618423e-003 1.69683620e-002 1.22677721e-002
      1.01884723e-001 5.20514011e-001 1.81989491e-001 1.81634575e-001
      1.45186946e-001 7.34429881e-002 6.84305355e-002 3.69001403e-002
      1.91475116e-002 4.32690158e-002 1.34549998e-002 4.30634767e-002
      3.45221795e-002 3.79174240e-002 3.61717381e-002 3.93003821e-002
      3.80568057e-002 2.10738461e-002 1.14045225e-001 5.20514011e-001
      3.55976254e-001 1.72741845e-001 3.69955301e-001 1.28881902e-001
      3.08791071e-001 2.54942421e-002 2.00322270e-002 2.50395015e-002
      1.83194190e-001 2.41295882e-002 1.37233769e-003 8.89934134e-003
      2.77925193e-001 3.51492614e-001 1.89055470e-004 1.31969794e-003
      3.47222015e-003 1.14560395e-003 2.51420494e-003 2.13415045e-002
      6.09615520e-002 3.51492614e-001 3.51492614e-001 1.14625506e-001
      6.47725165e-002 7.93925524e-002 4.69449162e-002 2.42382381e-002 0.
      7.81731389e-004 3.51492614e-001 3.51492614e-001 2.79930253e-002 0.
      0. 3.89672369e-002 4.02255729e-002 7.14810714e-002 8.40081349e-002
      3.51492614e-001 3.84125173e-001 6.30431399e-002 4.27930392e-002
      5.84210688e-003 1.74315937e-003 3.46711371e-004 0. 5.01482747e-003
      1.93910301e-001 3.84125173e-001 8.13943446e-002 3.50183016e-003
      3.78775485e-002 2.32521519e-002 2.08026831e-004 0. 1.55398725e-002
      3.06530833e-001 3.84125173e-001 1.21274650e-001 1.47845268e-001
      8.55540112e-002 3.09295468e-002 0. 0. 1.33582886e-004
      2.54986972e-001 3.84125173e-001 3.43094319e-002 2.70826829e-004
      4.50049900e-003 0. 0. 0. 3.25473696e-002 3.84125173e-001 0.
      4.81511205e-002 5.20366579e-002 1.56342983e-001 4.58930582e-001
      1.41071886e-001 1.91869363e-002 4.09359392e-003 5.36771445e-003
      6.37131045e-003 0. 5.04911086e-003 7.43698031e-002 3.47328454e-001
      4.44643088e-002 6.50832755e-003 4.42707259e-003 7.28864688e-003 0.
      1.84666425e-001 3.52169901e-001 3.12823296e-001 4.58930582e-001
      1.63745508e-001 3.51532362e-003 2.86551565e-002 3.75739969e-002
      1.45519488e-002 6.14165375e-003 1.31695010e-002 3.79343890e-002
      3.04650098e-001 1.26507252e-001 6.19236566e-003 7.37845432e-003
      1.60808451e-002 3.59022692e-002 5.18797664e-003 4.42700386e-002
      1.57104790e-001 1.74965873e-001 1.63427964e-001 1.77373514e-001
      1.03091314e-001 1.72784880e-001 3.63471359e-002 2.53063291e-002
      1.36032060e-001 2.32876167e-001 2.86908567e-001 2.86908567e-001
      1.43702462e-001 3.82414684e-002 1.12286463e-001 7.98668191e-002
      5.28957956e-002 1.51768969e-002 7.77875036e-002 2.85782695e-001
      2.16437131e-001 2.26664916e-001 8.00292268e-002 2.09196687e-001
      1.13138221e-001 2.11604722e-002 1.05269603e-001 2.15691760e-001
      2.86908567e-001 2.59875417e-001 2.13260591e-001 7.28791282e-002
      2.21003830e-001 3.44152212e-001 0. 0. 0. 6.11804575e-002
      9.40962210e-002 9.04162750e-002 7.20317587e-002 3.44152212e-001
      3.44152212e-001 6.06613345e-002 5.88901248e-003 3.37323956e-002
      2.59131305e-002 1.49902864e-003 5.91543410e-003 8.28527100e-003
      3.44152212e-001 3.44152212e-001 0. 0. 0. 2.52876990e-002
      2.84583922e-002 7.72319809e-002 8.86713713e-002 3.44152212e-001
      3.44152212e-001 4.54740785e-002 1.81688450e-003 4.69601480e-003
      8.66231136e-003 0. 0. 0. 3.44152212e-001 3.49420488e-001 0. 0.
      1.69094521e-004 3.18017304e-002 3.66298035e-002 1.46791451e-002
      7.26873875e-002 3.49420488e-001 3.49420488e-001 6.26114979e-002
      2.63073239e-002 6.70726877e-003 1.24167197e-003 0. 0. 0.
      3.49420488e-001 3.49420488e-001 0. 0. 0. 5.47523657e-003
      4.90826461e-003 2.09702062e-003 4.50769328e-002 3.49420488e-001
      3.49420488e-001 7.00388849e-002 9.82113369e-003 7.24659709e-004
      6.82249060e-003 0. 0. 1.00627020e-002 3.49420488e-001
      2.71540857e-003 4.90394235e-002 3.48228425e-001 3.48228425e-001
      3.48228425e-001 4.74353656e-002 4.68862206e-002 3.72269414e-002
      1.40089088e-003 7.46699721e-002 3.90115604e-002 1.97363138e-001
      2.64433414e-001 8.03358033e-002 7.39405528e-002 3.67378406e-002
      6.97596371e-002 4.68486063e-002 1.90078598e-002 7.87379742e-002
      2.54731566e-001 3.48228425e-001 3.48228425e-001 9.51120630e-002
      4.36653309e-002 9.80164334e-002 5.99003136e-002 1.06410988e-001
      5.82331419e-002 5.63892536e-002 2.05934316e-001 2.11392954e-001
      1.40551284e-001 3.29010189e-002 1.16650537e-001 1.03045240e-001</_>
    <_>
      2.49642417e-001 1.17206551e-001 2.49206230e-001 3.21246594e-001
      3.21246594e-001 1.02798846e-002 0. 0. 1.30315885e-001
      3.21246594e-001 6.87711984e-002 4.70045097e-002 4.17507067e-002
      2.88921893e-002 2.02162983e-003 0. 0. 3.21246594e-001
      7.46410042e-002 4.21150364e-002 7.01802671e-002 2.21829936e-001
      3.21246594e-001 2.78707206e-001 5.30174151e-002 3.94780524e-002
      8.08291212e-002 2.19534531e-001 4.41824980e-002 3.39848436e-002
      3.68538499e-002 7.62630105e-002 4.33008038e-002 3.18104513e-002
      3.74130271e-002 3.21246594e-001 1.01538561e-003 1.48711086e-003
      1.09290486e-004 5.06548630e-003 3.92732084e-001 3.92732084e-001
      6.00849241e-002 1.58652104e-002 1.17434198e-002 5.76149626e-003
      1.00651765e-002 3.66804679e-003 6.21103030e-003 3.92732084e-001
      1.14691041e-001 1.62690075e-003 1.47976438e-002 1.21688955e-002
      1.19610864e-003 2.22676643e-003 2.58532446e-003 3.98496389e-002
      3.92732084e-001 3.92732084e-001 9.41704772e-003 5.29437838e-003
      9.15054756e-004 1.16062853e-002 1.08405966e-002 7.00239278e-003
      3.67639028e-002 3.92732084e-001 2.20815912e-001 1.92841666e-003
      2.51597203e-002 1.17882974e-002 4.84706201e-002 1.17368095e-001
      1.21356480e-001 1.05236210e-001 2.70377070e-001 1.94247648e-001
      1.29433572e-001 2.18801070e-002 0. 1.65229458e-002 4.81474288e-002
      2.04994977e-001 2.72561193e-001 2.72561193e-001 1.57866597e-001
      1.47071421e-001 6.39181361e-002 4.01938818e-002 8.69766697e-002
      2.72561193e-001 1.67233363e-001 1.92980409e-001 2.72561193e-001
      2.37071350e-001 1.40818700e-001 2.14891043e-002 1.23918066e-002
      1.16949147e-002 7.51504377e-002 2.72561193e-001 2.72561193e-001
      2.72561193e-001 1.74889311e-001 9.67933908e-002 1.05290338e-001
      6.43459707e-002 2.03603312e-001 1.42140284e-001 1.63215742e-001
      1.29498497e-001 2.19387248e-001 7.20791072e-002 3.47811580e-002
      2.28534285e-002 2.54998077e-002 1.85865879e-001 1.94221303e-001
      2.60838509e-001 2.60838509e-001 2.17564702e-001 1.11163169e-001
      6.20103180e-002 4.09418680e-002 4.41952944e-002 1.86419800e-001
      1.59062132e-001 2.60838509e-001 2.60838509e-001 9.87363607e-002
      6.12865835e-002 3.45704593e-002 1.78576950e-002 2.87106186e-002
      2.50135869e-001 2.60838509e-001 2.60838509e-001 2.60838509e-001
      7.00428486e-002 1.46381140e-001 1.85426891e-001 1.24604732e-001
      7.88607821e-002 6.01895452e-002 0. 0. 0. 4.24306234e-003
      1.81756288e-001 3.41528982e-001 2.21627831e-001 3.41528982e-001
      2.69020051e-001 0. 0. 0. 0. 5.36490139e-003 3.35357003e-002
      9.11789313e-002 3.41528982e-001 8.93522501e-002 0. 0. 0.
      2.41173650e-004 1.06489293e-001 2.37243637e-001 2.19230324e-001
      3.41528982e-001 3.41528982e-001 2.15660175e-003 4.86808567e-004 0.
      0. 5.70414029e-003 2.68089566e-002 6.83741048e-002 3.41528982e-001
      6.87263499e-004 3.58617422e-003 1.94019557e-003 1.19793080e-002
      4.01979774e-001 4.01979774e-001 5.99995069e-002 1.35029210e-002
      3.41629609e-003 2.31662206e-003 1.68597454e-003 3.40607576e-003
      1.89252310e-002 4.01979774e-001 1.68941259e-001 1.91845838e-002
      1.07221957e-002 3.60032055e-003 0. 0. 3.72293376e-004
      1.93420053e-002 4.01979774e-001 3.63285691e-001 4.17457297e-002
      1.65043178e-003 4.06069812e-005 4.20534844e-003 4.76744259e-003
      3.49168316e-003 3.30671780e-002 4.01979774e-001 1.38623610e-001
      8.15141946e-003 1.22660762e-002 3.17498634e-004 3.30647384e-003
      6.64683357e-002 1.70993313e-001 2.00794891e-001 2.67527729e-001
      2.08754241e-001 8.04443136e-002 5.65308239e-003 8.20994377e-003 0.
      6.72605857e-002 1.90241486e-001 2.67527729e-001 2.67527729e-001
      1.33099854e-001 8.08857232e-002 4.57054600e-002 4.28277552e-002
      2.49321647e-002 3.35346721e-002 8.91292393e-002 9.23257247e-002
      2.67527729e-001 2.67527729e-001 2.67527729e-001 3.48474085e-002
      2.61840038e-002 1.71723415e-003 7.47191021e-003 2.27941647e-001
      2.58879483e-001 2.67527729e-001 2.67527729e-001 2.67527729e-001
      1.44308403e-001 1.34344548e-002 2.12839007e-001 7.47476667e-002
      4.83808294e-002 1.80736288e-001 2.54055500e-001 7.54897594e-002
      1.89835094e-002 3.45109142e-002 6.08495884e-002 2.15424389e-001
      5.20582087e-002 1.22735105e-001 2.17861995e-001 2.54055500e-001
      2.30330929e-001 3.79849225e-002 5.95258689e-003 9.23816785e-002
