<?xml version="1.0"?>
<opencv_storage>
<my_svm type_id="opencv-ml-svm">
  <svm_type>C_SVC</svm_type>
  <kernel><type>RBF</type>
    <gamma>4.0000000000000001e-002</gamma></kernel>
  <C>10.</C>
  <term_criteria><epsilon>1.1920928955078125e-007</epsilon>
    <iterations>1000</iterations></term_criteria>
  <var_all>1152</var_all>
  <var_count>1152</var_count>
  <class_count>2</class_count>
  <class_labels type_id="opencv-matrix">
    <rows>1</rows>
    <cols>2</cols>
    <dt>i</dt>
    <data>
      -1 1</data></class_labels>
  <sv_total>47</sv_total>
  <support_vectors>
    <_>
      1.48504004e-001 1.01093523e-001 1.48896545e-001 9.54981819e-002
      7.15864599e-002 0. 0. 0. 5.56654893e-002 3.00554574e-001
      1.43762127e-001 1.07010782e-001 7.12447241e-002 1.02266371e-002 0.
      0. 0. 3.00554574e-001 1.05840929e-001 1.43071741e-001
      3.00554574e-001 3.00554574e-001 3.00554574e-001 0. 0. 0.
      3.77834775e-002 3.00554574e-001 2.25629628e-001 2.75399983e-001
      3.00554574e-001 7.34378695e-002 0. 0. 0. 3.00554574e-001
      3.32261890e-001 0. 0. 0. 0. 0. 0. 0. 3.32261890e-001
      3.32261890e-001 0. 0. 0. 3.08634859e-004 2.78194044e-002
      3.21913548e-002 1.10864408e-001 3.32261890e-001 3.32261890e-001 0.
      9.80562647e-004 4.52672743e-004 0. 7.28441810e-004 1.09272962e-003
      0. 3.32261890e-001 3.32261890e-001 1.95117400e-003 6.86393911e-003
      3.16870911e-003 1.77963570e-001 1.95949897e-001 6.19675033e-002
      1.59449145e-001 3.32261890e-001 3.52477700e-001 1.72024537e-002
      4.80610831e-003 4.30890033e-003 1.15648087e-004 0. 0. 0.
      3.52477700e-001 3.52477700e-001 0. 0. 0. 0. 0. 0. 0.
      3.52477700e-001 3.52477700e-001 2.49613672e-002 1.21293943e-002
      3.01623009e-002 2.03185659e-002 1.09893596e-002 1.69983658e-003 0.
      3.52477700e-001 3.52477700e-001 0. 0. 0. 0. 2.00290597e-004
      2.42833776e-004 0. 3.52477700e-001 3.04099262e-001 0. 0. 0.
      5.14866002e-002 1.11421883e-001 1.49450287e-001 1.14980876e-001
      3.05865228e-001 3.96733657e-002 0. 0. 0. 9.48097482e-002
      1.51527822e-001 1.21091545e-001 6.89885318e-002 9.91387069e-002
      3.05865228e-001 0. 7.15859496e-005 6.17653038e-003 1.28325775e-001
      3.05865228e-001 3.05865228e-001 1.15282670e-001 3.05865228e-001
      3.61681581e-002 0. 1.02265640e-005 8.82361550e-004 3.05865228e-001
      3.05865228e-001 3.05865228e-001 6.74412549e-002 8.36054608e-002
      1.68598309e-001 7.52224624e-002 9.96529758e-002 7.47300014e-002
      1.69663057e-001 2.53795773e-001 1.99686140e-001 1.37743294e-001
      1.67024925e-001 2.92688996e-001 2.86349542e-002 3.69685367e-002
      1.54876923e-002 4.10647057e-002 1.30670905e-001 1.24958180e-001
      9.97032300e-002 2.92688996e-001 1.39938831e-001 7.23814592e-002
      1.51835009e-001 1.98530629e-001 2.92688996e-001 2.17689544e-001
      1.58768237e-001 1.29049852e-001 1.88374519e-001 2.92688996e-001
      3.16342488e-002 4.76474650e-002 7.10060224e-002 2.51938015e-001
      4.00209017e-002 5.12635335e-002 6.64510652e-002 2.92688996e-001
      3.02207083e-001 1.97554193e-002 2.91940644e-002 2.57083252e-002
      5.17711788e-003 2.73802271e-003 1.83028739e-003 3.01308883e-003
      3.02207083e-001 3.02207083e-001 1.38287932e-001 3.02207083e-001
      3.02207083e-001 8.33551586e-002 1.91661566e-002 3.05047887e-003
      5.02181426e-003 2.86631167e-001 3.02207083e-001 2.07777992e-002
      1.75164398e-002 3.62428580e-003 4.31304041e-004 0. 0. 0.
      3.02207083e-001 3.02207083e-001 1.45444602e-001 1.48893759e-001
      1.33426651e-001 5.05880341e-002 0. 0. 0. 3.02207083e-001
      3.45976979e-001 0. 0. 2.53489614e-002 5.98596260e-002
      1.17634758e-001 1.08084150e-001 5.45166545e-002 3.45976979e-001
      3.45976979e-001 0. 0. 3.12596676e-003 3.18948738e-003 0.
      9.48508387e-006 7.38096947e-004 3.45976979e-001 3.45976979e-001 0.
      0. 2.89358664e-003 1.66329462e-002 2.24506501e-002 4.99909371e-002
      5.39975129e-002 3.45976979e-001 3.45976979e-001 0. 0.
      4.13369504e-004 4.46076068e-004 0. 0. 0. 3.45976979e-001
      2.37116680e-001 1.44768700e-001 2.45802432e-001 1.53519943e-001
      4.62734103e-002 1.52984662e-002 6.00306783e-003 1.91842597e-002
      1.83240592e-001 1.10425554e-001 1.99533090e-001 2.45802432e-001
      1.70675278e-001 7.31040910e-002 1.70427531e-001 2.13061810e-001
      1.01063594e-001 2.52971239e-002 2.45802432e-001 1.01291142e-001
      2.26547331e-001 2.40617305e-001 1.80109784e-001 0. 2.38194373e-002
      4.21876535e-002 1.97725400e-001 1.02232710e-001 1.06864341e-001
      2.45802432e-001 2.45802432e-001 2.45802432e-001 2.45802432e-001
      2.20426351e-001 3.97474915e-002 1.80810485e-002 6.29861024e-004 0.
      0. 0. 5.03681839e-001 0. 0. 0. 6.29861024e-004 0. 0. 0. 0.
      4.83614087e-001 0. 0. 0. 0. 2.92027777e-004 0. 0. 0.
      5.03681839e-001 0. 0. 0. 2.92027777e-004 0. 0. 0. 0.
      5.03681839e-001 0. 0. 0. 0. 0. 0. 0. 0. 0. 0. 0. 0. 0. 0. 0. 0. 0.
      0. 0. 0. 0. 0. 0. 0. 0. 0. 0. 0. 0. 0. 0. 0. 0. 0. 0. 0. 0. 0. 0.
      0. 0. 0. 0. 0. 0. 0. 0. 0. 0. 0. 0. 0. 0. 0. 0. 0. 0. 0. 0. 0. 0.
      0. 0. 0. 0. 0. 0. 0. 0. 0. 0. 0. 0. 0. 0. 0. 0. 0. 0.
      6.79372170e-004 4.98534054e-001 1.51647860e-002 0. 0. 0. 0. 0. 0.
      1.13228697e-003 4.98534054e-001 2.52746418e-002 0. 0. 0. 0. 0. 0.
      1.13228697e-003 4.98534054e-001 4.12073743e-004 0. 0. 0. 0. 0. 0.
      1.88714499e-003 4.98534054e-001 6.86789572e-004 0. 0. 0.
      7.98818473e-006 0. 0. 0. 5.03688931e-001 0. 0. 0. 7.98818473e-006
      0. 0. 0. 0. 4.83592689e-001 0. 0. 0. 0. 0. 0. 0. 0.
      5.03688931e-001 0. 0. 0. 0. 0. 0. 0. 0. 5.03688931e-001 0. 0. 0.
      0. 0. 0. 0. 0. 0. 0. 0. 0. 0. 0. 0. 0. 0. 0. 0. 0. 0. 0. 0. 0. 0.
      0. 0. 0. 0. 0. 0. 0. 0. 0. 0. 0. 0. 0. 0. 0. 0. 0. 0. 0. 0. 0. 0.
      0. 0. 0. 0. 0. 0. 0. 0. 0. 0. 0. 0. 0. 0. 0. 0. 0. 0. 0. 0. 0. 0.
      0. 0. 0. 0. 0. 0. 0. 0. 0. 0. 0. 4.98753130e-001 0. 0. 0. 0. 0. 0.
      0. 0. 4.98753130e-001 0. 0. 0. 0. 0. 0. 0. 0. 4.98753130e-001 0.
      0. 0. 0. 0. 0. 0. 0. 4.98753130e-001 0. 0. 0. 0. 0. 0. 0. 0.
      5.03688931e-001 0. 0. 0. 0. 0. 0. 0. 0. 4.83592689e-001 0. 0. 0.
      0. 0. 0. 0. 0. 5.03688931e-001 0. 0. 0. 0. 0. 0. 0. 0.
      5.03688931e-001 0. 0. 0. 0. 0. 0. 0. 0. 0. 0. 0. 0. 0. 0. 0. 0. 0.
      0. 0. 0. 0. 0. 0. 0. 0. 0. 0. 0. 0. 0. 0. 0. 0. 0. 0. 0. 0. 0. 0.
      0. 0. 0. 0. 0. 0. 0. 0. 0. 0. 0. 0. 0. 0. 0. 0. 0. 0. 0. 0. 0. 0.
      0. 0. 0. 0. 0. 0. 0. 0. 0. 0. 0. 0. 0. 0. 0. 0. 0. 0. 0.
      4.98753130e-001 0. 0. 0. 0. 0. 0. 0. 0. 4.98753130e-001 0. 0. 0.
      0. 0. 0. 0. 0. 4.98753130e-001 0. 0. 0. 0. 0. 0. 0. 0.
      4.98753130e-001 0. 0. 0. 0. 1.87258265e-004 0. 0. 0.
      5.03688216e-001 0. 0. 0. 1.87258265e-004 0. 0. 0. 0.
      4.83594358e-001 0. 0. 0. 0. 4.75235109e-004 0. 0. 0.
      5.03688216e-001 0. 0. 0. 4.75235109e-004 0. 0. 0. 0.
      5.03688216e-001 0. 0. 0. 0. 0. 0. 0. 0. 0. 0. 0. 0. 0. 0. 0. 0. 0.
      0. 0. 0. 0. 0. 0. 0. 0. 0. 0. 0. 0. 0. 0. 0. 0. 0. 0. 0. 0. 0. 0.
      0. 0. 0. 0. 0. 0. 0. 0. 0. 0. 0. 0. 0. 0. 0. 0. 0. 0. 0. 0. 0. 0.
      0. 0. 0. 0. 0. 0. 0. 0. 0. 0. 0. 0. 0. 0. 0. 0. 0. 0.
      1.99593231e-003 4.98712152e-001 1.11275772e-003 0. 0. 0. 0. 0. 0.
      3.32655408e-003 4.98712152e-001 1.85459643e-003 0. 0. 0. 0. 0. 0.
      3.40053020e-003 4.98712152e-001 5.15172724e-003 0. 0. 0. 0. 0. 0.
      5.66755049e-003 4.98712152e-001 8.58621113e-003 0. 0. 0.
      3.07758804e-002 1.08635807e-002 2.69721262e-002 2.51153976e-001
      3.21223795e-001 1.21801615e-001 5.84515231e-003 2.16860157e-002
      4.47445288e-002 1.04573883e-001 1.55194011e-003 3.85316089e-003
      3.58791389e-002 3.21223795e-001 5.03957495e-002 0. 7.73788895e-003
      1.12955078e-001 1.58349916e-001 1.71475634e-001 1.83473513e-001
      3.21223795e-001 2.55660951e-001 2.08267778e-001 1.23177215e-001
      1.76338986e-001 3.04997534e-001 3.21223795e-001 6.81219399e-002
      5.28246835e-002 7.07289651e-002 1.03599586e-001 9.27680731e-002
      1.17515931e-002 5.45321479e-002 3.21223795e-001 1.57921433e-001 0.
      0. 0. 0. 0. 0. 0. 1.59697771e-001 1.62401929e-001 0. 0. 0.
      4.64357156e-003 0. 0. 2.05800366e-002 1.92961603e-001
      4.36913937e-001 0. 0. 0. 0. 0. 0. 1.94626010e-003 4.36913937e-001
      4.36913937e-001 0. 0. 0. 1.38135567e-001 8.89664292e-002
      2.30725363e-001 1.93209261e-001 4.36913937e-001 1.49599776e-001
      9.50758718e-003 0. 0. 2.10922956e-003 0. 0. 0. 1.36811718e-001
      2.01975971e-001 0. 0. 0. 0. 0. 0. 0. 2.01975971e-001
      4.58789319e-001 1.02580562e-001 1.21692888e-001 6.95225149e-002
      2.28165481e-002 0. 0. 0. 4.58789319e-001 4.58789319e-001 0. 0. 0.
      0. 0. 0. 0. 4.58789319e-001 4.07624543e-002 2.44539138e-002
      1.03212576e-002 1.55906240e-002 2.73701578e-001 1.87816635e-001
      3.91052924e-002 4.78712464e-004 6.27832040e-002 4.56221821e-003
      1.46723492e-002 1.02549747e-001 2.73701578e-001 2.73701578e-001
      2.73701578e-001 9.70463902e-002 3.35098710e-003 4.36711162e-002
      2.73701578e-001 5.67351356e-002 4.08436395e-002 5.60413897e-002
      7.64397681e-002 2.12727085e-001 9.77863818e-002 1.05196461e-001
      2.73701578e-001 8.14452916e-002 1.69347823e-001 2.73701578e-001
      2.73701578e-001 1.17616616e-001 2.73701578e-001 2.03334287e-001
      1.11590154e-001 2.73701578e-001 2.66547333e-002 7.30411615e-004
      1.32423756e-003 3.75599042e-002 2.72082716e-001 2.80933350e-001
      2.80933350e-001 1.23938017e-001 4.56027649e-002 2.80933350e-001
      3.32228793e-003 2.20706267e-003 1.91317704e-002 8.92214105e-002
      1.46183178e-001 1.93759888e-001 1.62009761e-001 2.45735154e-001
      5.96998669e-002 0. 0. 1.29056897e-003 1.50781885e-001
      1.49119720e-001 2.80933350e-001 2.75648713e-001 9.63849798e-002
      2.80933350e-001 0. 0. 2.15094816e-003 2.55042817e-002
      5.43994308e-002 2.44587690e-001 2.80933350e-001 2.80933350e-001
      3.31690848e-001 0. 1.71038439e-003 3.78304074e-004 0.
      1.21980680e-004 4.63124336e-004 1.66249694e-003 3.31690848e-001
      2.61541545e-001 6.71067014e-002 1.36385992e-001 1.41258791e-001
      1.88632801e-001 2.03499217e-002 3.24187055e-003 1.28851412e-002
      3.31690848e-001 3.31690848e-001 0. 0. 0. 0. 0. 0. 2.37499538e-004
      3.31690848e-001 3.31690848e-001 2.40157202e-001 1.34857163e-001
      5.38880937e-002 1.20004416e-002 0. 0. 1.66249694e-003
      3.31690848e-001 3.34588259e-001 6.11855043e-003 6.34226855e-003
      1.92612410e-002 2.24806480e-002 1.93716064e-002 2.82398723e-002
      1.19735152e-002 3.28776151e-001 3.58693272e-001 9.92295681e-004
      2.14360378e-004 1.60880067e-004 0. 5.40302484e-004 7.19914562e-004
      5.21088718e-004 3.58693272e-001 3.58693272e-001 8.37135885e-004 0.
      0. 2.34585372e-003 5.80827938e-003 2.21636333e-002 4.00568843e-002
      3.58693272e-001 3.58693272e-001 1.19590833e-004 0. 0. 0. 0. 0. 0.
      3.58693272e-001 8.92988890e-002 5.24139367e-002 2.76708454e-001
      2.76708454e-001 1.67319566e-001 1.96322575e-002 5.27884054e-004
      1.23485988e-002 2.18865693e-001 3.41767888e-003 3.10716685e-002
      2.76708454e-001 2.76708454e-001 2.76708454e-001 2.78492570e-002
      3.16730438e-004 1.76408561e-003 2.18149442e-002 2.23238647e-001
      2.38882259e-001 2.76708454e-001 1.92185774e-001 5.02410159e-002 0.
      0. 3.78047340e-002 2.76708454e-001 4.77866717e-002 1.43329352e-001
      2.76708454e-001 2.76708454e-001 2.14445725e-001 0. 0.
      5.40067675e-003 4.58826683e-002</_>
    <_>
      0. 0. 0. 0. 0. 0. 0. 0. 0. 0. 0. 0. 0. 0. 0. 0. 0. 0. 0. 0. 0. 0.
      0. 0. 0. 0. 0. 0. 0. 0. 0. 0. 0. 0. 0. 0. 0. 0. 0. 0. 0. 0. 0. 0.
      0. 0. 0. 0. 0. 0. 0. 0. 0. 0. 0. 0. 0. 0. 0. 0. 0. 0. 0. 0. 0. 0.
      0. 0. 0. 0. 0. 0. 0. 0. 0. 0. 0. 0. 0. 0. 0. 0. 0. 0. 0. 0. 0. 0.
      0. 0. 0. 0. 0. 0. 0. 0. 0. 0. 0. 0. 0. 0. 0. 0. 0. 0. 0. 0. 0. 0.
      0. 0. 0. 0. 0. 0. 0. 0. 0. 0. 0. 0. 0. 0. 0. 0. 0. 0. 0. 0. 0. 0.
      0. 0. 0. 0. 0. 0. 0. 0. 0. 0. 0. 0. 9.16649774e-002
      8.46362731e-004 1.92549497e-001 1.84463382e-001 2.10138634e-001
      9.80971009e-002 3.40890661e-002 4.53110412e-002 2.18138039e-001
      5.49188219e-002 1.20908968e-004 2.75070667e-002 2.63519101e-002
      2.61291683e-001 1.53877631e-001 2.04534382e-002 2.71866247e-002
      1.30882829e-001 2.45459750e-002 0. 3.02070916e-001 3.38476628e-001
      3.38476628e-001 3.38476628e-001 5.68151027e-002 7.55184069e-002
      9.58881602e-002 1.47275859e-002 0. 4.31529917e-002 8.00891146e-002
      3.38476628e-001 3.38476628e-001 3.40890661e-002 4.53110412e-002
      5.75328991e-002 0. 0. 0. 0. 1.29968841e-002 0. 0. 0. 0.
      2.04166919e-001 2.35127425e-003 4.11450490e-002 4.62775558e-001
      4.86768097e-001 0. 0. 0. 7.91702643e-002 0. 0. 0. 0.
      9.20718238e-002 0. 0. 0. 0. 8.18685964e-002 3.86856287e-003
      6.85750842e-002 4.86768097e-001 4.86768097e-001 1.87862609e-002 0.
      0. 8.82909633e-003 0. 0. 0. 0. 4.35481250e-001 3.66714001e-001
      1.71910167e-001 0. 0. 0. 0. 0. 0. 0. 0. 0. 0. 0. 0. 0. 0. 0.
      5.22522628e-001 5.22522628e-001 3.08294713e-001 0. 0. 0. 0. 0. 0.
      0. 0. 0. 0. 0. 5.53584024e-002 0. 1.75595999e-001 1.70258924e-001
      1.30383164e-001 2.92511005e-002 2.12798938e-002 2.78795883e-002
      1.33061394e-001 9.17223319e-002 0. 1.05357580e-001 1.02155350e-001
      2.98654884e-001 1.66527972e-001 3.54664922e-002 4.64659818e-002
      2.21227318e-001 1.39577193e-002 0. 2.43023485e-001 3.39733750e-001
      3.39733750e-001 1.53011143e-001 3.54664922e-002 4.64659818e-002
      5.91568351e-002 2.32628658e-002 0. 1.45814106e-001 3.24682683e-001
      3.39733750e-001 3.39733750e-001 5.91108166e-002 7.74432942e-002
      9.85947102e-002 0. 0. 0. 1.61777498e-004 4.98753071e-001
      2.28944802e-004 0. 0. 0. 0. 0. 0. 2.69629149e-004 4.98753071e-001
      3.27064045e-005 0. 0. 0. 0. 0. 0. 0. 4.98753071e-001 0. 0. 0. 0.
      0. 0. 0. 0. 4.98753071e-001 0. 0. 0. 0. 0. 0. 0. 0.
      8.48141685e-002 0. 0. 0. 0. 0. 0. 0. 2.53508013e-004
      6.97670043e-001 0. 0. 0. 0. 0. 0. 0. 0. 1.11153968e-001 0. 0. 0.
      0. 0. 0. 0. 0. 6.97670043e-001 0. 0. 0. 0. 0. 0. 0.
      2.80729641e-004 7.04615593e-001 0. 0. 0. 0. 0. 0. 0. 0. 0. 0. 0.
      0. 0. 0. 0. 0. 0. 7.04615593e-001 0. 0. 0. 0. 0. 0. 0. 0. 0. 0. 0.
      0. 0. 0. 0. 0. 4.20376200e-005 4.98752743e-001 2.10179962e-004 0.
      0. 0. 0. 0. 0. 2.94263329e-004 4.98752743e-001 1.26107974e-004 0.
      0. 0. 0. 0. 0. 0. 4.98752743e-001 8.47006042e-004 0. 0. 0. 0. 0.
      0. 0. 4.98752743e-001 8.73868237e-004 0. 0. 0. 0. 0. 0. 0.
      4.98726904e-001 2.71061086e-003 0. 0. 0. 0. 0. 0. 0.
      4.98726904e-001 4.51768562e-003 0. 0. 0. 0. 0. 0. 0.
      4.98726904e-001 4.51768562e-003 0. 0. 0. 0. 0. 0. 0.
      4.98726904e-001 7.52947619e-003 0. 0. 0. 0. 0. 0. 0.
      8.48104954e-002 0. 0. 0. 0. 0. 0. 0. 0. 6.97670639e-001 0. 0. 0.
      0. 0. 0. 0. 0. 1.11149147e-001 0. 0. 0. 0. 0. 0. 0. 0.
      6.97670639e-001 0. 0. 0. 0. 0. 0. 0. 0. 7.04615593e-001 0. 0. 0.
      0. 0. 0. 0. 0. 0. 0. 0. 0. 0. 0. 0. 0. 0. 7.04615593e-001 0. 0. 0.
      0. 0. 0. 0. 0. 0. 0. 0. 0. 0. 0. 0. 0. 0. 4.98753071e-001
      3.52834846e-004 0. 0. 0. 0. 0. 0. 0. 4.98753071e-001
      3.64025647e-004 0. 0. 0. 0. 0. 0. 0. 4.98753071e-001 0. 0. 0. 0.
      0. 0. 0. 0. 4.98753071e-001 0. 0. 0. 0. 0. 0. 0. 3.12184729e-003
      4.98743683e-001 0. 0. 0. 0. 0. 0. 0. 5.20307897e-003
      4.98743683e-001 0. 0. 0. 0. 0. 0. 0. 2.90490047e-004
      4.98743683e-001 3.88724642e-004 0. 0. 0. 0. 0. 0. 4.84150107e-004
      4.98743683e-001 6.47874433e-004 0. 0. 0. 0. 0. 0. 0.
      8.48104954e-002 0. 0. 0. 0. 0. 0. 0. 0. 6.97670639e-001 0. 0. 0.
      0. 0. 0. 0. 0. 1.11149147e-001 0. 0. 0. 0. 0. 0. 0. 0.
      6.97670639e-001 0. 0. 0. 0. 0. 0. 0. 0. 7.04615593e-001 0. 0. 0.
      0. 0. 0. 0. 0. 0. 0. 0. 0. 0. 0. 0. 0. 0. 7.04615593e-001 0. 0. 0.
      0. 0. 0. 0. 0. 0. 0. 0. 0. 0. 0. 0. 0. 1.94119907e-003
      4.98727471e-001 6.34473632e-004 0. 0. 0. 0. 0. 0. 5.85932238e-003
      4.98727471e-001 1.05745613e-003 0. 0. 0. 0. 0. 0. 4.72351443e-003
      4.98727471e-001 1.05745613e-003 0. 0. 0. 0. 0. 0. 6.02419022e-003
      4.98727471e-001 1.76242669e-003 0. 0. 0. 0. 0. 0. 7.27622025e-003
      4.98192608e-001 9.99479927e-003 0. 0. 0. 0. 0. 0. 3.11970431e-003
      4.98192608e-001 3.44514567e-003 0. 0. 0. 0. 0. 0. 2.77655069e-002
      4.98192608e-001 3.19629014e-002 0. 0. 0. 1.35245296e-004 0. 0.
      1.23692555e-002 4.98192608e-001 1.09948982e-002 0. 0.
      1.35245296e-004 0. 0. 0. 0. 8.48517641e-002 0. 0. 0. 0. 0. 0. 0.
      0. 6.97661221e-001 0. 0. 0. 0. 9.55740921e-004 0. 0. 0.
      1.11203238e-001 0. 0. 0. 9.55740921e-004 5.40047011e-004 0. 0.
      2.19968008e-003 6.97661221e-001 0. 0. 0. 5.40047011e-004 0. 0. 0.
      0. 7.04605818e-001 0. 0. 0. 0. 0. 0. 0. 0. 0. 0. 0. 0. 0.
      1.44097710e-003 0. 0. 0. 7.04605818e-001 0. 0. 0. 1.44097710e-003
      3.42116831e-003 0. 0. 0. 0. 0. 0. 0. 3.42116831e-003 0. 0. 0.
      2.66239862e-003 4.98506367e-001 1.01355242e-003 0. 0. 0. 0. 0. 0.
      8.80390219e-003 4.98506367e-001 3.74567416e-003 0. 0. 0.
      5.93187360e-005 0. 0. 4.49000951e-003 4.98506367e-001
      5.26338490e-003 0. 0. 5.93187360e-005 0. 0. 0. 2.77345926e-002
      4.98506367e-001 8.37681256e-003 0. 0. 0. 9.78174582e-002
      9.70016867e-002 8.75655338e-002 1.27893806e-001 1.78260982e-001
      2.56732672e-001 2.01875865e-001 6.97096065e-002 1.10514119e-001
      2.56732672e-001 2.56732672e-001 1.96515635e-001 2.32621744e-001
      1.58362538e-001 8.89183134e-002 7.14483783e-002 9.33807641e-002
      2.56732672e-001 1.56903807e-002 5.52939177e-002 1.18093342e-001
      2.13755533e-001 2.56732672e-001 1.65354013e-001 1.65400043e-001
      3.85387391e-002 6.05236925e-002 7.80160502e-002 1.56179443e-001
      2.43418753e-001 2.56732672e-001 2.56732672e-001 1.31811604e-001
      9.94703397e-002 3.91947404e-002 1.50269449e-001 3.10685337e-001
      8.48075189e-003 0. 0. 2.45233439e-003 7.25354417e-004
      1.19947137e-004 2.44759955e-002 3.10685337e-001 3.10685337e-001
      1.37177080e-001 7.63287023e-002 1.47158384e-001 1.67613551e-001
      9.73282233e-002 1.06767461e-001 1.93857566e-001 3.10685337e-001
      2.81569034e-001 1.07117936e-004 0. 4.33788373e-004 3.86575516e-003
      5.07748080e-003 8.39629851e-004 1.43795582e-002 2.62752861e-001
      2.62396932e-001 6.64036274e-002 8.27494860e-002 1.04604848e-001
      3.10685337e-001 1.08728580e-001 1.90303043e-001 1.52720317e-001
      2.64129251e-001 3.60553086e-001 7.95914009e-002 1.19692400e-001
      1.19343258e-001 4.01712507e-002 4.61180657e-002 0. 1.59677751e-002
      3.60553086e-001 3.60553086e-001 0. 1.87253361e-004 2.63916038e-004
      0. 0. 0. 2.28111050e-003 3.60553086e-001 2.54648596e-001
      4.77548465e-002 1.18495762e-001 2.04044163e-001 8.84084851e-002
      3.95037234e-002 2.38478999e-003 2.74099130e-002 2.11052343e-001
      3.60553086e-001 0. 1.31077354e-003 1.84741244e-003 8.82064342e-004
      0. 8.58924643e-004 4.08888841e-003 3.60553086e-001 2.54897565e-001
      1.16879493e-001 7.22567812e-002 1.77424520e-001 1.23552367e-001
      2.76262015e-001 2.33109325e-001 1.31661505e-001 1.78776011e-001
      1.66670352e-001 1.80963397e-001 7.38090649e-002 2.76262015e-001
      2.76262015e-001 1.70559719e-001 9.89888906e-002 3.39823253e-002
      5.34407096e-003 1.06406704e-001 8.53892565e-002 4.50420305e-002
      1.88069791e-001 2.76262015e-001 2.76262015e-001 1.02785796e-001
      6.39123023e-002 5.09307981e-002 1.13095522e-001 1.18988581e-001
      3.07000671e-002 1.41622141e-001 2.76262015e-001 2.76262015e-001
      3.71454582e-002 1.12852734e-002 7.63438642e-004 3.16296034e-002 0.
      0. 0. 1.82023406e-001 1.42026857e-001 3.69303584e-001
      6.89488128e-002 8.84392709e-002 3.69303584e-001 1.32947729e-003
      3.97828780e-003 0. 1.42706737e-001 2.41480485e-001 3.69303584e-001
      3.69303584e-001 3.69303584e-001 2.04872880e-002 0. 0. 0.
      1.11786770e-002 5.13682142e-003 2.71618329e-002 7.78740691e-003
      2.86029559e-002 2.60203540e-001 0. 0. 0. 2.28543952e-002
      8.56136903e-003 4.52697203e-002 5.45118451e-002 3.05448979e-001
      4.25982714e-001 0. 0. 0. 4.13821224e-004 0. 5.74564037e-004
      3.17074737e-004 4.25982714e-001 4.25982714e-001 1.38646320e-001
      6.35441765e-002 7.73012685e-003 2.72581093e-002 0. 4.02194820e-003
      2.21952307e-003 4.25982714e-001 2.19059303e-001 0. 0. 0.
      9.82529833e-004 0. 0. 0. 2.19778225e-001 2.91865855e-001
      7.96441361e-003 3.57439509e-003 0. 1.01958830e-002 0. 0. 0.
      2.53294557e-001 4.32530075e-001 1.50983408e-003 1.12572999e-003
      2.20543123e-003 3.57275596e-003 8.87175789e-004 1.57283656e-002
      1.80017613e-002 4.32530075e-001 4.32530075e-001 4.61029267e-004
      1.00326841e-004 2.05216915e-004 0. 0. 0. 0. 4.32530075e-001
      2.04826564e-001 7.80755607e-003 2.89776968e-003 3.67571856e-003
      1.05424703e-003 0. 1.93288794e-003 2.24716333e-003 2.12422535e-001
      2.82838702e-001 2.79606902e-003 1.67211401e-004 3.42028186e-004 0.
      0. 2.04982949e-004 6.85017003e-005 2.82101065e-001 3.40996116e-001
      3.40996116e-001 3.40996116e-001 3.40996116e-001 3.40996116e-001 0.
      4.10260633e-003 4.54726716e-004 3.40996116e-001 4.63425070e-002
      9.10800621e-002 8.69507045e-002 2.50642508e-001 3.16711336e-001 0.
      0. 0. 2.04568673e-002 2.53327489e-001 9.18329433e-002
      5.68629196e-003 7.02293683e-003 5.69417849e-002 0. 0. 0.
      1.99392289e-001 1.67266745e-002 1.30114378e-002 4.90485458e-004
      1.00327667e-003 3.23498659e-002 0. 0. 0. 1.30287269e-002</_>
    <_>
      0. 0. 0. 0. 0. 0. 0. 0. 0. 0. 0. 0. 0. 0. 0. 0. 0. 0. 0. 0. 0. 0.
      0. 0. 0. 0. 0. 0. 0. 0. 0. 0. 0. 0. 0. 0. 0. 0. 0. 0. 0. 0. 0. 0.
      0. 0. 0. 0. 0. 0. 0. 0. 0. 0. 0. 0. 0. 0. 0. 0. 0. 0. 0. 0. 0. 0.
      0. 0. 0. 0. 0. 0. 0. 0. 0. 0. 0. 0. 0. 0. 0. 0. 0. 0. 0. 0. 0. 0.
      0. 0. 0. 0. 0. 0. 0. 0. 0. 0. 0. 0. 0. 0. 0. 0. 0. 0. 0. 0. 0. 0.
      0. 0. 0. 0. 0. 0. 0. 0. 0. 0. 0. 0. 0. 0. 0. 0. 0. 0. 0. 0. 0. 0.
      0. 0. 0. 0. 0. 0. 0. 0. 0. 0. 0. 0. 8.89337733e-002
      2.61895433e-002 1.57328299e-003 0. 3.83989178e-002 0. 0. 0.
      1.10564634e-001 1.23579716e-002 0. 0. 0. 2.09483579e-002 0. 0. 0.
      1.55554283e-002 3.94434541e-001 1.46154925e-001 2.08310157e-001
      3.46540838e-001 4.14563954e-001 0. 0. 2.73439884e-001
      4.14563954e-001 5.55622466e-002 0. 0. 0. 4.14563954e-001 0. 0.
      3.90628427e-002 1.93217188e-001 0. 0. 0. 0. 0. 0. 0. 0. 0. 0. 0.
      0. 0. 0. 0. 0. 0. 0. 0. 0. 0. 0. 0. 0. 0. 0. 0. 0. 0. 0. 0. 0. 0.
      0. 0. 0. 0. 0. 0. 0. 0. 0. 0. 0. 0. 0. 0. 0. 0. 0. 0. 0. 0. 0. 0.
      0. 0. 0. 0. 0. 0. 0. 0. 0. 0. 0. 0. 0. 0. 0. 0. 0. 0. 0. 0. 0. 0.
      0. 0. 0. 0. 0. 0. 0. 0. 0. 0. 0. 0. 0. 0. 0. 0. 0. 0. 0. 0. 0. 0.
      0. 0. 0. 0. 0. 0. 0. 0. 0. 1.18452626e-005 0. 1.32320402e-002
      1.70394748e-001 4.44250673e-001 3.64165187e-001 1.41834039e-002 0.
      1.18452626e-005 0. 0. 0. 1.45327998e-003 4.27671522e-001
      1.86506525e-001 2.02620076e-003 0. 0. 1.39904689e-004 0. 0.
      7.05969632e-002 4.44250673e-001 1.20384701e-001 0. 0.
      1.39904689e-004 0. 0. 0. 7.96751026e-003 4.44250673e-001
      6.50056824e-002 0. 0. 0. 0. 0. 0. 0. 0. 0. 0. 0. 0. 0. 0. 0. 0. 0.
      0. 0. 0. 0. 0. 0. 0. 0. 0. 0. 0. 0. 0. 0. 0. 0. 0. 0. 0. 0. 0. 0.
      0. 0. 0. 0. 0. 0. 0. 0. 0. 0. 0. 0. 0. 0. 0. 0. 0. 0. 0. 0. 0. 0.
      0. 0. 0. 0. 0. 0. 0. 0. 0. 0. 0. 0. 0. 0. 0. 0. 0. 0. 0. 0. 0. 0.
      0. 0. 0. 0. 0. 0. 0. 0. 0. 0. 0. 0. 0. 0. 0. 0. 0. 0. 0. 0. 0. 0.
      0. 0. 0. 0. 0. 0. 1.67428181e-002 0. 2.20315158e-003
      3.30564141e-001 3.30564141e-001 2.53289696e-002 2.45364499e-005
      7.65481871e-003 3.23821278e-003 6.84979558e-002 4.90630919e-005
      8.40664085e-004 1.97912037e-001 3.30564141e-001 2.28081644e-002
      4.08940796e-005 1.46270627e-002 4.43351716e-002 2.22517222e-001
      5.70104532e-002 2.02445894e-001 3.30564141e-001 3.30564141e-001
      1.32828563e-001 4.08940796e-005 1.23609658e-002 5.04336767e-002
      3.30564141e-001 9.29442570e-002 6.90949708e-002 1.70145616e-001
      1.42705023e-001 8.35493207e-002 6.81568054e-005 2.08686125e-002
      3.30564141e-001 1.30004182e-001 2.43517407e-003 0. 0. 0.
      2.40226233e-004 1.17442636e-004 1.97216542e-003 1.17870614e-001
      9.65157673e-002 7.01072207e-003 0. 0. 1.39592225e-002
      2.83731776e-003 4.54491610e-003 2.13471223e-002 1.38451353e-001
      4.00178283e-001 3.47882014e-004 0. 0. 0. 6.27006963e-003
      1.15717165e-002 6.03633411e-002 4.00178283e-001 4.00178283e-001
      1.00153172e-003 0. 0. 2.04595663e-002 3.23093683e-001
      1.63235381e-001 4.00178283e-001 4.00178283e-001 1.18956372e-001
      5.48284547e-003 7.04187667e-004 1.22784998e-003 1.27515162e-003 0.
      0. 5.25945053e-003 1.05262101e-001 1.55422494e-001 0. 0. 0. 0. 0.
      0. 1.97666604e-003 1.56874463e-001 4.71801013e-001 1.59833863e-001
      3.88779901e-002 6.14769831e-002 1.63323164e-003 0. 0.
      7.51350250e-004 4.71801013e-001 4.71801013e-001 0. 0. 0. 0. 0. 0.
      2.82380846e-004 4.71801013e-001 1.21622860e-001 5.25034266e-003 0.
      0. 5.23188291e-003 9.43443738e-004 3.32828029e-003 8.12033098e-003
      1.43226057e-001 4.87825982e-002 4.06256830e-003 0. 0.
      2.47964803e-002 1.57240615e-003 1.43760908e-002 1.33745130e-002
      9.97938365e-002 3.68345827e-001 7.50049017e-004 0. 0.
      1.28995767e-002 1.07429706e-001 7.20299557e-002 2.46711254e-001
      3.68345827e-001 3.60265851e-001 5.80366876e-004 0. 0.
      1.45595178e-001 3.68345827e-001 2.00941354e-001 3.68345827e-001
      3.68345827e-001 4.02743649e-003 9.26008150e-002 3.10550064e-001
      3.10550064e-001 3.10550064e-001 1.25084922e-001 9.74866450e-002
      1.25907063e-001 6.96705207e-002 2.37913635e-002 1.56184584e-002
      1.04652576e-001 2.14833260e-001 3.10550064e-001 5.45424856e-002
      2.58224667e-003 5.01703564e-003 2.33881064e-002 2.01917104e-002
      4.35631573e-002 3.10550064e-001 3.10550064e-001 3.10550064e-001
      3.10550064e-001 1.40876010e-001 6.00437969e-002 1.68127138e-002
      3.80891040e-002 1.68989338e-002 7.53331482e-002 1.04089648e-001
      2.40641564e-001 7.12655261e-002 1.40890609e-002 1.77919585e-002
      4.07656804e-002 5.57201952e-002 1.08085349e-002 1.14656473e-002
      2.24490780e-002 2.34716665e-002 1.12895695e-002 8.23000260e-003
      1.52683689e-003 5.40565513e-002 1.14170276e-001 2.23040283e-002
      7.09805489e-002 6.99975938e-002 4.79592770e-001 4.79592770e-001
      2.01052930e-002 2.47317599e-003 4.34697904e-002 6.05027229e-002
      1.46273372e-003 8.87482520e-003 4.11256440e-002 1.18232984e-002
      1.64440982e-002 4.06513270e-003 1.08145755e-002 5.48374653e-002
      9.47372094e-002 1.04702674e-002 1.54676549e-002 2.02024445e-001
      4.79592770e-001 4.55785722e-001 1.15896193e-002 2.84209810e-002
      6.38768077e-002 1.47077546e-001 3.57148573e-002 5.69982864e-002
      3.68822634e-001 3.68822634e-001 8.40115249e-002 4.06250022e-002
      1.20994695e-001 1.20505281e-001 2.82842934e-001 1.22005083e-002
      4.36212402e-003 3.59790982e-003 1.23811634e-002 1.41328722e-002
      1.92548260e-002 2.81030182e-002 3.32175970e-001 1.44791067e-001
      5.53213432e-002 9.83508024e-003 2.35951468e-001 3.68822634e-001
      1.20634601e-001 3.86831835e-002 1.49572104e-001 1.54665023e-001
      3.09886426e-001 1.88719351e-002 6.23160566e-004 5.13987092e-004
      8.35538730e-002 2.95813307e-002 3.72756571e-002 5.52936681e-002
      2.85196543e-001 1.24520119e-002 4.64362511e-003 2.41411012e-003
      5.93080893e-002 1.37435257e-001 8.40447098e-002 1.21772867e-002
      2.76965206e-004 1.00969505e-002 1.60436134e-003 2.36525643e-003
      1.07121794e-002 2.79212385e-001 4.35868740e-001 4.35868740e-001
      2.84705702e-002 1.66179147e-004 7.36904622e-004 1.00461747e-002
      2.16654758e-003 2.09259950e-002 2.15530917e-001 2.31101453e-001
      3.70137431e-002 1.26719719e-003 1.49217853e-003 1.62082929e-002
      7.18596217e-004 3.09506810e-004 1.29325449e-001 4.35868740e-001
      4.35868740e-001 9.02348384e-002 7.60318362e-004 8.95307167e-004
      3.62690305e-003 4.06429291e-001 0. 2.88219191e-004 5.89547621e-004
      4.34024446e-002 1.21519759e-001 7.29728565e-002 2.67869681e-001
      4.06429291e-001 4.06429291e-001 0. 1.72931526e-004 3.53728567e-004
      3.96739546e-004 2.43871403e-003 4.14430536e-003 3.76899354e-002
      4.06429291e-001 1.62026346e-001 0. 2.01753434e-003 4.12683375e-003
      7.10516609e-003 5.80211310e-003 6.28038915e-003 2.15570703e-002
      2.04807967e-001 2.96180755e-001 0. 1.21052063e-003 2.47609988e-003
      3.03677493e-003 0. 0. 4.33242088e-003 2.88893104e-001
      4.08061832e-001 0. 0. 0. 9.35732678e-004 5.88040333e-004
      2.87483243e-004 0. 4.08061832e-001 4.08061832e-001 2.96407729e-001
      6.21253066e-002 2.11264547e-002 1.26410718e-003 3.52824223e-004
      1.72489948e-004 0. 4.08061832e-001 2.17825070e-001 3.48917209e-003
      0. 0. 7.83086102e-003 4.11628280e-003 2.01238273e-003 0.
      2.21358120e-001 2.79146582e-001 2.58696694e-002 0. 0.
      1.09833051e-002 2.46976968e-003 1.20742957e-003 0. 2.49874949e-001
      4.33108240e-001 0. 2.79716885e-004 5.72156277e-004 9.43952356e-004
      3.37549020e-003 9.62790381e-003 4.55952585e-002 4.33108240e-001
      4.33108240e-001 0. 1.67830134e-004 3.43293766e-004 1.17144838e-003
      0. 4.57589718e-004 1.52918845e-004 4.33108240e-001 2.00052321e-001
      2.30816868e-003 1.95801817e-003 4.00509406e-003 8.37124605e-003 0.
      1.92187668e-003 7.67088914e-003 2.16619954e-001 2.78311104e-001
      3.84694780e-003 1.17481092e-003 2.40305625e-003 8.45207833e-003 0.
      3.20312777e-003 3.10738268e-003 2.80148327e-001 3.40545714e-001
      2.38827795e-001 1.65378839e-001 5.24794683e-002 6.27031103e-002
      7.53140892e-004 3.68198176e-004 0. 3.40545714e-001 3.40545714e-001
      3.40545714e-001 2.75631428e-001 1.68435752e-001 3.40545714e-001
      4.51884553e-004 2.20918912e-004 0. 2.42704988e-001 2.69222528e-001
      3.14897373e-002 4.50332789e-003 0. 1.25240833e-002 5.27198659e-003
      2.57738726e-003 0. 2.31292754e-001 1.48574919e-001 4.77161668e-002
      7.50554632e-003 0. 5.37943058e-002 3.16319172e-003 1.54643226e-003
      0. 8.90034735e-002 0. 0. 0. 0. 0. 0. 0. 0. 0. 0. 0. 0. 0. 0. 0. 0.
      0. 0. 0. 0. 0. 0. 0. 0. 0. 0. 0. 0. 0. 0. 0. 0. 0. 0. 0. 0. 0. 0.
      0. 0. 0. 0. 0. 0. 0. 0. 0. 0. 0. 0. 0. 0. 0. 0. 0. 0. 0. 0. 0. 0.
      0. 0. 0. 0. 0. 0. 0. 0. 0. 0. 0. 0. 0. 0. 0. 0. 0. 0. 0. 0. 0. 0.
      0. 0. 0. 0. 0. 0. 0. 0. 0. 0. 0. 0. 0. 0. 0. 0. 0. 0. 0. 0. 0. 0.
      0. 0. 0. 0. 0. 0. 0. 0. 0. 0. 0. 0. 0. 0. 0. 0. 0. 0. 0. 0. 0. 0.
      0. 0. 0. 0. 0. 0. 0. 0. 0. 0. 0. 0. 0. 0. 0. 0. 0. 0. 0. 0. 0. 0.
      0. 0. 0. 0. 0. 0. 0. 0. 0. 0. 0. 0. 0. 0. 0. 0. 0. 0. 0. 0. 0. 0.
      0. 0. 0. 0. 0. 0. 0. 0. 0. 0. 0. 0. 0. 0. 0. 0. 0. 0. 0. 0. 0. 0.
      0. 0. 0. 0. 0. 0. 0. 0. 0. 0. 0. 0. 0. 0. 0. 0. 0. 0. 0. 0. 0. 0.
      0. 0. 0. 0. 0. 0. 0. 0. 0. 0. 0. 0. 0. 0. 0. 0. 0. 0. 0. 0. 0. 0.
      0. 0. 0. 0. 0. 0. 0. 0. 0. 0. 0. 0. 0. 0. 0. 0. 0. 0. 0. 0. 0. 0.
      0. 0. 0. 0. 0. 0. 0. 0. 0. 0. 0. 0. 0. 0. 0. 0. 0. 0. 0. 0. 0. 0.
      0. 0. 0. 0. 0. 0. 0. 0.</_>
    <_>
      1.28786368e-002 0. 0. 0. 2.52275374e-002 0. 0. 2.02176394e-003
      1.32975709e-002 7.37735108e-002 0. 0. 0. 4.72971946e-002
      2.68101189e-002 1.31070260e-002 1.41523471e-002 7.67060369e-002
      3.77105027e-001 0. 0. 0. 1.05061434e-001 0. 0. 1.41523471e-002
      3.80037546e-001 5.58452189e-001 0. 0. 0. 2.11861461e-001
      4.46835309e-002 2.18450390e-002 9.90664288e-002 5.58452189e-001
      1.66963451e-002 0. 0. 0. 6.27293158e-003 0. 0. 0. 1.66963451e-002
      5.36749559e-003 0. 0. 0. 6.47180993e-003 0. 0. 0. 5.36749559e-003
      4.97114956e-001 0. 0. 0. 4.39105257e-002 0. 0. 0. 4.97114956e-001
      4.97114956e-001 0. 0. 0. 6.25886992e-002 0. 0. 0. 4.97114956e-001
      0. 0. 0. 0. 0. 0. 0. 0. 0. 0. 0. 0. 0. 1.38584198e-003 0. 0. 0. 0.
      4.98727173e-001 0. 0. 0. 2.77935248e-003 0. 0. 0. 4.98727173e-001
      4.98727173e-001 0. 0. 0. 9.70089436e-003 0. 0. 0. 4.98727173e-001
      1.57192033e-002 0. 0. 0. 3.10590491e-002 0. 0. 0. 1.57192033e-002
      0. 0. 0. 0. 0. 0. 0. 0. 0. 6.86354935e-001 0. 0. 0.
      2.17413336e-001 0. 0. 0. 6.86354935e-001 0. 0. 0. 0. 0. 0. 0. 0.
      0. 1.61645450e-002 1.02506494e-002 2.69645303e-001 2.69645303e-001
      2.69645303e-001 6.99536428e-002 2.52084620e-002 0. 1.05235856e-002
      1.19321212e-001 1.77127477e-002 2.45830238e-001 2.08524495e-001
      2.59883821e-001 6.30796328e-002 1.81163643e-002 5.55550912e-004
      1.33944392e-001 2.46496443e-002 0. 6.97890222e-002 1.06318474e-001
      2.69645303e-001 2.69645303e-001 2.69645303e-001 4.36475202e-002
      4.39210571e-002 2.69645303e-001 8.97616919e-005 4.38411124e-002
      9.84093174e-002 2.58019149e-001 1.83574140e-001 2.69645303e-001
      7.30791911e-002 2.52071291e-001 2.18512878e-001 0. 2.34233378e-003
      5.17539214e-003 8.25119019e-003 1.25002619e-002 2.03430443e-003
      1.17120391e-003 2.20280558e-001 1.97903484e-001 4.71892068e-003
      1.57337740e-001 2.85022706e-001 1.56477362e-001 8.03563893e-002
      9.26620215e-002 7.73650557e-002 2.68397391e-001 2.85022706e-001
      1.37789482e-002 4.13939320e-002 1.33652659e-002 5.14414236e-002
      2.52293944e-002 1.22058252e-003 4.18614451e-004 2.85022706e-001
      2.85022706e-001 1.79703102e-001 2.85022706e-001 2.85022706e-001
      2.85022706e-001 1.65983230e-001 4.32985164e-002 4.62147146e-002
      2.85022706e-001 3.04665208e-001 1.69201717e-002 1.24649033e-002
      1.08311819e-002 9.98405591e-002 3.87248769e-002 9.04896669e-003
      4.95488290e-003 3.41265440e-001 3.45678777e-001 3.37066106e-003
      3.07454285e-003 8.64545174e-004 9.59522277e-003 1.11774420e-002
      1.43171765e-003 2.94566364e-003 3.45678777e-001 3.45678777e-001
      8.20940174e-003 1.53465178e-002 2.05493979e-002 7.73308501e-002
      1.05051681e-001 1.02375038e-001 1.71662390e-001 3.45678777e-001
      3.45678777e-001 1.88356952e-003 6.18797028e-003 1.63874042e-003
      5.85448509e-003 1.21421507e-002 8.59030581e-004 1.01770193e-003
      3.45678777e-001 0. 0. 3.35252881e-002 7.72135705e-002
      3.40117514e-001 3.40117514e-001 3.40117514e-001 5.45950839e-003
      5.22753829e-003 0. 0. 0. 0. 9.52707380e-002 5.14169084e-003
      2.81831273e-003 0. 0. 6.43258542e-002 1.94431879e-002
      3.40117514e-001 2.47491062e-001 3.40117514e-001 3.40117514e-001
      2.29307875e-001 6.03599362e-002 3.40117514e-001 6.91161631e-003 0.
      0. 0. 1.89098105e-001 9.66448039e-002 1.97281893e-002
      8.62284936e-003 5.46420179e-002 3.93503278e-001 0. 0. 0. 0. 0. 0.
      0. 3.93503278e-001 5.85008085e-001 0. 0. 0. 0. 0. 0. 0.
      5.85008085e-001 0. 0. 0. 0. 0. 0. 0. 0. 0. 0. 0. 0. 0. 0. 0. 0. 0.
      0. 2.19078772e-002 0. 0. 0. 1.37994066e-001 5.44508453e-003
      5.00318944e-004 0. 2.19078772e-002 1.23048509e-002 0.
      4.50181263e-003 8.04610178e-002 6.80954039e-001 5.52332662e-002
      6.32598158e-003 0. 1.23048509e-002 0. 0. 0. 0. 1.89426497e-001 0.
      0. 0. 0. 0. 0. 0. 1.71710132e-003 6.80954039e-001 0. 0. 0. 0.
      1.82152987e-001 0. 0. 3.74808186e-003 6.35912120e-001
      1.33964300e-001 0. 0. 1.58966392e-001 2.29236260e-001 0. 0. 0. 0.
      0. 0. 0. 2.36449346e-001 0. 0. 0. 2.24884925e-003 6.35912120e-001
      3.09158815e-003 0. 0. 0. 0. 0. 0. 0. 0. 0. 0. 0. 0.
      1.28616521e-003 0. 8.61413125e-003 7.97462612e-002 4.91907328e-001
      1.23623885e-001 4.87402035e-003 1.47655781e-003 4.06575855e-003
      1.83737895e-004 0. 7.96644017e-004 2.38133501e-003 4.91907328e-001
      7.34477565e-002 2.72442983e-003 0. 5.80822700e-004 0. 0. 0.
      3.85047845e-003 4.91907328e-001 2.98934919e-003 0. 0. 0. 0. 0. 0.
      9.80884186e-004 4.91907328e-001 1.35766191e-003 0. 0. 0. 0. 0. 0.
      0. 0. 0. 0. 0. 0. 0. 0. 0. 0. 0. 0. 0. 0. 0. 0. 0. 0. 0. 0. 0. 0.
      0. 0. 0. 0. 0. 0. 0. 0. 0. 0. 0. 0. 0. 0. 0. 1.41835764e-001 0. 0.
      0. 0. 0. 0. 0. 0. 6.85015082e-001 0. 0. 0. 0. 0. 0. 0. 0.
      1.85884118e-001 0. 0. 0. 0. 0. 0. 0. 0. 6.85015082e-001 0. 0. 0.
      0. 0. 0. 0. 0. 7.04615593e-001 0. 0. 0. 0. 0. 0. 0. 0. 0. 0. 0. 0.
      0. 0. 0. 0. 0. 7.04615593e-001 0. 0. 0. 0. 0. 0. 0. 0. 0. 0. 0. 0.
      0. 0. 0. 0. 0. 4.98753130e-001 0. 0. 0. 0. 0. 0. 0. 0.
      4.98753130e-001 0. 0. 0. 0. 0. 0. 0. 0. 4.98753130e-001 0. 0. 0.
      0. 0. 0. 0. 0. 4.98753130e-001 0. 0. 0. 0. 0. 0. 0. 0. 0. 0. 0. 0.
      0. 0. 0. 0. 0. 0. 0. 0. 0. 0. 0. 0. 0. 0. 0. 0. 0. 0. 0. 0. 0. 0.
      0. 0. 0. 0. 0. 0. 0. 0. 0. 0. 1.41835764e-001 0. 0. 0. 0. 0. 0. 0.
      0. 6.85015082e-001 0. 0. 0. 0. 0. 0. 0. 0. 1.85884118e-001 0. 0.
      0. 0. 0. 0. 0. 0. 6.85015082e-001 0. 0. 0. 0. 0. 0. 0. 0.
      7.04615593e-001 0. 0. 0. 0. 0. 0. 0. 0. 0. 0. 0. 0. 0. 0. 0. 0. 0.
      7.04615593e-001 0. 0. 0. 0. 0. 0. 0. 0. 0. 0. 0. 0. 0. 0. 0. 0. 0.
      4.98753130e-001 0. 0. 0. 0. 0. 0. 0. 0. 4.98753130e-001 0. 0. 0.
      0. 0. 0. 0. 0. 4.98753130e-001 0. 0. 0. 0. 0. 0. 0. 0.
      4.98753130e-001 0. 0. 0. 0. 0. 0. 0. 0. 0. 0. 0. 0. 0. 0. 0. 0. 0.
      0. 0. 0. 0. 0. 0. 0. 0. 0. 0. 0. 0. 0. 0. 0. 0. 0. 0. 0. 0. 0. 0.
      0. 0. 0. 0. 0. 1.46069139e-001 0. 0. 0. 0. 0. 0. 0.
      1.24648097e-003 6.72238946e-001 8.09957332e-004 0. 0. 0. 0. 0. 0.
      0. 1.89538032e-001 0. 0. 0. 0. 0. 0. 0. 2.65315268e-002
      6.72238946e-001 1.77161738e-001 1.12040089e-002 0. 0.
      2.81525194e-003 0. 0. 0. 4.58178520e-001 2.82808742e-003 0. 0.
      2.81525194e-003 5.40392194e-003 0. 0. 0. 0. 0. 0. 0.
      5.40392194e-003 2.65981585e-001 0. 0. 1.11804396e-001
      4.58178520e-001 1.03001697e-002 0. 2.18149703e-002 3.44442189e-001
      4.31817085e-001 0. 0. 0. 9.23992135e-003 0. 0. 0. 4.31817085e-001
      0. 0. 0. 6.24953164e-003 4.62418050e-001 3.72161414e-003 0. 0. 0.
      0. 0. 0. 3.45340231e-003 4.62418050e-001 2.02178140e-003 0. 0. 0.
      0. 8.31637823e-004 2.72217933e-002 3.09573650e-001 4.62418050e-001
      1.02504112e-001 0. 0. 0. 0. 0. 7.07645854e-003 1.81192607e-001
      4.62418050e-001 4.99459868e-003 0. 0. 0. 0. 0. 0. 0. 0. 0. 0. 0.
      0. 0. 0. 0. 0. 0. 0. 0. 0. 0. 0. 0. 0. 0. 0. 0. 0. 0. 0. 0. 0. 0.
      0. 0. 0. 0. 0. 0. 0. 0. 0. 0. 2.58964524e-002 0. 0. 0. 0.
      4.05716151e-003 3.34168971e-002 0. 2.54570007e-001 4.11044925e-001
      4.11044925e-001 4.11044925e-001 2.42462143e-001 4.59962860e-002 0.
      0. 0. 0. 0. 0. 0. 0. 0. 0. 0. 0. 1.52742028e-001 4.11044925e-001
      4.11044925e-001 5.25998836e-003 1.52596245e-002 0. 2.78897554e-001
      1.05637014e-001 3.68511379e-002 6.02556318e-002 4.67851274e-002
      1.78080909e-002 4.73709032e-003 0. 3.27444524e-001 3.60040784e-001
      1.08031789e-002 2.23376337e-004 4.30065999e-003 3.64168343e-004 0.
      2.09545717e-003 7.37423776e-003 3.60040784e-001 3.60040784e-001
      1.92761477e-002 6.50578365e-003 2.44439431e-002 5.97146675e-002
      7.98581764e-002 5.35204336e-002 1.87801179e-002 3.60040784e-001
      3.60040784e-001 3.92375514e-003 1.34025802e-004 2.58039613e-003
      2.18501038e-004 0. 3.09297256e-003 2.34354660e-002 3.60040784e-001
      1.77405983e-001 9.24795195e-002 2.70801097e-001 3.34067225e-001
      3.73061895e-001 2.85359502e-001 2.40161151e-001 3.42974961e-002
      9.61208344e-003 2.53437124e-002 1.32113621e-002 3.10081653e-002
      3.51942256e-002 1.84102505e-001 0. 0. 0. 0. 1.70183368e-002
      3.28379795e-002 3.73061895e-001 3.73061895e-001 3.73061895e-001
      1.06861934e-001 2.55801398e-002 0. 0. 0. 0. 4.42973711e-003
      2.41252291e-003 1.54462799e-001 0. 0. 0. 0. 0. 0. 0. 0. 0. 0. 0.
      0. 0. 0. 0. 0. 0. 0. 0. 0. 0. 0. 0. 0. 0. 0. 0. 0. 0. 0. 0. 0. 0.
      0. 0. 0. 0. 0. 0. 0. 0. 0. 0. 0. 0. 0. 0. 0. 0. 0. 0. 0. 0. 0. 0.
      0. 0. 0. 0. 0. 0. 0. 0. 0. 0. 0. 0. 0. 0. 0. 0. 0. 0. 0. 0. 0.
      4.98753130e-001 0. 0. 0. 0. 0. 0. 0. 4.98753130e-001
      4.98753130e-001 0. 0. 0. 0. 0. 0. 0. 4.98753130e-001 0. 0. 0. 0.
      0. 0. 0. 0. 0. 0. 0. 0. 0. 0. 0. 0. 0. 0. 6.99944556e-001 0. 0. 0.
      0. 0. 0. 0. 6.99944556e-001 0. 0. 0. 0. 0. 0. 0. 0. 0. 0. 0. 0. 0.
      0. 0. 0. 0. 0. 0. 0. 0. 0. 0. 0. 0. 0. 0.</_>
    <_>
      0. 0. 0. 0. 0. 0. 0. 0. 0. 0. 0. 0. 0. 0. 0. 0. 0. 0. 0. 0. 0. 0.
      0. 0. 0. 0. 0. 6.28730774e-001 0. 0. 0. 0. 0. 0. 0.
      6.28730774e-001 0. 0. 0. 0. 0. 0. 0. 0. 0. 0. 0. 0. 0. 0. 0. 0. 0.
      0. 6.60258651e-001 0. 0. 0. 0. 0. 0. 0. 6.60258651e-001
      2.39099428e-001 0. 0. 0. 0. 0. 0. 0. 2.39099428e-001 0. 0. 0. 0.
      0. 0. 0. 0. 0. 0. 0. 0. 0. 0. 0. 0. 0. 0. 4.13093895e-001 0. 0. 0.
      0. 0. 0. 0. 4.13093895e-001 5.66114485e-001 0. 0. 0. 0. 0. 0. 0.
      5.66114485e-001 0. 0. 0. 0. 0. 0. 0. 0. 0. 0. 0. 0. 0. 0. 0. 0. 0.
      0. 5.51909924e-001 0. 0. 0. 0. 0. 5.58583736e-001 1.86669350e-001
      5.51909924e-001 0. 0. 0. 0. 0. 0. 7.97976777e-002 2.66670510e-002
      0. 0. 0. 0. 8.09485652e-003 6.79693371e-002 0. 0. 0. 0.
      1.16493642e-001 2.16158196e-001 2.93336451e-001 4.03899103e-001
      4.21375722e-001 0. 0. 0. 2.15242002e-002 0. 3.87326698e-003
      5.44618757e-004 4.40852307e-002 2.22913697e-001 2.85585294e-003 0.
      0. 0. 2.21804176e-002 7.78750032e-002 2.72936583e-001
      4.21375722e-001 4.21375722e-001 1.25472099e-001 6.27040258e-003
      1.35837414e-003 1.02728757e-003 3.59115809e-001 8.61764303e-004 0.
      0. 1.49009502e-004 0. 0. 1.31078658e-003 3.59115809e-001
      3.59115809e-001 5.95315220e-003 0. 0. 9.79881175e-003
      6.87078834e-002 1.32454783e-001 1.75846368e-001 3.59115809e-001
      2.97149330e-001 1.89024431e-003 1.94516051e-005 6.74749142e-004 0.
      0. 0. 2.40206369e-003 2.92673707e-001 3.04665208e-001
      1.26773259e-002 3.30510437e-002 8.92293602e-002 9.26150233e-002
      1.73643157e-001 1.16925679e-001 8.38970095e-002 3.02974403e-001
      3.32621008e-001 1.65907443e-001 2.89601475e-001 1.10395849e-001
      5.44756539e-002 4.85507911e-003 4.09103092e-003 1.18142553e-002
      3.32621008e-001 3.32621008e-001 2.25898437e-002 1.43659059e-002
      2.23716791e-003 4.64833295e-003 3.47868445e-005 2.91947770e-004
      7.08855316e-003 3.32621008e-001 1.29290953e-001 7.82157406e-002
      2.32365102e-001 2.38896966e-001 1.55397728e-001 1.30796313e-001
      8.49481225e-002 2.38468684e-002 1.61972061e-001 3.25478643e-001
      1.31610902e-002 1.09708821e-002 7.47490954e-003 1.49907414e-002
      1.61411369e-003 5.01257600e-003 1.60349309e-002 3.32621008e-001
      6.79578930e-002 0. 0. 3.20012006e-003 2.58415848e-001
      3.26490253e-001 3.26490253e-001 2.00361848e-001 2.33688742e-001
      1.48129591e-003 0. 0. 1.92007225e-003 1.55189827e-001
      1.26776323e-001 5.36187477e-002 2.01261882e-002 5.94205828e-003
      1.86164118e-002 5.45187650e-005 1.05974125e-002 1.32396713e-001
      3.26490253e-001 3.26490253e-001 3.26490253e-001 6.32472858e-002
      5.51880226e-002 0. 0. 6.35844795e-003 6.23490438e-002
      3.26490253e-001 3.26490253e-001 1.09317236e-001 3.81291867e-003
      7.04523176e-004 3.62734403e-003 1.41984886e-002 8.61530751e-002
      1.09799132e-001 4.02408183e-001 1.27055505e-002 1.68386772e-002 0.
      7.70175178e-003 5.16454428e-002 2.36641467e-002 1.58206567e-001
      2.28029162e-001 4.68242317e-001 1.36084408e-001 1.36835620e-001
      1.22280717e-002 9.78772268e-002 0. 0. 8.90563987e-003
      6.47598431e-002 4.68242317e-001 1.12929717e-002 2.40552519e-003 0.
      0. 1.38751010e-003 0. 1.48427337e-002 1.16695046e-001
      4.68242317e-001 9.83960107e-002 1.68386772e-002 0. 1.69452117e-003
      3.93108487e-001 0. 0. 0. 0. 0. 0. 0. 3.93108487e-001
      3.93108487e-001 9.10889059e-002 4.80536334e-002 1.54397130e-001
      3.93108487e-001 2.74248887e-002 4.53507481e-003 1.43065304e-001
      3.93108487e-001 4.96012904e-002 0. 0. 0. 0. 0. 0. 0.
      4.90858406e-002 4.77784760e-002 0. 0. 5.51043302e-002
      3.93108487e-001 0. 0. 2.04379018e-002 5.07468805e-002
      2.88083464e-001 1.43037692e-001 1.58977229e-002 1.11804984e-003
      3.87971967e-001 3.17172348e-001 1.51731148e-001 1.17751285e-001
      3.24912339e-001 3.87971967e-001 1.94235686e-002 2.27110321e-003 0.
      5.11448495e-002 2.32227426e-003 4.65651089e-003 2.21457127e-002
      3.87971967e-001 2.06249934e-002 2.04339568e-002 2.27110321e-003
      7.82634877e-003 3.87971967e-001 1.46153659e-001 1.75941512e-002
      6.25506917e-004 2.14359518e-002 5.09360470e-002 2.77479552e-003
      3.24443274e-004 0. 1.25433967e-001 0. 1.71928422e-003
      3.89078562e-003 4.86395136e-002 1.06007151e-001 4.07754853e-002
      1.11859724e-001 1.80131361e-001 4.52135324e-001 7.96012431e-002
      1.03627451e-001 9.83782858e-003 6.06380105e-002 1.69777926e-002
      1.60386153e-002 6.00381456e-002 1.07789643e-001 4.52135324e-001
      2.02232078e-001 9.30762663e-002 1.63963810e-002 4.83737066e-002
      3.36438557e-003 3.27578164e-005 1.38688320e-002 1.06202066e-001
      4.52135324e-001 3.69090028e-002 1.48039218e-002 0. 2.99699139e-003
      0. 0. 8.26248620e-003 7.19843805e-002 4.52135324e-001
      1.12389579e-001 1.32966097e-002 0. 0. 0. 0. 0. 1.10122759e-003
      4.98739928e-001 8.90623312e-004 0. 0. 0. 0. 0. 0. 4.45876922e-003
      4.98739928e-001 1.87436119e-003 0. 0. 0. 0. 0. 0. 2.19788938e-003
      4.98739928e-001 5.11309248e-004 0. 0. 0. 0. 0. 0. 4.64907149e-003
      4.98739928e-001 8.52181984e-004 0. 0. 0. 0. 0. 0. 0. 0. 0. 0. 0.
      0. 0. 0. 0. 6.11274550e-003 7.04588354e-001 0. 0. 0. 0. 0. 0. 0.
      0. 0. 0. 0. 0. 0. 0. 0. 0. 6.30651508e-003 7.04588354e-001 0. 0.
      0. 0. 0. 0. 0. 1.76535294e-004 6.80229127e-001 6.69979071e-003 0.
      0. 0. 0. 0. 0. 0. 1.57606259e-001 0. 0. 0. 0. 0. 0. 0.
      1.23574701e-003 6.80229127e-001 2.71586026e-003 0. 0. 0. 0. 0. 0.
      0. 2.07104564e-001 0. 0. 0. 0. 0. 0. 0. 0. 4.98753130e-001 0. 0.
      0. 0. 0. 0. 0. 0. 4.98753130e-001 0. 0. 0. 0. 0. 0. 0. 0.
      4.98753130e-001 0. 0. 0. 0. 0. 0. 0. 0. 4.98753130e-001 0. 0. 0.
      0. 0. 0. 0. 0. 4.98753130e-001 0. 0. 0. 0. 0. 0. 0. 0.
      4.98753130e-001 0. 0. 0. 0. 0. 0. 0. 0. 4.98753130e-001 0. 0. 0.
      0. 0. 0. 0. 0. 4.98753130e-001 0. 0. 0. 0. 0. 0. 0. 0. 0. 0. 0. 0.
      0. 0. 0. 0. 0. 7.04615593e-001 0. 0. 0. 0. 0. 0. 0. 0. 0. 0. 0. 0.
      0. 0. 0. 0. 0. 7.04615593e-001 0. 0. 0. 0. 0. 0. 0. 0.
      6.80335224e-001 0. 0. 0. 0. 0. 0. 0. 0. 1.57597840e-001 0. 0. 0.
      0. 0. 0. 0. 0. 6.80335224e-001 0. 0. 0. 0. 0. 0. 0. 0.
      2.06541255e-001 0. 0. 0. 0. 0. 0. 0. 0. 4.98753130e-001 0. 0. 0.
      0. 0. 0. 0. 0. 4.98753130e-001 0. 0. 0. 0. 0. 0. 0. 0.
      4.98753130e-001 0. 0. 0. 0. 0. 0. 0. 0. 4.98753130e-001 0. 0. 0.
      0. 0. 0. 0. 0. 4.98738915e-001 0. 0. 0. 0. 0. 0. 0. 0.
      4.98738915e-001 0. 0. 0. 0. 0. 0. 0. 8.18332366e-004
      4.98738915e-001 2.37449375e-003 0. 0. 0. 0. 0. 0. 1.36388710e-003
      4.98738915e-001 6.98302547e-003 0. 0. 0. 0. 0. 0. 0. 0. 0. 0. 0.
      0. 0. 0. 0. 0. 7.04609096e-001 0. 0. 0. 0. 2.21912330e-003 0. 0.
      0. 0. 0. 0. 0. 2.21912330e-003 2.06748885e-003 0. 0. 0.
      7.04609096e-001 0. 0. 0. 2.06748885e-003 0. 0. 0. 0.
      6.80290639e-001 0. 0. 0. 0. 0. 0. 0. 0. 1.57724038e-001 0. 0. 0.
      0. 3.24547058e-004 0. 0. 3.24035238e-004 6.80290639e-001
      3.02399672e-003 0. 0. 3.24547058e-004 1.42495323e-003 0. 0. 0.
      2.06706658e-001 0. 0. 0. 1.42495323e-003 0. 0. 0. 2.18135840e-003
      4.98733521e-001 0. 0. 0. 0. 0. 0. 0. 1.30881509e-003
      4.98733521e-001 0. 0. 0. 0. 0. 0. 0. 4.42879600e-003
      4.98733521e-001 2.49906967e-004 0. 0. 0. 0. 0. 0. 7.01926788e-003
      4.98733521e-001 1.74934871e-003 0. 0. 0. 1.05244517e-002
      1.58384945e-002 0. 1.40749123e-002 2.16336519e-001 1.17376775e-001
      2.28763789e-001 3.50376852e-002 1.03255291e-003 1.93091199e-001
      2.98157036e-001 7.21117631e-002 1.95933878e-001 2.98746943e-001
      2.98746943e-001 2.98746943e-001 2.43385881e-001 1.67342592e-002
      1.50349317e-003 2.26264214e-003 0. 1.73686892e-002 1.61945030e-001
      6.76911995e-002 7.66571760e-002 2.15520076e-002 6.19531784e-004
      5.91338649e-002 1.30903319e-001 1.20268270e-001 2.98746943e-001
      2.98746943e-001 2.98746943e-001 1.53313369e-001 1.46452412e-001
      4.33672266e-003 3.47589731e-001 0. 0. 0. 2.47112421e-005 0. 0.
      2.68264957e-005 3.47589731e-001 3.47589731e-001 0. 4.43043076e-002
      5.42668700e-002 7.90813267e-002 4.94800992e-002 4.32115756e-002
      1.10160567e-001 3.47589731e-001 3.17559391e-001 8.62235262e-004
      1.34265370e-004 0. 0. 0. 1.83896802e-004 2.54163309e-003
      3.17721695e-001 3.47589731e-001 4.16362006e-003 2.11877446e-003
      7.47631267e-002 1.38731718e-001 7.27634281e-002 7.33065829e-002
      8.17209110e-002 3.47589731e-001 3.17912370e-001 1.63701415e-001
      2.49751776e-001 2.19898596e-001 5.54077178e-002 7.85947964e-002
      1.41271390e-003 3.30106840e-002 3.17912370e-001 3.17912370e-001
      1.66293513e-002 1.56049291e-002 1.09233418e-002 5.63112646e-003
      1.12278285e-002 2.72833186e-005 8.19179229e-003 3.17912370e-001
      1.44893840e-001 1.27888218e-001 2.91133434e-001 2.51309991e-001
      1.29453957e-001 9.00066867e-002 2.19416879e-002 3.19305547e-002
      1.69786200e-001 3.17912370e-001 1.32404603e-002 1.41297439e-002
      2.32129972e-002 5.56165166e-003 9.35306214e-003 1.38072099e-003
      1.39370672e-002 3.17912370e-001 1.74276352e-001 2.06805214e-001
      1.53422505e-001 1.45128712e-001 2.40409672e-001 2.70322591e-001
      1.19821578e-001 2.40727946e-001 1.44658893e-001 7.83569589e-002
      2.09061608e-001 1.81060731e-001 1.92577511e-001 2.70322591e-001
      1.39638156e-001 5.99089712e-002 6.49421513e-002 0. 6.91049397e-002
      9.12571698e-002 1.02080911e-001 2.70322591e-001 2.70322591e-001
      2.70322591e-001 3.81224602e-002 1.14208885e-001 5.13034798e-002
      4.30939049e-002 1.17333457e-001 9.96973887e-002 1.64232597e-001
      2.70322591e-001 2.22105712e-001 1.06957499e-002 2.06308234e-002 0.
      0. 0. 0. 0. 1.23919159e-001 0. 0. 0. 0. 4.38598365e-001 0. 0. 0.
      4.38598365e-001 6.04457073e-002 4.38598365e-001 4.38598365e-001
      4.38598365e-001 0. 0. 0. 0. 1.70801219e-003 0. 0. 0. 0.
      8.47248733e-002 0. 0. 0. 2.01733764e-002 0. 0. 0. 8.47248733e-002
      4.86661166e-001 0. 0. 0. 4.35801892e-004 0. 0. 0. 4.86661166e-001
      4.86661166e-001 1.44922629e-001 4.96614575e-002 4.31797653e-003
      3.77981435e-003 0. 0. 0. 4.86661166e-001 6.80755302e-002 0. 0. 0.
      2.61481124e-004 0. 0. 0. 6.80755302e-002 8.66233781e-002 0. 0. 0.
      2.26788875e-003 0. 0. 0. 8.66233781e-002 4.75463390e-001 0. 0. 0.
      1.91782229e-002 1.72123816e-002 1.85084254e-001 1.77756473e-001
      4.75463390e-001 4.75463390e-001 0. 0. 0. 4.24392195e-003 0.
      6.92598568e-003 2.36449540e-002 4.75463390e-001 6.09994940e-002 0.
      0. 0. 1.03431353e-002 0. 0. 0. 6.09994940e-002 9.02245417e-002 0.
      0. 0. 4.09114547e-003 0. 0. 0. 9.02245417e-002 4.17753279e-001
      4.17753279e-001 2.93059468e-001 2.67980009e-001 4.17753279e-001 0.
      0. 0. 4.17753279e-001 7.96315372e-002 1.16082177e-001
      4.18656394e-002 1.26333788e-001 2.87530303e-001 0. 0. 0.
      4.73080538e-002 9.32903141e-002 0. 0. 0. 9.45893116e-003 0. 0. 0.
      9.32903141e-002 7.43111921e-003 0. 0. 0. 3.40170530e-003 0. 0. 0.
      7.43111921e-003</_>
    <_>
      0. 0. 0. 0. 0. 0. 0. 0. 0. 0. 0. 0. 0. 0. 0. 0. 0. 0. 0. 0. 0. 0.
      0. 0. 0. 0. 0. 0. 0. 0. 0. 0. 0. 0. 0. 0. 0. 0. 0. 0. 0. 0. 0. 0.
      0. 0. 0. 0. 0. 0. 0. 0. 0. 0. 0. 0. 0. 0. 0. 0. 0. 0. 0. 0. 0. 0.
      0. 0. 0. 0. 0. 0. 0. 0. 0. 0. 0. 0. 0. 0. 0. 0. 0. 0. 0. 0. 0. 0.
      0. 0. 0. 0. 0. 0. 0. 0. 0. 0. 0. 0. 0. 0. 0. 0. 0. 0. 0. 0. 0. 0.
      0. 0. 0. 0. 0. 0. 0. 0. 0. 0. 0. 0. 0. 0. 0. 0. 0. 0. 0. 0. 0. 0.
      0. 0. 0. 0. 0. 0. 0. 0. 0. 0. 0. 0. 0. 0. 0. 0. 0. 0. 0. 0. 0. 0.
      0. 0. 0. 0. 0. 0. 0. 0. 0. 0. 0. 0. 0. 0. 0. 0. 0. 0. 0. 0. 0. 0.
      0. 0. 0. 0. 0. 0. 0. 0. 0. 0. 0. 0. 0. 0. 0. 0. 0. 0. 0. 0. 0. 0.
      0. 0. 0. 0. 0. 0. 0. 0. 0. 0. 0. 0. 0. 0. 0. 0. 0. 0. 0. 0. 0. 0.
      0. 0. 0. 0. 0. 0. 0. 0. 0. 0. 0. 0. 0. 0. 0. 0. 0. 0. 0. 0. 0. 0.
      0. 0. 0. 0. 0. 0. 0. 0. 0. 0. 0. 0. 0. 0. 0. 0. 0. 0. 0. 0. 0. 0.
      0. 0. 0. 0. 0. 0. 0. 0. 0. 0. 0. 0. 0. 0. 0. 0. 0. 0. 0. 0. 0. 0.
      0. 0. 0. 0. 0. 0. 0. 0. 0. 0. 0. 0. 0. 0. 0. 0. 0. 0. 0. 0. 0. 0.
      0. 0. 0. 0. 0. 0. 0. 0. 0. 0. 0. 0. 0. 0. 0. 0. 0. 0. 0. 0. 0. 0.
      0. 0. 0. 0. 0. 0. 0. 0. 0. 0. 0. 0. 0. 0. 0. 0. 0. 0. 0. 0. 0. 0.
      0. 0. 0. 0. 0. 0. 0. 0. 0. 0. 0. 0. 0. 0. 0. 0. 0. 0. 0. 0. 0. 0.
      0. 0. 0. 0. 0. 0. 0. 0. 0. 0. 0. 0. 0. 0. 0. 0. 0. 0. 0. 0. 0. 0.
      0. 0. 0. 0. 0. 0. 0. 0. 0. 0. 0. 0. 0. 0. 0. 0. 0. 0. 0. 0. 0. 0.
      0. 0. 0. 0. 0. 0. 0. 0. 0. 0. 0. 0. 0. 0. 0. 0. 0. 0. 0. 0. 0. 0.
      0. 0. 0. 0. 0. 0. 0. 0. 0. 0. 0. 0. 0. 0. 0. 0. 0. 0. 0. 0. 0. 0.
      0. 0. 0. 0. 0. 0. 0. 0. 0. 0. 0. 0. 0. 0. 0. 0. 0. 0. 0. 0. 0. 0.
      0. 0. 0. 0. 0. 0. 0. 0. 0. 0. 0. 0. 0. 0. 0. 0. 0. 0. 0. 0. 0. 0.
      0. 0. 0. 0. 0. 0. 0. 0. 0. 0. 0. 0. 0. 0. 0. 0. 0. 0. 0. 0. 0. 0.
      0. 0. 0. 0. 0. 0. 0. 0. 0. 0. 0. 0. 0. 0. 0. 0. 0. 0. 0. 0. 0. 0.
      0. 0. 0. 0. 0. 0. 0. 0. 0. 0. 0. 0. 0. 0. 0. 0. 0. 0. 0. 0. 0. 0.
      0. 0. 0. 0. 0. 0. 0. 0. 0. 0. 0. 0. 0. 0. 0. 0. 0. 0. 0. 0. 0. 0.
      0. 0. 0. 0. 0. 0. 0. 0. 0. 0. 0. 0. 0. 0. 0. 0. 0. 0. 0. 0. 0. 0.
      0. 0. 0. 0. 0. 0. 0. 0. 0. 0. 0. 0. 0. 0. 0. 0. 0. 0. 0. 0. 0. 0.
      0. 0. 0. 0. 0. 0. 0. 0. 0. 0. 0. 0. 0. 0. 0. 0. 0. 0. 0. 0. 0. 0.
      0. 0. 0. 0. 0. 0. 0. 0. 0. 0. 0. 0. 0. 0. 0. 0. 0. 0. 0. 0. 0. 0.
      0. 0. 0. 0. 0. 0. 0. 0. 0. 0. 0. 0. 0. 0. 0. 0. 0. 0. 0. 0. 0. 0.
      0. 0. 0. 0. 0. 0. 0. 0. 0. 0. 0. 0. 0. 0. 0. 0. 0. 0. 0. 0. 0. 0.
      0. 0. 0. 0. 0. 0. 0. 0. 0. 0. 0. 0. 0. 0. 0. 0. 0. 0. 0. 0. 0. 0.
      0. 0. 0. 0. 0. 0. 0. 0. 0. 0. 0. 0. 0. 0. 0. 0. 0. 0. 0. 0. 0. 0.
      0. 0. 0. 0. 0. 0. 0. 0. 0. 0. 0. 0. 0. 0. 0. 0. 0. 0. 0. 0. 0. 0.
      0. 0. 0. 0. 0. 0. 0. 0. 0. 0. 0. 0. 0. 0. 0. 0. 0. 0. 0. 0. 0. 0.
      0. 0. 0. 0. 0. 0. 0. 0. 0. 0. 0. 0. 0. 0. 0. 0. 0. 0. 0. 0. 0. 0.
      0. 0. 0. 0. 0. 0. 0. 0. 0. 0. 0. 0. 0. 0. 0. 0. 0. 0. 0. 0. 0. 0.
      0. 0. 0. 0. 0. 0. 0. 0. 0. 0. 0. 0. 0. 0. 0. 0. 0. 0. 0. 0. 0. 0.
      0. 0. 0. 0. 0. 0. 0. 0. 0. 0. 0. 0. 0. 0. 0. 0. 0. 0. 0. 0. 0. 0.
      0. 0. 0. 0. 0. 0. 0. 0. 0. 0. 0. 0. 0. 0. 0. 0. 0. 0. 0. 0. 0. 0.
      0. 0. 0. 0. 0. 0. 0. 0. 0. 0. 0. 0. 0. 0. 0. 0. 0. 0. 0. 0. 0. 0.
      0. 0. 0. 0. 0. 0. 0. 0. 0. 0. 0. 0. 0. 0. 0. 0. 0. 0. 0. 0. 0. 0.
      0. 0. 0. 0. 0. 0. 0. 0. 0. 0. 0. 0. 0. 0. 0. 0. 0. 0. 0. 0. 0. 0.
      0. 0. 0. 0. 0. 0. 0. 0. 0. 0. 0. 0. 0. 0. 0. 0. 0. 0. 0. 0. 0. 0.
      0. 0. 0. 0. 0. 0. 0. 0. 0. 0. 0. 0. 0. 0. 0. 0. 0. 0. 0. 0. 0. 0.
      0. 0. 0. 0. 0. 0. 0. 0. 0. 0. 0. 0. 0. 0. 0. 0. 0. 0. 0. 0. 0. 0.
      0. 0. 0. 0. 0. 0. 0. 0. 0. 0. 0. 0. 0. 0. 0. 0. 0. 0. 0. 0. 0. 0.
      0. 0. 0. 0. 0. 0. 0. 0. 0. 0. 0. 0. 0. 0. 0. 0. 0. 0. 0. 0. 0. 0.
      0. 0. 0. 0. 0. 0. 0. 0. 0. 0. 0. 0. 0. 0. 0. 0. 0. 0. 0. 0. 0. 0.
      0. 0. 0. 0. 0. 0. 0. 0. 0. 0. 0. 0. 0. 0. 0. 0. 0. 0. 0. 0. 0. 0.
      0. 0. 0. 0. 0. 0. 0. 0.</_>
    <_>
      1.96376085e-001 1.26442939e-001 3.69186886e-002 5.73276468e-002
      1.11003339e-001 1.01558253e-001 1.22099675e-001 1.67338088e-001
      1.71953753e-001 1.45415232e-001 1.42968833e-001 6.05612397e-002
      1.92809254e-001 2.80124962e-001 2.65637845e-001 9.15827155e-002
      1.53878868e-001 1.42932132e-001 2.08746985e-001 5.31362332e-002
      7.74930865e-002 6.31081015e-002 1.66684791e-001 2.80124962e-001
      2.56240219e-001 2.08791375e-001 1.33169711e-001 8.97577181e-002
      7.83706009e-002 1.30472049e-001 1.65537283e-001 1.53103814e-001
      2.80124962e-001 2.57408708e-001 1.76433474e-001 1.06665954e-001
      3.59719433e-002 6.84057921e-002 2.65941676e-002 8.58407244e-002
      2.55657732e-001 1.48133636e-001 1.70683563e-001 1.08021282e-001
      8.46939683e-002 1.62715524e-001 1.63910598e-001 1.15226023e-001
      2.14065328e-001 2.55657732e-001 1.04059994e-001 1.86009780e-001
      1.18409380e-001 1.84412569e-001 7.68043995e-002 4.61613871e-002
      2.19407156e-002 9.87286642e-002 2.55657732e-001 2.55657732e-001
      1.60826921e-001 2.55657732e-001 1.71397388e-001 1.60366565e-001
      9.12293866e-002 7.97650367e-002 2.55657732e-001 2.55657732e-001
      1.75364107e-001 1.09381124e-001 1.67539239e-001 2.55657732e-001
      1.79447219e-001 1.00054525e-001 1.48559496e-001 1.85600773e-001
      9.75071862e-002 2.50394940e-001 1.73561513e-001 7.49863982e-002
      1.66727856e-001 1.49648279e-001 1.60222113e-001 1.62795559e-001
      1.26819253e-001 2.08381668e-001 2.50394940e-001 4.41278778e-002
      1.44271739e-002 5.20718209e-002 1.11518562e-001 6.47938028e-002
      1.45953447e-001 2.08571404e-001 1.64715588e-001 2.50394940e-001
      1.86956525e-001 1.33530155e-001 2.50394940e-001 2.47885302e-001
      1.42652720e-001 1.84657902e-001 1.40362918e-001 2.27062434e-001
      2.50394940e-001 1.21218249e-001 3.67553420e-002 9.34532359e-002
      4.01894487e-002 5.87944761e-002 9.27550942e-002 2.58942008e-001
      2.58942008e-001 2.62255371e-002 9.03560147e-002 9.89995077e-002
      4.21027131e-002 8.75067413e-002 7.65183866e-002 1.09978318e-001
      2.58942008e-001 2.58942008e-001 5.34054153e-002 1.10806458e-001
      1.30256489e-001 2.08372161e-001 1.50806963e-001 2.24848941e-001
      2.58942008e-001 2.58942008e-001 1.90491319e-001 1.03540875e-001
      7.25529119e-002 7.35073686e-002 8.93998984e-003 1.41618922e-001
      2.36493275e-001 2.58942008e-001 2.58942008e-001 2.58942008e-001
      6.34689927e-002 9.99031439e-002 1.48113191e-001 1.25470757e-001
      1.80882722e-001 1.24984466e-001 1.74314305e-001 1.23143472e-001
      7.43323192e-002 7.87129104e-002 7.68578649e-002 1.52757168e-001
      1.93641901e-001 1.79995462e-001 7.01892450e-002 1.49466082e-001
      1.74577206e-001 2.72757202e-001 5.69432154e-002 8.97086337e-002
      1.32560581e-001 1.44373044e-001 1.91905782e-001 6.57525733e-002
      6.43711388e-002 7.22210035e-002 2.72757202e-001 8.71359780e-002
      2.12010652e-001 2.08858609e-001 2.63562560e-001 1.24684468e-001
      2.78647449e-002 1.34273142e-001 1.21033207e-001 2.72757202e-001
      5.52554540e-002 2.72757202e-001 2.72757202e-001 2.11898148e-001
      1.72760114e-001 1.57298535e-001 1.38354972e-001 1.85623959e-001
      2.53533095e-001 4.44841720e-002 4.46379781e-002 2.85379756e-002
      2.04553232e-002 1.30899742e-001 2.26977155e-001 2.53533095e-001
      2.06207439e-001 2.18126476e-001 2.53533095e-001 7.05258176e-002
      9.03824642e-002 1.65674631e-002 1.03355803e-001 9.32605565e-002
      1.52335048e-001 1.94463432e-001 2.53533095e-001 1.29772186e-001
      8.36217776e-002 6.23815879e-002 1.02957122e-001 1.38043955e-001
      1.86802357e-001 1.80586711e-001 2.31571019e-001 2.53533095e-001
      2.41825044e-001 2.22854227e-001 1.13062866e-001 1.03279635e-001
      6.47027865e-002 2.71872252e-001 1.32950023e-001 1.43232480e-001
      7.28894845e-002 2.06111118e-001 1.13059849e-001 4.07427400e-002
      1.48787545e-002 6.68866783e-002 2.21966833e-001 9.04506668e-002
      3.39291953e-002 6.42311797e-002 2.71872252e-001 2.71872252e-001
      1.76365256e-001 6.52593151e-002 8.97496492e-002 2.71872252e-001
      7.12799504e-002 1.07251711e-001 2.71872252e-001 2.71872252e-001
      1.12072214e-001 5.10097779e-002 4.97759357e-002 1.26748964e-001
      2.71872252e-001 1.41518146e-001 3.07561029e-002 2.09487751e-001
      2.71872252e-001 2.45237976e-001 7.22809881e-002 9.99873877e-002
      4.25274782e-002 2.12894857e-001 4.64418568e-002 8.18584785e-002
      2.35811219e-001 9.67020541e-002 2.62499571e-001 1.82811633e-001
      7.07393885e-002 2.32545242e-001 4.08761241e-002 2.13720407e-002
      5.54620363e-002 2.62968838e-001 2.62968838e-001 8.37684199e-002
      8.47160146e-002 1.56945944e-001 3.49151678e-002 1.35102510e-001
      7.25719333e-002 1.57818750e-001 1.29400432e-001 2.09577650e-001
      2.47988909e-001 1.39500961e-001 1.38130859e-001 2.22976357e-001
      1.96641430e-001 2.10740611e-001 2.62968838e-001 1.09018452e-001
      2.62968838e-001 5.44175170e-002 9.59225968e-002 1.64860457e-001
      1.91038679e-002 1.38659254e-001 2.82114714e-001 2.52356559e-001
      1.40894398e-001 2.26373617e-002 3.75138670e-002 1.46041848e-002
      1.99400745e-002 4.58275825e-002 1.19036011e-001 2.65406311e-001
      2.82114714e-001 2.62795419e-001 1.08642697e-001 7.44295344e-002
      6.76726550e-002 2.72330474e-002 2.55212262e-002 2.82114714e-001
      1.78106040e-001 2.02350110e-001 2.82114714e-001 3.26298811e-002
      5.92025183e-002 2.47748774e-002 3.35177071e-002 1.84999760e-002
      2.82114714e-001 2.54231721e-001 2.82114714e-001 2.82114714e-001
      3.58494595e-002 5.51417470e-003 9.42920074e-002 3.40389684e-002
      5.38748764e-002 6.53138459e-002 1.09144941e-001 1.54676750e-001
      1.89168975e-001 8.33837762e-002 1.20535731e-001 7.72945061e-002
      1.00200653e-001 6.01431951e-002 1.52605370e-001 1.61341563e-001
      1.28177688e-001 1.54361293e-001 1.39588982e-001 1.78881571e-001
      5.56991696e-002 2.24552453e-001 3.28000300e-002 1.12130277e-001
      2.59444565e-001 1.11244887e-001 2.16386169e-001 2.59444565e-001
      2.36990422e-001 1.50327384e-001 1.01265103e-001 4.71939258e-002
      2.59444565e-001 2.59444565e-001 2.59444565e-001 1.00544274e-001
      2.48440653e-001 2.59444565e-001 6.27039075e-002 1.97969526e-001
      1.12548813e-001 6.15669489e-002 1.13017105e-001 1.64771080e-001
      1.08406611e-001 8.95132646e-002 2.06527278e-001 1.49993002e-001
      2.08464209e-002 1.42249092e-001 1.13828599e-001 1.21502861e-001
      1.68369159e-001 2.24569663e-001 1.22632198e-001 1.83570653e-001
      1.72238082e-001 1.04240566e-001 1.75645873e-001 2.52055436e-001
      1.74171492e-001 2.30195045e-001 1.30701616e-001 1.40794009e-001
      2.52055436e-001 9.93177742e-002 5.92083335e-002 2.52055436e-001
      1.88142061e-001 1.50802895e-001 1.65504873e-001 2.25640997e-001
      1.98395476e-001 2.52055436e-001 1.30428597e-001 1.68373913e-001
      6.16044179e-002 7.34348968e-002 4.30640429e-002 1.29187644e-001
      8.66813064e-002 2.00239480e-001 1.26287073e-001 2.18569010e-001
      6.26643226e-002 5.60231693e-002 1.42388865e-001 1.85117945e-001
      2.38763005e-001 2.07871571e-001 2.39427552e-001 1.03864767e-001
      1.21510915e-001 4.33665104e-002 7.67370462e-002 2.67264783e-001
      1.60131067e-001 1.14818498e-001 7.25408122e-002 2.67264783e-001
      2.67264783e-001 1.75857440e-001 6.19286336e-002 7.93009922e-002
      2.67264783e-001 2.67264783e-001 2.41394281e-001 6.62728101e-002
      1.59907401e-001 2.67264783e-001 5.34985699e-002 3.12563181e-002
      1.87984452e-001 1.15352832e-001 1.71565428e-001 7.19990134e-002
      9.37157124e-002 1.22133993e-001 8.66419524e-002 4.57397811e-002
      1.32894725e-001 6.45875186e-002 1.76547080e-001 2.13013187e-001
      7.50939399e-002 1.41682521e-001 2.61351228e-001 1.14203647e-001
      5.56068942e-002 2.67378658e-001 2.76007831e-001 1.01096816e-001
      1.98819768e-002 7.90311769e-002 2.76007831e-001 1.88720033e-001
      1.60484612e-001 1.25896588e-001 1.89167216e-001 1.16171770e-001
      6.68408945e-002 1.90146733e-002 1.44982904e-001 2.76007831e-001
      2.76007831e-001 1.76118329e-001 1.39750406e-001 2.76007831e-001
      7.19078705e-002 1.28713742e-001 1.72590241e-001 8.11836421e-002
      1.13124721e-001 1.32656962e-001 7.12793171e-002 9.54072699e-002
      6.76950440e-002 2.72825304e-002 1.05927587e-001 2.40354285e-001
      8.27092379e-002 1.28489494e-001 1.79444864e-001 2.67084897e-001
      1.90165535e-001 6.50215521e-002 3.10516451e-002 1.04290411e-001
      2.29830891e-001 9.66683924e-002 2.67084897e-001 2.02930138e-001
      2.43895128e-001 4.19100411e-002 1.32053504e-002 1.04290932e-001
      2.67084897e-001 2.67084897e-001 1.72475845e-001 2.67084897e-001
      2.67084897e-001 2.67084897e-001 8.34411755e-002 2.90834904e-002
      9.35532376e-002 2.44553797e-002 6.74251541e-002 1.83897823e-001
      2.02143267e-001 1.92733943e-001 1.58982992e-001 1.09721452e-001
      9.74438339e-002 4.67173494e-002 7.17516690e-002 1.45271927e-001
      2.45515212e-001 2.11743265e-001 2.84847707e-001 2.41204500e-001
      2.27403473e-002 3.69340815e-002 1.13005310e-001 3.38110304e-003
      2.84847707e-001 2.84847707e-001 1.73185319e-001 4.83975336e-002
      5.09651937e-002 7.60747939e-002 1.69852719e-001 1.16837204e-001
      3.29959951e-002 2.84847707e-001 2.84847707e-001 2.84847707e-001
      1.94252625e-001 5.38312979e-002 1.83106586e-002 7.82570243e-002
      8.49783346e-002 2.98229661e-002 6.89742789e-002 2.65384354e-002
      1.90081775e-001 2.21510962e-001 1.48330420e-001 1.03852913e-001
      6.70986846e-002 9.78831202e-002 2.99772713e-002 9.92826093e-003
      2.47487184e-002 2.82587916e-001 2.34502643e-001 2.57799983e-001
      1.85708418e-001 7.84129053e-002 5.16291857e-002 4.79379576e-003
      9.15159360e-002 1.60715938e-001 2.50813603e-001 1.54408187e-001
      2.82587916e-001 2.82587916e-001 1.33996323e-001 9.30199474e-002
      1.87347196e-002 8.24473575e-002 1.79628462e-001 2.82587916e-001
      7.51738846e-002 2.82587916e-001 2.70736873e-001 1.41216666e-001
      2.89187551e-001 7.27035031e-002 4.40394804e-002 9.25665647e-002
      1.31073460e-001 1.75874054e-001 7.27270618e-002 1.12503089e-001
      9.76875499e-002 2.92233050e-001 2.39465684e-001 1.58119887e-001
      1.05760209e-001 1.27039909e-001 1.58072174e-001 5.07961586e-002
      6.91541061e-002 7.48591647e-002 2.92233050e-001 1.66448087e-001
      1.92098022e-002 3.32608409e-002 8.04621726e-002 1.50057912e-001
      8.45781043e-002 1.95654675e-001 2.11847320e-001 2.92233050e-001
      2.92233050e-001 1.73242867e-001 2.92233050e-001 1.82985589e-001
      6.37992769e-002 2.36723404e-002 1.04131341e-001 1.41334340e-001
      2.06684694e-001 1.58211410e-001 1.36107221e-001 1.09789915e-001
      1.46629632e-001 6.50298744e-002 8.24537799e-002 5.79321831e-002
      8.25397223e-002 2.61945605e-001 1.46090597e-001 1.73970953e-001
      2.00855568e-001 6.88370392e-002 9.18305293e-002 1.78413510e-001
      7.54036456e-002 2.00694114e-001 7.75428489e-002 1.69030845e-001
      2.61945605e-001 1.98997155e-001 1.89667404e-001 9.31668505e-002
      1.05684772e-001 8.39233994e-002 2.05348164e-001 1.29141375e-001
      1.54227957e-001 2.61945605e-001 2.61945605e-001 1.53354734e-001
      8.35326985e-002 2.61945605e-001 1.34072348e-001 2.49417514e-001
      1.42974108e-001 9.43434462e-002 1.23224489e-001 1.25981793e-001
      1.85643822e-001 1.23251610e-001 2.44528800e-001 5.11668846e-002
      9.57358256e-002 9.96152312e-002 1.71132147e-001 1.97626576e-001
      1.77008599e-001 2.26967290e-001 1.23401850e-001 1.26353770e-001
      1.32799953e-001 5.79477213e-002 2.09558934e-001 1.51497990e-001
      7.71719813e-002 4.95924912e-002 9.55731869e-002 2.52708793e-001
      2.52708793e-001 8.97080004e-002 1.66978940e-001 1.56311065e-001
      2.52708793e-001 1.94484353e-001 1.97536618e-001 1.77049443e-001
      2.21569315e-001 2.45877370e-001 1.67783886e-001 1.42443776e-001
      1.05541386e-001 8.33660886e-002 1.20492555e-001 2.06886515e-001
      1.73850104e-001 1.11888438e-001 7.84240514e-002 1.46656930e-001
      1.54090628e-001 2.41698354e-001 5.38995042e-002 1.18474863e-001
      2.56381631e-001 1.56355470e-001 5.44304810e-002 8.49907547e-002
      1.61311761e-001 1.37189284e-001 1.57298654e-001 1.98946550e-001
      1.32557511e-001 1.05664544e-001 1.54650599e-001 2.12466031e-001
      2.56381631e-001 1.11873917e-001 2.01835930e-001 2.56381631e-001
      1.92431837e-001 6.61259294e-002 1.75679117e-001 1.14269480e-001
      1.37529612e-001 2.20150873e-001 2.05052376e-001 2.56381631e-001
      2.32139751e-002 5.63228801e-002 1.53872490e-001 4.31235731e-002
      1.43161342e-001 3.57974321e-001 3.36361825e-001 7.07224905e-002
      1.70904715e-002 3.91748361e-002 9.66020301e-003 2.87058717e-003
      2.18270551e-002 1.31685510e-001 2.38071695e-001 7.56013319e-002
      2.51563862e-002 2.11909432e-002 4.12842408e-002 1.47824651e-002
      1.22891992e-001 1.63333610e-001 3.57974321e-001 3.57974321e-001
      2.33435184e-001 3.72539787e-003 2.79654693e-002 3.12793925e-002
      1.31635666e-002 1.86528880e-002 3.08434777e-002 3.57974321e-001
      3.57974321e-001 4.84961309e-002 2.01264303e-002 1.97797846e-002
      1.83960944e-001 1.06911078e-001 6.95165768e-002 1.29502028e-001
      5.97156659e-002 2.10038386e-002 4.80572395e-002 9.76457745e-002
      1.76702186e-001 2.49504074e-001 1.20543420e-001 4.25259285e-002
      8.64743143e-002 8.22614282e-002 1.64186999e-001 2.49504074e-001
      1.09308966e-001 2.09505081e-001 2.09098995e-001 1.50961861e-001
      2.49504074e-001 1.42346948e-001 2.32418627e-001 6.08021319e-002
      5.04250787e-002 1.08212501e-001 2.32824460e-001 2.49504074e-001
      1.87356174e-001 2.21476182e-001 2.25773096e-001 2.44614065e-001
      1.34770393e-001 2.49504074e-001 6.25237450e-002 1.70081049e-001
      7.31585473e-002 4.78656180e-002 1.10492028e-001 1.61266908e-001
      1.87904879e-001 9.63470265e-002 4.54757065e-002 1.11915059e-001
      1.22528657e-001 5.86336516e-002 8.37569311e-002 2.46078104e-001
      2.69236773e-001 2.34814540e-001 4.42482717e-002 1.42814741e-002
      1.19804583e-001 2.69236773e-001 8.52879584e-002 4.76353504e-002
      9.89040360e-002 1.15203798e-001 2.18079627e-001 1.12689957e-001
      2.62566209e-001 2.20218047e-001 2.69236773e-001 5.90596423e-002
      1.08946890e-001 1.66030064e-001 2.69236773e-001 2.69236773e-001
      5.98953553e-002 1.21439487e-001 1.67665914e-001 2.69236773e-001
      5.03967106e-002 7.68528134e-002 5.18394187e-002 4.70690541e-002
      2.17384562e-001 2.51178473e-001 1.55691296e-001 9.51833799e-002
      4.99171689e-002 1.16047509e-001 6.35760650e-002 2.56543588e-002
      1.39457554e-001 1.21946797e-001 2.70556420e-001 1.80146232e-001
      1.09039411e-001 1.84822679e-001 1.40884265e-001 5.19571938e-002
      5.75823756e-003 6.92138597e-002 2.70556420e-001 2.70556420e-001
      1.74850985e-001 1.53958037e-001 8.58943537e-002 2.70556420e-001
      5.66539802e-002 4.26706765e-003 1.56303495e-001 2.70556420e-001
      2.70556420e-001 2.70556420e-001 2.34290808e-001 1.51126787e-001
      3.07700522e-002 6.20554015e-003 1.91795435e-002 6.11852221e-002
      1.90832987e-001 2.91181386e-001 1.77236423e-001 4.53194454e-002
      4.53938060e-002 2.91181386e-001 1.37178824e-004 0. 0.
      6.32398650e-002 2.91181386e-001 2.30118215e-001 7.55323991e-002
      2.91181386e-001 4.48643826e-002 0. 9.78776603e-004 4.61855829e-002
      2.09514558e-001 2.91181386e-001 2.51305282e-001 1.14929818e-001
      9.38794911e-002 2.91181386e-001 0. 0. 0. 1.23821134e-002
      2.25652531e-001 2.09566250e-001 1.88875586e-001 2.91181386e-001
      3.11481714e-001 2.88844734e-001 7.80820772e-002 0. 0. 0.
      5.42779230e-002 1.09265432e-001 8.13207701e-002 3.11481714e-001
      1.59127191e-001 4.68492471e-002 0. 0. 0. 0. 4.63019460e-005
      3.11481714e-001 3.11481714e-001 3.11481714e-001 2.06184268e-001 0.
      0. 0. 8.77735540e-002 1.91280469e-001 7.34398365e-002
      3.11481714e-001 2.68061161e-001 1.23063482e-001 0. 0. 0. 0.
      4.22021112e-005 3.11481714e-001 2.22906955e-002 0. 0.
      5.45858406e-004 6.20091967e-002 2.24563017e-001 3.11066359e-001
      2.68282682e-001 2.14974910e-001 0. 3.54331313e-003 1.47131563e-003
      1.77538441e-003 1.24984555e-001 2.34167099e-001 1.60831332e-001
      4.93111275e-002 3.94797884e-003 2.70496737e-002 0. 0. 0.
      2.43624568e-001 3.17514628e-001 3.17514628e-001 2.75317460e-001
      2.03236818e-001 0. 3.05908965e-003 4.66696220e-003 3.71823437e-004
      3.17514628e-001 3.17514628e-001 2.15161070e-001 3.92414667e-002
      3.41249601e-004 2.63559431e-001 1.94292411e-001 6.86571822e-002
      7.70702884e-002 2.47665524e-001 2.18937006e-002 5.80019988e-002
      4.31615487e-002 2.11485401e-002 2.63559431e-001 2.15021893e-001
      6.48030788e-002 2.63559431e-001 1.91603467e-001 2.43387800e-002
      5.32997549e-002 1.43105403e-001 5.44453524e-002 1.82257742e-001
      2.10178837e-001 2.23691568e-001 1.25993446e-001 2.63559431e-001
      5.81189431e-002 4.80427817e-002 8.43305886e-002 9.82652530e-002
      2.63559431e-001 2.63559431e-001 2.29982480e-001 2.50967681e-001
      1.56803176e-001 5.59545457e-002 1.12784319e-002 1.29204690e-001
      1.56500280e-001 1.33323789e-001 5.68767525e-002 3.01735718e-002
      4.86170948e-002 3.94618601e-001 3.94618601e-001 1.61386784e-002
      5.32906242e-002 8.50863978e-002 3.94618601e-001 1.08002573e-001
      4.57195900e-002 3.51955071e-002 5.33175841e-002 3.17207463e-002
      1.00319488e-002 3.54524553e-002 1.86761230e-001 4.54393625e-002
      3.08639556e-002 2.86509003e-002 5.48992045e-002 3.94618601e-001
      3.94618601e-001 3.16320322e-002 1.74002498e-002 3.98465097e-002
      7.00273886e-002 7.69021437e-002 6.06334619e-002 5.49264215e-002
      2.09950775e-001 2.06432790e-001 4.08271439e-002 9.00934413e-002
      6.32627085e-002 3.98658775e-002 2.64886498e-001 2.75399446e-001
      2.75399446e-001 1.08854175e-001 1.19823098e-001 1.76959351e-001
      2.14126576e-002 8.69122520e-003 2.75399446e-001 1.85833260e-001
      2.75399446e-001 2.52804995e-001 6.67893514e-002 4.50030575e-003
      1.14636961e-003 1.82550086e-003 2.06597880e-001 8.98633618e-003
      1.72044411e-002 1.40880734e-001 2.75399446e-001 2.75399446e-001
      2.53721744e-001 7.11601451e-002 1.08709466e-003 9.89992823e-003
      9.49932039e-002 4.76204120e-002 8.71619806e-002 2.30262786e-001
      2.75399446e-001 1.21895708e-001 1.41013768e-002 1.22239022e-002
      1.18462622e-001 1.36746431e-003 0. 0. 9.88798123e-003
      4.26315844e-001 3.82569969e-001 2.34074369e-002 7.54986517e-003
      6.39406312e-003 0. 1.43554644e-004 1.18493894e-003 2.21681204e-002
      4.26315844e-001 2.25162759e-001 9.29903984e-003 8.30534962e-004 0.
      4.65094308e-005 0. 0. 1.34010434e-001 4.26315844e-001
      1.40461475e-001 2.55400711e-003 1.37338310e-003 2.32334528e-003 0.
      1.00488251e-003 6.03555003e-003 1.68856785e-001 4.26315844e-001
      6.39689937e-002 5.50338859e-003 1.58700161e-003 0. 9.87548381e-002
      1.32135645e-001 1.59724131e-001 2.24598244e-001 2.25975946e-001
      1.33686617e-001 7.38401115e-002 6.59328252e-002 9.21598375e-002
      2.43263245e-001 2.43263245e-001 1.74209759e-001 2.21506312e-001
      8.45935792e-002 3.40846963e-002 1.16098143e-001 5.40984049e-002
      1.53756768e-001 1.20907307e-001 1.38262495e-001 1.51296318e-001
      1.87502667e-001 2.34831423e-001 1.16890639e-001 1.18373707e-001
      1.42236620e-001 8.75981152e-002 2.43263245e-001 2.43263245e-001
      1.94794461e-001 2.43263245e-001 2.43263245e-001 6.83798268e-003
      2.38255095e-002 2.00976446e-001 2.07049638e-001</_>
    <_>
      4.34491858e-002 4.75577563e-002 9.01308283e-002 7.33369142e-002
      2.79558063e-001 1.34402454e-001 3.20820771e-002 2.01972857e-001
      2.20696598e-001 3.62164341e-002 1.60976008e-001 9.55566615e-002
      5.65582477e-002 2.79558063e-001 2.79558063e-001 1.60508007e-001
      1.34690225e-001 1.83053523e-001 5.50539643e-002 1.33134246e-001
      2.58269310e-001 1.06195383e-001 1.07795589e-001 1.71783328e-001
      1.72456220e-001 1.52632698e-001 2.40711331e-001 1.87833056e-001
      1.37079284e-001 2.00875819e-001 1.27945855e-001 6.76931739e-002
      2.79558063e-001 2.17081428e-001 8.19349810e-002 1.46029085e-001
      4.09215316e-002 3.86483930e-002 1.41703665e-001 2.02603593e-001
      2.45397449e-001 1.67420566e-001 7.80139640e-002 3.26219313e-002
      9.90527123e-002 5.92306815e-002 3.98358330e-002 1.91932112e-001
      2.53711462e-001 2.53711462e-001 3.77891138e-002 8.39616954e-002
      4.76300530e-002 2.19872624e-001 9.41537470e-002 4.48900089e-002
      1.35533959e-001 1.81151107e-001 2.53711462e-001 1.35991856e-001
      1.79973543e-001 2.22907215e-001 1.87387928e-001 1.67876303e-001
      7.36440122e-002 2.02752009e-001 2.53711462e-001 2.53711462e-001
      4.73853126e-002 1.28396034e-001 2.22530887e-001 2.53711462e-001
      2.02154294e-001 1.63351148e-001 1.67814091e-001 4.51187305e-002
      1.71141863e-001 5.13529666e-002 1.16232120e-001 1.92677863e-002
      1.29430965e-001 2.15403572e-001 1.22995801e-001 1.96817786e-001
      6.49688095e-002 2.64829189e-001 6.74606189e-002 1.25395775e-001
      7.68274814e-002 1.98535055e-001 1.43773392e-001 2.00073540e-001
      2.64829189e-001 1.75125718e-001 2.34085530e-001 1.15329131e-001
      1.66897669e-001 2.13914756e-002 9.92361829e-002 1.23971052e-001
      1.36811078e-001 2.64829189e-001 9.44203958e-002 2.64829189e-001
      1.63644403e-001 2.11395845e-001 1.33021161e-001 2.37990975e-001
      7.45843202e-002 1.54075101e-001 1.84960738e-001 1.17322922e-001
      1.31713450e-001 4.04861197e-002 1.11920998e-001 1.26940042e-001
      5.98140284e-002 2.39416599e-001 1.60799012e-001 2.14449167e-001
      1.98172256e-001 2.37029865e-001 1.14886306e-001 1.12907939e-001
      6.80261254e-002 1.99015632e-001 7.99291953e-002 2.52367646e-001
      2.40873754e-001 1.94618300e-001 1.73514172e-001 1.25411019e-001
      1.13181844e-001 8.48925561e-002 7.69758075e-002 9.06345770e-002
      1.64761797e-001 2.15293452e-001 2.55817711e-001 2.55817711e-001
      1.90368742e-001 1.38165593e-001 2.05362722e-001 1.62189066e-001
      6.92312047e-002 8.02846719e-003 6.16004914e-002 1.43185511e-001
      4.75730449e-002 1.79918274e-001 1.45672277e-001 1.20962076e-001
      1.23366535e-001 5.23473322e-002 1.79073922e-002 9.22218189e-002
      2.40738779e-001 9.50062945e-002 2.07389861e-001 2.49457940e-001
      1.53311059e-001 1.58535436e-001 1.83027774e-001 1.60496414e-001
      1.39638022e-001 2.49457940e-001 6.63548037e-002 1.16087645e-001
      1.52602881e-001 1.77765384e-001 1.14746876e-001 2.38320604e-001
      1.87549189e-001 2.49457940e-001 2.49457940e-001 1.70570388e-001
      2.49457940e-001 2.49457940e-001 2.18972757e-001 7.32828379e-002
      6.80601150e-002 4.68137413e-002 1.40010148e-001 9.26718712e-002
      8.84759575e-002 2.06201628e-001 2.43496876e-002 1.07941136e-001
      1.24634735e-001 2.57314116e-001 8.57372209e-002 1.29560024e-001
      2.19521791e-001 2.03228563e-001 2.57314116e-001 1.38366921e-002
      1.08796194e-001 2.16116056e-001 5.16535193e-002 7.18485564e-002
      1.26191124e-001 1.25974908e-001 2.18405664e-001 2.57314116e-001
      7.33031332e-002 1.33342326e-001 5.10044023e-002 2.11722523e-001
      9.75600630e-002 1.27732426e-001 2.45437294e-001 2.57314116e-001
      2.57314116e-001 6.68787062e-002 2.57314116e-001 2.57314116e-001
      6.41540065e-002 8.94282535e-002 1.62400305e-001 1.09219864e-001
      2.61609972e-001 2.61609972e-001 5.12240231e-002 1.32996947e-001
      1.02902539e-001 5.45000136e-002 7.29476362e-002 2.27275968e-001
      1.15424521e-001 2.40364149e-001 1.55001819e-001 6.54948577e-002
      1.71999902e-001 2.09133297e-001 1.05884925e-001 8.32061097e-002
      2.61609972e-001 1.61096454e-001 2.61609972e-001 2.61609972e-001
      4.52311523e-002 1.05940878e-001 1.35773808e-001 9.74083990e-002
      3.52959558e-002 2.61609972e-001 1.23408623e-001 1.22270323e-001
      2.61609972e-001 1.34060994e-001 1.65229023e-001 2.05749780e-001
      1.48730755e-001 4.25191671e-002 1.41410232e-001 1.97840020e-001
      9.88486931e-002 2.36349612e-001 1.91203609e-001 6.80549741e-002
      1.18692622e-001 1.52295142e-001 1.70332454e-002 5.14015816e-002
      2.52895445e-001 2.52895445e-001 2.44295195e-001 1.65809378e-001
      8.14463422e-002 1.29639044e-001 7.90781304e-002 1.45555973e-001
      1.88557416e-001 2.32633829e-001 1.81348994e-001 2.16464564e-001
      1.61840662e-001 1.19127989e-001 9.99057293e-002 9.89468694e-002
      4.44606096e-002 1.13197915e-001 2.52895445e-001 2.52895445e-001
      2.52895445e-001 1.70042664e-001 1.49762809e-001 1.17603630e-001
      1.20098643e-001 7.16731548e-002 1.05645478e-001 2.70514518e-001
      6.55708313e-002 7.40104094e-002 1.09689988e-001 1.10991418e-001
      4.01377343e-002 5.66166826e-002 8.03404823e-002 1.13086335e-001
      2.70514518e-001 2.26558059e-001 2.17177093e-001 2.70514518e-001
      1.18703969e-001 1.22806728e-002 1.96326748e-001 1.42992347e-001
      1.23944506e-001 2.70514518e-001 1.28630370e-001 7.28328452e-002
      3.80576588e-002 5.84768988e-002 9.35787186e-002 2.70514518e-001
      1.35118395e-001 1.45800561e-001 2.70514518e-001 2.52544492e-001
      2.70514518e-001 1.57168150e-001 1.50457203e-001 1.51470289e-001
      9.62031782e-002 1.12725541e-001 1.17403619e-001 2.70909280e-001
      1.79878578e-001 2.96565872e-002 3.30849700e-002 1.22164309e-001
      4.46054339e-002 1.36459559e-001 2.04003915e-001 1.88430876e-001
      2.70909280e-001 1.54307976e-001 3.27077545e-002 9.57700312e-002
      1.06478274e-001 1.35237426e-001 2.29096234e-001 2.48238042e-001
      1.53225720e-001 2.00322762e-001 2.70909280e-001 1.12408571e-001
      1.99792851e-002 4.64616902e-002 6.09136634e-002 2.70909280e-001
      2.65056193e-001 1.33364633e-001 2.17217579e-001 2.70909280e-001
      8.45924690e-002 1.36814332e-002 9.10453573e-002 1.90903187e-001
      6.77916706e-002 5.94146922e-002 1.05665997e-001 2.35931218e-001
      8.69937316e-002 1.66860625e-001 2.23302379e-001 1.01043463e-001
      4.68632355e-002 1.01262957e-001 7.85008594e-002 1.89945340e-001
      1.52070269e-001 2.27614388e-001 2.11316824e-001 1.70713663e-001
      1.05985455e-001 8.98232311e-002 1.19455643e-001 1.45398974e-001
      1.02350861e-001 2.41876096e-001 2.54864514e-001 1.44502029e-001
      2.44535297e-001 2.17062473e-001 5.35059869e-002 4.65193838e-002
      9.57913846e-002 2.54864514e-001 2.54864514e-001 2.01573983e-001
      1.82572529e-001 2.54864514e-001 1.45763472e-001 5.35395592e-002
      8.95084590e-002 1.61448687e-001 1.15224823e-001 2.53633112e-001
      2.49809802e-001 2.58536905e-001 5.77647239e-002 1.87172461e-002
      8.87582079e-002 1.10542089e-001 1.38452485e-001 1.62113070e-001
      2.58536905e-001 1.42074272e-001 1.00152127e-001 3.11311930e-002
      1.03478745e-001 1.41636997e-001 7.01218992e-002 2.46460870e-001
      9.21000317e-002 1.43736124e-001 2.58536905e-001 1.58110827e-001
      1.98536620e-001 3.19226943e-002 2.58084070e-002 2.01876774e-001
      1.34116948e-001 1.14379101e-001 1.02871723e-001 2.54394770e-001
      1.69008568e-001 2.58536905e-001 1.46088645e-001 2.58536905e-001
      1.06884062e-001 7.14546517e-002 1.21090837e-001 6.66147545e-002
      2.59227782e-001 2.59227782e-001 1.23234533e-001 1.06762059e-001
      2.82282010e-002 9.94080231e-002 8.29488263e-002 2.59227782e-001
      1.92516655e-001 1.89589620e-001 1.66690692e-001 1.59685791e-001
      3.10354736e-002 2.48570200e-002 1.56368613e-001 2.46098027e-001
      1.88779995e-001 7.50366747e-002 2.21853539e-001 2.59227782e-001
      1.65761128e-001 4.14553955e-002 6.41472489e-002 1.79624498e-001
      2.59227782e-001 2.59227782e-001 2.18305603e-001 2.31504381e-001
      1.52825803e-001 1.38333991e-001 3.73510309e-002 1.87227968e-002
      6.20633252e-002 4.32341062e-002 8.62116739e-002 2.53605783e-001
      1.09336019e-001 1.40284389e-001 2.27410868e-001 5.05778827e-002
      6.15786798e-002 1.95236877e-001 2.18336552e-001 1.87603518e-001
      1.97983935e-001 3.78357805e-002 1.66791439e-001 2.53605783e-001
      4.94400524e-002 1.47965476e-001 1.00174621e-001 1.86022650e-002
      2.53605783e-001 2.53605783e-001 2.53605783e-001 2.00648949e-001
      7.79243708e-002 1.33519486e-001 1.24761365e-001 2.53605783e-001
      1.78957283e-001 2.53605783e-001 1.81112960e-001 1.06463395e-001
      1.50551140e-001 6.80944473e-002 9.31129679e-002 1.68494225e-001
      2.04064474e-001 6.80150241e-002 7.53775686e-002 1.28865361e-001
      1.22068070e-001 7.79349953e-002 4.47946154e-002 9.83629450e-002
      2.30095744e-001 1.39175564e-001 1.08445317e-001 2.55425125e-001
      1.22414060e-001 1.26281247e-001 7.73611888e-002 9.07336250e-002
      1.81074351e-001 2.55425125e-001 1.92231417e-001 1.28695309e-001
      1.16507173e-001 1.93576902e-001 2.20898286e-001 9.94172618e-002
      6.98642060e-002 8.05181116e-002 2.55425125e-001 1.19636036e-001
      1.69104457e-001 2.24568397e-001 1.94934323e-001 1.11921676e-001
      1.55883536e-001 2.55425125e-001 2.55425125e-001 2.55425125e-001
      1.79673910e-001 1.46534085e-001 1.36439204e-001 2.06064612e-001
      1.24083258e-001 2.04077676e-001 2.09320202e-001 1.61564685e-002
      1.05332043e-002 1.65407211e-001 1.81200847e-001 1.74942970e-001
      1.79442972e-001 2.57427394e-001 1.10223480e-001 1.28988594e-001
      6.75171986e-002 8.89640301e-002 2.11081252e-001 2.59161919e-001
      1.41429469e-001 2.30439633e-001 6.84555098e-002 7.28337839e-002
      8.83219913e-002 1.01678297e-001 1.82371661e-001 1.70029089e-001
      2.59161919e-001 2.59161919e-001 2.53731012e-001 1.61273167e-001
      5.38240559e-002 1.05441704e-001 1.16936877e-001 1.52598575e-001
      1.40808985e-001 2.62069199e-002 2.31146708e-001 1.62196308e-001
      5.56768812e-002 1.48604318e-001 2.08065346e-001 9.62681323e-002
      1.65992394e-001 1.38514712e-001 1.22716263e-001 8.47040042e-002
      1.71067208e-001 4.68168631e-002 1.90726519e-001 2.43839204e-001
      8.35778788e-002 1.43721208e-001 2.52245456e-001 4.12460305e-002
      1.24440715e-001 6.92302361e-002 4.29984555e-002 2.26315320e-001
      2.52245456e-001 1.51212946e-001 2.52245456e-001 1.33351654e-001
      8.77803341e-002 1.45344377e-001 2.28388458e-001 9.23740938e-002
      2.52245456e-001 2.52245456e-001 2.29069322e-001 1.40537053e-001
      1.50762215e-001 3.34226191e-002 7.86836222e-002 5.74598834e-002
      3.69268060e-002 2.64747590e-001 2.66616344e-001 1.30829453e-001
      1.88918740e-001 2.57134110e-001 1.42595321e-001 1.42916799e-001
      8.10448825e-002 2.49626879e-002 2.03714669e-001 2.09540859e-001
      1.33689597e-001 1.05063275e-001 1.33622184e-001 5.58782145e-002
      2.66616344e-001 1.75194800e-001 5.92758469e-002 2.66616344e-001
      2.66616344e-001 6.15202002e-002 7.43049681e-002 1.88441664e-001
      6.26725554e-002 1.62192419e-001 1.31263092e-001 1.12819746e-001
      2.66616344e-001 2.14524582e-001 1.24503545e-001 1.84966832e-001
      1.65105250e-003 4.69681732e-002 1.46790132e-001 1.90184116e-001
      1.79793328e-001 2.00558379e-001 1.86584249e-001 2.02335954e-001
      1.39210625e-002 6.16910607e-002 9.17818099e-002 1.25460297e-001
      2.56520420e-001 1.99268267e-001 1.70807853e-001 2.56520420e-001
      9.42797512e-002 8.85468093e-004 2.66102031e-002 0. 1.57764658e-001
      1.72967672e-001 2.56520420e-001 2.56520420e-001 1.14734344e-001
      2.56520420e-001 3.72398645e-002 1.36121631e-001 7.26953940e-003
      8.48211870e-002 1.84844032e-001 2.56520420e-001 2.56520420e-001
      1.84324205e-001 2.39829421e-001 3.38884033e-002 7.88435563e-002
      4.06877771e-002 2.75237888e-001 2.50346899e-001 1.57677129e-001
      5.59308678e-002 8.52424279e-002 9.21112150e-002 1.08410018e-002
      9.92329046e-002 5.46384826e-002 2.48040959e-001 1.85346201e-001
      2.75237888e-001 2.75237888e-001 1.08912483e-001 5.11430688e-002
      4.64448743e-002 1.07095055e-001 1.03861064e-001 2.75237888e-001
      2.75237888e-001 1.48929998e-001 8.51463750e-002 1.26094133e-001
      1.21108234e-001 4.82171364e-002 1.47707775e-001 1.52603984e-001
      2.75237888e-001 2.75237888e-001 2.13823065e-001 1.68650657e-001
      2.98938397e-002 1.36992216e-001 6.08425029e-002 3.69635895e-002
      9.47427973e-002 1.32175535e-001 8.50658864e-003 1.71883762e-001
      3.53977442e-001 3.53977442e-001 5.69692925e-002 2.11954545e-002
      1.49996569e-002 4.02885629e-003 1.64180761e-003 1.44085968e-002
      1.43145218e-001 1.94876820e-001 6.46588057e-002 2.21434850e-002
      1.23611148e-002 3.82235609e-002 4.33760546e-002 1.83836564e-001
      9.50513557e-002 3.53977442e-001 3.53977442e-001 2.58057982e-001
      2.86053796e-003 4.52270135e-002 3.82633843e-002 3.07682790e-002
      5.69481868e-003 1.33825652e-002 3.53977442e-001 3.53977442e-001
      4.17384543e-002 1.98182482e-002 1.47783449e-002 2.33499855e-002
      2.95181572e-002 3.24514396e-002 1.20987266e-001 2.78530657e-001
      1.76294699e-001 1.75791293e-001 1.68560416e-001 8.05989131e-002
      1.63631532e-002 6.01339526e-002 6.96948320e-002 1.56380564e-001
      2.78530657e-001 2.78530657e-001 2.78530657e-001 9.22945440e-002
      1.01549357e-001 3.66726778e-002 8.09900314e-002 6.87754229e-002
      1.22264467e-001 8.40757564e-002 2.10912481e-001 2.14855120e-001
      1.52269676e-001 1.63337931e-001 4.98365387e-002 1.47205353e-001
      7.43257701e-002 4.41877544e-002 2.03649148e-001 2.78530657e-001
      2.78530657e-001 2.21487671e-001 2.61518300e-001 1.20628618e-001
      5.30109182e-002 4.94324528e-002 2.27481216e-001 9.07381326e-002
      1.43552974e-001 1.59945324e-001 6.41485229e-002 1.11020409e-001
      3.13856043e-002 1.08064316e-001 1.05385095e-001 2.01310664e-001
      2.08547801e-001 2.20185682e-001 1.84080705e-001 9.25829262e-002
      6.63970560e-002 1.29941851e-001 4.77727912e-002 9.99324620e-002
      2.17590123e-001 2.26965830e-001 2.53338188e-001 2.53338188e-001
      1.84298325e-002 1.91387549e-001 2.05044091e-001 7.74872825e-002
      2.09285572e-001 2.53338188e-001 2.53338188e-001 2.53338188e-001
      1.68686062e-001 1.70818686e-001 1.28657177e-001 8.12662393e-002
      1.75498817e-002 5.64048700e-002 1.29988626e-001 6.88523799e-002
      2.72212505e-001 2.61526674e-001 3.77370007e-002 1.27225220e-001
      1.38312384e-001 8.09588432e-002 1.25151407e-002 2.84874868e-002
      2.23789215e-001 2.72212505e-001 2.72212505e-001 5.70809953e-002
      4.04916853e-002 3.83237377e-002 4.54626568e-002 3.28987986e-002
      2.36147881e-001 1.58320874e-001 2.72212505e-001 2.72212505e-001
      1.72661647e-001 1.22939572e-001 7.57163540e-002 1.46083206e-001
      6.45958781e-002 1.65474072e-001 1.98039353e-001 2.72212505e-001
      2.72212505e-001 2.22285554e-001 3.97325009e-002 4.98258136e-002
      1.25244195e-002 1.75059959e-002 2.47434378e-002 2.05691576e-001
      3.10575843e-001 9.73194167e-002 7.29136243e-002 3.31756920e-002
      3.10575843e-001 0. 4.33583074e-004 8.86887079e-004 9.02474970e-002
      3.10575843e-001 1.46583408e-001 1.21522732e-001 2.67599434e-001
      4.59305309e-002 1.45950285e-003 6.57289568e-003 5.19385263e-002
      1.85555786e-001 3.10575843e-001 2.13567570e-001 1.21283375e-001
      1.52420387e-001 3.10575843e-001 0. 0. 0. 2.43099555e-002
      2.33256057e-001 1.64911136e-001 1.88033074e-001 3.10575843e-001
      2.81943679e-001 3.20253789e-001 5.20995036e-002 1.84796038e-004 0.
      3.36982012e-005 1.85225196e-002 1.18773080e-001 5.98737188e-002
      3.20253789e-001 1.80640638e-001 3.12597044e-002 1.10877627e-004 0.
      0. 0. 6.98978010e-006 3.20253789e-001 3.20253789e-001
      3.20253789e-001 1.68148026e-001 0. 0. 0. 7.82043636e-002
      1.81862026e-001 5.61694056e-002 3.20253789e-001 2.54692823e-001
      9.76005048e-002 0. 0. 0. 0. 0. 3.20253789e-001 3.58627141e-002 0.
      9.17610487e-006 5.16263116e-003 7.14079142e-002 1.48055002e-001
      3.11533451e-001 2.95865029e-001 2.03938022e-001 1.28542015e-003 0.
      1.53326220e-003 3.64753157e-002 1.44584030e-001 1.54417098e-001
      1.90970480e-001 4.63487618e-002 7.23762996e-003 5.02755120e-002 0.
      0. 5.25915530e-003 2.40285322e-001 3.11533451e-001 3.11533451e-001
      3.10860991e-001 2.02857435e-001 1.08406099e-003 0. 8.81417596e-004
      4.06212956e-002 3.11533451e-001 3.11533451e-001 2.60957867e-001
      3.97070497e-002 1.75721967e-003 7.61778355e-002 1.01386011e-001
      2.48044834e-001 1.68773398e-001 2.09031045e-001 1.83502078e-001
      1.08499303e-001 1.30173624e-001 3.76804732e-002 1.35311678e-001
      2.12751985e-001 2.28020579e-001 2.31807172e-001 1.79513380e-001
      9.50063244e-002 4.52414155e-002 2.29202714e-002 6.12310246e-002
      8.51200074e-002 1.16985150e-001 2.51414925e-001 2.51414925e-001
      2.51414925e-001 1.90767273e-001 1.66598186e-001 5.48778027e-002
      1.35366954e-002 9.11833793e-002 1.31249115e-001 2.51414925e-001
      2.10858867e-001 2.51414925e-001 1.49749085e-001 2.51414925e-001
      6.11515455e-002 5.76273389e-002 1.89312011e-001 3.32828276e-002
      2.37421542e-002 5.72749004e-002 3.89130950e-001 3.07585239e-001
      4.30948287e-002 1.17169134e-001 1.44731462e-001 3.89130950e-001
      1.13701001e-001 2.45003290e-002 1.52989225e-002 3.64526398e-002
      1.47772394e-002 2.08044928e-002 6.80874288e-002 2.65212148e-001
      6.72582686e-002 3.14308852e-002 3.74408588e-002 2.04038471e-002
      3.89130950e-001 3.89130950e-001 1.97244398e-002 7.03339558e-003
      4.05512303e-002 1.42529741e-001 1.17991388e-001 4.05296870e-002
      3.37277614e-002 2.27543503e-001 1.45687655e-001 6.11704215e-002
      5.94231896e-002 3.27015072e-002 2.99694296e-002 2.66774386e-001
      2.73096532e-001 2.73096532e-001 8.57919082e-002 9.15226564e-002
      1.65354505e-001 4.31236662e-002 1.05675329e-002 2.73096532e-001
      2.10965902e-001 2.73096532e-001 2.73096532e-001 3.46770398e-002
      5.20908833e-003 9.12915100e-004 3.64329491e-004 2.09049746e-001
      3.82743985e-003 1.69829931e-002 1.02353618e-001 2.73096532e-001
      2.73096532e-001 2.64919609e-001 3.46488878e-002 5.94179099e-003
      4.91998508e-004 1.10231258e-001 3.75931896e-002 8.84029046e-002
      2.73096532e-001 2.73096532e-001 1.13316372e-001 6.39040582e-003
      3.12113017e-002 4.52464446e-002 5.19184163e-003 7.83858879e-004 0.
      4.78499662e-003 4.41282332e-001 3.61456603e-001 1.67615283e-002
      8.83858930e-003 2.93970807e-003 8.60921500e-005 0. 3.13235726e-003
      2.30771974e-002 4.41282332e-001 2.33355984e-001 7.72517989e-004
      4.27958928e-003 3.73595580e-003 1.04077137e-003 1.30643137e-003 0.
      8.35639313e-002 4.41282332e-001 1.15643263e-001 2.32532225e-003
      2.47511867e-004 6.06573885e-004 6.02645101e-004 2.27433932e-003
      4.98971529e-003 7.57752731e-002 4.41282332e-001 6.61188960e-002
      2.19263093e-004 2.48292671e-003 7.56431418e-003 6.37878999e-002
      1.23675093e-001 8.22263584e-002 1.27668202e-001 2.32407063e-001
      1.36007607e-001 9.31616426e-002 1.83425590e-001 5.96547090e-002
      1.32709011e-001 1.12998702e-001 1.86944038e-001 8.88255537e-002
      2.25187108e-001 1.27993882e-001 6.84840754e-002 2.08289176e-001
      1.82869792e-001 5.27376793e-002 3.52517702e-002 1.79544970e-001
      1.31352350e-001 2.62642920e-001 1.63005173e-001 2.62642920e-001
      1.60759866e-001 1.02759652e-001 1.30389348e-001 2.52601057e-001
      2.05131963e-001 5.48553243e-002 2.62642920e-001 2.05237493e-001
      1.92878887e-001 1.65132508e-001 2.42505386e-001</_>
    <_>
      7.88179561e-002 4.02103104e-002 6.40806630e-002 4.87136096e-002
      1.29771903e-001 2.45353922e-001 2.47324660e-001 5.81186339e-002
      1.73867494e-001 1.17990032e-001 1.50172427e-001 2.54901975e-001
      1.93050861e-001 1.70597881e-001 1.62101090e-001 2.13349149e-001
      4.66024550e-003 9.82312337e-002 1.04383662e-001 1.70270294e-001
      4.66212556e-002 5.27703241e-002 1.12510748e-001 1.85146034e-001
      2.54901975e-001 1.22020386e-001 2.54901975e-001 7.33233541e-002
      1.64754197e-001 2.06965521e-001 2.54901975e-001 1.82076707e-001
      2.54901975e-001 2.54901975e-001 1.37538295e-002 1.47638708e-001
      1.82765260e-001 2.18199402e-001 1.34929225e-001 1.08532012e-001
      9.40279737e-002 7.12702647e-002 6.61901757e-002 1.46779463e-001
      8.04800615e-002 1.26825035e-001 1.97297111e-001 2.00694829e-001
      1.55444652e-001 6.10730276e-002 5.21779768e-002 1.50051028e-001
      1.10171221e-001 9.10355896e-002 2.13128060e-001 2.47653410e-001
      1.00664154e-001 2.47653410e-001 2.47653410e-001 6.66744485e-002
      4.92459759e-002 1.49067953e-001 1.92876548e-001 1.77386194e-001
      2.47653410e-001 1.38207763e-001 2.47653410e-001 1.71047628e-001
      1.67655766e-001 1.61785692e-001 2.47653410e-001 2.17730552e-001
      9.47786774e-003 1.64051503e-001 2.48982504e-001 2.05444574e-001
      2.48982504e-001 5.15046529e-003 8.07384495e-003 2.87549123e-002
      2.49392688e-002 4.86290045e-002 2.48982504e-001 1.92801401e-001
      2.02763095e-001 2.48982504e-001 5.29456623e-002 1.66847289e-001
      1.34874001e-001 6.85783848e-002 1.06637262e-001 2.01582164e-001
      2.48982504e-001 2.48982504e-001 1.51064709e-001 4.56245095e-002
      1.74345244e-002 4.57576066e-002 6.85573742e-002 1.97105706e-001
      5.67983277e-002 1.28043264e-001 2.48982504e-001 2.32741266e-001
      2.18955219e-001 1.94451496e-001 2.48982504e-001 1.19320691e-001
      5.03462516e-002 1.60932437e-001 1.11379340e-001 2.28205040e-001
      2.14870691e-001 1.58095971e-001 4.41906527e-002 4.05315422e-002
      9.58798528e-002 2.56840527e-001 2.14317381e-001 1.12296835e-001
      1.86149478e-001 2.56840527e-001 2.02351734e-001 1.17231876e-001
      8.79710019e-002 1.87348574e-001 6.53919354e-002 2.03154266e-001
      2.56840527e-001 2.56840527e-001 1.14549764e-001 1.14051566e-001
      1.80442501e-002 5.84538914e-002 4.67359237e-002 2.56840527e-001
      2.19370335e-001 2.56840527e-001 2.56840527e-001 8.67085159e-002
      1.33971676e-001 2.41339207e-002 8.69274735e-002 9.34867784e-002
      1.75676003e-001 1.62250325e-001 1.59786224e-001 9.72911865e-002
      2.45090067e-001 1.71190113e-001 1.09793223e-001 1.31030101e-002
      5.62451407e-002 1.76989600e-001 4.37901430e-002 2.55099535e-001
      2.04174638e-001 2.55099535e-001 2.55099535e-001 2.41770104e-001
      3.36597003e-002 1.24832273e-001 1.23585634e-001 1.64015487e-001
      1.56733230e-001 2.04784915e-001 5.87975904e-002 7.14900494e-002
      2.02346638e-001 8.25172588e-002 3.67232524e-002 1.58131301e-001
      7.99506530e-002 2.55099535e-001 2.55099535e-001 1.73229411e-001
      2.55099535e-001 8.97988155e-002 1.19193107e-001 9.96200219e-002
      1.22946940e-001 9.19667035e-002 1.19852267e-001 1.76282406e-001
      2.37900496e-001 1.60190910e-001 5.56740910e-002 3.42542119e-002
      2.69228220e-002 7.37210885e-002 1.33695140e-001 1.48664951e-001
      2.87467301e-001 2.87467301e-001 9.83996615e-002 5.08828722e-002
      4.87020612e-002 1.96937546e-002 3.69099900e-002 6.50118962e-002
      2.24794105e-001 2.87467301e-001 1.81653082e-001 2.63530403e-001
      1.76051319e-001 3.22047248e-002 2.04648972e-002 1.35892667e-002
      4.35560457e-002 1.63490638e-001 2.87467301e-001 2.87467301e-001
      1.68195322e-001 2.87467301e-001 1.36522740e-001 1.33548290e-001
      5.35919517e-003 1.46355137e-001 1.58340007e-001 2.09838763e-001
      2.09633380e-001 1.34815887e-001 1.27211362e-001 7.54525736e-002
      2.08875984e-002 1.71888142e-003 1.35241225e-001 1.32533699e-001
      2.09642544e-001 2.64979213e-001 2.63647288e-001 1.80479333e-001
      8.41149762e-002 5.68839088e-002 2.91499048e-002 2.01316401e-001
      2.59589761e-001 2.64979213e-001 1.97824702e-001 8.63993168e-002
      8.24930146e-002 6.43309206e-002 3.61163877e-002 0. 2.15770811e-001
      2.31128410e-001 2.64979213e-001 2.64979213e-001 2.64979213e-001
      8.42931867e-002 5.98447509e-002 2.85931360e-002 1.20974667e-001
      1.48087382e-001 1.79448694e-001 1.02114424e-001 7.02776611e-002
      1.24971546e-001 2.05485761e-001 1.34936303e-001 3.91928479e-002
      2.43958816e-001 1.69161126e-001 1.68970615e-001 2.10248381e-001
      1.54467702e-001 1.12492263e-001 9.45038721e-002 3.91725264e-002
      1.71054035e-001 6.96992651e-002 8.16614479e-002 2.31558695e-001
      1.55446678e-001 2.65230983e-001 2.65230983e-001 1.95350811e-001
      1.06371552e-001 8.21371526e-002 1.51370555e-001 1.06722735e-001
      1.75280213e-001 1.60508394e-001 2.65230983e-001 2.65230983e-001
      2.57117271e-001 6.22714683e-003 1.21012434e-001 7.54248649e-002
      9.76132601e-002 4.17384505e-002 2.48623610e-001 1.40602216e-001
      9.55664888e-002 1.64346442e-001 3.56767848e-002 3.31187807e-002
      5.64055704e-002 1.24825798e-001 2.77545333e-001 2.79813617e-001
      2.55446613e-001 1.07443698e-001 2.56133318e-001 2.90587991e-002
      1.35392053e-002 6.00471199e-002 9.18970257e-002 2.94101276e-002
      1.94668189e-001 1.23243384e-001 2.79813617e-001 2.79813617e-001
      3.31296772e-002 1.39321787e-002 6.02763444e-002 9.26338062e-002
      9.14931670e-002 2.79813617e-001 2.79813617e-001 2.45125428e-001
