<?xml version="1.0"?>
<opencv_storage>
<my_svm type_id="opencv-ml-svm">
  <svm_type>C_SVC</svm_type>
  <kernel><type>RBF</type>
    <gamma>4.0000000000000001e-002</gamma></kernel>
  <C>10.</C>
  <term_criteria><epsilon>1.1920928955078125e-007</epsilon>
    <iterations>1000</iterations></term_criteria>
  <var_all>1152</var_all>
  <var_count>1152</var_count>
  <class_count>2</class_count>
  <class_labels type_id="opencv-matrix">
    <rows>1</rows>
    <cols>2</cols>
    <dt>i</dt>
    <data>
      -1 1</data></class_labels>
  <sv_total>52</sv_total>
  <support_vectors>
    <_>
      0. 0. 0. 0. 0. 0. 0. 0. 0. 0. 0. 0. 0. 0. 0. 0. 0. 0. 0. 0. 0. 0.
      0. 0. 0. 0. 0. 0. 0. 0. 0. 0. 0. 0. 0. 0. 0. 0. 0. 0. 0. 0. 0. 0.
      0. 0. 0. 0. 0. 0. 0. 0. 0. 0. 0. 0. 0. 0. 0. 0. 0. 0. 0. 0. 0. 0.
      0. 0. 0. 0. 0. 0. 0. 0. 0. 0. 0. 0. 0. 0. 0. 0. 0. 0. 0. 0. 0. 0.
      0. 0. 0. 0. 0. 0. 0. 0. 0. 0. 0. 0. 0. 0. 0. 0. 0. 0. 0. 0. 0. 0.
      0. 0. 0. 0. 0. 0. 0. 0. 0. 0. 0. 0. 0. 0. 0. 0. 0. 0. 0. 0. 0. 0.
      0. 0. 0. 0. 0. 0. 0. 0. 0. 0. 0. 0. 9.16649774e-002
      8.46362731e-004 1.92549497e-001 1.84463382e-001 2.10138634e-001
      9.80971009e-002 3.40890661e-002 4.53110412e-002 2.18138039e-001
      5.49188219e-002 1.20908968e-004 2.75070667e-002 2.63519101e-002
      2.61291683e-001 1.53877631e-001 2.04534382e-002 2.71866247e-002
      1.30882829e-001 2.45459750e-002 0. 3.02070916e-001 3.38476628e-001
      3.38476628e-001 3.38476628e-001 5.68151027e-002 7.55184069e-002
      9.58881602e-002 1.47275859e-002 0. 4.31529917e-002 8.00891146e-002
      3.38476628e-001 3.38476628e-001 3.40890661e-002 4.53110412e-002
      5.75328991e-002 0. 0. 0. 0. 1.29968841e-002 0. 0. 0. 0.
      2.04166919e-001 2.35127425e-003 4.11450490e-002 4.62775558e-001
      4.86768097e-001 0. 0. 0. 7.91702643e-002 0. 0. 0. 0.
      9.20718238e-002 0. 0. 0. 0. 8.18685964e-002 3.86856287e-003
      6.85750842e-002 4.86768097e-001 4.86768097e-001 1.87862609e-002 0.
      0. 8.82909633e-003 0. 0. 0. 0. 4.35481250e-001 3.66714001e-001
      1.71910167e-001 0. 0. 0. 0. 0. 0. 0. 0. 0. 0. 0. 0. 0. 0. 0.
      5.22522628e-001 5.22522628e-001 3.08294713e-001 0. 0. 0. 0. 0. 0.
      0. 0. 0. 0. 0. 5.53584024e-002 0. 1.75595999e-001 1.70258924e-001
      1.30383164e-001 2.92511005e-002 2.12798938e-002 2.78795883e-002
      1.33061394e-001 9.17223319e-002 0. 1.05357580e-001 1.02155350e-001
      2.98654884e-001 1.66527972e-001 3.54664922e-002 4.64659818e-002
      2.21227318e-001 1.39577193e-002 0. 2.43023485e-001 3.39733750e-001
      3.39733750e-001 1.53011143e-001 3.54664922e-002 4.64659818e-002
      5.91568351e-002 2.32628658e-002 0. 1.45814106e-001 3.24682683e-001
      3.39733750e-001 3.39733750e-001 5.91108166e-002 7.74432942e-002
      9.85947102e-002 0. 0. 0. 1.61777498e-004 4.98753071e-001
      2.28944802e-004 0. 0. 0. 0. 0. 0. 2.69629149e-004 4.98753071e-001
      3.27064045e-005 0. 0. 0. 0. 0. 0. 0. 4.98753071e-001 0. 0. 0. 0.
      0. 0. 0. 0. 4.98753071e-001 0. 0. 0. 0. 0. 0. 0. 0.
      8.48141685e-002 0. 0. 0. 0. 0. 0. 0. 2.53508013e-004
      6.97670043e-001 0. 0. 0. 0. 0. 0. 0. 0. 1.11153968e-001 0. 0. 0.
      0. 0. 0. 0. 0. 6.97670043e-001 0. 0. 0. 0. 0. 0. 0.
      2.80729641e-004 7.04615593e-001 0. 0. 0. 0. 0. 0. 0. 0. 0. 0. 0.
      0. 0. 0. 0. 0. 0. 7.04615593e-001 0. 0. 0. 0. 0. 0. 0. 0. 0. 0. 0.
      0. 0. 0. 0. 0. 4.20376200e-005 4.98752743e-001 2.10179962e-004 0.
      0. 0. 0. 0. 0. 2.94263329e-004 4.98752743e-001 1.26107974e-004 0.
      0. 0. 0. 0. 0. 0. 4.98752743e-001 8.47006042e-004 0. 0. 0. 0. 0.
      0. 0. 4.98752743e-001 8.73868237e-004 0. 0. 0. 0. 0. 0. 0.
      4.98726904e-001 2.71061086e-003 0. 0. 0. 0. 0. 0. 0.
      4.98726904e-001 4.51768562e-003 0. 0. 0. 0. 0. 0. 0.
      4.98726904e-001 4.51768562e-003 0. 0. 0. 0. 0. 0. 0.
      4.98726904e-001 7.52947619e-003 0. 0. 0. 0. 0. 0. 0.
      8.48104954e-002 0. 0. 0. 0. 0. 0. 0. 0. 6.97670639e-001 0. 0. 0.
      0. 0. 0. 0. 0. 1.11149147e-001 0. 0. 0. 0. 0. 0. 0. 0.
      6.97670639e-001 0. 0. 0. 0. 0. 0. 0. 0. 7.04615593e-001 0. 0. 0.
      0. 0. 0. 0. 0. 0. 0. 0. 0. 0. 0. 0. 0. 0. 7.04615593e-001 0. 0. 0.
      0. 0. 0. 0. 0. 0. 0. 0. 0. 0. 0. 0. 0. 0. 4.98753071e-001
      3.52834846e-004 0. 0. 0. 0. 0. 0. 0. 4.98753071e-001
      3.64025647e-004 0. 0. 0. 0. 0. 0. 0. 4.98753071e-001 0. 0. 0. 0.
      0. 0. 0. 0. 4.98753071e-001 0. 0. 0. 0. 0. 0. 0. 3.12184729e-003
      4.98743683e-001 0. 0. 0. 0. 0. 0. 0. 5.20307897e-003
      4.98743683e-001 0. 0. 0. 0. 0. 0. 0. 2.90490047e-004
      4.98743683e-001 3.88724642e-004 0. 0. 0. 0. 0. 0. 4.84150107e-004
      4.98743683e-001 6.47874433e-004 0. 0. 0. 0. 0. 0. 0.
      8.48104954e-002 0. 0. 0. 0. 0. 0. 0. 0. 6.97670639e-001 0. 0. 0.
      0. 0. 0. 0. 0. 1.11149147e-001 0. 0. 0. 0. 0. 0. 0. 0.
      6.97670639e-001 0. 0. 0. 0. 0. 0. 0. 0. 7.04615593e-001 0. 0. 0.
      0. 0. 0. 0. 0. 0. 0. 0. 0. 0. 0. 0. 0. 0. 7.04615593e-001 0. 0. 0.
      0. 0. 0. 0. 0. 0. 0. 0. 0. 0. 0. 0. 0. 1.94119907e-003
      4.98727471e-001 6.34473632e-004 0. 0. 0. 0. 0. 0. 5.85932238e-003
      4.98727471e-001 1.05745613e-003 0. 0. 0. 0. 0. 0. 4.72351443e-003
      4.98727471e-001 1.05745613e-003 0. 0. 0. 0. 0. 0. 6.02419022e-003
      4.98727471e-001 1.76242669e-003 0. 0. 0. 0. 0. 0. 7.27622025e-003
      4.98192608e-001 9.99479927e-003 0. 0. 0. 0. 0. 0. 3.11970431e-003
      4.98192608e-001 3.44514567e-003 0. 0. 0. 0. 0. 0. 2.77655069e-002
      4.98192608e-001 3.19629014e-002 0. 0. 0. 1.35245296e-004 0. 0.
      1.23692555e-002 4.98192608e-001 1.09948982e-002 0. 0.
      1.35245296e-004 0. 0. 0. 0. 8.48517641e-002 0. 0. 0. 0. 0. 0. 0.
      0. 6.97661221e-001 0. 0. 0. 0. 9.55740921e-004 0. 0. 0.
      1.11203238e-001 0. 0. 0. 9.55740921e-004 5.40047011e-004 0. 0.
      2.19968008e-003 6.97661221e-001 0. 0. 0. 5.40047011e-004 0. 0. 0.
      0. 7.04605818e-001 0. 0. 0. 0. 0. 0. 0. 0. 0. 0. 0. 0. 0.
      1.44097710e-003 0. 0. 0. 7.04605818e-001 0. 0. 0. 1.44097710e-003
      3.42116831e-003 0. 0. 0. 0. 0. 0. 0. 3.42116831e-003 0. 0. 0.
      2.66239862e-003 4.98506367e-001 1.01355242e-003 0. 0. 0. 0. 0. 0.
      8.80390219e-003 4.98506367e-001 3.74567416e-003 0. 0. 0.
      5.93187360e-005 0. 0. 4.49000951e-003 4.98506367e-001
      5.26338490e-003 0. 0. 5.93187360e-005 0. 0. 0. 2.77345926e-002
      4.98506367e-001 8.37681256e-003 0. 0. 0. 9.78174582e-002
      9.70016867e-002 8.75655338e-002 1.27893806e-001 1.78260982e-001
      2.56732672e-001 2.01875865e-001 6.97096065e-002 1.10514119e-001
      2.56732672e-001 2.56732672e-001 1.96515635e-001 2.32621744e-001
      1.58362538e-001 8.89183134e-002 7.14483783e-002 9.33807641e-002
      2.56732672e-001 1.56903807e-002 5.52939177e-002 1.18093342e-001
      2.13755533e-001 2.56732672e-001 1.65354013e-001 1.65400043e-001
      3.85387391e-002 6.05236925e-002 7.80160502e-002 1.56179443e-001
      2.43418753e-001 2.56732672e-001 2.56732672e-001 1.31811604e-001
      9.94703397e-002 3.91947404e-002 1.50269449e-001 3.10685337e-001
      8.48075189e-003 0. 0. 2.45233439e-003 7.25354417e-004
      1.19947137e-004 2.44759955e-002 3.10685337e-001 3.10685337e-001
      1.37177080e-001 7.63287023e-002 1.47158384e-001 1.67613551e-001
      9.73282233e-002 1.06767461e-001 1.93857566e-001 3.10685337e-001
      2.81569034e-001 1.07117936e-004 0. 4.33788373e-004 3.86575516e-003
      5.07748080e-003 8.39629851e-004 1.43795582e-002 2.62752861e-001
      2.62396932e-001 6.64036274e-002 8.27494860e-002 1.04604848e-001
      3.10685337e-001 1.08728580e-001 1.90303043e-001 1.52720317e-001
      2.64129251e-001 3.60553086e-001 7.95914009e-002 1.19692400e-001
      1.19343258e-001 4.01712507e-002 4.61180657e-002 0. 1.59677751e-002
      3.60553086e-001 3.60553086e-001 0. 1.87253361e-004 2.63916038e-004
      0. 0. 0. 2.28111050e-003 3.60553086e-001 2.54648596e-001
      4.77548465e-002 1.18495762e-001 2.04044163e-001 8.84084851e-002
      3.95037234e-002 2.38478999e-003 2.74099130e-002 2.11052343e-001
      3.60553086e-001 0. 1.31077354e-003 1.84741244e-003 8.82064342e-004
      0. 8.58924643e-004 4.08888841e-003 3.60553086e-001 2.54897565e-001
      1.16879493e-001 7.22567812e-002 1.77424520e-001 1.23552367e-001
      2.76262015e-001 2.33109325e-001 1.31661505e-001 1.78776011e-001
      1.66670352e-001 1.80963397e-001 7.38090649e-002 2.76262015e-001
      2.76262015e-001 1.70559719e-001 9.89888906e-002 3.39823253e-002
      5.34407096e-003 1.06406704e-001 8.53892565e-002 4.50420305e-002
      1.88069791e-001 2.76262015e-001 2.76262015e-001 1.02785796e-001
      6.39123023e-002 5.09307981e-002 1.13095522e-001 1.18988581e-001
      3.07000671e-002 1.41622141e-001 2.76262015e-001 2.76262015e-001
      3.71454582e-002 1.12852734e-002 7.63438642e-004 3.16296034e-002 0.
      0. 0. 1.82023406e-001 1.42026857e-001 3.69303584e-001
      6.89488128e-002 8.84392709e-002 3.69303584e-001 1.32947729e-003
      3.97828780e-003 0. 1.42706737e-001 2.41480485e-001 3.69303584e-001
      3.69303584e-001 3.69303584e-001 2.04872880e-002 0. 0. 0.
      1.11786770e-002 5.13682142e-003 2.71618329e-002 7.78740691e-003
      2.86029559e-002 2.60203540e-001 0. 0. 0. 2.28543952e-002
      8.56136903e-003 4.52697203e-002 5.45118451e-002 3.05448979e-001
      4.25982714e-001 0. 0. 0. 4.13821224e-004 0. 5.74564037e-004
      3.17074737e-004 4.25982714e-001 4.25982714e-001 1.38646320e-001
      6.35441765e-002 7.73012685e-003 2.72581093e-002 0. 4.02194820e-003
      2.21952307e-003 4.25982714e-001 2.19059303e-001 0. 0. 0.
      9.82529833e-004 0. 0. 0. 2.19778225e-001 2.91865855e-001
      7.96441361e-003 3.57439509e-003 0. 1.01958830e-002 0. 0. 0.
      2.53294557e-001 4.32530075e-001 1.50983408e-003 1.12572999e-003
      2.20543123e-003 3.57275596e-003 8.87175789e-004 1.57283656e-002
      1.80017613e-002 4.32530075e-001 4.32530075e-001 4.61029267e-004
      1.00326841e-004 2.05216915e-004 0. 0. 0. 0. 4.32530075e-001
      2.04826564e-001 7.80755607e-003 2.89776968e-003 3.67571856e-003
      1.05424703e-003 0. 1.93288794e-003 2.24716333e-003 2.12422535e-001
      2.82838702e-001 2.79606902e-003 1.67211401e-004 3.42028186e-004 0.
      0. 2.04982949e-004 6.85017003e-005 2.82101065e-001 3.40996116e-001
      3.40996116e-001 3.40996116e-001 3.40996116e-001 3.40996116e-001 0.
      4.10260633e-003 4.54726716e-004 3.40996116e-001 4.63425070e-002
      9.10800621e-002 8.69507045e-002 2.50642508e-001 3.16711336e-001 0.
      0. 0. 2.04568673e-002 2.53327489e-001 9.18329433e-002
      5.68629196e-003 7.02293683e-003 5.69417849e-002 0. 0. 0.
      1.99392289e-001 1.67266745e-002 1.30114378e-002 4.90485458e-004
      1.00327667e-003 3.23498659e-002 0. 0. 0. 1.30287269e-002</_>
    <_>
      0. 0. 0. 0. 0. 0. 0. 0. 0. 0. 0. 0. 0. 0. 0. 0. 0. 0. 0. 0. 0. 0.
      0. 0. 0. 0. 0. 0. 0. 0. 0. 0. 0. 0. 0. 0. 0. 0. 0. 0. 0. 0. 0. 0.
      0. 0. 0. 0. 0. 0. 0. 0. 0. 0. 0. 0. 0. 0. 0. 0. 0. 0. 0. 0. 0. 0.
      0. 0. 0. 0. 0. 0. 0. 0. 0. 0. 0. 0. 0. 0. 0. 0. 0. 0. 0. 0. 0. 0.
      0. 0. 0. 0. 0. 0. 0. 0. 0. 0. 0. 0. 0. 0. 0. 0. 0. 0. 0. 0. 0. 0.
      0. 0. 0. 0. 0. 0. 0. 0. 0. 0. 0. 0. 0. 0. 0. 0. 0. 0. 0. 0. 0. 0.
      0. 0. 0. 0. 0. 0. 0. 0. 0. 0. 0. 0. 4.88161221e-002 0. 0. 0. 0. 0.
      0. 0. 4.88161221e-002 1.83466207e-002 0. 0. 0. 0. 0. 0. 0.
      1.83466207e-002 5.05819738e-001 4.36721221e-002 1.30683139e-001 0.
      3.45746309e-001 0. 2.69525766e-001 9.00707543e-002 5.05819738e-001
      1.44878641e-001 0. 0. 0. 2.84338415e-001 0. 3.45730364e-001
      1.15537010e-001 1.44878641e-001 0. 0. 0. 0. 8.47380236e-003 0. 0.
      0. 0. 6.02190616e-003 2.67538317e-002 8.00573602e-002 0.
      3.07593286e-001 0. 0. 0. 6.02190616e-003 0. 3.28248157e-003
      9.82239842e-003 0. 3.64393890e-002 0. 3.75539577e-003
      1.25498720e-003 0. 1.00365113e-002 6.91799447e-002 2.07011968e-001
      3.21011633e-001 8.51579964e-001 0. 4.43550572e-002 9.73993987e-002
      2.71472912e-002 3.42651606e-001 1.04765117e-001 6.58377036e-002
      5.81172816e-002 1.81970447e-002 3.91924143e-004 0. 4.47567290e-004
      3.42651606e-001 3.42651606e-001 6.73033239e-004 0. 2.95140228e-004
      1.87012944e-007 0. 0. 1.46949998e-004 3.42651606e-001
      3.42651606e-001 6.79502860e-002 1.19190387e-001 2.02911869e-001
      1.37800679e-001 3.12143732e-002 4.51923208e-003 3.35015170e-003
      2.75097370e-001 3.42651606e-001 1.25724694e-003 4.05542145e-004
      2.06598174e-003 2.06492934e-003 8.61859124e-004 4.21348697e-004
      2.01009121e-003 3.42651606e-001 2.81508327e-001 0. 2.57885130e-003
      5.39297983e-003 0. 9.09863319e-003 1.11529287e-002 6.03937823e-003
      2.81508327e-001 2.81508327e-001 3.13051336e-004 1.49480421e-002
      1.06419802e-001 7.12157264e-002 1.24312289e-001 9.85191911e-002
      4.22756560e-002 2.81508327e-001 2.81508327e-001 6.39708107e-003
      6.13768026e-002 6.41344711e-002 6.47772476e-002 1.56790018e-002
      2.95719039e-002 3.67456046e-003 2.81508327e-001 2.77079344e-001
      4.36283089e-002 2.81508327e-001 2.81508327e-001 2.81508327e-001
      1.42832607e-001 2.11086854e-001 6.31245822e-002 2.81508327e-001
      1.04418742e-002 4.18535471e-002 1.35162324e-001 1.19175859e-001
      3.82955134e-001 3.82955134e-001 7.87079558e-002 1.59219250e-001
      7.03367516e-002 3.95697355e-003 3.12471122e-004 9.35032731e-004
      2.18932648e-004 2.19748870e-001 2.09055260e-001 1.22126965e-002
      2.45592762e-002 1.32478047e-002 3.99801601e-003 2.71858275e-003
      4.73846868e-002 1.64327472e-001 3.82955134e-001 3.82955134e-001
      4.41500805e-002 2.20537763e-002 3.99801601e-003 1.72257994e-003
      5.20785223e-004 1.55838800e-003 1.88360247e-003 3.82955134e-001
      2.59386003e-001 8.93689319e-003 6.17995346e-003 2.25867424e-003
      9.44627635e-003 3.21565632e-004 9.62243183e-004 0. 2.71122474e-002
      0. 1.82668882e-004 6.10448915e-005 9.44627635e-003 6.53123781e-002
      6.27750009e-002 4.39073741e-002 5.27909458e-001 5.27909458e-001
      4.84999828e-003 1.27868215e-003 4.27314197e-004 6.96272496e-003
      1.61727816e-002 1.62924098e-005 4.87529105e-005 0. 7.98383877e-002
      0. 1.09594082e-003 3.66245105e-004 1.61727816e-002 9.50013101e-003
      8.91844835e-003 6.12463150e-003 3.74549896e-001 5.27909458e-001
      7.40424357e-003 1.13068672e-003 3.77856602e-004 9.50013101e-003
      3.64419222e-001 2.75954488e-003 1.76765083e-003 1.05801988e-002
      1.94427907e-001 1.43964082e-001 1.57836080e-001 1.81818441e-001
      3.64419222e-001 3.64419222e-001 1.40725504e-004 1.23679661e-003
      1.51751318e-003 4.36359784e-003 0. 4.76502394e-003 2.32237242e-002
      3.64419222e-001 1.33861914e-001 1.34544540e-003 4.02608607e-003
      1.70819424e-002 3.64419222e-001 2.05044553e-001 1.49240149e-002
      1.76409595e-002 1.71453401e-001 2.50009179e-001 1.21946132e-003
      3.64909368e-003 2.04982539e-003 2.74498463e-002 0. 0.
      2.30571697e-003 2.48317942e-001 2.36601248e-001 9.29578394e-002
      1.31754160e-001 1.53184310e-001 9.54537913e-002 3.47358547e-003
      3.33696778e-004 9.97668505e-003 2.41758794e-001 6.75521865e-002
      7.05958903e-002 3.55657578e-001 3.55657578e-001 3.55657578e-001
      1.98198739e-003 3.87076034e-005 2.00554021e-002 8.51720795e-002
      6.71005845e-002 1.08616324e-002 7.08999531e-003 1.85349062e-001
      3.55657578e-001 4.55425633e-003 4.39204799e-004 1.56902010e-003
      6.89202920e-002 1.71057712e-002 6.51697954e-003 4.96299677e-002
      3.55657578e-001 3.55657578e-001 5.13464725e-003 0. 2.37040874e-003
      2.32414603e-002 9.01152525e-005 0. 0. 5.00788260e-003
      4.98729229e-001 5.15241548e-003 2.34321960e-005 7.83062842e-006
      9.01152525e-005 0. 0. 0. 4.19182208e-004 4.98729229e-001
      2.31428491e-003 1.64025376e-004 5.48143980e-005 0. 7.59666182e-006
      1.87846836e-005 5.62109381e-005 2.25943327e-003 4.98729229e-001
      4.97531891e-003 0. 0. 7.59666182e-006 0. 1.31492779e-004
      3.93476541e-004 1.23084325e-003 4.98729229e-001 2.60244403e-003 0.
      0. 0. 0. 0. 0. 0. 6.48378581e-002 0. 1.82254080e-004
      6.09062699e-005 0. 0. 0. 0. 2.91890837e-003 7.00554490e-001
      7.90113769e-003 3.03756795e-004 1.01510457e-004 0. 0. 0. 0. 0.
      8.43053460e-002 0. 0. 0. 0. 0. 0. 0. 3.01144971e-003
      7.00554490e-001 7.87674170e-003 0. 0. 0. 0. 0. 0. 2.20598001e-003
      6.97997153e-001 3.14947497e-003 0. 0. 0. 0. 0. 0. 0.
      8.26957673e-002 0. 0. 0. 0. 0. 0. 0. 3.89845297e-003
      6.97997153e-001 0. 0. 0. 0. 0. 0. 0. 0. 1.08460255e-001 0. 0. 0.
      0. 0. 0. 0. 0. 4.98748511e-001 1.67119491e-004 0. 0. 0.
      1.93509739e-004 0. 0. 0. 4.98748511e-001 1.63560675e-003 0. 0.
      1.93509739e-004 0. 0. 0. 0. 4.98748511e-001 0. 0. 0. 0.
      4.21562581e-004 0. 0. 0. 4.98748511e-001 3.90693638e-003 0. 0.
      4.21562581e-004 4.90595994e-005 7.90021750e-006 2.36404667e-005
      9.34891310e-003 4.98670548e-001 4.77670692e-003 0. 0.
      4.90595994e-005 0. 5.53015234e-005 1.65483245e-004 4.80325939e-003
      4.98670548e-001 1.21855282e-003 0. 0. 0. 1.41239667e-004 0. 0.
      1.22262491e-002 4.98670548e-001 4.57630912e-003 0. 0.
      1.41239667e-004 0. 0. 0. 5.01508452e-003 4.98670548e-001 0. 0. 0.
      0. 0. 0. 0. 0. 6.43475503e-002 0. 0. 0. 0. 0. 0. 0.
      7.62466155e-003 7.00521886e-001 1.52684702e-003 0. 0. 0. 0. 0. 0.
      0. 8.52238983e-002 0. 0. 0. 0. 0. 0. 0. 7.86639377e-003
      7.00521886e-001 4.39570192e-003 0. 0. 0. 0. 0. 0. 6.78352430e-004
      6.97928667e-001 9.37727746e-003 0. 0. 0. 0. 0. 0. 0.
      8.19187686e-002 0. 0. 0. 0. 0. 0. 0. 0. 6.97928667e-001
      1.49994073e-002 0. 0. 0. 0. 0. 0. 0. 1.08628027e-001 0. 0. 0. 0.
      0. 0. 0. 0. 4.98748779e-001 0. 0. 0. 0. 1.92879394e-004 0. 0. 0.
      4.98748779e-001 1.35263044e-003 0. 0. 1.92879394e-004 0. 0. 0. 0.
      4.98748779e-001 0. 0. 0. 0. 3.59210622e-004 0. 0. 0.
      4.98748779e-001 3.89414304e-003 0. 0. 3.59210622e-004
      1.58383598e-004 0. 0. 5.82840946e-003 4.98720169e-001
      2.15570652e-003 0. 0. 1.58383598e-004 0. 0. 0. 1.95880118e-003
      4.98720169e-001 4.98290872e-004 0. 0. 0. 2.02764742e-004 0. 0.
      4.20845207e-003 4.98720169e-001 7.72162247e-003 0. 0.
      2.02764742e-004 4.91795945e-005 0. 0. 6.01207488e-004
      4.98720169e-001 3.35108279e-003 0. 0. 4.91795945e-005 0. 0. 0. 0.
      6.49780780e-002 0. 0. 0. 0. 0. 0. 0. 0. 7.00571239e-001 0. 0. 0.
      0. 7.94007152e-004 1.45386250e-004 4.35049413e-004 0.
      8.47471654e-002 0. 0. 0. 7.94007152e-004 2.22591349e-004
      2.42310431e-004 7.25082471e-004 0. 7.00571239e-001 0. 0. 0.
      2.22591349e-004 0. 0. 0. 1.99958668e-004 6.97866619e-001 0. 0. 0.
      0. 0. 0. 0. 0. 8.36101025e-002 0. 0. 0. 0. 0. 0. 0. 0.
      6.97866619e-001 4.79704497e-004 0. 0. 0. 0. 0. 0. 0.
      1.09575950e-001 0. 0. 0. 0. 0. 0. 0. 0. 4.98747319e-001 0. 0. 0.
      0. 2.42084963e-004 0. 0. 1.02844299e-003 4.98747319e-001
      1.35399320e-003 0. 0. 2.42084963e-004 0. 0. 0. 0. 4.98747319e-001
      0. 0. 0. 0. 2.74280581e-004 0. 0. 0. 4.98747319e-001
      4.46413830e-003 0. 0. 2.74280581e-004 4.36721183e-002
      1.12857725e-002 2.78503485e-002 2.08187446e-001 2.99414635e-001
      1.47316590e-001 6.28408119e-002 1.53120514e-002 5.06961383e-002
      1.55103311e-001 1.89401023e-002 5.02649462e-003 1.08257242e-001
      2.99414635e-001 1.60802361e-002 1.53372390e-003 1.11042177e-002
      1.74755201e-001 2.52946168e-001 1.52596176e-001 2.06556007e-001
      2.43371516e-001 2.79073656e-001 1.30739436e-001 2.38430053e-001
      1.94922358e-001 1.16708912e-001 2.99414635e-001 2.06280038e-001
      1.38810098e-001 1.20792136e-001 1.47587433e-001 1.14901001e-002
      7.75617501e-003 7.57147297e-002 2.99414635e-001 1.85679674e-001
      1.59619201e-003 3.97548079e-004 5.58903627e-003 1.77321844e-002
      4.35261434e-004 2.12792133e-004 3.46613606e-003 1.87376067e-001
      1.77258000e-001 2.68835723e-002 6.62580016e-004 4.15728465e-002
      3.50667238e-001 1.16145946e-001 5.86133543e-003 1.92097165e-002
      1.51414096e-001 3.50667238e-001 2.10729704e-004 3.85279331e-004
      3.41622485e-003 3.21014039e-003 0. 0. 2.61528865e-002
      3.50667238e-001 3.50667238e-001 2.02108026e-001 3.15734856e-002
      5.27704507e-002 3.50667238e-001 1.29094124e-001 4.47608382e-002
      2.32483357e-001 3.50667238e-001 0. 2.51267164e-004 2.84604859e-002
      4.74286526e-001 4.74286526e-001 3.04893544e-003 0. 0. 0. 0.
      3.58953112e-005 1.07412459e-004 0. 8.20073560e-002 0. 0. 0. 0. 0.
      2.83790100e-002 2.93210417e-001 4.74286526e-001 4.74286526e-001 0.
      0. 0. 0. 0. 4.23960417e-004 1.26865110e-003 0. 3.38800997e-002 0.
      0. 0. 0. 0. 0. 0. 1.10175181e-003 3.23899090e-001 1.70505479e-001
      4.74731391e-003 3.77553632e-003 1.67819683e-003 6.41679810e-003 0.
      1.13334268e-001 2.67614007e-001 3.23899090e-001 3.23899090e-001
      2.20452081e-002 2.26905867e-002 1.81641765e-002 1.02906609e-002 0.
      0. 1.16819552e-004 2.51397073e-001 2.49353111e-001 7.88042229e-003
      2.34919880e-002 3.02200150e-002 7.59543255e-002 9.30104114e-004
      3.23899090e-001 2.15847671e-001 3.23899090e-001 3.23899090e-001
      3.75989601e-002 1.58574343e-001 2.15459809e-001 4.85874750e-002
      2.71956529e-003 2.38294990e-004 1.06856534e-002 2.95538694e-001
      2.97765940e-001 2.97765940e-001 1.18533149e-001 9.72038433e-002
      2.97765940e-001 1.91074871e-002 3.97158321e-004 7.20133306e-003
      8.34250152e-002 2.11063743e-001 2.92516559e-001 1.83951825e-001
      2.97765940e-001 9.10508856e-002 3.88509303e-004 0. 0.
      7.00814873e-002 6.44273162e-002 2.40357339e-001 1.12192437e-001
      1.90017894e-001 2.97765940e-001 2.71956529e-003 0. 0.
      1.50423823e-002 3.83582823e-002 1.73156381e-001 1.57726184e-001
      2.97765940e-001 3.19722384e-001 3.54148238e-003 3.65870888e-004
      1.05328171e-003 1.93138723e-004 2.18656816e-004 2.73456186e-004
      1.99834205e-004 3.19722384e-001 3.19722384e-001 9.92772430e-002
      2.25113988e-001 2.74748653e-001 9.08624455e-002 6.26575947e-003
      4.55760281e-004 1.52307097e-004 3.19722384e-001 3.19722384e-001
      1.96349667e-003 8.41198256e-004 0. 6.06829017e-005 0. 0. 0.
      3.19722384e-001 3.19722384e-001 1.29558846e-001 1.22032590e-001
      4.94713485e-002 2.37501450e-002 1.97016099e-003 0. 5.40761335e-004
      3.19722384e-001 8.63553584e-003 4.85852510e-002 1.45385593e-001 0.
      7.48937070e-001 0. 4.54630032e-002 1.51929390e-002 8.63553584e-003
      0. 0. 0. 0. 5.43447398e-002 0. 0. 0. 0. 3.30869965e-002
      5.08497730e-002 1.52161926e-001 0. 6.00334704e-001 0.
      9.52992067e-002 3.18473391e-002 3.30869965e-002 0. 0. 0. 0.
      6.55269399e-002 0. 0. 0. 0. 1.05257504e-001 0. 0. 0.
      2.83259928e-001 0. 1.35495543e-001 4.52803485e-002 1.05257504e-001
      5.43017030e-001 5.56509309e-002 1.66528806e-001 0. 2.12207541e-001
      0. 3.20904702e-001 1.07240982e-001 5.43017030e-001 2.83754859e-002
      0. 0. 0. 2.24435423e-002 0. 7.06009641e-002 2.35936623e-002
      2.83754859e-002 1.68735072e-001 3.33905593e-002 9.99172926e-002 0.
      1.34661254e-002 0. 1.17668286e-001 3.93227749e-002 1.68735072e-001</_>
    <_>
      0. 0. 0. 0. 0. 0. 0. 0. 0. 0. 0. 0. 0. 0. 0. 0. 0. 0. 0. 0. 0. 0.
      0. 0. 0. 0. 0. 0. 0. 0. 0. 0. 0. 0. 0. 0. 0. 0. 0. 0. 0. 0. 0. 0.
      0. 0. 0. 0. 0. 0. 0. 0. 0. 0. 0. 0. 0. 0. 0. 0. 0. 0. 0. 0. 0. 0.
      0. 0. 0. 0. 0. 0. 0. 0. 0. 0. 0. 0. 0. 0. 0. 0. 0. 0. 0. 0. 0. 0.
      0. 0. 0. 0. 0. 0. 0. 0. 0. 0. 0. 0. 0. 0. 0. 0. 0. 0. 0. 0. 0. 0.
      0. 0. 0. 0. 0. 0. 0. 0. 0. 0. 0. 0. 0. 0. 0. 0. 0. 0. 0. 0. 0. 0.
      0. 0. 0. 0. 0. 0. 0. 0. 0. 0. 0. 0. 8.89337733e-002
      2.61895433e-002 1.57328299e-003 0. 3.83989178e-002 0. 0. 0.
      1.10564634e-001 1.23579716e-002 0. 0. 0. 2.09483579e-002 0. 0. 0.
      1.55554283e-002 3.94434541e-001 1.46154925e-001 2.08310157e-001
      3.46540838e-001 4.14563954e-001 0. 0. 2.73439884e-001
      4.14563954e-001 5.55622466e-002 0. 0. 0. 4.14563954e-001 0. 0.
      3.90628427e-002 1.93217188e-001 0. 0. 0. 0. 0. 0. 0. 0. 0. 0. 0.
      0. 0. 0. 0. 0. 0. 0. 0. 0. 0. 0. 0. 0. 0. 0. 0. 0. 0. 0. 0. 0. 0.
      0. 0. 0. 0. 0. 0. 0. 0. 0. 0. 0. 0. 0. 0. 0. 0. 0. 0. 0. 0. 0. 0.
      0. 0. 0. 0. 0. 0. 0. 0. 0. 0. 0. 0. 0. 0. 0. 0. 0. 0. 0. 0. 0. 0.
      0. 0. 0. 0. 0. 0. 0. 0. 0. 0. 0. 0. 0. 0. 0. 0. 0. 0. 0. 0. 0. 0.
      0. 0. 0. 0. 0. 0. 0. 0. 0. 1.18452626e-005 0. 1.32320402e-002
      1.70394748e-001 4.44250673e-001 3.64165187e-001 1.41834039e-002 0.
      1.18452626e-005 0. 0. 0. 1.45327998e-003 4.27671522e-001
      1.86506525e-001 2.02620076e-003 0. 0. 1.39904689e-004 0. 0.
      7.05969632e-002 4.44250673e-001 1.20384701e-001 0. 0.
      1.39904689e-004 0. 0. 0. 7.96751026e-003 4.44250673e-001
      6.50056824e-002 0. 0. 0. 0. 0. 0. 0. 0. 0. 0. 0. 0. 0. 0. 0. 0. 0.
      0. 0. 0. 0. 0. 0. 0. 0. 0. 0. 0. 0. 0. 0. 0. 0. 0. 0. 0. 0. 0. 0.
      0. 0. 0. 0. 0. 0. 0. 0. 0. 0. 0. 0. 0. 0. 0. 0. 0. 0. 0. 0. 0. 0.
      0. 0. 0. 0. 0. 0. 0. 0. 0. 0. 0. 0. 0. 0. 0. 0. 0. 0. 0. 0. 0. 0.
      0. 0. 0. 0. 0. 0. 0. 0. 0. 0. 0. 0. 0. 0. 0. 0. 0. 0. 0. 0. 0. 0.
      0. 0. 0. 0. 0. 0. 1.67428181e-002 0. 2.20315158e-003
      3.30564141e-001 3.30564141e-001 2.53289696e-002 2.45364499e-005
      7.65481871e-003 3.23821278e-003 6.84979558e-002 4.90630919e-005
      8.40664085e-004 1.97912037e-001 3.30564141e-001 2.28081644e-002
      4.08940796e-005 1.46270627e-002 4.43351716e-002 2.22517222e-001
      5.70104532e-002 2.02445894e-001 3.30564141e-001 3.30564141e-001
      1.32828563e-001 4.08940796e-005 1.23609658e-002 5.04336767e-002
      3.30564141e-001 9.29442570e-002 6.90949708e-002 1.70145616e-001
      1.42705023e-001 8.35493207e-002 6.81568054e-005 2.08686125e-002
      3.30564141e-001 1.30004182e-001 2.43517407e-003 0. 0. 0.
      2.40226233e-004 1.17442636e-004 1.97216542e-003 1.17870614e-001
      9.65157673e-002 7.01072207e-003 0. 0. 1.39592225e-002
      2.83731776e-003 4.54491610e-003 2.13471223e-002 1.38451353e-001
      4.00178283e-001 3.47882014e-004 0. 0. 0. 6.27006963e-003
      1.15717165e-002 6.03633411e-002 4.00178283e-001 4.00178283e-001
      1.00153172e-003 0. 0. 2.04595663e-002 3.23093683e-001
      1.63235381e-001 4.00178283e-001 4.00178283e-001 1.18956372e-001
      5.48284547e-003 7.04187667e-004 1.22784998e-003 1.27515162e-003 0.
      0. 5.25945053e-003 1.05262101e-001 1.55422494e-001 0. 0. 0. 0. 0.
      0. 1.97666604e-003 1.56874463e-001 4.71801013e-001 1.59833863e-001
      3.88779901e-002 6.14769831e-002 1.63323164e-003 0. 0.
      7.51350250e-004 4.71801013e-001 4.71801013e-001 0. 0. 0. 0. 0. 0.
      2.82380846e-004 4.71801013e-001 1.21622860e-001 5.25034266e-003 0.
      0. 5.23188291e-003 9.43443738e-004 3.32828029e-003 8.12033098e-003
      1.43226057e-001 4.87825982e-002 4.06256830e-003 0. 0.
      2.47964803e-002 1.57240615e-003 1.43760908e-002 1.33745130e-002
      9.97938365e-002 3.68345827e-001 7.50049017e-004 0. 0.
      1.28995767e-002 1.07429706e-001 7.20299557e-002 2.46711254e-001
      3.68345827e-001 3.60265851e-001 5.80366876e-004 0. 0.
      1.45595178e-001 3.68345827e-001 2.00941354e-001 3.68345827e-001
      3.68345827e-001 4.02743649e-003 9.26008150e-002 3.10550064e-001
      3.10550064e-001 3.10550064e-001 1.25084922e-001 9.74866450e-002
      1.25907063e-001 6.96705207e-002 2.37913635e-002 1.56184584e-002
      1.04652576e-001 2.14833260e-001 3.10550064e-001 5.45424856e-002
      2.58224667e-003 5.01703564e-003 2.33881064e-002 2.01917104e-002
      4.35631573e-002 3.10550064e-001 3.10550064e-001 3.10550064e-001
      3.10550064e-001 1.40876010e-001 6.00437969e-002 1.68127138e-002
      3.80891040e-002 1.68989338e-002 7.53331482e-002 1.04089648e-001
      2.40641564e-001 7.12655261e-002 1.40890609e-002 1.77919585e-002
      4.07656804e-002 5.57201952e-002 1.08085349e-002 1.14656473e-002
      2.24490780e-002 2.34716665e-002 1.12895695e-002 8.23000260e-003
      1.52683689e-003 5.40565513e-002 1.14170276e-001 2.23040283e-002
      7.09805489e-002 6.99975938e-002 4.79592770e-001 4.79592770e-001
      2.01052930e-002 2.47317599e-003 4.34697904e-002 6.05027229e-002
      1.46273372e-003 8.87482520e-003 4.11256440e-002 1.18232984e-002
      1.64440982e-002 4.06513270e-003 1.08145755e-002 5.48374653e-002
      9.47372094e-002 1.04702674e-002 1.54676549e-002 2.02024445e-001
      4.79592770e-001 4.55785722e-001 1.15896193e-002 2.84209810e-002
      6.38768077e-002 1.47077546e-001 3.57148573e-002 5.69982864e-002
      3.68822634e-001 3.68822634e-001 8.40115249e-002 4.06250022e-002
      1.20994695e-001 1.20505281e-001 2.82842934e-001 1.22005083e-002
      4.36212402e-003 3.59790982e-003 1.23811634e-002 1.41328722e-002
      1.92548260e-002 2.81030182e-002 3.32175970e-001 1.44791067e-001
      5.53213432e-002 9.83508024e-003 2.35951468e-001 3.68822634e-001
      1.20634601e-001 3.86831835e-002 1.49572104e-001 1.54665023e-001
      3.09886426e-001 1.88719351e-002 6.23160566e-004 5.13987092e-004
      8.35538730e-002 2.95813307e-002 3.72756571e-002 5.52936681e-002
      2.85196543e-001 1.24520119e-002 4.64362511e-003 2.41411012e-003
      5.93080893e-002 1.37435257e-001 8.40447098e-002 1.21772867e-002
      2.76965206e-004 1.00969505e-002 1.60436134e-003 2.36525643e-003
      1.07121794e-002 2.79212385e-001 4.35868740e-001 4.35868740e-001
      2.84705702e-002 1.66179147e-004 7.36904622e-004 1.00461747e-002
      2.16654758e-003 2.09259950e-002 2.15530917e-001 2.31101453e-001
      3.70137431e-002 1.26719719e-003 1.49217853e-003 1.62082929e-002
      7.18596217e-004 3.09506810e-004 1.29325449e-001 4.35868740e-001
      4.35868740e-001 9.02348384e-002 7.60318362e-004 8.95307167e-004
      3.62690305e-003 4.06429291e-001 0. 2.88219191e-004 5.89547621e-004
      4.34024446e-002 1.21519759e-001 7.29728565e-002 2.67869681e-001
      4.06429291e-001 4.06429291e-001 0. 1.72931526e-004 3.53728567e-004
      3.96739546e-004 2.43871403e-003 4.14430536e-003 3.76899354e-002
      4.06429291e-001 1.62026346e-001 0. 2.01753434e-003 4.12683375e-003
      7.10516609e-003 5.80211310e-003 6.28038915e-003 2.15570703e-002
      2.04807967e-001 2.96180755e-001 0. 1.21052063e-003 2.47609988e-003
      3.03677493e-003 0. 0. 4.33242088e-003 2.88893104e-001
      4.08061832e-001 0. 0. 0. 9.35732678e-004 5.88040333e-004
      2.87483243e-004 0. 4.08061832e-001 4.08061832e-001 2.96407729e-001
      6.21253066e-002 2.11264547e-002 1.26410718e-003 3.52824223e-004
      1.72489948e-004 0. 4.08061832e-001 2.17825070e-001 3.48917209e-003
      0. 0. 7.83086102e-003 4.11628280e-003 2.01238273e-003 0.
      2.21358120e-001 2.79146582e-001 2.58696694e-002 0. 0.
      1.09833051e-002 2.46976968e-003 1.20742957e-003 0. 2.49874949e-001
      4.33108240e-001 0. 2.79716885e-004 5.72156277e-004 9.43952356e-004
      3.37549020e-003 9.62790381e-003 4.55952585e-002 4.33108240e-001
      4.33108240e-001 0. 1.67830134e-004 3.43293766e-004 1.17144838e-003
      0. 4.57589718e-004 1.52918845e-004 4.33108240e-001 2.00052321e-001
      2.30816868e-003 1.95801817e-003 4.00509406e-003 8.37124605e-003 0.
      1.92187668e-003 7.67088914e-003 2.16619954e-001 2.78311104e-001
      3.84694780e-003 1.17481092e-003 2.40305625e-003 8.45207833e-003 0.
      3.20312777e-003 3.10738268e-003 2.80148327e-001 3.40545714e-001
      2.38827795e-001 1.65378839e-001 5.24794683e-002 6.27031103e-002
      7.53140892e-004 3.68198176e-004 0. 3.40545714e-001 3.40545714e-001
      3.40545714e-001 2.75631428e-001 1.68435752e-001 3.40545714e-001
      4.51884553e-004 2.20918912e-004 0. 2.42704988e-001 2.69222528e-001
      3.14897373e-002 4.50332789e-003 0. 1.25240833e-002 5.27198659e-003
      2.57738726e-003 0. 2.31292754e-001 1.48574919e-001 4.77161668e-002
      7.50554632e-003 0. 5.37943058e-002 3.16319172e-003 1.54643226e-003
      0. 8.90034735e-002 0. 0. 0. 0. 0. 0. 0. 0. 0. 0. 0. 0. 0. 0. 0. 0.
      0. 0. 0. 0. 0. 0. 0. 0. 0. 0. 0. 0. 0. 0. 0. 0. 0. 0. 0. 0. 0. 0.
      0. 0. 0. 0. 0. 0. 0. 0. 0. 0. 0. 0. 0. 0. 0. 0. 0. 0. 0. 0. 0. 0.
      0. 0. 0. 0. 0. 0. 0. 0. 0. 0. 0. 0. 0. 0. 0. 0. 0. 0. 0. 0. 0. 0.
      0. 0. 0. 0. 0. 0. 0. 0. 0. 0. 0. 0. 0. 0. 0. 0. 0. 0. 0. 0. 0. 0.
      0. 0. 0. 0. 0. 0. 0. 0. 0. 0. 0. 0. 0. 0. 0. 0. 0. 0. 0. 0. 0. 0.
      0. 0. 0. 0. 0. 0. 0. 0. 0. 0. 0. 0. 0. 0. 0. 0. 0. 0. 0. 0. 0. 0.
      0. 0. 0. 0. 0. 0. 0. 0. 0. 0. 0. 0. 0. 0. 0. 0. 0. 0. 0. 0. 0. 0.
      0. 0. 0. 0. 0. 0. 0. 0. 0. 0. 0. 0. 0. 0. 0. 0. 0. 0. 0. 0. 0. 0.
      0. 0. 0. 0. 0. 0. 0. 0. 0. 0. 0. 0. 0. 0. 0. 0. 0. 0. 0. 0. 0. 0.
      0. 0. 0. 0. 0. 0. 0. 0. 0. 0. 0. 0. 0. 0. 0. 0. 0. 0. 0. 0. 0. 0.
      0. 0. 0. 0. 0. 0. 0. 0. 0. 0. 0. 0. 0. 0. 0. 0. 0. 0. 0. 0. 0. 0.
      0. 0. 0. 0. 0. 0. 0. 0. 0. 0. 0. 0. 0. 0. 0. 0. 0. 0. 0. 0. 0. 0.
      0. 0. 0. 0. 0. 0. 0. 0.</_>
    <_>
      1.28786368e-002 0. 0. 0. 2.52275374e-002 0. 0. 2.02176394e-003
      1.32975709e-002 7.37735108e-002 0. 0. 0. 4.72971946e-002
      2.68101189e-002 1.31070260e-002 1.41523471e-002 7.67060369e-002
      3.77105027e-001 0. 0. 0. 1.05061434e-001 0. 0. 1.41523471e-002
      3.80037546e-001 5.58452189e-001 0. 0. 0. 2.11861461e-001
      4.46835309e-002 2.18450390e-002 9.90664288e-002 5.58452189e-001
      1.66963451e-002 0. 0. 0. 6.27293158e-003 0. 0. 0. 1.66963451e-002
      5.36749559e-003 0. 0. 0. 6.47180993e-003 0. 0. 0. 5.36749559e-003
      4.97114956e-001 0. 0. 0. 4.39105257e-002 0. 0. 0. 4.97114956e-001
      4.97114956e-001 0. 0. 0. 6.25886992e-002 0. 0. 0. 4.97114956e-001
      0. 0. 0. 0. 0. 0. 0. 0. 0. 0. 0. 0. 0. 1.38584198e-003 0. 0. 0. 0.
      4.98727173e-001 0. 0. 0. 2.77935248e-003 0. 0. 0. 4.98727173e-001
      4.98727173e-001 0. 0. 0. 9.70089436e-003 0. 0. 0. 4.98727173e-001
      1.57192033e-002 0. 0. 0. 3.10590491e-002 0. 0. 0. 1.57192033e-002
      0. 0. 0. 0. 0. 0. 0. 0. 0. 6.86354935e-001 0. 0. 0.
      2.17413336e-001 0. 0. 0. 6.86354935e-001 0. 0. 0. 0. 0. 0. 0. 0.
      0. 1.61645450e-002 1.02506494e-002 2.69645303e-001 2.69645303e-001
      2.69645303e-001 6.99536428e-002 2.52084620e-002 0. 1.05235856e-002
      1.19321212e-001 1.77127477e-002 2.45830238e-001 2.08524495e-001
      2.59883821e-001 6.30796328e-002 1.81163643e-002 5.55550912e-004
      1.33944392e-001 2.46496443e-002 0. 6.97890222e-002 1.06318474e-001
      2.69645303e-001 2.69645303e-001 2.69645303e-001 4.36475202e-002
      4.39210571e-002 2.69645303e-001 8.97616919e-005 4.38411124e-002
      9.84093174e-002 2.58019149e-001 1.83574140e-001 2.69645303e-001
      7.30791911e-002 2.52071291e-001 2.18512878e-001 0. 2.34233378e-003
      5.17539214e-003 8.25119019e-003 1.25002619e-002 2.03430443e-003
      1.17120391e-003 2.20280558e-001 1.97903484e-001 4.71892068e-003
      1.57337740e-001 2.85022706e-001 1.56477362e-001 8.03563893e-002
      9.26620215e-002 7.73650557e-002 2.68397391e-001 2.85022706e-001
      1.37789482e-002 4.13939320e-002 1.33652659e-002 5.14414236e-002
      2.52293944e-002 1.22058252e-003 4.18614451e-004 2.85022706e-001
      2.85022706e-001 1.79703102e-001 2.85022706e-001 2.85022706e-001
      2.85022706e-001 1.65983230e-001 4.32985164e-002 4.62147146e-002
      2.85022706e-001 3.04665208e-001 1.69201717e-002 1.24649033e-002
      1.08311819e-002 9.98405591e-002 3.87248769e-002 9.04896669e-003
      4.95488290e-003 3.41265440e-001 3.45678777e-001 3.37066106e-003
      3.07454285e-003 8.64545174e-004 9.59522277e-003 1.11774420e-002
      1.43171765e-003 2.94566364e-003 3.45678777e-001 3.45678777e-001
      8.20940174e-003 1.53465178e-002 2.05493979e-002 7.73308501e-002
      1.05051681e-001 1.02375038e-001 1.71662390e-001 3.45678777e-001
      3.45678777e-001 1.88356952e-003 6.18797028e-003 1.63874042e-003
      5.85448509e-003 1.21421507e-002 8.59030581e-004 1.01770193e-003
      3.45678777e-001 0. 0. 3.35252881e-002 7.72135705e-002
      3.40117514e-001 3.40117514e-001 3.40117514e-001 5.45950839e-003
      5.22753829e-003 0. 0. 0. 0. 9.52707380e-002 5.14169084e-003
      2.81831273e-003 0. 0. 6.43258542e-002 1.94431879e-002
      3.40117514e-001 2.47491062e-001 3.40117514e-001 3.40117514e-001
      2.29307875e-001 6.03599362e-002 3.40117514e-001 6.91161631e-003 0.
      0. 0. 1.89098105e-001 9.66448039e-002 1.97281893e-002
      8.62284936e-003 5.46420179e-002 3.93503278e-001 0. 0. 0. 0. 0. 0.
      0. 3.93503278e-001 5.85008085e-001 0. 0. 0. 0. 0. 0. 0.
      5.85008085e-001 0. 0. 0. 0. 0. 0. 0. 0. 0. 0. 0. 0. 0. 0. 0. 0. 0.
      0. 2.19078772e-002 0. 0. 0. 1.37994066e-001 5.44508453e-003
      5.00318944e-004 0. 2.19078772e-002 1.23048509e-002 0.
      4.50181263e-003 8.04610178e-002 6.80954039e-001 5.52332662e-002
      6.32598158e-003 0. 1.23048509e-002 0. 0. 0. 0. 1.89426497e-001 0.
      0. 0. 0. 0. 0. 0. 1.71710132e-003 6.80954039e-001 0. 0. 0. 0.
      1.82152987e-001 0. 0. 3.74808186e-003 6.35912120e-001
      1.33964300e-001 0. 0. 1.58966392e-001 2.29236260e-001 0. 0. 0. 0.
      0. 0. 0. 2.36449346e-001 0. 0. 0. 2.24884925e-003 6.35912120e-001
      3.09158815e-003 0. 0. 0. 0. 0. 0. 0. 0. 0. 0. 0. 0.
      1.28616521e-003 0. 8.61413125e-003 7.97462612e-002 4.91907328e-001
      1.23623885e-001 4.87402035e-003 1.47655781e-003 4.06575855e-003
      1.83737895e-004 0. 7.96644017e-004 2.38133501e-003 4.91907328e-001
      7.34477565e-002 2.72442983e-003 0. 5.80822700e-004 0. 0. 0.
      3.85047845e-003 4.91907328e-001 2.98934919e-003 0. 0. 0. 0. 0. 0.
      9.80884186e-004 4.91907328e-001 1.35766191e-003 0. 0. 0. 0. 0. 0.
      0. 0. 0. 0. 0. 0. 0. 0. 0. 0. 0. 0. 0. 0. 0. 0. 0. 0. 0. 0. 0. 0.
      0. 0. 0. 0. 0. 0. 0. 0. 0. 0. 0. 0. 0. 0. 0. 1.41835764e-001 0. 0.
      0. 0. 0. 0. 0. 0. 6.85015082e-001 0. 0. 0. 0. 0. 0. 0. 0.
      1.85884118e-001 0. 0. 0. 0. 0. 0. 0. 0. 6.85015082e-001 0. 0. 0.
      0. 0. 0. 0. 0. 7.04615593e-001 0. 0. 0. 0. 0. 0. 0. 0. 0. 0. 0. 0.
      0. 0. 0. 0. 0. 7.04615593e-001 0. 0. 0. 0. 0. 0. 0. 0. 0. 0. 0. 0.
      0. 0. 0. 0. 0. 4.98753130e-001 0. 0. 0. 0. 0. 0. 0. 0.
      4.98753130e-001 0. 0. 0. 0. 0. 0. 0. 0. 4.98753130e-001 0. 0. 0.
      0. 0. 0. 0. 0. 4.98753130e-001 0. 0. 0. 0. 0. 0. 0. 0. 0. 0. 0. 0.
      0. 0. 0. 0. 0. 0. 0. 0. 0. 0. 0. 0. 0. 0. 0. 0. 0. 0. 0. 0. 0. 0.
      0. 0. 0. 0. 0. 0. 0. 0. 0. 0. 1.41835764e-001 0. 0. 0. 0. 0. 0. 0.
      0. 6.85015082e-001 0. 0. 0. 0. 0. 0. 0. 0. 1.85884118e-001 0. 0.
      0. 0. 0. 0. 0. 0. 6.85015082e-001 0. 0. 0. 0. 0. 0. 0. 0.
      7.04615593e-001 0. 0. 0. 0. 0. 0. 0. 0. 0. 0. 0. 0. 0. 0. 0. 0. 0.
      7.04615593e-001 0. 0. 0. 0. 0. 0. 0. 0. 0. 0. 0. 0. 0. 0. 0. 0. 0.
      4.98753130e-001 0. 0. 0. 0. 0. 0. 0. 0. 4.98753130e-001 0. 0. 0.
      0. 0. 0. 0. 0. 4.98753130e-001 0. 0. 0. 0. 0. 0. 0. 0.
      4.98753130e-001 0. 0. 0. 0. 0. 0. 0. 0. 0. 0. 0. 0. 0. 0. 0. 0. 0.
      0. 0. 0. 0. 0. 0. 0. 0. 0. 0. 0. 0. 0. 0. 0. 0. 0. 0. 0. 0. 0. 0.
      0. 0. 0. 0. 0. 1.46069139e-001 0. 0. 0. 0. 0. 0. 0.
      1.24648097e-003 6.72238946e-001 8.09957332e-004 0. 0. 0. 0. 0. 0.
      0. 1.89538032e-001 0. 0. 0. 0. 0. 0. 0. 2.65315268e-002
      6.72238946e-001 1.77161738e-001 1.12040089e-002 0. 0.
      2.81525194e-003 0. 0. 0. 4.58178520e-001 2.82808742e-003 0. 0.
      2.81525194e-003 5.40392194e-003 0. 0. 0. 0. 0. 0. 0.
      5.40392194e-003 2.65981585e-001 0. 0. 1.11804396e-001
      4.58178520e-001 1.03001697e-002 0. 2.18149703e-002 3.44442189e-001
      4.31817085e-001 0. 0. 0. 9.23992135e-003 0. 0. 0. 4.31817085e-001
      0. 0. 0. 6.24953164e-003 4.62418050e-001 3.72161414e-003 0. 0. 0.
      0. 0. 0. 3.45340231e-003 4.62418050e-001 2.02178140e-003 0. 0. 0.
      0. 8.31637823e-004 2.72217933e-002 3.09573650e-001 4.62418050e-001
      1.02504112e-001 0. 0. 0. 0. 0. 7.07645854e-003 1.81192607e-001
      4.62418050e-001 4.99459868e-003 0. 0. 0. 0. 0. 0. 0. 0. 0. 0. 0.
      0. 0. 0. 0. 0. 0. 0. 0. 0. 0. 0. 0. 0. 0. 0. 0. 0. 0. 0. 0. 0. 0.
      0. 0. 0. 0. 0. 0. 0. 0. 0. 0. 2.58964524e-002 0. 0. 0. 0.
      4.05716151e-003 3.34168971e-002 0. 2.54570007e-001 4.11044925e-001
      4.11044925e-001 4.11044925e-001 2.42462143e-001 4.59962860e-002 0.
      0. 0. 0. 0. 0. 0. 0. 0. 0. 0. 0. 1.52742028e-001 4.11044925e-001
      4.11044925e-001 5.25998836e-003 1.52596245e-002 0. 2.78897554e-001
      1.05637014e-001 3.68511379e-002 6.02556318e-002 4.67851274e-002
      1.78080909e-002 4.73709032e-003 0. 3.27444524e-001 3.60040784e-001
      1.08031789e-002 2.23376337e-004 4.30065999e-003 3.64168343e-004 0.
      2.09545717e-003 7.37423776e-003 3.60040784e-001 3.60040784e-001
      1.92761477e-002 6.50578365e-003 2.44439431e-002 5.97146675e-002
      7.98581764e-002 5.35204336e-002 1.87801179e-002 3.60040784e-001
      3.60040784e-001 3.92375514e-003 1.34025802e-004 2.58039613e-003
      2.18501038e-004 0. 3.09297256e-003 2.34354660e-002 3.60040784e-001
      1.77405983e-001 9.24795195e-002 2.70801097e-001 3.34067225e-001
      3.73061895e-001 2.85359502e-001 2.40161151e-001 3.42974961e-002
      9.61208344e-003 2.53437124e-002 1.32113621e-002 3.10081653e-002
      3.51942256e-002 1.84102505e-001 0. 0. 0. 0. 1.70183368e-002
      3.28379795e-002 3.73061895e-001 3.73061895e-001 3.73061895e-001
      1.06861934e-001 2.55801398e-002 0. 0. 0. 0. 4.42973711e-003
      2.41252291e-003 1.54462799e-001 0. 0. 0. 0. 0. 0. 0. 0. 0. 0. 0.
      0. 0. 0. 0. 0. 0. 0. 0. 0. 0. 0. 0. 0. 0. 0. 0. 0. 0. 0. 0. 0. 0.
      0. 0. 0. 0. 0. 0. 0. 0. 0. 0. 0. 0. 0. 0. 0. 0. 0. 0. 0. 0. 0. 0.
      0. 0. 0. 0. 0. 0. 0. 0. 0. 0. 0. 0. 0. 0. 0. 0. 0. 0. 0. 0. 0.
      4.98753130e-001 0. 0. 0. 0. 0. 0. 0. 4.98753130e-001
      4.98753130e-001 0. 0. 0. 0. 0. 0. 0. 4.98753130e-001 0. 0. 0. 0.
      0. 0. 0. 0. 0. 0. 0. 0. 0. 0. 0. 0. 0. 0. 6.99944556e-001 0. 0. 0.
      0. 0. 0. 0. 6.99944556e-001 0. 0. 0. 0. 0. 0. 0. 0. 0. 0. 0. 0. 0.
      0. 0. 0. 0. 0. 0. 0. 0. 0. 0. 0. 0. 0. 0.</_>
    <_>
      5.11249900e-002 7.70571977e-002 8.76390338e-002 4.19315696e-002
      1.02520846e-001 0. 0. 0. 1.35023547e-002 2.98823565e-001
      2.09392294e-001 1.60179108e-001 7.36121014e-002 6.08092956e-002 0.
      0. 0. 2.92705923e-001 3.70230339e-002 6.29917756e-002
      2.20927775e-001 2.98823565e-001 2.98823565e-001 2.77190772e-003
      2.76048528e-003 0. 3.10915848e-003 2.98823565e-001 2.41384298e-001
      2.98823565e-001 2.98823565e-001 2.56471246e-001 1.94033552e-002
      1.93233956e-002 2.40085355e-004 2.98823565e-001 2.89602935e-001 0.
      0. 0. 8.54425307e-004 0. 1.19977363e-003 1.13091292e-002
      2.89602935e-001 2.89602935e-001 1.37633222e-004 4.11849498e-004 0.
      3.12537700e-002 2.31121015e-002 1.21430673e-001 1.67781815e-001
      2.89602935e-001 2.89602935e-001 0. 0. 0. 7.59446819e-004
      1.65336343e-004 7.98376277e-003 2.69699525e-002 2.89602935e-001
      2.89602935e-001 0. 0. 9.11761716e-004 2.03783840e-001
      2.89602935e-001 2.89602935e-001 2.67488182e-001 2.89602935e-001 0.
      0. 0. 0. 2.50055313e-001 0. 1.07895590e-001 3.60568054e-002 0. 0.
      0. 0. 0. 0. 0. 0. 0. 0. 0. 0. 0. 0. 9.47596490e-001 0.
      1.24163367e-001 4.14932147e-002 0. 0. 0. 0. 0. 0. 0. 0. 0. 0. 0.
      0. 0. 0. 0. 0. 0. 0. 0. 0. 0. 0. 0. 0. 0. 0. 0. 0. 0. 0. 0. 0. 0.
      0. 0. 0. 0. 0. 0. 0. 0. 0. 0. 0. 0. 0. 7.99712613e-002
      9.14238840e-002 9.86132994e-002 1.55235231e-001 1.72071904e-001
      1.63100138e-001 1.68609962e-001 8.44954178e-002 1.36043608e-001
      2.10414007e-001 1.32738110e-002 4.77529913e-002 9.58109498e-002
      7.57940412e-002 1.78639084e-001 2.00162351e-001 2.36185580e-001
      2.74518698e-001 2.49016024e-002 4.95156534e-002 1.55694604e-001
      2.74518698e-001 2.74518698e-001 2.74518698e-001 1.54171854e-001
      4.64540683e-002 9.29469690e-002 1.86361581e-001 7.07366457e-003
      7.70823136e-002 9.70953107e-002 2.74518698e-001 2.46716008e-001
      1.06645472e-001 1.12000652e-001 2.74518698e-001 2.83459932e-001
      2.66262200e-002 1.58958361e-002 6.05870597e-003 4.12416458e-003
      3.55259702e-003 0. 0. 2.83459932e-001 2.83459932e-001
      2.17238203e-001 2.76315928e-001 1.94465607e-001 9.07102302e-002
      4.90287282e-002 2.82157268e-002 7.52333924e-002 2.83459932e-001
      2.83459932e-001 1.59559343e-002 2.60388129e-003 7.58688315e-004
      2.89406572e-002 7.78819481e-003 1.03198853e-003 3.44873319e-004
      2.83459932e-001 2.69204021e-001 1.17228195e-001 5.15022799e-002
      2.83459932e-001 2.83459932e-001 6.07747249e-002 1.69819519e-002
      2.31626257e-002 2.83459932e-001 0. 0. 0. 0. 4.52178001e-001
      3.43320638e-001 1.89647421e-001 2.68236827e-003 0. 0. 0. 0. 0.
      2.92828796e-003 0. 8.15204869e-004 2.72427103e-004 0. 0. 0. 0. 0.
      5.15438914e-001 5.15438914e-001 3.24010044e-001 7.57550448e-003 0.
      0. 0. 0. 0. 1.13820266e-002 0. 3.23839579e-003 1.08221499e-003 0.
      0. 0. 0. 0. 0. 0. 0. 0. 0. 0. 0. 0. 0. 0. 0. 0. 0. 0. 0. 0. 0. 0.
      0. 0. 0. 0. 0. 0. 0. 0. 0. 0. 0. 0. 0. 0. 0. 0. 0. 2.86879763e-003
      4.98700291e-001 8.82579479e-003 0. 0. 0. 9.38509475e-005
      3.58363177e-005 1.07235937e-004 5.76309452e-004 4.98700291e-001
      8.77429452e-003 0. 0. 9.38509475e-005 0. 0. 0. 3.41855898e-003
      4.98700291e-001 4.72683087e-003 0. 0. 0. 0. 0. 0. 1.24929601e-003
      4.98700291e-001 3.51219298e-003 0. 0. 0. 1.31088879e-003 0. 0. 0.
      1.01446830e-001 0. 5.53459860e-004 1.84957040e-004 1.31088879e-003
      3.67493572e-004 0. 0. 0. 6.94590032e-001 0. 9.22432984e-004
      3.08261689e-004 3.67493572e-004 0. 0. 0. 0. 1.33526623e-001 0. 0.
      0. 0. 0. 0. 0. 0. 6.94590032e-001 5.46588749e-003 0. 0. 0. 0. 0.
      0. 2.76002538e-004 7.04507470e-001 0. 0. 0. 0. 0. 0. 0. 0.
      1.06073124e-002 0. 0. 0. 0. 0. 0. 0. 0. 7.04507470e-001 0. 0. 0.
      0. 0. 0. 0. 0. 1.39015038e-002 0. 0. 0. 0. 0. 0. 0. 0. 0. 0. 0. 0.
      0. 0. 0. 0. 0. 0. 0. 0. 0. 0. 0. 0. 0. 0. 0. 0. 0. 0. 0. 0. 0. 0.
      0. 0. 0. 0. 0. 0. 0. 0. 0. 1.20617573e-004 4.98753071e-001 0. 0.
      0. 0. 0. 0. 0. 0. 4.98753071e-001 0. 0. 0. 0. 0. 0. 0. 0.
      4.98753071e-001 0. 0. 0. 0. 0. 0. 0. 0. 4.98753071e-001 0. 0. 0.
      0. 0. 0. 0. 0. 1.01049498e-001 0. 0. 0. 0. 0. 0. 0. 0.
      6.94735765e-001 0. 0. 0. 0. 0. 0. 0. 0. 1.32431313e-001 0. 0. 0.
      0. 0. 0. 0. 0. 6.94735765e-001 0. 0. 0. 0. 0. 0. 0. 0.
      7.04507291e-001 0. 0. 0. 0. 0. 0. 0. 0. 1.06083909e-002 0. 0. 0.
      0. 0. 0. 0. 0. 7.04507291e-001 6.62214588e-004 0. 0. 0. 0. 0. 0.
      0. 1.39029184e-002 0. 0. 0. 0. 0. 0. 0. 0. 0. 0. 0. 0. 0. 0. 0. 0.
      0. 0. 0. 0. 0. 0. 0. 0. 0. 0. 0. 0. 0. 0. 0. 0. 0. 0. 0. 0. 0. 0.
      0. 0. 0. 0. 0. 0. 4.98753130e-001 0. 0. 0. 0. 0. 0. 0. 0.
      4.98753130e-001 0. 0. 0. 0. 0. 0. 0. 0. 4.98753130e-001 0. 0. 0.
      0. 0. 0. 0. 0. 4.98753130e-001 0. 0. 0. 0. 0. 0. 0. 0.
      1.01048067e-001 0. 0. 0. 0. 0. 0. 0. 0. 6.94736063e-001 0. 0. 0.
      0. 0. 0. 0. 0. 1.32429436e-001 0. 0. 0. 0. 0. 0. 0. 0.
      6.94736063e-001 0. 0. 0. 0. 0. 0. 0. 9.26985813e-004
      7.04507172e-001 0. 0. 0. 0. 0. 0. 0. 0. 1.06079057e-002 0. 0. 0.
      0. 0. 0. 0. 0. 7.04507172e-001 0. 0. 0. 0. 0. 0. 0. 0.
      1.39022823e-002 0. 0. 0. 0. 0. 0. 0. 0. 0. 0. 0. 0. 0. 0. 0. 0. 0.
      0. 0. 0. 0. 0. 0. 0. 0. 0. 0. 0. 0. 0. 0. 0. 0. 0. 0. 0. 0. 0. 0.
      0. 0. 0. 0. 0. 4.97851580e-001 1.09264022e-003 0. 0. 0. 0. 0. 0.
      0. 4.97851580e-001 1.55357167e-003 4.19663324e-004 1.40244098e-004
      0. 0. 0. 0. 1.52912652e-002 4.97851580e-001 5.48466407e-002 0. 0.
      0. 2.29378595e-004 0. 0. 1.69188492e-002 4.97851580e-001
      8.14844668e-003 1.99347408e-003 6.66184933e-004 2.29378595e-004
      3.97934666e-004 7.28636151e-005 2.18034867e-004 0. 1.02177687e-001
      0. 0. 0. 3.97934666e-004 1.11556692e-004 1.21439363e-004
      3.63391475e-004 0. 6.93542778e-001 0. 0. 0. 1.11556692e-004
      5.43197710e-003 8.60593922e-004 2.57521542e-003 0. 1.31149009e-001
      5.68232790e-004 2.77799612e-004 0. 5.43197710e-003 1.52279611e-003
      1.43432326e-003 4.29202570e-003 5.05340192e-003 6.93542778e-001
      5.75746037e-002 4.62999422e-004 0. 1.52279611e-003 1.77514821e-003
      0. 0. 0. 7.03665435e-001 0. 3.14193522e-003 1.04997947e-003
      1.77514821e-003 2.62784399e-003 0. 0. 0. 9.41885635e-003 0.
      3.00246570e-003 1.00337120e-003 2.62784399e-003 1.38410162e-002 0.
      7.56144989e-004 2.29049474e-002 7.03665435e-001 1.21022081e-002
      6.16764510e-003 4.86680493e-003 1.44223878e-002 2.09772475e-002 0.
      1.26024173e-003 2.57779565e-003 1.29984329e-002 1.36954132e-002
      1.15217203e-002 5.53376786e-003 2.13260707e-002 4.72132377e-002 0.
      0. 0. 0. 0. 0. 0. 4.72132377e-002 4.39871214e-002 0. 0. 0. 0. 0.
      0. 0. 4.39871214e-002 5.06023824e-001 7.70069137e-002
      2.30433181e-001 0. 5.95206507e-002 0. 0. 0. 5.06023824e-001
      3.69681448e-001 7.94483572e-002 2.37738833e-001 0. 2.37237498e-001
      0. 1.31987348e-001 4.41078469e-002 3.69681448e-001 3.01801283e-002
      1.60377756e-001 9.21260938e-002 1.95593879e-001 2.78753012e-001
      1.06201693e-001 1.29373759e-001 2.38520816e-001 3.68778035e-002
      2.78753012e-001 2.78753012e-001 1.21827133e-001 2.24431902e-001
      2.05872566e-001 4.82523963e-002 5.33627085e-002 9.89875868e-002
      2.03288242e-001 2.86527677e-003 1.94426309e-002 3.70872617e-002
      2.26500988e-001 2.78753012e-001 2.78753012e-001 1.27683515e-002
      5.32747135e-002 6.96840743e-003 4.34489250e-002 5.87623790e-002
      6.38769120e-002 2.49076545e-001 2.78753012e-001 2.78753012e-001
      2.39150040e-002 1.27323307e-002 3.79910693e-002 3.36329281e-001
      9.04882851e-004 3.06926807e-003 0. 9.75395495e-004 2.34436058e-003
      2.58394470e-003 4.29904051e-002 3.36329281e-001 3.36329281e-001
      1.47082314e-001 9.55969021e-002 1.21791586e-001 2.14325085e-001
      1.55667439e-001 1.70768857e-001 3.36329281e-001 3.36329281e-001
      1.35543987e-001 0. 0. 1.57221372e-003 8.85097310e-003
      4.77587432e-003 3.69245559e-003 1.28132189e-002 1.29874781e-001
      1.12309493e-001 5.12678586e-002 5.92005216e-002 1.00865901e-001
      3.36329281e-001 2.12649524e-001 1.62681162e-001 1.69823557e-001
      7.85004571e-002 4.02719587e-001 1.37176007e-001 1.76866055e-001
      2.21676037e-001 8.61695483e-002 2.36572586e-002 3.59706639e-004
      1.12452172e-002 4.02719587e-001 4.02719587e-001 0. 0.
      3.52507434e-003 1.26398006e-003 0. 2.15823995e-004 2.69229757e-004
      4.02719587e-001 1.25650048e-001 1.95965730e-002 1.12508804e-001
      2.27309510e-001 1.72979012e-001 5.26975952e-002 6.87214313e-003
      1.36803929e-002 1.40395060e-001 2.28686973e-001 0. 0.
      6.59017172e-003 3.15073226e-003 0. 2.13279598e-003 1.43807742e-003
      2.33191967e-001 3.13278735e-001 3.02730950e-005 9.05882989e-005
      5.08228270e-003 6.80283085e-002 1.91705570e-001 1.13434754e-001
      6.08563349e-002 3.20795625e-001 8.52383897e-002 0. 0.
      3.55759785e-002 3.13779324e-001 3.20795625e-001 2.47184709e-001
      1.00517392e-001 1.36520371e-001 6.56260177e-002 4.97692637e-003
      2.33194456e-002 1.61812454e-001 2.40615651e-001 1.48370355e-001
      2.11337190e-002 6.29499415e-003 5.04159853e-002 1.95352398e-002
      1.74275611e-003 9.94141996e-002 3.20795625e-001 3.20795625e-001
      3.20795625e-001 6.97511286e-002 7.38564134e-003 1.05799716e-002
      1.16372474e-001 1.76416198e-003 5.27904369e-003 0. 2.04092413e-001
      2.22886018e-002 2.00838074e-001 2.54911333e-001 2.16516718e-001
      4.59966987e-001 2.32213148e-004 6.94870309e-004 0. 1.44352108e-001
      2.68820059e-002 3.12542260e-001 4.59966987e-001 4.59966987e-001
      2.05376036e-002 2.32213148e-004 6.94870309e-004 0. 6.66041626e-003
      0. 1.61860846e-002 5.40911965e-003 2.05376036e-002 1.26259983e-001
      3.31733063e-005 9.92671849e-005 0. 1.71342362e-002 0.
      1.26424730e-002 4.22490248e-003 1.26259983e-001 4.87000674e-001 0.
      0. 0. 1.19513847e-004 0. 0. 0. 4.87000674e-001 4.87000674e-001
      1.11826949e-001 3.53705958e-002 1.65077730e-003 1.14159854e-002 0.
      6.09474198e-004 2.03676114e-004 4.87000674e-001 8.25099349e-002 0.
      0. 0. 8.36596882e-004 0. 0. 0. 8.25099349e-002 9.67491940e-002
      5.45098213e-004 2.11536302e-003 9.90466448e-004 1.42887477e-002 0.
      4.26631980e-003 1.42573274e-003 9.67491940e-002 4.91245359e-001
      5.89972828e-004 9.40269965e-005 0. 3.42265167e-003 0.
      7.37956818e-003 1.81261990e-002 4.91245359e-001 4.91245359e-001 0.
      0. 0. 0. 0. 0. 0. 4.91245359e-001 7.34088570e-002 1.15087267e-003
      6.58188888e-004 0. 2.05359119e-003 0. 0. 0. 7.32159615e-002
      9.65784043e-002 0. 0. 0. 0. 0. 0. 0. 9.65784043e-002
      4.02883202e-001 2.96387613e-001 1.29819453e-001 1.37422802e-002
      3.95334028e-002 0. 0. 0. 4.02883202e-001 4.02883202e-001
      4.02883202e-001 2.29087979e-001 2.22560652e-002 2.80339509e-001 0.
      0. 0. 2.92971045e-001 9.27641243e-002 1.14002954e-002
      5.55922650e-003 7.24776508e-003 1.13380700e-002 0. 0. 0.
      9.05414596e-002 4.88906391e-002 2.27930229e-002 1.68345291e-002
      4.34865896e-003 2.16235351e-002 0. 0. 0. 4.51861881e-002</_>
    <_>
      6.42189607e-002 8.46903771e-002 6.93919808e-002 3.68908094e-003
      9.48509127e-002 2.43627210e-003 2.88235373e-003 4.49427515e-002
      2.06256032e-001 2.66318917e-002 1.23270936e-002 9.77244228e-003
      6.14846731e-003 1.20806254e-001 1.64335652e-003 6.09163055e-003
      2.69239023e-002 1.23908162e-001 3.64810005e-002 1.32924646e-001
      3.17609251e-001 2.69627184e-001 3.17609251e-001 2.19640732e-001
      2.50542402e-001 3.17609251e-001 3.17609251e-001 1.41283423e-002
      1.90218724e-002 9.46830288e-002 4.18910459e-002 3.17609251e-001
      2.51002520e-001 1.56926870e-001 1.96117908e-001 2.25743681e-001 0.
      0. 0. 0. 0. 0. 0. 0. 0. 0. 0. 0. 0. 0. 0. 0. 0. 0. 0. 0. 0. 0. 0.
      0. 0. 0. 0. 0. 0. 0. 0. 0. 0. 0. 0. 0. 0. 0. 0. 0. 0. 0. 0. 0. 0.
      0. 0. 0. 0. 0. 0. 0. 0. 0. 0. 0. 0. 0. 0. 0. 0. 0. 0. 0. 0. 0. 0.
      0. 0. 0. 0. 0. 0. 0. 0. 0. 0. 0. 0. 0. 0. 0. 0. 0. 0. 0. 0. 0. 0.
      0. 0. 0. 0. 0. 0. 0. 0. 0. 0. 0. 0. 0. 0. 0. 0. 0. 0. 0.
      6.23774758e-006 0. 0. 2.86671668e-002 4.97950137e-001
      2.84644160e-002 0. 0. 6.23774758e-006 0. 0. 0. 6.09345129e-003
      4.97950137e-001 3.72751169e-002 0. 0. 0. 0. 0. 0. 6.24778215e-003
      4.97950137e-001 7.20160222e-003 0. 0. 0. 0. 0. 0. 3.47335148e-003
      4.97950137e-001 6.91484008e-003 0. 0. 0. 0. 0. 0. 0. 0. 0. 0. 0.
      0. 0. 0. 0. 0. 0. 0. 0. 0. 0. 0. 0. 0. 0. 0. 0. 0. 0. 0. 0. 0. 0.
      0. 0. 0. 0. 0. 0. 0. 0. 0. 0. 0. 0. 0. 0. 0. 0. 0. 0. 0. 0. 0. 0.
      0. 0. 0. 0. 0. 0. 0. 0. 0. 0. 0. 0. 0. 0. 0. 0. 0. 0. 0. 0. 0. 0.
      0. 0. 0. 0. 0. 0. 0. 0. 0. 0. 0. 0. 0. 0. 0. 0. 0. 0. 0. 0. 0. 0.
      0. 0. 0. 0. 0. 0. 0. 0. 0. 0. 0. 0. 0. 0. 0. 4.42667305e-003
      4.98728752e-001 2.97679589e-003 0. 0. 0. 0. 0. 0. 2.83514755e-003
      4.98728752e-001 2.07325211e-003 0. 0. 0. 0. 0. 0. 4.14322969e-003
      4.98728752e-001 3.81335989e-003 0. 0. 0. 0. 0. 0. 4.44518914e-003
      4.98728752e-001 2.28801579e-003 0. 0. 0. 0. 0. 0. 0. 0. 0. 0. 0.
      0. 0. 0. 0. 0. 0. 0. 0. 0. 0. 0. 0. 0. 0. 0. 0. 0. 0. 0. 0. 0. 0.
      0. 0. 0. 0. 0. 0. 0. 0. 0. 0. 0. 0. 0. 0. 0. 0. 0. 0. 0. 0. 0. 0.
      0. 0. 0. 0. 0. 0. 0. 0. 0. 0. 0. 0. 0. 0. 0. 0. 0. 0. 0. 0. 0. 0.
      0. 0. 0. 0. 0. 0. 0. 0. 0. 0. 0. 0. 0. 0. 0. 0. 0. 0. 0. 0. 0. 0.
      0. 0. 0. 0. 0. 0. 0. 0. 0. 0. 0. 0. 0. 0. 0. 6.92228496e-004
      4.98749942e-001 9.79744596e-004 0. 0. 0. 0. 0. 0. 1.15371426e-003
      4.98749942e-001 1.63290766e-003 4.69194521e-004 1.56796552e-004 0.
      0. 0. 0. 1.15371426e-003 4.98749942e-001 1.39963508e-004 0. 0. 0.
      0. 0. 0. 1.92285702e-003 4.98749942e-001 2.33272527e-004
      1.35078316e-003 4.51407977e-004 0. 0. 0. 0. 0. 0. 0. 0. 0. 0. 0.
      0. 0. 0. 0. 0. 0. 0. 0. 0. 0. 0. 0. 0. 0. 0. 0. 0. 0. 0. 0. 0. 0.
      0. 0. 0. 0. 0. 0. 0. 0. 0. 0. 0. 0. 0. 0. 0. 0. 0. 0. 0. 0. 0. 0.
      0. 0. 0. 0. 0. 0. 0. 0. 0. 0. 0. 0. 0. 0. 0. 0. 0. 0. 0. 0. 0. 0.
      0. 0. 0. 0. 0. 0. 0. 0. 0. 0. 0. 0. 0. 0. 0. 0. 0. 0. 0. 0. 0. 0.
      0. 0. 0. 0. 0. 0. 0. 0. 0. 0. 0. 0. 0. 2.52789725e-003
      4.98719215e-001 2.17475509e-003 0. 0. 0. 0. 0. 0. 1.51673832e-003
      4.98719215e-001 3.04523250e-003 1.05143455e-003 3.51370923e-004 0.
      0. 0. 0. 6.62550097e-003 4.98719215e-001 5.71069214e-003 0. 0. 0.
      0. 6.58759018e-005 1.97125817e-004 4.14498430e-003 4.98719215e-001
      4.21944261e-003 3.95161944e-004 1.32056171e-004 0. 0. 0. 0. 0. 0.
      0. 0. 0. 0. 0. 0. 0. 0. 0. 0. 0. 0. 0. 0. 0. 0. 0. 0. 0. 0. 0. 0.
      0. 0. 0. 0. 0. 0. 0. 0. 0. 0. 0. 0. 0. 0. 0. 0. 0. 0. 0. 0. 0. 0.
      0. 0. 0. 0. 0. 2.43927449e-001 2.98115741e-002 8.92072544e-002 0.
      8.09782371e-002 0. 0. 0. 2.43927449e-001 6.53790116e-001
      1.78869460e-002 5.35243563e-002 0. 1.15683191e-002 0. 0. 0.
      6.53790116e-001 0. 0. 0. 0. 0. 0. 0. 0. 0. 0. 0. 0. 0. 0. 0. 0. 0.
      0. 3.10832649e-001 0. 0. 0. 7.98234046e-001 0. 2.51938403e-001
      8.41933712e-002 3.10832649e-001 0. 0. 0. 0. 0. 0. 0. 0. 0. 0. 0.
      0. 1.52926950e-003 4.98726994e-001 3.03501100e-003 0. 0. 0.
      6.55543554e-005 2.73991118e-005 8.19885827e-005 1.01441494e-003
      4.98726994e-001 1.51090405e-003 1.06926513e-004 3.57329627e-005
      6.55543554e-005 0. 0. 0. 6.02553412e-003 4.98726994e-001
      3.75295058e-003 0. 0. 0. 1.80473158e-004 3.43686726e-004 0.
      5.45183988e-003 4.98726994e-001 2.63698003e-003 1.45123433e-003
      4.22042911e-004 1.09257278e-004 9.30177867e-002 1.44373374e-002
      4.32018526e-002 0. 0. 0. 0. 0. 9.30177867e-002 1.35924235e-001
      4.15642411e-002 1.24375589e-001 0. 0. 0. 7.06195310e-002
      2.35998072e-002 1.35924235e-001 4.01821762e-001 1.37239575e-001
      1.16276629e-001 0. 2.62219235e-002 0. 1.06267855e-002
      3.55129410e-003 4.01821762e-001 4.01821762e-001 1.06479771e-001
      3.18627059e-001 0. 1.83553472e-001 9.47319344e-002 2.76511192e-001
      7.69282877e-002 4.01821762e-001 2.26353332e-001 3.91247571e-002
      1.17076121e-001 0. 1.77593440e-001 6.82904422e-002 1.40873641e-001
      1.64443880e-001 2.26353332e-001 3.96090388e-001 1.96814388e-002
      5.88943660e-002 0. 2.64449231e-002 9.75577906e-003 2.82780044e-002
      8.49701613e-002 3.96090388e-001 2.38347858e-001 4.60203923e-003
      1.37710553e-002 0. 4.12147157e-002 4.09742706e-002 1.38188288e-001
      1.16599977e-001 2.38347858e-001 3.96090388e-001 2.76122359e-003
      8.26263428e-003 0. 2.67872517e-003 5.85346716e-003 3.96915898e-002
      5.85763194e-002 3.96090388e-001 1.13900237e-001 1.25943407e-001
      2.45071515e-001 1.21799231e-001 2.42919981e-001 1.41660636e-002
      1.78428948e-001 4.93731424e-002 1.01728484e-001 1.03614353e-001
      1.90776493e-002 5.70874624e-002 0. 1.60453305e-001 0.
      8.06634054e-002 2.69562900e-002 1.03614353e-001 1.70798510e-001
      1.43420368e-001 3.66039693e-001 1.73998903e-002 4.12371218e-001
      2.02372344e-003 1.71029791e-001 5.56902699e-002 1.70798510e-001
      1.79533616e-001 5.99773563e-002 1.79474905e-001 0. 4.12371218e-001
      0. 1.99650005e-001 6.67195693e-002 1.79533616e-001 4.73073460e-002
      8.29938278e-002 2.61948496e-001 2.61948496e-001 2.61948496e-001
      6.70256838e-002 2.95121386e-003 5.21776779e-003 8.66774656e-003
      2.61948496e-001 2.50203460e-001 2.61948496e-001 2.10717961e-001
      1.43769965e-001 8.52384418e-002 5.14653977e-003 2.01109406e-002
      2.27275372e-001 2.00411342e-002 1.41042158e-001 2.61948496e-001
      2.48479620e-001 2.61948496e-001 3.84472236e-002 3.50337429e-003
      5.74938767e-002 1.05025634e-001 9.18966383e-002 1.90547958e-001
      2.61948496e-001 2.61948496e-001 1.32621899e-001 3.27806100e-002
      2.73787393e-003 1.22142835e-002 1.32812038e-001 2.89007902e-001
      5.12541854e-004 0. 0. 0. 1.80644536e-004 4.09103777e-005
      2.34522652e-002 2.89007902e-001 2.89007902e-001 8.54236307e-004 0.
      0. 9.28556994e-002 1.44124046e-001 2.73561031e-001 2.54611045e-001
      2.89007902e-001 2.89007902e-001 3.45860515e-003 0. 0.
      9.98213422e-004 3.71203735e-003 1.25509046e-004 1.93327274e-002
      2.62530863e-001 1.90746680e-001 5.76434191e-003 0. 7.48657109e-003
      2.89007902e-001 2.89007902e-001 2.62940526e-001 1.50368094e-001
      2.12793157e-001 3.34362656e-001 1.97776869e-001 1.75192624e-001
      8.67630914e-002 4.63106781e-002 0. 2.63811689e-005 1.84999823e-004
      3.34362656e-001 3.34362656e-001 2.14035194e-002 0. 1.69639723e-004
      1.43646366e-005 0. 0. 1.70524581e-004 3.34362656e-001
      1.98631108e-001 1.28114462e-001 1.54292181e-001 3.03928763e-001
      1.76789865e-001 2.87300092e-003 1.07935909e-003 2.87633645e-003
      2.05484778e-001 3.34362656e-001 1.90722290e-002 0. 3.12036439e-003
      9.09540686e-004 0. 6.47615525e-004 3.54734040e-003 3.34362656e-001
      3.15964490e-001 7.13931723e-003 5.04945463e-004 1.70259969e-003
      6.40055258e-003 8.74996334e-002 1.01472855e-001 1.08929567e-001
      3.15964490e-001 1.54090494e-001 4.23767604e-003 7.54539098e-004
      1.73595129e-003 1.36260659e-001 3.15964490e-001 3.15964490e-001
      1.81594208e-001 2.06450626e-001 2.24474162e-001 1.48290033e-002
      3.62775498e-003 3.22487988e-002 8.03062618e-002 1.70514226e-001
      9.72619802e-002 4.29315865e-002 1.59907147e-001 7.38193318e-002
      6.81128167e-003 2.12077098e-003 1.18484400e-001 3.15964490e-001
      3.15964490e-001 3.15964490e-001 6.99344352e-002 4.09255102e-002
      2.39444628e-001 1.04135112e-003 2.41360869e-002 1.30505249e-001
      3.31677645e-001 2.35138580e-001 9.56573486e-002 1.45027652e-001
      2.91541547e-001 3.31677645e-001 7.49238580e-003 1.44816525e-002
      6.20502420e-002 6.20547198e-002 7.99026489e-002 5.02352230e-002
      7.58691952e-002 3.31677645e-001 2.24691957e-001 0. 0.
      5.07903425e-003 7.24637583e-002 7.63842016e-002 2.19115093e-002
      1.20502219e-001 3.15174460e-001 3.31677645e-001 0. 0.
      7.25576305e-004 9.50166676e-003 1.72808915e-002 8.16689897e-003
      4.68623973e-002 3.31677645e-001 3.48205030e-001 6.28032431e-005 0.
      1.68965606e-004 1.29818858e-004 1.19445191e-004 1.00244081e-003
      8.29061173e-005 3.48205030e-001 3.48205030e-001 1.41037405e-001
      5.15706129e-002 1.84212681e-002 4.25361544e-002 4.59504128e-003
      7.01708579e-003 1.38176867e-004 3.48205030e-001 3.48205030e-001
      3.13279306e-004 9.37451143e-004 0. 6.57743716e-004 0.
      6.96635514e-004 2.32803955e-004 3.48205030e-001 3.48205030e-001
      4.13719751e-002 7.50115188e-003 0. 0. 0. 2.30143243e-003
      7.69100268e-004 3.48205030e-001 3.52014452e-001 3.44176823e-003
      2.56517134e-003 1.53069058e-003 1.91225186e-002 1.10412156e-002
      1.80790108e-002 6.34215325e-002 3.52014452e-001 3.52014452e-001
      6.15171972e-004 3.66453052e-004 0. 1.06680018e-004 1.13386268e-004
      0. 4.38502029e-005 3.52014452e-001 3.52014452e-001 1.12458663e-004
      3.36519181e-004 0. 8.17699358e-003 0. 2.58271559e-003
      1.40981702e-002 3.52014452e-001 3.52014452e-001 7.51794782e-004
      2.24965671e-003 0. 5.78865083e-003 0. 3.50351271e-004
      1.17081538e-004 3.52014452e-001 2.94680804e-001 1.52284205e-001
      1.39009893e-001 1.66510016e-001 8.25490654e-002 6.69616926e-003
      1.87355137e-004 3.68434761e-004 2.94680804e-001 2.44893759e-001
      2.54608512e-001 2.94680804e-001 2.94680804e-001 2.94680804e-001
      5.80079714e-003 0. 4.36891387e-005 1.31153062e-001 2.94680804e-001
      1.08636126e-001 3.23548913e-002 2.06395127e-002 1.74493883e-002 0.
      1.75012610e-004 5.84862901e-005 2.94680804e-001 2.81056851e-001
      1.83253840e-001 6.04889356e-002 8.98268074e-002 1.24069624e-001 0.
      0. 0. 1.29578635e-001</_>
    <_>
      0. 0. 0. 0. 0. 0. 0. 0. 0. 0. 0. 0. 0. 0. 0. 0. 0. 0. 0. 0. 0. 0.
      0. 0. 0. 0. 0. 0. 0. 0. 0. 0. 0. 0. 0. 0. 0. 0. 0. 0. 0. 0. 0. 0.
      0. 0. 0. 0. 0. 0. 0. 0. 0. 0. 0. 0. 0. 0. 0. 0. 0. 0. 0. 0. 0. 0.
      0. 0. 0. 0. 0. 0. 0. 0. 0. 0. 0. 0. 0. 0. 0. 0. 0. 0. 0. 0. 0. 0.
      0. 0. 0. 0. 0. 0. 0. 0. 0. 0. 0. 0. 0. 0. 0. 0. 0. 0. 0. 0. 0. 0.
      0. 0. 0. 0. 0. 0. 0. 0. 0. 0. 0. 0. 0. 0. 0. 0. 0. 0. 0. 0. 0. 0.
      0. 0. 0. 0. 0. 0. 0. 0. 0. 0. 0. 0. 0. 0. 0. 0. 0. 0. 0. 0. 0. 0.
      0. 0. 0. 0. 0. 0. 0. 0. 0. 0. 0. 0. 0. 0. 0. 0. 0. 0. 0. 0. 0. 0.
      0. 0. 0. 0. 0. 0. 0. 0. 0. 0. 0. 0. 0. 0. 0. 0. 0. 0. 0. 0. 0. 0.
      0. 0. 0. 0. 0. 0. 0. 0. 0. 0. 0. 0. 0. 0. 0. 0. 0. 0. 0. 0. 0. 0.
      0. 0. 0. 0. 0. 0. 0. 0. 0. 0. 0. 0. 0. 0. 0. 0. 0. 0. 0. 0. 0. 0.
      0. 0. 0. 0. 0. 0. 0. 0. 0. 0. 0. 0. 0. 0. 0. 0. 0. 0. 0. 0. 0. 0.
      0. 0. 0. 0. 0. 0. 0. 0. 0. 0. 0. 0. 0. 0. 0. 0. 0. 0. 0. 0. 0. 0.
      0. 0. 0. 0. 0. 0. 0. 0. 0. 0. 0. 0. 0. 0. 0. 0. 0. 0. 0. 0. 0. 0.
      0. 0. 0. 0. 0. 0. 0. 0. 0. 0. 0. 0. 0. 0. 0. 0. 0. 0. 0. 0. 0. 0.
      0. 0. 0. 0. 0. 0. 0. 0. 0. 0. 0. 0. 0. 0. 0. 0. 0. 0. 0. 0. 0. 0.
      0. 0. 0. 0. 0. 0. 0. 0. 0. 0. 0. 0. 0. 0. 0. 0. 0. 0. 0. 0. 0. 0.
      0. 0. 0. 0. 0. 0. 0. 0. 0. 0. 0. 0. 0. 0. 0. 0. 0. 0. 0. 0. 0. 0.
      0. 0. 0. 0. 0. 0. 0. 0. 0. 0. 0. 0. 0. 0. 0. 0. 0. 0. 0. 0. 0. 0.
      0. 0. 0. 0. 0. 0. 0. 0. 0. 0. 0. 0. 0. 0. 0. 0. 0. 0. 0. 0. 0. 0.
      0. 0. 0. 0. 0. 0. 0. 0. 0. 0. 0. 0. 0. 0. 0. 0. 0. 0. 0. 0. 0. 0.
      0. 0. 0. 0. 0. 0. 0. 0. 0. 0. 0. 0. 0. 0. 0. 0. 0. 0. 0. 0. 0. 0.
      0. 0. 0. 0. 0. 0. 0. 0. 0. 0. 0. 0. 0. 0. 0. 0. 0. 0. 0. 0. 0. 0.
      0. 0. 0. 0. 0. 0. 0. 0. 0. 0. 0. 0. 0. 0. 0. 0. 0. 0. 0. 0. 0. 0.
      0. 0. 0. 0. 0. 0. 0. 0. 0. 0. 0. 0. 0. 0. 0. 0. 0. 0. 0. 0. 0. 0.
      0. 0. 0. 0. 0. 0. 0. 0. 0. 0. 0. 0. 0. 0. 0. 0. 0. 0. 0. 0. 0. 0.
      0. 0. 0. 0. 0. 0. 0. 0. 0. 0. 0. 0. 0. 0. 0. 0. 0. 0. 0. 0. 0. 0.
      0. 0. 0. 0. 0. 0. 0. 0. 0. 0. 0. 0. 0. 0. 0. 0. 0. 0. 0. 0. 0. 0.
      0. 0. 0. 0. 0. 0. 0. 0. 0. 0. 0. 0. 0. 0. 0. 0. 0. 0. 0. 0. 0. 0.
      0. 0. 0. 0. 0. 0. 0. 0. 0. 0. 0. 0. 0. 0. 0. 0. 0. 0. 0. 0. 0. 0.
      0. 0. 0. 0. 0. 0. 0. 0. 0. 0. 0. 0. 0. 0. 0. 0. 0. 0. 0. 0. 0. 0.
      0. 0. 0. 0. 0. 0. 0. 0. 0. 0. 0. 0. 0. 0. 0. 0. 0. 0. 0. 0. 0. 0.
      0. 0. 0. 0. 0. 0. 0. 0. 0. 0. 0. 0. 0. 0. 0. 0. 0. 0. 0. 0. 0. 0.
      0. 0. 0. 0. 0. 0. 0. 0. 0. 0. 0. 0. 0. 0. 0. 0. 0. 0. 0. 0. 0. 0.
      0. 0. 0. 0. 0. 0. 0. 0. 0. 0. 0. 0. 0. 0. 0. 0. 0. 0. 0. 0. 0. 0.
      0. 0. 0. 0. 0. 0. 0. 0. 0. 0. 0. 0. 0. 0. 0. 0. 0. 0. 0. 0. 0. 0.
      0. 0. 0. 0. 0. 0. 0. 0. 0. 0. 0. 0. 0. 0. 0. 0. 0. 0. 0. 0. 0. 0.
      0. 0. 0. 0. 0. 0. 0. 0. 0. 0. 0. 0. 0. 0. 0. 0. 0. 0. 0. 0. 0. 0.
      0. 0. 0. 0. 0. 0. 0. 0. 0. 0. 0. 0. 0. 0. 0. 0. 0. 0. 0. 0. 0. 0.
      0. 0. 0. 0. 0. 0. 0. 0. 0. 0. 0. 0. 0. 0. 0. 0. 0. 0. 0. 0. 0. 0.
      0. 0. 0. 0. 0. 0. 0. 0. 0. 0. 0. 0. 0. 0. 0. 0. 0. 0. 0. 0. 0. 0.
      0. 0. 0. 0. 0. 0. 0. 0. 0. 0. 0. 0. 0. 0. 0. 0. 0. 0. 0. 0. 0. 0.
      0. 0. 0. 0. 0. 0. 0. 0. 0. 0. 0. 0. 0. 0. 0. 0. 0. 0. 0. 0. 0. 0.
      0. 0. 0. 0. 0. 0. 0. 0. 0. 0. 0. 0. 0. 0. 0. 0. 0. 0. 0. 0. 0. 0.
      0. 0. 0. 0. 0. 0. 0. 0. 0. 0. 0. 0. 0. 0. 0. 0. 0. 0. 0. 0. 0. 0.
      0. 0. 0. 0. 0. 0. 0. 0. 0. 0. 0. 0. 0. 0. 0. 0. 0. 0. 0. 0. 0. 0.
      0. 0. 0. 0. 0. 0. 0. 0. 0. 0. 0. 0. 0. 0. 0. 0. 0. 0. 0. 0. 0. 0.
      0. 0. 0. 0. 0. 0. 0. 0. 0. 0. 0. 0. 0. 0. 0. 0. 0. 0. 0. 0. 0. 0.
      0. 0. 0. 0. 0. 0. 0. 0. 0. 0. 0. 0. 0. 0. 0. 0. 0. 0. 0. 0. 0. 0.
      0. 0. 0. 0. 0. 0. 0. 0. 0. 0. 0. 0. 0. 0. 0. 0. 0. 0. 0. 0. 0. 0.
      0. 0. 0. 0. 0. 0. 0. 0. 0. 0. 0. 0. 0. 0. 0. 0. 0. 0. 0. 0. 0. 0.
      0. 0. 0. 0. 0. 0. 0. 0. 0. 0. 0. 0. 0. 0. 0. 0. 0. 0. 0. 0. 0. 0.
      0. 0. 0. 0. 0. 0. 0. 0.</_>
    <_>
      1.96376085e-001 1.26442939e-001 3.69186886e-002 5.73276468e-002
      1.11003339e-001 1.01558253e-001 1.22099675e-001 1.67338088e-001
      1.71953753e-001 1.45415232e-001 1.42968833e-001 6.05612397e-002
      1.92809254e-001 2.80124962e-001 2.65637845e-001 9.15827155e-002
      1.53878868e-001 1.42932132e-001 2.08746985e-001 5.31362332e-002
      7.74930865e-002 6.31081015e-002 1.66684791e-001 2.80124962e-001
      2.56240219e-001 2.08791375e-001 1.33169711e-001 8.97577181e-002
      7.83706009e-002 1.30472049e-001 1.65537283e-001 1.53103814e-001
      2.80124962e-001 2.57408708e-001 1.76433474e-001 1.06665954e-001
      3.59719433e-002 6.84057921e-002 2.65941676e-002 8.58407244e-002
      2.55657732e-001 1.48133636e-001 1.70683563e-001 1.08021282e-001
      8.46939683e-002 1.62715524e-001 1.63910598e-001 1.15226023e-001
      2.14065328e-001 2.55657732e-001 1.04059994e-001 1.86009780e-001
      1.18409380e-001 1.84412569e-001 7.68043995e-002 4.61613871e-002
      2.19407156e-002 9.87286642e-002 2.55657732e-001 2.55657732e-001
      1.60826921e-001 2.55657732e-001 1.71397388e-001 1.60366565e-001
      9.12293866e-002 7.97650367e-002 2.55657732e-001 2.55657732e-001
      1.75364107e-001 1.09381124e-001 1.67539239e-001 2.55657732e-001
      1.79447219e-001 1.00054525e-001 1.48559496e-001 1.85600773e-001
      9.75071862e-002 2.50394940e-001 1.73561513e-001 7.49863982e-002
      1.66727856e-001 1.49648279e-001 1.60222113e-001 1.62795559e-001
      1.26819253e-001 2.08381668e-001 2.50394940e-001 4.41278778e-002
      1.44271739e-002 5.20718209e-002 1.11518562e-001 6.47938028e-002
      1.45953447e-001 2.08571404e-001 1.64715588e-001 2.50394940e-001
      1.86956525e-001 1.33530155e-001 2.50394940e-001 2.47885302e-001
      1.42652720e-001 1.84657902e-001 1.40362918e-001 2.27062434e-001
      2.50394940e-001 1.21218249e-001 3.67553420e-002 9.34532359e-002
      4.01894487e-002 5.87944761e-002 9.27550942e-002 2.58942008e-001
      2.58942008e-001 2.62255371e-002 9.03560147e-002 9.89995077e-002
      4.21027131e-002 8.75067413e-002 7.65183866e-002 1.09978318e-001
      2.58942008e-001 2.58942008e-001 5.34054153e-002 1.10806458e-001
      1.30256489e-001 2.08372161e-001 1.50806963e-001 2.24848941e-001
      2.58942008e-001 2.58942008e-001 1.90491319e-001 1.03540875e-001
      7.25529119e-002 7.35073686e-002 8.93998984e-003 1.41618922e-001
      2.36493275e-001 2.58942008e-001 2.58942008e-001 2.58942008e-001
      6.34689927e-002 9.99031439e-002 1.48113191e-001 1.25470757e-001
      1.80882722e-001 1.24984466e-001 1.74314305e-001 1.23143472e-001
      7.43323192e-002 7.87129104e-002 7.68578649e-002 1.52757168e-001
      1.93641901e-001 1.79995462e-001 7.01892450e-002 1.49466082e-001
      1.74577206e-001 2.72757202e-001 5.69432154e-002 8.97086337e-002
      1.32560581e-001 1.44373044e-001 1.91905782e-001 6.57525733e-002
      6.43711388e-002 7.22210035e-002 2.72757202e-001 8.71359780e-002
      2.12010652e-001 2.08858609e-001 2.63562560e-001 1.24684468e-001
      2.78647449e-002 1.34273142e-001 1.21033207e-001 2.72757202e-001
      5.52554540e-002 2.72757202e-001 2.72757202e-001 2.11898148e-001
      1.72760114e-001 1.57298535e-001 1.38354972e-001 1.85623959e-001
      2.53533095e-001 4.44841720e-002 4.46379781e-002 2.85379756e-002
      2.04553232e-002 1.30899742e-001 2.26977155e-001 2.53533095e-001
      2.06207439e-001 2.18126476e-001 2.53533095e-001 7.05258176e-002
      9.03824642e-002 1.65674631e-002 1.03355803e-001 9.32605565e-002
      1.52335048e-001 1.94463432e-001 2.53533095e-001 1.29772186e-001
      8.36217776e-002 6.23815879e-002 1.02957122e-001 1.38043955e-001
      1.86802357e-001 1.80586711e-001 2.31571019e-001 2.53533095e-001
      2.41825044e-001 2.22854227e-001 1.13062866e-001 1.03279635e-001
      6.47027865e-002 2.71872252e-001 1.32950023e-001 1.43232480e-001
      7.28894845e-002 2.06111118e-001 1.13059849e-001 4.07427400e-002
      1.48787545e-002 6.68866783e-002 2.21966833e-001 9.04506668e-002
      3.39291953e-002 6.42311797e-002 2.71872252e-001 2.71872252e-001
      1.76365256e-001 6.52593151e-002 8.97496492e-002 2.71872252e-001
      7.12799504e-002 1.07251711e-001 2.71872252e-001 2.71872252e-001
      1.12072214e-001 5.10097779e-002 4.97759357e-002 1.26748964e-001
      2.71872252e-001 1.41518146e-001 3.07561029e-002 2.09487751e-001
      2.71872252e-001 2.45237976e-001 7.22809881e-002 9.99873877e-002
      4.25274782e-002 2.12894857e-001 4.64418568e-002 8.18584785e-002
      2.35811219e-001 9.67020541e-002 2.62499571e-001 1.82811633e-001
      7.07393885e-002 2.32545242e-001 4.08761241e-002 2.13720407e-002
      5.54620363e-002 2.62968838e-001 2.62968838e-001 8.37684199e-002
      8.47160146e-002 1.56945944e-001 3.49151678e-002 1.35102510e-001
      7.25719333e-002 1.57818750e-001 1.29400432e-001 2.09577650e-001
      2.47988909e-001 1.39500961e-001 1.38130859e-001 2.22976357e-001
      1.96641430e-001 2.10740611e-001 2.62968838e-001 1.09018452e-001
      2.62968838e-001 5.44175170e-002 9.59225968e-002 1.64860457e-001
      1.91038679e-002 1.38659254e-001 2.82114714e-001 2.52356559e-001
      1.40894398e-001 2.26373617e-002 3.75138670e-002 1.46041848e-002
      1.99400745e-002 4.58275825e-002 1.19036011e-001 2.65406311e-001
      2.82114714e-001 2.62795419e-001 1.08642697e-001 7.44295344e-002
      6.76726550e-002 2.72330474e-002 2.55212262e-002 2.82114714e-001
      1.78106040e-001 2.02350110e-001 2.82114714e-001 3.26298811e-002
      5.92025183e-002 2.47748774e-002 3.35177071e-002 1.84999760e-002
      2.82114714e-001 2.54231721e-001 2.82114714e-001 2.82114714e-001
      3.58494595e-002 5.51417470e-003 9.42920074e-002 3.40389684e-002
      5.38748764e-002 6.53138459e-002 1.09144941e-001 1.54676750e-001
      1.89168975e-001 8.33837762e-002 1.20535731e-001 7.72945061e-002
      1.00200653e-001 6.01431951e-002 1.52605370e-001 1.61341563e-001
      1.28177688e-001 1.54361293e-001 1.39588982e-001 1.78881571e-001
      5.56991696e-002 2.24552453e-001 3.28000300e-002 1.12130277e-001
      2.59444565e-001 1.11244887e-001 2.16386169e-001 2.59444565e-001
      2.36990422e-001 1.50327384e-001 1.01265103e-001 4.71939258e-002
      2.59444565e-001 2.59444565e-001 2.59444565e-001 1.00544274e-001
      2.48440653e-001 2.59444565e-001 6.27039075e-002 1.97969526e-001
      1.12548813e-001 6.15669489e-002 1.13017105e-001 1.64771080e-001
      1.08406611e-001 8.95132646e-002 2.06527278e-001 1.49993002e-001
      2.08464209e-002 1.42249092e-001 1.13828599e-001 1.21502861e-001
      1.68369159e-001 2.24569663e-001 1.22632198e-001 1.83570653e-001
      1.72238082e-001 1.04240566e-001 1.75645873e-001 2.52055436e-001
      1.74171492e-001 2.30195045e-001 1.30701616e-001 1.40794009e-001
      2.52055436e-001 9.93177742e-002 5.92083335e-002 2.52055436e-001
      1.88142061e-001 1.50802895e-001 1.65504873e-001 2.25640997e-001
      1.98395476e-001 2.52055436e-001 1.30428597e-001 1.68373913e-001
      6.16044179e-002 7.34348968e-002 4.30640429e-002 1.29187644e-001
      8.66813064e-002 2.00239480e-001 1.26287073e-001 2.18569010e-001
      6.26643226e-002 5.60231693e-002 1.42388865e-001 1.85117945e-001
      2.38763005e-001 2.07871571e-001 2.39427552e-001 1.03864767e-001
      1.21510915e-001 4.33665104e-002 7.67370462e-002 2.67264783e-001
      1.60131067e-001 1.14818498e-001 7.25408122e-002 2.67264783e-001
      2.67264783e-001 1.75857440e-001 6.19286336e-002 7.93009922e-002
      2.67264783e-001 2.67264783e-001 2.41394281e-001 6.62728101e-002
      1.59907401e-001 2.67264783e-001 5.34985699e-002 3.12563181e-002
      1.87984452e-001 1.15352832e-001 1.71565428e-001 7.19990134e-002
      9.37157124e-002 1.22133993e-001 8.66419524e-002 4.57397811e-002
      1.32894725e-001 6.45875186e-002 1.76547080e-001 2.13013187e-001
      7.50939399e-002 1.41682521e-001 2.61351228e-001 1.14203647e-001
      5.56068942e-002 2.67378658e-001 2.76007831e-001 1.01096816e-001
      1.98819768e-002 7.90311769e-002 2.76007831e-001 1.88720033e-001
      1.60484612e-001 1.25896588e-001 1.89167216e-001 1.16171770e-001
      6.68408945e-002 1.90146733e-002 1.44982904e-001 2.76007831e-001
      2.76007831e-001 1.76118329e-001 1.39750406e-001 2.76007831e-001
      7.19078705e-002 1.28713742e-001 1.72590241e-001 8.11836421e-002
      1.13124721e-001 1.32656962e-001 7.12793171e-002 9.54072699e-002
      6.76950440e-002 2.72825304e-002 1.05927587e-001 2.40354285e-001
      8.27092379e-002 1.28489494e-001 1.79444864e-001 2.67084897e-001
      1.90165535e-001 6.50215521e-002 3.10516451e-002 1.04290411e-001
      2.29830891e-001 9.66683924e-002 2.67084897e-001 2.02930138e-001
      2.43895128e-001 4.19100411e-002 1.32053504e-002 1.04290932e-001
      2.67084897e-001 2.67084897e-001 1.72475845e-001 2.67084897e-001
      2.67084897e-001 2.67084897e-001 8.34411755e-002 2.90834904e-002
      9.35532376e-002 2.44553797e-002 6.74251541e-002 1.83897823e-001
      2.02143267e-001 1.92733943e-001 1.58982992e-001 1.09721452e-001
      9.74438339e-002 4.67173494e-002 7.17516690e-002 1.45271927e-001
      2.45515212e-001 2.11743265e-001 2.84847707e-001 2.41204500e-001
      2.27403473e-002 3.69340815e-002 1.13005310e-001 3.38110304e-003
      2.84847707e-001 2.84847707e-001 1.73185319e-001 4.83975336e-002
      5.09651937e-002 7.60747939e-002 1.69852719e-001 1.16837204e-001
      3.29959951e-002 2.84847707e-001 2.84847707e-001 2.84847707e-001
      1.94252625e-001 5.38312979e-002 1.83106586e-002 7.82570243e-002
      8.49783346e-002 2.98229661e-002 6.89742789e-002 2.65384354e-002
      1.90081775e-001 2.21510962e-001 1.48330420e-001 1.03852913e-001
      6.70986846e-002 9.78831202e-002 2.99772713e-002 9.92826093e-003
      2.47487184e-002 2.82587916e-001 2.34502643e-001 2.57799983e-001
      1.85708418e-001 7.84129053e-002 5.16291857e-002 4.79379576e-003
      9.15159360e-002 1.60715938e-001 2.50813603e-001 1.54408187e-001
      2.82587916e-001 2.82587916e-001 1.33996323e-001 9.30199474e-002
      1.87347196e-002 8.24473575e-002 1.79628462e-001 2.82587916e-001
      7.51738846e-002 2.82587916e-001 2.70736873e-001 1.41216666e-001
      2.89187551e-001 7.27035031e-002 4.40394804e-002 9.25665647e-002
      1.31073460e-001 1.75874054e-001 7.27270618e-002 1.12503089e-001
      9.76875499e-002 2.92233050e-001 2.39465684e-001 1.58119887e-001
      1.05760209e-001 1.27039909e-001 1.58072174e-001 5.07961586e-002
      6.91541061e-002 7.48591647e-002 2.92233050e-001 1.66448087e-001
      1.92098022e-002 3.32608409e-002 8.04621726e-002 1.50057912e-001
      8.45781043e-002 1.95654675e-001 2.11847320e-001 2.92233050e-001
      2.92233050e-001 1.73242867e-001 2.92233050e-001 1.82985589e-001
      6.37992769e-002 2.36723404e-002 1.04131341e-001 1.41334340e-001
      2.06684694e-001 1.58211410e-001 1.36107221e-001 1.09789915e-001
      1.46629632e-001 6.50298744e-002 8.24537799e-002 5.79321831e-002
      8.25397223e-002 2.61945605e-001 1.46090597e-001 1.73970953e-001
      2.00855568e-001 6.88370392e-002 9.18305293e-002 1.78413510e-001
      7.54036456e-002 2.00694114e-001 7.75428489e-002 1.69030845e-001
      2.61945605e-001 1.98997155e-001 1.89667404e-001 9.31668505e-002
      1.05684772e-001 8.39233994e-002 2.05348164e-001 1.29141375e-001
      1.54227957e-001 2.61945605e-001 2.61945605e-001 1.53354734e-001
      8.35326985e-002 2.61945605e-001 1.34072348e-001 2.49417514e-001
      1.42974108e-001 9.43434462e-002 1.23224489e-001 1.25981793e-001
      1.85643822e-001 1.23251610e-001 2.44528800e-001 5.11668846e-002
      9.57358256e-002 9.96152312e-002 1.71132147e-001 1.97626576e-001
      1.77008599e-001 2.26967290e-001 1.23401850e-001 1.26353770e-001
      1.32799953e-001 5.79477213e-002 2.09558934e-001 1.51497990e-001
      7.71719813e-002 4.95924912e-002 9.55731869e-002 2.52708793e-001
      2.52708793e-001 8.97080004e-002 1.66978940e-001 1.56311065e-001
      2.52708793e-001 1.94484353e-001 1.97536618e-001 1.77049443e-001
      2.21569315e-001 2.45877370e-001 1.67783886e-001 1.42443776e-001
      1.05541386e-001 8.33660886e-002 1.20492555e-001 2.06886515e-001
      1.73850104e-001 1.11888438e-001 7.84240514e-002 1.46656930e-001
      1.54090628e-001 2.41698354e-001 5.38995042e-002 1.18474863e-001
      2.56381631e-001 1.56355470e-001 5.44304810e-002 8.49907547e-002
      1.61311761e-001 1.37189284e-001 1.57298654e-001 1.98946550e-001
      1.32557511e-001 1.05664544e-001 1.54650599e-001 2.12466031e-001
      2.56381631e-001 1.11873917e-001 2.01835930e-001 2.56381631e-001
      1.92431837e-001 6.61259294e-002 1.75679117e-001 1.14269480e-001
      1.37529612e-001 2.20150873e-001 2.05052376e-001 2.56381631e-001
      2.32139751e-002 5.63228801e-002 1.53872490e-001 4.31235731e-002
      1.43161342e-001 3.57974321e-001 3.36361825e-001 7.07224905e-002
      1.70904715e-002 3.91748361e-002 9.66020301e-003 2.87058717e-003
      2.18270551e-002 1.31685510e-001 2.38071695e-001 7.56013319e-002
      2.51563862e-002 2.11909432e-002 4.12842408e-002 1.47824651e-002
      1.22891992e-001 1.63333610e-001 3.57974321e-001 3.57974321e-001
      2.33435184e-001 3.72539787e-003 2.79654693e-002 3.12793925e-002
      1.31635666e-002 1.86528880e-002 3.08434777e-002 3.57974321e-001
      3.57974321e-001 4.84961309e-002 2.01264303e-002 1.97797846e-002
      1.83960944e-001 1.06911078e-001 6.95165768e-002 1.29502028e-001
      5.97156659e-002 2.10038386e-002 4.80572395e-002 9.76457745e-002
      1.76702186e-001 2.49504074e-001 1.20543420e-001 4.25259285e-002
      8.64743143e-002 8.22614282e-002 1.64186999e-001 2.49504074e-001
      1.09308966e-001 2.09505081e-001 2.09098995e-001 1.50961861e-001
      2.49504074e-001 1.42346948e-001 2.32418627e-001 6.08021319e-002
      5.04250787e-002 1.08212501e-001 2.32824460e-001 2.49504074e-001
      1.87356174e-001 2.21476182e-001 2.25773096e-001 2.44614065e-001
      1.34770393e-001 2.49504074e-001 6.25237450e-002 1.70081049e-001
      7.31585473e-002 4.78656180e-002 1.10492028e-001 1.61266908e-001
      1.87904879e-001 9.63470265e-002 4.54757065e-002 1.11915059e-001
      1.22528657e-001 5.86336516e-002 8.37569311e-002 2.46078104e-001
      2.69236773e-001 2.34814540e-001 4.42482717e-002 1.42814741e-002
      1.19804583e-001 2.69236773e-001 8.52879584e-002 4.76353504e-002
      9.89040360e-002 1.15203798e-001 2.18079627e-001 1.12689957e-001
      2.62566209e-001 2.20218047e-001 2.69236773e-001 5.90596423e-002
      1.08946890e-001 1.66030064e-001 2.69236773e-001 2.69236773e-001
      5.98953553e-002 1.21439487e-001 1.67665914e-001 2.69236773e-001
      5.03967106e-002 7.68528134e-002 5.18394187e-002 4.70690541e-002
      2.17384562e-001 2.51178473e-001 1.55691296e-001 9.51833799e-002
      4.99171689e-002 1.16047509e-001 6.35760650e-002 2.56543588e-002
      1.39457554e-001 1.21946797e-001 2.70556420e-001 1.80146232e-001
      1.09039411e-001 1.84822679e-001 1.40884265e-001 5.19571938e-002
      5.75823756e-003 6.92138597e-002 2.70556420e-001 2.70556420e-001
      1.74850985e-001 1.53958037e-001 8.58943537e-002 2.70556420e-001
      5.66539802e-002 4.26706765e-003 1.56303495e-001 2.70556420e-001
      2.70556420e-001 2.70556420e-001 2.34290808e-001 1.51126787e-001
      3.07700522e-002 6.20554015e-003 1.91795435e-002 6.11852221e-002
      1.90832987e-001 2.91181386e-001 1.77236423e-001 4.53194454e-002
      4.53938060e-002 2.91181386e-001 1.37178824e-004 0. 0.
      6.32398650e-002 2.91181386e-001 2.30118215e-001 7.55323991e-002
      2.91181386e-001 4.48643826e-002 0. 9.78776603e-004 4.61855829e-002
      2.09514558e-001 2.91181386e-001 2.51305282e-001 1.14929818e-001
      9.38794911e-002 2.91181386e-001 0. 0. 0. 1.23821134e-002
      2.25652531e-001 2.09566250e-001 1.88875586e-001 2.91181386e-001
      3.11481714e-001 2.88844734e-001 7.80820772e-002 0. 0. 0.
      5.42779230e-002 1.09265432e-001 8.13207701e-002 3.11481714e-001
      1.59127191e-001 4.68492471e-002 0. 0. 0. 0. 4.63019460e-005
      3.11481714e-001 3.11481714e-001 3.11481714e-001 2.06184268e-001 0.
      0. 0. 8.77735540e-002 1.91280469e-001 7.34398365e-002
      3.11481714e-001 2.68061161e-001 1.23063482e-001 0. 0. 0. 0.
      4.22021112e-005 3.11481714e-001 2.22906955e-002 0. 0.
      5.45858406e-004 6.20091967e-002 2.24563017e-001 3.11066359e-001
      2.68282682e-001 2.14974910e-001 0. 3.54331313e-003 1.47131563e-003
      1.77538441e-003 1.24984555e-001 2.34167099e-001 1.60831332e-001
      4.93111275e-002 3.94797884e-003 2.70496737e-002 0. 0. 0.
      2.43624568e-001 3.17514628e-001 3.17514628e-001 2.75317460e-001
      2.03236818e-001 0. 3.05908965e-003 4.66696220e-003 3.71823437e-004
      3.17514628e-001 3.17514628e-001 2.15161070e-001 3.92414667e-002
      3.41249601e-004 2.63559431e-001 1.94292411e-001 6.86571822e-002
      7.70702884e-002 2.47665524e-001 2.18937006e-002 5.80019988e-002
      4.31615487e-002 2.11485401e-002 2.63559431e-001 2.15021893e-001
      6.48030788e-002 2.63559431e-001 1.91603467e-001 2.43387800e-002
      5.32997549e-002 1.43105403e-001 5.44453524e-002 1.82257742e-001
      2.10178837e-001 2.23691568e-001 1.25993446e-001 2.63559431e-001
      5.81189431e-002 4.80427817e-002 8.43305886e-002 9.82652530e-002
      2.63559431e-001 2.63559431e-001 2.29982480e-001 2.50967681e-001
      1.56803176e-001 5.59545457e-002 1.12784319e-002 1.29204690e-001
      1.56500280e-001 1.33323789e-001 5.68767525e-002 3.01735718e-002
      4.86170948e-002 3.94618601e-001 3.94618601e-001 1.61386784e-002
      5.32906242e-002 8.50863978e-002 3.94618601e-001 1.08002573e-001
      4.57195900e-002 3.51955071e-002 5.33175841e-002 3.17207463e-002
      1.00319488e-002 3.54524553e-002 1.86761230e-001 4.54393625e-002
      3.08639556e-002 2.86509003e-002 5.48992045e-002 3.94618601e-001
      3.94618601e-001 3.16320322e-002 1.74002498e-002 3.98465097e-002
      7.00273886e-002 7.69021437e-002 6.06334619e-002 5.49264215e-002
      2.09950775e-001 2.06432790e-001 4.08271439e-002 9.00934413e-002
      6.32627085e-002 3.98658775e-002 2.64886498e-001 2.75399446e-001
      2.75399446e-001 1.08854175e-001 1.19823098e-001 1.76959351e-001
      2.14126576e-002 8.69122520e-003 2.75399446e-001 1.85833260e-001
      2.75399446e-001 2.52804995e-001 6.67893514e-002 4.50030575e-003
      1.14636961e-003 1.82550086e-003 2.06597880e-001 8.98633618e-003
      1.72044411e-002 1.40880734e-001 2.75399446e-001 2.75399446e-001
      2.53721744e-001 7.11601451e-002 1.08709466e-003 9.89992823e-003
      9.49932039e-002 4.76204120e-002 8.71619806e-002 2.30262786e-001
      2.75399446e-001 1.21895708e-001 1.41013768e-002 1.22239022e-002
      1.18462622e-001 1.36746431e-003 0. 0. 9.88798123e-003
      4.26315844e-001 3.82569969e-001 2.34074369e-002 7.54986517e-003
      6.39406312e-003 0. 1.43554644e-004 1.18493894e-003 2.21681204e-002
      4.26315844e-001 2.25162759e-001 9.29903984e-003 8.30534962e-004 0.
      4.65094308e-005 0. 0. 1.34010434e-001 4.26315844e-001
      1.40461475e-001 2.55400711e-003 1.37338310e-003 2.32334528e-003 0.
      1.00488251e-003 6.03555003e-003 1.68856785e-001 4.26315844e-001
      6.39689937e-002 5.50338859e-003 1.58700161e-003 0. 9.87548381e-002
      1.32135645e-001 1.59724131e-001 2.24598244e-001 2.25975946e-001
      1.33686617e-001 7.38401115e-002 6.59328252e-002 9.21598375e-002
      2.43263245e-001 2.43263245e-001 1.74209759e-001 2.21506312e-001
      8.45935792e-002 3.40846963e-002 1.16098143e-001 5.40984049e-002
      1.53756768e-001 1.20907307e-001 1.38262495e-001 1.51296318e-001
      1.87502667e-001 2.34831423e-001 1.16890639e-001 1.18373707e-001
      1.42236620e-001 8.75981152e-002 2.43263245e-001 2.43263245e-001
      1.94794461e-001 2.43263245e-001 2.43263245e-001 6.83798268e-003
      2.38255095e-002 2.00976446e-001 2.07049638e-001</_>
    <_>
      4.34491858e-002 4.75577563e-002 9.01308283e-002 7.33369142e-002
      2.79558063e-001 1.34402454e-001 3.20820771e-002 2.01972857e-001
      2.20696598e-001 3.62164341e-002 1.60976008e-001 9.55566615e-002
      5.65582477e-002 2.79558063e-001 2.79558063e-001 1.60508007e-001
      1.34690225e-001 1.83053523e-001 5.50539643e-002 1.33134246e-001
      2.58269310e-001 1.06195383e-001 1.07795589e-001 1.71783328e-001
      1.72456220e-001 1.52632698e-001 2.40711331e-001 1.87833056e-001
      1.37079284e-001 2.00875819e-001 1.27945855e-001 6.76931739e-002
      2.79558063e-001 2.17081428e-001 8.19349810e-002 1.46029085e-001
      4.09215316e-002 3.86483930e-002 1.41703665e-001 2.02603593e-001
      2.45397449e-001 1.67420566e-001 7.80139640e-002 3.26219313e-002
      9.90527123e-002 5.92306815e-002 3.98358330e-002 1.91932112e-001
      2.53711462e-001 2.53711462e-001 3.77891138e-002 8.39616954e-002
      4.76300530e-002 2.19872624e-001 9.41537470e-002 4.48900089e-002
      1.35533959e-001 1.81151107e-001 2.53711462e-001 1.35991856e-001
      1.79973543e-001 2.22907215e-001 1.87387928e-001 1.67876303e-001
      7.36440122e-002 2.02752009e-001 2.53711462e-001 2.53711462e-001
      4.73853126e-002 1.28396034e-001 2.22530887e-001 2.53711462e-001
      2.02154294e-001 1.63351148e-001 1.67814091e-001 4.51187305e-002
      1.71141863e-001 5.13529666e-002 1.16232120e-001 1.92677863e-002
      1.29430965e-001 2.15403572e-001 1.22995801e-001 1.96817786e-001
      6.49688095e-002 2.64829189e-001 6.74606189e-002 1.25395775e-001
      7.68274814e-002 1.98535055e-001 1.43773392e-001 2.00073540e-001
      2.64829189e-001 1.75125718e-001 2.34085530e-001 1.15329131e-001
      1.66897669e-001 2.13914756e-002 9.92361829e-002 1.23971052e-001
      1.36811078e-001 2.64829189e-001 9.44203958e-002 2.64829189e-001
      1.63644403e-001 2.11395845e-001 1.33021161e-001 2.37990975e-001
      7.45843202e-002 1.54075101e-001 1.84960738e-001 1.17322922e-001
      1.31713450e-001 4.04861197e-002 1.11920998e-001 1.26940042e-001
      5.98140284e-002 2.39416599e-001 1.60799012e-001 2.14449167e-001
      1.98172256e-001 2.37029865e-001 1.14886306e-001 1.12907939e-001
      6.80261254e-002 1.99015632e-001 7.99291953e-002 2.52367646e-001
      2.40873754e-001 1.94618300e-001 1.73514172e-001 1.25411019e-001
      1.13181844e-001 8.48925561e-002 7.69758075e-002 9.06345770e-002
      1.64761797e-001 2.15293452e-001 2.55817711e-001 2.55817711e-001
      1.90368742e-001 1.38165593e-001 2.05362722e-001 1.62189066e-001
      6.92312047e-002 8.02846719e-003 6.16004914e-002 1.43185511e-001
      4.75730449e-002 1.79918274e-001 1.45672277e-001 1.20962076e-001
      1.23366535e-001 5.23473322e-002 1.79073922e-002 9.22218189e-002
      2.40738779e-001 9.50062945e-002 2.07389861e-001 2.49457940e-001
      1.53311059e-001 1.58535436e-001 1.83027774e-001 1.60496414e-001
      1.39638022e-001 2.49457940e-001 6.63548037e-002 1.16087645e-001
      1.52602881e-001 1.77765384e-001 1.14746876e-001 2.38320604e-001
      1.87549189e-001 2.49457940e-001 2.49457940e-001 1.70570388e-001
      2.49457940e-001 2.49457940e-001 2.18972757e-001 7.32828379e-002
      6.80601150e-002 4.68137413e-002 1.40010148e-001 9.26718712e-002
      8.84759575e-002 2.06201628e-001 2.43496876e-002 1.07941136e-001
      1.24634735e-001 2.57314116e-001 8.57372209e-002 1.29560024e-001
      2.19521791e-001 2.03228563e-001 2.57314116e-001 1.38366921e-002
      1.08796194e-001 2.16116056e-001 5.16535193e-002 7.18485564e-002
      1.26191124e-001 1.25974908e-001 2.18405664e-001 2.57314116e-001
      7.33031332e-002 1.33342326e-001 5.10044023e-002 2.11722523e-001
      9.75600630e-002 1.27732426e-001 2.45437294e-001 2.57314116e-001
      2.57314116e-001 6.68787062e-002 2.57314116e-001 2.57314116e-001
      6.41540065e-002 8.94282535e-002 1.62400305e-001 1.09219864e-001
      2.61609972e-001 2.61609972e-001 5.12240231e-002 1.32996947e-001
      1.02902539e-001 5.45000136e-002 7.29476362e-002 2.27275968e-001
      1.15424521e-001 2.40364149e-001 1.55001819e-001 6.54948577e-002
      1.71999902e-001 2.09133297e-001 1.05884925e-001 8.32061097e-002
      2.61609972e-001 1.61096454e-001 2.61609972e-001 2.61609972e-001
      4.52311523e-002 1.05940878e-001 1.35773808e-001 9.74083990e-002
      3.52959558e-002 2.61609972e-001 1.23408623e-001 1.22270323e-001
      2.61609972e-001 1.34060994e-001 1.65229023e-001 2.05749780e-001
      1.48730755e-001 4.25191671e-002 1.41410232e-001 1.97840020e-001
      9.88486931e-002 2.36349612e-001 1.91203609e-001 6.80549741e-002
      1.18692622e-001 1.52295142e-001 1.70332454e-002 5.14015816e-002
      2.52895445e-001 2.52895445e-001 2.44295195e-001 1.65809378e-001
      8.14463422e-002 1.29639044e-001 7.90781304e-002 1.45555973e-001
      1.88557416e-001 2.32633829e-001 1.81348994e-001 2.16464564e-001
      1.61840662e-001 1.19127989e-001 9.99057293e-002 9.89468694e-002
      4.44606096e-002 1.13197915e-001 2.52895445e-001 2.52895445e-001
      2.52895445e-001 1.70042664e-001 1.49762809e-001 1.17603630e-001
      1.20098643e-001 7.16731548e-002 1.05645478e-001 2.70514518e-001
      6.55708313e-002 7.40104094e-002 1.09689988e-001 1.10991418e-001
      4.01377343e-002 5.66166826e-002 8.03404823e-002 1.13086335e-001
      2.70514518e-001 2.26558059e-001 2.17177093e-001 2.70514518e-001
      1.18703969e-001 1.22806728e-002 1.96326748e-001 1.42992347e-001
      1.23944506e-001 2.70514518e-001 1.28630370e-001 7.28328452e-002
      3.80576588e-002 5.84768988e-002 9.35787186e-002 2.70514518e-001
      1.35118395e-001 1.45800561e-001 2.70514518e-001 2.52544492e-001
      2.70514518e-001 1.57168150e-001 1.50457203e-001 1.51470289e-001
      9.62031782e-002 1.12725541e-001 1.17403619e-001 2.70909280e-001
      1.79878578e-001 2.96565872e-002 3.30849700e-002 1.22164309e-001
      4.46054339e-002 1.36459559e-001 2.04003915e-001 1.88430876e-001
      2.70909280e-001 1.54307976e-001 3.27077545e-002 9.57700312e-002
      1.06478274e-001 1.35237426e-001 2.29096234e-001 2.48238042e-001
      1.53225720e-001 2.00322762e-001 2.70909280e-001 1.12408571e-001
      1.99792851e-002 4.64616902e-002 6.09136634e-002 2.70909280e-001
      2.65056193e-001 1.33364633e-001 2.17217579e-001 2.70909280e-001
      8.45924690e-002 1.36814332e-002 9.10453573e-002 1.90903187e-001
      6.77916706e-002 5.94146922e-002 1.05665997e-001 2.35931218e-001
      8.69937316e-002 1.66860625e-001 2.23302379e-001 1.01043463e-001
      4.68632355e-002 1.01262957e-001 7.85008594e-002 1.89945340e-001
      1.52070269e-001 2.27614388e-001 2.11316824e-001 1.70713663e-001
      1.05985455e-001 8.98232311e-002 1.19455643e-001 1.45398974e-001
      1.02350861e-001 2.41876096e-001 2.54864514e-001 1.44502029e-001
      2.44535297e-001 2.17062473e-001 5.35059869e-002 4.65193838e-002
      9.57913846e-002 2.54864514e-001 2.54864514e-001 2.01573983e-001
      1.82572529e-001 2.54864514e-001 1.45763472e-001 5.35395592e-002
      8.95084590e-002 1.61448687e-001 1.15224823e-001 2.53633112e-001
      2.49809802e-001 2.58536905e-001 5.77647239e-002 1.87172461e-002
      8.87582079e-002 1.10542089e-001 1.38452485e-001 1.62113070e-001
      2.58536905e-001 1.42074272e-001 1.00152127e-001 3.11311930e-002
      1.03478745e-001 1.41636997e-001 7.01218992e-002 2.46460870e-001
      9.21000317e-002 1.43736124e-001 2.58536905e-001 1.58110827e-001
      1.98536620e-001 3.19226943e-002 2.58084070e-002 2.01876774e-001
      1.34116948e-001 1.14379101e-001 1.02871723e-001 2.54394770e-001
      1.69008568e-001 2.58536905e-001 1.46088645e-001 2.58536905e-001
      1.06884062e-001 7.14546517e-002 1.21090837e-001 6.66147545e-002
      2.59227782e-001 2.59227782e-001 1.23234533e-001 1.06762059e-001
      2.82282010e-002 9.94080231e-002 8.29488263e-002 2.59227782e-001
      1.92516655e-001 1.89589620e-001 1.66690692e-001 1.59685791e-001
      3.10354736e-002 2.48570200e-002 1.56368613e-001 2.46098027e-001
      1.88779995e-001 7.50366747e-002 2.21853539e-001 2.59227782e-001
      1.65761128e-001 4.14553955e-002 6.41472489e-002 1.79624498e-001
      2.59227782e-001 2.59227782e-001 2.18305603e-001 2.31504381e-001
      1.52825803e-001 1.38333991e-001 3.73510309e-002 1.87227968e-002
      6.20633252e-002 4.32341062e-002 8.62116739e-002 2.53605783e-001
      1.09336019e-001 1.40284389e-001 2.27410868e-001 5.05778827e-002
      6.15786798e-002 1.95236877e-001 2.18336552e-001 1.87603518e-001
      1.97983935e-001 3.78357805e-002 1.66791439e-001 2.53605783e-001
      4.94400524e-002 1.47965476e-001 1.00174621e-001 1.86022650e-002
      2.53605783e-001 2.53605783e-001 2.53605783e-001 2.00648949e-001
      7.79243708e-002 1.33519486e-001 1.24761365e-001 2.53605783e-001
      1.78957283e-001 2.53605783e-001 1.81112960e-001 1.06463395e-001
      1.50551140e-001 6.80944473e-002 9.31129679e-002 1.68494225e-001
      2.04064474e-001 6.80150241e-002 7.53775686e-002 1.28865361e-001
      1.22068070e-001 7.79349953e-002 4.47946154e-002 9.83629450e-002
      2.30095744e-001 1.39175564e-001 1.08445317e-001 2.55425125e-001
      1.22414060e-001 1.26281247e-001 7.73611888e-002 9.07336250e-002
      1.81074351e-001 2.55425125e-001 1.92231417e-001 1.28695309e-001
      1.16507173e-001 1.93576902e-001 2.20898286e-001 9.94172618e-002
      6.98642060e-002 8.05181116e-002 2.55425125e-001 1.19636036e-001
      1.69104457e-001 2.24568397e-001 1.94934323e-001 1.11921676e-001
      1.55883536e-001 2.55425125e-001 2.55425125e-001 2.55425125e-001
      1.79673910e-001 1.46534085e-001 1.36439204e-001 2.06064612e-001
      1.24083258e-001 2.04077676e-001 2.09320202e-001 1.61564685e-002
      1.05332043e-002 1.65407211e-001 1.81200847e-001 1.74942970e-001
      1.79442972e-001 2.57427394e-001 1.10223480e-001 1.28988594e-001
      6.75171986e-002 8.89640301e-002 2.11081252e-001 2.59161919e-001
      1.41429469e-001 2.30439633e-001 6.84555098e-002 7.28337839e-002
      8.83219913e-002 1.01678297e-001 1.82371661e-001 1.70029089e-001
      2.59161919e-001 2.59161919e-001 2.53731012e-001 1.61273167e-001
      5.38240559e-002 1.05441704e-001 1.16936877e-001 1.52598575e-001
      1.40808985e-001 2.62069199e-002 2.31146708e-001 1.62196308e-001
      5.56768812e-002 1.48604318e-001 2.08065346e-001 9.62681323e-002
      1.65992394e-001 1.38514712e-001 1.22716263e-001 8.47040042e-002
      1.71067208e-001 4.68168631e-002 1.90726519e-001 2.43839204e-001
      8.35778788e-002 1.43721208e-001 2.52245456e-001 4.12460305e-002
      1.24440715e-001 6.92302361e-002 4.29984555e-002 2.26315320e-001
      2.52245456e-001 1.51212946e-001 2.52245456e-001 1.33351654e-001
      8.77803341e-002 1.45344377e-001 2.28388458e-001 9.23740938e-002
      2.52245456e-001 2.52245456e-001 2.29069322e-001 1.40537053e-001
      1.50762215e-001 3.34226191e-002 7.86836222e-002 5.74598834e-002
      3.69268060e-002 2.64747590e-001 2.66616344e-001 1.30829453e-001
      1.88918740e-001 2.57134110e-001 1.42595321e-001 1.42916799e-001
      8.10448825e-002 2.49626879e-002 2.03714669e-001 2.09540859e-001
      1.33689597e-001 1.05063275e-001 1.33622184e-001 5.58782145e-002
      2.66616344e-001 1.75194800e-001 5.92758469e-002 2.66616344e-001
      2.66616344e-001 6.15202002e-002 7.43049681e-002 1.88441664e-001
      6.26725554e-002 1.62192419e-001 1.31263092e-001 1.12819746e-001
      2.66616344e-001 2.14524582e-001 1.24503545e-001 1.84966832e-001
      1.65105250e-003 4.69681732e-002 1.46790132e-001 1.90184116e-001
      1.79793328e-001 2.00558379e-001 1.86584249e-001 2.02335954e-001
      1.39210625e-002 6.16910607e-002 9.17818099e-002 1.25460297e-001
      2.56520420e-001 1.99268267e-001 1.70807853e-001 2.56520420e-001
      9.42797512e-002 8.85468093e-004 2.66102031e-002 0. 1.57764658e-001
      1.72967672e-001 2.56520420e-001 2.56520420e-001 1.14734344e-001
      2.56520420e-001 3.72398645e-002 1.36121631e-001 7.26953940e-003
      8.48211870e-002 1.84844032e-001 2.56520420e-001 2.56520420e-001
      1.84324205e-001 2.39829421e-001 3.38884033e-002 7.88435563e-002
      4.06877771e-002 2.75237888e-001 2.50346899e-001 1.57677129e-001
      5.59308678e-002 8.52424279e-002 9.21112150e-002 1.08410018e-002
      9.92329046e-002 5.46384826e-002 2.48040959e-001 1.85346201e-001
      2.75237888e-001 2.75237888e-001 1.08912483e-001 5.11430688e-002
      4.64448743e-002 1.07095055e-001 1.03861064e-001 2.75237888e-001
      2.75237888e-001 1.48929998e-001 8.51463750e-002 1.26094133e-001
      1.21108234e-001 4.82171364e-002 1.47707775e-001 1.52603984e-001
      2.75237888e-001 2.75237888e-001 2.13823065e-001 1.68650657e-001
      2.98938397e-002 1.36992216e-001 6.08425029e-002 3.69635895e-002
      9.47427973e-002 1.32175535e-001 8.50658864e-003 1.71883762e-001
      3.53977442e-001 3.53977442e-001 5.69692925e-002 2.11954545e-002
      1.49996569e-002 4.02885629e-003 1.64180761e-003 1.44085968e-002
      1.43145218e-001 1.94876820e-001 6.46588057e-002 2.21434850e-002
      1.23611148e-002 3.82235609e-002 4.33760546e-002 1.83836564e-001
      9.50513557e-002 3.53977442e-001 3.53977442e-001 2.58057982e-001
      2.86053796e-003 4.52270135e-002 3.82633843e-002 3.07682790e-002
      5.69481868e-003 1.33825652e-002 3.53977442e-001 3.53977442e-001
      4.17384543e-002 1.98182482e-002 1.47783449e-002 2.33499855e-002
      2.95181572e-002 3.24514396e-002 1.20987266e-001 2.78530657e-001
