<?xml version="1.0"?>
<opencv_storage>
<my_svm type_id="opencv-ml-svm">
  <svm_type>C_SVC</svm_type>
  <kernel><type>RBF</type>
    <gamma>4.0000000000000001e-002</gamma></kernel>
  <C>10.</C>
  <term_criteria><epsilon>1.1920928955078125e-007</epsilon>
    <iterations>1000</iterations></term_criteria>
  <var_all>1152</var_all>
  <var_count>1152</var_count>
  <class_count>2</class_count>
  <class_labels type_id="opencv-matrix">
    <rows>1</rows>
    <cols>2</cols>
    <dt>i</dt>
    <data>
      -1 1</data></class_labels>
  <sv_total>35</sv_total>
  <support_vectors>
    <_>
      0. 0. 0. 0. 0. 0. 0. 0. 0. 0. 0. 0. 0. 0. 0. 0. 0. 0. 0. 0. 0. 0.
      0. 0. 0. 0. 0. 0. 0. 0. 0. 0. 0. 0. 0. 0. 0. 0. 0. 0. 0. 0. 0. 0.
      0. 0. 0. 0. 0. 0. 0. 0. 0. 0. 0. 0. 0. 0. 0. 0. 0. 0. 0. 0. 0. 0.
      0. 0. 0. 0. 0. 0. 0. 0. 0. 0. 0. 0. 0. 0. 0. 0. 0. 0. 0. 0. 0. 0.
      0. 0. 0. 0. 0. 0. 0. 0. 0. 0. 0. 0. 0. 0. 0. 0. 0. 0. 0. 0. 0. 0.
      0. 0. 0. 0. 0. 0. 0. 0. 0. 0. 0. 0. 0. 0. 0. 0. 0. 0. 0. 0. 0. 0.
      0. 0. 0. 0. 0. 0. 0. 0. 0. 0. 0. 0. 4.88161221e-002 0. 0. 0. 0. 0.
      0. 0. 4.88161221e-002 1.83466207e-002 0. 0. 0. 0. 0. 0. 0.
      1.83466207e-002 5.05819738e-001 4.36721221e-002 1.30683139e-001 0.
      3.45746309e-001 0. 2.69525766e-001 9.00707543e-002 5.05819738e-001
      1.44878641e-001 0. 0. 0. 2.84338415e-001 0. 3.45730364e-001
      1.15537010e-001 1.44878641e-001 0. 0. 0. 0. 8.47380236e-003 0. 0.
      0. 0. 6.02190616e-003 2.67538317e-002 8.00573602e-002 0.
      3.07593286e-001 0. 0. 0. 6.02190616e-003 0. 3.28248157e-003
      9.82239842e-003 0. 3.64393890e-002 0. 3.75539577e-003
      1.25498720e-003 0. 1.00365113e-002 6.91799447e-002 2.07011968e-001
      3.21011633e-001 8.51579964e-001 0. 4.43550572e-002 9.73993987e-002
      2.71472912e-002 3.42651606e-001 1.04765117e-001 6.58377036e-002
      5.81172816e-002 1.81970447e-002 3.91924143e-004 0. 4.47567290e-004
      3.42651606e-001 3.42651606e-001 6.73033239e-004 0. 2.95140228e-004
      1.87012944e-007 0. 0. 1.46949998e-004 3.42651606e-001
      3.42651606e-001 6.79502860e-002 1.19190387e-001 2.02911869e-001
      1.37800679e-001 3.12143732e-002 4.51923208e-003 3.35015170e-003
      2.75097370e-001 3.42651606e-001 1.25724694e-003 4.05542145e-004
      2.06598174e-003 2.06492934e-003 8.61859124e-004 4.21348697e-004
      2.01009121e-003 3.42651606e-001 2.81508327e-001 0. 2.57885130e-003
      5.39297983e-003 0. 9.09863319e-003 1.11529287e-002 6.03937823e-003
      2.81508327e-001 2.81508327e-001 3.13051336e-004 1.49480421e-002
      1.06419802e-001 7.12157264e-002 1.24312289e-001 9.85191911e-002
      4.22756560e-002 2.81508327e-001 2.81508327e-001 6.39708107e-003
      6.13768026e-002 6.41344711e-002 6.47772476e-002 1.56790018e-002
      2.95719039e-002 3.67456046e-003 2.81508327e-001 2.77079344e-001
      4.36283089e-002 2.81508327e-001 2.81508327e-001 2.81508327e-001
      1.42832607e-001 2.11086854e-001 6.31245822e-002 2.81508327e-001
      1.04418742e-002 4.18535471e-002 1.35162324e-001 1.19175859e-001
      3.82955134e-001 3.82955134e-001 7.87079558e-002 1.59219250e-001
      7.03367516e-002 3.95697355e-003 3.12471122e-004 9.35032731e-004
      2.18932648e-004 2.19748870e-001 2.09055260e-001 1.22126965e-002
      2.45592762e-002 1.32478047e-002 3.99801601e-003 2.71858275e-003
      4.73846868e-002 1.64327472e-001 3.82955134e-001 3.82955134e-001
      4.41500805e-002 2.20537763e-002 3.99801601e-003 1.72257994e-003
      5.20785223e-004 1.55838800e-003 1.88360247e-003 3.82955134e-001
      2.59386003e-001 8.93689319e-003 6.17995346e-003 2.25867424e-003
      9.44627635e-003 3.21565632e-004 9.62243183e-004 0. 2.71122474e-002
      0. 1.82668882e-004 6.10448915e-005 9.44627635e-003 6.53123781e-002
      6.27750009e-002 4.39073741e-002 5.27909458e-001 5.27909458e-001
      4.84999828e-003 1.27868215e-003 4.27314197e-004 6.96272496e-003
      1.61727816e-002 1.62924098e-005 4.87529105e-005 0. 7.98383877e-002
      0. 1.09594082e-003 3.66245105e-004 1.61727816e-002 9.50013101e-003
      8.91844835e-003 6.12463150e-003 3.74549896e-001 5.27909458e-001
      7.40424357e-003 1.13068672e-003 3.77856602e-004 9.50013101e-003
      3.64419222e-001 2.75954488e-003 1.76765083e-003 1.05801988e-002
      1.94427907e-001 1.43964082e-001 1.57836080e-001 1.81818441e-001
      3.64419222e-001 3.64419222e-001 1.40725504e-004 1.23679661e-003
      1.51751318e-003 4.36359784e-003 0. 4.76502394e-003 2.32237242e-002
      3.64419222e-001 1.33861914e-001 1.34544540e-003 4.02608607e-003
      1.70819424e-002 3.64419222e-001 2.05044553e-001 1.49240149e-002
      1.76409595e-002 1.71453401e-001 2.50009179e-001 1.21946132e-003
      3.64909368e-003 2.04982539e-003 2.74498463e-002 0. 0.
      2.30571697e-003 2.48317942e-001 2.36601248e-001 9.29578394e-002
      1.31754160e-001 1.53184310e-001 9.54537913e-002 3.47358547e-003
      3.33696778e-004 9.97668505e-003 2.41758794e-001 6.75521865e-002
      7.05958903e-002 3.55657578e-001 3.55657578e-001 3.55657578e-001
      1.98198739e-003 3.87076034e-005 2.00554021e-002 8.51720795e-002
      6.71005845e-002 1.08616324e-002 7.08999531e-003 1.85349062e-001
      3.55657578e-001 4.55425633e-003 4.39204799e-004 1.56902010e-003
      6.89202920e-002 1.71057712e-002 6.51697954e-003 4.96299677e-002
      3.55657578e-001 3.55657578e-001 5.13464725e-003 0. 2.37040874e-003
      2.32414603e-002 9.01152525e-005 0. 0. 5.00788260e-003
      4.98729229e-001 5.15241548e-003 2.34321960e-005 7.83062842e-006
      9.01152525e-005 0. 0. 0. 4.19182208e-004 4.98729229e-001
      2.31428491e-003 1.64025376e-004 5.48143980e-005 0. 7.59666182e-006
      1.87846836e-005 5.62109381e-005 2.25943327e-003 4.98729229e-001
      4.97531891e-003 0. 0. 7.59666182e-006 0. 1.31492779e-004
      3.93476541e-004 1.23084325e-003 4.98729229e-001 2.60244403e-003 0.
      0. 0. 0. 0. 0. 0. 6.48378581e-002 0. 1.82254080e-004
      6.09062699e-005 0. 0. 0. 0. 2.91890837e-003 7.00554490e-001
      7.90113769e-003 3.03756795e-004 1.01510457e-004 0. 0. 0. 0. 0.
      8.43053460e-002 0. 0. 0. 0. 0. 0. 0. 3.01144971e-003
      7.00554490e-001 7.87674170e-003 0. 0. 0. 0. 0. 0. 2.20598001e-003
      6.97997153e-001 3.14947497e-003 0. 0. 0. 0. 0. 0. 0.
      8.26957673e-002 0. 0. 0. 0. 0. 0. 0. 3.89845297e-003
      6.97997153e-001 0. 0. 0. 0. 0. 0. 0. 0. 1.08460255e-001 0. 0. 0.
      0. 0. 0. 0. 0. 4.98748511e-001 1.67119491e-004 0. 0. 0.
      1.93509739e-004 0. 0. 0. 4.98748511e-001 1.63560675e-003 0. 0.
      1.93509739e-004 0. 0. 0. 0. 4.98748511e-001 0. 0. 0. 0.
      4.21562581e-004 0. 0. 0. 4.98748511e-001 3.90693638e-003 0. 0.
      4.21562581e-004 4.90595994e-005 7.90021750e-006 2.36404667e-005
      9.34891310e-003 4.98670548e-001 4.77670692e-003 0. 0.
      4.90595994e-005 0. 5.53015234e-005 1.65483245e-004 4.80325939e-003
      4.98670548e-001 1.21855282e-003 0. 0. 0. 1.41239667e-004 0. 0.
      1.22262491e-002 4.98670548e-001 4.57630912e-003 0. 0.
      1.41239667e-004 0. 0. 0. 5.01508452e-003 4.98670548e-001 0. 0. 0.
      0. 0. 0. 0. 0. 6.43475503e-002 0. 0. 0. 0. 0. 0. 0.
      7.62466155e-003 7.00521886e-001 1.52684702e-003 0. 0. 0. 0. 0. 0.
      0. 8.52238983e-002 0. 0. 0. 0. 0. 0. 0. 7.86639377e-003
      7.00521886e-001 4.39570192e-003 0. 0. 0. 0. 0. 0. 6.78352430e-004
      6.97928667e-001 9.37727746e-003 0. 0. 0. 0. 0. 0. 0.
      8.19187686e-002 0. 0. 0. 0. 0. 0. 0. 0. 6.97928667e-001
      1.49994073e-002 0. 0. 0. 0. 0. 0. 0. 1.08628027e-001 0. 0. 0. 0.
      0. 0. 0. 0. 4.98748779e-001 0. 0. 0. 0. 1.92879394e-004 0. 0. 0.
      4.98748779e-001 1.35263044e-003 0. 0. 1.92879394e-004 0. 0. 0. 0.
      4.98748779e-001 0. 0. 0. 0. 3.59210622e-004 0. 0. 0.
      4.98748779e-001 3.89414304e-003 0. 0. 3.59210622e-004
      1.58383598e-004 0. 0. 5.82840946e-003 4.98720169e-001
      2.15570652e-003 0. 0. 1.58383598e-004 0. 0. 0. 1.95880118e-003
      4.98720169e-001 4.98290872e-004 0. 0. 0. 2.02764742e-004 0. 0.
      4.20845207e-003 4.98720169e-001 7.72162247e-003 0. 0.
      2.02764742e-004 4.91795945e-005 0. 0. 6.01207488e-004
      4.98720169e-001 3.35108279e-003 0. 0. 4.91795945e-005 0. 0. 0. 0.
      6.49780780e-002 0. 0. 0. 0. 0. 0. 0. 0. 7.00571239e-001 0. 0. 0.
      0. 7.94007152e-004 1.45386250e-004 4.35049413e-004 0.
      8.47471654e-002 0. 0. 0. 7.94007152e-004 2.22591349e-004
      2.42310431e-004 7.25082471e-004 0. 7.00571239e-001 0. 0. 0.
      2.22591349e-004 0. 0. 0. 1.99958668e-004 6.97866619e-001 0. 0. 0.
      0. 0. 0. 0. 0. 8.36101025e-002 0. 0. 0. 0. 0. 0. 0. 0.
      6.97866619e-001 4.79704497e-004 0. 0. 0. 0. 0. 0. 0.
      1.09575950e-001 0. 0. 0. 0. 0. 0. 0. 0. 4.98747319e-001 0. 0. 0.
      0. 2.42084963e-004 0. 0. 1.02844299e-003 4.98747319e-001
      1.35399320e-003 0. 0. 2.42084963e-004 0. 0. 0. 0. 4.98747319e-001
      0. 0. 0. 0. 2.74280581e-004 0. 0. 0. 4.98747319e-001
      4.46413830e-003 0. 0. 2.74280581e-004 4.36721183e-002
      1.12857725e-002 2.78503485e-002 2.08187446e-001 2.99414635e-001
      1.47316590e-001 6.28408119e-002 1.53120514e-002 5.06961383e-002
      1.55103311e-001 1.89401023e-002 5.02649462e-003 1.08257242e-001
      2.99414635e-001 1.60802361e-002 1.53372390e-003 1.11042177e-002
      1.74755201e-001 2.52946168e-001 1.52596176e-001 2.06556007e-001
      2.43371516e-001 2.79073656e-001 1.30739436e-001 2.38430053e-001
      1.94922358e-001 1.16708912e-001 2.99414635e-001 2.06280038e-001
      1.38810098e-001 1.20792136e-001 1.47587433e-001 1.14901001e-002
      7.75617501e-003 7.57147297e-002 2.99414635e-001 1.85679674e-001
      1.59619201e-003 3.97548079e-004 5.58903627e-003 1.77321844e-002
      4.35261434e-004 2.12792133e-004 3.46613606e-003 1.87376067e-001
      1.77258000e-001 2.68835723e-002 6.62580016e-004 4.15728465e-002
      3.50667238e-001 1.16145946e-001 5.86133543e-003 1.92097165e-002
      1.51414096e-001 3.50667238e-001 2.10729704e-004 3.85279331e-004
      3.41622485e-003 3.21014039e-003 0. 0. 2.61528865e-002
      3.50667238e-001 3.50667238e-001 2.02108026e-001 3.15734856e-002
      5.27704507e-002 3.50667238e-001 1.29094124e-001 4.47608382e-002
      2.32483357e-001 3.50667238e-001 0. 2.51267164e-004 2.84604859e-002
      4.74286526e-001 4.74286526e-001 3.04893544e-003 0. 0. 0. 0.
      3.58953112e-005 1.07412459e-004 0. 8.20073560e-002 0. 0. 0. 0. 0.
      2.83790100e-002 2.93210417e-001 4.74286526e-001 4.74286526e-001 0.
      0. 0. 0. 0. 4.23960417e-004 1.26865110e-003 0. 3.38800997e-002 0.
      0. 0. 0. 0. 0. 0. 1.10175181e-003 3.23899090e-001 1.70505479e-001
      4.74731391e-003 3.77553632e-003 1.67819683e-003 6.41679810e-003 0.
      1.13334268e-001 2.67614007e-001 3.23899090e-001 3.23899090e-001
      2.20452081e-002 2.26905867e-002 1.81641765e-002 1.02906609e-002 0.
      0. 1.16819552e-004 2.51397073e-001 2.49353111e-001 7.88042229e-003
      2.34919880e-002 3.02200150e-002 7.59543255e-002 9.30104114e-004
      3.23899090e-001 2.15847671e-001 3.23899090e-001 3.23899090e-001
      3.75989601e-002 1.58574343e-001 2.15459809e-001 4.85874750e-002
      2.71956529e-003 2.38294990e-004 1.06856534e-002 2.95538694e-001
      2.97765940e-001 2.97765940e-001 1.18533149e-001 9.72038433e-002
      2.97765940e-001 1.91074871e-002 3.97158321e-004 7.20133306e-003
      8.34250152e-002 2.11063743e-001 2.92516559e-001 1.83951825e-001
      2.97765940e-001 9.10508856e-002 3.88509303e-004 0. 0.
      7.00814873e-002 6.44273162e-002 2.40357339e-001 1.12192437e-001
      1.90017894e-001 2.97765940e-001 2.71956529e-003 0. 0.
      1.50423823e-002 3.83582823e-002 1.73156381e-001 1.57726184e-001
      2.97765940e-001 3.19722384e-001 3.54148238e-003 3.65870888e-004
      1.05328171e-003 1.93138723e-004 2.18656816e-004 2.73456186e-004
      1.99834205e-004 3.19722384e-001 3.19722384e-001 9.92772430e-002
      2.25113988e-001 2.74748653e-001 9.08624455e-002 6.26575947e-003
      4.55760281e-004 1.52307097e-004 3.19722384e-001 3.19722384e-001
      1.96349667e-003 8.41198256e-004 0. 6.06829017e-005 0. 0. 0.
      3.19722384e-001 3.19722384e-001 1.29558846e-001 1.22032590e-001
      4.94713485e-002 2.37501450e-002 1.97016099e-003 0. 5.40761335e-004
      3.19722384e-001 8.63553584e-003 4.85852510e-002 1.45385593e-001 0.
      7.48937070e-001 0. 4.54630032e-002 1.51929390e-002 8.63553584e-003
      0. 0. 0. 0. 5.43447398e-002 0. 0. 0. 0. 3.30869965e-002
      5.08497730e-002 1.52161926e-001 0. 6.00334704e-001 0.
      9.52992067e-002 3.18473391e-002 3.30869965e-002 0. 0. 0. 0.
      6.55269399e-002 0. 0. 0. 0. 1.05257504e-001 0. 0. 0.
      2.83259928e-001 0. 1.35495543e-001 4.52803485e-002 1.05257504e-001
      5.43017030e-001 5.56509309e-002 1.66528806e-001 0. 2.12207541e-001
      0. 3.20904702e-001 1.07240982e-001 5.43017030e-001 2.83754859e-002
      0. 0. 0. 2.24435423e-002 0. 7.06009641e-002 2.35936623e-002
      2.83754859e-002 1.68735072e-001 3.33905593e-002 9.99172926e-002 0.
      1.34661254e-002 0. 1.17668286e-001 3.93227749e-002 1.68735072e-001</_>
    <_>
      3.15637290e-001 2.79789418e-002 8.13708678e-002 3.79658714e-002
      6.35967925e-002 3.63917463e-002 8.77878338e-005 5.01757095e-005
      2.39496320e-001 3.15637290e-001 4.59859846e-003 1.87819693e-002
      5.11848787e-003 4.29881853e-004 5.02935844e-003 1.03686424e-003
      3.81232763e-004 3.15637290e-001 3.15637290e-001 4.17998396e-002
      2.39839926e-001 7.48409033e-002 2.41341338e-001 3.15637290e-001
      1.09764181e-001 3.65105923e-004 2.53973514e-001 3.15637290e-001
      8.88118614e-003 8.46036598e-002 9.72101931e-003 5.22474274e-002
      1.30437836e-001 2.63702888e-002 4.45934059e-003 3.15637290e-001
      3.45642895e-001 0. 0. 0. 2.62327230e-005 0. 0. 0. 3.45642895e-001
      3.45642895e-001 0. 0. 0. 5.30811492e-003 1.00111319e-002
      3.89871895e-002 3.18115652e-002 3.45642895e-001 3.45642895e-001
      2.07277946e-003 0. 0. 6.29290298e-004 1.05277065e-003
      2.00737442e-004 0. 3.45642895e-001 3.45642895e-001 3.45463259e-003
      3.90982896e-005 4.81867827e-002 1.21521249e-001 8.17897022e-002
      6.56350181e-002 1.00146338e-001 3.45642895e-001 4.24508844e-003
      2.70316564e-003 8.08887091e-003 1.26387151e-002 7.04228580e-001 0.
      2.40853103e-003 8.04890762e-004 4.24508844e-003 0. 0. 0. 0.
      1.32757304e-002 0. 0. 0. 0. 6.06441288e-004 0. 0. 7.58322980e-003
      7.04228580e-001 0. 1.51120117e-002 5.05016884e-003 6.06441288e-004
      0. 0. 0. 0. 1.81934051e-002 0. 0. 0. 0. 6.83835968e-002 0. 0. 0.
      1.21646620e-001 0. 5.07718557e-003 1.69670617e-003 6.83835968e-002
      1.13972656e-001 0. 0. 0. 1.77198425e-001 0. 3.55402976e-002
      1.18769426e-002 1.13972656e-001 1.00502327e-001 4.08145562e-002
      1.22132257e-001 0. 3.81671906e-001 0. 1.06661573e-001
      1.80745557e-001 1.30568847e-001 1.67503864e-001 2.44887359e-002
      7.32793510e-002 0. 4.93468195e-001 0. 4.47784275e-001
      3.91476899e-001 2.17614740e-001 3.39846797e-002 1.88225489e-002 0.
      1.01889800e-002 2.25304589e-001 2.20772624e-001 2.67528296e-001
      1.85522631e-001 5.34466133e-002 2.35250652e-001 2.23360136e-002
      2.17904133e-004 9.06616915e-003 6.49999902e-002 1.89917669e-001
      2.61765152e-001 1.37296915e-001 2.67528296e-001 4.63719442e-002
      2.16807704e-002 0. 2.61710342e-002 2.67528296e-001 2.67528296e-001
      2.67528296e-001 4.55999412e-002 3.65603529e-002 2.63215482e-001
      3.61346193e-002 0. 4.36183959e-002 2.67528296e-001 2.19639748e-001
      2.07596287e-001 6.16178103e-002 2.67528296e-001 3.03575188e-001
      2.55454890e-002 1.41352019e-003 2.75761035e-004 0. 0. 0.
      4.03153681e-004 3.03575188e-001 3.03575188e-001 2.28096277e-001
      1.75299495e-001 1.47138193e-001 7.23781362e-002 8.63989964e-002
      4.77840491e-002 2.82207597e-003 3.03575188e-001 3.03575188e-001
      1.13474801e-002 7.27898208e-004 0. 4.71742731e-003 0.
      2.11052466e-004 2.89260619e-003 3.03575188e-001 3.03575188e-001
      1.08015202e-001 6.91064820e-002 1.35978088e-001 3.03575188e-001
      9.04268324e-002 6.18355200e-002 1.98720824e-002 3.03575188e-001 0.
      1.87703036e-003 5.61679062e-003 0. 5.28326094e-001 2.59332657e-001
      1.66157052e-001 1.34974137e-001 3.51653136e-002 0. 2.47069838e-004
      7.39327224e-004 0. 1.04073035e-002 0. 1.29077199e-003
      4.31353314e-004 0. 0. 2.47069838e-004 7.39327224e-004
      8.52129480e-004 5.28326094e-001 5.28326094e-001 1.78692967e-001
      6.05124682e-002 5.02361590e-003 0. 3.52956922e-005 1.05618172e-004
      0. 8.51754695e-002 0. 1.33169477e-003 4.45029000e-004 0.
      3.25792208e-002 1.11285364e-003 4.57602404e-002 1.80710390e-001
      7.74868652e-002 3.26446560e-003 0. 7.39337702e-004 4.71487269e-002
      2.14680925e-001 1.05250289e-003 7.38664269e-002 3.01183969e-001
      1.73482075e-001 2.35937655e-001 2.79334914e-002 5.38137369e-003
      3.08251113e-001 1.20381182e-002 8.03445349e-004 1.45024449e-001
      3.08251113e-001 3.08251113e-001 5.97838406e-003 0. 1.23222964e-003
      3.21024209e-002 8.01330432e-002 1.11538255e-004 2.47809380e-001
      3.08251113e-001 3.08251113e-001 3.08251113e-001 1.22961596e-001
      8.62560701e-003 2.20583171e-001 0. 0. 0. 2.62822636e-004
      4.98753071e-001 0. 0. 0. 0. 0. 1.19575616e-005 3.57815807e-005
      1.57693590e-004 4.98753071e-001 0. 0. 0. 0. 0. 0. 0. 0.
      4.98753071e-001 0. 0. 0. 0. 0. 0. 0. 0. 4.98753071e-001 0. 0. 0.
      0. 3.66981985e-004 0. 0. 0. 3.22550461e-002 0. 2.01075411e-004
      6.71960370e-005 3.66981985e-004 1.02879443e-004 0. 0. 0.
      7.03605831e-001 2.34424230e-003 3.35125660e-004 1.11993402e-004
      1.02879443e-004 0. 0. 0. 0. 4.25207391e-002 0. 0. 0. 0. 0. 0. 0.
      0. 7.03605831e-001 0. 0. 0. 0. 0. 0. 0. 2.60098674e-003
      6.96401477e-001 8.43810500e-004 0. 0. 0. 0. 0. 0. 0.
      9.20443907e-002 0. 0. 0. 0. 0. 0. 0. 0. 6.96401477e-001
      5.63990371e-003 0. 0. 0. 0. 0. 0. 0. 1.20774917e-001 0. 0. 0. 0.
      0. 0. 0. 0. 4.98750657e-001 3.59305908e-004 0. 0. 0. 0. 0. 0.
      5.08484023e-004 4.98750657e-001 3.04801995e-003 0. 0. 0. 0. 0. 0.
      0. 4.98750657e-001 0. 0. 0. 0. 0. 0. 0. 0. 4.98750657e-001
      2.27897588e-004 0. 0. 0. 0. 0. 0. 0. 4.98753130e-001 0. 0. 0. 0.
      0. 0. 0. 0. 4.98753130e-001 0. 0. 0. 0. 0. 0. 0. 0.
      4.98753130e-001 0. 0. 0. 0. 0. 0. 0. 0. 4.98753130e-001 0. 0. 0.
      0. 0. 0. 0. 0. 3.23969796e-002 0. 0. 0. 0. 0. 0. 0.
      1.27943081e-003 7.03605831e-001 0. 0. 0. 0. 0. 0. 0. 0.
      4.24581431e-002 0. 0. 0. 0. 0. 0. 0. 0. 7.03605831e-001 0. 0. 0.
      0. 0. 0. 0. 8.02475493e-003 6.96323276e-001 4.51674405e-003 0. 0.
      0. 0. 0. 0. 0. 9.22116563e-002 0. 0. 0. 0. 0. 0. 0.
      2.19981163e-003 6.96323276e-001 5.55598224e-003 0. 0. 0. 0. 0. 0.
      0. 1.21215224e-001 0. 0. 0. 0. 0. 0. 0. 0. 4.98753130e-001 0. 0.
      0. 0. 0. 0. 0. 0. 4.98753130e-001 0. 0. 0. 0. 0. 0. 0. 0.
      4.98753130e-001 0. 0. 0. 0. 0. 0. 0. 0. 4.98753130e-001 0. 0. 0.
      0. 0. 0. 0. 0. 4.98753130e-001 0. 0. 0. 0. 0. 0. 0. 0.
      4.98753130e-001 0. 0. 0. 0. 0. 0. 0. 0. 4.98753130e-001 0. 0. 0.
      0. 0. 0. 0. 0. 4.98753130e-001 0. 0. 0. 0. 0. 0. 0. 0.
      3.23733538e-002 0. 0. 0. 0. 0. 0. 0. 0. 7.03607976e-001 0. 0. 0.
      0. 0. 0. 0. 0. 4.24271822e-002 0. 0. 0. 0. 0. 0. 0. 0.
      7.03607976e-001 0. 0. 0. 0. 0. 0. 0. 0. 6.96420670e-001 0. 0. 0.
      0. 0. 0. 0. 0. 9.20808390e-002 0. 0. 0. 0. 0. 0. 0. 0.
      6.96420670e-001 1.56056869e-003 0. 0. 0. 0. 0. 0. 0.
      1.20677345e-001 0. 0. 0. 0. 0. 0. 0. 0. 4.98753130e-001 0. 0. 0.
      0. 0. 0. 0. 0. 4.98753130e-001 0. 0. 0. 0. 0. 0. 0. 0.
      4.98753130e-001 0. 0. 0. 0. 0. 0. 0. 0. 4.98753130e-001 0. 0. 0.
      0. 0. 0. 0. 2.51572998e-003 4.98568058e-001 6.06405200e-004 0. 0.
      0. 0. 0. 0. 6.25098590e-004 4.98568058e-001 0. 0. 0. 0. 0. 0. 0.
      2.50462238e-002 4.98568058e-001 7.25223217e-003 0. 0. 0. 0. 0. 0.
      7.23285088e-003 4.98568058e-001 0. 8.20249319e-004 2.74112885e-004
      0. 0. 0. 0. 0. 3.25813927e-002 0. 0. 0. 0. 0. 0. 0.
      6.11053687e-003 7.03431547e-001 0. 0. 0. 0. 0. 0. 0. 0.
      4.34655100e-002 0. 0. 0. 0. 0. 0. 0. 1.82985440e-002
      7.03431547e-001 4.83400514e-003 0. 0. 0. 1.39749236e-003 0. 0.
      1.10879738e-003 6.95476770e-001 6.49097899e-004 2.06760247e-003
      6.90956367e-004 1.39749236e-003 4.77224449e-003 0. 0. 0.
      9.18250978e-002 0. 1.24056137e-003 4.14573791e-004 4.77224449e-003
      5.66996215e-003 0. 0. 3.19226552e-003 6.95476770e-001
      7.30563421e-003 4.56475746e-003 1.52546167e-003 5.66996215e-003
      1.55436117e-002 0. 0. 0. 1.28644541e-001 0. 2.73885462e-003
      9.15277051e-004 1.55436117e-002 1.31060166e-004 7.55443252e-005
      2.26056567e-004 1.84991397e-003 4.98390734e-001 6.14590768e-004 0.
      0. 1.31060166e-004 8.37173684e-006 0. 0. 5.36547042e-003
      4.98390734e-001 4.63784998e-003 0. 0. 8.37173684e-006
      8.97838967e-004 1.25907201e-004 3.76760901e-004 4.34828224e-003
      4.98390734e-001 4.30864422e-003 2.28517063e-004 7.63665885e-005
      8.97838967e-004 5.86021633e-005 0. 0. 2.34164689e-002
      4.98390734e-001 2.84137018e-002 3.26452973e-005 1.09095126e-005
      5.86021633e-005 1.83703937e-002 1.04517058e-001 2.95450151e-001
      2.95450151e-001 2.95450151e-001 2.95450151e-001 2.18399420e-001
      1.88674480e-001 2.09659502e-001 5.04370267e-003 6.50760308e-002
      2.95450151e-001 2.00622141e-001 2.95450151e-001 2.07068454e-002
      3.01817302e-002 2.72355750e-002 3.04920506e-002 9.01944339e-002
      1.49936259e-001 2.28989929e-001 2.21118554e-002 2.13475361e-001
      2.18724217e-002 3.46535519e-002 1.14934050e-001 2.95450151e-001
      2.59613823e-002 9.17191580e-002 1.43352449e-001 1.12039326e-002
      1.53714582e-001 1.09712104e-003 1.18008982e-002 1.87084321e-002
      4.57593203e-002 0. 0. 0. 0. 2.22528242e-002 0. 1.86365025e-004
      6.22800799e-005 0. 0. 0. 0. 0. 4.58836615e-001 4.58836615e-001
      4.02020484e-001 1.95355907e-001 1.56167131e-002 0. 0. 0. 0.
      1.17418142e-002 0. 2.20116205e-003 7.35591573e-004 0. 0.
      1.44153240e-003 4.31359792e-003 0. 4.58836615e-001 7.87692294e-002
      1.93358749e-001 3.42975318e-001 4.37268242e-002 3.33579123e-001
      2.06446409e-001 1.27763018e-001 8.11089426e-002 1.30821750e-001
      2.05777586e-002 3.60260233e-002 1.27564417e-002 3.33579123e-001
      3.33579123e-001 2.59181373e-002 7.07171345e-003 7.95807937e-005
      1.52901711e-003 3.61840095e-004 4.03861189e-003 1.34668045e-003
      3.33579123e-001 2.26758450e-001 1.50201499e-001 2.19493896e-001
      2.26159737e-001 1.24794640e-001 8.16464983e-003 1.65624693e-002
      1.33165484e-002 2.31839836e-001 3.33579123e-001 1.98592395e-002
      1.28076226e-002 2.49518524e-003 8.03724688e-004 2.53288075e-003
      1.23828358e-003 5.77772595e-003 3.33579123e-001 2.41166875e-001
      5.47156446e-002 9.49636940e-003 3.40086035e-002 7.90760145e-002
      2.04191804e-001 1.59909964e-001 1.56819269e-001 2.41166875e-001
      2.41166875e-001 1.16051413e-001 9.94957909e-002 2.41166875e-001
      1.96230635e-001 2.41166875e-001 2.10302860e-001 1.10068470e-001
      3.22713703e-002 1.58316001e-001 1.79502144e-002 1.04007982e-002
      7.87283927e-002 2.13113800e-001 2.41166875e-001 1.83776438e-001
      9.41230580e-002 1.09221563e-001 2.26938188e-001 8.18912834e-002
      6.75851852e-002 2.41166875e-001 2.41166875e-001 2.41166875e-001
      2.31309935e-001 6.60410821e-002 1.46600557e-002 3.35741967e-001 0.
      0. 0. 0. 0. 0. 0. 3.35741967e-001 5.59569955e-001 0. 0. 0. 0. 0.
      0. 0. 5.59569955e-001 0. 0. 0. 0. 0. 0. 0. 0. 0. 0. 0. 0. 0. 0. 0.
      0. 0. 0. 0. 0. 0. 0. 2.69713793e-002 0. 0. 0. 0. 0. 0. 0.
      5.40717617e-002 8.64227712e-001 0. 1.26379192e-001 4.22338136e-002
      0. 0. 0. 0. 0. 7.56113511e-003 0. 0. 0. 0. 0. 0. 0.
      3.24430615e-002 4.61679012e-001 0. 8.90874118e-002 2.97715236e-002
      0. 3.81285936e-001 1.46548948e-004 3.71220987e-004 1.29744783e-003
      1.94382053e-002 1.74580738e-002 5.00165634e-002 4.59884107e-002
      3.81285936e-001 3.81285936e-001 4.77728929e-004 1.13388247e-004
      1.62039432e-004 1.01568512e-004 8.85086309e-004 4.08725289e-004
      2.16666856e-004 3.81285936e-001 2.52949089e-001 2.64938874e-003
      1.67433522e-003 0. 2.05108174e-003 4.78602108e-003 7.33103557e-003
      7.49264704e-003 2.80854076e-001 3.70434314e-001 1.33384694e-003
      2.39190776e-004 0. 1.58026791e-003 2.87161232e-003 2.13618693e-003
      7.13876216e-004 3.59338492e-001 3.17598730e-001 3.17598730e-001
      2.55347639e-001 3.17598730e-001 1.50324270e-001 0. 0. 0.
      3.17598730e-001 2.21290946e-001 2.30793074e-001 2.01771855e-001
      3.17598730e-001 2.69603163e-001 0. 2.02963618e-003 6.78268785e-004
      5.10054789e-002 3.17598730e-001 6.20401166e-002 2.60407999e-002
      1.44914929e-002 3.19295526e-002 0. 1.85600249e-003 6.20243431e-004
      2.37417281e-001 1.26899704e-001 3.73529717e-002 2.11899225e-002
      2.41524857e-002 6.04277402e-002 0. 5.63326897e-003 1.88253960e-003
      3.50541733e-002</_>
    <_>
      0. 0. 0. 0. 0. 0. 0. 0. 0. 0. 0. 0. 0. 0. 0. 0. 0. 0. 0. 0. 0. 0.
      0. 0. 0. 0. 0. 0. 0. 0. 0. 0. 0. 0. 0. 0. 0. 0. 0. 0. 0. 0. 0. 0.
      0. 0. 0. 0. 0. 0. 0. 0. 0. 0. 0. 0. 0. 0. 0. 0. 0. 0. 0. 0. 0. 0.
      0. 0. 0. 0. 0. 0. 0. 0. 0. 0. 0. 0. 0. 0. 0. 0. 0. 0. 0. 0. 0. 0.
      0. 0. 0. 0. 0. 0. 0. 0. 0. 0. 0. 0. 0. 0. 0. 0. 0. 0. 0. 0. 0. 0.
      0. 0. 0. 0. 0. 0. 0. 0. 0. 0. 0. 0. 0. 0. 0. 0. 0. 0. 0. 0. 0. 0.
      0. 0. 0. 0. 0. 0. 0. 0. 0. 0. 0. 0. 8.89337733e-002
      2.61895433e-002 1.57328299e-003 0. 3.83989178e-002 0. 0. 0.
      1.10564634e-001 1.23579716e-002 0. 0. 0. 2.09483579e-002 0. 0. 0.
      1.55554283e-002 3.94434541e-001 1.46154925e-001 2.08310157e-001
      3.46540838e-001 4.14563954e-001 0. 0. 2.73439884e-001
      4.14563954e-001 5.55622466e-002 0. 0. 0. 4.14563954e-001 0. 0.
      3.90628427e-002 1.93217188e-001 0. 0. 0. 0. 0. 0. 0. 0. 0. 0. 0.
      0. 0. 0. 0. 0. 0. 0. 0. 0. 0. 0. 0. 0. 0. 0. 0. 0. 0. 0. 0. 0. 0.
      0. 0. 0. 0. 0. 0. 0. 0. 0. 0. 0. 0. 0. 0. 0. 0. 0. 0. 0. 0. 0. 0.
      0. 0. 0. 0. 0. 0. 0. 0. 0. 0. 0. 0. 0. 0. 0. 0. 0. 0. 0. 0. 0. 0.
      0. 0. 0. 0. 0. 0. 0. 0. 0. 0. 0. 0. 0. 0. 0. 0. 0. 0. 0. 0. 0. 0.
      0. 0. 0. 0. 0. 0. 0. 0. 0. 1.18452626e-005 0. 1.32320402e-002
      1.70394748e-001 4.44250673e-001 3.64165187e-001 1.41834039e-002 0.
      1.18452626e-005 0. 0. 0. 1.45327998e-003 4.27671522e-001
      1.86506525e-001 2.02620076e-003 0. 0. 1.39904689e-004 0. 0.
      7.05969632e-002 4.44250673e-001 1.20384701e-001 0. 0.
      1.39904689e-004 0. 0. 0. 7.96751026e-003 4.44250673e-001
      6.50056824e-002 0. 0. 0. 0. 0. 0. 0. 0. 0. 0. 0. 0. 0. 0. 0. 0. 0.
      0. 0. 0. 0. 0. 0. 0. 0. 0. 0. 0. 0. 0. 0. 0. 0. 0. 0. 0. 0. 0. 0.
      0. 0. 0. 0. 0. 0. 0. 0. 0. 0. 0. 0. 0. 0. 0. 0. 0. 0. 0. 0. 0. 0.
      0. 0. 0. 0. 0. 0. 0. 0. 0. 0. 0. 0. 0. 0. 0. 0. 0. 0. 0. 0. 0. 0.
      0. 0. 0. 0. 0. 0. 0. 0. 0. 0. 0. 0. 0. 0. 0. 0. 0. 0. 0. 0. 0. 0.
      0. 0. 0. 0. 0. 0. 1.67428181e-002 0. 2.20315158e-003
      3.30564141e-001 3.30564141e-001 2.53289696e-002 2.45364499e-005
      7.65481871e-003 3.23821278e-003 6.84979558e-002 4.90630919e-005
      8.40664085e-004 1.97912037e-001 3.30564141e-001 2.28081644e-002
      4.08940796e-005 1.46270627e-002 4.43351716e-002 2.22517222e-001
      5.70104532e-002 2.02445894e-001 3.30564141e-001 3.30564141e-001
      1.32828563e-001 4.08940796e-005 1.23609658e-002 5.04336767e-002
      3.30564141e-001 9.29442570e-002 6.90949708e-002 1.70145616e-001
      1.42705023e-001 8.35493207e-002 6.81568054e-005 2.08686125e-002
      3.30564141e-001 1.30004182e-001 2.43517407e-003 0. 0. 0.
      2.40226233e-004 1.17442636e-004 1.97216542e-003 1.17870614e-001
      9.65157673e-002 7.01072207e-003 0. 0. 1.39592225e-002
      2.83731776e-003 4.54491610e-003 2.13471223e-002 1.38451353e-001
      4.00178283e-001 3.47882014e-004 0. 0. 0. 6.27006963e-003
      1.15717165e-002 6.03633411e-002 4.00178283e-001 4.00178283e-001
      1.00153172e-003 0. 0. 2.04595663e-002 3.23093683e-001
      1.63235381e-001 4.00178283e-001 4.00178283e-001 1.18956372e-001
      5.48284547e-003 7.04187667e-004 1.22784998e-003 1.27515162e-003 0.
      0. 5.25945053e-003 1.05262101e-001 1.55422494e-001 0. 0. 0. 0. 0.
      0. 1.97666604e-003 1.56874463e-001 4.71801013e-001 1.59833863e-001
      3.88779901e-002 6.14769831e-002 1.63323164e-003 0. 0.
      7.51350250e-004 4.71801013e-001 4.71801013e-001 0. 0. 0. 0. 0. 0.
      2.82380846e-004 4.71801013e-001 1.21622860e-001 5.25034266e-003 0.
      0. 5.23188291e-003 9.43443738e-004 3.32828029e-003 8.12033098e-003
      1.43226057e-001 4.87825982e-002 4.06256830e-003 0. 0.
      2.47964803e-002 1.57240615e-003 1.43760908e-002 1.33745130e-002
      9.97938365e-002 3.68345827e-001 7.50049017e-004 0. 0.
      1.28995767e-002 1.07429706e-001 7.20299557e-002 2.46711254e-001
      3.68345827e-001 3.60265851e-001 5.80366876e-004 0. 0.
      1.45595178e-001 3.68345827e-001 2.00941354e-001 3.68345827e-001
      3.68345827e-001 4.02743649e-003 9.26008150e-002 3.10550064e-001
      3.10550064e-001 3.10550064e-001 1.25084922e-001 9.74866450e-002
      1.25907063e-001 6.96705207e-002 2.37913635e-002 1.56184584e-002
      1.04652576e-001 2.14833260e-001 3.10550064e-001 5.45424856e-002
      2.58224667e-003 5.01703564e-003 2.33881064e-002 2.01917104e-002
      4.35631573e-002 3.10550064e-001 3.10550064e-001 3.10550064e-001
      3.10550064e-001 1.40876010e-001 6.00437969e-002 1.68127138e-002
      3.80891040e-002 1.68989338e-002 7.53331482e-002 1.04089648e-001
      2.40641564e-001 7.12655261e-002 1.40890609e-002 1.77919585e-002
      4.07656804e-002 5.57201952e-002 1.08085349e-002 1.14656473e-002
      2.24490780e-002 2.34716665e-002 1.12895695e-002 8.23000260e-003
      1.52683689e-003 5.40565513e-002 1.14170276e-001 2.23040283e-002
      7.09805489e-002 6.99975938e-002 4.79592770e-001 4.79592770e-001
      2.01052930e-002 2.47317599e-003 4.34697904e-002 6.05027229e-002
      1.46273372e-003 8.87482520e-003 4.11256440e-002 1.18232984e-002
      1.64440982e-002 4.06513270e-003 1.08145755e-002 5.48374653e-002
      9.47372094e-002 1.04702674e-002 1.54676549e-002 2.02024445e-001
      4.79592770e-001 4.55785722e-001 1.15896193e-002 2.84209810e-002
      6.38768077e-002 1.47077546e-001 3.57148573e-002 5.69982864e-002
      3.68822634e-001 3.68822634e-001 8.40115249e-002 4.06250022e-002
      1.20994695e-001 1.20505281e-001 2.82842934e-001 1.22005083e-002
      4.36212402e-003 3.59790982e-003 1.23811634e-002 1.41328722e-002
      1.92548260e-002 2.81030182e-002 3.32175970e-001 1.44791067e-001
      5.53213432e-002 9.83508024e-003 2.35951468e-001 3.68822634e-001
      1.20634601e-001 3.86831835e-002 1.49572104e-001 1.54665023e-001
      3.09886426e-001 1.88719351e-002 6.23160566e-004 5.13987092e-004
      8.35538730e-002 2.95813307e-002 3.72756571e-002 5.52936681e-002
      2.85196543e-001 1.24520119e-002 4.64362511e-003 2.41411012e-003
      5.93080893e-002 1.37435257e-001 8.40447098e-002 1.21772867e-002
      2.76965206e-004 1.00969505e-002 1.60436134e-003 2.36525643e-003
      1.07121794e-002 2.79212385e-001 4.35868740e-001 4.35868740e-001
      2.84705702e-002 1.66179147e-004 7.36904622e-004 1.00461747e-002
      2.16654758e-003 2.09259950e-002 2.15530917e-001 2.31101453e-001
      3.70137431e-002 1.26719719e-003 1.49217853e-003 1.62082929e-002
      7.18596217e-004 3.09506810e-004 1.29325449e-001 4.35868740e-001
      4.35868740e-001 9.02348384e-002 7.60318362e-004 8.95307167e-004
      3.62690305e-003 4.06429291e-001 0. 2.88219191e-004 5.89547621e-004
      4.34024446e-002 1.21519759e-001 7.29728565e-002 2.67869681e-001
      4.06429291e-001 4.06429291e-001 0. 1.72931526e-004 3.53728567e-004
      3.96739546e-004 2.43871403e-003 4.14430536e-003 3.76899354e-002
      4.06429291e-001 1.62026346e-001 0. 2.01753434e-003 4.12683375e-003
      7.10516609e-003 5.80211310e-003 6.28038915e-003 2.15570703e-002
      2.04807967e-001 2.96180755e-001 0. 1.21052063e-003 2.47609988e-003
      3.03677493e-003 0. 0. 4.33242088e-003 2.88893104e-001
      4.08061832e-001 0. 0. 0. 9.35732678e-004 5.88040333e-004
      2.87483243e-004 0. 4.08061832e-001 4.08061832e-001 2.96407729e-001
      6.21253066e-002 2.11264547e-002 1.26410718e-003 3.52824223e-004
      1.72489948e-004 0. 4.08061832e-001 2.17825070e-001 3.48917209e-003
      0. 0. 7.83086102e-003 4.11628280e-003 2.01238273e-003 0.
      2.21358120e-001 2.79146582e-001 2.58696694e-002 0. 0.
      1.09833051e-002 2.46976968e-003 1.20742957e-003 0. 2.49874949e-001
      4.33108240e-001 0. 2.79716885e-004 5.72156277e-004 9.43952356e-004
      3.37549020e-003 9.62790381e-003 4.55952585e-002 4.33108240e-001
      4.33108240e-001 0. 1.67830134e-004 3.43293766e-004 1.17144838e-003
      0. 4.57589718e-004 1.52918845e-004 4.33108240e-001 2.00052321e-001
      2.30816868e-003 1.95801817e-003 4.00509406e-003 8.37124605e-003 0.
      1.92187668e-003 7.67088914e-003 2.16619954e-001 2.78311104e-001
      3.84694780e-003 1.17481092e-003 2.40305625e-003 8.45207833e-003 0.
      3.20312777e-003 3.10738268e-003 2.80148327e-001 3.40545714e-001
      2.38827795e-001 1.65378839e-001 5.24794683e-002 6.27031103e-002
      7.53140892e-004 3.68198176e-004 0. 3.40545714e-001 3.40545714e-001
      3.40545714e-001 2.75631428e-001 1.68435752e-001 3.40545714e-001
      4.51884553e-004 2.20918912e-004 0. 2.42704988e-001 2.69222528e-001
      3.14897373e-002 4.50332789e-003 0. 1.25240833e-002 5.27198659e-003
      2.57738726e-003 0. 2.31292754e-001 1.48574919e-001 4.77161668e-002
      7.50554632e-003 0. 5.37943058e-002 3.16319172e-003 1.54643226e-003
      0. 8.90034735e-002 0. 0. 0. 0. 0. 0. 0. 0. 0. 0. 0. 0. 0. 0. 0. 0.
      0. 0. 0. 0. 0. 0. 0. 0. 0. 0. 0. 0. 0. 0. 0. 0. 0. 0. 0. 0. 0. 0.
      0. 0. 0. 0. 0. 0. 0. 0. 0. 0. 0. 0. 0. 0. 0. 0. 0. 0. 0. 0. 0. 0.
      0. 0. 0. 0. 0. 0. 0. 0. 0. 0. 0. 0. 0. 0. 0. 0. 0. 0. 0. 0. 0. 0.
      0. 0. 0. 0. 0. 0. 0. 0. 0. 0. 0. 0. 0. 0. 0. 0. 0. 0. 0. 0. 0. 0.
      0. 0. 0. 0. 0. 0. 0. 0. 0. 0. 0. 0. 0. 0. 0. 0. 0. 0. 0. 0. 0. 0.
      0. 0. 0. 0. 0. 0. 0. 0. 0. 0. 0. 0. 0. 0. 0. 0. 0. 0. 0. 0. 0. 0.
      0. 0. 0. 0. 0. 0. 0. 0. 0. 0. 0. 0. 0. 0. 0. 0. 0. 0. 0. 0. 0. 0.
      0. 0. 0. 0. 0. 0. 0. 0. 0. 0. 0. 0. 0. 0. 0. 0. 0. 0. 0. 0. 0. 0.
      0. 0. 0. 0. 0. 0. 0. 0. 0. 0. 0. 0. 0. 0. 0. 0. 0. 0. 0. 0. 0. 0.
      0. 0. 0. 0. 0. 0. 0. 0. 0. 0. 0. 0. 0. 0. 0. 0. 0. 0. 0. 0. 0. 0.
      0. 0. 0. 0. 0. 0. 0. 0. 0. 0. 0. 0. 0. 0. 0. 0. 0. 0. 0. 0. 0. 0.
      0. 0. 0. 0. 0. 0. 0. 0. 0. 0. 0. 0. 0. 0. 0. 0. 0. 0. 0. 0. 0. 0.
      0. 0. 0. 0. 0. 0. 0. 0.</_>
    <_>
      1.48504004e-001 1.01093523e-001 1.48896545e-001 9.54981819e-002
      7.15864599e-002 0. 0. 0. 5.56654893e-002 3.00554574e-001
      1.43762127e-001 1.07010782e-001 7.12447241e-002 1.02266371e-002 0.
      0. 0. 3.00554574e-001 1.05840929e-001 1.43071741e-001
      3.00554574e-001 3.00554574e-001 3.00554574e-001 0. 0. 0.
      3.77834775e-002 3.00554574e-001 2.25629628e-001 2.75399983e-001
      3.00554574e-001 7.34378695e-002 0. 0. 0. 3.00554574e-001
      3.32261890e-001 0. 0. 0. 0. 0. 0. 0. 3.32261890e-001
      3.32261890e-001 0. 0. 0. 3.08634859e-004 2.78194044e-002
      3.21913548e-002 1.10864408e-001 3.32261890e-001 3.32261890e-001 0.
      9.80562647e-004 4.52672743e-004 0. 7.28441810e-004 1.09272962e-003
      0. 3.32261890e-001 3.32261890e-001 1.95117400e-003 6.86393911e-003
      3.16870911e-003 1.77963570e-001 1.95949897e-001 6.19675033e-002
      1.59449145e-001 3.32261890e-001 3.52477700e-001 1.72024537e-002
      4.80610831e-003 4.30890033e-003 1.15648087e-004 0. 0. 0.
      3.52477700e-001 3.52477700e-001 0. 0. 0. 0. 0. 0. 0.
      3.52477700e-001 3.52477700e-001 2.49613672e-002 1.21293943e-002
      3.01623009e-002 2.03185659e-002 1.09893596e-002 1.69983658e-003 0.
      3.52477700e-001 3.52477700e-001 0. 0. 0. 0. 2.00290597e-004
      2.42833776e-004 0. 3.52477700e-001 3.04099262e-001 0. 0. 0.
      5.14866002e-002 1.11421883e-001 1.49450287e-001 1.14980876e-001
      3.05865228e-001 3.96733657e-002 0. 0. 0. 9.48097482e-002
      1.51527822e-001 1.21091545e-001 6.89885318e-002 9.91387069e-002
      3.05865228e-001 0. 7.15859496e-005 6.17653038e-003 1.28325775e-001
      3.05865228e-001 3.05865228e-001 1.15282670e-001 3.05865228e-001
      3.61681581e-002 0. 1.02265640e-005 8.82361550e-004 3.05865228e-001
      3.05865228e-001 3.05865228e-001 6.74412549e-002 8.36054608e-002
      1.68598309e-001 7.52224624e-002 9.96529758e-002 7.47300014e-002
      1.69663057e-001 2.53795773e-001 1.99686140e-001 1.37743294e-001
      1.67024925e-001 2.92688996e-001 2.86349542e-002 3.69685367e-002
      1.54876923e-002 4.10647057e-002 1.30670905e-001 1.24958180e-001
      9.97032300e-002 2.92688996e-001 1.39938831e-001 7.23814592e-002
      1.51835009e-001 1.98530629e-001 2.92688996e-001 2.17689544e-001
      1.58768237e-001 1.29049852e-001 1.88374519e-001 2.92688996e-001
      3.16342488e-002 4.76474650e-002 7.10060224e-002 2.51938015e-001
      4.00209017e-002 5.12635335e-002 6.64510652e-002 2.92688996e-001
      3.02207083e-001 1.97554193e-002 2.91940644e-002 2.57083252e-002
      5.17711788e-003 2.73802271e-003 1.83028739e-003 3.01308883e-003
      3.02207083e-001 3.02207083e-001 1.38287932e-001 3.02207083e-001
      3.02207083e-001 8.33551586e-002 1.91661566e-002 3.05047887e-003
      5.02181426e-003 2.86631167e-001 3.02207083e-001 2.07777992e-002
      1.75164398e-002 3.62428580e-003 4.31304041e-004 0. 0. 0.
      3.02207083e-001 3.02207083e-001 1.45444602e-001 1.48893759e-001
      1.33426651e-001 5.05880341e-002 0. 0. 0. 3.02207083e-001
      3.45976979e-001 0. 0. 2.53489614e-002 5.98596260e-002
      1.17634758e-001 1.08084150e-001 5.45166545e-002 3.45976979e-001
      3.45976979e-001 0. 0. 3.12596676e-003 3.18948738e-003 0.
      9.48508387e-006 7.38096947e-004 3.45976979e-001 3.45976979e-001 0.
      0. 2.89358664e-003 1.66329462e-002 2.24506501e-002 4.99909371e-002
      5.39975129e-002 3.45976979e-001 3.45976979e-001 0. 0.
      4.13369504e-004 4.46076068e-004 0. 0. 0. 3.45976979e-001
      2.37116680e-001 1.44768700e-001 2.45802432e-001 1.53519943e-001
      4.62734103e-002 1.52984662e-002 6.00306783e-003 1.91842597e-002
      1.83240592e-001 1.10425554e-001 1.99533090e-001 2.45802432e-001
      1.70675278e-001 7.31040910e-002 1.70427531e-001 2.13061810e-001
      1.01063594e-001 2.52971239e-002 2.45802432e-001 1.01291142e-001
      2.26547331e-001 2.40617305e-001 1.80109784e-001 0. 2.38194373e-002
      4.21876535e-002 1.97725400e-001 1.02232710e-001 1.06864341e-001
      2.45802432e-001 2.45802432e-001 2.45802432e-001 2.45802432e-001
      2.20426351e-001 3.97474915e-002 1.80810485e-002 6.29861024e-004 0.
      0. 0. 5.03681839e-001 0. 0. 0. 6.29861024e-004 0. 0. 0. 0.
      4.83614087e-001 0. 0. 0. 0. 2.92027777e-004 0. 0. 0.
      5.03681839e-001 0. 0. 0. 2.92027777e-004 0. 0. 0. 0.
      5.03681839e-001 0. 0. 0. 0. 0. 0. 0. 0. 0. 0. 0. 0. 0. 0. 0. 0. 0.
      0. 0. 0. 0. 0. 0. 0. 0. 0. 0. 0. 0. 0. 0. 0. 0. 0. 0. 0. 0. 0. 0.
      0. 0. 0. 0. 0. 0. 0. 0. 0. 0. 0. 0. 0. 0. 0. 0. 0. 0. 0. 0. 0. 0.
      0. 0. 0. 0. 0. 0. 0. 0. 0. 0. 0. 0. 0. 0. 0. 0. 0. 0.
      6.79372170e-004 4.98534054e-001 1.51647860e-002 0. 0. 0. 0. 0. 0.
      1.13228697e-003 4.98534054e-001 2.52746418e-002 0. 0. 0. 0. 0. 0.
      1.13228697e-003 4.98534054e-001 4.12073743e-004 0. 0. 0. 0. 0. 0.
      1.88714499e-003 4.98534054e-001 6.86789572e-004 0. 0. 0.
      7.98818473e-006 0. 0. 0. 5.03688931e-001 0. 0. 0. 7.98818473e-006
      0. 0. 0. 0. 4.83592689e-001 0. 0. 0. 0. 0. 0. 0. 0.
      5.03688931e-001 0. 0. 0. 0. 0. 0. 0. 0. 5.03688931e-001 0. 0. 0.
      0. 0. 0. 0. 0. 0. 0. 0. 0. 0. 0. 0. 0. 0. 0. 0. 0. 0. 0. 0. 0. 0.
      0. 0. 0. 0. 0. 0. 0. 0. 0. 0. 0. 0. 0. 0. 0. 0. 0. 0. 0. 0. 0. 0.
      0. 0. 0. 0. 0. 0. 0. 0. 0. 0. 0. 0. 0. 0. 0. 0. 0. 0. 0. 0. 0. 0.
      0. 0. 0. 0. 0. 0. 0. 0. 0. 0. 0. 4.98753130e-001 0. 0. 0. 0. 0. 0.
      0. 0. 4.98753130e-001 0. 0. 0. 0. 0. 0. 0. 0. 4.98753130e-001 0.
      0. 0. 0. 0. 0. 0. 0. 4.98753130e-001 0. 0. 0. 0. 0. 0. 0. 0.
      5.03688931e-001 0. 0. 0. 0. 0. 0. 0. 0. 4.83592689e-001 0. 0. 0.
      0. 0. 0. 0. 0. 5.03688931e-001 0. 0. 0. 0. 0. 0. 0. 0.
      5.03688931e-001 0. 0. 0. 0. 0. 0. 0. 0. 0. 0. 0. 0. 0. 0. 0. 0. 0.
      0. 0. 0. 0. 0. 0. 0. 0. 0. 0. 0. 0. 0. 0. 0. 0. 0. 0. 0. 0. 0. 0.
      0. 0. 0. 0. 0. 0. 0. 0. 0. 0. 0. 0. 0. 0. 0. 0. 0. 0. 0. 0. 0. 0.
      0. 0. 0. 0. 0. 0. 0. 0. 0. 0. 0. 0. 0. 0. 0. 0. 0. 0. 0.
      4.98753130e-001 0. 0. 0. 0. 0. 0. 0. 0. 4.98753130e-001 0. 0. 0.
      0. 0. 0. 0. 0. 4.98753130e-001 0. 0. 0. 0. 0. 0. 0. 0.
      4.98753130e-001 0. 0. 0. 0. 1.87258265e-004 0. 0. 0.
      5.03688216e-001 0. 0. 0. 1.87258265e-004 0. 0. 0. 0.
      4.83594358e-001 0. 0. 0. 0. 4.75235109e-004 0. 0. 0.
      5.03688216e-001 0. 0. 0. 4.75235109e-004 0. 0. 0. 0.
      5.03688216e-001 0. 0. 0. 0. 0. 0. 0. 0. 0. 0. 0. 0. 0. 0. 0. 0. 0.
      0. 0. 0. 0. 0. 0. 0. 0. 0. 0. 0. 0. 0. 0. 0. 0. 0. 0. 0. 0. 0. 0.
      0. 0. 0. 0. 0. 0. 0. 0. 0. 0. 0. 0. 0. 0. 0. 0. 0. 0. 0. 0. 0. 0.
      0. 0. 0. 0. 0. 0. 0. 0. 0. 0. 0. 0. 0. 0. 0. 0. 0. 0.
      1.99593231e-003 4.98712152e-001 1.11275772e-003 0. 0. 0. 0. 0. 0.
      3.32655408e-003 4.98712152e-001 1.85459643e-003 0. 0. 0. 0. 0. 0.
      3.40053020e-003 4.98712152e-001 5.15172724e-003 0. 0. 0. 0. 0. 0.
      5.66755049e-003 4.98712152e-001 8.58621113e-003 0. 0. 0.
      3.07758804e-002 1.08635807e-002 2.69721262e-002 2.51153976e-001
      3.21223795e-001 1.21801615e-001 5.84515231e-003 2.16860157e-002
      4.47445288e-002 1.04573883e-001 1.55194011e-003 3.85316089e-003
      3.58791389e-002 3.21223795e-001 5.03957495e-002 0. 7.73788895e-003
      1.12955078e-001 1.58349916e-001 1.71475634e-001 1.83473513e-001
      3.21223795e-001 2.55660951e-001 2.08267778e-001 1.23177215e-001
      1.76338986e-001 3.04997534e-001 3.21223795e-001 6.81219399e-002
      5.28246835e-002 7.07289651e-002 1.03599586e-001 9.27680731e-002
      1.17515931e-002 5.45321479e-002 3.21223795e-001 1.57921433e-001 0.
      0. 0. 0. 0. 0. 0. 1.59697771e-001 1.62401929e-001 0. 0. 0.
      4.64357156e-003 0. 0. 2.05800366e-002 1.92961603e-001
      4.36913937e-001 0. 0. 0. 0. 0. 0. 1.94626010e-003 4.36913937e-001
      4.36913937e-001 0. 0. 0. 1.38135567e-001 8.89664292e-002
      2.30725363e-001 1.93209261e-001 4.36913937e-001 1.49599776e-001
      9.50758718e-003 0. 0. 2.10922956e-003 0. 0. 0. 1.36811718e-001
      2.01975971e-001 0. 0. 0. 0. 0. 0. 0. 2.01975971e-001
      4.58789319e-001 1.02580562e-001 1.21692888e-001 6.95225149e-002
      2.28165481e-002 0. 0. 0. 4.58789319e-001 4.58789319e-001 0. 0. 0.
      0. 0. 0. 0. 4.58789319e-001 4.07624543e-002 2.44539138e-002
      1.03212576e-002 1.55906240e-002 2.73701578e-001 1.87816635e-001
      3.91052924e-002 4.78712464e-004 6.27832040e-002 4.56221821e-003
      1.46723492e-002 1.02549747e-001 2.73701578e-001 2.73701578e-001
      2.73701578e-001 9.70463902e-002 3.35098710e-003 4.36711162e-002
      2.73701578e-001 5.67351356e-002 4.08436395e-002 5.60413897e-002
      7.64397681e-002 2.12727085e-001 9.77863818e-002 1.05196461e-001
      2.73701578e-001 8.14452916e-002 1.69347823e-001 2.73701578e-001
      2.73701578e-001 1.17616616e-001 2.73701578e-001 2.03334287e-001
      1.11590154e-001 2.73701578e-001 2.66547333e-002 7.30411615e-004
      1.32423756e-003 3.75599042e-002 2.72082716e-001 2.80933350e-001
      2.80933350e-001 1.23938017e-001 4.56027649e-002 2.80933350e-001
      3.32228793e-003 2.20706267e-003 1.91317704e-002 8.92214105e-002
      1.46183178e-001 1.93759888e-001 1.62009761e-001 2.45735154e-001
      5.96998669e-002 0. 0. 1.29056897e-003 1.50781885e-001
      1.49119720e-001 2.80933350e-001 2.75648713e-001 9.63849798e-002
      2.80933350e-001 0. 0. 2.15094816e-003 2.55042817e-002
      5.43994308e-002 2.44587690e-001 2.80933350e-001 2.80933350e-001
      3.31690848e-001 0. 1.71038439e-003 3.78304074e-004 0.
      1.21980680e-004 4.63124336e-004 1.66249694e-003 3.31690848e-001
      2.61541545e-001 6.71067014e-002 1.36385992e-001 1.41258791e-001
      1.88632801e-001 2.03499217e-002 3.24187055e-003 1.28851412e-002
      3.31690848e-001 3.31690848e-001 0. 0. 0. 0. 0. 0. 2.37499538e-004
      3.31690848e-001 3.31690848e-001 2.40157202e-001 1.34857163e-001
      5.38880937e-002 1.20004416e-002 0. 0. 1.66249694e-003
      3.31690848e-001 3.34588259e-001 6.11855043e-003 6.34226855e-003
      1.92612410e-002 2.24806480e-002 1.93716064e-002 2.82398723e-002
      1.19735152e-002 3.28776151e-001 3.58693272e-001 9.92295681e-004
      2.14360378e-004 1.60880067e-004 0. 5.40302484e-004 7.19914562e-004
      5.21088718e-004 3.58693272e-001 3.58693272e-001 8.37135885e-004 0.
      0. 2.34585372e-003 5.80827938e-003 2.21636333e-002 4.00568843e-002
      3.58693272e-001 3.58693272e-001 1.19590833e-004 0. 0. 0. 0. 0. 0.
      3.58693272e-001 8.92988890e-002 5.24139367e-002 2.76708454e-001
      2.76708454e-001 1.67319566e-001 1.96322575e-002 5.27884054e-004
      1.23485988e-002 2.18865693e-001 3.41767888e-003 3.10716685e-002
      2.76708454e-001 2.76708454e-001 2.76708454e-001 2.78492570e-002
      3.16730438e-004 1.76408561e-003 2.18149442e-002 2.23238647e-001
      2.38882259e-001 2.76708454e-001 1.92185774e-001 5.02410159e-002 0.
      0. 3.78047340e-002 2.76708454e-001 4.77866717e-002 1.43329352e-001
      2.76708454e-001 2.76708454e-001 2.14445725e-001 0. 0.
      5.40067675e-003 4.58826683e-002</_>
    <_>
      0. 0. 0. 0. 0. 0. 0. 0. 0. 0. 0. 0. 0. 0. 0. 0. 0. 0. 0. 0. 0. 0.
      0. 0. 0. 0. 0. 6.28730774e-001 0. 0. 0. 0. 0. 0. 0.
      6.28730774e-001 0. 0. 0. 0. 0. 0. 0. 0. 0. 0. 0. 0. 0. 0. 0. 0. 0.
      0. 6.60258651e-001 0. 0. 0. 0. 0. 0. 0. 6.60258651e-001
      2.39099428e-001 0. 0. 0. 0. 0. 0. 0. 2.39099428e-001 0. 0. 0. 0.
      0. 0. 0. 0. 0. 0. 0. 0. 0. 0. 0. 0. 0. 0. 4.13093895e-001 0. 0. 0.
      0. 0. 0. 0. 4.13093895e-001 5.66114485e-001 0. 0. 0. 0. 0. 0. 0.
      5.66114485e-001 0. 0. 0. 0. 0. 0. 0. 0. 0. 0. 0. 0. 0. 0. 0. 0. 0.
      0. 5.51909924e-001 0. 0. 0. 0. 0. 5.58583736e-001 1.86669350e-001
      5.51909924e-001 0. 0. 0. 0. 0. 0. 7.97976777e-002 2.66670510e-002
      0. 0. 0. 0. 8.09485652e-003 6.79693371e-002 0. 0. 0. 0.
      1.16493642e-001 2.16158196e-001 2.93336451e-001 4.03899103e-001
      4.21375722e-001 0. 0. 0. 2.15242002e-002 0. 3.87326698e-003
      5.44618757e-004 4.40852307e-002 2.22913697e-001 2.85585294e-003 0.
      0. 0. 2.21804176e-002 7.78750032e-002 2.72936583e-001
      4.21375722e-001 4.21375722e-001 1.25472099e-001 6.27040258e-003
      1.35837414e-003 1.02728757e-003 3.59115809e-001 8.61764303e-004 0.
      0. 1.49009502e-004 0. 0. 1.31078658e-003 3.59115809e-001
      3.59115809e-001 5.95315220e-003 0. 0. 9.79881175e-003
      6.87078834e-002 1.32454783e-001 1.75846368e-001 3.59115809e-001
      2.97149330e-001 1.89024431e-003 1.94516051e-005 6.74749142e-004 0.
      0. 0. 2.40206369e-003 2.92673707e-001 3.04665208e-001
      1.26773259e-002 3.30510437e-002 8.92293602e-002 9.26150233e-002
      1.73643157e-001 1.16925679e-001 8.38970095e-002 3.02974403e-001
      3.32621008e-001 1.65907443e-001 2.89601475e-001 1.10395849e-001
      5.44756539e-002 4.85507911e-003 4.09103092e-003 1.18142553e-002
      3.32621008e-001 3.32621008e-001 2.25898437e-002 1.43659059e-002
      2.23716791e-003 4.64833295e-003 3.47868445e-005 2.91947770e-004
      7.08855316e-003 3.32621008e-001 1.29290953e-001 7.82157406e-002
      2.32365102e-001 2.38896966e-001 1.55397728e-001 1.30796313e-001
      8.49481225e-002 2.38468684e-002 1.61972061e-001 3.25478643e-001
      1.31610902e-002 1.09708821e-002 7.47490954e-003 1.49907414e-002
      1.61411369e-003 5.01257600e-003 1.60349309e-002 3.32621008e-001
      6.79578930e-002 0. 0. 3.20012006e-003 2.58415848e-001
      3.26490253e-001 3.26490253e-001 2.00361848e-001 2.33688742e-001
      1.48129591e-003 0. 0. 1.92007225e-003 1.55189827e-001
      1.26776323e-001 5.36187477e-002 2.01261882e-002 5.94205828e-003
      1.86164118e-002 5.45187650e-005 1.05974125e-002 1.32396713e-001
      3.26490253e-001 3.26490253e-001 3.26490253e-001 6.32472858e-002
      5.51880226e-002 0. 0. 6.35844795e-003 6.23490438e-002
      3.26490253e-001 3.26490253e-001 1.09317236e-001 3.81291867e-003
      7.04523176e-004 3.62734403e-003 1.41984886e-002 8.61530751e-002
      1.09799132e-001 4.02408183e-001 1.27055505e-002 1.68386772e-002 0.
      7.70175178e-003 5.16454428e-002 2.36641467e-002 1.58206567e-001
      2.28029162e-001 4.68242317e-001 1.36084408e-001 1.36835620e-001
      1.22280717e-002 9.78772268e-002 0. 0. 8.90563987e-003
      6.47598431e-002 4.68242317e-001 1.12929717e-002 2.40552519e-003 0.
      0. 1.38751010e-003 0. 1.48427337e-002 1.16695046e-001
      4.68242317e-001 9.83960107e-002 1.68386772e-002 0. 1.69452117e-003
      3.93108487e-001 0. 0. 0. 0. 0. 0. 0. 3.93108487e-001
      3.93108487e-001 9.10889059e-002 4.80536334e-002 1.54397130e-001
      3.93108487e-001 2.74248887e-002 4.53507481e-003 1.43065304e-001
      3.93108487e-001 4.96012904e-002 0. 0. 0. 0. 0. 0. 0.
      4.90858406e-002 4.77784760e-002 0. 0. 5.51043302e-002
      3.93108487e-001 0. 0. 2.04379018e-002 5.07468805e-002
      2.88083464e-001 1.43037692e-001 1.58977229e-002 1.11804984e-003
      3.87971967e-001 3.17172348e-001 1.51731148e-001 1.17751285e-001
      3.24912339e-001 3.87971967e-001 1.94235686e-002 2.27110321e-003 0.
      5.11448495e-002 2.32227426e-003 4.65651089e-003 2.21457127e-002
      3.87971967e-001 2.06249934e-002 2.04339568e-002 2.27110321e-003
      7.82634877e-003 3.87971967e-001 1.46153659e-001 1.75941512e-002
      6.25506917e-004 2.14359518e-002 5.09360470e-002 2.77479552e-003
      3.24443274e-004 0. 1.25433967e-001 0. 1.71928422e-003
      3.89078562e-003 4.86395136e-002 1.06007151e-001 4.07754853e-002
      1.11859724e-001 1.80131361e-001 4.52135324e-001 7.96012431e-002
      1.03627451e-001 9.83782858e-003 6.06380105e-002 1.69777926e-002
      1.60386153e-002 6.00381456e-002 1.07789643e-001 4.52135324e-001
      2.02232078e-001 9.30762663e-002 1.63963810e-002 4.83737066e-002
      3.36438557e-003 3.27578164e-005 1.38688320e-002 1.06202066e-001
      4.52135324e-001 3.69090028e-002 1.48039218e-002 0. 2.99699139e-003
      0. 0. 8.26248620e-003 7.19843805e-002 4.52135324e-001
      1.12389579e-001 1.32966097e-002 0. 0. 0. 0. 0. 1.10122759e-003
      4.98739928e-001 8.90623312e-004 0. 0. 0. 0. 0. 0. 4.45876922e-003
      4.98739928e-001 1.87436119e-003 0. 0. 0. 0. 0. 0. 2.19788938e-003
      4.98739928e-001 5.11309248e-004 0. 0. 0. 0. 0. 0. 4.64907149e-003
      4.98739928e-001 8.52181984e-004 0. 0. 0. 0. 0. 0. 0. 0. 0. 0. 0.
      0. 0. 0. 0. 6.11274550e-003 7.04588354e-001 0. 0. 0. 0. 0. 0. 0.
      0. 0. 0. 0. 0. 0. 0. 0. 0. 6.30651508e-003 7.04588354e-001 0. 0.
      0. 0. 0. 0. 0. 1.76535294e-004 6.80229127e-001 6.69979071e-003 0.
      0. 0. 0. 0. 0. 0. 1.57606259e-001 0. 0. 0. 0. 0. 0. 0.
      1.23574701e-003 6.80229127e-001 2.71586026e-003 0. 0. 0. 0. 0. 0.
      0. 2.07104564e-001 0. 0. 0. 0. 0. 0. 0. 0. 4.98753130e-001 0. 0.
      0. 0. 0. 0. 0. 0. 4.98753130e-001 0. 0. 0. 0. 0. 0. 0. 0.
      4.98753130e-001 0. 0. 0. 0. 0. 0. 0. 0. 4.98753130e-001 0. 0. 0.
      0. 0. 0. 0. 0. 4.98753130e-001 0. 0. 0. 0. 0. 0. 0. 0.
      4.98753130e-001 0. 0. 0. 0. 0. 0. 0. 0. 4.98753130e-001 0. 0. 0.
      0. 0. 0. 0. 0. 4.98753130e-001 0. 0. 0. 0. 0. 0. 0. 0. 0. 0. 0. 0.
      0. 0. 0. 0. 0. 7.04615593e-001 0. 0. 0. 0. 0. 0. 0. 0. 0. 0. 0. 0.
      0. 0. 0. 0. 0. 7.04615593e-001 0. 0. 0. 0. 0. 0. 0. 0.
      6.80335224e-001 0. 0. 0. 0. 0. 0. 0. 0. 1.57597840e-001 0. 0. 0.
      0. 0. 0. 0. 0. 6.80335224e-001 0. 0. 0. 0. 0. 0. 0. 0.
      2.06541255e-001 0. 0. 0. 0. 0. 0. 0. 0. 4.98753130e-001 0. 0. 0.
      0. 0. 0. 0. 0. 4.98753130e-001 0. 0. 0. 0. 0. 0. 0. 0.
      4.98753130e-001 0. 0. 0. 0. 0. 0. 0. 0. 4.98753130e-001 0. 0. 0.
      0. 0. 0. 0. 0. 4.98738915e-001 0. 0. 0. 0. 0. 0. 0. 0.
      4.98738915e-001 0. 0. 0. 0. 0. 0. 0. 8.18332366e-004
      4.98738915e-001 2.37449375e-003 0. 0. 0. 0. 0. 0. 1.36388710e-003
      4.98738915e-001 6.98302547e-003 0. 0. 0. 0. 0. 0. 0. 0. 0. 0. 0.
      0. 0. 0. 0. 0. 7.04609096e-001 0. 0. 0. 0. 2.21912330e-003 0. 0.
      0. 0. 0. 0. 0. 2.21912330e-003 2.06748885e-003 0. 0. 0.
      7.04609096e-001 0. 0. 0. 2.06748885e-003 0. 0. 0. 0.
      6.80290639e-001 0. 0. 0. 0. 0. 0. 0. 0. 1.57724038e-001 0. 0. 0.
      0. 3.24547058e-004 0. 0. 3.24035238e-004 6.80290639e-001
      3.02399672e-003 0. 0. 3.24547058e-004 1.42495323e-003 0. 0. 0.
      2.06706658e-001 0. 0. 0. 1.42495323e-003 0. 0. 0. 2.18135840e-003
      4.98733521e-001 0. 0. 0. 0. 0. 0. 0. 1.30881509e-003
      4.98733521e-001 0. 0. 0. 0. 0. 0. 0. 4.42879600e-003
      4.98733521e-001 2.49906967e-004 0. 0. 0. 0. 0. 0. 7.01926788e-003
      4.98733521e-001 1.74934871e-003 0. 0. 0. 1.05244517e-002
      1.58384945e-002 0. 1.40749123e-002 2.16336519e-001 1.17376775e-001
      2.28763789e-001 3.50376852e-002 1.03255291e-003 1.93091199e-001
      2.98157036e-001 7.21117631e-002 1.95933878e-001 2.98746943e-001
      2.98746943e-001 2.98746943e-001 2.43385881e-001 1.67342592e-002
      1.50349317e-003 2.26264214e-003 0. 1.73686892e-002 1.61945030e-001
      6.76911995e-002 7.66571760e-002 2.15520076e-002 6.19531784e-004
      5.91338649e-002 1.30903319e-001 1.20268270e-001 2.98746943e-001
      2.98746943e-001 2.98746943e-001 1.53313369e-001 1.46452412e-001
      4.33672266e-003 3.47589731e-001 0. 0. 0. 2.47112421e-005 0. 0.
      2.68264957e-005 3.47589731e-001 3.47589731e-001 0. 4.43043076e-002
      5.42668700e-002 7.90813267e-002 4.94800992e-002 4.32115756e-002
      1.10160567e-001 3.47589731e-001 3.17559391e-001 8.62235262e-004
      1.34265370e-004 0. 0. 0. 1.83896802e-004 2.54163309e-003
      3.17721695e-001 3.47589731e-001 4.16362006e-003 2.11877446e-003
      7.47631267e-002 1.38731718e-001 7.27634281e-002 7.33065829e-002
      8.17209110e-002 3.47589731e-001 3.17912370e-001 1.63701415e-001
      2.49751776e-001 2.19898596e-001 5.54077178e-002 7.85947964e-002
      1.41271390e-003 3.30106840e-002 3.17912370e-001 3.17912370e-001
      1.66293513e-002 1.56049291e-002 1.09233418e-002 5.63112646e-003
      1.12278285e-002 2.72833186e-005 8.19179229e-003 3.17912370e-001
      1.44893840e-001 1.27888218e-001 2.91133434e-001 2.51309991e-001
      1.29453957e-001 9.00066867e-002 2.19416879e-002 3.19305547e-002
      1.69786200e-001 3.17912370e-001 1.32404603e-002 1.41297439e-002
      2.32129972e-002 5.56165166e-003 9.35306214e-003 1.38072099e-003
      1.39370672e-002 3.17912370e-001 1.74276352e-001 2.06805214e-001
      1.53422505e-001 1.45128712e-001 2.40409672e-001 2.70322591e-001
      1.19821578e-001 2.40727946e-001 1.44658893e-001 7.83569589e-002
      2.09061608e-001 1.81060731e-001 1.92577511e-001 2.70322591e-001
      1.39638156e-001 5.99089712e-002 6.49421513e-002 0. 6.91049397e-002
      9.12571698e-002 1.02080911e-001 2.70322591e-001 2.70322591e-001
      2.70322591e-001 3.81224602e-002 1.14208885e-001 5.13034798e-002
      4.30939049e-002 1.17333457e-001 9.96973887e-002 1.64232597e-001
      2.70322591e-001 2.22105712e-001 1.06957499e-002 2.06308234e-002 0.
      0. 0. 0. 0. 1.23919159e-001 0. 0. 0. 0. 4.38598365e-001 0. 0. 0.
      4.38598365e-001 6.04457073e-002 4.38598365e-001 4.38598365e-001
      4.38598365e-001 0. 0. 0. 0. 1.70801219e-003 0. 0. 0. 0.
      8.47248733e-002 0. 0. 0. 2.01733764e-002 0. 0. 0. 8.47248733e-002
      4.86661166e-001 0. 0. 0. 4.35801892e-004 0. 0. 0. 4.86661166e-001
      4.86661166e-001 1.44922629e-001 4.96614575e-002 4.31797653e-003
      3.77981435e-003 0. 0. 0. 4.86661166e-001 6.80755302e-002 0. 0. 0.
      2.61481124e-004 0. 0. 0. 6.80755302e-002 8.66233781e-002 0. 0. 0.
      2.26788875e-003 0. 0. 0. 8.66233781e-002 4.75463390e-001 0. 0. 0.
      1.91782229e-002 1.72123816e-002 1.85084254e-001 1.77756473e-001
      4.75463390e-001 4.75463390e-001 0. 0. 0. 4.24392195e-003 0.
      6.92598568e-003 2.36449540e-002 4.75463390e-001 6.09994940e-002 0.
      0. 0. 1.03431353e-002 0. 0. 0. 6.09994940e-002 9.02245417e-002 0.
      0. 0. 4.09114547e-003 0. 0. 0. 9.02245417e-002 4.17753279e-001
      4.17753279e-001 2.93059468e-001 2.67980009e-001 4.17753279e-001 0.
      0. 0. 4.17753279e-001 7.96315372e-002 1.16082177e-001
      4.18656394e-002 1.26333788e-001 2.87530303e-001 0. 0. 0.
      4.73080538e-002 9.32903141e-002 0. 0. 0. 9.45893116e-003 0. 0. 0.
      9.32903141e-002 7.43111921e-003 0. 0. 0. 3.40170530e-003 0. 0. 0.
      7.43111921e-003</_>
    <_>
      0. 0. 0. 0. 0. 0. 0. 0. 0. 0. 0. 0. 0. 0. 0. 0. 0. 0. 0. 0. 0. 0.
      0. 0. 0. 0. 0. 0. 0. 0. 0. 0. 0. 0. 0. 0. 0. 0. 0. 0. 0. 0. 0. 0.
      0. 0. 0. 0. 0. 0. 0. 0. 0. 0. 0. 0. 0. 0. 0. 0. 0. 0. 0. 0. 0. 0.
      0. 0. 0. 0. 0. 0. 0. 0. 0. 0. 0. 0. 0. 0. 0. 0. 0. 0. 0. 0. 0. 0.
      0. 0. 0. 0. 0. 0. 0. 0. 0. 0. 0. 0. 0. 0. 0. 0. 0. 0. 0. 0. 0. 0.
      0. 0. 0. 0. 0. 0. 0. 0. 0. 0. 0. 0. 0. 0. 0. 0. 0. 0. 0. 0. 0. 0.
      0. 0. 0. 0. 0. 0. 0. 0. 0. 0. 0. 0. 0. 0. 0. 0. 0. 0. 0. 0. 0. 0.
      0. 0. 0. 0. 0. 0. 0. 0. 0. 0. 0. 0. 0. 0. 0. 0. 0. 0. 0. 0. 0. 0.
      0. 0. 0. 0. 0. 0. 0. 0. 0. 0. 0. 0. 0. 0. 0. 0. 0. 0. 0. 0. 0. 0.
      0. 0. 0. 0. 0. 0. 0. 0. 0. 0. 0. 0. 0. 0. 0. 0. 0. 0. 0. 0. 0. 0.
      0. 0. 0. 0. 0. 0. 0. 0. 0. 0. 0. 0. 0. 0. 0. 0. 0. 0. 0. 0. 0. 0.
      0. 0. 0. 0. 0. 0. 0. 0. 0. 0. 0. 0. 0. 0. 0. 0. 0. 0. 0. 0. 0. 0.
      0. 0. 0. 0. 0. 0. 0. 0. 0. 0. 0. 0. 0. 0. 0. 0. 0. 0. 0. 0. 0. 0.
      0. 0. 0. 0. 0. 0. 0. 0. 0. 0. 0. 0. 0. 0. 0. 0. 0. 0. 0. 0. 0. 0.
      0. 0. 0. 0. 0. 0. 0. 0. 0. 0. 0. 0. 0. 0. 0. 0. 0. 0. 0. 0. 0. 0.
      0. 0. 0. 0. 0. 0. 0. 0. 0. 0. 0. 0. 0. 0. 0. 0. 0. 0. 0. 0. 0. 0.
      0. 0. 0. 0. 0. 0. 0. 0. 0. 0. 0. 0. 0. 0. 0. 0. 0. 0. 0. 0. 0. 0.
      0. 0. 0. 0. 0. 0. 0. 0. 0. 0. 0. 0. 0. 0. 0. 0. 0. 0. 0. 0. 0. 0.
      0. 0. 0. 0. 0. 0. 0. 0. 0. 0. 0. 0. 0. 0. 0. 0. 0. 0. 0. 0. 0. 0.
      0. 0. 0. 0. 0. 0. 0. 0. 0. 0. 0. 0. 0. 0. 0. 0. 0. 0. 0. 0. 0. 0.
      0. 0. 0. 0. 0. 0. 0. 0. 0. 0. 0. 0. 0. 0. 0. 0. 0. 0. 0. 0. 0. 0.
      0. 0. 0. 0. 0. 0. 0. 0. 0. 0. 0. 0. 0. 0. 0. 0. 0. 0. 0. 0. 0. 0.
      0. 0. 0. 0. 0. 0. 0. 0. 0. 0. 0. 0. 0. 0. 0. 0. 0. 0. 0. 0. 0. 0.
      0. 0. 0. 0. 0. 0. 0. 0. 0. 0. 0. 0. 0. 0. 0. 0. 0. 0. 0. 0. 0. 0.
      0. 0. 0. 0. 0. 0. 0. 0. 0. 0. 0. 0. 0. 0. 0. 0. 0. 0. 0. 0. 0. 0.
      0. 0. 0. 0. 0. 0. 0. 0. 0. 0. 0. 0. 0. 0. 0. 0. 0. 0. 0. 0. 0. 0.
      0. 0. 0. 0. 0. 0. 0. 0. 0. 0. 0. 0. 0. 0. 0. 0. 0. 0. 0. 0. 0. 0.
      0. 0. 0. 0. 0. 0. 0. 0. 0. 0. 0. 0. 0. 0. 0. 0. 0. 0. 0. 0. 0. 0.
      0. 0. 0. 0. 0. 0. 0. 0. 0. 0. 0. 0. 0. 0. 0. 0. 0. 0. 0. 0. 0. 0.
      0. 0. 0. 0. 0. 0. 0. 0. 0. 0. 0. 0. 0. 0. 0. 0. 0. 0. 0. 0. 0. 0.
      0. 0. 0. 0. 0. 0. 0. 0. 0. 0. 0. 0. 0. 0. 0. 0. 0. 0. 0. 0. 0. 0.
      0. 0. 0. 0. 0. 0. 0. 0. 0. 0. 0. 0. 0. 0. 0. 0. 0. 0. 0. 0. 0. 0.
      0. 0. 0. 0. 0. 0. 0. 0. 0. 0. 0. 0. 0. 0. 0. 0. 0. 0. 0. 0. 0. 0.
      0. 0. 0. 0. 0. 0. 0. 0. 0. 0. 0. 0. 0. 0. 0. 0. 0. 0. 0. 0. 0. 0.
      0. 0. 0. 0. 0. 0. 0. 0. 0. 0. 0. 0. 0. 0. 0. 0. 0. 0. 0. 0. 0. 0.
      0. 0. 0. 0. 0. 0. 0. 0. 0. 0. 0. 0. 0. 0. 0. 0. 0. 0. 0. 0. 0. 0.
      0. 0. 0. 0. 0. 0. 0. 0. 0. 0. 0. 0. 0. 0. 0. 0. 0. 0. 0. 0. 0. 0.
      0. 0. 0. 0. 0. 0. 0. 0. 0. 0. 0. 0. 0. 0. 0. 0. 0. 0. 0. 0. 0. 0.
      0. 0. 0. 0. 0. 0. 0. 0. 0. 0. 0. 0. 0. 0. 0. 0. 0. 0. 0. 0. 0. 0.
      0. 0. 0. 0. 0. 0. 0. 0. 0. 0. 0. 0. 0. 0. 0. 0. 0. 0. 0. 0. 0. 0.
      0. 0. 0. 0. 0. 0. 0. 0. 0. 0. 0. 0. 0. 0. 0. 0. 0. 0. 0. 0. 0. 0.
      0. 0. 0. 0. 0. 0. 0. 0. 0. 0. 0. 0. 0. 0. 0. 0. 0. 0. 0. 0. 0. 0.
      0. 0. 0. 0. 0. 0. 0. 0. 0. 0. 0. 0. 0. 0. 0. 0. 0. 0. 0. 0. 0. 0.
      0. 0. 0. 0. 0. 0. 0. 0. 0. 0. 0. 0. 0. 0. 0. 0. 0. 0. 0. 0. 0. 0.
      0. 0. 0. 0. 0. 0. 0. 0. 0. 0. 0. 0. 0. 0. 0. 0. 0. 0. 0. 0. 0. 0.
      0. 0. 0. 0. 0. 0. 0. 0. 0. 0. 0. 0. 0. 0. 0. 0. 0. 0. 0. 0. 0. 0.
      0. 0. 0. 0. 0. 0. 0. 0. 0. 0. 0. 0. 0. 0. 0. 0. 0. 0. 0. 0. 0. 0.
      0. 0. 0. 0. 0. 0. 0. 0. 0. 0. 0. 0. 0. 0. 0. 0. 0. 0. 0. 0. 0. 0.
      0. 0. 0. 0. 0. 0. 0. 0. 0. 0. 0. 0. 0. 0. 0. 0. 0. 0. 0. 0. 0. 0.
      0. 0. 0. 0. 0. 0. 0. 0. 0. 0. 0. 0. 0. 0. 0. 0. 0. 0. 0. 0. 0. 0.
      0. 0. 0. 0. 0. 0. 0. 0. 0. 0. 0. 0. 0. 0. 0. 0. 0. 0. 0. 0. 0. 0.
      0. 0. 0. 0. 0. 0. 0. 0. 0. 0. 0. 0. 0. 0. 0. 0. 0. 0. 0. 0. 0. 0.
      0. 0. 0. 0. 0. 0. 0. 0.</_>
    <_>
      7.88179561e-002 4.02103104e-002 6.40806630e-002 4.87136096e-002
      1.29771903e-001 2.45353922e-001 2.47324660e-001 5.81186339e-002
      1.73867494e-001 1.17990032e-001 1.50172427e-001 2.54901975e-001
      1.93050861e-001 1.70597881e-001 1.62101090e-001 2.13349149e-001
      4.66024550e-003 9.82312337e-002 1.04383662e-001 1.70270294e-001
      4.66212556e-002 5.27703241e-002 1.12510748e-001 1.85146034e-001
      2.54901975e-001 1.22020386e-001 2.54901975e-001 7.33233541e-002
      1.64754197e-001 2.06965521e-001 2.54901975e-001 1.82076707e-001
      2.54901975e-001 2.54901975e-001 1.37538295e-002 1.47638708e-001
      1.82765260e-001 2.18199402e-001 1.34929225e-001 1.08532012e-001
      9.40279737e-002 7.12702647e-002 6.61901757e-002 1.46779463e-001
      8.04800615e-002 1.26825035e-001 1.97297111e-001 2.00694829e-001
      1.55444652e-001 6.10730276e-002 5.21779768e-002 1.50051028e-001
      1.10171221e-001 9.10355896e-002 2.13128060e-001 2.47653410e-001
      1.00664154e-001 2.47653410e-001 2.47653410e-001 6.66744485e-002
      4.92459759e-002 1.49067953e-001 1.92876548e-001 1.77386194e-001
      2.47653410e-001 1.38207763e-001 2.47653410e-001 1.71047628e-001
      1.67655766e-001 1.61785692e-001 2.47653410e-001 2.17730552e-001
      9.47786774e-003 1.64051503e-001 2.48982504e-001 2.05444574e-001
      2.48982504e-001 5.15046529e-003 8.07384495e-003 2.87549123e-002
      2.49392688e-002 4.86290045e-002 2.48982504e-001 1.92801401e-001
      2.02763095e-001 2.48982504e-001 5.29456623e-002 1.66847289e-001
      1.34874001e-001 6.85783848e-002 1.06637262e-001 2.01582164e-001
      2.48982504e-001 2.48982504e-001 1.51064709e-001 4.56245095e-002
      1.74345244e-002 4.57576066e-002 6.85573742e-002 1.97105706e-001
      5.67983277e-002 1.28043264e-001 2.48982504e-001 2.32741266e-001
      2.18955219e-001 1.94451496e-001 2.48982504e-001 1.19320691e-001
      5.03462516e-002 1.60932437e-001 1.11379340e-001 2.28205040e-001
      2.14870691e-001 1.58095971e-001 4.41906527e-002 4.05315422e-002
      9.58798528e-002 2.56840527e-001 2.14317381e-001 1.12296835e-001
      1.86149478e-001 2.56840527e-001 2.02351734e-001 1.17231876e-001
      8.79710019e-002 1.87348574e-001 6.53919354e-002 2.03154266e-001
      2.56840527e-001 2.56840527e-001 1.14549764e-001 1.14051566e-001
      1.80442501e-002 5.84538914e-002 4.67359237e-002 2.56840527e-001
      2.19370335e-001 2.56840527e-001 2.56840527e-001 8.67085159e-002
      1.33971676e-001 2.41339207e-002 8.69274735e-002 9.34867784e-002
      1.75676003e-001 1.62250325e-001 1.59786224e-001 9.72911865e-002
      2.45090067e-001 1.71190113e-001 1.09793223e-001 1.31030101e-002
      5.62451407e-002 1.76989600e-001 4.37901430e-002 2.55099535e-001
      2.04174638e-001 2.55099535e-001 2.55099535e-001 2.41770104e-001
      3.36597003e-002 1.24832273e-001 1.23585634e-001 1.64015487e-001
      1.56733230e-001 2.04784915e-001 5.87975904e-002 7.14900494e-002
      2.02346638e-001 8.25172588e-002 3.67232524e-002 1.58131301e-001
      7.99506530e-002 2.55099535e-001 2.55099535e-001 1.73229411e-001
      2.55099535e-001 8.97988155e-002 1.19193107e-001 9.96200219e-002
      1.22946940e-001 9.19667035e-002 1.19852267e-001 1.76282406e-001
      2.37900496e-001 1.60190910e-001 5.56740910e-002 3.42542119e-002
      2.69228220e-002 7.37210885e-002 1.33695140e-001 1.48664951e-001
      2.87467301e-001 2.87467301e-001 9.83996615e-002 5.08828722e-002
      4.87020612e-002 1.96937546e-002 3.69099900e-002 6.50118962e-002
      2.24794105e-001 2.87467301e-001 1.81653082e-001 2.63530403e-001
      1.76051319e-001 3.22047248e-002 2.04648972e-002 1.35892667e-002
      4.35560457e-002 1.63490638e-001 2.87467301e-001 2.87467301e-001
      1.68195322e-001 2.87467301e-001 1.36522740e-001 1.33548290e-001
      5.35919517e-003 1.46355137e-001 1.58340007e-001 2.09838763e-001
      2.09633380e-001 1.34815887e-001 1.27211362e-001 7.54525736e-002
      2.08875984e-002 1.71888142e-003 1.35241225e-001 1.32533699e-001
      2.09642544e-001 2.64979213e-001 2.63647288e-001 1.80479333e-001
      8.41149762e-002 5.68839088e-002 2.91499048e-002 2.01316401e-001
      2.59589761e-001 2.64979213e-001 1.97824702e-001 8.63993168e-002
      8.24930146e-002 6.43309206e-002 3.61163877e-002 0. 2.15770811e-001
      2.31128410e-001 2.64979213e-001 2.64979213e-001 2.64979213e-001
      8.42931867e-002 5.98447509e-002 2.85931360e-002 1.20974667e-001
      1.48087382e-001 1.79448694e-001 1.02114424e-001 7.02776611e-002
      1.24971546e-001 2.05485761e-001 1.34936303e-001 3.91928479e-002
      2.43958816e-001 1.69161126e-001 1.68970615e-001 2.10248381e-001
      1.54467702e-001 1.12492263e-001 9.45038721e-002 3.91725264e-002
      1.71054035e-001 6.96992651e-002 8.16614479e-002 2.31558695e-001
      1.55446678e-001 2.65230983e-001 2.65230983e-001 1.95350811e-001
      1.06371552e-001 8.21371526e-002 1.51370555e-001 1.06722735e-001
      1.75280213e-001 1.60508394e-001 2.65230983e-001 2.65230983e-001
      2.57117271e-001 6.22714683e-003 1.21012434e-001 7.54248649e-002
      9.76132601e-002 4.17384505e-002 2.48623610e-001 1.40602216e-001
      9.55664888e-002 1.64346442e-001 3.56767848e-002 3.31187807e-002
      5.64055704e-002 1.24825798e-001 2.77545333e-001 2.79813617e-001
      2.55446613e-001 1.07443698e-001 2.56133318e-001 2.90587991e-002
      1.35392053e-002 6.00471199e-002 9.18970257e-002 2.94101276e-002
      1.94668189e-001 1.23243384e-001 2.79813617e-001 2.79813617e-001
      3.31296772e-002 1.39321787e-002 6.02763444e-002 9.26338062e-002
      9.14931670e-002 2.79813617e-001 2.79813617e-001 2.45125428e-001
      2.79813617e-001 5.60034811e-002 7.19853444e-003 0. 1.21663988e-001
      7.10467547e-002 7.04180077e-002 2.04797402e-001 1.98883638e-001
      1.99461356e-001 9.36515480e-002 3.27175111e-002 1.74647108e-001
      1.12321831e-001 1.43273503e-001 1.32692933e-001 2.65700310e-001
      2.65700310e-001 9.34140235e-002 4.76416089e-002 1.12942994e-001 0.
      2.26118892e-001 2.65700310e-001 2.22298801e-001 2.65700310e-001
      1.27855659e-001 1.19480312e-001 1.87209584e-002 8.38011596e-003
      1.01055130e-001 2.33720779e-001 2.65700310e-001 1.72026709e-001
      2.65700310e-001 2.65700310e-001 4.84579988e-002 4.41814102e-002
      1.09141961e-001 1.41468629e-001 8.83506387e-002 1.11559726e-001
      1.94388092e-001 2.62145877e-001 2.41287351e-001 2.62145877e-001
      5.86883305e-003 1.49396285e-002 1.96111664e-001 1.25515014e-001
      1.19010873e-001 1.31471828e-001 2.62145877e-001 1.52477860e-001
      2.12634176e-001 2.99990047e-002 3.78093943e-002 1.66736543e-001
      1.19135551e-001 1.27503604e-001 8.25573802e-002 1.78105652e-001
      2.18389139e-001 2.62145877e-001 7.06459433e-002 6.53322488e-002
      2.55285829e-001 2.33800620e-001 9.60133448e-002 1.46373466e-001
      1.45446494e-001 1.35928243e-001 2.62145877e-001 1.14718750e-001
      6.15129545e-002 6.94249049e-002 3.13716941e-002 1.63858399e-001
      1.90128878e-001 1.61734864e-001 1.33932948e-001 9.82776806e-002
      1.00286476e-001 5.35608642e-002 1.29044905e-001 9.08774734e-002
      7.21920133e-002 6.82642385e-002 2.22835854e-001 1.65240243e-001
      1.64955586e-001 3.12261105e-001 6.00747056e-002 1.45656109e-001
      1.35226697e-001 1.56506956e-001 1.29931360e-001 3.12261105e-001
      1.46588385e-001 3.64861116e-002 1.76410317e-001 1.14118449e-001
      9.06976834e-002 2.09562946e-002 9.14398134e-002 2.11555019e-001
      3.12261105e-001 2.07568973e-001 1.05057202e-001 3.12261105e-001
      2.55069882e-001 4.75734547e-002 2.80699925e-003 6.02478385e-002
      3.13562416e-002 1.60698563e-001 2.65286863e-001 2.19866633e-001
      9.58395228e-002 7.04791024e-002 8.90704617e-002 4.00999881e-004
      7.00935498e-002 9.66639146e-002 2.65286863e-001 2.47512847e-001
      2.65286863e-001 1.23839065e-001 1.08678639e-001 4.37103659e-002
      1.39963103e-003 1.76239356e-001 1.21851996e-001 2.65286863e-001
      1.97852373e-001 1.38366356e-001 1.80180371e-001 1.69614166e-001
      1.15841456e-001 9.79741849e-003 1.71239316e-001 7.00482428e-002
      2.65286863e-001 2.24757031e-001 2.65286863e-001 2.65286863e-001
      1.82483897e-001 8.46593082e-003 2.34718844e-002 5.70700355e-002
      2.00210065e-001 2.56689578e-001 2.56689578e-001 1.29910842e-001
      5.29467501e-002 2.13956963e-002 5.80212511e-002 4.55232821e-002
      1.54766664e-001 2.23429978e-001 2.56689578e-001 2.34218583e-001
      1.25410721e-001 6.48988858e-002 1.49769887e-001 1.64454766e-002
      7.10235238e-002 2.00851694e-001 2.56689578e-001 2.56689578e-001
      2.56689578e-001 7.25351498e-002 4.05490622e-002 2.23980360e-002
      7.75213018e-002 1.92542180e-001 2.28443637e-001 2.56689578e-001
      2.56689578e-001 2.56689578e-001 7.79657364e-002 4.27587666e-002
      8.68731141e-002 2.17494592e-002 1.15002833e-001 1.62468210e-001
      2.52395213e-001 1.94782153e-001 1.34892359e-001 7.03030974e-002
      1.00559592e-001 1.07388236e-002 1.50558380e-002 2.13386282e-001
      2.62680024e-001 2.62680024e-001 1.16965830e-001 6.67107478e-002
      2.60325167e-002 1.33442611e-001 1.45078488e-002 6.73730969e-002
      2.62680024e-001 1.44986361e-001 1.70592040e-001 2.62680024e-001
      2.62680024e-001 1.17564023e-001 1.10365711e-001 1.93978194e-002
      1.04857430e-001 2.62680024e-001 2.62680024e-001 2.62680024e-001
      2.62680024e-001 1.36170238e-001 4.50453535e-002 6.71018064e-002
      3.95963863e-002 6.50264323e-002 4.69575152e-002 1.82454288e-001
      2.36767173e-001 2.01658204e-001 8.60399753e-002 7.26308376e-002
      8.81466568e-002 1.06138021e-001 7.40347356e-002 1.13709681e-001
      2.52696753e-001 2.52696753e-001 2.28018507e-001 8.42669755e-002
      1.51959777e-001 1.03651419e-001 1.10564806e-001 3.16981017e-003
      2.26098299e-002 2.33254701e-001 2.32356265e-001 2.52696753e-001
      8.07923451e-002 1.31611228e-001 2.22277567e-001 2.47247458e-001
      7.53383934e-002 1.13031939e-001 2.52696753e-001 2.52696753e-001
      2.52696753e-001 9.29439515e-002 9.18670744e-002 8.72985572e-002
      1.90153137e-001 7.34463781e-002 8.62750411e-002 1.46300465e-001
      1.43176541e-001 1.39350489e-001 2.63215482e-001 2.60337353e-001
      3.65506634e-002 5.15899025e-002 6.21414855e-002 1.08723104e-001
      6.48322999e-002 1.19744770e-001 2.63215482e-001 2.63215482e-001
      2.63215482e-001 9.84003171e-002 5.97152859e-002 1.00083932e-001
      2.07942724e-001 2.04991281e-001 1.56939670e-001 1.74835473e-001
      1.59661874e-001 9.80589539e-002 1.32393062e-001 9.11413729e-002
      1.29589126e-001 1.93081111e-001 9.08622071e-002 2.63215482e-001
      1.86321467e-001 2.63215482e-001 1.90857232e-001 1.51633844e-001
      1.42783314e-001 7.09461868e-002 2.82169580e-002 4.88791503e-002
      5.52236959e-002 2.44490504e-001 2.57561892e-001 2.57561892e-001
      1.28050685e-001 3.53394151e-002 1.10859454e-001 1.52224246e-002
      1.04418486e-001 2.30572581e-001 1.65421501e-001 2.57561892e-001
      2.55888671e-001 3.63490246e-002 3.41173224e-002 3.61685194e-002
      8.40721428e-002 7.60687813e-002 7.33444914e-002 2.57561892e-001
      2.57561892e-001 1.97307900e-001 2.57561892e-001 9.33436155e-002
      9.84746963e-002 2.84928624e-002 1.34885341e-001 1.25434741e-001
      2.27433503e-001 2.57561892e-001 2.57561892e-001 1.80846348e-001
      1.00300521e-001 5.60784750e-002 3.06843501e-002 1.51817232e-001
      1.81475207e-001 2.48198286e-001 7.62792230e-002 7.87367299e-002
      2.46781781e-001 1.73028529e-001 1.11261986e-001 1.15363948e-001
      2.55821466e-001 2.11322635e-001 1.01661459e-001 2.25770548e-001
      9.46050510e-002 2.39082187e-001 1.32432416e-001 1.15619853e-001
      2.77540321e-003 1.94505110e-001 2.44865701e-001 2.43801400e-001
      1.36194199e-001 7.93014988e-002 1.01042137e-001 2.12293208e-001
      7.59128183e-002 4.03702743e-002 2.55821466e-001 2.55821466e-001
      1.28931418e-001 1.10128231e-001 4.09911759e-002 1.91716328e-001
      1.89679489e-001 1.14629522e-001 1.52270898e-001 9.83977467e-002
      1.35244265e-001 1.48532748e-001 7.17331395e-002 4.81713228e-002
      5.71551621e-002 1.36380225e-001 1.19912893e-001 9.59777907e-002
      1.65700823e-001 1.73562795e-001 2.55883157e-001 1.68650404e-001
      1.81575879e-001 2.55883157e-001 1.57788381e-001 8.28876123e-002
      8.56280699e-002 1.00064136e-001 2.55883157e-001 2.55883157e-001
      1.57240331e-001 5.32144532e-002 1.16755255e-001 2.08308667e-001
      1.09709255e-001 2.19265576e-002 2.55883157e-001 2.55883157e-001
      2.55883157e-001 2.19283208e-001 1.01299509e-001 2.06635386e-001
      1.83238521e-001 1.90788493e-001 2.78895441e-002 3.30055977e-004
      7.13086978e-004 2.50866324e-001 3.06296557e-001 3.42476785e-001
      1.80426110e-002 3.43772471e-002 0. 2.43695849e-003 9.46142827e-004
      1.33819617e-002 1.88432038e-001 1.13779463e-001 9.02284607e-002
      4.11182530e-002 1.43504946e-003 2.39252269e-001 3.00049260e-002
      2.31039175e-003 4.62245243e-003 3.42476785e-001 3.42476785e-001
      2.86342829e-001 1.77247636e-002 7.74697214e-002 2.60905060e-003
      1.99775416e-002 3.85065307e-003 1.82326864e-002 3.42476785e-001
      3.42476785e-001 8.59329551e-002 3.91605124e-002 8.29572044e-003
      7.27654994e-002 6.76098019e-002 1.20877914e-001 1.96387425e-001
      2.86740959e-001 8.78155380e-002 9.91596580e-002 2.73066573e-002
      2.82834843e-002 7.95829371e-002 1.25229612e-001 7.54425898e-002
      2.85879761e-001 2.86740959e-001 6.53037354e-002 6.85846284e-002
      1.07789330e-001 3.84680443e-002 5.70781752e-002 7.64604285e-002
      1.91888139e-001 2.15466887e-001 2.19813406e-001 7.21253902e-002
      7.10867196e-002 2.18408868e-001 1.48281559e-001 1.46718606e-001
      1.55383304e-001 2.20572680e-001 2.20243081e-001 2.75944531e-001
      3.69515307e-002 1.16883971e-001 2.86740959e-001 2.86740959e-001
      1.62135139e-001 5.11223488e-002 4.64636050e-002 1.63158923e-001
      2.21082419e-001 9.74118933e-002 2.66940981e-001 4.06692699e-002
      7.64586553e-002 1.65202275e-001 9.24986899e-002 6.39360845e-002
      1.30006820e-001 2.49381766e-001 2.61468500e-001 2.66940981e-001
      9.20255333e-002 1.14821047e-001 1.20166838e-001 3.68787907e-002
      2.80622002e-002 2.52012927e-002 2.31793329e-001 2.66940981e-001
      2.66940981e-001 5.04231006e-002 1.06436014e-001 1.32008895e-001
      1.26014248e-001 1.76874116e-001 5.99874780e-002 2.66940981e-001
      2.66940981e-001 2.19670668e-001 7.86499828e-002 1.72456518e-001
      9.17614251e-002 2.20924333e-001 7.71607682e-002 1.54306352e-001
      9.50327441e-002 1.26123086e-001 6.50048330e-002 1.12863794e-001
      7.15761185e-002 1.55566931e-001 5.24651110e-002 2.52515897e-002
      2.55610257e-001 2.55610257e-001 1.75321817e-001 8.11290145e-002
      2.55610257e-001 1.16709620e-001 3.95465195e-002 2.55610257e-001
      2.45169267e-001 2.55610257e-001 7.22212419e-002 1.59783095e-001
      7.65554160e-002 8.81325081e-002 4.58118394e-002 1.22334264e-001
      6.02315925e-002 1.78838730e-001 2.55610257e-001 2.55610257e-001
      1.99486136e-001 1.10135511e-001 2.55610257e-001 2.27061257e-001
      2.21266616e-002 0. 0. 1.63250559e-004 3.02896440e-001
      3.06133956e-001 1.40242502e-001 6.14502206e-002 6.44179955e-002
      2.19659254e-001 6.97442912e-004 0. 1.29187026e-003 1.15650415e-001
      2.92322785e-001 1.22132733e-001 9.30364504e-002 3.06133956e-001
      7.83148482e-002 5.22212125e-004 0. 0. 2.29129642e-001
      3.06133956e-001 2.37094685e-001 8.56492370e-002 1.79719284e-001
      3.06133956e-001 0. 0. 0. 4.85900268e-002 2.09867626e-001
      1.51743665e-001 1.18131280e-001 3.06133956e-001 2.37072051e-001
      3.03926826e-001 1.94409024e-002 0. 0. 1.80265470e-005
      1.11683989e-002 8.19884166e-002 4.21517119e-002 3.50211740e-001
      1.63460195e-001 8.85040034e-003 0. 0. 0. 5.18959248e-004
      1.67507445e-003 1.89322114e-001 3.50211740e-001 3.50211740e-001
      1.53606623e-001 0. 0. 0. 5.11864573e-002 1.92931876e-001
      5.09325527e-002 3.50211740e-001 3.00346643e-001 8.24615508e-002 0.
      0. 0. 0. 0. 3.50211740e-001 4.58473004e-002 0. 0. 0.
      6.43513128e-002 1.46838114e-001 2.79371142e-001 2.84469873e-001
      2.04283819e-001 7.77909241e-004 1.96778827e-004 7.49650004e-004
      6.20634947e-003 1.58842146e-001 1.78600624e-001 1.51130021e-001
      4.15726192e-002 4.50900430e-003 7.55604953e-002 0. 0.
      2.62954913e-004 2.80954212e-001 3.06328982e-001 3.06328982e-001
      3.06328982e-001 2.59574294e-001 2.25903699e-003 9.56201518e-004
      3.17026209e-003 1.59982368e-002 3.06328982e-001 3.06328982e-001
      2.50245512e-001 5.06750047e-002 2.46706273e-004 1.55788347e-001
      7.53903296e-003 4.80771698e-002 2.14831263e-001 2.23566607e-001
      8.06550980e-002 6.87543005e-002 3.11719924e-002 1.48003131e-001
      2.58076787e-001 8.56858306e-003 1.22075118e-001 8.47585946e-002
      2.72903293e-001 7.46439621e-002 1.61407053e-001 1.51249841e-001
      1.80694237e-001 1.30877733e-001 2.30907686e-002 2.39873737e-001
      2.72903293e-001 2.72903293e-001 1.60436362e-001 8.25482830e-002
      1.81713142e-002 1.05840184e-001 2.41252393e-001 8.41851905e-002
      2.72903293e-001 1.52477577e-001 2.72903293e-001 1.90426871e-001
      1.70964405e-001 4.15126793e-002 1.30591333e-001 3.48424345e-001
      4.04733643e-002 5.22556081e-002 4.11084034e-002 3.48424345e-001
      1.40313670e-001 6.50541559e-002 8.74427631e-002 2.45244369e-001
      3.48424345e-001 8.94418061e-002 1.39992470e-002 1.23997228e-002
      1.57776307e-002 5.66888088e-003 1.43235493e-002 7.10828602e-002
      3.23908061e-001 1.34134725e-001 6.64134622e-002 4.28795218e-002
      8.37087110e-002 3.48424345e-001 3.48424345e-001 1.72210969e-002 0.
      5.58491088e-002 2.89036989e-001 1.30894706e-001 3.11881639e-002
      6.41349480e-002 1.50859579e-001 6.92267194e-002 5.92376366e-002
      1.99025515e-002 3.26202996e-002 8.04562122e-002 2.83524126e-001
      2.83524126e-001 2.83524126e-001 7.30379671e-002 4.44593579e-002
      1.53548524e-001 1.38993219e-001 1.17814653e-002 2.83524126e-001
      2.06695229e-001 2.64061183e-001 2.31720030e-001 4.01058309e-002 0.
      0. 0. 1.50182664e-001 1.29503310e-002 2.31683254e-002
      1.68153211e-001 2.83524126e-001 2.83524126e-001 1.81291401e-001
      8.31273422e-002 1.61478780e-002 3.37976776e-003 1.70428097e-001
      2.85165906e-002 6.22366592e-002 2.78291702e-001 2.83524126e-001
      6.69090673e-002 2.43984796e-002 7.83496257e-003 4.46795449e-002
      4.23668511e-003 0. 0. 2.87624844e-003 4.12549794e-001
      4.06566411e-001 1.99882872e-002 1.05612287e-002 4.66682622e-003 0.
      2.93657836e-003 8.46541196e-004 4.00631689e-003 4.12549794e-001
      3.26420903e-001 2.82894867e-003 2.89930322e-004 2.01233925e-004
      1.10409711e-003 2.43389804e-004 0. 7.78381452e-002 4.12549794e-001
      1.32341012e-001 2.39770021e-003 3.51769006e-004 1.15147326e-003 0.
      1.15837716e-003 1.82461459e-003 6.95566386e-002 4.12549794e-001
      1.19222067e-001 3.46373324e-003 0. 0. 1.22435391e-001
      1.68757930e-001 1.80066377e-001 1.37542680e-001 1.70877859e-001
      2.31805965e-001 2.74889991e-002 4.85706031e-002 8.39095935e-002
      8.42444524e-002 1.72786400e-001 2.31493026e-001 2.46492535e-001
      2.46492535e-001 1.81151569e-001 1.05970360e-001 1.01524822e-001
      1.49791762e-001 6.45475537e-002 1.78387180e-001 1.38361484e-001
      2.46492535e-001 2.46492535e-001 1.12009645e-001 2.25442946e-002
      4.76330295e-002 1.70550808e-001 1.66548252e-001 1.51916623e-001
      1.81496322e-001 2.18546391e-001 2.28104696e-001 1.18375443e-001
      1.39408633e-001 1.48219481e-001 2.46492535e-001</_>
    <_>
      1.14668764e-001 3.85630094e-002 7.40545839e-002 1.54609740e-001
      1.27267554e-001 1.80484891e-001 1.85753986e-001 8.55761617e-002
      6.36048689e-002 8.09070021e-002 1.17018498e-001 5.01601733e-002
      2.95935959e-001 2.95935959e-001 1.77741453e-001 8.26767758e-002
      1.81246251e-002 4.68550511e-002 8.35280940e-002 1.25527233e-001
      2.95935959e-001 1.89814150e-001 1.61602676e-001 2.35912874e-001
      1.53732598e-001 6.62649944e-002 6.11463562e-002 1.04307346e-001
      2.34351277e-001 2.46424571e-001 2.95935959e-001 2.95935959e-001
      2.17366442e-001 6.80290163e-002 1.16325375e-002 7.70843029e-002
      1.21226929e-001 6.22483902e-002 2.21961364e-002 2.46573724e-002
      1.71161145e-001 2.51512885e-001 1.79992437e-001 7.74849877e-002
      7.43630305e-002 1.73933163e-001 8.56367648e-002 3.12352162e-002
      1.58006623e-001 2.78210729e-001 2.78210729e-001 1.58059895e-001
      2.13832855e-002 5.51784523e-002 6.85232356e-002 2.01609358e-001
      2.06616327e-001 1.95190877e-001 1.71091974e-001 2.78210729e-001
      1.26295775e-001 1.81666967e-002 4.91103418e-002 5.50123230e-002
      9.50060561e-002 2.43681952e-001 2.78210729e-001 2.78210729e-001
      2.78210729e-001 1.96071908e-001 1.35297365e-002 2.20228937e-002
      2.84301788e-002 9.69351530e-002 1.29865140e-001 2.27970183e-002
      2.04897568e-001 2.02232197e-001 5.63282408e-002 1.45899013e-001
      2.39682347e-001 1.10115983e-001 5.27378581e-002 1.77230060e-001
      3.60250436e-002 2.48660550e-001 2.06631199e-001 2.04786777e-001
      2.01561868e-001 2.15846702e-001 2.48660550e-001 1.03212610e-001
      9.31256935e-002 8.62426087e-002 2.48660550e-001 6.75897747e-002
      1.38326272e-001 1.30247787e-001 1.93284139e-001 2.48660550e-001
      2.16382831e-001 1.96509674e-001 1.28879696e-001 2.48660550e-001
      1.11721516e-001 1.58666417e-001 1.10028327e-001 1.41109407e-001
      5.33158891e-002 1.83782712e-001 2.55376786e-001 1.88723281e-001
      1.31687194e-001 3.41819599e-002 6.93743750e-002 1.19011924e-002
      1.88865848e-002 9.64305103e-002 1.55722365e-001 2.28435397e-001
      2.55376786e-001 2.21244827e-001 1.11001879e-001 3.15654390e-002 0.
      6.89466745e-002 1.21532388e-001 2.55376786e-001 2.03730121e-001
      1.06511354e-001 2.55376786e-001 1.45284906e-001 1.51853710e-001
      3.79060917e-002 9.11643449e-003 1.44337818e-001 2.55376786e-001
      2.55376786e-001 2.55376786e-001 2.55376786e-001 2.55376786e-001
      9.69815031e-002 1.56088555e-002 1.33767232e-001 4.79682609e-002
      3.11477464e-002 8.98305327e-002 8.74392167e-002 5.20795770e-002
      1.26314968e-001 1.59513295e-001 1.82102144e-001 1.76092342e-001
      7.81008974e-002 2.51151204e-001 2.51151204e-001 1.81800470e-001
      1.61900550e-001 1.50556952e-001 1.11911848e-001 1.32230788e-001
      2.51151204e-001 5.17667644e-002 9.90361795e-002 3.67221721e-002
      9.67838541e-002 7.81118050e-002 7.32885003e-002 2.51151204e-001
      2.21372083e-001 2.23390356e-001 7.84620047e-002 2.51151204e-001
      2.33941302e-001 2.51151204e-001 2.30712339e-001 1.29619002e-001
      1.98216796e-001 1.48134559e-001 2.19061241e-001 9.96327698e-002
      2.19443753e-001 1.85504287e-001 5.58516681e-002 1.47665858e-001
      1.18242942e-001 5.90691902e-003 1.36316847e-002 1.43474847e-001
      2.49595881e-001 2.19139993e-001 1.20461315e-001 1.50314838e-001
      2.91964710e-001 1.47060901e-001 4.97373082e-002 4.11736667e-002
      1.09679066e-001 1.67424724e-001 1.71718702e-001 1.47001147e-001
      7.21881464e-002 2.91964710e-001 2.91964710e-001 2.05660164e-002
      1.97859872e-002 6.38261661e-002 1.07803188e-001 1.46785796e-001
      2.30487436e-001 8.88995230e-002 2.91964710e-001 2.91964710e-001
      1.90338969e-001 1.11494564e-001 3.64158154e-002 1.76680356e-001
      4.65323627e-002 6.32024556e-002 1.52109057e-001 1.35861307e-001
      1.82940736e-001 8.91285911e-002 1.28770769e-001 1.18421435e-001
      2.50101894e-001 1.20017819e-001 1.81164101e-001 2.38664523e-001
      1.98020682e-001 1.24340385e-001 3.55566852e-002 2.60672495e-002
      1.96693525e-001 2.02283531e-001 1.30324960e-001 1.72091976e-001
      1.11281566e-001 4.13635001e-002 1.93422154e-001 2.50101894e-001
      1.11759640e-001 1.50566399e-001 2.50101894e-001 1.57206044e-001
      2.42894247e-001 2.49436975e-001 2.38961384e-001 1.12905033e-001
      4.81745079e-002 6.73163682e-002 2.50101894e-001 1.15667410e-001
      1.98170021e-002 3.14240903e-002 2.46794745e-001 1.51108727e-001
      1.23074073e-002 6.42104149e-002 2.02496931e-001 2.09826857e-001
      1.31027341e-001 3.03530935e-002 7.56157115e-002 2.46794745e-001
      1.48141369e-001 2.19014287e-001 6.46788925e-002 2.36188233e-001
      2.35302538e-001 1.02254413e-001 4.03428525e-002 1.76846102e-001
      2.46794745e-001 2.46794745e-001 1.39101475e-001 1.33755133e-001
      1.06731996e-001 5.84484600e-002 1.93154961e-001 1.05832480e-001
      2.46794745e-001 1.27317265e-001 1.94982007e-001 1.94325924e-001
      1.75557151e-001 2.22516358e-001 2.01991513e-001 4.19293121e-002
      8.91394913e-002 1.49197191e-001 2.63233870e-001 1.61756307e-001
      7.61676654e-002 5.75836040e-002 1.93624884e-001 2.06457693e-002
      8.49126205e-002 3.96893919e-002 2.63233870e-001 2.63233870e-001
      2.38507673e-001 9.94385779e-002 6.66358992e-002 2.63233870e-001
      1.30158797e-001 4.13133651e-002 4.94315438e-002 2.16021985e-001
      1.07892491e-001 5.36765754e-002 1.16934933e-001 1.78681582e-001
      2.63233870e-001 6.22203015e-002 1.05539814e-001 4.09372784e-002
      2.15172887e-001 1.97040528e-001 2.37173915e-001 2.11288884e-001
      2.47194305e-001 2.63233870e-001 6.90270215e-002 5.71658239e-002
      9.27256867e-002 1.51736662e-001 5.60421459e-002 1.41493976e-001
      1.31603733e-001 2.46936679e-001 7.79743418e-002 1.15748897e-001
      1.48466751e-001 1.95037499e-001 1.80704758e-001 8.56533125e-002
      1.33700013e-001 2.10720271e-001 1.22009784e-001 1.01576559e-001
      1.41939372e-001 3.54864113e-002 6.36074394e-002 2.56010979e-001
      1.24381155e-001 1.13107935e-001 2.57536799e-001 2.57536799e-001
      1.17414452e-001 2.22525090e-001 1.76589534e-001 2.39529356e-001
      1.58428654e-001 9.29334834e-002 1.26767412e-001 2.57536799e-001
      1.03444085e-001 2.38992333e-001 2.57536799e-001 8.36578757e-002
      1.32746354e-001 2.57412702e-001 2.06933185e-001 1.66113049e-001
      1.06823280e-001 9.97469574e-002 6.35273159e-002 3.55393551e-002
      2.50563115e-001 1.04353890e-001 9.24969167e-002 1.70180380e-001
      2.74526685e-001 1.39959604e-001 1.37889892e-001 3.71285118e-002
      6.21911362e-002 6.59294426e-002 1.37303799e-001 2.74526685e-001
      2.74526685e-001 2.74526685e-001 4.90065813e-002 9.73914042e-002
      1.05708174e-001 1.58765689e-001 1.83307856e-001 1.88996270e-002
      6.62810355e-002 1.97258517e-001 2.74526685e-001 1.86279774e-001
      2.74526685e-001 1.10919796e-001 7.96322972e-002 2.66203862e-002
      2.66906228e-002 9.45086703e-002 9.15132910e-002 2.57078022e-001
      2.24094719e-001 2.34954178e-001 1.96730554e-001 3.37033421e-002
      1.47288099e-001 2.01464836e-002 1.46710128e-001 1.99265674e-001
      2.57078022e-001 1.92591786e-001 1.30358696e-001 5.85745834e-002
      1.04018129e-001 3.49322185e-002 1.53991997e-001 2.33970210e-001
      1.24917760e-001 1.73819289e-001 1.51811823e-001 2.57078022e-001
      1.32202625e-001 2.70508807e-002 1.06156059e-001 8.29707459e-002
      2.57078022e-001 2.13861361e-001 2.57078022e-001 2.57078022e-001
      2.15190306e-001 4.72180918e-002 7.78829083e-002 1.03295110e-001
      8.24373811e-002 1.11894466e-001 1.34265974e-001 1.77450523e-001
      2.71285456e-002 1.53723165e-001 2.37122342e-001 6.84742257e-002
      4.98026572e-002 5.56125492e-003 5.04537858e-002 1.54959694e-001
      1.74969867e-001 5.44384718e-002 2.84045398e-001 2.84045398e-001
      1.17202714e-001 2.84045398e-001 1.03862502e-001 1.61411569e-001
      1.09106563e-001 1.90767139e-001 1.28000397e-002 1.26094937e-001
      2.60111213e-001 8.66791680e-002 1.36632919e-001 7.80328363e-002
      1.11368477e-001 1.70582622e-001 2.84045398e-001 1.27171054e-001
      2.84045398e-001 2.84045398e-001 1.14449203e-001 7.24378675e-002
      7.32540041e-002 8.12240466e-002 4.60841060e-002 2.40386605e-001
      1.41998410e-001 1.50934979e-001 7.00421780e-002 1.95179388e-001
      2.41912883e-002 1.48237050e-001 2.57633507e-001 4.68852147e-002
      1.36866033e-001 1.77428633e-001 2.57633507e-001 4.13201302e-002
      7.10831955e-002 1.75762400e-001 6.09362312e-003 9.74706188e-002
      1.11829333e-001 2.57633507e-001 2.57502109e-001 1.60375148e-001
      6.69499263e-002 2.57633507e-001 5.35131879e-002 1.14264339e-001
      2.57633507e-001 1.95581704e-001 2.57633507e-001 2.57633507e-001
      2.34825537e-001 4.66201045e-002 1.64525673e-001 1.27408862e-001
      8.84208828e-002 9.89648551e-002 1.30723491e-001 1.07491516e-001
      1.66613132e-001 6.63082749e-002 2.59629041e-001 1.52728736e-001
      1.08070984e-001 1.44347891e-001 1.19943351e-001 2.59629041e-001
      2.59629041e-001 1.22745357e-001 9.84773785e-002 9.85774472e-002
      1.25948504e-001 1.73805818e-001 1.22315086e-001 7.58377090e-002
      6.22536875e-002 1.79618150e-001 2.59629041e-001 1.15853310e-001
      2.59629041e-001 1.20695435e-001 6.97796345e-002 2.42925167e-001
      1.34162068e-001 2.59629041e-001 2.59629041e-001 2.59629041e-001
      9.63559747e-002 9.94043201e-002 1.63811356e-001 2.10205261e-002
      5.21904714e-002 4.52523977e-002 1.45246610e-001 2.45448798e-001
      1.88819617e-001 5.01986332e-002 2.65782565e-001 1.21181011e-001
      7.57203847e-002 1.99905843e-001 8.44881758e-002 2.14880168e-001
      2.39893630e-001 2.65219092e-001 1.33067325e-001 1.06516764e-001
      8.96984339e-002 4.27841060e-002 2.50980984e-002 1.34240136e-001
      1.48165107e-001 2.65782565e-001 2.07024589e-001 2.25785393e-002
      1.73304126e-001 1.62238970e-001 7.40813166e-002 7.81053156e-002
      2.32103974e-001 2.65782565e-001 2.65782565e-001 2.65782565e-001
      1.34456709e-001 4.97931391e-002 1.12053350e-001 4.40367833e-002
      1.93294510e-002 4.41474169e-002 1.62784472e-001 1.56848758e-001
      1.14639737e-001 9.12090018e-002 1.39123738e-001 4.63258959e-002
      6.67544967e-003 3.71981822e-002 1.02235608e-001 2.19048053e-001
      1.63321823e-001 1.67164981e-001 1.01953991e-001 1.28860041e-001
      2.30094474e-002 2.96288967e-001 1.20052554e-001 1.09074973e-001
      1.01381637e-001 5.18850684e-002 2.96288967e-001 2.96288967e-001
      2.96288967e-001 1.40374646e-001 2.69925292e-003 3.67587581e-002
      2.26475388e-001 2.28759527e-001 1.21366240e-001 2.55327702e-001
      2.96288967e-001 2.47650430e-001 1.12028763e-001 1.28853261e-001
      8.77856016e-002 4.07841317e-002 1.26893908e-001 1.11308083e-001
      9.82291177e-002 1.14290714e-001 7.05379695e-002 2.57365644e-001
      2.19981715e-001 2.10576534e-001 3.81660089e-002 2.57365644e-001
      1.50978297e-001 1.85304374e-001 2.22936235e-002 4.95951399e-002
      2.57365644e-001 1.26131266e-001 2.25486055e-001 2.80579049e-002
      1.31067812e-001 2.57365644e-001 2.57365644e-001 1.13979012e-001
      2.99571007e-002 1.79782182e-001 1.73069641e-001 2.57365644e-001
      5.18805757e-002 2.57365644e-001 2.57365644e-001 1.33425146e-001
      8.26185495e-002 3.92116569e-002 2.03372762e-001 7.81638101e-002
      1.30412251e-001 8.22992176e-002 1.06029868e-001 2.03099653e-001
      1.99684277e-001 9.65684578e-002 7.04183802e-002 6.96295276e-002
      4.64736000e-002 8.00018683e-002 6.40698671e-002 3.02798804e-002
      2.20543951e-001 2.63351411e-001 2.63351411e-001 2.04572752e-001
      9.43556726e-002 1.02424800e-001 7.98692554e-002 1.12244904e-001
      2.33471245e-001 2.63351411e-001 1.58393070e-001 2.33986124e-001
      1.21146590e-001 8.53313953e-002 1.39345422e-001 1.48383677e-001
      6.35424331e-002 5.05222604e-002 2.63351411e-001 2.63351411e-001
      2.63351411e-001 2.63351411e-001 1.54042780e-001 9.35207754e-002
      6.22154400e-002 3.06370892e-002 1.59441069e-001 2.62471169e-001
      1.79702103e-001 1.70668796e-001 7.16914460e-002 7.81496242e-002
      1.33565336e-001 1.19818822e-001 1.08955197e-001 2.62471169e-001
      2.62471169e-001 1.28250301e-001 3.57368141e-002 1.40635539e-002
      1.14701152e-001 9.66567844e-002 5.12407459e-002 2.34171823e-001
      2.25195587e-001 2.62471169e-001 2.33482331e-001 1.95051968e-001
      5.72612993e-002 4.26982567e-002 1.35248110e-001 2.10108683e-001
      2.62471169e-001 2.62471169e-001 2.62471169e-001 7.42973462e-002
      3.42374630e-002 1.57864049e-001 1.38266519e-001 1.88951902e-002
      9.63263884e-002 2.33699866e-002 4.12816735e-004 2.03714535e-001
      3.62265021e-001 1.89690247e-001 1.21485256e-003 1.90718416e-002
      9.94122494e-003 3.65768792e-003 2.53068958e-003 4.82013496e-003
      2.84518242e-001 3.62265021e-001 5.38522974e-002 1.30336396e-002
      1.28032463e-002 2.23953035e-002 5.21904416e-002 2.38990765e-002 0.
      3.62265021e-001 3.62265021e-001 8.24101865e-002 1.36095975e-002
      3.74445431e-002 6.71712160e-002 2.19461299e-003 1.58017466e-003
      3.23221111e-003 3.62265021e-001 3.62265021e-001 5.02846129e-002
      9.11871623e-003 1.31501272e-001 8.90835673e-002 4.00936417e-002
      5.88433929e-002 6.54055625e-002 6.88005015e-002 6.07826486e-002
      6.59445822e-002 4.47484441e-002 8.19161534e-002 1.34088874e-001
      1.12200782e-001 1.49660259e-001 4.57572341e-002 1.82450656e-002
      4.20731232e-002 1.54518103e-002 1.35577977e-001 2.02921942e-001
      3.74679774e-001 3.74679774e-001 8.44598487e-002 1.26628339e-001
      5.14815748e-002 4.28061709e-002 4.12730165e-002 1.61831230e-001
      2.45048851e-001 3.74679774e-001 3.74679774e-001 1.44619375e-001
      3.22572999e-002 5.93977934e-003 1.26554230e-002 3.29631323e-004
      2.92264149e-002 3.74679774e-001 2.36167274e-002 1.03880442e-003
      1.65353585e-002 1.03222512e-001 4.04722616e-002 6.77417740e-002
      3.04492056e-001 2.24207267e-001 6.27132580e-002 2.40837242e-002
      1.43471351e-002 5.08863367e-002 2.13352948e-001 2.05926612e-001
      8.03516507e-002 1.71350121e-001 1.12986863e-001 1.09239876e-001
      8.73931944e-002 1.73134054e-003 4.86422665e-002 3.15397717e-002
      6.66331872e-002 1.62479445e-001 3.04492056e-001 3.04492056e-001
      3.04492056e-001 1.41249644e-002 4.85126972e-002 1.44828791e-002
      1.12467870e-001 2.14137301e-001 3.04492056e-001 3.04492056e-001
      3.03513527e-001 1.47322699e-001 1.60976782e-001 2.59583332e-002
      1.01761565e-001 2.55397052e-001 2.14062795e-001 1.05619177e-001
      1.42985791e-001 9.66664478e-002 7.40565509e-002 1.75061569e-001
      1.26388595e-001 2.43392184e-001 2.55397052e-001 1.69388354e-001
      1.17515661e-001 1.01825260e-001 1.11202933e-001 1.62259564e-001
      6.48784712e-002 5.92417233e-002 1.54333770e-001 2.36193091e-001
      2.55397052e-001 1.23349980e-001 2.12673917e-001 1.44309834e-001
      4.83035408e-002 9.65235904e-002 2.42843106e-001 2.23245293e-001
      2.55397052e-001 1.08831860e-001 1.46850452e-001 1.36450976e-001
      1.97161570e-001 1.73086539e-001 4.72383723e-002 1.54834474e-002
      1.99207142e-002 1.20911011e-002 3.35897272e-003 1.22479014e-001
      2.84352154e-001 2.46268928e-001 7.24826828e-002 2.84352154e-001 0.
      0. 0. 2.01538368e-003 7.32941478e-002 2.84352154e-001
      2.82683343e-001 2.84352154e-001 7.79070631e-002 1.08862557e-002
      2.81888023e-002 1.03273839e-001 5.41776279e-003 2.85384618e-003
      2.84352154e-001 2.84352154e-001 1.12397127e-001 2.84352154e-001
      3.06828617e-004 0. 0. 0. 1.71230780e-003 2.64417678e-001
      2.84352154e-001 2.84352154e-001 2.99948484e-001 2.99948484e-001
      1.31220579e-001 0. 0. 0. 2.32383087e-002 1.64922297e-001
      6.84619546e-002 2.99948484e-001 2.46309310e-001 7.89129809e-002 0.
      0. 0. 0. 0. 2.99948484e-001 2.46204674e-001 2.99948484e-001
      2.26871133e-001 0. 0. 0. 4.61878963e-002 1.45192191e-001
      5.53902090e-002 2.99948484e-001 2.99948484e-001 1.52991608e-001 0.
      0. 0. 0. 0. 2.98165470e-001 2.27853376e-002 0. 2.79548665e-004
      1.79670053e-003 5.58019951e-002 3.74072999e-001 2.79346973e-001
      1.21218532e-001 7.48163760e-002 2.73712398e-003 1.07380713e-003
      2.51790532e-003 1.29699409e-002 1.46128237e-001 3.74072999e-001
      1.08855411e-001 1.17276227e-002 1.12786898e-002 1.02298064e-002 0.
      0. 0. 2.81607896e-001 3.74072999e-001 2.60534436e-001
      8.21340755e-002 3.09687573e-002 1.79510319e-003 2.57462205e-004
      3.75428982e-003 1.14689860e-002 3.74072999e-001 3.74072999e-001
      7.64541700e-002 8.50639946e-004 3.25713214e-003 2.79250406e-002
      1.63224548e-001 2.60000020e-001 2.31817603e-001 9.86684114e-002
      2.87669059e-002 8.52850303e-002 9.04070213e-002 1.10663641e-002
      4.46683839e-002 2.31534451e-001 2.60000020e-001 2.57918626e-001
      2.02767700e-001 3.79240625e-002 1.12684429e-001 1.68709531e-001
      5.14218248e-002 1.40152887e-001 1.16974816e-001 2.60000020e-001
      1.87321767e-001 1.96458712e-001 1.00547999e-001 1.08699657e-001
      5.40180616e-002 2.87758131e-002 1.48808077e-001 1.28597438e-001
      1.89036384e-001 2.60000020e-001 2.60000020e-001 4.70835119e-002
      1.82094604e-001 2.60000020e-001 1.83167592e-001 6.12995885e-002
      1.74384341e-002 1.60254110e-002 1.02666870e-001 3.88107538e-001
      3.28492433e-001 5.26499599e-002 9.70224515e-002 7.36399516e-002
      2.84199655e-001 1.35998130e-001 4.59598340e-002 6.68296814e-002
      7.19029382e-002 8.60443190e-002 8.56150165e-002 1.27908379e-001
      7.95689672e-002 5.75265959e-002 4.38610464e-003 4.74182190e-003
      3.69833596e-002 3.88107538e-001 3.88107538e-001 7.94450045e-002
      3.70079791e-003 5.97317927e-002 4.06529978e-002 5.33475913e-002
      5.61118685e-002 1.35231167e-001 3.88107538e-001 2.28738368e-001
      9.85139310e-002 3.52828093e-002 3.13333198e-002 6.38095103e-003
      1.21208042e-001 2.99423486e-001 2.99423486e-001 2.14719519e-001
      5.97707406e-002 5.95366396e-003 5.45294695e-002 2.40393411e-002
      1.48401439e-001 1.50393918e-001 2.81748086e-001 2.99423486e-001
      2.11436018e-001 1.41437147e-002 2.74563511e-003 0. 6.53987601e-002
      1.51721615e-004 1.33216074e-002 6.32605031e-002 2.99423486e-001
      2.99423486e-001 2.80568391e-001 1.27948886e-002 3.87195125e-003
      1.28370128e-003 2.35892627e-002 1.32776713e-002 5.61733767e-002
      2.79085159e-001 2.99423486e-001 2.21208766e-001 5.66094182e-002
      2.26107687e-002 1.91899110e-002 0. 0. 0. 2.97713582e-003
      4.72200006e-001 2.15124682e-001 2.06959224e-003 1.72039436e-003
      2.25934768e-004 0. 3.38085199e-004 1.29299890e-003 1.18299611e-002
      4.72200006e-001 2.10097060e-001 8.40477645e-004 6.71106682e-004 0.
      0. 0. 0. 4.31347303e-002 4.72200006e-001 6.01728559e-002
      4.94435662e-004 9.15260534e-005 0. 0. 4.82978830e-005
      1.32170506e-003 6.81035668e-002 4.72200006e-001 5.18166460e-002
      2.43966654e-003 1.11851131e-003 0. 7.21153319e-002 6.15349337e-002
      5.12567721e-002 1.36905700e-001 2.58217245e-001 7.03232065e-002
      2.58217245e-001 4.13509272e-002 6.47924468e-002 1.78379804e-001
      1.60612807e-001 6.95808157e-002 1.82559773e-001 2.58217245e-001
      7.25270361e-002 2.44137242e-001 1.22825332e-001 1.58053681e-001
      1.30619377e-001 8.06975588e-002 6.37417808e-002 2.58217245e-001
      2.58217245e-001 1.67409718e-001 8.07035640e-002 1.71311162e-002
      1.02728106e-001 2.58217245e-001 1.23205155e-001 9.67720374e-002
      2.58217245e-001 2.58217245e-001 1.45444885e-001 1.86301127e-001
      4.44850996e-002 2.58217245e-001</_>
    <_>
      1.93383738e-001 1.47641644e-001 2.62579232e-001 8.25891346e-002
      1.23269454e-001 2.52209790e-002 1.08562894e-001 5.61692193e-002
      8.58937353e-002 1.29097179e-001 2.06925571e-001 2.62579232e-001
      2.08380565e-001 1.76766470e-001 2.62579232e-001 4.72851917e-002
      5.50627038e-002 2.45522540e-002 1.41824678e-001 1.37548998e-001
      1.90932676e-001 8.41545835e-002 2.04039469e-001 2.62579232e-001
      1.35063425e-001 7.54198879e-002 8.01784322e-002 7.97169432e-002
      2.37350106e-001 1.74826711e-001 2.58579195e-001 2.62579232e-001
