<?xml version="1.0"?>
<opencv_storage>
<my_svm type_id="opencv-ml-svm">
  <svm_type>C_SVC</svm_type>
  <kernel><type>RBF</type>
    <gamma>4.0000000000000001e-002</gamma></kernel>
  <C>10.</C>
  <term_criteria><epsilon>1.1920928955078125e-007</epsilon>
    <iterations>1000</iterations></term_criteria>
  <var_all>1152</var_all>
  <var_count>1152</var_count>
  <class_count>2</class_count>
  <class_labels type_id="opencv-matrix">
    <rows>1</rows>
    <cols>2</cols>
    <dt>i</dt>
    <data>
      -1 1</data></class_labels>
  <sv_total>47</sv_total>
  <support_vectors>
    <_>
      0. 0. 0. 0. 0. 0. 0. 0. 0. 0. 0. 0. 0. 0. 0. 0. 0. 0. 0. 0. 0. 0.
      0. 0. 0. 0. 0. 0. 0. 0. 0. 0. 0. 0. 0. 0. 0. 0. 0. 0. 0. 0. 0. 0.
      0. 0. 0. 0. 0. 0. 0. 0. 0. 0. 0. 0. 0. 0. 0. 0. 0. 0. 0. 0. 0. 0.
      0. 0. 0. 0. 0. 0. 0. 0. 0. 0. 0. 0. 0. 0. 0. 0. 0. 0. 0. 0. 0. 0.
      0. 0. 0. 0. 0. 0. 0. 0. 0. 0. 0. 0. 0. 0. 0. 0. 0. 0. 0. 0. 0. 0.
      0. 0. 0. 0. 0. 0. 0. 0. 0. 0. 0. 0. 0. 0. 0. 0. 0. 0. 0. 0. 0. 0.
      0. 0. 0. 0. 0. 0. 0. 0. 0. 0. 0. 0. 8.89337733e-002
      2.61895433e-002 1.57328299e-003 0. 3.83989178e-002 0. 0. 0.
      1.10564634e-001 1.23579716e-002 0. 0. 0. 2.09483579e-002 0. 0. 0.
      1.55554283e-002 3.94434541e-001 1.46154925e-001 2.08310157e-001
      3.46540838e-001 4.14563954e-001 0. 0. 2.73439884e-001
      4.14563954e-001 5.55622466e-002 0. 0. 0. 4.14563954e-001 0. 0.
      3.90628427e-002 1.93217188e-001 0. 0. 0. 0. 0. 0. 0. 0. 0. 0. 0.
      0. 0. 0. 0. 0. 0. 0. 0. 0. 0. 0. 0. 0. 0. 0. 0. 0. 0. 0. 0. 0. 0.
      0. 0. 0. 0. 0. 0. 0. 0. 0. 0. 0. 0. 0. 0. 0. 0. 0. 0. 0. 0. 0. 0.
      0. 0. 0. 0. 0. 0. 0. 0. 0. 0. 0. 0. 0. 0. 0. 0. 0. 0. 0. 0. 0. 0.
      0. 0. 0. 0. 0. 0. 0. 0. 0. 0. 0. 0. 0. 0. 0. 0. 0. 0. 0. 0. 0. 0.
      0. 0. 0. 0. 0. 0. 0. 0. 0. 1.18452626e-005 0. 1.32320402e-002
      1.70394748e-001 4.44250673e-001 3.64165187e-001 1.41834039e-002 0.
      1.18452626e-005 0. 0. 0. 1.45327998e-003 4.27671522e-001
      1.86506525e-001 2.02620076e-003 0. 0. 1.39904689e-004 0. 0.
      7.05969632e-002 4.44250673e-001 1.20384701e-001 0. 0.
      1.39904689e-004 0. 0. 0. 7.96751026e-003 4.44250673e-001
      6.50056824e-002 0. 0. 0. 0. 0. 0. 0. 0. 0. 0. 0. 0. 0. 0. 0. 0. 0.
      0. 0. 0. 0. 0. 0. 0. 0. 0. 0. 0. 0. 0. 0. 0. 0. 0. 0. 0. 0. 0. 0.
      0. 0. 0. 0. 0. 0. 0. 0. 0. 0. 0. 0. 0. 0. 0. 0. 0. 0. 0. 0. 0. 0.
      0. 0. 0. 0. 0. 0. 0. 0. 0. 0. 0. 0. 0. 0. 0. 0. 0. 0. 0. 0. 0. 0.
      0. 0. 0. 0. 0. 0. 0. 0. 0. 0. 0. 0. 0. 0. 0. 0. 0. 0. 0. 0. 0. 0.
      0. 0. 0. 0. 0. 0. 1.67428181e-002 0. 2.20315158e-003
      3.30564141e-001 3.30564141e-001 2.53289696e-002 2.45364499e-005
      7.65481871e-003 3.23821278e-003 6.84979558e-002 4.90630919e-005
      8.40664085e-004 1.97912037e-001 3.30564141e-001 2.28081644e-002
      4.08940796e-005 1.46270627e-002 4.43351716e-002 2.22517222e-001
      5.70104532e-002 2.02445894e-001 3.30564141e-001 3.30564141e-001
      1.32828563e-001 4.08940796e-005 1.23609658e-002 5.04336767e-002
      3.30564141e-001 9.29442570e-002 6.90949708e-002 1.70145616e-001
      1.42705023e-001 8.35493207e-002 6.81568054e-005 2.08686125e-002
      3.30564141e-001 1.30004182e-001 2.43517407e-003 0. 0. 0.
      2.40226233e-004 1.17442636e-004 1.97216542e-003 1.17870614e-001
      9.65157673e-002 7.01072207e-003 0. 0. 1.39592225e-002
      2.83731776e-003 4.54491610e-003 2.13471223e-002 1.38451353e-001
      4.00178283e-001 3.47882014e-004 0. 0. 0. 6.27006963e-003
      1.15717165e-002 6.03633411e-002 4.00178283e-001 4.00178283e-001
      1.00153172e-003 0. 0. 2.04595663e-002 3.23093683e-001
      1.63235381e-001 4.00178283e-001 4.00178283e-001 1.18956372e-001
      5.48284547e-003 7.04187667e-004 1.22784998e-003 1.27515162e-003 0.
      0. 5.25945053e-003 1.05262101e-001 1.55422494e-001 0. 0. 0. 0. 0.
      0. 1.97666604e-003 1.56874463e-001 4.71801013e-001 1.59833863e-001
      3.88779901e-002 6.14769831e-002 1.63323164e-003 0. 0.
      7.51350250e-004 4.71801013e-001 4.71801013e-001 0. 0. 0. 0. 0. 0.
      2.82380846e-004 4.71801013e-001 1.21622860e-001 5.25034266e-003 0.
      0. 5.23188291e-003 9.43443738e-004 3.32828029e-003 8.12033098e-003
      1.43226057e-001 4.87825982e-002 4.06256830e-003 0. 0.
      2.47964803e-002 1.57240615e-003 1.43760908e-002 1.33745130e-002
      9.97938365e-002 3.68345827e-001 7.50049017e-004 0. 0.
      1.28995767e-002 1.07429706e-001 7.20299557e-002 2.46711254e-001
      3.68345827e-001 3.60265851e-001 5.80366876e-004 0. 0.
      1.45595178e-001 3.68345827e-001 2.00941354e-001 3.68345827e-001
      3.68345827e-001 4.02743649e-003 9.26008150e-002 3.10550064e-001
      3.10550064e-001 3.10550064e-001 1.25084922e-001 9.74866450e-002
      1.25907063e-001 6.96705207e-002 2.37913635e-002 1.56184584e-002
      1.04652576e-001 2.14833260e-001 3.10550064e-001 5.45424856e-002
      2.58224667e-003 5.01703564e-003 2.33881064e-002 2.01917104e-002
      4.35631573e-002 3.10550064e-001 3.10550064e-001 3.10550064e-001
      3.10550064e-001 1.40876010e-001 6.00437969e-002 1.68127138e-002
      3.80891040e-002 1.68989338e-002 7.53331482e-002 1.04089648e-001
      2.40641564e-001 7.12655261e-002 1.40890609e-002 1.77919585e-002
      4.07656804e-002 5.57201952e-002 1.08085349e-002 1.14656473e-002
      2.24490780e-002 2.34716665e-002 1.12895695e-002 8.23000260e-003
      1.52683689e-003 5.40565513e-002 1.14170276e-001 2.23040283e-002
      7.09805489e-002 6.99975938e-002 4.79592770e-001 4.79592770e-001
      2.01052930e-002 2.47317599e-003 4.34697904e-002 6.05027229e-002
      1.46273372e-003 8.87482520e-003 4.11256440e-002 1.18232984e-002
      1.64440982e-002 4.06513270e-003 1.08145755e-002 5.48374653e-002
      9.47372094e-002 1.04702674e-002 1.54676549e-002 2.02024445e-001
      4.79592770e-001 4.55785722e-001 1.15896193e-002 2.84209810e-002
      6.38768077e-002 1.47077546e-001 3.57148573e-002 5.69982864e-002
      3.68822634e-001 3.68822634e-001 8.40115249e-002 4.06250022e-002
      1.20994695e-001 1.20505281e-001 2.82842934e-001 1.22005083e-002
      4.36212402e-003 3.59790982e-003 1.23811634e-002 1.41328722e-002
      1.92548260e-002 2.81030182e-002 3.32175970e-001 1.44791067e-001
      5.53213432e-002 9.83508024e-003 2.35951468e-001 3.68822634e-001
      1.20634601e-001 3.86831835e-002 1.49572104e-001 1.54665023e-001
      3.09886426e-001 1.88719351e-002 6.23160566e-004 5.13987092e-004
      8.35538730e-002 2.95813307e-002 3.72756571e-002 5.52936681e-002
      2.85196543e-001 1.24520119e-002 4.64362511e-003 2.41411012e-003
      5.93080893e-002 1.37435257e-001 8.40447098e-002 1.21772867e-002
      2.76965206e-004 1.00969505e-002 1.60436134e-003 2.36525643e-003
      1.07121794e-002 2.79212385e-001 4.35868740e-001 4.35868740e-001
      2.84705702e-002 1.66179147e-004 7.36904622e-004 1.00461747e-002
      2.16654758e-003 2.09259950e-002 2.15530917e-001 2.31101453e-001
      3.70137431e-002 1.26719719e-003 1.49217853e-003 1.62082929e-002
      7.18596217e-004 3.09506810e-004 1.29325449e-001 4.35868740e-001
      4.35868740e-001 9.02348384e-002 7.60318362e-004 8.95307167e-004
      3.62690305e-003 4.06429291e-001 0. 2.88219191e-004 5.89547621e-004
      4.34024446e-002 1.21519759e-001 7.29728565e-002 2.67869681e-001
      4.06429291e-001 4.06429291e-001 0. 1.72931526e-004 3.53728567e-004
      3.96739546e-004 2.43871403e-003 4.14430536e-003 3.76899354e-002
      4.06429291e-001 1.62026346e-001 0. 2.01753434e-003 4.12683375e-003
      7.10516609e-003 5.80211310e-003 6.28038915e-003 2.15570703e-002
      2.04807967e-001 2.96180755e-001 0. 1.21052063e-003 2.47609988e-003
      3.03677493e-003 0. 0. 4.33242088e-003 2.88893104e-001
      4.08061832e-001 0. 0. 0. 9.35732678e-004 5.88040333e-004
      2.87483243e-004 0. 4.08061832e-001 4.08061832e-001 2.96407729e-001
      6.21253066e-002 2.11264547e-002 1.26410718e-003 3.52824223e-004
      1.72489948e-004 0. 4.08061832e-001 2.17825070e-001 3.48917209e-003
      0. 0. 7.83086102e-003 4.11628280e-003 2.01238273e-003 0.
      2.21358120e-001 2.79146582e-001 2.58696694e-002 0. 0.
      1.09833051e-002 2.46976968e-003 1.20742957e-003 0. 2.49874949e-001
      4.33108240e-001 0. 2.79716885e-004 5.72156277e-004 9.43952356e-004
      3.37549020e-003 9.62790381e-003 4.55952585e-002 4.33108240e-001
      4.33108240e-001 0. 1.67830134e-004 3.43293766e-004 1.17144838e-003
      0. 4.57589718e-004 1.52918845e-004 4.33108240e-001 2.00052321e-001
      2.30816868e-003 1.95801817e-003 4.00509406e-003 8.37124605e-003 0.
      1.92187668e-003 7.67088914e-003 2.16619954e-001 2.78311104e-001
      3.84694780e-003 1.17481092e-003 2.40305625e-003 8.45207833e-003 0.
      3.20312777e-003 3.10738268e-003 2.80148327e-001 3.40545714e-001
      2.38827795e-001 1.65378839e-001 5.24794683e-002 6.27031103e-002
      7.53140892e-004 3.68198176e-004 0. 3.40545714e-001 3.40545714e-001
      3.40545714e-001 2.75631428e-001 1.68435752e-001 3.40545714e-001
      4.51884553e-004 2.20918912e-004 0. 2.42704988e-001 2.69222528e-001
      3.14897373e-002 4.50332789e-003 0. 1.25240833e-002 5.27198659e-003
      2.57738726e-003 0. 2.31292754e-001 1.48574919e-001 4.77161668e-002
      7.50554632e-003 0. 5.37943058e-002 3.16319172e-003 1.54643226e-003
      0. 8.90034735e-002 0. 0. 0. 0. 0. 0. 0. 0. 0. 0. 0. 0. 0. 0. 0. 0.
      0. 0. 0. 0. 0. 0. 0. 0. 0. 0. 0. 0. 0. 0. 0. 0. 0. 0. 0. 0. 0. 0.
      0. 0. 0. 0. 0. 0. 0. 0. 0. 0. 0. 0. 0. 0. 0. 0. 0. 0. 0. 0. 0. 0.
      0. 0. 0. 0. 0. 0. 0. 0. 0. 0. 0. 0. 0. 0. 0. 0. 0. 0. 0. 0. 0. 0.
      0. 0. 0. 0. 0. 0. 0. 0. 0. 0. 0. 0. 0. 0. 0. 0. 0. 0. 0. 0. 0. 0.
      0. 0. 0. 0. 0. 0. 0. 0. 0. 0. 0. 0. 0. 0. 0. 0. 0. 0. 0. 0. 0. 0.
      0. 0. 0. 0. 0. 0. 0. 0. 0. 0. 0. 0. 0. 0. 0. 0. 0. 0. 0. 0. 0. 0.
      0. 0. 0. 0. 0. 0. 0. 0. 0. 0. 0. 0. 0. 0. 0. 0. 0. 0. 0. 0. 0. 0.
      0. 0. 0. 0. 0. 0. 0. 0. 0. 0. 0. 0. 0. 0. 0. 0. 0. 0. 0. 0. 0. 0.
      0. 0. 0. 0. 0. 0. 0. 0. 0. 0. 0. 0. 0. 0. 0. 0. 0. 0. 0. 0. 0. 0.
      0. 0. 0. 0. 0. 0. 0. 0. 0. 0. 0. 0. 0. 0. 0. 0. 0. 0. 0. 0. 0. 0.
      0. 0. 0. 0. 0. 0. 0. 0. 0. 0. 0. 0. 0. 0. 0. 0. 0. 0. 0. 0. 0. 0.
      0. 0. 0. 0. 0. 0. 0. 0. 0. 0. 0. 0. 0. 0. 0. 0. 0. 0. 0. 0. 0. 0.
      0. 0. 0. 0. 0. 0. 0. 0.</_>
    <_>
      1.48504004e-001 1.01093523e-001 1.48896545e-001 9.54981819e-002
      7.15864599e-002 0. 0. 0. 5.56654893e-002 3.00554574e-001
      1.43762127e-001 1.07010782e-001 7.12447241e-002 1.02266371e-002 0.
      0. 0. 3.00554574e-001 1.05840929e-001 1.43071741e-001
      3.00554574e-001 3.00554574e-001 3.00554574e-001 0. 0. 0.
      3.77834775e-002 3.00554574e-001 2.25629628e-001 2.75399983e-001
      3.00554574e-001 7.34378695e-002 0. 0. 0. 3.00554574e-001
      3.32261890e-001 0. 0. 0. 0. 0. 0. 0. 3.32261890e-001
      3.32261890e-001 0. 0. 0. 3.08634859e-004 2.78194044e-002
      3.21913548e-002 1.10864408e-001 3.32261890e-001 3.32261890e-001 0.
      9.80562647e-004 4.52672743e-004 0. 7.28441810e-004 1.09272962e-003
      0. 3.32261890e-001 3.32261890e-001 1.95117400e-003 6.86393911e-003
      3.16870911e-003 1.77963570e-001 1.95949897e-001 6.19675033e-002
      1.59449145e-001 3.32261890e-001 3.52477700e-001 1.72024537e-002
      4.80610831e-003 4.30890033e-003 1.15648087e-004 0. 0. 0.
      3.52477700e-001 3.52477700e-001 0. 0. 0. 0. 0. 0. 0.
      3.52477700e-001 3.52477700e-001 2.49613672e-002 1.21293943e-002
      3.01623009e-002 2.03185659e-002 1.09893596e-002 1.69983658e-003 0.
      3.52477700e-001 3.52477700e-001 0. 0. 0. 0. 2.00290597e-004
      2.42833776e-004 0. 3.52477700e-001 3.04099262e-001 0. 0. 0.
      5.14866002e-002 1.11421883e-001 1.49450287e-001 1.14980876e-001
      3.05865228e-001 3.96733657e-002 0. 0. 0. 9.48097482e-002
      1.51527822e-001 1.21091545e-001 6.89885318e-002 9.91387069e-002
      3.05865228e-001 0. 7.15859496e-005 6.17653038e-003 1.28325775e-001
      3.05865228e-001 3.05865228e-001 1.15282670e-001 3.05865228e-001
      3.61681581e-002 0. 1.02265640e-005 8.82361550e-004 3.05865228e-001
      3.05865228e-001 3.05865228e-001 6.74412549e-002 8.36054608e-002
      1.68598309e-001 7.52224624e-002 9.96529758e-002 7.47300014e-002
      1.69663057e-001 2.53795773e-001 1.99686140e-001 1.37743294e-001
      1.67024925e-001 2.92688996e-001 2.86349542e-002 3.69685367e-002
      1.54876923e-002 4.10647057e-002 1.30670905e-001 1.24958180e-001
      9.97032300e-002 2.92688996e-001 1.39938831e-001 7.23814592e-002
      1.51835009e-001 1.98530629e-001 2.92688996e-001 2.17689544e-001
      1.58768237e-001 1.29049852e-001 1.88374519e-001 2.92688996e-001
      3.16342488e-002 4.76474650e-002 7.10060224e-002 2.51938015e-001
      4.00209017e-002 5.12635335e-002 6.64510652e-002 2.92688996e-001
      3.02207083e-001 1.97554193e-002 2.91940644e-002 2.57083252e-002
      5.17711788e-003 2.73802271e-003 1.83028739e-003 3.01308883e-003
      3.02207083e-001 3.02207083e-001 1.38287932e-001 3.02207083e-001
      3.02207083e-001 8.33551586e-002 1.91661566e-002 3.05047887e-003
      5.02181426e-003 2.86631167e-001 3.02207083e-001 2.07777992e-002
      1.75164398e-002 3.62428580e-003 4.31304041e-004 0. 0. 0.
      3.02207083e-001 3.02207083e-001 1.45444602e-001 1.48893759e-001
      1.33426651e-001 5.05880341e-002 0. 0. 0. 3.02207083e-001
      3.45976979e-001 0. 0. 2.53489614e-002 5.98596260e-002
      1.17634758e-001 1.08084150e-001 5.45166545e-002 3.45976979e-001
      3.45976979e-001 0. 0. 3.12596676e-003 3.18948738e-003 0.
      9.48508387e-006 7.38096947e-004 3.45976979e-001 3.45976979e-001 0.
      0. 2.89358664e-003 1.66329462e-002 2.24506501e-002 4.99909371e-002
      5.39975129e-002 3.45976979e-001 3.45976979e-001 0. 0.
      4.13369504e-004 4.46076068e-004 0. 0. 0. 3.45976979e-001
      2.37116680e-001 1.44768700e-001 2.45802432e-001 1.53519943e-001
      4.62734103e-002 1.52984662e-002 6.00306783e-003 1.91842597e-002
      1.83240592e-001 1.10425554e-001 1.99533090e-001 2.45802432e-001
      1.70675278e-001 7.31040910e-002 1.70427531e-001 2.13061810e-001
      1.01063594e-001 2.52971239e-002 2.45802432e-001 1.01291142e-001
      2.26547331e-001 2.40617305e-001 1.80109784e-001 0. 2.38194373e-002
      4.21876535e-002 1.97725400e-001 1.02232710e-001 1.06864341e-001
      2.45802432e-001 2.45802432e-001 2.45802432e-001 2.45802432e-001
      2.20426351e-001 3.97474915e-002 1.80810485e-002 6.29861024e-004 0.
      0. 0. 5.03681839e-001 0. 0. 0. 6.29861024e-004 0. 0. 0. 0.
      4.83614087e-001 0. 0. 0. 0. 2.92027777e-004 0. 0. 0.
      5.03681839e-001 0. 0. 0. 2.92027777e-004 0. 0. 0. 0.
      5.03681839e-001 0. 0. 0. 0. 0. 0. 0. 0. 0. 0. 0. 0. 0. 0. 0. 0. 0.
      0. 0. 0. 0. 0. 0. 0. 0. 0. 0. 0. 0. 0. 0. 0. 0. 0. 0. 0. 0. 0. 0.
      0. 0. 0. 0. 0. 0. 0. 0. 0. 0. 0. 0. 0. 0. 0. 0. 0. 0. 0. 0. 0. 0.
      0. 0. 0. 0. 0. 0. 0. 0. 0. 0. 0. 0. 0. 0. 0. 0. 0. 0.
      6.79372170e-004 4.98534054e-001 1.51647860e-002 0. 0. 0. 0. 0. 0.
      1.13228697e-003 4.98534054e-001 2.52746418e-002 0. 0. 0. 0. 0. 0.
      1.13228697e-003 4.98534054e-001 4.12073743e-004 0. 0. 0. 0. 0. 0.
      1.88714499e-003 4.98534054e-001 6.86789572e-004 0. 0. 0.
      7.98818473e-006 0. 0. 0. 5.03688931e-001 0. 0. 0. 7.98818473e-006
      0. 0. 0. 0. 4.83592689e-001 0. 0. 0. 0. 0. 0. 0. 0.
      5.03688931e-001 0. 0. 0. 0. 0. 0. 0. 0. 5.03688931e-001 0. 0. 0.
      0. 0. 0. 0. 0. 0. 0. 0. 0. 0. 0. 0. 0. 0. 0. 0. 0. 0. 0. 0. 0. 0.
      0. 0. 0. 0. 0. 0. 0. 0. 0. 0. 0. 0. 0. 0. 0. 0. 0. 0. 0. 0. 0. 0.
      0. 0. 0. 0. 0. 0. 0. 0. 0. 0. 0. 0. 0. 0. 0. 0. 0. 0. 0. 0. 0. 0.
      0. 0. 0. 0. 0. 0. 0. 0. 0. 0. 0. 4.98753130e-001 0. 0. 0. 0. 0. 0.
      0. 0. 4.98753130e-001 0. 0. 0. 0. 0. 0. 0. 0. 4.98753130e-001 0.
      0. 0. 0. 0. 0. 0. 0. 4.98753130e-001 0. 0. 0. 0. 0. 0. 0. 0.
      5.03688931e-001 0. 0. 0. 0. 0. 0. 0. 0. 4.83592689e-001 0. 0. 0.
      0. 0. 0. 0. 0. 5.03688931e-001 0. 0. 0. 0. 0. 0. 0. 0.
      5.03688931e-001 0. 0. 0. 0. 0. 0. 0. 0. 0. 0. 0. 0. 0. 0. 0. 0. 0.
      0. 0. 0. 0. 0. 0. 0. 0. 0. 0. 0. 0. 0. 0. 0. 0. 0. 0. 0. 0. 0. 0.
      0. 0. 0. 0. 0. 0. 0. 0. 0. 0. 0. 0. 0. 0. 0. 0. 0. 0. 0. 0. 0. 0.
      0. 0. 0. 0. 0. 0. 0. 0. 0. 0. 0. 0. 0. 0. 0. 0. 0. 0. 0.
      4.98753130e-001 0. 0. 0. 0. 0. 0. 0. 0. 4.98753130e-001 0. 0. 0.
      0. 0. 0. 0. 0. 4.98753130e-001 0. 0. 0. 0. 0. 0. 0. 0.
      4.98753130e-001 0. 0. 0. 0. 1.87258265e-004 0. 0. 0.
      5.03688216e-001 0. 0. 0. 1.87258265e-004 0. 0. 0. 0.
      4.83594358e-001 0. 0. 0. 0. 4.75235109e-004 0. 0. 0.
      5.03688216e-001 0. 0. 0. 4.75235109e-004 0. 0. 0. 0.
      5.03688216e-001 0. 0. 0. 0. 0. 0. 0. 0. 0. 0. 0. 0. 0. 0. 0. 0. 0.
      0. 0. 0. 0. 0. 0. 0. 0. 0. 0. 0. 0. 0. 0. 0. 0. 0. 0. 0. 0. 0. 0.
      0. 0. 0. 0. 0. 0. 0. 0. 0. 0. 0. 0. 0. 0. 0. 0. 0. 0. 0. 0. 0. 0.
      0. 0. 0. 0. 0. 0. 0. 0. 0. 0. 0. 0. 0. 0. 0. 0. 0. 0.
      1.99593231e-003 4.98712152e-001 1.11275772e-003 0. 0. 0. 0. 0. 0.
      3.32655408e-003 4.98712152e-001 1.85459643e-003 0. 0. 0. 0. 0. 0.
      3.40053020e-003 4.98712152e-001 5.15172724e-003 0. 0. 0. 0. 0. 0.
      5.66755049e-003 4.98712152e-001 8.58621113e-003 0. 0. 0.
      3.07758804e-002 1.08635807e-002 2.69721262e-002 2.51153976e-001
      3.21223795e-001 1.21801615e-001 5.84515231e-003 2.16860157e-002
      4.47445288e-002 1.04573883e-001 1.55194011e-003 3.85316089e-003
      3.58791389e-002 3.21223795e-001 5.03957495e-002 0. 7.73788895e-003
      1.12955078e-001 1.58349916e-001 1.71475634e-001 1.83473513e-001
      3.21223795e-001 2.55660951e-001 2.08267778e-001 1.23177215e-001
      1.76338986e-001 3.04997534e-001 3.21223795e-001 6.81219399e-002
      5.28246835e-002 7.07289651e-002 1.03599586e-001 9.27680731e-002
      1.17515931e-002 5.45321479e-002 3.21223795e-001 1.57921433e-001 0.
      0. 0. 0. 0. 0. 0. 1.59697771e-001 1.62401929e-001 0. 0. 0.
      4.64357156e-003 0. 0. 2.05800366e-002 1.92961603e-001
      4.36913937e-001 0. 0. 0. 0. 0. 0. 1.94626010e-003 4.36913937e-001
      4.36913937e-001 0. 0. 0. 1.38135567e-001 8.89664292e-002
      2.30725363e-001 1.93209261e-001 4.36913937e-001 1.49599776e-001
      9.50758718e-003 0. 0. 2.10922956e-003 0. 0. 0. 1.36811718e-001
      2.01975971e-001 0. 0. 0. 0. 0. 0. 0. 2.01975971e-001
      4.58789319e-001 1.02580562e-001 1.21692888e-001 6.95225149e-002
      2.28165481e-002 0. 0. 0. 4.58789319e-001 4.58789319e-001 0. 0. 0.
      0. 0. 0. 0. 4.58789319e-001 4.07624543e-002 2.44539138e-002
      1.03212576e-002 1.55906240e-002 2.73701578e-001 1.87816635e-001
      3.91052924e-002 4.78712464e-004 6.27832040e-002 4.56221821e-003
      1.46723492e-002 1.02549747e-001 2.73701578e-001 2.73701578e-001
      2.73701578e-001 9.70463902e-002 3.35098710e-003 4.36711162e-002
      2.73701578e-001 5.67351356e-002 4.08436395e-002 5.60413897e-002
      7.64397681e-002 2.12727085e-001 9.77863818e-002 1.05196461e-001
      2.73701578e-001 8.14452916e-002 1.69347823e-001 2.73701578e-001
      2.73701578e-001 1.17616616e-001 2.73701578e-001 2.03334287e-001
      1.11590154e-001 2.73701578e-001 2.66547333e-002 7.30411615e-004
      1.32423756e-003 3.75599042e-002 2.72082716e-001 2.80933350e-001
      2.80933350e-001 1.23938017e-001 4.56027649e-002 2.80933350e-001
      3.32228793e-003 2.20706267e-003 1.91317704e-002 8.92214105e-002
      1.46183178e-001 1.93759888e-001 1.62009761e-001 2.45735154e-001
      5.96998669e-002 0. 0. 1.29056897e-003 1.50781885e-001
      1.49119720e-001 2.80933350e-001 2.75648713e-001 9.63849798e-002
      2.80933350e-001 0. 0. 2.15094816e-003 2.55042817e-002
      5.43994308e-002 2.44587690e-001 2.80933350e-001 2.80933350e-001
      3.31690848e-001 0. 1.71038439e-003 3.78304074e-004 0.
      1.21980680e-004 4.63124336e-004 1.66249694e-003 3.31690848e-001
      2.61541545e-001 6.71067014e-002 1.36385992e-001 1.41258791e-001
      1.88632801e-001 2.03499217e-002 3.24187055e-003 1.28851412e-002
      3.31690848e-001 3.31690848e-001 0. 0. 0. 0. 0. 0. 2.37499538e-004
      3.31690848e-001 3.31690848e-001 2.40157202e-001 1.34857163e-001
      5.38880937e-002 1.20004416e-002 0. 0. 1.66249694e-003
      3.31690848e-001 3.34588259e-001 6.11855043e-003 6.34226855e-003
      1.92612410e-002 2.24806480e-002 1.93716064e-002 2.82398723e-002
      1.19735152e-002 3.28776151e-001 3.58693272e-001 9.92295681e-004
      2.14360378e-004 1.60880067e-004 0. 5.40302484e-004 7.19914562e-004
      5.21088718e-004 3.58693272e-001 3.58693272e-001 8.37135885e-004 0.
      0. 2.34585372e-003 5.80827938e-003 2.21636333e-002 4.00568843e-002
      3.58693272e-001 3.58693272e-001 1.19590833e-004 0. 0. 0. 0. 0. 0.
      3.58693272e-001 8.92988890e-002 5.24139367e-002 2.76708454e-001
      2.76708454e-001 1.67319566e-001 1.96322575e-002 5.27884054e-004
      1.23485988e-002 2.18865693e-001 3.41767888e-003 3.10716685e-002
      2.76708454e-001 2.76708454e-001 2.76708454e-001 2.78492570e-002
      3.16730438e-004 1.76408561e-003 2.18149442e-002 2.23238647e-001
      2.38882259e-001 2.76708454e-001 1.92185774e-001 5.02410159e-002 0.
      0. 3.78047340e-002 2.76708454e-001 4.77866717e-002 1.43329352e-001
      2.76708454e-001 2.76708454e-001 2.14445725e-001 0. 0.
      5.40067675e-003 4.58826683e-002</_>
    <_>
      0. 0. 0. 0. 0. 0. 0. 0. 0. 0. 0. 0. 0. 0. 0. 0. 0. 0. 0. 0. 0. 0.
      0. 0. 0. 0. 0. 0. 0. 0. 0. 0. 0. 0. 0. 0. 0. 0. 0. 0. 0. 0. 0. 0.
      0. 0. 0. 0. 0. 0. 0. 0. 0. 0. 0. 0. 0. 0. 0. 0. 0. 0. 0. 0. 0. 0.
      0. 0. 0. 0. 0. 0. 0. 0. 0. 0. 0. 0. 0. 0. 0. 0. 0. 0. 0. 0. 0. 0.
      0. 0. 0. 0. 0. 0. 0. 0. 0. 0. 0. 0. 0. 0. 0. 0. 0. 0. 0. 0. 0. 0.
      0. 0. 0. 0. 0. 0. 0. 0. 0. 0. 0. 0. 0. 0. 0. 0. 0. 0. 0. 0. 0. 0.
      0. 0. 0. 0. 0. 0. 0. 0. 0. 0. 0. 0. 0. 0. 0. 0. 0. 0. 0. 0. 0. 0.
      0. 0. 0. 0. 0. 0. 0. 0. 0. 0. 0. 0. 0. 0. 0. 0. 0. 0. 0. 0. 0. 0.
      0. 0. 0. 0. 0. 0. 0. 0. 0. 0. 0. 0. 0. 0. 0. 0. 0. 0. 0. 0. 0. 0.
      0. 0. 0. 0. 0. 0. 0. 0. 0. 0. 0. 0. 0. 0. 0. 0. 0. 0. 0. 0. 0. 0.
      0. 0. 0. 0. 0. 0. 0. 0. 0. 0. 0. 0. 0. 0. 0. 0. 0. 0. 0. 0. 0. 0.
      0. 0. 0. 0. 0. 0. 0. 0. 0. 0. 0. 0. 0. 0. 0. 0. 0. 0. 0. 0. 0. 0.
      0. 0. 0. 0. 0. 0. 0. 0. 0. 0. 0. 0. 0. 0. 0. 0. 0. 0. 0. 0. 0. 0.
      0. 0. 0. 0. 0. 0. 0. 0. 0. 0. 0. 0. 0. 0. 0. 0. 0. 0. 0. 0. 0. 0.
      0. 0. 0. 0. 0. 0. 0. 0. 0. 0. 0. 0. 0. 0. 0. 0. 0. 0. 0. 0. 0. 0.
      0. 0. 0. 0. 0. 0. 0. 0. 0. 0. 0. 0. 0. 0. 0. 0. 0. 0. 0. 0. 0. 0.
      0. 0. 0. 0. 0. 0. 0. 0. 0. 0. 0. 0. 0. 0. 0. 0. 0. 0. 0. 0. 0. 0.
      0. 0. 0. 0. 0. 0. 0. 0. 0. 0. 0. 0. 0. 0. 0. 0. 0. 0. 0. 0. 0. 0.
      0. 0. 0. 0. 0. 0. 0. 0. 0. 0. 0. 0. 0. 0. 0. 0. 0. 0. 0. 0. 0. 0.
      0. 0. 0. 0. 0. 0. 0. 0. 0. 0. 0. 0. 0. 0. 0. 0. 0. 0. 0. 0. 0. 0.
      0. 0. 0. 0. 0. 0. 0. 0. 0. 0. 0. 0. 0. 0. 0. 0. 0. 0. 0. 0. 0. 0.
      0. 0. 0. 0. 0. 0. 0. 0. 0. 0. 0. 0. 0. 0. 0. 0. 0. 0. 0. 0. 0. 0.
      0. 0. 0. 0. 0. 0. 0. 0. 0. 0. 0. 0. 0. 0. 0. 0. 0. 0. 0. 0. 0. 0.
      0. 0. 0. 0. 0. 0. 0. 0. 0. 0. 0. 0. 0. 0. 0. 0. 0. 0. 0. 0. 0. 0.
      0. 0. 0. 0. 0. 0. 0. 0. 0. 0. 0. 0. 0. 0. 0. 0. 0. 0. 0. 0. 0. 0.
      0. 0. 0. 0. 0. 0. 0. 0. 0. 0. 0. 0. 0. 0. 0. 0. 0. 0. 0. 0. 0. 0.
      0. 0. 0. 0. 0. 0. 0. 0. 0. 0. 0. 0. 0. 0. 0. 0. 0. 0. 0. 0. 0. 0.
      0. 0. 0. 0. 0. 0. 0. 0. 0. 0. 0. 0. 0. 0. 0. 0. 0. 0. 0. 0. 0. 0.
      0. 0. 0. 0. 0. 0. 0. 0. 0. 0. 0. 0. 0. 0. 0. 0. 0. 0. 0. 0. 0. 0.
      0. 0. 0. 0. 0. 0. 0. 0. 0. 0. 0. 0. 0. 0. 0. 0. 0. 0. 0. 0. 0. 0.
      0. 0. 0. 0. 0. 0. 0. 0. 0. 0. 0. 0. 0. 0. 0. 0. 0. 0. 0. 0. 0. 0.
      0. 0. 0. 0. 0. 0. 0. 0. 0. 0. 0. 0. 0. 0. 0. 0. 0. 0. 0. 0. 0. 0.
      0. 0. 0. 0. 0. 0. 0. 0. 0. 0. 0. 0. 0. 0. 0. 0. 0. 0. 0. 0. 0. 0.
      0. 0. 0. 0. 0. 0. 0. 0. 0. 0. 0. 0. 0. 0. 0. 0. 0. 0. 0. 0. 0. 0.
      0. 0. 0. 0. 0. 0. 0. 0. 0. 0. 0. 0. 0. 0. 0. 0. 0. 0. 0. 0. 0. 0.
      0. 0. 0. 0. 0. 0. 0. 0. 0. 0. 0. 0. 0. 0. 0. 0. 0. 0. 0. 0. 0. 0.
      0. 0. 0. 0. 0. 0. 0. 0. 0. 0. 0. 0. 0. 0. 0. 0. 0. 0. 0. 0. 0. 0.
      0. 0. 0. 0. 0. 0. 0. 0. 0. 0. 0. 0. 0. 0. 0. 0. 0. 0. 0. 0. 0. 0.
      0. 0. 0. 0. 0. 0. 0. 0. 0. 0. 0. 0. 0. 0. 0. 0. 0. 0. 0. 0. 0. 0.
      0. 0. 0. 0. 0. 0. 0. 0. 0. 0. 0. 0. 0. 0. 0. 0. 0. 0. 0. 0. 0. 0.
      0. 0. 0. 0. 0. 0. 0. 0. 0. 0. 0. 0. 0. 0. 0. 0. 0. 0. 0. 0. 0. 0.
      0. 0. 0. 0. 0. 0. 0. 0. 0. 0. 0. 0. 0. 0. 0. 0. 0. 0. 0. 0. 0. 0.
      0. 0. 0. 0. 0. 0. 0. 0. 0. 0. 0. 0. 0. 0. 0. 0. 0. 0. 0. 0. 0. 0.
      0. 0. 0. 0. 0. 0. 0. 0. 0. 0. 0. 0. 0. 0. 0. 0. 0. 0. 0. 0. 0. 0.
      0. 0. 0. 0. 0. 0. 0. 0. 0. 0. 0. 0. 0. 0. 0. 0. 0. 0. 0. 0. 0. 0.
      0. 0. 0. 0. 0. 0. 0. 0. 0. 0. 0. 0. 0. 0. 0. 0. 0. 0. 0. 0. 0. 0.
      0. 0. 0. 0. 0. 0. 0. 0. 0. 0. 0. 0. 0. 0. 0. 0. 0. 0. 0. 0. 0. 0.
      0. 0. 0. 0. 0. 0. 0. 0. 0. 0. 0. 0. 0. 0. 0. 0. 0. 0. 0. 0. 0. 0.
      0. 0. 0. 0. 0. 0. 0. 0. 0. 0. 0. 0. 0. 0. 0. 0. 0. 0. 0. 0. 0. 0.
      0. 0. 0. 0. 0. 0. 0. 0. 0. 0. 0. 0. 0. 0. 0. 0. 0. 0. 0. 0. 0. 0.
      0. 0. 0. 0. 0. 0. 0. 0. 0. 0. 0. 0. 0. 0. 0. 0. 0. 0. 0. 0. 0. 0.
      0. 0. 0. 0. 0. 0. 0. 0. 0. 0. 0. 0. 0. 0. 0. 0. 0. 0. 0. 0. 0. 0.
      0. 0. 0. 0. 0. 0. 0. 0.</_>
    <_>
      1.96376085e-001 1.26442939e-001 3.69186886e-002 5.73276468e-002
      1.11003339e-001 1.01558253e-001 1.22099675e-001 1.67338088e-001
      1.71953753e-001 1.45415232e-001 1.42968833e-001 6.05612397e-002
      1.92809254e-001 2.80124962e-001 2.65637845e-001 9.15827155e-002
      1.53878868e-001 1.42932132e-001 2.08746985e-001 5.31362332e-002
      7.74930865e-002 6.31081015e-002 1.66684791e-001 2.80124962e-001
      2.56240219e-001 2.08791375e-001 1.33169711e-001 8.97577181e-002
      7.83706009e-002 1.30472049e-001 1.65537283e-001 1.53103814e-001
      2.80124962e-001 2.57408708e-001 1.76433474e-001 1.06665954e-001
      3.59719433e-002 6.84057921e-002 2.65941676e-002 8.58407244e-002
      2.55657732e-001 1.48133636e-001 1.70683563e-001 1.08021282e-001
      8.46939683e-002 1.62715524e-001 1.63910598e-001 1.15226023e-001
      2.14065328e-001 2.55657732e-001 1.04059994e-001 1.86009780e-001
      1.18409380e-001 1.84412569e-001 7.68043995e-002 4.61613871e-002
      2.19407156e-002 9.87286642e-002 2.55657732e-001 2.55657732e-001
      1.60826921e-001 2.55657732e-001 1.71397388e-001 1.60366565e-001
      9.12293866e-002 7.97650367e-002 2.55657732e-001 2.55657732e-001
      1.75364107e-001 1.09381124e-001 1.67539239e-001 2.55657732e-001
      1.79447219e-001 1.00054525e-001 1.48559496e-001 1.85600773e-001
      9.75071862e-002 2.50394940e-001 1.73561513e-001 7.49863982e-002
      1.66727856e-001 1.49648279e-001 1.60222113e-001 1.62795559e-001
      1.26819253e-001 2.08381668e-001 2.50394940e-001 4.41278778e-002
      1.44271739e-002 5.20718209e-002 1.11518562e-001 6.47938028e-002
      1.45953447e-001 2.08571404e-001 1.64715588e-001 2.50394940e-001
      1.86956525e-001 1.33530155e-001 2.50394940e-001 2.47885302e-001
      1.42652720e-001 1.84657902e-001 1.40362918e-001 2.27062434e-001
      2.50394940e-001 1.21218249e-001 3.67553420e-002 9.34532359e-002
      4.01894487e-002 5.87944761e-002 9.27550942e-002 2.58942008e-001
      2.58942008e-001 2.62255371e-002 9.03560147e-002 9.89995077e-002
      4.21027131e-002 8.75067413e-002 7.65183866e-002 1.09978318e-001
      2.58942008e-001 2.58942008e-001 5.34054153e-002 1.10806458e-001
      1.30256489e-001 2.08372161e-001 1.50806963e-001 2.24848941e-001
      2.58942008e-001 2.58942008e-001 1.90491319e-001 1.03540875e-001
      7.25529119e-002 7.35073686e-002 8.93998984e-003 1.41618922e-001
      2.36493275e-001 2.58942008e-001 2.58942008e-001 2.58942008e-001
      6.34689927e-002 9.99031439e-002 1.48113191e-001 1.25470757e-001
      1.80882722e-001 1.24984466e-001 1.74314305e-001 1.23143472e-001
      7.43323192e-002 7.87129104e-002 7.68578649e-002 1.52757168e-001
      1.93641901e-001 1.79995462e-001 7.01892450e-002 1.49466082e-001
      1.74577206e-001 2.72757202e-001 5.69432154e-002 8.97086337e-002
      1.32560581e-001 1.44373044e-001 1.91905782e-001 6.57525733e-002
      6.43711388e-002 7.22210035e-002 2.72757202e-001 8.71359780e-002
      2.12010652e-001 2.08858609e-001 2.63562560e-001 1.24684468e-001
      2.78647449e-002 1.34273142e-001 1.21033207e-001 2.72757202e-001
      5.52554540e-002 2.72757202e-001 2.72757202e-001 2.11898148e-001
      1.72760114e-001 1.57298535e-001 1.38354972e-001 1.85623959e-001
      2.53533095e-001 4.44841720e-002 4.46379781e-002 2.85379756e-002
      2.04553232e-002 1.30899742e-001 2.26977155e-001 2.53533095e-001
      2.06207439e-001 2.18126476e-001 2.53533095e-001 7.05258176e-002
      9.03824642e-002 1.65674631e-002 1.03355803e-001 9.32605565e-002
      1.52335048e-001 1.94463432e-001 2.53533095e-001 1.29772186e-001
      8.36217776e-002 6.23815879e-002 1.02957122e-001 1.38043955e-001
      1.86802357e-001 1.80586711e-001 2.31571019e-001 2.53533095e-001
      2.41825044e-001 2.22854227e-001 1.13062866e-001 1.03279635e-001
      6.47027865e-002 2.71872252e-001 1.32950023e-001 1.43232480e-001
      7.28894845e-002 2.06111118e-001 1.13059849e-001 4.07427400e-002
      1.48787545e-002 6.68866783e-002 2.21966833e-001 9.04506668e-002
      3.39291953e-002 6.42311797e-002 2.71872252e-001 2.71872252e-001
      1.76365256e-001 6.52593151e-002 8.97496492e-002 2.71872252e-001
      7.12799504e-002 1.07251711e-001 2.71872252e-001 2.71872252e-001
      1.12072214e-001 5.10097779e-002 4.97759357e-002 1.26748964e-001
      2.71872252e-001 1.41518146e-001 3.07561029e-002 2.09487751e-001
      2.71872252e-001 2.45237976e-001 7.22809881e-002 9.99873877e-002
      4.25274782e-002 2.12894857e-001 4.64418568e-002 8.18584785e-002
      2.35811219e-001 9.67020541e-002 2.62499571e-001 1.82811633e-001
      7.07393885e-002 2.32545242e-001 4.08761241e-002 2.13720407e-002
      5.54620363e-002 2.62968838e-001 2.62968838e-001 8.37684199e-002
      8.47160146e-002 1.56945944e-001 3.49151678e-002 1.35102510e-001
      7.25719333e-002 1.57818750e-001 1.29400432e-001 2.09577650e-001
      2.47988909e-001 1.39500961e-001 1.38130859e-001 2.22976357e-001
      1.96641430e-001 2.10740611e-001 2.62968838e-001 1.09018452e-001
      2.62968838e-001 5.44175170e-002 9.59225968e-002 1.64860457e-001
      1.91038679e-002 1.38659254e-001 2.82114714e-001 2.52356559e-001
      1.40894398e-001 2.26373617e-002 3.75138670e-002 1.46041848e-002
      1.99400745e-002 4.58275825e-002 1.19036011e-001 2.65406311e-001
      2.82114714e-001 2.62795419e-001 1.08642697e-001 7.44295344e-002
      6.76726550e-002 2.72330474e-002 2.55212262e-002 2.82114714e-001
      1.78106040e-001 2.02350110e-001 2.82114714e-001 3.26298811e-002
      5.92025183e-002 2.47748774e-002 3.35177071e-002 1.84999760e-002
      2.82114714e-001 2.54231721e-001 2.82114714e-001 2.82114714e-001
      3.58494595e-002 5.51417470e-003 9.42920074e-002 3.40389684e-002
      5.38748764e-002 6.53138459e-002 1.09144941e-001 1.54676750e-001
      1.89168975e-001 8.33837762e-002 1.20535731e-001 7.72945061e-002
      1.00200653e-001 6.01431951e-002 1.52605370e-001 1.61341563e-001
      1.28177688e-001 1.54361293e-001 1.39588982e-001 1.78881571e-001
      5.56991696e-002 2.24552453e-001 3.28000300e-002 1.12130277e-001
      2.59444565e-001 1.11244887e-001 2.16386169e-001 2.59444565e-001
      2.36990422e-001 1.50327384e-001 1.01265103e-001 4.71939258e-002
      2.59444565e-001 2.59444565e-001 2.59444565e-001 1.00544274e-001
      2.48440653e-001 2.59444565e-001 6.27039075e-002 1.97969526e-001
      1.12548813e-001 6.15669489e-002 1.13017105e-001 1.64771080e-001
      1.08406611e-001 8.95132646e-002 2.06527278e-001 1.49993002e-001
      2.08464209e-002 1.42249092e-001 1.13828599e-001 1.21502861e-001
      1.68369159e-001 2.24569663e-001 1.22632198e-001 1.83570653e-001
      1.72238082e-001 1.04240566e-001 1.75645873e-001 2.52055436e-001
      1.74171492e-001 2.30195045e-001 1.30701616e-001 1.40794009e-001
      2.52055436e-001 9.93177742e-002 5.92083335e-002 2.52055436e-001
      1.88142061e-001 1.50802895e-001 1.65504873e-001 2.25640997e-001
      1.98395476e-001 2.52055436e-001 1.30428597e-001 1.68373913e-001
      6.16044179e-002 7.34348968e-002 4.30640429e-002 1.29187644e-001
      8.66813064e-002 2.00239480e-001 1.26287073e-001 2.18569010e-001
      6.26643226e-002 5.60231693e-002 1.42388865e-001 1.85117945e-001
      2.38763005e-001 2.07871571e-001 2.39427552e-001 1.03864767e-001
      1.21510915e-001 4.33665104e-002 7.67370462e-002 2.67264783e-001
      1.60131067e-001 1.14818498e-001 7.25408122e-002 2.67264783e-001
      2.67264783e-001 1.75857440e-001 6.19286336e-002 7.93009922e-002
      2.67264783e-001 2.67264783e-001 2.41394281e-001 6.62728101e-002
      1.59907401e-001 2.67264783e-001 5.34985699e-002 3.12563181e-002
      1.87984452e-001 1.15352832e-001 1.71565428e-001 7.19990134e-002
      9.37157124e-002 1.22133993e-001 8.66419524e-002 4.57397811e-002
      1.32894725e-001 6.45875186e-002 1.76547080e-001 2.13013187e-001
      7.50939399e-002 1.41682521e-001 2.61351228e-001 1.14203647e-001
      5.56068942e-002 2.67378658e-001 2.76007831e-001 1.01096816e-001
      1.98819768e-002 7.90311769e-002 2.76007831e-001 1.88720033e-001
      1.60484612e-001 1.25896588e-001 1.89167216e-001 1.16171770e-001
      6.68408945e-002 1.90146733e-002 1.44982904e-001 2.76007831e-001
      2.76007831e-001 1.76118329e-001 1.39750406e-001 2.76007831e-001
      7.19078705e-002 1.28713742e-001 1.72590241e-001 8.11836421e-002
      1.13124721e-001 1.32656962e-001 7.12793171e-002 9.54072699e-002
      6.76950440e-002 2.72825304e-002 1.05927587e-001 2.40354285e-001
      8.27092379e-002 1.28489494e-001 1.79444864e-001 2.67084897e-001
      1.90165535e-001 6.50215521e-002 3.10516451e-002 1.04290411e-001
      2.29830891e-001 9.66683924e-002 2.67084897e-001 2.02930138e-001
      2.43895128e-001 4.19100411e-002 1.32053504e-002 1.04290932e-001
      2.67084897e-001 2.67084897e-001 1.72475845e-001 2.67084897e-001
      2.67084897e-001 2.67084897e-001 8.34411755e-002 2.90834904e-002
      9.35532376e-002 2.44553797e-002 6.74251541e-002 1.83897823e-001
      2.02143267e-001 1.92733943e-001 1.58982992e-001 1.09721452e-001
      9.74438339e-002 4.67173494e-002 7.17516690e-002 1.45271927e-001
      2.45515212e-001 2.11743265e-001 2.84847707e-001 2.41204500e-001
      2.27403473e-002 3.69340815e-002 1.13005310e-001 3.38110304e-003
      2.84847707e-001 2.84847707e-001 1.73185319e-001 4.83975336e-002
      5.09651937e-002 7.60747939e-002 1.69852719e-001 1.16837204e-001
      3.29959951e-002 2.84847707e-001 2.84847707e-001 2.84847707e-001
      1.94252625e-001 5.38312979e-002 1.83106586e-002 7.82570243e-002
      8.49783346e-002 2.98229661e-002 6.89742789e-002 2.65384354e-002
      1.90081775e-001 2.21510962e-001 1.48330420e-001 1.03852913e-001
      6.70986846e-002 9.78831202e-002 2.99772713e-002 9.92826093e-003
      2.47487184e-002 2.82587916e-001 2.34502643e-001 2.57799983e-001
      1.85708418e-001 7.84129053e-002 5.16291857e-002 4.79379576e-003
      9.15159360e-002 1.60715938e-001 2.50813603e-001 1.54408187e-001
      2.82587916e-001 2.82587916e-001 1.33996323e-001 9.30199474e-002
      1.87347196e-002 8.24473575e-002 1.79628462e-001 2.82587916e-001
      7.51738846e-002 2.82587916e-001 2.70736873e-001 1.41216666e-001
      2.89187551e-001 7.27035031e-002 4.40394804e-002 9.25665647e-002
      1.31073460e-001 1.75874054e-001 7.27270618e-002 1.12503089e-001
      9.76875499e-002 2.92233050e-001 2.39465684e-001 1.58119887e-001
      1.05760209e-001 1.27039909e-001 1.58072174e-001 5.07961586e-002
      6.91541061e-002 7.48591647e-002 2.92233050e-001 1.66448087e-001
      1.92098022e-002 3.32608409e-002 8.04621726e-002 1.50057912e-001
      8.45781043e-002 1.95654675e-001 2.11847320e-001 2.92233050e-001
      2.92233050e-001 1.73242867e-001 2.92233050e-001 1.82985589e-001
      6.37992769e-002 2.36723404e-002 1.04131341e-001 1.41334340e-001
      2.06684694e-001 1.58211410e-001 1.36107221e-001 1.09789915e-001
      1.46629632e-001 6.50298744e-002 8.24537799e-002 5.79321831e-002
      8.25397223e-002 2.61945605e-001 1.46090597e-001 1.73970953e-001
      2.00855568e-001 6.88370392e-002 9.18305293e-002 1.78413510e-001
      7.54036456e-002 2.00694114e-001 7.75428489e-002 1.69030845e-001
      2.61945605e-001 1.98997155e-001 1.89667404e-001 9.31668505e-002
      1.05684772e-001 8.39233994e-002 2.05348164e-001 1.29141375e-001
      1.54227957e-001 2.61945605e-001 2.61945605e-001 1.53354734e-001
      8.35326985e-002 2.61945605e-001 1.34072348e-001 2.49417514e-001
      1.42974108e-001 9.43434462e-002 1.23224489e-001 1.25981793e-001
      1.85643822e-001 1.23251610e-001 2.44528800e-001 5.11668846e-002
      9.57358256e-002 9.96152312e-002 1.71132147e-001 1.97626576e-001
      1.77008599e-001 2.26967290e-001 1.23401850e-001 1.26353770e-001
      1.32799953e-001 5.79477213e-002 2.09558934e-001 1.51497990e-001
      7.71719813e-002 4.95924912e-002 9.55731869e-002 2.52708793e-001
      2.52708793e-001 8.97080004e-002 1.66978940e-001 1.56311065e-001
      2.52708793e-001 1.94484353e-001 1.97536618e-001 1.77049443e-001
      2.21569315e-001 2.45877370e-001 1.67783886e-001 1.42443776e-001
      1.05541386e-001 8.33660886e-002 1.20492555e-001 2.06886515e-001
      1.73850104e-001 1.11888438e-001 7.84240514e-002 1.46656930e-001
      1.54090628e-001 2.41698354e-001 5.38995042e-002 1.18474863e-001
      2.56381631e-001 1.56355470e-001 5.44304810e-002 8.49907547e-002
      1.61311761e-001 1.37189284e-001 1.57298654e-001 1.98946550e-001
      1.32557511e-001 1.05664544e-001 1.54650599e-001 2.12466031e-001
      2.56381631e-001 1.11873917e-001 2.01835930e-001 2.56381631e-001
      1.92431837e-001 6.61259294e-002 1.75679117e-001 1.14269480e-001
      1.37529612e-001 2.20150873e-001 2.05052376e-001 2.56381631e-001
      2.32139751e-002 5.63228801e-002 1.53872490e-001 4.31235731e-002
      1.43161342e-001 3.57974321e-001 3.36361825e-001 7.07224905e-002
      1.70904715e-002 3.91748361e-002 9.66020301e-003 2.87058717e-003
      2.18270551e-002 1.31685510e-001 2.38071695e-001 7.56013319e-002
      2.51563862e-002 2.11909432e-002 4.12842408e-002 1.47824651e-002
      1.22891992e-001 1.63333610e-001 3.57974321e-001 3.57974321e-001
      2.33435184e-001 3.72539787e-003 2.79654693e-002 3.12793925e-002
      1.31635666e-002 1.86528880e-002 3.08434777e-002 3.57974321e-001
      3.57974321e-001 4.84961309e-002 2.01264303e-002 1.97797846e-002
      1.83960944e-001 1.06911078e-001 6.95165768e-002 1.29502028e-001
      5.97156659e-002 2.10038386e-002 4.80572395e-002 9.76457745e-002
      1.76702186e-001 2.49504074e-001 1.20543420e-001 4.25259285e-002
      8.64743143e-002 8.22614282e-002 1.64186999e-001 2.49504074e-001
      1.09308966e-001 2.09505081e-001 2.09098995e-001 1.50961861e-001
      2.49504074e-001 1.42346948e-001 2.32418627e-001 6.08021319e-002
      5.04250787e-002 1.08212501e-001 2.32824460e-001 2.49504074e-001
      1.87356174e-001 2.21476182e-001 2.25773096e-001 2.44614065e-001
      1.34770393e-001 2.49504074e-001 6.25237450e-002 1.70081049e-001
      7.31585473e-002 4.78656180e-002 1.10492028e-001 1.61266908e-001
      1.87904879e-001 9.63470265e-002 4.54757065e-002 1.11915059e-001
      1.22528657e-001 5.86336516e-002 8.37569311e-002 2.46078104e-001
      2.69236773e-001 2.34814540e-001 4.42482717e-002 1.42814741e-002
      1.19804583e-001 2.69236773e-001 8.52879584e-002 4.76353504e-002
      9.89040360e-002 1.15203798e-001 2.18079627e-001 1.12689957e-001
      2.62566209e-001 2.20218047e-001 2.69236773e-001 5.90596423e-002
      1.08946890e-001 1.66030064e-001 2.69236773e-001 2.69236773e-001
      5.98953553e-002 1.21439487e-001 1.67665914e-001 2.69236773e-001
      5.03967106e-002 7.68528134e-002 5.18394187e-002 4.70690541e-002
      2.17384562e-001 2.51178473e-001 1.55691296e-001 9.51833799e-002
      4.99171689e-002 1.16047509e-001 6.35760650e-002 2.56543588e-002
      1.39457554e-001 1.21946797e-001 2.70556420e-001 1.80146232e-001
      1.09039411e-001 1.84822679e-001 1.40884265e-001 5.19571938e-002
      5.75823756e-003 6.92138597e-002 2.70556420e-001 2.70556420e-001
      1.74850985e-001 1.53958037e-001 8.58943537e-002 2.70556420e-001
      5.66539802e-002 4.26706765e-003 1.56303495e-001 2.70556420e-001
      2.70556420e-001 2.70556420e-001 2.34290808e-001 1.51126787e-001
      3.07700522e-002 6.20554015e-003 1.91795435e-002 6.11852221e-002
      1.90832987e-001 2.91181386e-001 1.77236423e-001 4.53194454e-002
      4.53938060e-002 2.91181386e-001 1.37178824e-004 0. 0.
      6.32398650e-002 2.91181386e-001 2.30118215e-001 7.55323991e-002
      2.91181386e-001 4.48643826e-002 0. 9.78776603e-004 4.61855829e-002
      2.09514558e-001 2.91181386e-001 2.51305282e-001 1.14929818e-001
      9.38794911e-002 2.91181386e-001 0. 0. 0. 1.23821134e-002
      2.25652531e-001 2.09566250e-001 1.88875586e-001 2.91181386e-001
      3.11481714e-001 2.88844734e-001 7.80820772e-002 0. 0. 0.
      5.42779230e-002 1.09265432e-001 8.13207701e-002 3.11481714e-001
      1.59127191e-001 4.68492471e-002 0. 0. 0. 0. 4.63019460e-005
      3.11481714e-001 3.11481714e-001 3.11481714e-001 2.06184268e-001 0.
      0. 0. 8.77735540e-002 1.91280469e-001 7.34398365e-002
      3.11481714e-001 2.68061161e-001 1.23063482e-001 0. 0. 0. 0.
      4.22021112e-005 3.11481714e-001 2.22906955e-002 0. 0.
      5.45858406e-004 6.20091967e-002 2.24563017e-001 3.11066359e-001
      2.68282682e-001 2.14974910e-001 0. 3.54331313e-003 1.47131563e-003
      1.77538441e-003 1.24984555e-001 2.34167099e-001 1.60831332e-001
      4.93111275e-002 3.94797884e-003 2.70496737e-002 0. 0. 0.
      2.43624568e-001 3.17514628e-001 3.17514628e-001 2.75317460e-001
      2.03236818e-001 0. 3.05908965e-003 4.66696220e-003 3.71823437e-004
      3.17514628e-001 3.17514628e-001 2.15161070e-001 3.92414667e-002
      3.41249601e-004 2.63559431e-001 1.94292411e-001 6.86571822e-002
      7.70702884e-002 2.47665524e-001 2.18937006e-002 5.80019988e-002
      4.31615487e-002 2.11485401e-002 2.63559431e-001 2.15021893e-001
      6.48030788e-002 2.63559431e-001 1.91603467e-001 2.43387800e-002
      5.32997549e-002 1.43105403e-001 5.44453524e-002 1.82257742e-001
      2.10178837e-001 2.23691568e-001 1.25993446e-001 2.63559431e-001
      5.81189431e-002 4.80427817e-002 8.43305886e-002 9.82652530e-002
      2.63559431e-001 2.63559431e-001 2.29982480e-001 2.50967681e-001
      1.56803176e-001 5.59545457e-002 1.12784319e-002 1.29204690e-001
      1.56500280e-001 1.33323789e-001 5.68767525e-002 3.01735718e-002
      4.86170948e-002 3.94618601e-001 3.94618601e-001 1.61386784e-002
      5.32906242e-002 8.50863978e-002 3.94618601e-001 1.08002573e-001
      4.57195900e-002 3.51955071e-002 5.33175841e-002 3.17207463e-002
      1.00319488e-002 3.54524553e-002 1.86761230e-001 4.54393625e-002
      3.08639556e-002 2.86509003e-002 5.48992045e-002 3.94618601e-001
      3.94618601e-001 3.16320322e-002 1.74002498e-002 3.98465097e-002
      7.00273886e-002 7.69021437e-002 6.06334619e-002 5.49264215e-002
      2.09950775e-001 2.06432790e-001 4.08271439e-002 9.00934413e-002
      6.32627085e-002 3.98658775e-002 2.64886498e-001 2.75399446e-001
      2.75399446e-001 1.08854175e-001 1.19823098e-001 1.76959351e-001
      2.14126576e-002 8.69122520e-003 2.75399446e-001 1.85833260e-001
      2.75399446e-001 2.52804995e-001 6.67893514e-002 4.50030575e-003
      1.14636961e-003 1.82550086e-003 2.06597880e-001 8.98633618e-003
      1.72044411e-002 1.40880734e-001 2.75399446e-001 2.75399446e-001
      2.53721744e-001 7.11601451e-002 1.08709466e-003 9.89992823e-003
      9.49932039e-002 4.76204120e-002 8.71619806e-002 2.30262786e-001
      2.75399446e-001 1.21895708e-001 1.41013768e-002 1.22239022e-002
      1.18462622e-001 1.36746431e-003 0. 0. 9.88798123e-003
      4.26315844e-001 3.82569969e-001 2.34074369e-002 7.54986517e-003
      6.39406312e-003 0. 1.43554644e-004 1.18493894e-003 2.21681204e-002
      4.26315844e-001 2.25162759e-001 9.29903984e-003 8.30534962e-004 0.
      4.65094308e-005 0. 0. 1.34010434e-001 4.26315844e-001
      1.40461475e-001 2.55400711e-003 1.37338310e-003 2.32334528e-003 0.
      1.00488251e-003 6.03555003e-003 1.68856785e-001 4.26315844e-001
      6.39689937e-002 5.50338859e-003 1.58700161e-003 0. 9.87548381e-002
      1.32135645e-001 1.59724131e-001 2.24598244e-001 2.25975946e-001
      1.33686617e-001 7.38401115e-002 6.59328252e-002 9.21598375e-002
      2.43263245e-001 2.43263245e-001 1.74209759e-001 2.21506312e-001
      8.45935792e-002 3.40846963e-002 1.16098143e-001 5.40984049e-002
      1.53756768e-001 1.20907307e-001 1.38262495e-001 1.51296318e-001
      1.87502667e-001 2.34831423e-001 1.16890639e-001 1.18373707e-001
      1.42236620e-001 8.75981152e-002 2.43263245e-001 2.43263245e-001
      1.94794461e-001 2.43263245e-001 2.43263245e-001 6.83798268e-003
      2.38255095e-002 2.00976446e-001 2.07049638e-001</_>
    <_>
      4.34491858e-002 4.75577563e-002 9.01308283e-002 7.33369142e-002
      2.79558063e-001 1.34402454e-001 3.20820771e-002 2.01972857e-001
      2.20696598e-001 3.62164341e-002 1.60976008e-001 9.55566615e-002
      5.65582477e-002 2.79558063e-001 2.79558063e-001 1.60508007e-001
      1.34690225e-001 1.83053523e-001 5.50539643e-002 1.33134246e-001
      2.58269310e-001 1.06195383e-001 1.07795589e-001 1.71783328e-001
      1.72456220e-001 1.52632698e-001 2.40711331e-001 1.87833056e-001
      1.37079284e-001 2.00875819e-001 1.27945855e-001 6.76931739e-002
      2.79558063e-001 2.17081428e-001 8.19349810e-002 1.46029085e-001
      4.09215316e-002 3.86483930e-002 1.41703665e-001 2.02603593e-001
      2.45397449e-001 1.67420566e-001 7.80139640e-002 3.26219313e-002
      9.90527123e-002 5.92306815e-002 3.98358330e-002 1.91932112e-001
      2.53711462e-001 2.53711462e-001 3.77891138e-002 8.39616954e-002
      4.76300530e-002 2.19872624e-001 9.41537470e-002 4.48900089e-002
      1.35533959e-001 1.81151107e-001 2.53711462e-001 1.35991856e-001
      1.79973543e-001 2.22907215e-001 1.87387928e-001 1.67876303e-001
      7.36440122e-002 2.02752009e-001 2.53711462e-001 2.53711462e-001
      4.73853126e-002 1.28396034e-001 2.22530887e-001 2.53711462e-001
      2.02154294e-001 1.63351148e-001 1.67814091e-001 4.51187305e-002
      1.71141863e-001 5.13529666e-002 1.16232120e-001 1.92677863e-002
      1.29430965e-001 2.15403572e-001 1.22995801e-001 1.96817786e-001
      6.49688095e-002 2.64829189e-001 6.74606189e-002 1.25395775e-001
      7.68274814e-002 1.98535055e-001 1.43773392e-001 2.00073540e-001
      2.64829189e-001 1.75125718e-001 2.34085530e-001 1.15329131e-001
      1.66897669e-001 2.13914756e-002 9.92361829e-002 1.23971052e-001
      1.36811078e-001 2.64829189e-001 9.44203958e-002 2.64829189e-001
      1.63644403e-001 2.11395845e-001 1.33021161e-001 2.37990975e-001
      7.45843202e-002 1.54075101e-001 1.84960738e-001 1.17322922e-001
      1.31713450e-001 4.04861197e-002 1.11920998e-001 1.26940042e-001
      5.98140284e-002 2.39416599e-001 1.60799012e-001 2.14449167e-001
      1.98172256e-001 2.37029865e-001 1.14886306e-001 1.12907939e-001
      6.80261254e-002 1.99015632e-001 7.99291953e-002 2.52367646e-001
      2.40873754e-001 1.94618300e-001 1.73514172e-001 1.25411019e-001
      1.13181844e-001 8.48925561e-002 7.69758075e-002 9.06345770e-002
      1.64761797e-001 2.15293452e-001 2.55817711e-001 2.55817711e-001
      1.90368742e-001 1.38165593e-001 2.05362722e-001 1.62189066e-001
      6.92312047e-002 8.02846719e-003 6.16004914e-002 1.43185511e-001
      4.75730449e-002 1.79918274e-001 1.45672277e-001 1.20962076e-001
      1.23366535e-001 5.23473322e-002 1.79073922e-002 9.22218189e-002
      2.40738779e-001 9.50062945e-002 2.07389861e-001 2.49457940e-001
      1.53311059e-001 1.58535436e-001 1.83027774e-001 1.60496414e-001
      1.39638022e-001 2.49457940e-001 6.63548037e-002 1.16087645e-001
      1.52602881e-001 1.77765384e-001 1.14746876e-001 2.38320604e-001
      1.87549189e-001 2.49457940e-001 2.49457940e-001 1.70570388e-001
      2.49457940e-001 2.49457940e-001 2.18972757e-001 7.32828379e-002
      6.80601150e-002 4.68137413e-002 1.40010148e-001 9.26718712e-002
      8.84759575e-002 2.06201628e-001 2.43496876e-002 1.07941136e-001
      1.24634735e-001 2.57314116e-001 8.57372209e-002 1.29560024e-001
      2.19521791e-001 2.03228563e-001 2.57314116e-001 1.38366921e-002
      1.08796194e-001 2.16116056e-001 5.16535193e-002 7.18485564e-002
      1.26191124e-001 1.25974908e-001 2.18405664e-001 2.57314116e-001
      7.33031332e-002 1.33342326e-001 5.10044023e-002 2.11722523e-001
      9.75600630e-002 1.27732426e-001 2.45437294e-001 2.57314116e-001
      2.57314116e-001 6.68787062e-002 2.57314116e-001 2.57314116e-001
      6.41540065e-002 8.94282535e-002 1.62400305e-001 1.09219864e-001
      2.61609972e-001 2.61609972e-001 5.12240231e-002 1.32996947e-001
      1.02902539e-001 5.45000136e-002 7.29476362e-002 2.27275968e-001
      1.15424521e-001 2.40364149e-001 1.55001819e-001 6.54948577e-002
      1.71999902e-001 2.09133297e-001 1.05884925e-001 8.32061097e-002
      2.61609972e-001 1.61096454e-001 2.61609972e-001 2.61609972e-001
      4.52311523e-002 1.05940878e-001 1.35773808e-001 9.74083990e-002
      3.52959558e-002 2.61609972e-001 1.23408623e-001 1.22270323e-001
      2.61609972e-001 1.34060994e-001 1.65229023e-001 2.05749780e-001
      1.48730755e-001 4.25191671e-002 1.41410232e-001 1.97840020e-001
      9.88486931e-002 2.36349612e-001 1.91203609e-001 6.80549741e-002
      1.18692622e-001 1.52295142e-001 1.70332454e-002 5.14015816e-002
      2.52895445e-001 2.52895445e-001 2.44295195e-001 1.65809378e-001
      8.14463422e-002 1.29639044e-001 7.90781304e-002 1.45555973e-001
      1.88557416e-001 2.32633829e-001 1.81348994e-001 2.16464564e-001
      1.61840662e-001 1.19127989e-001 9.99057293e-002 9.89468694e-002
      4.44606096e-002 1.13197915e-001 2.52895445e-001 2.52895445e-001
      2.52895445e-001 1.70042664e-001 1.49762809e-001 1.17603630e-001
      1.20098643e-001 7.16731548e-002 1.05645478e-001 2.70514518e-001
      6.55708313e-002 7.40104094e-002 1.09689988e-001 1.10991418e-001
      4.01377343e-002 5.66166826e-002 8.03404823e-002 1.13086335e-001
      2.70514518e-001 2.26558059e-001 2.17177093e-001 2.70514518e-001
      1.18703969e-001 1.22806728e-002 1.96326748e-001 1.42992347e-001
      1.23944506e-001 2.70514518e-001 1.28630370e-001 7.28328452e-002
      3.80576588e-002 5.84768988e-002 9.35787186e-002 2.70514518e-001
      1.35118395e-001 1.45800561e-001 2.70514518e-001 2.52544492e-001
      2.70514518e-001 1.57168150e-001 1.50457203e-001 1.51470289e-001
      9.62031782e-002 1.12725541e-001 1.17403619e-001 2.70909280e-001
      1.79878578e-001 2.96565872e-002 3.30849700e-002 1.22164309e-001
      4.46054339e-002 1.36459559e-001 2.04003915e-001 1.88430876e-001
      2.70909280e-001 1.54307976e-001 3.27077545e-002 9.57700312e-002
      1.06478274e-001 1.35237426e-001 2.29096234e-001 2.48238042e-001
      1.53225720e-001 2.00322762e-001 2.70909280e-001 1.12408571e-001
      1.99792851e-002 4.64616902e-002 6.09136634e-002 2.70909280e-001
      2.65056193e-001 1.33364633e-001 2.17217579e-001 2.70909280e-001
      8.45924690e-002 1.36814332e-002 9.10453573e-002 1.90903187e-001
      6.77916706e-002 5.94146922e-002 1.05665997e-001 2.35931218e-001
      8.69937316e-002 1.66860625e-001 2.23302379e-001 1.01043463e-001
      4.68632355e-002 1.01262957e-001 7.85008594e-002 1.89945340e-001
      1.52070269e-001 2.27614388e-001 2.11316824e-001 1.70713663e-001
      1.05985455e-001 8.98232311e-002 1.19455643e-001 1.45398974e-001
      1.02350861e-001 2.41876096e-001 2.54864514e-001 1.44502029e-001
      2.44535297e-001 2.17062473e-001 5.35059869e-002 4.65193838e-002
      9.57913846e-002 2.54864514e-001 2.54864514e-001 2.01573983e-001
      1.82572529e-001 2.54864514e-001 1.45763472e-001 5.35395592e-002
      8.95084590e-002 1.61448687e-001 1.15224823e-001 2.53633112e-001
      2.49809802e-001 2.58536905e-001 5.77647239e-002 1.87172461e-002
      8.87582079e-002 1.10542089e-001 1.38452485e-001 1.62113070e-001
      2.58536905e-001 1.42074272e-001 1.00152127e-001 3.11311930e-002
      1.03478745e-001 1.41636997e-001 7.01218992e-002 2.46460870e-001
      9.21000317e-002 1.43736124e-001 2.58536905e-001 1.58110827e-001
      1.98536620e-001 3.19226943e-002 2.58084070e-002 2.01876774e-001
      1.34116948e-001 1.14379101e-001 1.02871723e-001 2.54394770e-001
      1.69008568e-001 2.58536905e-001 1.46088645e-001 2.58536905e-001
      1.06884062e-001 7.14546517e-002 1.21090837e-001 6.66147545e-002
      2.59227782e-001 2.59227782e-001 1.23234533e-001 1.06762059e-001
      2.82282010e-002 9.94080231e-002 8.29488263e-002 2.59227782e-001
      1.92516655e-001 1.89589620e-001 1.66690692e-001 1.59685791e-001
      3.10354736e-002 2.48570200e-002 1.56368613e-001 2.46098027e-001
      1.88779995e-001 7.50366747e-002 2.21853539e-001 2.59227782e-001
      1.65761128e-001 4.14553955e-002 6.41472489e-002 1.79624498e-001
      2.59227782e-001 2.59227782e-001 2.18305603e-001 2.31504381e-001
      1.52825803e-001 1.38333991e-001 3.73510309e-002 1.87227968e-002
      6.20633252e-002 4.32341062e-002 8.62116739e-002 2.53605783e-001
      1.09336019e-001 1.40284389e-001 2.27410868e-001 5.05778827e-002
      6.15786798e-002 1.95236877e-001 2.18336552e-001 1.87603518e-001
      1.97983935e-001 3.78357805e-002 1.66791439e-001 2.53605783e-001
      4.94400524e-002 1.47965476e-001 1.00174621e-001 1.86022650e-002
      2.53605783e-001 2.53605783e-001 2.53605783e-001 2.00648949e-001
      7.79243708e-002 1.33519486e-001 1.24761365e-001 2.53605783e-001
      1.78957283e-001 2.53605783e-001 1.81112960e-001 1.06463395e-001
      1.50551140e-001 6.80944473e-002 9.31129679e-002 1.68494225e-001
      2.04064474e-001 6.80150241e-002 7.53775686e-002 1.28865361e-001
      1.22068070e-001 7.79349953e-002 4.47946154e-002 9.83629450e-002
      2.30095744e-001 1.39175564e-001 1.08445317e-001 2.55425125e-001
      1.22414060e-001 1.26281247e-001 7.73611888e-002 9.07336250e-002
      1.81074351e-001 2.55425125e-001 1.92231417e-001 1.28695309e-001
      1.16507173e-001 1.93576902e-001 2.20898286e-001 9.94172618e-002
      6.98642060e-002 8.05181116e-002 2.55425125e-001 1.19636036e-001
      1.69104457e-001 2.24568397e-001 1.94934323e-001 1.11921676e-001
      1.55883536e-001 2.55425125e-001 2.55425125e-001 2.55425125e-001
      1.79673910e-001 1.46534085e-001 1.36439204e-001 2.06064612e-001
      1.24083258e-001 2.04077676e-001 2.09320202e-001 1.61564685e-002
      1.05332043e-002 1.65407211e-001 1.81200847e-001 1.74942970e-001
      1.79442972e-001 2.57427394e-001 1.10223480e-001 1.28988594e-001
      6.75171986e-002 8.89640301e-002 2.11081252e-001 2.59161919e-001
      1.41429469e-001 2.30439633e-001 6.84555098e-002 7.28337839e-002
      8.83219913e-002 1.01678297e-001 1.82371661e-001 1.70029089e-001
      2.59161919e-001 2.59161919e-001 2.53731012e-001 1.61273167e-001
      5.38240559e-002 1.05441704e-001 1.16936877e-001 1.52598575e-001
      1.40808985e-001 2.62069199e-002 2.31146708e-001 1.62196308e-001
      5.56768812e-002 1.48604318e-001 2.08065346e-001 9.62681323e-002
      1.65992394e-001 1.38514712e-001 1.22716263e-001 8.47040042e-002
      1.71067208e-001 4.68168631e-002 1.90726519e-001 2.43839204e-001
      8.35778788e-002 1.43721208e-001 2.52245456e-001 4.12460305e-002
      1.24440715e-001 6.92302361e-002 4.29984555e-002 2.26315320e-001
      2.52245456e-001 1.51212946e-001 2.52245456e-001 1.33351654e-001
      8.77803341e-002 1.45344377e-001 2.28388458e-001 9.23740938e-002
      2.52245456e-001 2.52245456e-001 2.29069322e-001 1.40537053e-001
      1.50762215e-001 3.34226191e-002 7.86836222e-002 5.74598834e-002
      3.69268060e-002 2.64747590e-001 2.66616344e-001 1.30829453e-001
      1.88918740e-001 2.57134110e-001 1.42595321e-001 1.42916799e-001
      8.10448825e-002 2.49626879e-002 2.03714669e-001 2.09540859e-001
      1.33689597e-001 1.05063275e-001 1.33622184e-001 5.58782145e-002
      2.66616344e-001 1.75194800e-001 5.92758469e-002 2.66616344e-001
      2.66616344e-001 6.15202002e-002 7.43049681e-002 1.88441664e-001
      6.26725554e-002 1.62192419e-001 1.31263092e-001 1.12819746e-001
      2.66616344e-001 2.14524582e-001 1.24503545e-001 1.84966832e-001
      1.65105250e-003 4.69681732e-002 1.46790132e-001 1.90184116e-001
      1.79793328e-001 2.00558379e-001 1.86584249e-001 2.02335954e-001
      1.39210625e-002 6.16910607e-002 9.17818099e-002 1.25460297e-001
      2.56520420e-001 1.99268267e-001 1.70807853e-001 2.56520420e-001
      9.42797512e-002 8.85468093e-004 2.66102031e-002 0. 1.57764658e-001
      1.72967672e-001 2.56520420e-001 2.56520420e-001 1.14734344e-001
      2.56520420e-001 3.72398645e-002 1.36121631e-001 7.26953940e-003
      8.48211870e-002 1.84844032e-001 2.56520420e-001 2.56520420e-001
      1.84324205e-001 2.39829421e-001 3.38884033e-002 7.88435563e-002
      4.06877771e-002 2.75237888e-001 2.50346899e-001 1.57677129e-001
      5.59308678e-002 8.52424279e-002 9.21112150e-002 1.08410018e-002
      9.92329046e-002 5.46384826e-002 2.48040959e-001 1.85346201e-001
      2.75237888e-001 2.75237888e-001 1.08912483e-001 5.11430688e-002
      4.64448743e-002 1.07095055e-001 1.03861064e-001 2.75237888e-001
      2.75237888e-001 1.48929998e-001 8.51463750e-002 1.26094133e-001
      1.21108234e-001 4.82171364e-002 1.47707775e-001 1.52603984e-001
      2.75237888e-001 2.75237888e-001 2.13823065e-001 1.68650657e-001
      2.98938397e-002 1.36992216e-001 6.08425029e-002 3.69635895e-002
      9.47427973e-002 1.32175535e-001 8.50658864e-003 1.71883762e-001
      3.53977442e-001 3.53977442e-001 5.69692925e-002 2.11954545e-002
      1.49996569e-002 4.02885629e-003 1.64180761e-003 1.44085968e-002
      1.43145218e-001 1.94876820e-001 6.46588057e-002 2.21434850e-002
      1.23611148e-002 3.82235609e-002 4.33760546e-002 1.83836564e-001
      9.50513557e-002 3.53977442e-001 3.53977442e-001 2.58057982e-001
      2.86053796e-003 4.52270135e-002 3.82633843e-002 3.07682790e-002
      5.69481868e-003 1.33825652e-002 3.53977442e-001 3.53977442e-001
      4.17384543e-002 1.98182482e-002 1.47783449e-002 2.33499855e-002
      2.95181572e-002 3.24514396e-002 1.20987266e-001 2.78530657e-001
      1.76294699e-001 1.75791293e-001 1.68560416e-001 8.05989131e-002
      1.63631532e-002 6.01339526e-002 6.96948320e-002 1.56380564e-001
      2.78530657e-001 2.78530657e-001 2.78530657e-001 9.22945440e-002
      1.01549357e-001 3.66726778e-002 8.09900314e-002 6.87754229e-002
      1.22264467e-001 8.40757564e-002 2.10912481e-001 2.14855120e-001
      1.52269676e-001 1.63337931e-001 4.98365387e-002 1.47205353e-001
      7.43257701e-002 4.41877544e-002 2.03649148e-001 2.78530657e-001
      2.78530657e-001 2.21487671e-001 2.61518300e-001 1.20628618e-001
      5.30109182e-002 4.94324528e-002 2.27481216e-001 9.07381326e-002
      1.43552974e-001 1.59945324e-001 6.41485229e-002 1.11020409e-001
      3.13856043e-002 1.08064316e-001 1.05385095e-001 2.01310664e-001
      2.08547801e-001 2.20185682e-001 1.84080705e-001 9.25829262e-002
      6.63970560e-002 1.29941851e-001 4.77727912e-002 9.99324620e-002
      2.17590123e-001 2.26965830e-001 2.53338188e-001 2.53338188e-001
      1.84298325e-002 1.91387549e-001 2.05044091e-001 7.74872825e-002
      2.09285572e-001 2.53338188e-001 2.53338188e-001 2.53338188e-001
      1.68686062e-001 1.70818686e-001 1.28657177e-001 8.12662393e-002
      1.75498817e-002 5.64048700e-002 1.29988626e-001 6.88523799e-002
      2.72212505e-001 2.61526674e-001 3.77370007e-002 1.27225220e-001
      1.38312384e-001 8.09588432e-002 1.25151407e-002 2.84874868e-002
      2.23789215e-001 2.72212505e-001 2.72212505e-001 5.70809953e-002
      4.04916853e-002 3.83237377e-002 4.54626568e-002 3.28987986e-002
      2.36147881e-001 1.58320874e-001 2.72212505e-001 2.72212505e-001
      1.72661647e-001 1.22939572e-001 7.57163540e-002 1.46083206e-001
      6.45958781e-002 1.65474072e-001 1.98039353e-001 2.72212505e-001
      2.72212505e-001 2.22285554e-001 3.97325009e-002 4.98258136e-002
      1.25244195e-002 1.75059959e-002 2.47434378e-002 2.05691576e-001
      3.10575843e-001 9.73194167e-002 7.29136243e-002 3.31756920e-002
      3.10575843e-001 0. 4.33583074e-004 8.86887079e-004 9.02474970e-002
      3.10575843e-001 1.46583408e-001 1.21522732e-001 2.67599434e-001
      4.59305309e-002 1.45950285e-003 6.57289568e-003 5.19385263e-002
      1.85555786e-001 3.10575843e-001 2.13567570e-001 1.21283375e-001
      1.52420387e-001 3.10575843e-001 0. 0. 0. 2.43099555e-002
      2.33256057e-001 1.64911136e-001 1.88033074e-001 3.10575843e-001
      2.81943679e-001 3.20253789e-001 5.20995036e-002 1.84796038e-004 0.
      3.36982012e-005 1.85225196e-002 1.18773080e-001 5.98737188e-002
      3.20253789e-001 1.80640638e-001 3.12597044e-002 1.10877627e-004 0.
      0. 0. 6.98978010e-006 3.20253789e-001 3.20253789e-001
      3.20253789e-001 1.68148026e-001 0. 0. 0. 7.82043636e-002
      1.81862026e-001 5.61694056e-002 3.20253789e-001 2.54692823e-001
      9.76005048e-002 0. 0. 0. 0. 0. 3.20253789e-001 3.58627141e-002 0.
      9.17610487e-006 5.16263116e-003 7.14079142e-002 1.48055002e-001
      3.11533451e-001 2.95865029e-001 2.03938022e-001 1.28542015e-003 0.
      1.53326220e-003 3.64753157e-002 1.44584030e-001 1.54417098e-001
      1.90970480e-001 4.63487618e-002 7.23762996e-003 5.02755120e-002 0.
      0. 5.25915530e-003 2.40285322e-001 3.11533451e-001 3.11533451e-001
      3.10860991e-001 2.02857435e-001 1.08406099e-003 0. 8.81417596e-004
      4.06212956e-002 3.11533451e-001 3.11533451e-001 2.60957867e-001
      3.97070497e-002 1.75721967e-003 7.61778355e-002 1.01386011e-001
      2.48044834e-001 1.68773398e-001 2.09031045e-001 1.83502078e-001
      1.08499303e-001 1.30173624e-001 3.76804732e-002 1.35311678e-001
      2.12751985e-001 2.28020579e-001 2.31807172e-001 1.79513380e-001
      9.50063244e-002 4.52414155e-002 2.29202714e-002 6.12310246e-002
      8.51200074e-002 1.16985150e-001 2.51414925e-001 2.51414925e-001
      2.51414925e-001 1.90767273e-001 1.66598186e-001 5.48778027e-002
      1.35366954e-002 9.11833793e-002 1.31249115e-001 2.51414925e-001
      2.10858867e-001 2.51414925e-001 1.49749085e-001 2.51414925e-001
      6.11515455e-002 5.76273389e-002 1.89312011e-001 3.32828276e-002
      2.37421542e-002 5.72749004e-002 3.89130950e-001 3.07585239e-001
      4.30948287e-002 1.17169134e-001 1.44731462e-001 3.89130950e-001
      1.13701001e-001 2.45003290e-002 1.52989225e-002 3.64526398e-002
      1.47772394e-002 2.08044928e-002 6.80874288e-002 2.65212148e-001
      6.72582686e-002 3.14308852e-002 3.74408588e-002 2.04038471e-002
      3.89130950e-001 3.89130950e-001 1.97244398e-002 7.03339558e-003
      4.05512303e-002 1.42529741e-001 1.17991388e-001 4.05296870e-002
      3.37277614e-002 2.27543503e-001 1.45687655e-001 6.11704215e-002
      5.94231896e-002 3.27015072e-002 2.99694296e-002 2.66774386e-001
      2.73096532e-001 2.73096532e-001 8.57919082e-002 9.15226564e-002
      1.65354505e-001 4.31236662e-002 1.05675329e-002 2.73096532e-001
      2.10965902e-001 2.73096532e-001 2.73096532e-001 3.46770398e-002
      5.20908833e-003 9.12915100e-004 3.64329491e-004 2.09049746e-001
      3.82743985e-003 1.69829931e-002 1.02353618e-001 2.73096532e-001
      2.73096532e-001 2.64919609e-001 3.46488878e-002 5.94179099e-003
      4.91998508e-004 1.10231258e-001 3.75931896e-002 8.84029046e-002
      2.73096532e-001 2.73096532e-001 1.13316372e-001 6.39040582e-003
      3.12113017e-002 4.52464446e-002 5.19184163e-003 7.83858879e-004 0.
      4.78499662e-003 4.41282332e-001 3.61456603e-001 1.67615283e-002
      8.83858930e-003 2.93970807e-003 8.60921500e-005 0. 3.13235726e-003
      2.30771974e-002 4.41282332e-001 2.33355984e-001 7.72517989e-004
      4.27958928e-003 3.73595580e-003 1.04077137e-003 1.30643137e-003 0.
      8.35639313e-002 4.41282332e-001 1.15643263e-001 2.32532225e-003
      2.47511867e-004 6.06573885e-004 6.02645101e-004 2.27433932e-003
      4.98971529e-003 7.57752731e-002 4.41282332e-001 6.61188960e-002
      2.19263093e-004 2.48292671e-003 7.56431418e-003 6.37878999e-002
      1.23675093e-001 8.22263584e-002 1.27668202e-001 2.32407063e-001
      1.36007607e-001 9.31616426e-002 1.83425590e-001 5.96547090e-002
      1.32709011e-001 1.12998702e-001 1.86944038e-001 8.88255537e-002
      2.25187108e-001 1.27993882e-001 6.84840754e-002 2.08289176e-001
      1.82869792e-001 5.27376793e-002 3.52517702e-002 1.79544970e-001
      1.31352350e-001 2.62642920e-001 1.63005173e-001 2.62642920e-001
      1.60759866e-001 1.02759652e-001 1.30389348e-001 2.52601057e-001
      2.05131963e-001 5.48553243e-002 2.62642920e-001 2.05237493e-001
      1.92878887e-001 1.65132508e-001 2.42505386e-001</_>
    <_>
      7.88179561e-002 4.02103104e-002 6.40806630e-002 4.87136096e-002
      1.29771903e-001 2.45353922e-001 2.47324660e-001 5.81186339e-002
      1.73867494e-001 1.17990032e-001 1.50172427e-001 2.54901975e-001
      1.93050861e-001 1.70597881e-001 1.62101090e-001 2.13349149e-001
      4.66024550e-003 9.82312337e-002 1.04383662e-001 1.70270294e-001
      4.66212556e-002 5.27703241e-002 1.12510748e-001 1.85146034e-001
      2.54901975e-001 1.22020386e-001 2.54901975e-001 7.33233541e-002
      1.64754197e-001 2.06965521e-001 2.54901975e-001 1.82076707e-001
      2.54901975e-001 2.54901975e-001 1.37538295e-002 1.47638708e-001
      1.82765260e-001 2.18199402e-001 1.34929225e-001 1.08532012e-001
      9.40279737e-002 7.12702647e-002 6.61901757e-002 1.46779463e-001
      8.04800615e-002 1.26825035e-001 1.97297111e-001 2.00694829e-001
      1.55444652e-001 6.10730276e-002 5.21779768e-002 1.50051028e-001
      1.10171221e-001 9.10355896e-002 2.13128060e-001 2.47653410e-001
      1.00664154e-001 2.47653410e-001 2.47653410e-001 6.66744485e-002
      4.92459759e-002 1.49067953e-001 1.92876548e-001 1.77386194e-001
      2.47653410e-001 1.38207763e-001 2.47653410e-001 1.71047628e-001
      1.67655766e-001 1.61785692e-001 2.47653410e-001 2.17730552e-001
      9.47786774e-003 1.64051503e-001 2.48982504e-001 2.05444574e-001
      2.48982504e-001 5.15046529e-003 8.07384495e-003 2.87549123e-002
      2.49392688e-002 4.86290045e-002 2.48982504e-001 1.92801401e-001
      2.02763095e-001 2.48982504e-001 5.29456623e-002 1.66847289e-001
      1.34874001e-001 6.85783848e-002 1.06637262e-001 2.01582164e-001
      2.48982504e-001 2.48982504e-001 1.51064709e-001 4.56245095e-002
      1.74345244e-002 4.57576066e-002 6.85573742e-002 1.97105706e-001
      5.67983277e-002 1.28043264e-001 2.48982504e-001 2.32741266e-001
      2.18955219e-001 1.94451496e-001 2.48982504e-001 1.19320691e-001
      5.03462516e-002 1.60932437e-001 1.11379340e-001 2.28205040e-001
      2.14870691e-001 1.58095971e-001 4.41906527e-002 4.05315422e-002
      9.58798528e-002 2.56840527e-001 2.14317381e-001 1.12296835e-001
      1.86149478e-001 2.56840527e-001 2.02351734e-001 1.17231876e-001
      8.79710019e-002 1.87348574e-001 6.53919354e-002 2.03154266e-001
      2.56840527e-001 2.56840527e-001 1.14549764e-001 1.14051566e-001
      1.80442501e-002 5.84538914e-002 4.67359237e-002 2.56840527e-001
      2.19370335e-001 2.56840527e-001 2.56840527e-001 8.67085159e-002
      1.33971676e-001 2.41339207e-002 8.69274735e-002 9.34867784e-002
      1.75676003e-001 1.62250325e-001 1.59786224e-001 9.72911865e-002
      2.45090067e-001 1.71190113e-001 1.09793223e-001 1.31030101e-002
      5.62451407e-002 1.76989600e-001 4.37901430e-002 2.55099535e-001
      2.04174638e-001 2.55099535e-001 2.55099535e-001 2.41770104e-001
      3.36597003e-002 1.24832273e-001 1.23585634e-001 1.64015487e-001
      1.56733230e-001 2.04784915e-001 5.87975904e-002 7.14900494e-002
      2.02346638e-001 8.25172588e-002 3.67232524e-002 1.58131301e-001
      7.99506530e-002 2.55099535e-001 2.55099535e-001 1.73229411e-001
      2.55099535e-001 8.97988155e-002 1.19193107e-001 9.96200219e-002
      1.22946940e-001 9.19667035e-002 1.19852267e-001 1.76282406e-001
      2.37900496e-001 1.60190910e-001 5.56740910e-002 3.42542119e-002
      2.69228220e-002 7.37210885e-002 1.33695140e-001 1.48664951e-001
      2.87467301e-001 2.87467301e-001 9.83996615e-002 5.08828722e-002
      4.87020612e-002 1.96937546e-002 3.69099900e-002 6.50118962e-002
      2.24794105e-001 2.87467301e-001 1.81653082e-001 2.63530403e-001
      1.76051319e-001 3.22047248e-002 2.04648972e-002 1.35892667e-002
      4.35560457e-002 1.63490638e-001 2.87467301e-001 2.87467301e-001
      1.68195322e-001 2.87467301e-001 1.36522740e-001 1.33548290e-001
      5.35919517e-003 1.46355137e-001 1.58340007e-001 2.09838763e-001
      2.09633380e-001 1.34815887e-001 1.27211362e-001 7.54525736e-002
      2.08875984e-002 1.71888142e-003 1.35241225e-001 1.32533699e-001
      2.09642544e-001 2.64979213e-001 2.63647288e-001 1.80479333e-001
      8.41149762e-002 5.68839088e-002 2.91499048e-002 2.01316401e-001
      2.59589761e-001 2.64979213e-001 1.97824702e-001 8.63993168e-002
      8.24930146e-002 6.43309206e-002 3.61163877e-002 0. 2.15770811e-001
      2.31128410e-001 2.64979213e-001 2.64979213e-001 2.64979213e-001
      8.42931867e-002 5.98447509e-002 2.85931360e-002 1.20974667e-001
      1.48087382e-001 1.79448694e-001 1.02114424e-001 7.02776611e-002
      1.24971546e-001 2.05485761e-001 1.34936303e-001 3.91928479e-002
      2.43958816e-001 1.69161126e-001 1.68970615e-001 2.10248381e-001
      1.54467702e-001 1.12492263e-001 9.45038721e-002 3.91725264e-002
      1.71054035e-001 6.96992651e-002 8.16614479e-002 2.31558695e-001
      1.55446678e-001 2.65230983e-001 2.65230983e-001 1.95350811e-001
      1.06371552e-001 8.21371526e-002 1.51370555e-001 1.06722735e-001
      1.75280213e-001 1.60508394e-001 2.65230983e-001 2.65230983e-001
      2.57117271e-001 6.22714683e-003 1.21012434e-001 7.54248649e-002
      9.76132601e-002 4.17384505e-002 2.48623610e-001 1.40602216e-001
      9.55664888e-002 1.64346442e-001 3.56767848e-002 3.31187807e-002
      5.64055704e-002 1.24825798e-001 2.77545333e-001 2.79813617e-001
      2.55446613e-001 1.07443698e-001 2.56133318e-001 2.90587991e-002
      1.35392053e-002 6.00471199e-002 9.18970257e-002 2.94101276e-002
      1.94668189e-001 1.23243384e-001 2.79813617e-001 2.79813617e-001
      3.31296772e-002 1.39321787e-002 6.02763444e-002 9.26338062e-002
      9.14931670e-002 2.79813617e-001 2.79813617e-001 2.45125428e-001
      2.79813617e-001 5.60034811e-002 7.19853444e-003 0. 1.21663988e-001
      7.10467547e-002 7.04180077e-002 2.04797402e-001 1.98883638e-001
      1.99461356e-001 9.36515480e-002 3.27175111e-002 1.74647108e-001
      1.12321831e-001 1.43273503e-001 1.32692933e-001 2.65700310e-001
      2.65700310e-001 9.34140235e-002 4.76416089e-002 1.12942994e-001 0.
      2.26118892e-001 2.65700310e-001 2.22298801e-001 2.65700310e-001
      1.27855659e-001 1.19480312e-001 1.87209584e-002 8.38011596e-003
      1.01055130e-001 2.33720779e-001 2.65700310e-001 1.72026709e-001
      2.65700310e-001 2.65700310e-001 4.84579988e-002 4.41814102e-002
      1.09141961e-001 1.41468629e-001 8.83506387e-002 1.11559726e-001
      1.94388092e-001 2.62145877e-001 2.41287351e-001 2.62145877e-001
      5.86883305e-003 1.49396285e-002 1.96111664e-001 1.25515014e-001
      1.19010873e-001 1.31471828e-001 2.62145877e-001 1.52477860e-001
      2.12634176e-001 2.99990047e-002 3.78093943e-002 1.66736543e-001
      1.19135551e-001 1.27503604e-001 8.25573802e-002 1.78105652e-001
      2.18389139e-001 2.62145877e-001 7.06459433e-002 6.53322488e-002
      2.55285829e-001 2.33800620e-001 9.60133448e-002 1.46373466e-001
      1.45446494e-001 1.35928243e-001 2.62145877e-001 1.14718750e-001
      6.15129545e-002 6.94249049e-002 3.13716941e-002 1.63858399e-001
      1.90128878e-001 1.61734864e-001 1.33932948e-001 9.82776806e-002
      1.00286476e-001 5.35608642e-002 1.29044905e-001 9.08774734e-002
      7.21920133e-002 6.82642385e-002 2.22835854e-001 1.65240243e-001
      1.64955586e-001 3.12261105e-001 6.00747056e-002 1.45656109e-001
      1.35226697e-001 1.56506956e-001 1.29931360e-001 3.12261105e-001
      1.46588385e-001 3.64861116e-002 1.76410317e-001 1.14118449e-001
      9.06976834e-002 2.09562946e-002 9.14398134e-002 2.11555019e-001
      3.12261105e-001 2.07568973e-001 1.05057202e-001 3.12261105e-001
      2.55069882e-001 4.75734547e-002 2.80699925e-003 6.02478385e-002
      3.13562416e-002 1.60698563e-001 2.65286863e-001 2.19866633e-001
      9.58395228e-002 7.04791024e-002 8.90704617e-002 4.00999881e-004
      7.00935498e-002 9.66639146e-002 2.65286863e-001 2.47512847e-001
      2.65286863e-001 1.23839065e-001 1.08678639e-001 4.37103659e-002
      1.39963103e-003 1.76239356e-001 1.21851996e-001 2.65286863e-001
      1.97852373e-001 1.38366356e-001 1.80180371e-001 1.69614166e-001
      1.15841456e-001 9.79741849e-003 1.71239316e-001 7.00482428e-002
      2.65286863e-001 2.24757031e-001 2.65286863e-001 2.65286863e-001
      1.82483897e-001 8.46593082e-003 2.34718844e-002 5.70700355e-002
      2.00210065e-001 2.56689578e-001 2.56689578e-001 1.29910842e-001
      5.29467501e-002 2.13956963e-002 5.80212511e-002 4.55232821e-002
      1.54766664e-001 2.23429978e-001 2.56689578e-001 2.34218583e-001
      1.25410721e-001 6.48988858e-002 1.49769887e-001 1.64454766e-002
      7.10235238e-002 2.00851694e-001 2.56689578e-001 2.56689578e-001
      2.56689578e-001 7.25351498e-002 4.05490622e-002 2.23980360e-002
      7.75213018e-002 1.92542180e-001 2.28443637e-001 2.56689578e-001
      2.56689578e-001 2.56689578e-001 7.79657364e-002 4.27587666e-002
      8.68731141e-002 2.17494592e-002 1.15002833e-001 1.62468210e-001
      2.52395213e-001 1.94782153e-001 1.34892359e-001 7.03030974e-002
      1.00559592e-001 1.07388236e-002 1.50558380e-002 2.13386282e-001
      2.62680024e-001 2.62680024e-001 1.16965830e-001 6.67107478e-002
      2.60325167e-002 1.33442611e-001 1.45078488e-002 6.73730969e-002
      2.62680024e-001 1.44986361e-001 1.70592040e-001 2.62680024e-001
      2.62680024e-001 1.17564023e-001 1.10365711e-001 1.93978194e-002
      1.04857430e-001 2.62680024e-001 2.62680024e-001 2.62680024e-001
      2.62680024e-001 1.36170238e-001 4.50453535e-002 6.71018064e-002
      3.95963863e-002 6.50264323e-002 4.69575152e-002 1.82454288e-001
      2.36767173e-001 2.01658204e-001 8.60399753e-002 7.26308376e-002
      8.81466568e-002 1.06138021e-001 7.40347356e-002 1.13709681e-001
      2.52696753e-001 2.52696753e-001 2.28018507e-001 8.42669755e-002
      1.51959777e-001 1.03651419e-001 1.10564806e-001 3.16981017e-003
      2.26098299e-002 2.33254701e-001 2.32356265e-001 2.52696753e-001
      8.07923451e-002 1.31611228e-001 2.22277567e-001 2.47247458e-001
      7.53383934e-002 1.13031939e-001 2.52696753e-001 2.52696753e-001
      2.52696753e-001 9.29439515e-002 9.18670744e-002 8.72985572e-002
      1.90153137e-001 7.34463781e-002 8.62750411e-002 1.46300465e-001
      1.43176541e-001 1.39350489e-001 2.63215482e-001 2.60337353e-001
      3.65506634e-002 5.15899025e-002 6.21414855e-002 1.08723104e-001
      6.48322999e-002 1.19744770e-001 2.63215482e-001 2.63215482e-001
      2.63215482e-001 9.84003171e-002 5.97152859e-002 1.00083932e-001
      2.07942724e-001 2.04991281e-001 1.56939670e-001 1.74835473e-001
      1.59661874e-001 9.80589539e-002 1.32393062e-001 9.11413729e-002
      1.29589126e-001 1.93081111e-001 9.08622071e-002 2.63215482e-001
      1.86321467e-001 2.63215482e-001 1.90857232e-001 1.51633844e-001
      1.42783314e-001 7.09461868e-002 2.82169580e-002 4.88791503e-002
      5.52236959e-002 2.44490504e-001 2.57561892e-001 2.57561892e-001
      1.28050685e-001 3.53394151e-002 1.10859454e-001 1.52224246e-002
      1.04418486e-001 2.30572581e-001 1.65421501e-001 2.57561892e-001
      2.55888671e-001 3.63490246e-002 3.41173224e-002 3.61685194e-002
      8.40721428e-002 7.60687813e-002 7.33444914e-002 2.57561892e-001
      2.57561892e-001 1.97307900e-001 2.57561892e-001 9.33436155e-002
      9.84746963e-002 2.84928624e-002 1.34885341e-001 1.25434741e-001
      2.27433503e-001 2.57561892e-001 2.57561892e-001 1.80846348e-001
      1.00300521e-001 5.60784750e-002 3.06843501e-002 1.51817232e-001
      1.81475207e-001 2.48198286e-001 7.62792230e-002 7.87367299e-002
      2.46781781e-001 1.73028529e-001 1.11261986e-001 1.15363948e-001
      2.55821466e-001 2.11322635e-001 1.01661459e-001 2.25770548e-001
      9.46050510e-002 2.39082187e-001 1.32432416e-001 1.15619853e-001
      2.77540321e-003 1.94505110e-001 2.44865701e-001 2.43801400e-001
      1.36194199e-001 7.93014988e-002 1.01042137e-001 2.12293208e-001
      7.59128183e-002 4.03702743e-002 2.55821466e-001 2.55821466e-001
      1.28931418e-001 1.10128231e-001 4.09911759e-002 1.91716328e-001
      1.89679489e-001 1.14629522e-001 1.52270898e-001 9.83977467e-002
      1.35244265e-001 1.48532748e-001 7.17331395e-002 4.81713228e-002
      5.71551621e-002 1.36380225e-001 1.19912893e-001 9.59777907e-002
      1.65700823e-001 1.73562795e-001 2.55883157e-001 1.68650404e-001
      1.81575879e-001 2.55883157e-001 1.57788381e-001 8.28876123e-002
      8.56280699e-002 1.00064136e-001 2.55883157e-001 2.55883157e-001
      1.57240331e-001 5.32144532e-002 1.16755255e-001 2.08308667e-001
      1.09709255e-001 2.19265576e-002 2.55883157e-001 2.55883157e-001
      2.55883157e-001 2.19283208e-001 1.01299509e-001 2.06635386e-001
      1.83238521e-001 1.90788493e-001 2.78895441e-002 3.30055977e-004
      7.13086978e-004 2.50866324e-001 3.06296557e-001 3.42476785e-001
      1.80426110e-002 3.43772471e-002 0. 2.43695849e-003 9.46142827e-004
      1.33819617e-002 1.88432038e-001 1.13779463e-001 9.02284607e-002
      4.11182530e-002 1.43504946e-003 2.39252269e-001 3.00049260e-002
      2.31039175e-003 4.62245243e-003 3.42476785e-001 3.42476785e-001
      2.86342829e-001 1.77247636e-002 7.74697214e-002 2.60905060e-003
      1.99775416e-002 3.85065307e-003 1.82326864e-002 3.42476785e-001
      3.42476785e-001 8.59329551e-002 3.91605124e-002 8.29572044e-003
      7.27654994e-002 6.76098019e-002 1.20877914e-001 1.96387425e-001
      2.86740959e-001 8.78155380e-002 9.91596580e-002 2.73066573e-002
      2.82834843e-002 7.95829371e-002 1.25229612e-001 7.54425898e-002
      2.85879761e-001 2.86740959e-001 6.53037354e-002 6.85846284e-002
      1.07789330e-001 3.84680443e-002 5.70781752e-002 7.64604285e-002
      1.91888139e-001 2.15466887e-001 2.19813406e-001 7.21253902e-002
      7.10867196e-002 2.18408868e-001 1.48281559e-001 1.46718606e-001
      1.55383304e-001 2.20572680e-001 2.20243081e-001 2.75944531e-001
      3.69515307e-002 1.16883971e-001 2.86740959e-001 2.86740959e-001
      1.62135139e-001 5.11223488e-002 4.64636050e-002 1.63158923e-001
      2.21082419e-001 9.74118933e-002 2.66940981e-001 4.06692699e-002
      7.64586553e-002 1.65202275e-001 9.24986899e-002 6.39360845e-002
      1.30006820e-001 2.49381766e-001 2.61468500e-001 2.66940981e-001
      9.20255333e-002 1.14821047e-001 1.20166838e-001 3.68787907e-002
      2.80622002e-002 2.52012927e-002 2.31793329e-001 2.66940981e-001
      2.66940981e-001 5.04231006e-002 1.06436014e-001 1.32008895e-001
      1.26014248e-001 1.76874116e-001 5.99874780e-002 2.66940981e-001
      2.66940981e-001 2.19670668e-001 7.86499828e-002 1.72456518e-001
      9.17614251e-002 2.20924333e-001 7.71607682e-002 1.54306352e-001
      9.50327441e-002 1.26123086e-001 6.50048330e-002 1.12863794e-001
      7.15761185e-002 1.55566931e-001 5.24651110e-002 2.52515897e-002
      2.55610257e-001 2.55610257e-001 1.75321817e-001 8.11290145e-002
      2.55610257e-001 1.16709620e-001 3.95465195e-002 2.55610257e-001
      2.45169267e-001 2.55610257e-001 7.22212419e-002 1.59783095e-001
      7.65554160e-002 8.81325081e-002 4.58118394e-002 1.22334264e-001
      6.02315925e-002 1.78838730e-001 2.55610257e-001 2.55610257e-001
      1.99486136e-001 1.10135511e-001 2.55610257e-001 2.27061257e-001
      2.21266616e-002 0. 0. 1.63250559e-004 3.02896440e-001
      3.06133956e-001 1.40242502e-001 6.14502206e-002 6.44179955e-002
      2.19659254e-001 6.97442912e-004 0. 1.29187026e-003 1.15650415e-001
      2.92322785e-001 1.22132733e-001 9.30364504e-002 3.06133956e-001
      7.83148482e-002 5.22212125e-004 0. 0. 2.29129642e-001
      3.06133956e-001 2.37094685e-001 8.56492370e-002 1.79719284e-001
      3.06133956e-001 0. 0. 0. 4.85900268e-002 2.09867626e-001
      1.51743665e-001 1.18131280e-001 3.06133956e-001 2.37072051e-001
      3.03926826e-001 1.94409024e-002 0. 0. 1.80265470e-005
      1.11683989e-002 8.19884166e-002 4.21517119e-002 3.50211740e-001
      1.63460195e-001 8.85040034e-003 0. 0. 0. 5.18959248e-004
      1.67507445e-003 1.89322114e-001 3.50211740e-001 3.50211740e-001
      1.53606623e-001 0. 0. 0. 5.11864573e-002 1.92931876e-001
      5.09325527e-002 3.50211740e-001 3.00346643e-001 8.24615508e-002 0.
      0. 0. 0. 0. 3.50211740e-001 4.58473004e-002 0. 0. 0.
      6.43513128e-002 1.46838114e-001 2.79371142e-001 2.84469873e-001
      2.04283819e-001 7.77909241e-004 1.96778827e-004 7.49650004e-004
      6.20634947e-003 1.58842146e-001 1.78600624e-001 1.51130021e-001
      4.15726192e-002 4.50900430e-003 7.55604953e-002 0. 0.
      2.62954913e-004 2.80954212e-001 3.06328982e-001 3.06328982e-001
      3.06328982e-001 2.59574294e-001 2.25903699e-003 9.56201518e-004
      3.17026209e-003 1.59982368e-002 3.06328982e-001 3.06328982e-001
      2.50245512e-001 5.06750047e-002 2.46706273e-004 1.55788347e-001
      7.53903296e-003 4.80771698e-002 2.14831263e-001 2.23566607e-001
      8.06550980e-002 6.87543005e-002 3.11719924e-002 1.48003131e-001
      2.58076787e-001 8.56858306e-003 1.22075118e-001 8.47585946e-002
      2.72903293e-001 7.46439621e-002 1.61407053e-001 1.51249841e-001
      1.80694237e-001 1.30877733e-001 2.30907686e-002 2.39873737e-001
      2.72903293e-001 2.72903293e-001 1.60436362e-001 8.25482830e-002
      1.81713142e-002 1.05840184e-001 2.41252393e-001 8.41851905e-002
      2.72903293e-001 1.52477577e-001 2.72903293e-001 1.90426871e-001
      1.70964405e-001 4.15126793e-002 1.30591333e-001 3.48424345e-001
      4.04733643e-002 5.22556081e-002 4.11084034e-002 3.48424345e-001
      1.40313670e-001 6.50541559e-002 8.74427631e-002 2.45244369e-001
      3.48424345e-001 8.94418061e-002 1.39992470e-002 1.23997228e-002
      1.57776307e-002 5.66888088e-003 1.43235493e-002 7.10828602e-002
      3.23908061e-001 1.34134725e-001 6.64134622e-002 4.28795218e-002
      8.37087110e-002 3.48424345e-001 3.48424345e-001 1.72210969e-002 0.
      5.58491088e-002 2.89036989e-001 1.30894706e-001 3.11881639e-002
      6.41349480e-002 1.50859579e-001 6.92267194e-002 5.92376366e-002
      1.99025515e-002 3.26202996e-002 8.04562122e-002 2.83524126e-001
      2.83524126e-001 2.83524126e-001 7.30379671e-002 4.44593579e-002
      1.53548524e-001 1.38993219e-001 1.17814653e-002 2.83524126e-001
      2.06695229e-001 2.64061183e-001 2.31720030e-001 4.01058309e-002 0.
      0. 0. 1.50182664e-001 1.29503310e-002 2.31683254e-002
      1.68153211e-001 2.83524126e-001 2.83524126e-001 1.81291401e-001
      8.31273422e-002 1.61478780e-002 3.37976776e-003 1.70428097e-001
      2.85165906e-002 6.22366592e-002 2.78291702e-001 2.83524126e-001
      6.69090673e-002 2.43984796e-002 7.83496257e-003 4.46795449e-002
      4.23668511e-003 0. 0. 2.87624844e-003 4.12549794e-001
      4.06566411e-001 1.99882872e-002 1.05612287e-002 4.66682622e-003 0.
      2.93657836e-003 8.46541196e-004 4.00631689e-003 4.12549794e-001
      3.26420903e-001 2.82894867e-003 2.89930322e-004 2.01233925e-004
      1.10409711e-003 2.43389804e-004 0. 7.78381452e-002 4.12549794e-001
      1.32341012e-001 2.39770021e-003 3.51769006e-004 1.15147326e-003 0.
      1.15837716e-003 1.82461459e-003 6.95566386e-002 4.12549794e-001
      1.19222067e-001 3.46373324e-003 0. 0. 1.22435391e-001
      1.68757930e-001 1.80066377e-001 1.37542680e-001 1.70877859e-001
      2.31805965e-001 2.74889991e-002 4.85706031e-002 8.39095935e-002
      8.42444524e-002 1.72786400e-001 2.31493026e-001 2.46492535e-001
      2.46492535e-001 1.81151569e-001 1.05970360e-001 1.01524822e-001
      1.49791762e-001 6.45475537e-002 1.78387180e-001 1.38361484e-001
      2.46492535e-001 2.46492535e-001 1.12009645e-001 2.25442946e-002
      4.76330295e-002 1.70550808e-001 1.66548252e-001 1.51916623e-001
      1.81496322e-001 2.18546391e-001 2.28104696e-001 1.18375443e-001
      1.39408633e-001 1.48219481e-001 2.46492535e-001</_>
    <_>
      8.75245407e-002 9.05224904e-002 7.82268718e-002 1.14859834e-001
      1.15583137e-001 1.06927365e-001 2.74745882e-001 2.78258055e-001
      1.41710564e-001 2.23089337e-001 1.65217131e-001 2.69399911e-001
      1.93197876e-001 8.41259286e-002 8.15201830e-003 9.79585722e-002
      1.25352785e-001 2.78258055e-001 5.64303286e-002 1.64479807e-001
      2.78258055e-001 1.43642783e-001 7.28081092e-002 1.35282233e-001
      1.98247015e-001 1.03929207e-001 3.02346610e-002 9.42432135e-002
      2.11519495e-001 2.78258055e-001 2.78258055e-001 3.81089039e-002
      5.69901541e-002 1.26849353e-001 5.15011214e-002 1.80493966e-001
      1.93919793e-001 3.66393961e-002 1.03496313e-002 4.32661511e-002
      1.16277389e-001 3.59568968e-002 1.64353371e-001 1.94590881e-001
      2.86382228e-001 2.86382228e-001 8.94550383e-002 3.02576763e-003
      3.26787196e-002 7.55779371e-002 1.78092476e-002 1.09982707e-001
      1.33240879e-001 2.86382228e-001 1.01605095e-001 3.96982096e-002
      7.92625025e-002 1.33346513e-001 1.33273304e-001 2.51197875e-001
      2.44085550e-001 1.86710134e-001 2.41262883e-001 2.86382228e-001
      1.11976728e-001 6.01177141e-002 8.65335986e-002 8.43976289e-002
      1.14548683e-001 2.19689772e-001 2.44680285e-001 2.86382228e-001
      1.49752572e-001 8.76582116e-002 2.80584902e-001 2.80584902e-001
      2.44331434e-001 3.95541489e-002 6.09464012e-002 1.28829561e-003
      5.73475510e-002 2.92468127e-002 4.40361463e-002 1.56086072e-001
      2.80584902e-001 2.80584902e-001 1.93183973e-001 1.28349930e-001
      2.03117523e-002 3.55060436e-002 1.09576181e-001 7.36105964e-002
      7.82986954e-002 2.80584902e-001 2.80584902e-001 1.07534938e-001
      4.15619761e-002 1.84058957e-002 8.95526111e-002 7.70854801e-002
      9.70777050e-002 1.12406969e-001 2.80584902e-001 2.80584902e-001
      2.80584902e-001 9.53202099e-002 9.96943638e-002 1.24142222e-001
      1.59557424e-002 1.64914146e-001 1.08933583e-001 1.97338432e-001
      2.00757742e-001 1.50459498e-001 6.11418746e-002 3.90507877e-002
      6.75626546e-002 3.67442630e-002 1.76033154e-001 2.50421107e-001
      2.05114603e-001 1.96053147e-001 1.71634063e-001 1.39586195e-001
      1.34376019e-001 1.13363616e-001 1.05616584e-001 2.04682350e-001
      1.11583509e-001 2.50421107e-001 2.50421107e-001 1.38907731e-001
      6.35444745e-002 8.48228708e-002 1.32321253e-001 9.99360457e-002
      1.13514498e-001 1.11896969e-001 2.50421107e-001 1.95831731e-001
      1.65871724e-001 2.50421107e-001 2.50421107e-001 2.50421107e-001
      9.78308544e-002 1.41266525e-001 1.15843505e-001 9.52586159e-002
      8.18827078e-002 1.09516248e-001 1.88144177e-001 4.09872308e-002
      4.64852564e-002 1.35200843e-001 7.39140362e-002 2.25478441e-001
      9.52150449e-002 1.40751392e-001 1.69413254e-001 2.59309500e-001
      1.52188763e-001 2.53583282e-001 7.72297457e-002 2.59309500e-001
      2.59309500e-001 8.48400891e-002 2.43382514e-001 1.08455382e-001
      1.54752061e-001 6.48461208e-002 5.94158694e-002 1.40000835e-001
      2.52162546e-001 2.59309500e-001 4.71079573e-002 2.10975677e-001
      1.52601227e-001 2.59309500e-001 6.33691847e-002 2.41979271e-001
      1.08802781e-001 3.61371934e-002 1.72181696e-001 9.92276818e-002
      2.22876638e-001 2.20412776e-001 1.00280829e-001 4.16465774e-002
      1.01193801e-001 1.20782912e-001 2.02699780e-001 2.25508630e-001
      1.10750973e-001 2.62588680e-001 7.97079876e-002 2.33885963e-002
      1.62360817e-001 1.34607926e-001 1.47121280e-001 1.75034851e-002
      1.49754971e-001 2.50848293e-001 2.62588680e-001 1.94409326e-001
      1.29435077e-001 1.13216341e-001 1.79252356e-001 1.09204397e-001
      1.90452754e-001 2.62588680e-001 1.84897378e-001 2.62588680e-001
      2.59816766e-001 2.94710267e-002 1.18567534e-001 8.27550068e-002
      2.57589780e-002 5.44740111e-002 1.84759215e-001 1.24517240e-001
      2.02685222e-001 2.37814024e-001 3.06704771e-002 8.51586536e-002
      1.12360366e-001 1.20774657e-001 1.19130597e-001 2.37814024e-001
      6.95868060e-002 1.23714387e-001 1.86418250e-001 1.15203768e-001
      1.69952124e-001 2.37814024e-001 7.55460486e-002 4.43297289e-002
      1.10122390e-001 2.19535068e-001 2.37814024e-001 2.28879511e-001
      2.06028730e-001 1.51105821e-001 5.70605844e-002 1.69281602e-001
      2.20949680e-001 2.01653361e-001 2.37814024e-001 2.37814024e-001
      1.50685340e-001 2.37814024e-001 1.40561551e-001 1.05879851e-001
      8.13203901e-002 4.15007770e-002 3.03759538e-002 2.12098598e-001
      1.34846747e-001 2.45374188e-001 6.15530796e-002 1.53002173e-001
      1.55199572e-001 1.07785113e-001 3.46899927e-002 2.70234078e-001
      2.78985769e-001 1.83893606e-001 1.71784237e-001 1.83180436e-001
      1.27750650e-001 1.57960534e-001 1.55493304e-001 2.15314120e-001
      1.09829761e-001 2.14879528e-001 1.41336843e-001 1.29822478e-001
      1.15933351e-001 1.88221231e-001 8.00323784e-002 1.86429664e-001
      9.60203037e-002 2.78985769e-001 2.78985769e-001 1.18557177e-001
      4.46000695e-002 5.90389185e-002 1.82374552e-001 1.95311546e-001
      4.16209884e-002 3.60305943e-002 8.25796798e-002 6.40450940e-002
      2.41607547e-001 1.33894712e-001 2.25891560e-001 6.43301383e-002
      8.30787197e-002 3.16566415e-002 6.37190640e-002 1.31177053e-001
      2.15074584e-001 2.50568002e-001 1.00083552e-001 2.38126770e-001
      1.82283774e-001 1.30626708e-001 2.67479382e-002 1.85655728e-001
      1.51491821e-001 1.51100680e-001 2.41213933e-001 1.79978356e-001
      2.10144714e-001 8.04403573e-002 8.12562853e-002 1.38132842e-002
      2.50568002e-001 1.66230828e-001 2.08585188e-001 2.50568002e-001
      2.50568002e-001 1.51735604e-001 1.50281236e-001 2.50568002e-001
      1.91833913e-001 6.88943118e-002 3.45121957e-002 1.28545672e-001
      9.93356854e-002 7.81336054e-002 1.23400494e-001 1.15111180e-001
      9.82253999e-002 1.98075801e-001 1.69085816e-001 8.62131566e-002
      1.32393986e-001 1.21710308e-001 1.24802984e-001 9.09087956e-002
      1.74671665e-001 5.65421656e-002 2.37875611e-001 4.69669923e-002
      1.82347015e-001 2.53893167e-001 1.42406672e-001 1.18007526e-001
      1.53854966e-001 2.12811530e-001 2.53893167e-001 2.24163577e-001
      1.06367022e-001 1.99776784e-001 2.53893167e-001 2.53893167e-001
      9.61843506e-002 2.03337610e-001 2.53893167e-001 2.22191900e-001
      7.47934058e-002 1.75564215e-001 2.07541287e-001 1.13644473e-001
      7.27900192e-002 8.62357616e-002 9.87357348e-002 3.09142768e-002
      9.61917192e-002 5.73390089e-002 2.15738282e-001 2.45617434e-001
      1.13380834e-001 1.26976728e-001 1.48014218e-001 2.07042977e-001
      2.03661621e-001 8.94465074e-002 1.08775139e-001 9.49147865e-002
      2.00300217e-001 6.37005642e-002 2.00898558e-001 2.76007980e-001
      1.03739150e-001 1.10133953e-001 2.02173561e-001 2.68088859e-002
      7.27384612e-002 2.25511581e-001 6.67378977e-002 1.13915786e-001
      2.76007980e-001 2.65691102e-001 2.76007980e-001 2.76007980e-001
      1.08941376e-001 1.38204157e-001 5.43069206e-002 5.88865243e-002
      2.22192794e-001 1.90847248e-001 8.79950896e-002 1.29503369e-001
      2.90178526e-002 1.44429371e-001 2.61935085e-001 2.90621333e-002
      6.77260980e-002 2.30431527e-001 1.94794744e-001 2.32997179e-001
      1.57510310e-001 7.60780275e-002 1.31943285e-001 8.06441680e-002
      7.91449249e-002 6.13530986e-002 2.61935085e-001 2.21835300e-001
      1.53519467e-001 2.61935085e-001 5.52000366e-002 1.71842337e-001
      1.20167717e-001 1.12796471e-001 4.86701243e-002 2.31097564e-001
      2.61935085e-001 2.61935085e-001 2.61935085e-001 1.12843223e-001
      8.74871388e-002 6.07386455e-002 3.41675207e-002 1.42713666e-001
      7.00758249e-002 1.28167868e-001 2.13494286e-001 2.15269759e-001
      1.59495920e-001 8.27302113e-002 2.43414156e-002 2.50519384e-002
      1.76090896e-001 1.94602668e-001 1.65059835e-001 1.83465615e-001
      2.52578467e-001 1.18379951e-001 7.63111934e-002 8.00259784e-002
      1.27288401e-001 2.52578467e-001 1.04656570e-001 2.52578467e-001
      1.87099084e-001 1.95039511e-001 1.03550531e-001 2.05461770e-001
      1.90809935e-001 1.85745403e-001 2.52578467e-001 2.52578467e-001
      2.52578467e-001 1.27068549e-001 1.77696973e-001 8.52371380e-002
      1.20016195e-001 1.30127728e-001 2.32718065e-001 8.30754116e-002
      6.67573139e-002 1.13099329e-001 5.94198555e-002 1.55384704e-001
      8.09630230e-002 6.43278062e-002 8.31935033e-002 2.32752606e-001
      7.27519318e-002 2.61341691e-001 2.63367385e-001 1.49159163e-001
      2.61383682e-001 1.00285359e-001 1.56023845e-001 1.26829430e-001
      2.18339950e-001 5.92430718e-002 2.58439511e-001 2.63367385e-001
      1.04040064e-001 1.41922429e-001 1.71453282e-002 8.05458352e-002
      1.41147017e-001 2.63367385e-001 1.10392138e-001 2.63367385e-001
      2.63367385e-001 1.68754548e-001 9.23129320e-002 4.43912856e-002
      2.02807322e-001 1.51879832e-001 7.75509551e-002 3.23914550e-002
      1.54747203e-001 2.50410259e-001 8.89286250e-002 1.43662095e-001
      1.29103601e-001 1.56076878e-001 2.44352326e-001 1.29609942e-001
      9.47585627e-002 1.34574518e-001 2.54084527e-001 5.62506802e-002
      1.57473132e-001 1.15622006e-001 1.11559860e-001 1.32734179e-001
      1.51535168e-001 2.12124698e-002 1.02562487e-001 2.54084527e-001
      2.00725600e-001 1.87698871e-001 1.72718465e-001 9.73949507e-002
      2.40667313e-001 2.54084527e-001 1.17340229e-001 2.54084527e-001
      2.54084527e-001 1.71266735e-001 1.30798861e-001 7.27035925e-002
      2.97769811e-002 7.94749856e-002 9.52836126e-002 9.60189030e-002
      2.30951160e-001 2.70881265e-001 7.08672777e-002 5.18405735e-002
      7.96477869e-002 9.94513556e-002 1.53884321e-001 1.55485824e-001
      1.70533955e-001 2.70881265e-001 1.97769001e-001 5.97113604e-003
      1.43524045e-002 1.35259226e-001 7.39422366e-002 2.70881265e-001
      5.31516261e-002 1.92644402e-001 2.70881265e-001 2.08147660e-001
      8.21757317e-002 7.17609599e-002 8.02614391e-002 1.44172996e-001
      2.70881265e-001 2.23798707e-001 2.70881265e-001 2.70881265e-001
      2.55500615e-001 2.61341431e-003 9.57182329e-003 5.44071123e-002
      4.00297791e-002 5.52718751e-002 1.39698610e-001 6.16024286e-002
      1.95928097e-001 1.32927209e-001 3.57922204e-002 4.88333888e-002
      7.74198547e-002 1.27561390e-001 2.74257734e-002 1.08745217e-001
      3.44811082e-002 2.07701221e-001 2.62243539e-001 1.49674909e-002
      5.21121025e-002 2.49057576e-001 2.62243539e-001 1.84965491e-001
      5.29617630e-002 1.15842462e-001 2.62243539e-001 2.61557728e-001
      2.30461672e-001 2.62243539e-001 2.62243539e-001 1.62553459e-001
      3.15324962e-002 2.87763849e-002 1.42441437e-001 2.62243539e-001
      2.62243539e-001 9.26142558e-002 1.00740798e-001 2.11947352e-001
      5.89455888e-002 2.72779129e-002 4.42989506e-002 1.01216033e-001
      1.71604082e-001 2.42747411e-001 1.99767336e-001 2.02264890e-001
      5.27007617e-002 9.25102159e-002 7.68281743e-002 1.56836718e-001
      1.02438644e-001 1.27363116e-001 2.55751550e-001 2.55751550e-001
      1.49743915e-001 1.14322767e-001 7.43723139e-002 4.19494044e-003
      1.48303524e-001 2.37778336e-001 1.11310713e-001 2.28181332e-001
      1.42566726e-001 2.16334656e-001 1.41776875e-001 1.08482234e-001
      2.38226485e-002 1.19433142e-001 2.55751550e-001 1.29630208e-001
      2.55751550e-001 2.55751550e-001 2.55751550e-001 1.90157980e-001
      8.59224796e-002 6.19958714e-002 5.16501516e-002 2.66682446e-001
      2.06151769e-001 7.49006495e-002 2.06704557e-001 1.33693233e-001
      8.90218392e-002 4.48819995e-002 6.74598292e-002 5.59424572e-002
      2.15325907e-001 2.90476292e-001 1.99499294e-001 2.04840988e-001
      2.52465814e-001 4.09101024e-002 1.17285863e-001 8.10039192e-002
      1.20815329e-001 1.47020906e-001 2.90476292e-001 7.21959248e-002
      1.99923903e-001 1.76135957e-001 1.13639168e-001 1.12112030e-001
      8.69289711e-002 5.62153049e-002 1.66740969e-001 2.90476292e-001
      2.27039441e-001 1.73808739e-001 2.30755493e-001 8.57115537e-002
      1.72344580e-001 1.46874070e-001 1.09047413e-001 2.05305845e-001
      1.24339879e-001 7.31690377e-002 2.90193949e-002 1.45547271e-001
      2.50744559e-002 2.48643115e-001 1.76060513e-001 2.74184108e-001
      2.27573141e-001 9.38638672e-002 6.67713881e-002 5.13834804e-002
      1.27245098e-001 1.27480164e-001 7.12984428e-002 2.11249903e-001
      2.43930221e-001 1.66459098e-001 8.46954957e-002 2.04285696e-001
      1.04768589e-001 2.41030261e-001 2.40158848e-002 2.46336237e-001
      2.14111134e-001 2.74184108e-001 2.74184108e-001 3.95930782e-002
      1.62067339e-001 7.64234811e-002 1.43552989e-001 1.17048144e-001
      1.85061842e-002 8.21850598e-002 5.28542437e-002 1.68739003e-003
      1.51554510e-001 3.77919436e-001 2.06372008e-001 4.10375977e-003
      1.78618412e-002 4.94733825e-003 1.60285886e-002 8.97904765e-003
      9.85240564e-003 1.92696914e-001 3.77919436e-001 4.17213514e-002
      9.81687475e-003 6.31499942e-003 1.82275567e-002 4.51827422e-002
      5.08285016e-002 1.32456999e-002 3.77919436e-001 3.77919436e-001
      8.96223783e-002 1.27465557e-002 2.11067721e-002 1.09192291e-002
      1.93852652e-003 2.94855470e-003 7.55266240e-003 3.77919436e-001
      3.77919436e-001 4.78112027e-002 7.20236748e-002 5.09442165e-002
      7.82439783e-002 3.66782285e-002 1.10446267e-001 4.76762056e-002
      1.15375042e-001 3.16941813e-002 2.65588965e-002 8.95314664e-002
      1.17736287e-001 1.67108580e-001 3.16431001e-002 1.22385956e-001
      3.26697603e-002 1.02923825e-001 1.00665733e-001 7.63298944e-002
      1.61043465e-001 2.03452393e-001 3.72107238e-001 2.96122521e-001
      1.19921155e-001 4.58588265e-002 3.13871279e-002 7.69690261e-004
      2.29157098e-002 1.83453321e-001 2.77884841e-001 3.72107238e-001
      3.17540765e-001 1.76668376e-001 2.77382042e-002 2.10655238e-002
      2.17299145e-002 1.85553748e-002 1.80465385e-001 3.72107238e-001
      5.33256419e-002 3.45333330e-002 6.41320646e-002 3.22221294e-002
      1.64522812e-001 2.80868918e-001 2.52326846e-001 6.73438460e-002
      2.45789364e-002 1.34925544e-001 3.64710391e-002 3.17817926e-002
      1.47830367e-001 2.80868918e-001 2.80868918e-001 1.97993383e-001
      2.25478653e-002 8.04072991e-002 1.33020893e-001 2.84888241e-002
      1.31749362e-002 3.08209043e-002 1.53816164e-001 2.80868918e-001
      2.80868918e-001 2.39840806e-001 1.48982972e-001 9.67616066e-002
      2.16129292e-002 5.54424636e-002 2.25284711e-001 2.13569462e-001
      2.80868918e-001 2.61966914e-001 9.76505503e-002 1.40684396e-001
      7.15190619e-002 1.02918908e-001 1.44828647e-001 1.89499602e-001
      9.24423486e-002 2.21458629e-001 1.18826337e-001 3.89674306e-002
      7.70051703e-002 6.71545863e-002 1.71384308e-002 2.03375444e-001
      2.11226866e-001 2.42175251e-001 1.48079693e-001 4.11266983e-002
      2.31729046e-001 2.42175251e-001 1.41354933e-001 1.38470098e-001
      1.85531810e-001 1.08120747e-001 1.71002164e-001 1.39423043e-001
      1.27283424e-001 9.51626077e-002 2.05835119e-001 1.85335800e-001
      6.63888901e-002 2.30109662e-001 1.85168669e-001 2.42175251e-001
      1.69837862e-001 1.71118513e-001 2.42175251e-001 2.39667833e-001
      3.18149067e-002 1.58369336e-002 2.73776948e-002 2.72734761e-002
      2.71621011e-002 1.45704165e-001 2.79991359e-001 2.68146217e-001
      7.94164911e-002 2.79991359e-001 0. 0. 0. 1.59819070e-002
      9.94276330e-002 2.79991359e-001 2.79991359e-001 2.79991359e-001
      8.01697373e-002 2.04867255e-002 2.60362197e-002 1.28539428e-001
      2.74235625e-002 4.25138399e-002 2.79991359e-001 2.52617329e-001
      9.53738242e-002 2.79991359e-001 2.60347291e-003 5.41199688e-006 0.
      0. 2.55083051e-002 2.79991359e-001 2.79991359e-001 2.79991359e-001
      2.92932123e-001 2.92932123e-001 1.09721504e-001 0. 0. 0.
      2.55633686e-002 1.84470162e-001 5.68304732e-002 2.92932123e-001
      2.91146934e-001 6.58329055e-002 0. 0. 0. 0. 0. 2.92932123e-001
      2.92932123e-001 2.92932123e-001 1.84532210e-001 0. 0. 0.
      3.65824215e-002 1.68856978e-001 6.01558201e-002 2.92932123e-001
      2.92932123e-001 1.34967536e-001 0. 0. 0. 0. 0. 2.92932123e-001
