<?xml version="1.0"?>
<opencv_storage>
<my_svm type_id="opencv-ml-svm">
  <svm_type>C_SVC</svm_type>
  <kernel><type>RBF</type>
    <gamma>4.0000000000000001e-002</gamma></kernel>
  <C>10.</C>
  <term_criteria><epsilon>1.1920928955078125e-007</epsilon>
    <iterations>1000</iterations></term_criteria>
  <var_all>1152</var_all>
  <var_count>1152</var_count>
  <class_count>2</class_count>
  <class_labels type_id="opencv-matrix">
    <rows>1</rows>
    <cols>2</cols>
    <dt>i</dt>
    <data>
      -1 1</data></class_labels>
  <sv_total>59</sv_total>
  <support_vectors>
    <_>
      0. 0. 0. 0. 0. 0. 0. 0. 0. 0. 0. 0. 0. 0. 0. 0. 0. 0. 0. 0. 0. 0.
      0. 0. 0. 0. 0. 0. 0. 0. 0. 0. 0. 0. 0. 0. 0. 0. 0. 0. 0. 0. 0. 0.
      0. 0. 0. 0. 0. 0. 0. 0. 0. 0. 0. 0. 0. 0. 0. 0. 0. 0. 0. 0. 0. 0.
      0. 0. 0. 0. 0. 0. 0. 0. 0. 0. 0. 0. 0. 0. 0. 0. 0. 0. 0. 0. 0. 0.
      0. 0. 0. 0. 0. 0. 0. 0. 0. 0. 0. 0. 0. 0. 0. 0. 0. 0. 0. 0. 0. 0.
      0. 0. 0. 0. 0. 0. 0. 0. 0. 0. 0. 0. 0. 0. 0. 0. 0. 0. 0. 0. 0. 0.
      0. 0. 0. 0. 0. 0. 0. 0. 0. 0. 0. 0. 9.16649774e-002
      8.46362731e-004 1.92549497e-001 1.84463382e-001 2.10138634e-001
      9.80971009e-002 3.40890661e-002 4.53110412e-002 2.18138039e-001
      5.49188219e-002 1.20908968e-004 2.75070667e-002 2.63519101e-002
      2.61291683e-001 1.53877631e-001 2.04534382e-002 2.71866247e-002
      1.30882829e-001 2.45459750e-002 0. 3.02070916e-001 3.38476628e-001
      3.38476628e-001 3.38476628e-001 5.68151027e-002 7.55184069e-002
      9.58881602e-002 1.47275859e-002 0. 4.31529917e-002 8.00891146e-002
      3.38476628e-001 3.38476628e-001 3.40890661e-002 4.53110412e-002
      5.75328991e-002 0. 0. 0. 0. 1.29968841e-002 0. 0. 0. 0.
      2.04166919e-001 2.35127425e-003 4.11450490e-002 4.62775558e-001
      4.86768097e-001 0. 0. 0. 7.91702643e-002 0. 0. 0. 0.
      9.20718238e-002 0. 0. 0. 0. 8.18685964e-002 3.86856287e-003
      6.85750842e-002 4.86768097e-001 4.86768097e-001 1.87862609e-002 0.
      0. 8.82909633e-003 0. 0. 0. 0. 4.35481250e-001 3.66714001e-001
      1.71910167e-001 0. 0. 0. 0. 0. 0. 0. 0. 0. 0. 0. 0. 0. 0. 0.
      5.22522628e-001 5.22522628e-001 3.08294713e-001 0. 0. 0. 0. 0. 0.
      0. 0. 0. 0. 0. 5.53584024e-002 0. 1.75595999e-001 1.70258924e-001
      1.30383164e-001 2.92511005e-002 2.12798938e-002 2.78795883e-002
      1.33061394e-001 9.17223319e-002 0. 1.05357580e-001 1.02155350e-001
      2.98654884e-001 1.66527972e-001 3.54664922e-002 4.64659818e-002
      2.21227318e-001 1.39577193e-002 0. 2.43023485e-001 3.39733750e-001
      3.39733750e-001 1.53011143e-001 3.54664922e-002 4.64659818e-002
      5.91568351e-002 2.32628658e-002 0. 1.45814106e-001 3.24682683e-001
      3.39733750e-001 3.39733750e-001 5.91108166e-002 7.74432942e-002
      9.85947102e-002 0. 0. 0. 1.61777498e-004 4.98753071e-001
      2.28944802e-004 0. 0. 0. 0. 0. 0. 2.69629149e-004 4.98753071e-001
      3.27064045e-005 0. 0. 0. 0. 0. 0. 0. 4.98753071e-001 0. 0. 0. 0.
      0. 0. 0. 0. 4.98753071e-001 0. 0. 0. 0. 0. 0. 0. 0.
      8.48141685e-002 0. 0. 0. 0. 0. 0. 0. 2.53508013e-004
      6.97670043e-001 0. 0. 0. 0. 0. 0. 0. 0. 1.11153968e-001 0. 0. 0.
      0. 0. 0. 0. 0. 6.97670043e-001 0. 0. 0. 0. 0. 0. 0.
      2.80729641e-004 7.04615593e-001 0. 0. 0. 0. 0. 0. 0. 0. 0. 0. 0.
      0. 0. 0. 0. 0. 0. 7.04615593e-001 0. 0. 0. 0. 0. 0. 0. 0. 0. 0. 0.
      0. 0. 0. 0. 0. 4.20376200e-005 4.98752743e-001 2.10179962e-004 0.
      0. 0. 0. 0. 0. 2.94263329e-004 4.98752743e-001 1.26107974e-004 0.
      0. 0. 0. 0. 0. 0. 4.98752743e-001 8.47006042e-004 0. 0. 0. 0. 0.
      0. 0. 4.98752743e-001 8.73868237e-004 0. 0. 0. 0. 0. 0. 0.
      4.98726904e-001 2.71061086e-003 0. 0. 0. 0. 0. 0. 0.
      4.98726904e-001 4.51768562e-003 0. 0. 0. 0. 0. 0. 0.
      4.98726904e-001 4.51768562e-003 0. 0. 0. 0. 0. 0. 0.
      4.98726904e-001 7.52947619e-003 0. 0. 0. 0. 0. 0. 0.
      8.48104954e-002 0. 0. 0. 0. 0. 0. 0. 0. 6.97670639e-001 0. 0. 0.
      0. 0. 0. 0. 0. 1.11149147e-001 0. 0. 0. 0. 0. 0. 0. 0.
      6.97670639e-001 0. 0. 0. 0. 0. 0. 0. 0. 7.04615593e-001 0. 0. 0.
      0. 0. 0. 0. 0. 0. 0. 0. 0. 0. 0. 0. 0. 0. 7.04615593e-001 0. 0. 0.
      0. 0. 0. 0. 0. 0. 0. 0. 0. 0. 0. 0. 0. 0. 4.98753071e-001
      3.52834846e-004 0. 0. 0. 0. 0. 0. 0. 4.98753071e-001
      3.64025647e-004 0. 0. 0. 0. 0. 0. 0. 4.98753071e-001 0. 0. 0. 0.
      0. 0. 0. 0. 4.98753071e-001 0. 0. 0. 0. 0. 0. 0. 3.12184729e-003
      4.98743683e-001 0. 0. 0. 0. 0. 0. 0. 5.20307897e-003
      4.98743683e-001 0. 0. 0. 0. 0. 0. 0. 2.90490047e-004
      4.98743683e-001 3.88724642e-004 0. 0. 0. 0. 0. 0. 4.84150107e-004
      4.98743683e-001 6.47874433e-004 0. 0. 0. 0. 0. 0. 0.
      8.48104954e-002 0. 0. 0. 0. 0. 0. 0. 0. 6.97670639e-001 0. 0. 0.
      0. 0. 0. 0. 0. 1.11149147e-001 0. 0. 0. 0. 0. 0. 0. 0.
      6.97670639e-001 0. 0. 0. 0. 0. 0. 0. 0. 7.04615593e-001 0. 0. 0.
      0. 0. 0. 0. 0. 0. 0. 0. 0. 0. 0. 0. 0. 0. 7.04615593e-001 0. 0. 0.
      0. 0. 0. 0. 0. 0. 0. 0. 0. 0. 0. 0. 0. 1.94119907e-003
      4.98727471e-001 6.34473632e-004 0. 0. 0. 0. 0. 0. 5.85932238e-003
      4.98727471e-001 1.05745613e-003 0. 0. 0. 0. 0. 0. 4.72351443e-003
      4.98727471e-001 1.05745613e-003 0. 0. 0. 0. 0. 0. 6.02419022e-003
      4.98727471e-001 1.76242669e-003 0. 0. 0. 0. 0. 0. 7.27622025e-003
      4.98192608e-001 9.99479927e-003 0. 0. 0. 0. 0. 0. 3.11970431e-003
      4.98192608e-001 3.44514567e-003 0. 0. 0. 0. 0. 0. 2.77655069e-002
      4.98192608e-001 3.19629014e-002 0. 0. 0. 1.35245296e-004 0. 0.
      1.23692555e-002 4.98192608e-001 1.09948982e-002 0. 0.
      1.35245296e-004 0. 0. 0. 0. 8.48517641e-002 0. 0. 0. 0. 0. 0. 0.
      0. 6.97661221e-001 0. 0. 0. 0. 9.55740921e-004 0. 0. 0.
      1.11203238e-001 0. 0. 0. 9.55740921e-004 5.40047011e-004 0. 0.
      2.19968008e-003 6.97661221e-001 0. 0. 0. 5.40047011e-004 0. 0. 0.
      0. 7.04605818e-001 0. 0. 0. 0. 0. 0. 0. 0. 0. 0. 0. 0. 0.
      1.44097710e-003 0. 0. 0. 7.04605818e-001 0. 0. 0. 1.44097710e-003
      3.42116831e-003 0. 0. 0. 0. 0. 0. 0. 3.42116831e-003 0. 0. 0.
      2.66239862e-003 4.98506367e-001 1.01355242e-003 0. 0. 0. 0. 0. 0.
      8.80390219e-003 4.98506367e-001 3.74567416e-003 0. 0. 0.
      5.93187360e-005 0. 0. 4.49000951e-003 4.98506367e-001
      5.26338490e-003 0. 0. 5.93187360e-005 0. 0. 0. 2.77345926e-002
      4.98506367e-001 8.37681256e-003 0. 0. 0. 9.78174582e-002
      9.70016867e-002 8.75655338e-002 1.27893806e-001 1.78260982e-001
      2.56732672e-001 2.01875865e-001 6.97096065e-002 1.10514119e-001
      2.56732672e-001 2.56732672e-001 1.96515635e-001 2.32621744e-001
      1.58362538e-001 8.89183134e-002 7.14483783e-002 9.33807641e-002
      2.56732672e-001 1.56903807e-002 5.52939177e-002 1.18093342e-001
      2.13755533e-001 2.56732672e-001 1.65354013e-001 1.65400043e-001
      3.85387391e-002 6.05236925e-002 7.80160502e-002 1.56179443e-001
      2.43418753e-001 2.56732672e-001 2.56732672e-001 1.31811604e-001
      9.94703397e-002 3.91947404e-002 1.50269449e-001 3.10685337e-001
      8.48075189e-003 0. 0. 2.45233439e-003 7.25354417e-004
      1.19947137e-004 2.44759955e-002 3.10685337e-001 3.10685337e-001
      1.37177080e-001 7.63287023e-002 1.47158384e-001 1.67613551e-001
      9.73282233e-002 1.06767461e-001 1.93857566e-001 3.10685337e-001
      2.81569034e-001 1.07117936e-004 0. 4.33788373e-004 3.86575516e-003
      5.07748080e-003 8.39629851e-004 1.43795582e-002 2.62752861e-001
      2.62396932e-001 6.64036274e-002 8.27494860e-002 1.04604848e-001
      3.10685337e-001 1.08728580e-001 1.90303043e-001 1.52720317e-001
      2.64129251e-001 3.60553086e-001 7.95914009e-002 1.19692400e-001
      1.19343258e-001 4.01712507e-002 4.61180657e-002 0. 1.59677751e-002
      3.60553086e-001 3.60553086e-001 0. 1.87253361e-004 2.63916038e-004
      0. 0. 0. 2.28111050e-003 3.60553086e-001 2.54648596e-001
      4.77548465e-002 1.18495762e-001 2.04044163e-001 8.84084851e-002
      3.95037234e-002 2.38478999e-003 2.74099130e-002 2.11052343e-001
      3.60553086e-001 0. 1.31077354e-003 1.84741244e-003 8.82064342e-004
      0. 8.58924643e-004 4.08888841e-003 3.60553086e-001 2.54897565e-001
      1.16879493e-001 7.22567812e-002 1.77424520e-001 1.23552367e-001
      2.76262015e-001 2.33109325e-001 1.31661505e-001 1.78776011e-001
      1.66670352e-001 1.80963397e-001 7.38090649e-002 2.76262015e-001
      2.76262015e-001 1.70559719e-001 9.89888906e-002 3.39823253e-002
      5.34407096e-003 1.06406704e-001 8.53892565e-002 4.50420305e-002
      1.88069791e-001 2.76262015e-001 2.76262015e-001 1.02785796e-001
      6.39123023e-002 5.09307981e-002 1.13095522e-001 1.18988581e-001
      3.07000671e-002 1.41622141e-001 2.76262015e-001 2.76262015e-001
      3.71454582e-002 1.12852734e-002 7.63438642e-004 3.16296034e-002 0.
      0. 0. 1.82023406e-001 1.42026857e-001 3.69303584e-001
      6.89488128e-002 8.84392709e-002 3.69303584e-001 1.32947729e-003
      3.97828780e-003 0. 1.42706737e-001 2.41480485e-001 3.69303584e-001
      3.69303584e-001 3.69303584e-001 2.04872880e-002 0. 0. 0.
      1.11786770e-002 5.13682142e-003 2.71618329e-002 7.78740691e-003
      2.86029559e-002 2.60203540e-001 0. 0. 0. 2.28543952e-002
      8.56136903e-003 4.52697203e-002 5.45118451e-002 3.05448979e-001
      4.25982714e-001 0. 0. 0. 4.13821224e-004 0. 5.74564037e-004
      3.17074737e-004 4.25982714e-001 4.25982714e-001 1.38646320e-001
      6.35441765e-002 7.73012685e-003 2.72581093e-002 0. 4.02194820e-003
      2.21952307e-003 4.25982714e-001 2.19059303e-001 0. 0. 0.
      9.82529833e-004 0. 0. 0. 2.19778225e-001 2.91865855e-001
      7.96441361e-003 3.57439509e-003 0. 1.01958830e-002 0. 0. 0.
      2.53294557e-001 4.32530075e-001 1.50983408e-003 1.12572999e-003
      2.20543123e-003 3.57275596e-003 8.87175789e-004 1.57283656e-002
      1.80017613e-002 4.32530075e-001 4.32530075e-001 4.61029267e-004
      1.00326841e-004 2.05216915e-004 0. 0. 0. 0. 4.32530075e-001
      2.04826564e-001 7.80755607e-003 2.89776968e-003 3.67571856e-003
      1.05424703e-003 0. 1.93288794e-003 2.24716333e-003 2.12422535e-001
      2.82838702e-001 2.79606902e-003 1.67211401e-004 3.42028186e-004 0.
      0. 2.04982949e-004 6.85017003e-005 2.82101065e-001 3.40996116e-001
      3.40996116e-001 3.40996116e-001 3.40996116e-001 3.40996116e-001 0.
      4.10260633e-003 4.54726716e-004 3.40996116e-001 4.63425070e-002
      9.10800621e-002 8.69507045e-002 2.50642508e-001 3.16711336e-001 0.
      0. 0. 2.04568673e-002 2.53327489e-001 9.18329433e-002
      5.68629196e-003 7.02293683e-003 5.69417849e-002 0. 0. 0.
      1.99392289e-001 1.67266745e-002 1.30114378e-002 4.90485458e-004
      1.00327667e-003 3.23498659e-002 0. 0. 0. 1.30287269e-002</_>
    <_>
      0. 0. 0. 0. 0. 0. 0. 0. 0. 0. 0. 0. 0. 0. 0. 0. 0. 0. 0. 0. 0. 0.
      0. 0. 0. 0. 0. 0. 0. 0. 0. 0. 0. 0. 0. 0. 0. 0. 0. 0. 0. 0. 0. 0.
      0. 0. 0. 0. 0. 0. 0. 0. 0. 0. 0. 0. 0. 0. 0. 0. 0. 0. 0. 0. 0. 0.
      0. 0. 0. 0. 0. 0. 0. 0. 0. 0. 0. 0. 0. 0. 0. 0. 0. 0. 0. 0. 0. 0.
      0. 0. 0. 0. 0. 0. 0. 0. 0. 0. 0. 0. 0. 0. 0. 0. 0. 0. 0. 0. 0. 0.
      0. 0. 0. 0. 0. 0. 0. 0. 0. 0. 0. 0. 0. 0. 0. 0. 0. 0. 0. 0. 0. 0.
      0. 0. 0. 0. 0. 0. 0. 0. 0. 0. 0. 0. 4.88161221e-002 0. 0. 0. 0. 0.
      0. 0. 4.88161221e-002 1.83466207e-002 0. 0. 0. 0. 0. 0. 0.
      1.83466207e-002 5.05819738e-001 4.36721221e-002 1.30683139e-001 0.
      3.45746309e-001 0. 2.69525766e-001 9.00707543e-002 5.05819738e-001
      1.44878641e-001 0. 0. 0. 2.84338415e-001 0. 3.45730364e-001
      1.15537010e-001 1.44878641e-001 0. 0. 0. 0. 8.47380236e-003 0. 0.
      0. 0. 6.02190616e-003 2.67538317e-002 8.00573602e-002 0.
      3.07593286e-001 0. 0. 0. 6.02190616e-003 0. 3.28248157e-003
      9.82239842e-003 0. 3.64393890e-002 0. 3.75539577e-003
      1.25498720e-003 0. 1.00365113e-002 6.91799447e-002 2.07011968e-001
      3.21011633e-001 8.51579964e-001 0. 4.43550572e-002 9.73993987e-002
      2.71472912e-002 3.42651606e-001 1.04765117e-001 6.58377036e-002
      5.81172816e-002 1.81970447e-002 3.91924143e-004 0. 4.47567290e-004
      3.42651606e-001 3.42651606e-001 6.73033239e-004 0. 2.95140228e-004
      1.87012944e-007 0. 0. 1.46949998e-004 3.42651606e-001
      3.42651606e-001 6.79502860e-002 1.19190387e-001 2.02911869e-001
      1.37800679e-001 3.12143732e-002 4.51923208e-003 3.35015170e-003
      2.75097370e-001 3.42651606e-001 1.25724694e-003 4.05542145e-004
      2.06598174e-003 2.06492934e-003 8.61859124e-004 4.21348697e-004
      2.01009121e-003 3.42651606e-001 2.81508327e-001 0. 2.57885130e-003
      5.39297983e-003 0. 9.09863319e-003 1.11529287e-002 6.03937823e-003
      2.81508327e-001 2.81508327e-001 3.13051336e-004 1.49480421e-002
      1.06419802e-001 7.12157264e-002 1.24312289e-001 9.85191911e-002
      4.22756560e-002 2.81508327e-001 2.81508327e-001 6.39708107e-003
      6.13768026e-002 6.41344711e-002 6.47772476e-002 1.56790018e-002
      2.95719039e-002 3.67456046e-003 2.81508327e-001 2.77079344e-001
      4.36283089e-002 2.81508327e-001 2.81508327e-001 2.81508327e-001
      1.42832607e-001 2.11086854e-001 6.31245822e-002 2.81508327e-001
      1.04418742e-002 4.18535471e-002 1.35162324e-001 1.19175859e-001
      3.82955134e-001 3.82955134e-001 7.87079558e-002 1.59219250e-001
      7.03367516e-002 3.95697355e-003 3.12471122e-004 9.35032731e-004
      2.18932648e-004 2.19748870e-001 2.09055260e-001 1.22126965e-002
      2.45592762e-002 1.32478047e-002 3.99801601e-003 2.71858275e-003
      4.73846868e-002 1.64327472e-001 3.82955134e-001 3.82955134e-001
      4.41500805e-002 2.20537763e-002 3.99801601e-003 1.72257994e-003
      5.20785223e-004 1.55838800e-003 1.88360247e-003 3.82955134e-001
      2.59386003e-001 8.93689319e-003 6.17995346e-003 2.25867424e-003
      9.44627635e-003 3.21565632e-004 9.62243183e-004 0. 2.71122474e-002
      0. 1.82668882e-004 6.10448915e-005 9.44627635e-003 6.53123781e-002
      6.27750009e-002 4.39073741e-002 5.27909458e-001 5.27909458e-001
      4.84999828e-003 1.27868215e-003 4.27314197e-004 6.96272496e-003
      1.61727816e-002 1.62924098e-005 4.87529105e-005 0. 7.98383877e-002
      0. 1.09594082e-003 3.66245105e-004 1.61727816e-002 9.50013101e-003
      8.91844835e-003 6.12463150e-003 3.74549896e-001 5.27909458e-001
      7.40424357e-003 1.13068672e-003 3.77856602e-004 9.50013101e-003
      3.64419222e-001 2.75954488e-003 1.76765083e-003 1.05801988e-002
      1.94427907e-001 1.43964082e-001 1.57836080e-001 1.81818441e-001
      3.64419222e-001 3.64419222e-001 1.40725504e-004 1.23679661e-003
      1.51751318e-003 4.36359784e-003 0. 4.76502394e-003 2.32237242e-002
      3.64419222e-001 1.33861914e-001 1.34544540e-003 4.02608607e-003
      1.70819424e-002 3.64419222e-001 2.05044553e-001 1.49240149e-002
      1.76409595e-002 1.71453401e-001 2.50009179e-001 1.21946132e-003
      3.64909368e-003 2.04982539e-003 2.74498463e-002 0. 0.
      2.30571697e-003 2.48317942e-001 2.36601248e-001 9.29578394e-002
      1.31754160e-001 1.53184310e-001 9.54537913e-002 3.47358547e-003
      3.33696778e-004 9.97668505e-003 2.41758794e-001 6.75521865e-002
      7.05958903e-002 3.55657578e-001 3.55657578e-001 3.55657578e-001
      1.98198739e-003 3.87076034e-005 2.00554021e-002 8.51720795e-002
      6.71005845e-002 1.08616324e-002 7.08999531e-003 1.85349062e-001
      3.55657578e-001 4.55425633e-003 4.39204799e-004 1.56902010e-003
      6.89202920e-002 1.71057712e-002 6.51697954e-003 4.96299677e-002
      3.55657578e-001 3.55657578e-001 5.13464725e-003 0. 2.37040874e-003
      2.32414603e-002 9.01152525e-005 0. 0. 5.00788260e-003
      4.98729229e-001 5.15241548e-003 2.34321960e-005 7.83062842e-006
      9.01152525e-005 0. 0. 0. 4.19182208e-004 4.98729229e-001
      2.31428491e-003 1.64025376e-004 5.48143980e-005 0. 7.59666182e-006
      1.87846836e-005 5.62109381e-005 2.25943327e-003 4.98729229e-001
      4.97531891e-003 0. 0. 7.59666182e-006 0. 1.31492779e-004
      3.93476541e-004 1.23084325e-003 4.98729229e-001 2.60244403e-003 0.
      0. 0. 0. 0. 0. 0. 6.48378581e-002 0. 1.82254080e-004
      6.09062699e-005 0. 0. 0. 0. 2.91890837e-003 7.00554490e-001
      7.90113769e-003 3.03756795e-004 1.01510457e-004 0. 0. 0. 0. 0.
      8.43053460e-002 0. 0. 0. 0. 0. 0. 0. 3.01144971e-003
      7.00554490e-001 7.87674170e-003 0. 0. 0. 0. 0. 0. 2.20598001e-003
      6.97997153e-001 3.14947497e-003 0. 0. 0. 0. 0. 0. 0.
      8.26957673e-002 0. 0. 0. 0. 0. 0. 0. 3.89845297e-003
      6.97997153e-001 0. 0. 0. 0. 0. 0. 0. 0. 1.08460255e-001 0. 0. 0.
      0. 0. 0. 0. 0. 4.98748511e-001 1.67119491e-004 0. 0. 0.
      1.93509739e-004 0. 0. 0. 4.98748511e-001 1.63560675e-003 0. 0.
      1.93509739e-004 0. 0. 0. 0. 4.98748511e-001 0. 0. 0. 0.
      4.21562581e-004 0. 0. 0. 4.98748511e-001 3.90693638e-003 0. 0.
      4.21562581e-004 4.90595994e-005 7.90021750e-006 2.36404667e-005
      9.34891310e-003 4.98670548e-001 4.77670692e-003 0. 0.
      4.90595994e-005 0. 5.53015234e-005 1.65483245e-004 4.80325939e-003
      4.98670548e-001 1.21855282e-003 0. 0. 0. 1.41239667e-004 0. 0.
      1.22262491e-002 4.98670548e-001 4.57630912e-003 0. 0.
      1.41239667e-004 0. 0. 0. 5.01508452e-003 4.98670548e-001 0. 0. 0.
      0. 0. 0. 0. 0. 6.43475503e-002 0. 0. 0. 0. 0. 0. 0.
      7.62466155e-003 7.00521886e-001 1.52684702e-003 0. 0. 0. 0. 0. 0.
      0. 8.52238983e-002 0. 0. 0. 0. 0. 0. 0. 7.86639377e-003
      7.00521886e-001 4.39570192e-003 0. 0. 0. 0. 0. 0. 6.78352430e-004
      6.97928667e-001 9.37727746e-003 0. 0. 0. 0. 0. 0. 0.
      8.19187686e-002 0. 0. 0. 0. 0. 0. 0. 0. 6.97928667e-001
      1.49994073e-002 0. 0. 0. 0. 0. 0. 0. 1.08628027e-001 0. 0. 0. 0.
      0. 0. 0. 0. 4.98748779e-001 0. 0. 0. 0. 1.92879394e-004 0. 0. 0.
      4.98748779e-001 1.35263044e-003 0. 0. 1.92879394e-004 0. 0. 0. 0.
      4.98748779e-001 0. 0. 0. 0. 3.59210622e-004 0. 0. 0.
      4.98748779e-001 3.89414304e-003 0. 0. 3.59210622e-004
      1.58383598e-004 0. 0. 5.82840946e-003 4.98720169e-001
      2.15570652e-003 0. 0. 1.58383598e-004 0. 0. 0. 1.95880118e-003
      4.98720169e-001 4.98290872e-004 0. 0. 0. 2.02764742e-004 0. 0.
      4.20845207e-003 4.98720169e-001 7.72162247e-003 0. 0.
      2.02764742e-004 4.91795945e-005 0. 0. 6.01207488e-004
      4.98720169e-001 3.35108279e-003 0. 0. 4.91795945e-005 0. 0. 0. 0.
      6.49780780e-002 0. 0. 0. 0. 0. 0. 0. 0. 7.00571239e-001 0. 0. 0.
      0. 7.94007152e-004 1.45386250e-004 4.35049413e-004 0.
      8.47471654e-002 0. 0. 0. 7.94007152e-004 2.22591349e-004
      2.42310431e-004 7.25082471e-004 0. 7.00571239e-001 0. 0. 0.
      2.22591349e-004 0. 0. 0. 1.99958668e-004 6.97866619e-001 0. 0. 0.
      0. 0. 0. 0. 0. 8.36101025e-002 0. 0. 0. 0. 0. 0. 0. 0.
      6.97866619e-001 4.79704497e-004 0. 0. 0. 0. 0. 0. 0.
      1.09575950e-001 0. 0. 0. 0. 0. 0. 0. 0. 4.98747319e-001 0. 0. 0.
      0. 2.42084963e-004 0. 0. 1.02844299e-003 4.98747319e-001
      1.35399320e-003 0. 0. 2.42084963e-004 0. 0. 0. 0. 4.98747319e-001
      0. 0. 0. 0. 2.74280581e-004 0. 0. 0. 4.98747319e-001
      4.46413830e-003 0. 0. 2.74280581e-004 4.36721183e-002
      1.12857725e-002 2.78503485e-002 2.08187446e-001 2.99414635e-001
      1.47316590e-001 6.28408119e-002 1.53120514e-002 5.06961383e-002
      1.55103311e-001 1.89401023e-002 5.02649462e-003 1.08257242e-001
      2.99414635e-001 1.60802361e-002 1.53372390e-003 1.11042177e-002
      1.74755201e-001 2.52946168e-001 1.52596176e-001 2.06556007e-001
      2.43371516e-001 2.79073656e-001 1.30739436e-001 2.38430053e-001
      1.94922358e-001 1.16708912e-001 2.99414635e-001 2.06280038e-001
      1.38810098e-001 1.20792136e-001 1.47587433e-001 1.14901001e-002
      7.75617501e-003 7.57147297e-002 2.99414635e-001 1.85679674e-001
      1.59619201e-003 3.97548079e-004 5.58903627e-003 1.77321844e-002
      4.35261434e-004 2.12792133e-004 3.46613606e-003 1.87376067e-001
      1.77258000e-001 2.68835723e-002 6.62580016e-004 4.15728465e-002
      3.50667238e-001 1.16145946e-001 5.86133543e-003 1.92097165e-002
      1.51414096e-001 3.50667238e-001 2.10729704e-004 3.85279331e-004
      3.41622485e-003 3.21014039e-003 0. 0. 2.61528865e-002
      3.50667238e-001 3.50667238e-001 2.02108026e-001 3.15734856e-002
      5.27704507e-002 3.50667238e-001 1.29094124e-001 4.47608382e-002
      2.32483357e-001 3.50667238e-001 0. 2.51267164e-004 2.84604859e-002
      4.74286526e-001 4.74286526e-001 3.04893544e-003 0. 0. 0. 0.
      3.58953112e-005 1.07412459e-004 0. 8.20073560e-002 0. 0. 0. 0. 0.
      2.83790100e-002 2.93210417e-001 4.74286526e-001 4.74286526e-001 0.
      0. 0. 0. 0. 4.23960417e-004 1.26865110e-003 0. 3.38800997e-002 0.
      0. 0. 0. 0. 0. 0. 1.10175181e-003 3.23899090e-001 1.70505479e-001
      4.74731391e-003 3.77553632e-003 1.67819683e-003 6.41679810e-003 0.
      1.13334268e-001 2.67614007e-001 3.23899090e-001 3.23899090e-001
      2.20452081e-002 2.26905867e-002 1.81641765e-002 1.02906609e-002 0.
      0. 1.16819552e-004 2.51397073e-001 2.49353111e-001 7.88042229e-003
      2.34919880e-002 3.02200150e-002 7.59543255e-002 9.30104114e-004
      3.23899090e-001 2.15847671e-001 3.23899090e-001 3.23899090e-001
      3.75989601e-002 1.58574343e-001 2.15459809e-001 4.85874750e-002
      2.71956529e-003 2.38294990e-004 1.06856534e-002 2.95538694e-001
      2.97765940e-001 2.97765940e-001 1.18533149e-001 9.72038433e-002
      2.97765940e-001 1.91074871e-002 3.97158321e-004 7.20133306e-003
      8.34250152e-002 2.11063743e-001 2.92516559e-001 1.83951825e-001
      2.97765940e-001 9.10508856e-002 3.88509303e-004 0. 0.
      7.00814873e-002 6.44273162e-002 2.40357339e-001 1.12192437e-001
      1.90017894e-001 2.97765940e-001 2.71956529e-003 0. 0.
      1.50423823e-002 3.83582823e-002 1.73156381e-001 1.57726184e-001
      2.97765940e-001 3.19722384e-001 3.54148238e-003 3.65870888e-004
      1.05328171e-003 1.93138723e-004 2.18656816e-004 2.73456186e-004
      1.99834205e-004 3.19722384e-001 3.19722384e-001 9.92772430e-002
      2.25113988e-001 2.74748653e-001 9.08624455e-002 6.26575947e-003
      4.55760281e-004 1.52307097e-004 3.19722384e-001 3.19722384e-001
      1.96349667e-003 8.41198256e-004 0. 6.06829017e-005 0. 0. 0.
      3.19722384e-001 3.19722384e-001 1.29558846e-001 1.22032590e-001
      4.94713485e-002 2.37501450e-002 1.97016099e-003 0. 5.40761335e-004
      3.19722384e-001 8.63553584e-003 4.85852510e-002 1.45385593e-001 0.
      7.48937070e-001 0. 4.54630032e-002 1.51929390e-002 8.63553584e-003
      0. 0. 0. 0. 5.43447398e-002 0. 0. 0. 0. 3.30869965e-002
      5.08497730e-002 1.52161926e-001 0. 6.00334704e-001 0.
      9.52992067e-002 3.18473391e-002 3.30869965e-002 0. 0. 0. 0.
      6.55269399e-002 0. 0. 0. 0. 1.05257504e-001 0. 0. 0.
      2.83259928e-001 0. 1.35495543e-001 4.52803485e-002 1.05257504e-001
      5.43017030e-001 5.56509309e-002 1.66528806e-001 0. 2.12207541e-001
      0. 3.20904702e-001 1.07240982e-001 5.43017030e-001 2.83754859e-002
      0. 0. 0. 2.24435423e-002 0. 7.06009641e-002 2.35936623e-002
      2.83754859e-002 1.68735072e-001 3.33905593e-002 9.99172926e-002 0.
      1.34661254e-002 0. 1.17668286e-001 3.93227749e-002 1.68735072e-001</_>
    <_>
      3.15637290e-001 2.79789418e-002 8.13708678e-002 3.79658714e-002
      6.35967925e-002 3.63917463e-002 8.77878338e-005 5.01757095e-005
      2.39496320e-001 3.15637290e-001 4.59859846e-003 1.87819693e-002
      5.11848787e-003 4.29881853e-004 5.02935844e-003 1.03686424e-003
      3.81232763e-004 3.15637290e-001 3.15637290e-001 4.17998396e-002
      2.39839926e-001 7.48409033e-002 2.41341338e-001 3.15637290e-001
      1.09764181e-001 3.65105923e-004 2.53973514e-001 3.15637290e-001
      8.88118614e-003 8.46036598e-002 9.72101931e-003 5.22474274e-002
      1.30437836e-001 2.63702888e-002 4.45934059e-003 3.15637290e-001
      3.45642895e-001 0. 0. 0. 2.62327230e-005 0. 0. 0. 3.45642895e-001
      3.45642895e-001 0. 0. 0. 5.30811492e-003 1.00111319e-002
      3.89871895e-002 3.18115652e-002 3.45642895e-001 3.45642895e-001
      2.07277946e-003 0. 0. 6.29290298e-004 1.05277065e-003
      2.00737442e-004 0. 3.45642895e-001 3.45642895e-001 3.45463259e-003
      3.90982896e-005 4.81867827e-002 1.21521249e-001 8.17897022e-002
      6.56350181e-002 1.00146338e-001 3.45642895e-001 4.24508844e-003
      2.70316564e-003 8.08887091e-003 1.26387151e-002 7.04228580e-001 0.
      2.40853103e-003 8.04890762e-004 4.24508844e-003 0. 0. 0. 0.
      1.32757304e-002 0. 0. 0. 0. 6.06441288e-004 0. 0. 7.58322980e-003
      7.04228580e-001 0. 1.51120117e-002 5.05016884e-003 6.06441288e-004
      0. 0. 0. 0. 1.81934051e-002 0. 0. 0. 0. 6.83835968e-002 0. 0. 0.
      1.21646620e-001 0. 5.07718557e-003 1.69670617e-003 6.83835968e-002
      1.13972656e-001 0. 0. 0. 1.77198425e-001 0. 3.55402976e-002
      1.18769426e-002 1.13972656e-001 1.00502327e-001 4.08145562e-002
      1.22132257e-001 0. 3.81671906e-001 0. 1.06661573e-001
      1.80745557e-001 1.30568847e-001 1.67503864e-001 2.44887359e-002
      7.32793510e-002 0. 4.93468195e-001 0. 4.47784275e-001
      3.91476899e-001 2.17614740e-001 3.39846797e-002 1.88225489e-002 0.
      1.01889800e-002 2.25304589e-001 2.20772624e-001 2.67528296e-001
      1.85522631e-001 5.34466133e-002 2.35250652e-001 2.23360136e-002
      2.17904133e-004 9.06616915e-003 6.49999902e-002 1.89917669e-001
      2.61765152e-001 1.37296915e-001 2.67528296e-001 4.63719442e-002
      2.16807704e-002 0. 2.61710342e-002 2.67528296e-001 2.67528296e-001
      2.67528296e-001 4.55999412e-002 3.65603529e-002 2.63215482e-001
      3.61346193e-002 0. 4.36183959e-002 2.67528296e-001 2.19639748e-001
      2.07596287e-001 6.16178103e-002 2.67528296e-001 3.03575188e-001
      2.55454890e-002 1.41352019e-003 2.75761035e-004 0. 0. 0.
      4.03153681e-004 3.03575188e-001 3.03575188e-001 2.28096277e-001
      1.75299495e-001 1.47138193e-001 7.23781362e-002 8.63989964e-002
      4.77840491e-002 2.82207597e-003 3.03575188e-001 3.03575188e-001
      1.13474801e-002 7.27898208e-004 0. 4.71742731e-003 0.
      2.11052466e-004 2.89260619e-003 3.03575188e-001 3.03575188e-001
      1.08015202e-001 6.91064820e-002 1.35978088e-001 3.03575188e-001
      9.04268324e-002 6.18355200e-002 1.98720824e-002 3.03575188e-001 0.
      1.87703036e-003 5.61679062e-003 0. 5.28326094e-001 2.59332657e-001
      1.66157052e-001 1.34974137e-001 3.51653136e-002 0. 2.47069838e-004
      7.39327224e-004 0. 1.04073035e-002 0. 1.29077199e-003
      4.31353314e-004 0. 0. 2.47069838e-004 7.39327224e-004
      8.52129480e-004 5.28326094e-001 5.28326094e-001 1.78692967e-001
      6.05124682e-002 5.02361590e-003 0. 3.52956922e-005 1.05618172e-004
      0. 8.51754695e-002 0. 1.33169477e-003 4.45029000e-004 0.
      3.25792208e-002 1.11285364e-003 4.57602404e-002 1.80710390e-001
      7.74868652e-002 3.26446560e-003 0. 7.39337702e-004 4.71487269e-002
      2.14680925e-001 1.05250289e-003 7.38664269e-002 3.01183969e-001
      1.73482075e-001 2.35937655e-001 2.79334914e-002 5.38137369e-003
      3.08251113e-001 1.20381182e-002 8.03445349e-004 1.45024449e-001
      3.08251113e-001 3.08251113e-001 5.97838406e-003 0. 1.23222964e-003
      3.21024209e-002 8.01330432e-002 1.11538255e-004 2.47809380e-001
      3.08251113e-001 3.08251113e-001 3.08251113e-001 1.22961596e-001
      8.62560701e-003 2.20583171e-001 0. 0. 0. 2.62822636e-004
      4.98753071e-001 0. 0. 0. 0. 0. 1.19575616e-005 3.57815807e-005
      1.57693590e-004 4.98753071e-001 0. 0. 0. 0. 0. 0. 0. 0.
      4.98753071e-001 0. 0. 0. 0. 0. 0. 0. 0. 4.98753071e-001 0. 0. 0.
      0. 3.66981985e-004 0. 0. 0. 3.22550461e-002 0. 2.01075411e-004
      6.71960370e-005 3.66981985e-004 1.02879443e-004 0. 0. 0.
      7.03605831e-001 2.34424230e-003 3.35125660e-004 1.11993402e-004
      1.02879443e-004 0. 0. 0. 0. 4.25207391e-002 0. 0. 0. 0. 0. 0. 0.
      0. 7.03605831e-001 0. 0. 0. 0. 0. 0. 0. 2.60098674e-003
      6.96401477e-001 8.43810500e-004 0. 0. 0. 0. 0. 0. 0.
      9.20443907e-002 0. 0. 0. 0. 0. 0. 0. 0. 6.96401477e-001
      5.63990371e-003 0. 0. 0. 0. 0. 0. 0. 1.20774917e-001 0. 0. 0. 0.
      0. 0. 0. 0. 4.98750657e-001 3.59305908e-004 0. 0. 0. 0. 0. 0.
      5.08484023e-004 4.98750657e-001 3.04801995e-003 0. 0. 0. 0. 0. 0.
      0. 4.98750657e-001 0. 0. 0. 0. 0. 0. 0. 0. 4.98750657e-001
      2.27897588e-004 0. 0. 0. 0. 0. 0. 0. 4.98753130e-001 0. 0. 0. 0.
      0. 0. 0. 0. 4.98753130e-001 0. 0. 0. 0. 0. 0. 0. 0.
      4.98753130e-001 0. 0. 0. 0. 0. 0. 0. 0. 4.98753130e-001 0. 0. 0.
      0. 0. 0. 0. 0. 3.23969796e-002 0. 0. 0. 0. 0. 0. 0.
      1.27943081e-003 7.03605831e-001 0. 0. 0. 0. 0. 0. 0. 0.
      4.24581431e-002 0. 0. 0. 0. 0. 0. 0. 0. 7.03605831e-001 0. 0. 0.
      0. 0. 0. 0. 8.02475493e-003 6.96323276e-001 4.51674405e-003 0. 0.
      0. 0. 0. 0. 0. 9.22116563e-002 0. 0. 0. 0. 0. 0. 0.
      2.19981163e-003 6.96323276e-001 5.55598224e-003 0. 0. 0. 0. 0. 0.
      0. 1.21215224e-001 0. 0. 0. 0. 0. 0. 0. 0. 4.98753130e-001 0. 0.
      0. 0. 0. 0. 0. 0. 4.98753130e-001 0. 0. 0. 0. 0. 0. 0. 0.
      4.98753130e-001 0. 0. 0. 0. 0. 0. 0. 0. 4.98753130e-001 0. 0. 0.
      0. 0. 0. 0. 0. 4.98753130e-001 0. 0. 0. 0. 0. 0. 0. 0.
      4.98753130e-001 0. 0. 0. 0. 0. 0. 0. 0. 4.98753130e-001 0. 0. 0.
      0. 0. 0. 0. 0. 4.98753130e-001 0. 0. 0. 0. 0. 0. 0. 0.
      3.23733538e-002 0. 0. 0. 0. 0. 0. 0. 0. 7.03607976e-001 0. 0. 0.
      0. 0. 0. 0. 0. 4.24271822e-002 0. 0. 0. 0. 0. 0. 0. 0.
      7.03607976e-001 0. 0. 0. 0. 0. 0. 0. 0. 6.96420670e-001 0. 0. 0.
      0. 0. 0. 0. 0. 9.20808390e-002 0. 0. 0. 0. 0. 0. 0. 0.
      6.96420670e-001 1.56056869e-003 0. 0. 0. 0. 0. 0. 0.
      1.20677345e-001 0. 0. 0. 0. 0. 0. 0. 0. 4.98753130e-001 0. 0. 0.
      0. 0. 0. 0. 0. 4.98753130e-001 0. 0. 0. 0. 0. 0. 0. 0.
      4.98753130e-001 0. 0. 0. 0. 0. 0. 0. 0. 4.98753130e-001 0. 0. 0.
      0. 0. 0. 0. 2.51572998e-003 4.98568058e-001 6.06405200e-004 0. 0.
      0. 0. 0. 0. 6.25098590e-004 4.98568058e-001 0. 0. 0. 0. 0. 0. 0.
      2.50462238e-002 4.98568058e-001 7.25223217e-003 0. 0. 0. 0. 0. 0.
      7.23285088e-003 4.98568058e-001 0. 8.20249319e-004 2.74112885e-004
      0. 0. 0. 0. 0. 3.25813927e-002 0. 0. 0. 0. 0. 0. 0.
      6.11053687e-003 7.03431547e-001 0. 0. 0. 0. 0. 0. 0. 0.
      4.34655100e-002 0. 0. 0. 0. 0. 0. 0. 1.82985440e-002
      7.03431547e-001 4.83400514e-003 0. 0. 0. 1.39749236e-003 0. 0.
      1.10879738e-003 6.95476770e-001 6.49097899e-004 2.06760247e-003
      6.90956367e-004 1.39749236e-003 4.77224449e-003 0. 0. 0.
      9.18250978e-002 0. 1.24056137e-003 4.14573791e-004 4.77224449e-003
      5.66996215e-003 0. 0. 3.19226552e-003 6.95476770e-001
      7.30563421e-003 4.56475746e-003 1.52546167e-003 5.66996215e-003
      1.55436117e-002 0. 0. 0. 1.28644541e-001 0. 2.73885462e-003
      9.15277051e-004 1.55436117e-002 1.31060166e-004 7.55443252e-005
      2.26056567e-004 1.84991397e-003 4.98390734e-001 6.14590768e-004 0.
      0. 1.31060166e-004 8.37173684e-006 0. 0. 5.36547042e-003
      4.98390734e-001 4.63784998e-003 0. 0. 8.37173684e-006
      8.97838967e-004 1.25907201e-004 3.76760901e-004 4.34828224e-003
      4.98390734e-001 4.30864422e-003 2.28517063e-004 7.63665885e-005
      8.97838967e-004 5.86021633e-005 0. 0. 2.34164689e-002
      4.98390734e-001 2.84137018e-002 3.26452973e-005 1.09095126e-005
      5.86021633e-005 1.83703937e-002 1.04517058e-001 2.95450151e-001
      2.95450151e-001 2.95450151e-001 2.95450151e-001 2.18399420e-001
      1.88674480e-001 2.09659502e-001 5.04370267e-003 6.50760308e-002
      2.95450151e-001 2.00622141e-001 2.95450151e-001 2.07068454e-002
      3.01817302e-002 2.72355750e-002 3.04920506e-002 9.01944339e-002
      1.49936259e-001 2.28989929e-001 2.21118554e-002 2.13475361e-001
      2.18724217e-002 3.46535519e-002 1.14934050e-001 2.95450151e-001
      2.59613823e-002 9.17191580e-002 1.43352449e-001 1.12039326e-002
      1.53714582e-001 1.09712104e-003 1.18008982e-002 1.87084321e-002
      4.57593203e-002 0. 0. 0. 0. 2.22528242e-002 0. 1.86365025e-004
      6.22800799e-005 0. 0. 0. 0. 0. 4.58836615e-001 4.58836615e-001
      4.02020484e-001 1.95355907e-001 1.56167131e-002 0. 0. 0. 0.
      1.17418142e-002 0. 2.20116205e-003 7.35591573e-004 0. 0.
      1.44153240e-003 4.31359792e-003 0. 4.58836615e-001 7.87692294e-002
      1.93358749e-001 3.42975318e-001 4.37268242e-002 3.33579123e-001
      2.06446409e-001 1.27763018e-001 8.11089426e-002 1.30821750e-001
      2.05777586e-002 3.60260233e-002 1.27564417e-002 3.33579123e-001
      3.33579123e-001 2.59181373e-002 7.07171345e-003 7.95807937e-005
      1.52901711e-003 3.61840095e-004 4.03861189e-003 1.34668045e-003
      3.33579123e-001 2.26758450e-001 1.50201499e-001 2.19493896e-001
      2.26159737e-001 1.24794640e-001 8.16464983e-003 1.65624693e-002
      1.33165484e-002 2.31839836e-001 3.33579123e-001 1.98592395e-002
      1.28076226e-002 2.49518524e-003 8.03724688e-004 2.53288075e-003
      1.23828358e-003 5.77772595e-003 3.33579123e-001 2.41166875e-001
      5.47156446e-002 9.49636940e-003 3.40086035e-002 7.90760145e-002
      2.04191804e-001 1.59909964e-001 1.56819269e-001 2.41166875e-001
      2.41166875e-001 1.16051413e-001 9.94957909e-002 2.41166875e-001
      1.96230635e-001 2.41166875e-001 2.10302860e-001 1.10068470e-001
      3.22713703e-002 1.58316001e-001 1.79502144e-002 1.04007982e-002
      7.87283927e-002 2.13113800e-001 2.41166875e-001 1.83776438e-001
      9.41230580e-002 1.09221563e-001 2.26938188e-001 8.18912834e-002
      6.75851852e-002 2.41166875e-001 2.41166875e-001 2.41166875e-001
      2.31309935e-001 6.60410821e-002 1.46600557e-002 3.35741967e-001 0.
      0. 0. 0. 0. 0. 0. 3.35741967e-001 5.59569955e-001 0. 0. 0. 0. 0.
      0. 0. 5.59569955e-001 0. 0. 0. 0. 0. 0. 0. 0. 0. 0. 0. 0. 0. 0. 0.
      0. 0. 0. 0. 0. 0. 0. 2.69713793e-002 0. 0. 0. 0. 0. 0. 0.
      5.40717617e-002 8.64227712e-001 0. 1.26379192e-001 4.22338136e-002
      0. 0. 0. 0. 0. 7.56113511e-003 0. 0. 0. 0. 0. 0. 0.
      3.24430615e-002 4.61679012e-001 0. 8.90874118e-002 2.97715236e-002
      0. 3.81285936e-001 1.46548948e-004 3.71220987e-004 1.29744783e-003
      1.94382053e-002 1.74580738e-002 5.00165634e-002 4.59884107e-002
      3.81285936e-001 3.81285936e-001 4.77728929e-004 1.13388247e-004
      1.62039432e-004 1.01568512e-004 8.85086309e-004 4.08725289e-004
      2.16666856e-004 3.81285936e-001 2.52949089e-001 2.64938874e-003
      1.67433522e-003 0. 2.05108174e-003 4.78602108e-003 7.33103557e-003
      7.49264704e-003 2.80854076e-001 3.70434314e-001 1.33384694e-003
      2.39190776e-004 0. 1.58026791e-003 2.87161232e-003 2.13618693e-003
      7.13876216e-004 3.59338492e-001 3.17598730e-001 3.17598730e-001
      2.55347639e-001 3.17598730e-001 1.50324270e-001 0. 0. 0.
      3.17598730e-001 2.21290946e-001 2.30793074e-001 2.01771855e-001
      3.17598730e-001 2.69603163e-001 0. 2.02963618e-003 6.78268785e-004
      5.10054789e-002 3.17598730e-001 6.20401166e-002 2.60407999e-002
      1.44914929e-002 3.19295526e-002 0. 1.85600249e-003 6.20243431e-004
      2.37417281e-001 1.26899704e-001 3.73529717e-002 2.11899225e-002
      2.41524857e-002 6.04277402e-002 0. 5.63326897e-003 1.88253960e-003
      3.50541733e-002</_>
    <_>
      1.28786368e-002 0. 0. 0. 2.52275374e-002 0. 0. 2.02176394e-003
      1.32975709e-002 7.37735108e-002 0. 0. 0. 4.72971946e-002
      2.68101189e-002 1.31070260e-002 1.41523471e-002 7.67060369e-002
      3.77105027e-001 0. 0. 0. 1.05061434e-001 0. 0. 1.41523471e-002
      3.80037546e-001 5.58452189e-001 0. 0. 0. 2.11861461e-001
      4.46835309e-002 2.18450390e-002 9.90664288e-002 5.58452189e-001
      1.66963451e-002 0. 0. 0. 6.27293158e-003 0. 0. 0. 1.66963451e-002
      5.36749559e-003 0. 0. 0. 6.47180993e-003 0. 0. 0. 5.36749559e-003
      4.97114956e-001 0. 0. 0. 4.39105257e-002 0. 0. 0. 4.97114956e-001
      4.97114956e-001 0. 0. 0. 6.25886992e-002 0. 0. 0. 4.97114956e-001
      0. 0. 0. 0. 0. 0. 0. 0. 0. 0. 0. 0. 0. 1.38584198e-003 0. 0. 0. 0.
      4.98727173e-001 0. 0. 0. 2.77935248e-003 0. 0. 0. 4.98727173e-001
      4.98727173e-001 0. 0. 0. 9.70089436e-003 0. 0. 0. 4.98727173e-001
      1.57192033e-002 0. 0. 0. 3.10590491e-002 0. 0. 0. 1.57192033e-002
      0. 0. 0. 0. 0. 0. 0. 0. 0. 6.86354935e-001 0. 0. 0.
      2.17413336e-001 0. 0. 0. 6.86354935e-001 0. 0. 0. 0. 0. 0. 0. 0.
      0. 1.61645450e-002 1.02506494e-002 2.69645303e-001 2.69645303e-001
      2.69645303e-001 6.99536428e-002 2.52084620e-002 0. 1.05235856e-002
      1.19321212e-001 1.77127477e-002 2.45830238e-001 2.08524495e-001
      2.59883821e-001 6.30796328e-002 1.81163643e-002 5.55550912e-004
      1.33944392e-001 2.46496443e-002 0. 6.97890222e-002 1.06318474e-001
      2.69645303e-001 2.69645303e-001 2.69645303e-001 4.36475202e-002
      4.39210571e-002 2.69645303e-001 8.97616919e-005 4.38411124e-002
      9.84093174e-002 2.58019149e-001 1.83574140e-001 2.69645303e-001
      7.30791911e-002 2.52071291e-001 2.18512878e-001 0. 2.34233378e-003
      5.17539214e-003 8.25119019e-003 1.25002619e-002 2.03430443e-003
      1.17120391e-003 2.20280558e-001 1.97903484e-001 4.71892068e-003
      1.57337740e-001 2.85022706e-001 1.56477362e-001 8.03563893e-002
      9.26620215e-002 7.73650557e-002 2.68397391e-001 2.85022706e-001
      1.37789482e-002 4.13939320e-002 1.33652659e-002 5.14414236e-002
      2.52293944e-002 1.22058252e-003 4.18614451e-004 2.85022706e-001
      2.85022706e-001 1.79703102e-001 2.85022706e-001 2.85022706e-001
      2.85022706e-001 1.65983230e-001 4.32985164e-002 4.62147146e-002
      2.85022706e-001 3.04665208e-001 1.69201717e-002 1.24649033e-002
      1.08311819e-002 9.98405591e-002 3.87248769e-002 9.04896669e-003
      4.95488290e-003 3.41265440e-001 3.45678777e-001 3.37066106e-003
      3.07454285e-003 8.64545174e-004 9.59522277e-003 1.11774420e-002
      1.43171765e-003 2.94566364e-003 3.45678777e-001 3.45678777e-001
      8.20940174e-003 1.53465178e-002 2.05493979e-002 7.73308501e-002
      1.05051681e-001 1.02375038e-001 1.71662390e-001 3.45678777e-001
      3.45678777e-001 1.88356952e-003 6.18797028e-003 1.63874042e-003
      5.85448509e-003 1.21421507e-002 8.59030581e-004 1.01770193e-003
      3.45678777e-001 0. 0. 3.35252881e-002 7.72135705e-002
      3.40117514e-001 3.40117514e-001 3.40117514e-001 5.45950839e-003
      5.22753829e-003 0. 0. 0. 0. 9.52707380e-002 5.14169084e-003
      2.81831273e-003 0. 0. 6.43258542e-002 1.94431879e-002
      3.40117514e-001 2.47491062e-001 3.40117514e-001 3.40117514e-001
      2.29307875e-001 6.03599362e-002 3.40117514e-001 6.91161631e-003 0.
      0. 0. 1.89098105e-001 9.66448039e-002 1.97281893e-002
      8.62284936e-003 5.46420179e-002 3.93503278e-001 0. 0. 0. 0. 0. 0.
      0. 3.93503278e-001 5.85008085e-001 0. 0. 0. 0. 0. 0. 0.
      5.85008085e-001 0. 0. 0. 0. 0. 0. 0. 0. 0. 0. 0. 0. 0. 0. 0. 0. 0.
      0. 2.19078772e-002 0. 0. 0. 1.37994066e-001 5.44508453e-003
      5.00318944e-004 0. 2.19078772e-002 1.23048509e-002 0.
      4.50181263e-003 8.04610178e-002 6.80954039e-001 5.52332662e-002
      6.32598158e-003 0. 1.23048509e-002 0. 0. 0. 0. 1.89426497e-001 0.
      0. 0. 0. 0. 0. 0. 1.71710132e-003 6.80954039e-001 0. 0. 0. 0.
      1.82152987e-001 0. 0. 3.74808186e-003 6.35912120e-001
      1.33964300e-001 0. 0. 1.58966392e-001 2.29236260e-001 0. 0. 0. 0.
      0. 0. 0. 2.36449346e-001 0. 0. 0. 2.24884925e-003 6.35912120e-001
      3.09158815e-003 0. 0. 0. 0. 0. 0. 0. 0. 0. 0. 0. 0.
      1.28616521e-003 0. 8.61413125e-003 7.97462612e-002 4.91907328e-001
      1.23623885e-001 4.87402035e-003 1.47655781e-003 4.06575855e-003
      1.83737895e-004 0. 7.96644017e-004 2.38133501e-003 4.91907328e-001
      7.34477565e-002 2.72442983e-003 0. 5.80822700e-004 0. 0. 0.
      3.85047845e-003 4.91907328e-001 2.98934919e-003 0. 0. 0. 0. 0. 0.
      9.80884186e-004 4.91907328e-001 1.35766191e-003 0. 0. 0. 0. 0. 0.
      0. 0. 0. 0. 0. 0. 0. 0. 0. 0. 0. 0. 0. 0. 0. 0. 0. 0. 0. 0. 0. 0.
      0. 0. 0. 0. 0. 0. 0. 0. 0. 0. 0. 0. 0. 0. 0. 1.41835764e-001 0. 0.
      0. 0. 0. 0. 0. 0. 6.85015082e-001 0. 0. 0. 0. 0. 0. 0. 0.
      1.85884118e-001 0. 0. 0. 0. 0. 0. 0. 0. 6.85015082e-001 0. 0. 0.
      0. 0. 0. 0. 0. 7.04615593e-001 0. 0. 0. 0. 0. 0. 0. 0. 0. 0. 0. 0.
      0. 0. 0. 0. 0. 7.04615593e-001 0. 0. 0. 0. 0. 0. 0. 0. 0. 0. 0. 0.
      0. 0. 0. 0. 0. 4.98753130e-001 0. 0. 0. 0. 0. 0. 0. 0.
      4.98753130e-001 0. 0. 0. 0. 0. 0. 0. 0. 4.98753130e-001 0. 0. 0.
      0. 0. 0. 0. 0. 4.98753130e-001 0. 0. 0. 0. 0. 0. 0. 0. 0. 0. 0. 0.
      0. 0. 0. 0. 0. 0. 0. 0. 0. 0. 0. 0. 0. 0. 0. 0. 0. 0. 0. 0. 0. 0.
      0. 0. 0. 0. 0. 0. 0. 0. 0. 0. 1.41835764e-001 0. 0. 0. 0. 0. 0. 0.
      0. 6.85015082e-001 0. 0. 0. 0. 0. 0. 0. 0. 1.85884118e-001 0. 0.
      0. 0. 0. 0. 0. 0. 6.85015082e-001 0. 0. 0. 0. 0. 0. 0. 0.
      7.04615593e-001 0. 0. 0. 0. 0. 0. 0. 0. 0. 0. 0. 0. 0. 0. 0. 0. 0.
      7.04615593e-001 0. 0. 0. 0. 0. 0. 0. 0. 0. 0. 0. 0. 0. 0. 0. 0. 0.
      4.98753130e-001 0. 0. 0. 0. 0. 0. 0. 0. 4.98753130e-001 0. 0. 0.
      0. 0. 0. 0. 0. 4.98753130e-001 0. 0. 0. 0. 0. 0. 0. 0.
      4.98753130e-001 0. 0. 0. 0. 0. 0. 0. 0. 0. 0. 0. 0. 0. 0. 0. 0. 0.
      0. 0. 0. 0. 0. 0. 0. 0. 0. 0. 0. 0. 0. 0. 0. 0. 0. 0. 0. 0. 0. 0.
      0. 0. 0. 0. 0. 1.46069139e-001 0. 0. 0. 0. 0. 0. 0.
      1.24648097e-003 6.72238946e-001 8.09957332e-004 0. 0. 0. 0. 0. 0.
      0. 1.89538032e-001 0. 0. 0. 0. 0. 0. 0. 2.65315268e-002
      6.72238946e-001 1.77161738e-001 1.12040089e-002 0. 0.
      2.81525194e-003 0. 0. 0. 4.58178520e-001 2.82808742e-003 0. 0.
      2.81525194e-003 5.40392194e-003 0. 0. 0. 0. 0. 0. 0.
      5.40392194e-003 2.65981585e-001 0. 0. 1.11804396e-001
      4.58178520e-001 1.03001697e-002 0. 2.18149703e-002 3.44442189e-001
      4.31817085e-001 0. 0. 0. 9.23992135e-003 0. 0. 0. 4.31817085e-001
      0. 0. 0. 6.24953164e-003 4.62418050e-001 3.72161414e-003 0. 0. 0.
      0. 0. 0. 3.45340231e-003 4.62418050e-001 2.02178140e-003 0. 0. 0.
      0. 8.31637823e-004 2.72217933e-002 3.09573650e-001 4.62418050e-001
      1.02504112e-001 0. 0. 0. 0. 0. 7.07645854e-003 1.81192607e-001
      4.62418050e-001 4.99459868e-003 0. 0. 0. 0. 0. 0. 0. 0. 0. 0. 0.
      0. 0. 0. 0. 0. 0. 0. 0. 0. 0. 0. 0. 0. 0. 0. 0. 0. 0. 0. 0. 0. 0.
      0. 0. 0. 0. 0. 0. 0. 0. 0. 0. 2.58964524e-002 0. 0. 0. 0.
      4.05716151e-003 3.34168971e-002 0. 2.54570007e-001 4.11044925e-001
      4.11044925e-001 4.11044925e-001 2.42462143e-001 4.59962860e-002 0.
      0. 0. 0. 0. 0. 0. 0. 0. 0. 0. 0. 1.52742028e-001 4.11044925e-001
      4.11044925e-001 5.25998836e-003 1.52596245e-002 0. 2.78897554e-001
      1.05637014e-001 3.68511379e-002 6.02556318e-002 4.67851274e-002
      1.78080909e-002 4.73709032e-003 0. 3.27444524e-001 3.60040784e-001
      1.08031789e-002 2.23376337e-004 4.30065999e-003 3.64168343e-004 0.
      2.09545717e-003 7.37423776e-003 3.60040784e-001 3.60040784e-001
      1.92761477e-002 6.50578365e-003 2.44439431e-002 5.97146675e-002
      7.98581764e-002 5.35204336e-002 1.87801179e-002 3.60040784e-001
      3.60040784e-001 3.92375514e-003 1.34025802e-004 2.58039613e-003
      2.18501038e-004 0. 3.09297256e-003 2.34354660e-002 3.60040784e-001
      1.77405983e-001 9.24795195e-002 2.70801097e-001 3.34067225e-001
      3.73061895e-001 2.85359502e-001 2.40161151e-001 3.42974961e-002
      9.61208344e-003 2.53437124e-002 1.32113621e-002 3.10081653e-002
      3.51942256e-002 1.84102505e-001 0. 0. 0. 0. 1.70183368e-002
      3.28379795e-002 3.73061895e-001 3.73061895e-001 3.73061895e-001
      1.06861934e-001 2.55801398e-002 0. 0. 0. 0. 4.42973711e-003
      2.41252291e-003 1.54462799e-001 0. 0. 0. 0. 0. 0. 0. 0. 0. 0. 0.
      0. 0. 0. 0. 0. 0. 0. 0. 0. 0. 0. 0. 0. 0. 0. 0. 0. 0. 0. 0. 0. 0.
      0. 0. 0. 0. 0. 0. 0. 0. 0. 0. 0. 0. 0. 0. 0. 0. 0. 0. 0. 0. 0. 0.
      0. 0. 0. 0. 0. 0. 0. 0. 0. 0. 0. 0. 0. 0. 0. 0. 0. 0. 0. 0. 0.
      4.98753130e-001 0. 0. 0. 0. 0. 0. 0. 4.98753130e-001
      4.98753130e-001 0. 0. 0. 0. 0. 0. 0. 4.98753130e-001 0. 0. 0. 0.
      0. 0. 0. 0. 0. 0. 0. 0. 0. 0. 0. 0. 0. 0. 6.99944556e-001 0. 0. 0.
      0. 0. 0. 0. 6.99944556e-001 0. 0. 0. 0. 0. 0. 0. 0. 0. 0. 0. 0. 0.
      0. 0. 0. 0. 0. 0. 0. 0. 0. 0. 0. 0. 0. 0.</_>
    <_>
      5.11249900e-002 7.70571977e-002 8.76390338e-002 4.19315696e-002
      1.02520846e-001 0. 0. 0. 1.35023547e-002 2.98823565e-001
      2.09392294e-001 1.60179108e-001 7.36121014e-002 6.08092956e-002 0.
      0. 0. 2.92705923e-001 3.70230339e-002 6.29917756e-002
      2.20927775e-001 2.98823565e-001 2.98823565e-001 2.77190772e-003
      2.76048528e-003 0. 3.10915848e-003 2.98823565e-001 2.41384298e-001
      2.98823565e-001 2.98823565e-001 2.56471246e-001 1.94033552e-002
      1.93233956e-002 2.40085355e-004 2.98823565e-001 2.89602935e-001 0.
      0. 0. 8.54425307e-004 0. 1.19977363e-003 1.13091292e-002
      2.89602935e-001 2.89602935e-001 1.37633222e-004 4.11849498e-004 0.
      3.12537700e-002 2.31121015e-002 1.21430673e-001 1.67781815e-001
      2.89602935e-001 2.89602935e-001 0. 0. 0. 7.59446819e-004
      1.65336343e-004 7.98376277e-003 2.69699525e-002 2.89602935e-001
      2.89602935e-001 0. 0. 9.11761716e-004 2.03783840e-001
      2.89602935e-001 2.89602935e-001 2.67488182e-001 2.89602935e-001 0.
      0. 0. 0. 2.50055313e-001 0. 1.07895590e-001 3.60568054e-002 0. 0.
      0. 0. 0. 0. 0. 0. 0. 0. 0. 0. 0. 0. 9.47596490e-001 0.
      1.24163367e-001 4.14932147e-002 0. 0. 0. 0. 0. 0. 0. 0. 0. 0. 0.
      0. 0. 0. 0. 0. 0. 0. 0. 0. 0. 0. 0. 0. 0. 0. 0. 0. 0. 0. 0. 0. 0.
      0. 0. 0. 0. 0. 0. 0. 0. 0. 0. 0. 0. 0. 7.99712613e-002
      9.14238840e-002 9.86132994e-002 1.55235231e-001 1.72071904e-001
      1.63100138e-001 1.68609962e-001 8.44954178e-002 1.36043608e-001
      2.10414007e-001 1.32738110e-002 4.77529913e-002 9.58109498e-002
      7.57940412e-002 1.78639084e-001 2.00162351e-001 2.36185580e-001
      2.74518698e-001 2.49016024e-002 4.95156534e-002 1.55694604e-001
      2.74518698e-001 2.74518698e-001 2.74518698e-001 1.54171854e-001
      4.64540683e-002 9.29469690e-002 1.86361581e-001 7.07366457e-003
      7.70823136e-002 9.70953107e-002 2.74518698e-001 2.46716008e-001
      1.06645472e-001 1.12000652e-001 2.74518698e-001 2.83459932e-001
      2.66262200e-002 1.58958361e-002 6.05870597e-003 4.12416458e-003
      3.55259702e-003 0. 0. 2.83459932e-001 2.83459932e-001
      2.17238203e-001 2.76315928e-001 1.94465607e-001 9.07102302e-002
      4.90287282e-002 2.82157268e-002 7.52333924e-002 2.83459932e-001
      2.83459932e-001 1.59559343e-002 2.60388129e-003 7.58688315e-004
      2.89406572e-002 7.78819481e-003 1.03198853e-003 3.44873319e-004
      2.83459932e-001 2.69204021e-001 1.17228195e-001 5.15022799e-002
      2.83459932e-001 2.83459932e-001 6.07747249e-002 1.69819519e-002
      2.31626257e-002 2.83459932e-001 0. 0. 0. 0. 4.52178001e-001
      3.43320638e-001 1.89647421e-001 2.68236827e-003 0. 0. 0. 0. 0.
      2.92828796e-003 0. 8.15204869e-004 2.72427103e-004 0. 0. 0. 0. 0.
      5.15438914e-001 5.15438914e-001 3.24010044e-001 7.57550448e-003 0.
      0. 0. 0. 0. 1.13820266e-002 0. 3.23839579e-003 1.08221499e-003 0.
      0. 0. 0. 0. 0. 0. 0. 0. 0. 0. 0. 0. 0. 0. 0. 0. 0. 0. 0. 0. 0. 0.
      0. 0. 0. 0. 0. 0. 0. 0. 0. 0. 0. 0. 0. 0. 0. 0. 0. 2.86879763e-003
      4.98700291e-001 8.82579479e-003 0. 0. 0. 9.38509475e-005
      3.58363177e-005 1.07235937e-004 5.76309452e-004 4.98700291e-001
      8.77429452e-003 0. 0. 9.38509475e-005 0. 0. 0. 3.41855898e-003
      4.98700291e-001 4.72683087e-003 0. 0. 0. 0. 0. 0. 1.24929601e-003
      4.98700291e-001 3.51219298e-003 0. 0. 0. 1.31088879e-003 0. 0. 0.
      1.01446830e-001 0. 5.53459860e-004 1.84957040e-004 1.31088879e-003
      3.67493572e-004 0. 0. 0. 6.94590032e-001 0. 9.22432984e-004
      3.08261689e-004 3.67493572e-004 0. 0. 0. 0. 1.33526623e-001 0. 0.
      0. 0. 0. 0. 0. 0. 6.94590032e-001 5.46588749e-003 0. 0. 0. 0. 0.
      0. 2.76002538e-004 7.04507470e-001 0. 0. 0. 0. 0. 0. 0. 0.
      1.06073124e-002 0. 0. 0. 0. 0. 0. 0. 0. 7.04507470e-001 0. 0. 0.
      0. 0. 0. 0. 0. 1.39015038e-002 0. 0. 0. 0. 0. 0. 0. 0. 0. 0. 0. 0.
      0. 0. 0. 0. 0. 0. 0. 0. 0. 0. 0. 0. 0. 0. 0. 0. 0. 0. 0. 0. 0. 0.
      0. 0. 0. 0. 0. 0. 0. 0. 0. 1.20617573e-004 4.98753071e-001 0. 0.
      0. 0. 0. 0. 0. 0. 4.98753071e-001 0. 0. 0. 0. 0. 0. 0. 0.
      4.98753071e-001 0. 0. 0. 0. 0. 0. 0. 0. 4.98753071e-001 0. 0. 0.
      0. 0. 0. 0. 0. 1.01049498e-001 0. 0. 0. 0. 0. 0. 0. 0.
      6.94735765e-001 0. 0. 0. 0. 0. 0. 0. 0. 1.32431313e-001 0. 0. 0.
      0. 0. 0. 0. 0. 6.94735765e-001 0. 0. 0. 0. 0. 0. 0. 0.
      7.04507291e-001 0. 0. 0. 0. 0. 0. 0. 0. 1.06083909e-002 0. 0. 0.
      0. 0. 0. 0. 0. 7.04507291e-001 6.62214588e-004 0. 0. 0. 0. 0. 0.
      0. 1.39029184e-002 0. 0. 0. 0. 0. 0. 0. 0. 0. 0. 0. 0. 0. 0. 0. 0.
      0. 0. 0. 0. 0. 0. 0. 0. 0. 0. 0. 0. 0. 0. 0. 0. 0. 0. 0. 0. 0. 0.
      0. 0. 0. 0. 0. 0. 4.98753130e-001 0. 0. 0. 0. 0. 0. 0. 0.
      4.98753130e-001 0. 0. 0. 0. 0. 0. 0. 0. 4.98753130e-001 0. 0. 0.
      0. 0. 0. 0. 0. 4.98753130e-001 0. 0. 0. 0. 0. 0. 0. 0.
      1.01048067e-001 0. 0. 0. 0. 0. 0. 0. 0. 6.94736063e-001 0. 0. 0.
      0. 0. 0. 0. 0. 1.32429436e-001 0. 0. 0. 0. 0. 0. 0. 0.
      6.94736063e-001 0. 0. 0. 0. 0. 0. 0. 9.26985813e-004
      7.04507172e-001 0. 0. 0. 0. 0. 0. 0. 0. 1.06079057e-002 0. 0. 0.
      0. 0. 0. 0. 0. 7.04507172e-001 0. 0. 0. 0. 0. 0. 0. 0.
      1.39022823e-002 0. 0. 0. 0. 0. 0. 0. 0. 0. 0. 0. 0. 0. 0. 0. 0. 0.
      0. 0. 0. 0. 0. 0. 0. 0. 0. 0. 0. 0. 0. 0. 0. 0. 0. 0. 0. 0. 0. 0.
      0. 0. 0. 0. 0. 4.97851580e-001 1.09264022e-003 0. 0. 0. 0. 0. 0.
      0. 4.97851580e-001 1.55357167e-003 4.19663324e-004 1.40244098e-004
      0. 0. 0. 0. 1.52912652e-002 4.97851580e-001 5.48466407e-002 0. 0.
      0. 2.29378595e-004 0. 0. 1.69188492e-002 4.97851580e-001
      8.14844668e-003 1.99347408e-003 6.66184933e-004 2.29378595e-004
      3.97934666e-004 7.28636151e-005 2.18034867e-004 0. 1.02177687e-001
      0. 0. 0. 3.97934666e-004 1.11556692e-004 1.21439363e-004
      3.63391475e-004 0. 6.93542778e-001 0. 0. 0. 1.11556692e-004
      5.43197710e-003 8.60593922e-004 2.57521542e-003 0. 1.31149009e-001
      5.68232790e-004 2.77799612e-004 0. 5.43197710e-003 1.52279611e-003
      1.43432326e-003 4.29202570e-003 5.05340192e-003 6.93542778e-001
      5.75746037e-002 4.62999422e-004 0. 1.52279611e-003 1.77514821e-003
      0. 0. 0. 7.03665435e-001 0. 3.14193522e-003 1.04997947e-003
      1.77514821e-003 2.62784399e-003 0. 0. 0. 9.41885635e-003 0.
      3.00246570e-003 1.00337120e-003 2.62784399e-003 1.38410162e-002 0.
      7.56144989e-004 2.29049474e-002 7.03665435e-001 1.21022081e-002
      6.16764510e-003 4.86680493e-003 1.44223878e-002 2.09772475e-002 0.
      1.26024173e-003 2.57779565e-003 1.29984329e-002 1.36954132e-002
      1.15217203e-002 5.53376786e-003 2.13260707e-002 4.72132377e-002 0.
      0. 0. 0. 0. 0. 0. 4.72132377e-002 4.39871214e-002 0. 0. 0. 0. 0.
      0. 0. 4.39871214e-002 5.06023824e-001 7.70069137e-002
      2.30433181e-001 0. 5.95206507e-002 0. 0. 0. 5.06023824e-001
      3.69681448e-001 7.94483572e-002 2.37738833e-001 0. 2.37237498e-001
      0. 1.31987348e-001 4.41078469e-002 3.69681448e-001 3.01801283e-002
      1.60377756e-001 9.21260938e-002 1.95593879e-001 2.78753012e-001
      1.06201693e-001 1.29373759e-001 2.38520816e-001 3.68778035e-002
      2.78753012e-001 2.78753012e-001 1.21827133e-001 2.24431902e-001
      2.05872566e-001 4.82523963e-002 5.33627085e-002 9.89875868e-002
      2.03288242e-001 2.86527677e-003 1.94426309e-002 3.70872617e-002
      2.26500988e-001 2.78753012e-001 2.78753012e-001 1.27683515e-002
      5.32747135e-002 6.96840743e-003 4.34489250e-002 5.87623790e-002
      6.38769120e-002 2.49076545e-001 2.78753012e-001 2.78753012e-001
      2.39150040e-002 1.27323307e-002 3.79910693e-002 3.36329281e-001
      9.04882851e-004 3.06926807e-003 0. 9.75395495e-004 2.34436058e-003
      2.58394470e-003 4.29904051e-002 3.36329281e-001 3.36329281e-001
      1.47082314e-001 9.55969021e-002 1.21791586e-001 2.14325085e-001
      1.55667439e-001 1.70768857e-001 3.36329281e-001 3.36329281e-001
      1.35543987e-001 0. 0. 1.57221372e-003 8.85097310e-003
      4.77587432e-003 3.69245559e-003 1.28132189e-002 1.29874781e-001
      1.12309493e-001 5.12678586e-002 5.92005216e-002 1.00865901e-001
      3.36329281e-001 2.12649524e-001 1.62681162e-001 1.69823557e-001
      7.85004571e-002 4.02719587e-001 1.37176007e-001 1.76866055e-001
      2.21676037e-001 8.61695483e-002 2.36572586e-002 3.59706639e-004
      1.12452172e-002 4.02719587e-001 4.02719587e-001 0. 0.
      3.52507434e-003 1.26398006e-003 0. 2.15823995e-004 2.69229757e-004
      4.02719587e-001 1.25650048e-001 1.95965730e-002 1.12508804e-001
      2.27309510e-001 1.72979012e-001 5.26975952e-002 6.87214313e-003
      1.36803929e-002 1.40395060e-001 2.28686973e-001 0. 0.
      6.59017172e-003 3.15073226e-003 0. 2.13279598e-003 1.43807742e-003
      2.33191967e-001 3.13278735e-001 3.02730950e-005 9.05882989e-005
      5.08228270e-003 6.80283085e-002 1.91705570e-001 1.13434754e-001
      6.08563349e-002 3.20795625e-001 8.52383897e-002 0. 0.
      3.55759785e-002 3.13779324e-001 3.20795625e-001 2.47184709e-001
      1.00517392e-001 1.36520371e-001 6.56260177e-002 4.97692637e-003
      2.33194456e-002 1.61812454e-001 2.40615651e-001 1.48370355e-001
      2.11337190e-002 6.29499415e-003 5.04159853e-002 1.95352398e-002
      1.74275611e-003 9.94141996e-002 3.20795625e-001 3.20795625e-001
      3.20795625e-001 6.97511286e-002 7.38564134e-003 1.05799716e-002
      1.16372474e-001 1.76416198e-003 5.27904369e-003 0. 2.04092413e-001
      2.22886018e-002 2.00838074e-001 2.54911333e-001 2.16516718e-001
      4.59966987e-001 2.32213148e-004 6.94870309e-004 0. 1.44352108e-001
      2.68820059e-002 3.12542260e-001 4.59966987e-001 4.59966987e-001
      2.05376036e-002 2.32213148e-004 6.94870309e-004 0. 6.66041626e-003
      0. 1.61860846e-002 5.40911965e-003 2.05376036e-002 1.26259983e-001
      3.31733063e-005 9.92671849e-005 0. 1.71342362e-002 0.
      1.26424730e-002 4.22490248e-003 1.26259983e-001 4.87000674e-001 0.
      0. 0. 1.19513847e-004 0. 0. 0. 4.87000674e-001 4.87000674e-001
      1.11826949e-001 3.53705958e-002 1.65077730e-003 1.14159854e-002 0.
      6.09474198e-004 2.03676114e-004 4.87000674e-001 8.25099349e-002 0.
      0. 0. 8.36596882e-004 0. 0. 0. 8.25099349e-002 9.67491940e-002
      5.45098213e-004 2.11536302e-003 9.90466448e-004 1.42887477e-002 0.
      4.26631980e-003 1.42573274e-003 9.67491940e-002 4.91245359e-001
      5.89972828e-004 9.40269965e-005 0. 3.42265167e-003 0.
      7.37956818e-003 1.81261990e-002 4.91245359e-001 4.91245359e-001 0.
      0. 0. 0. 0. 0. 0. 4.91245359e-001 7.34088570e-002 1.15087267e-003
      6.58188888e-004 0. 2.05359119e-003 0. 0. 0. 7.32159615e-002
      9.65784043e-002 0. 0. 0. 0. 0. 0. 0. 9.65784043e-002
      4.02883202e-001 2.96387613e-001 1.29819453e-001 1.37422802e-002
      3.95334028e-002 0. 0. 0. 4.02883202e-001 4.02883202e-001
      4.02883202e-001 2.29087979e-001 2.22560652e-002 2.80339509e-001 0.
      0. 0. 2.92971045e-001 9.27641243e-002 1.14002954e-002
      5.55922650e-003 7.24776508e-003 1.13380700e-002 0. 0. 0.
      9.05414596e-002 4.88906391e-002 2.27930229e-002 1.68345291e-002
      4.34865896e-003 2.16235351e-002 0. 0. 0. 4.51861881e-002</_>
    <_>
      1.48504004e-001 1.01093523e-001 1.48896545e-001 9.54981819e-002
      7.15864599e-002 0. 0. 0. 5.56654893e-002 3.00554574e-001
      1.43762127e-001 1.07010782e-001 7.12447241e-002 1.02266371e-002 0.
      0. 0. 3.00554574e-001 1.05840929e-001 1.43071741e-001
      3.00554574e-001 3.00554574e-001 3.00554574e-001 0. 0. 0.
      3.77834775e-002 3.00554574e-001 2.25629628e-001 2.75399983e-001
      3.00554574e-001 7.34378695e-002 0. 0. 0. 3.00554574e-001
      3.32261890e-001 0. 0. 0. 0. 0. 0. 0. 3.32261890e-001
      3.32261890e-001 0. 0. 0. 3.08634859e-004 2.78194044e-002
      3.21913548e-002 1.10864408e-001 3.32261890e-001 3.32261890e-001 0.
      9.80562647e-004 4.52672743e-004 0. 7.28441810e-004 1.09272962e-003
      0. 3.32261890e-001 3.32261890e-001 1.95117400e-003 6.86393911e-003
      3.16870911e-003 1.77963570e-001 1.95949897e-001 6.19675033e-002
      1.59449145e-001 3.32261890e-001 3.52477700e-001 1.72024537e-002
      4.80610831e-003 4.30890033e-003 1.15648087e-004 0. 0. 0.
      3.52477700e-001 3.52477700e-001 0. 0. 0. 0. 0. 0. 0.
      3.52477700e-001 3.52477700e-001 2.49613672e-002 1.21293943e-002
      3.01623009e-002 2.03185659e-002 1.09893596e-002 1.69983658e-003 0.
      3.52477700e-001 3.52477700e-001 0. 0. 0. 0. 2.00290597e-004
      2.42833776e-004 0. 3.52477700e-001 3.04099262e-001 0. 0. 0.
      5.14866002e-002 1.11421883e-001 1.49450287e-001 1.14980876e-001
      3.05865228e-001 3.96733657e-002 0. 0. 0. 9.48097482e-002
      1.51527822e-001 1.21091545e-001 6.89885318e-002 9.91387069e-002
      3.05865228e-001 0. 7.15859496e-005 6.17653038e-003 1.28325775e-001
      3.05865228e-001 3.05865228e-001 1.15282670e-001 3.05865228e-001
      3.61681581e-002 0. 1.02265640e-005 8.82361550e-004 3.05865228e-001
      3.05865228e-001 3.05865228e-001 6.74412549e-002 8.36054608e-002
      1.68598309e-001 7.52224624e-002 9.96529758e-002 7.47300014e-002
      1.69663057e-001 2.53795773e-001 1.99686140e-001 1.37743294e-001
      1.67024925e-001 2.92688996e-001 2.86349542e-002 3.69685367e-002
      1.54876923e-002 4.10647057e-002 1.30670905e-001 1.24958180e-001
      9.97032300e-002 2.92688996e-001 1.39938831e-001 7.23814592e-002
      1.51835009e-001 1.98530629e-001 2.92688996e-001 2.17689544e-001
      1.58768237e-001 1.29049852e-001 1.88374519e-001 2.92688996e-001
      3.16342488e-002 4.76474650e-002 7.10060224e-002 2.51938015e-001
      4.00209017e-002 5.12635335e-002 6.64510652e-002 2.92688996e-001
      3.02207083e-001 1.97554193e-002 2.91940644e-002 2.57083252e-002
      5.17711788e-003 2.73802271e-003 1.83028739e-003 3.01308883e-003
      3.02207083e-001 3.02207083e-001 1.38287932e-001 3.02207083e-001
      3.02207083e-001 8.33551586e-002 1.91661566e-002 3.05047887e-003
      5.02181426e-003 2.86631167e-001 3.02207083e-001 2.07777992e-002
      1.75164398e-002 3.62428580e-003 4.31304041e-004 0. 0. 0.
      3.02207083e-001 3.02207083e-001 1.45444602e-001 1.48893759e-001
      1.33426651e-001 5.05880341e-002 0. 0. 0. 3.02207083e-001
      3.45976979e-001 0. 0. 2.53489614e-002 5.98596260e-002
      1.17634758e-001 1.08084150e-001 5.45166545e-002 3.45976979e-001
      3.45976979e-001 0. 0. 3.12596676e-003 3.18948738e-003 0.
      9.48508387e-006 7.38096947e-004 3.45976979e-001 3.45976979e-001 0.
      0. 2.89358664e-003 1.66329462e-002 2.24506501e-002 4.99909371e-002
      5.39975129e-002 3.45976979e-001 3.45976979e-001 0. 0.
      4.13369504e-004 4.46076068e-004 0. 0. 0. 3.45976979e-001
      2.37116680e-001 1.44768700e-001 2.45802432e-001 1.53519943e-001
      4.62734103e-002 1.52984662e-002 6.00306783e-003 1.91842597e-002
      1.83240592e-001 1.10425554e-001 1.99533090e-001 2.45802432e-001
      1.70675278e-001 7.31040910e-002 1.70427531e-001 2.13061810e-001
      1.01063594e-001 2.52971239e-002 2.45802432e-001 1.01291142e-001
      2.26547331e-001 2.40617305e-001 1.80109784e-001 0. 2.38194373e-002
      4.21876535e-002 1.97725400e-001 1.02232710e-001 1.06864341e-001
      2.45802432e-001 2.45802432e-001 2.45802432e-001 2.45802432e-001
      2.20426351e-001 3.97474915e-002 1.80810485e-002 6.29861024e-004 0.
      0. 0. 5.03681839e-001 0. 0. 0. 6.29861024e-004 0. 0. 0. 0.
      4.83614087e-001 0. 0. 0. 0. 2.92027777e-004 0. 0. 0.
      5.03681839e-001 0. 0. 0. 2.92027777e-004 0. 0. 0. 0.
      5.03681839e-001 0. 0. 0. 0. 0. 0. 0. 0. 0. 0. 0. 0. 0. 0. 0. 0. 0.
      0. 0. 0. 0. 0. 0. 0. 0. 0. 0. 0. 0. 0. 0. 0. 0. 0. 0. 0. 0. 0. 0.
      0. 0. 0. 0. 0. 0. 0. 0. 0. 0. 0. 0. 0. 0. 0. 0. 0. 0. 0. 0. 0. 0.
      0. 0. 0. 0. 0. 0. 0. 0. 0. 0. 0. 0. 0. 0. 0. 0. 0. 0.
      6.79372170e-004 4.98534054e-001 1.51647860e-002 0. 0. 0. 0. 0. 0.
      1.13228697e-003 4.98534054e-001 2.52746418e-002 0. 0. 0. 0. 0. 0.
      1.13228697e-003 4.98534054e-001 4.12073743e-004 0. 0. 0. 0. 0. 0.
      1.88714499e-003 4.98534054e-001 6.86789572e-004 0. 0. 0.
      7.98818473e-006 0. 0. 0. 5.03688931e-001 0. 0. 0. 7.98818473e-006
      0. 0. 0. 0. 4.83592689e-001 0. 0. 0. 0. 0. 0. 0. 0.
      5.03688931e-001 0. 0. 0. 0. 0. 0. 0. 0. 5.03688931e-001 0. 0. 0.
      0. 0. 0. 0. 0. 0. 0. 0. 0. 0. 0. 0. 0. 0. 0. 0. 0. 0. 0. 0. 0. 0.
      0. 0. 0. 0. 0. 0. 0. 0. 0. 0. 0. 0. 0. 0. 0. 0. 0. 0. 0. 0. 0. 0.
      0. 0. 0. 0. 0. 0. 0. 0. 0. 0. 0. 0. 0. 0. 0. 0. 0. 0. 0. 0. 0. 0.
      0. 0. 0. 0. 0. 0. 0. 0. 0. 0. 0. 4.98753130e-001 0. 0. 0. 0. 0. 0.
      0. 0. 4.98753130e-001 0. 0. 0. 0. 0. 0. 0. 0. 4.98753130e-001 0.
      0. 0. 0. 0. 0. 0. 0. 4.98753130e-001 0. 0. 0. 0. 0. 0. 0. 0.
      5.03688931e-001 0. 0. 0. 0. 0. 0. 0. 0. 4.83592689e-001 0. 0. 0.
      0. 0. 0. 0. 0. 5.03688931e-001 0. 0. 0. 0. 0. 0. 0. 0.
      5.03688931e-001 0. 0. 0. 0. 0. 0. 0. 0. 0. 0. 0. 0. 0. 0. 0. 0. 0.
      0. 0. 0. 0. 0. 0. 0. 0. 0. 0. 0. 0. 0. 0. 0. 0. 0. 0. 0. 0. 0. 0.
      0. 0. 0. 0. 0. 0. 0. 0. 0. 0. 0. 0. 0. 0. 0. 0. 0. 0. 0. 0. 0. 0.
      0. 0. 0. 0. 0. 0. 0. 0. 0. 0. 0. 0. 0. 0. 0. 0. 0. 0. 0.
      4.98753130e-001 0. 0. 0. 0. 0. 0. 0. 0. 4.98753130e-001 0. 0. 0.
      0. 0. 0. 0. 0. 4.98753130e-001 0. 0. 0. 0. 0. 0. 0. 0.
      4.98753130e-001 0. 0. 0. 0. 1.87258265e-004 0. 0. 0.
      5.03688216e-001 0. 0. 0. 1.87258265e-004 0. 0. 0. 0.
      4.83594358e-001 0. 0. 0. 0. 4.75235109e-004 0. 0. 0.
      5.03688216e-001 0. 0. 0. 4.75235109e-004 0. 0. 0. 0.
      5.03688216e-001 0. 0. 0. 0. 0. 0. 0. 0. 0. 0. 0. 0. 0. 0. 0. 0. 0.
      0. 0. 0. 0. 0. 0. 0. 0. 0. 0. 0. 0. 0. 0. 0. 0. 0. 0. 0. 0. 0. 0.
      0. 0. 0. 0. 0. 0. 0. 0. 0. 0. 0. 0. 0. 0. 0. 0. 0. 0. 0. 0. 0. 0.
      0. 0. 0. 0. 0. 0. 0. 0. 0. 0. 0. 0. 0. 0. 0. 0. 0. 0.
      1.99593231e-003 4.98712152e-001 1.11275772e-003 0. 0. 0. 0. 0. 0.
      3.32655408e-003 4.98712152e-001 1.85459643e-003 0. 0. 0. 0. 0. 0.
      3.40053020e-003 4.98712152e-001 5.15172724e-003 0. 0. 0. 0. 0. 0.
      5.66755049e-003 4.98712152e-001 8.58621113e-003 0. 0. 0.
      3.07758804e-002 1.08635807e-002 2.69721262e-002 2.51153976e-001
      3.21223795e-001 1.21801615e-001 5.84515231e-003 2.16860157e-002
      4.47445288e-002 1.04573883e-001 1.55194011e-003 3.85316089e-003
      3.58791389e-002 3.21223795e-001 5.03957495e-002 0. 7.73788895e-003
      1.12955078e-001 1.58349916e-001 1.71475634e-001 1.83473513e-001
      3.21223795e-001 2.55660951e-001 2.08267778e-001 1.23177215e-001
      1.76338986e-001 3.04997534e-001 3.21223795e-001 6.81219399e-002
      5.28246835e-002 7.07289651e-002 1.03599586e-001 9.27680731e-002
      1.17515931e-002 5.45321479e-002 3.21223795e-001 1.57921433e-001 0.
      0. 0. 0. 0. 0. 0. 1.59697771e-001 1.62401929e-001 0. 0. 0.
      4.64357156e-003 0. 0. 2.05800366e-002 1.92961603e-001
      4.36913937e-001 0. 0. 0. 0. 0. 0. 1.94626010e-003 4.36913937e-001
      4.36913937e-001 0. 0. 0. 1.38135567e-001 8.89664292e-002
      2.30725363e-001 1.93209261e-001 4.36913937e-001 1.49599776e-001
      9.50758718e-003 0. 0. 2.10922956e-003 0. 0. 0. 1.36811718e-001
      2.01975971e-001 0. 0. 0. 0. 0. 0. 0. 2.01975971e-001
      4.58789319e-001 1.02580562e-001 1.21692888e-001 6.95225149e-002
      2.28165481e-002 0. 0. 0. 4.58789319e-001 4.58789319e-001 0. 0. 0.
      0. 0. 0. 0. 4.58789319e-001 4.07624543e-002 2.44539138e-002
      1.03212576e-002 1.55906240e-002 2.73701578e-001 1.87816635e-001
      3.91052924e-002 4.78712464e-004 6.27832040e-002 4.56221821e-003
      1.46723492e-002 1.02549747e-001 2.73701578e-001 2.73701578e-001
      2.73701578e-001 9.70463902e-002 3.35098710e-003 4.36711162e-002
      2.73701578e-001 5.67351356e-002 4.08436395e-002 5.60413897e-002
      7.64397681e-002 2.12727085e-001 9.77863818e-002 1.05196461e-001
      2.73701578e-001 8.14452916e-002 1.69347823e-001 2.73701578e-001
      2.73701578e-001 1.17616616e-001 2.73701578e-001 2.03334287e-001
      1.11590154e-001 2.73701578e-001 2.66547333e-002 7.30411615e-004
      1.32423756e-003 3.75599042e-002 2.72082716e-001 2.80933350e-001
      2.80933350e-001 1.23938017e-001 4.56027649e-002 2.80933350e-001
      3.32228793e-003 2.20706267e-003 1.91317704e-002 8.92214105e-002
      1.46183178e-001 1.93759888e-001 1.62009761e-001 2.45735154e-001
      5.96998669e-002 0. 0. 1.29056897e-003 1.50781885e-001
      1.49119720e-001 2.80933350e-001 2.75648713e-001 9.63849798e-002
      2.80933350e-001 0. 0. 2.15094816e-003 2.55042817e-002
      5.43994308e-002 2.44587690e-001 2.80933350e-001 2.80933350e-001
      3.31690848e-001 0. 1.71038439e-003 3.78304074e-004 0.
      1.21980680e-004 4.63124336e-004 1.66249694e-003 3.31690848e-001
      2.61541545e-001 6.71067014e-002 1.36385992e-001 1.41258791e-001
      1.88632801e-001 2.03499217e-002 3.24187055e-003 1.28851412e-002
      3.31690848e-001 3.31690848e-001 0. 0. 0. 0. 0. 0. 2.37499538e-004
      3.31690848e-001 3.31690848e-001 2.40157202e-001 1.34857163e-001
      5.38880937e-002 1.20004416e-002 0. 0. 1.66249694e-003
      3.31690848e-001 3.34588259e-001 6.11855043e-003 6.34226855e-003
      1.92612410e-002 2.24806480e-002 1.93716064e-002 2.82398723e-002
      1.19735152e-002 3.28776151e-001 3.58693272e-001 9.92295681e-004
      2.14360378e-004 1.60880067e-004 0. 5.40302484e-004 7.19914562e-004
      5.21088718e-004 3.58693272e-001 3.58693272e-001 8.37135885e-004 0.
      0. 2.34585372e-003 5.80827938e-003 2.21636333e-002 4.00568843e-002
      3.58693272e-001 3.58693272e-001 1.19590833e-004 0. 0. 0. 0. 0. 0.
      3.58693272e-001 8.92988890e-002 5.24139367e-002 2.76708454e-001
      2.76708454e-001 1.67319566e-001 1.96322575e-002 5.27884054e-004
      1.23485988e-002 2.18865693e-001 3.41767888e-003 3.10716685e-002
      2.76708454e-001 2.76708454e-001 2.76708454e-001 2.78492570e-002
      3.16730438e-004 1.76408561e-003 2.18149442e-002 2.23238647e-001
      2.38882259e-001 2.76708454e-001 1.92185774e-001 5.02410159e-002 0.
      0. 3.78047340e-002 2.76708454e-001 4.77866717e-002 1.43329352e-001
      2.76708454e-001 2.76708454e-001 2.14445725e-001 0. 0.
      5.40067675e-003 4.58826683e-002</_>
    <_>
      3.71579975e-002 9.00107175e-002 1.72316611e-001 1.24636523e-001
      2.14181662e-001 1.28448486e-001 8.85900781e-002 2.21428514e-001
      5.87620176e-002 1.82232276e-001 1.62915811e-001 5.83618656e-002
      2.02923447e-001 2.51120538e-001 1.23945542e-001 1.07185654e-001
      1.71788186e-001 5.38717769e-002 4.67532240e-002 2.09960252e-001
      1.33164912e-001 1.53814748e-001 1.04073845e-001 2.34981149e-001
      2.51120538e-001 2.49085352e-001 6.02628328e-002 4.52385396e-002
      1.69186279e-001 1.37990788e-001 2.01927081e-001 2.23140240e-001
      2.02769518e-001 2.51120538e-001 2.51120538e-001 5.87667152e-002
      2.12447971e-001 1.70746267e-001 2.31922969e-001 1.96737334e-001
      3.49408276e-002 1.85395277e-003 6.44970569e-004 2.14888225e-003
      3.40739228e-002 3.20390582e-001 1.12717927e-001 9.28892642e-002
      3.28967869e-002 6.36442145e-003 0. 0. 0. 3.20390582e-001
      2.40218475e-001 1.76726162e-001 3.20390582e-001 3.20390582e-001
      1.45453513e-001 1.10962451e-003 7.32793880e-004 1.12435780e-003
      4.49297316e-002 3.20390582e-001 1.57282710e-001 1.70264751e-001
      1.53045490e-001 1.59283797e-003 0. 0. 0. 3.20390582e-001
      3.09506562e-002 0. 0. 0. 6.75867200e-002 1.94899663e-001
      3.00106943e-001 2.89301902e-001 2.17919454e-001 4.65562986e-003
      8.56568979e-004 3.15224723e-004 1.50442924e-002 1.04452834e-001
      1.81172356e-001 1.46863356e-001 6.94906563e-002 8.04595649e-003
      3.46509069e-002 0. 0. 7.85244338e-004 3.13328892e-001
      3.25241446e-001 3.25241446e-001 2.72643536e-001 2.08720610e-001
      6.76851068e-003 0. 7.84277858e-004 1.23814680e-002 3.25241446e-001
      3.25241446e-001 1.38791680e-001 4.03309688e-002 7.21713528e-003
      1.03431500e-001 2.11968012e-002 1.23637080e-001 1.02696277e-001
      1.85967520e-001 2.11770341e-001 1.03512496e-001 1.98826820e-001
      8.38972703e-002 1.84565574e-001 1.30636068e-002 1.23015478e-001
      1.18429042e-001 2.00149089e-001 1.64618120e-001 7.31374398e-002
      2.11347699e-001 2.27985591e-001 1.93362348e-002 4.53903154e-002
      1.94431841e-001 2.64312297e-001 1.47896662e-001 2.64312297e-001
      1.05151430e-001 2.00101539e-001 3.94778512e-002 9.82163027e-002
      1.32891133e-001 2.64312297e-001 2.64312297e-001 2.64312297e-001
      2.64312297e-001 2.20195446e-002 9.42615643e-002 1.43198967e-001
      2.22062562e-002 3.97149809e-002 1.60381705e-001 6.48492128e-002
      1.53761223e-001 3.52763355e-001 3.12915832e-001 5.15773892e-002
      2.49573439e-002 1.15579534e-002 3.10854265e-003 1.34642953e-002
      1.14218611e-002 1.36345670e-001 2.49864236e-001 5.17866015e-002
      1.79248303e-002 2.61470745e-003 2.21607313e-002 5.62447635e-003
      1.10330544e-001 2.00007200e-001 3.52763355e-001 3.52763355e-001
      2.72648245e-001 1.84622873e-003 1.91065129e-002 2.25586575e-002
      1.79669764e-002 4.56273183e-002 2.86245551e-002 3.52763355e-001
      3.52763355e-001 4.21083905e-002 5.18478127e-003 1.17913273e-003
      8.71772319e-003 1.61702223e-002 5.23979701e-002 3.88435483e-001
      3.88435483e-001 2.46402249e-002 7.74606643e-003 7.90318649e-004
      4.27751290e-003 9.72125456e-002 4.01160680e-002 6.04734495e-002
      2.30044618e-001 2.76789784e-001 3.28013450e-002 2.32904386e-002
      1.69991404e-002 7.76309296e-002 6.40383316e-003 2.93998455e-004
      3.16412337e-002 3.88435483e-001 3.88435483e-001 1.36303738e-001
      5.38113303e-002 4.61981595e-002 5.44226393e-002 6.48513287e-002
      3.29223089e-003 8.05797987e-003 8.64630491e-002 2.71794409e-001
      1.12357832e-001 9.15230438e-002 9.24173295e-002 3.06356311e-001 0.
      3.28178314e-004 1.11764217e-004 9.65346675e-003 3.52152586e-001
      3.52152586e-001 1.99457482e-002 2.29893392e-003 2.10341439e-003 0.
      0. 3.69638205e-004 3.78572382e-002 3.52152586e-001 3.52152586e-001
      6.28920319e-003 7.68294674e-004 1.53086707e-003 4.73861117e-003
      1.19454600e-002 2.51864921e-003 2.48413254e-002 3.52152586e-001
      3.52152586e-001 3.58962483e-004 2.16010329e-003 4.55154572e-003
      1.10813329e-004 5.34783409e-004 9.76900919e-004 3.92050147e-002
      3.52152586e-001 3.52152586e-001 4.41939244e-003 5.88524574e-003
      2.61967001e-003 4.40524854e-002 3.88437882e-002 1.60767764e-001
      3.52535471e-002 1.51290745e-001 1.92574039e-001 1.87631980e-001
      1.84412599e-001 1.43701673e-001 9.24119800e-002 3.34100574e-002
      2.26175442e-001 1.04633175e-001 2.25200027e-001 2.59436041e-001
      1.67870179e-001 7.25207105e-002 1.19905107e-001 5.34662381e-002
      3.47622782e-002 1.02177158e-001 1.42297104e-001 1.92643404e-001
      1.52335837e-001 2.58429468e-001 2.59436041e-001 1.36389181e-001
      1.09980784e-001 8.46192427e-003 1.62417963e-001 2.59436041e-001
      2.59436041e-001 2.59436041e-001 2.28743866e-001 1.20946877e-001
      1.55705556e-001 4.43324028e-003 0. 3.69783235e-003 8.29696283e-002
      4.50134605e-001 3.19753081e-001 1.13512119e-002 5.10119025e-005
      4.24857531e-003 7.42656505e-003 1.52708683e-003 2.58709071e-003
      2.23953053e-002 4.50134605e-001 1.34425491e-001 3.93752055e-003
      3.57083336e-004 6.13391213e-003 2.27410230e-003 0. 0.
      5.53785376e-002 4.50134605e-001 2.01313287e-001 1.33755791e-003
      2.77765968e-004 1.83064991e-003 6.41067605e-003 2.54514464e-003
      5.74514095e-004 2.01709028e-002 4.50134605e-001 1.13371804e-001
      9.36290622e-003 3.30523634e-003 3.58849904e-003 3.74820419e-002
      9.26095620e-002 1.03665836e-001 2.19556496e-001 3.46380949e-001
      5.40091731e-002 2.63474993e-002 1.14437882e-002 2.67146640e-002
      2.61037529e-001 1.39174700e-001 1.62764639e-001 1.02830581e-001
      1.76821008e-001 8.77149310e-003 3.76392831e-003 1.63482688e-003
      3.46380949e-001 2.66774297e-002 3.88798825e-002 8.74032080e-002
      1.77847445e-001 3.46380949e-001 1.08109146e-001 8.93778913e-003
      1.63482688e-003 1.01020336e-002 2.73797333e-001 9.63330418e-002
      1.70542344e-001 2.16462553e-001 3.46380949e-001 2.54003350e-002
      1.76534813e-003 8.86561815e-003 2.70218223e-001 0. 0.
      2.55360478e-003 4.97558005e-002 4.82852668e-001 1.64137706e-001
      2.12101173e-002 2.03442518e-002 3.28593352e-003 0. 0.
      4.87093203e-004 3.01514287e-002 4.82852668e-001 9.86746624e-002
      1.71771890e-003 8.72003031e-004 0. 0. 0. 0. 6.20782971e-002
      4.82852668e-001 9.51736718e-002 1.53492941e-002 1.17166005e-002 0.
      0. 0. 0. 4.58765216e-002 4.82852668e-001 7.90741071e-002
      7.26365659e-004 5.38758293e-004 3.70229391e-004 1.82667285e-001
      8.28627646e-002 7.70020038e-002 3.02301589e-002 1.52993202e-001
      1.59191340e-001 2.29192674e-001 1.27595574e-001 6.45242110e-002
      2.47467160e-001 1.62437320e-001 2.47467160e-001 1.08719788e-001
      1.22598976e-001 1.12963997e-001 2.47467160e-001 1.36929542e-001
      1.37770936e-001 9.26798806e-002 2.84382813e-002 2.48763803e-002
      5.72303720e-002 1.72779307e-001 2.47467160e-001 2.47467160e-001
      1.53181717e-001 8.24367777e-002 1.53777659e-001 1.16395645e-001
      1.87649012e-001 2.37420827e-001 2.47467160e-001 2.47467160e-001
      2.47467160e-001 1.54338449e-001 9.52781737e-002 1.48669351e-003
      1.34319125e-004 0. 2.23056525e-002 4.97028977e-001 1.64491031e-002
      1.63303383e-004 1.78495029e-004 1.30267104e-003 1.28815742e-003
      9.40233818e-004 5.38952299e-004 1.92549713e-002 4.97028977e-001
      2.47227233e-002 3.71871050e-003 1.24946516e-003 0. 2.29395390e-003
      2.23865209e-004 0. 2.10395847e-002 4.97028977e-001 3.83278131e-002
      1.19323365e-003 8.87120957e-004 2.00815592e-003 2.14692927e-003
      1.56705664e-003 0. 1.95026770e-002 4.97028977e-001 5.15845828e-002
      9.99342371e-003 6.39550388e-003 1.46343795e-004 0. 0. 0.
      2.35217493e-002 4.96259779e-001 2.49415729e-002 0. 0. 0. 0. 0.
      1.64090528e-003 3.06822155e-002 4.96259779e-001 3.03499419e-002
      1.09777844e-003 1.38936884e-004 9.59551136e-004 0. 0. 0.
      3.05005461e-002 4.96259779e-001 3.89706083e-002 0. 0. 0. 0.
      9.64338018e-004 1.89524272e-003 4.62059975e-002 4.96259779e-001
      4.81375940e-002 1.56825496e-004 0. 0. 0. 0. 0. 1.02799330e-002
      4.97975558e-001 2.20529735e-002 0. 0. 0. 4.11703222e-005
      1.26750005e-004 3.79282894e-004 9.55862366e-003 4.97975558e-001
      2.92364620e-002 1.34036923e-003 2.68061995e-003 9.59305209e-004 0.
      0. 0. 1.46531882e-002 4.97975558e-001 1.99473761e-002 0. 0. 0. 0.
      0. 0. 1.82988793e-002 4.97975558e-001 2.08442267e-002
      1.27047009e-003 1.29671386e-002 2.84423307e-003 9.12652835e-002
      5.77708296e-002 4.29528300e-003 7.52679557e-002 2.47304544e-001
      1.02099180e-001 2.62456179e-001 1.01379395e-001 1.21532559e-001
      9.62037444e-002 1.06481640e-002 3.00669819e-002 1.61691502e-001
      2.74061650e-001 1.76194981e-001 2.74061650e-001 1.23902649e-001
      7.58792460e-002 6.01310879e-002 1.42272994e-001 3.76397446e-002
      3.77740227e-002 2.60656208e-001 1.63067684e-001 2.74061650e-001
      2.11991668e-001 4.20405455e-002 1.47066221e-001 3.33171487e-002
      3.16641554e-002 2.70821583e-002 2.74061650e-001 2.74061650e-001
      2.74061650e-001 2.74061650e-001 8.74089524e-002 1.29533396e-003
      3.43012100e-004 3.06844231e-005 2.27321163e-002 4.96562779e-001
      2.40669530e-002 1.46523598e-005 0. 1.01162982e-003 2.18913564e-003
      2.54940614e-003 1.10562723e-002 2.30150092e-002 4.96562779e-001
      3.97661515e-002 2.53398833e-003 2.41356844e-004 9.54135729e-004
      1.65063899e-003 0. 0. 2.65023317e-002 4.96562779e-001
      4.01479006e-002 2.24656658e-004 0. 1.65063899e-003 1.45134435e-003
      9.30624432e-004 4.27781092e-003 2.61922814e-002 4.96562779e-001
      4.75357324e-002 5.62496576e-003 1.68949785e-003 8.38821288e-003 0.
      0. 0. 2.84473170e-002 4.93899882e-001 2.76314169e-002 0. 0. 0. 0.
      2.09833425e-003 2.55184714e-003 7.57232979e-002 4.93899882e-001
      2.37172749e-002 0. 0. 0. 0. 0. 0. 4.03760970e-002 4.93899882e-001
      3.45178731e-002 0. 0. 0. 0. 1.05736370e-003 6.57479861e-004
      7.81004131e-002 4.93899882e-001 5.01005799e-002 2.31226115e-003 0.
      0. 0. 0. 0. 1.33499838e-002 4.97716874e-001 8.53791181e-003 0. 0.
      0. 5.32962324e-004 7.03173399e-004 2.68013217e-003 1.41524151e-002
      4.97716874e-001 2.50721816e-002 4.67136531e-004 8.42375867e-003
      3.95855540e-003 0. 0. 0. 2.82791797e-002 4.97716874e-001
      7.53482850e-003 0. 0. 0. 8.88270559e-004 2.24695541e-004
      7.58697418e-003 3.85787599e-002 4.97716874e-001 2.34149769e-002
      1.77292922e-003 2.77542812e-003 1.95438089e-003 2.49628440e-001
      5.17660528e-002 6.57140836e-002 1.68924183e-001 2.53199577e-001
      7.59873241e-002 1.27642766e-001 4.44693230e-002 1.14265539e-001
      2.64910430e-001 1.05640993e-001 1.25208378e-001 2.33959839e-001
      2.38735408e-001 6.79683834e-002 1.28095848e-002 2.83449143e-002
      1.14347063e-001 9.60929617e-002 5.15992716e-002 2.64910430e-001
      9.01137292e-002 2.64910430e-001 1.82309762e-001 2.17568576e-001
      1.12689570e-001 1.10172957e-001 2.64910430e-001 1.11636683e-001
      2.64910430e-001 2.64910430e-001 2.10998699e-001 6.30518943e-002
      7.94255957e-002 1.32057711e-001 9.93189067e-002 1.15659169e-003 0.
      6.26721521e-005 2.72750016e-002 4.40201432e-001 6.67736828e-002
      2.22224719e-003 5.88377181e-004 3.08896671e-003 3.47062759e-003 0.
      4.24418552e-003 3.11442241e-002 4.40201432e-001 8.94135982e-002
      1.55557310e-002 4.11864091e-003 1.51690058e-002 5.51027246e-003 0.
      0. 6.72211647e-002 4.40201432e-001 2.57087827e-001 4.28777747e-002
      5.30130416e-003 2.25210488e-002 8.18388686e-002 2.05620825e-002
      2.31326297e-002 3.51675190e-002 4.40201432e-001 2.77781963e-001
      8.04416388e-002 1.45901786e-002 2.00087890e-001 0. 0. 0.
      3.84069234e-002 4.93267924e-001 1.30071305e-002 0. 0. 0.
      4.01152909e-004 7.75133027e-003 0. 3.86995301e-002 4.93267924e-001
      1.98512692e-002 2.97501538e-005 0. 0. 0. 0. 3.99165042e-003
      1.07652090e-001 4.93267924e-001 3.07009630e-002 0. 0. 0.
      1.15421735e-005 8.86469905e-004 6.45142572e-004 4.93597090e-002
      4.93267924e-001 5.68976700e-002 0. 7.95492437e-004 1.08985510e-003
      0. 0. 0. 1.59509201e-002 4.96161461e-001 1.65215060e-002 0. 0. 0.
      0. 0. 6.06614689e-004 2.31017172e-002 4.96161461e-001
      1.96025316e-002 0. 0. 0. 0. 0. 0. 5.38794473e-002 4.96161461e-001
      3.76262665e-002 0. 0. 0. 0. 3.32392839e-004 8.68286472e-003
      6.61443621e-002 4.96161461e-001 1.11682396e-002 0. 0. 0.
      7.00403750e-002 3.15041840e-002 7.09346384e-002 8.92339200e-002
      9.86961722e-002 1.04675166e-001 1.73979521e-001 2.53409207e-001
      8.04050416e-002 1.20844655e-001 2.72227749e-002 2.20045269e-001
      2.53409207e-001 7.00095594e-002 6.21189401e-002 7.89478272e-002
      1.97555825e-001 2.53409207e-001 1.58482697e-002 3.72788236e-002
      5.85028641e-002 8.56601223e-002 2.53409207e-001 2.32384458e-001
      2.31319815e-001 2.53409207e-001 1.43222645e-001 6.44309670e-002 0.
      2.51288444e-001 1.92059398e-001 2.53409207e-001 1.66557342e-001
      1.83680564e-001 2.18529090e-001 2.53409207e-001 1.37110844e-001
      9.05864220e-003 4.20474038e-002 4.06796262e-002 2.65055180e-001
      3.23148668e-001 1.46791205e-001 5.89457601e-002 1.90307990e-001
      3.23148668e-001 1.50977373e-002 2.55661849e-002 1.38431331e-002
      2.20825560e-002 4.02477048e-002 7.75138736e-002 7.04526678e-002
      3.23148668e-001 1.21697769e-001 4.85884212e-002 7.21953064e-002
      1.31645888e-001 3.23148668e-001 3.23148668e-001 4.33014855e-002
      5.32823196e-003 7.61187449e-002 3.23148668e-001 8.33524913e-002
      4.61374894e-002 1.06388971e-001 1.64453506e-001 7.79552534e-002
      1.67508814e-002 8.40721373e-003 3.17790389e-001 7.78015470e-003
      1.06777195e-002 1.21998014e-002 3.68690044e-001 3.68690044e-001
      1.36404522e-002 8.31993588e-004 7.02471356e-004 1.62793521e-003
      3.22101638e-003 1.48243585e-003 6.11908908e-004 2.03134328e-001
      3.68690044e-001 3.04527991e-002 9.29673295e-003 0. 1.75173895e-003
      8.34568124e-003 4.54136170e-003 2.22345628e-002 3.68690044e-001
      3.68690044e-001 1.87153108e-002 2.14293879e-003 4.91729891e-003
      4.39253775e-003 5.36836032e-003 8.33390630e-004 1.32048819e-002
      3.68690044e-001 3.68690044e-001 2.44885590e-002 1.37241585e-002 0.
      2.91956472e-003 0. 0. 2.14090049e-002 3.22031111e-001
      3.22031111e-001 1.90102324e-001 6.50348812e-002 5.43116890e-002
      1.05002811e-002 0. 1.94180035e-003 1.52103379e-002 3.22031111e-001
      3.22031111e-001 2.69350745e-002 1.17069976e-002 8.31171684e-003
      1.88379793e-003 0. 0. 2.78977472e-002 3.22031111e-001
      3.22031111e-001 3.22031111e-001 7.36610964e-002 9.13014635e-002
      5.10694720e-002 3.05934739e-003 5.59935719e-003 2.10691784e-002
      3.22031111e-001 3.22031111e-001 1.61211845e-002 7.75043387e-003
      1.79328695e-002 1.06895752e-002 9.60296392e-002 2.58318502e-002
      2.26212908e-002 8.47294778e-002 1.69404373e-001 8.77565145e-002
      2.04400420e-001 1.99550837e-001 8.99714231e-002 2.30722755e-001
      3.76564041e-002 1.37326092e-001 2.48340413e-001 2.48340413e-001
      1.55469522e-001 1.10608019e-001 1.20811671e-001 1.04507715e-001
      1.04889892e-001 4.09972928e-002 1.73708439e-001 1.33362532e-001
      1.75268427e-001 6.28814772e-002 2.20339715e-001 1.63003445e-001
      1.32950902e-001 2.34897435e-001 1.02786668e-001 2.48340413e-001
      2.48340413e-001 2.48340413e-001 1.12329319e-001 1.42234966e-001
      2.48340413e-001 2.48340413e-001 8.05710070e-003 0. 0.
      1.94101757e-003 2.76943266e-001 3.19921702e-001 2.67132252e-001
      1.10320985e-001 8.65786299e-002 9.22332406e-002 0. 0. 0.
      2.34843157e-002 1.66531771e-001 1.33229002e-001 1.83105633e-001
      3.19921702e-001 2.33572386e-002 0. 0. 3.23502906e-003
      1.85459495e-001 3.19921702e-001 3.19921702e-001 1.39465421e-001
      2.09268093e-001 2.30303198e-001 0. 0. 0. 3.41859460e-002
      1.25421777e-001 1.94995537e-001 1.51773885e-001 3.19921702e-001
      1.58623569e-002 3.10760625e-002 1.51473269e-001 3.64059120e-001
      3.64059120e-001 4.33933362e-003 3.73914052e-004 4.14054841e-003
      9.81458114e-004 0. 0. 3.46538350e-002 2.92861730e-001
      3.19323182e-001 2.39907280e-002 2.39268527e-003 9.83846746e-003
      1.59420483e-002 5.25360480e-002 5.99615611e-002 3.46952528e-001
      3.64059120e-001 3.64059120e-001 1.56454854e-002 1.78179494e-003
      6.95964694e-003 6.87020598e-003 0. 0. 6.50126711e-002
      2.45335624e-001 2.43119597e-001 2.81814355e-002 5.56592969e-003
      1.42655093e-002 2.26365514e-002 1.48685500e-001 2.14976460e-001
      2.65203953e-001 8.24230462e-002 2.55876958e-001 2.65203953e-001
      7.31932744e-002 2.65203953e-001 2.65203953e-001 1.33835047e-001
      2.00394019e-001 2.65203953e-001 1.37483820e-001 2.65203953e-001
      1.15353517e-001 2.49846261e-002 1.16873458e-001 6.75947517e-002
      1.12583719e-001 8.09692070e-002 1.53397143e-001 6.59488887e-002
      2.37754777e-001 9.27787125e-002 6.97739571e-002 1.00947104e-001
      1.28427356e-001 1.18022718e-001 8.18098038e-002 1.90007329e-001
      1.80797771e-001 2.65203953e-001 1.03780970e-001 6.54309690e-002
      2.53205094e-002 3.22033018e-002 1.95232481e-002 1.27550662e-001
      1.14029586e-001 2.13474214e-001 2.03627497e-001 8.79426152e-002
      2.28353381e-001 1.03318185e-001 7.38556609e-002 7.92394504e-002
      1.25687420e-001 4.09056433e-002 1.17976025e-001 1.62360013e-001
      1.73553362e-001 2.72128582e-001 2.20058665e-001 1.29496902e-001
      9.85329896e-002 1.14970714e-001 9.40276012e-002 2.15063110e-001
      2.72128582e-001 1.36354342e-001 4.48807143e-002 1.03140943e-001
      1.65057778e-001 2.72128582e-001 1.83118209e-001 7.55386576e-002
      2.72128582e-001 2.72128582e-001 1.51854753e-001 1.62758991e-001
      1.61063731e-001 1.54045090e-001</_>
    <_>
      1.24388725e-001 1.03628606e-001 3.16364020e-002 5.14244139e-002
      4.17939462e-002 1.01040460e-001 1.01182070e-002 1.73703358e-001
      1.92728251e-001 3.91367711e-002 3.02509293e-002 1.03878617e-001
      8.71507376e-002 7.18895942e-002 1.05629511e-001 1.03559727e-002
      5.48389964e-002 2.84659676e-002 6.99434578e-002 3.14360559e-001
      3.14360559e-001 1.33746743e-001 2.43755311e-001 3.14360559e-001
      3.14360559e-001 3.14360559e-001 1.85879812e-001 9.37722158e-003
      4.26745303e-002 1.33092597e-001 1.88866884e-001 2.41150454e-001
      3.14360559e-001 8.87117758e-002 1.11332305e-001 5.61108664e-002
      5.81442378e-002 9.70171094e-002 1.76291600e-001 3.34277183e-001
      3.34277183e-001 0. 3.43100051e-004 1.14658003e-004 1.88126881e-002
      3.10108095e-001 1.61746025e-001 1.08343937e-001 1.93273455e-001
      7.78968707e-002 0. 0. 1.64258690e-003 3.01682204e-001
      1.97930187e-002 4.27199155e-002 9.36501846e-002 3.34277183e-001
      3.34277183e-001 1.41170649e-002 4.61357692e-003 3.47129797e-004
      7.26550771e-003 2.00610876e-001 7.17981905e-002 9.72744524e-002
      2.29481861e-001 3.07208329e-001 2.19383053e-002 1.32292593e-002
      1.42051000e-002 1.51476055e-001 5.38735883e-003 0. 0. 0.
      2.65844196e-001 3.64970475e-001 9.71719921e-002 5.16317859e-002
      3.16679142e-002 0. 4.74708686e-005 1.52040168e-003 1.66365190e-003
      3.31430346e-001 3.64970475e-001 2.42869481e-002 1.46085315e-003 0.
      1.54255657e-003 0. 6.30552706e-004 7.11019477e-003 3.64970475e-001
      3.64970475e-001 4.67719473e-002 1.09762074e-002 1.43302260e-002 0.
      4.87394771e-003 1.14828059e-002 1.06447749e-002 3.64970475e-001
      3.64970475e-001 6.38877740e-003 4.90694074e-004 0. 7.26777092e-002
      9.36156958e-002 5.96680194e-002 1.48233578e-001 2.16217369e-001
      8.47178102e-002 2.63095260e-001 1.26919106e-001 1.19917624e-001
      1.17063120e-001 1.38700113e-001 8.45180601e-002 2.12519974e-001
      2.13500649e-001 9.95450094e-002 1.21810064e-001 1.12534374e-001
      1.72045067e-001 7.35317022e-002 6.33301437e-002 1.19676046e-001
      2.19893277e-001 1.98903754e-001 2.35812277e-001 2.63095260e-001
      7.61585385e-002 2.08000079e-001 6.66965619e-002 3.46242525e-002
      6.36859760e-002 1.82526007e-001 1.98915049e-001 2.63095260e-001
      2.63095260e-001 1.74711794e-001 2.63095260e-001 5.97422291e-003 0.
      0. 1.84660703e-002 3.79817694e-001 3.79817694e-001 9.57853869e-002
      1.45893767e-002 7.23970402e-003 3.35864793e-003 0. 0.
      7.81590026e-003 3.79817694e-001 2.77935684e-001 1.65292826e-002
      5.83116803e-003 1.27874278e-002 4.36063251e-003 0. 0.
      4.52309437e-002 3.79817694e-001 3.79817694e-001 3.43387537e-002
      2.88816867e-003 5.48357051e-003 2.31732221e-004 0. 0.
      1.38940187e-002 3.79817694e-001 1.97445333e-001 1.37690101e-002
      1.38486661e-002 1.36682503e-002 8.93398374e-002 6.05599657e-002
      7.17903748e-002 2.67664135e-001 3.39600086e-001 2.07939018e-002
      1.47895422e-002 2.20539346e-002 1.16598278e-001 1.93363398e-001
      9.32562128e-002 3.86631228e-002 7.01558590e-002 3.29362787e-002
      1.15022203e-002 1.00352056e-002 2.83738840e-002 3.39600086e-001
      1.37687877e-001 1.03757560e-001 1.30386323e-001 2.63940901e-001
      3.39600086e-001 2.99018268e-002 2.80796494e-002 3.90879177e-002
      6.50080293e-002 3.39600086e-001 1.60716981e-001 1.70495957e-001
      1.75205082e-001 2.29348511e-001 6.58428250e-003 4.01137862e-003
      8.89427215e-003 3.39600086e-001 1.17153879e-002 1.87668926e-003
      2.31742556e-003 2.24039238e-002 4.30326760e-001 2.97656327e-001
      3.26323546e-002 1.55956633e-002 2.28279606e-002 6.69036701e-004
      2.28773942e-003 5.16410160e-004 1.14754066e-002 4.30326760e-001
      2.32065737e-001 3.87660391e-003 1.10087299e-003 1.30468991e-003
      5.12775732e-004 0. 0. 7.69749582e-002 4.30326760e-001
      2.85374314e-001 3.72130647e-002 1.73006933e-002 1.72612574e-002 0.
      0. 5.42533817e-004 2.38995366e-002 4.30326760e-001 1.41133487e-001
      5.52871265e-003 1.88724580e-003 4.44957241e-003 8.27976167e-002
      6.96385652e-002 2.34392315e-001 2.12406546e-001 2.63318509e-001
      5.35583794e-002 4.99242656e-002 5.92533723e-002 5.25301509e-002
      1.68951780e-001 5.61314113e-002 1.82825074e-001 1.78799763e-001
      1.20980129e-001 2.63318509e-001 1.12685740e-001 9.01526064e-002
      6.89345077e-002 7.00662434e-002 8.44735578e-002 2.60132402e-001
      2.01870561e-001 2.63318509e-001 1.07783340e-001 1.92471985e-002
      2.24481359e-001 4.75449897e-002 1.73797965e-001 5.63069098e-002
      2.03125834e-001 2.63318509e-001 2.63318509e-001 2.03758091e-001
      2.04694524e-001 2.13522464e-001 3.51894237e-002 1.33951404e-003 0.
      8.99918785e-004 2.90140547e-002 4.96302128e-001 2.43463591e-002
      4.18664167e-005 0. 1.33951404e-003 7.69673847e-004 3.52520961e-003
      1.08793285e-002 4.62214313e-002 4.96302128e-001 2.26088688e-002
      2.93064921e-004 0. 0. 1.36899715e-003 0. 1.17242266e-003
      2.28299461e-002 4.96302128e-001 3.88869159e-002 1.15673633e-004 0.
      1.36899715e-003 1.73554651e-003 4.68385452e-003 1.46671832e-002
      2.91235894e-002 4.96302128e-001 4.93395030e-002 8.09715479e-004 0.
      0. 0. 9.45219363e-004 7.66297162e-005 2.97983028e-002
      4.95454460e-001 3.66180055e-002 0. 0. 0. 0. 6.83794171e-003
      7.63532589e-004 6.12718463e-002 4.95454460e-001 2.58863904e-002
      3.96511657e-003 6.12681778e-003 6.95130881e-003 0. 0. 0.
      2.43079141e-002 4.95454460e-001 3.49762738e-002 0. 0. 0. 0.
      1.63770374e-003 1.25842507e-003 4.50322554e-002 4.95454460e-001
      5.00103347e-002 8.04592681e-004 8.58605708e-005 0. 0. 0. 0.
      2.92344019e-002 4.96698767e-001 2.38606744e-002 0. 0. 0. 0. 0.
      7.14064110e-004 3.20337601e-002 4.96698767e-001 3.11091840e-002
      6.17717905e-003 3.54088657e-003 7.33709661e-004 0. 0. 0.
      2.67627686e-002 4.96698767e-001 3.15581337e-002 0. 0. 0. 0. 0.
      6.01408817e-003 3.42849940e-002 4.96698767e-001 4.19435091e-002
      6.90852199e-003 5.31842816e-004 1.04815677e-004 7.59238098e-003
      9.44467634e-002 2.15042070e-001 2.74728030e-001 8.88859853e-002
      8.43621194e-002 1.03592090e-001 1.84415262e-002 2.25967411e-002
      4.49055769e-002 1.08843716e-002 2.18645751e-001 2.74728030e-001
      1.61720112e-001 1.87148392e-001 2.45488346e-001 4.93823476e-002
      6.21923469e-002 1.05482005e-002 6.24038316e-002 1.66055664e-001
      2.20163241e-001 1.64703652e-001 2.68242329e-001 2.07509533e-001
      1.15253337e-001 1.08541183e-001 8.81923437e-002 4.23317961e-003
      1.89608306e-001 2.74728030e-001 1.97586507e-001 2.74728030e-001
      2.74728030e-001 9.30359587e-002 1.47192597e-001 1.51709712e-003 0.
      0. 1.00284163e-002 4.96643454e-001 3.25397961e-002 2.54679751e-003
      8.55774706e-005 2.37052748e-003 0. 3.82874045e-003 4.33076406e-003
      1.17374044e-002 4.96643454e-001 3.71242464e-002 2.02908982e-002
      1.03040254e-002 6.96616713e-003 1.68860448e-003 0. 0.
      3.84826995e-002 4.96643454e-001 2.68383473e-002 8.38935084e-004
      3.58963916e-005 2.20066262e-003 0. 3.58368014e-003 4.52633668e-003
      3.58870700e-002 4.96643454e-001 3.87050398e-002 8.05640779e-003
      4.36880579e-003 4.30136500e-003 0. 0. 0. 1.23006068e-002
      4.96609181e-001 2.68249102e-002 0. 0. 0. 4.86683333e-003
      1.22273318e-003 9.61442420e-004 2.22998317e-002 4.96609181e-001
      3.44139040e-002 3.70185066e-004 3.64524894e-003 8.75769183e-003 0.
      0. 0. 4.26984057e-002 4.96609181e-001 2.64671985e-002 0. 0. 0.
      7.19993794e-003 9.42261890e-003 1.94085645e-003 3.32758985e-002
      4.96609181e-001 4.56215180e-002 0. 7.77600508e-004 5.61138708e-003
      0. 0. 0. 1.38404435e-002 4.96131331e-001 2.83980388e-002 0. 0. 0.
      1.54317485e-003 6.94767805e-004 1.00213301e-003 3.27317119e-002
      4.96131331e-001 4.37643863e-002 8.66591698e-004 1.65383029e-003
      2.75966711e-003 0. 0. 0. 1.37294801e-002 4.96131331e-001
      3.37338448e-002 0. 0. 0. 1.67454092e-003 1.18080433e-003
      1.34297321e-003 5.74678667e-002 4.96131331e-001 4.23614606e-002
      1.13433786e-003 2.58697430e-003 4.73836251e-003 3.62369306e-002
      1.41971335e-001 1.83572233e-001 1.92790031e-001 1.60628080e-001
      1.32421523e-001 1.08650714e-001 1.12119205e-002 2.22985074e-003
      6.99287802e-002 2.30494127e-001 2.58069903e-001 1.83494478e-001
      2.58069903e-001 1.78243980e-001 1.04110748e-001 1.13168228e-002
      4.47447374e-002 3.16453986e-002 1.46485090e-001 2.58069903e-001
      2.58069903e-001 1.66088462e-001 1.96204051e-001 1.58354372e-001
      1.83527227e-002 4.67197876e-003 1.14862755e-001 1.50553808e-001
      2.58069903e-001 2.58069903e-001 2.58069903e-001 2.34994054e-001
      1.74327537e-001 9.02064070e-002 5.99936470e-002 1.52082019e-003
      2.83410889e-004 1.83526616e-004 1.45818228e-002 4.94419962e-001
      3.95563133e-002 1.52023218e-003 0. 2.55469861e-003 3.31849162e-003
      4.79459995e-003 3.70438723e-003 2.38038171e-002 4.94419962e-001
      5.82706556e-002 1.48060229e-002 4.38740040e-004 9.00232885e-003
      1.15170213e-003 0. 8.36867024e-004 1.04969814e-002 4.94419962e-001
      6.14167564e-002 1.17646123e-003 0. 2.09157937e-003 9.45348199e-003
      4.85181529e-003 7.45494105e-003 3.71021926e-002 4.94419962e-001
      7.27134123e-002 1.50475977e-002 0. 1.44953812e-002 0. 0. 0.
      1.45445075e-002 4.96827215e-001 1.63737740e-002 0. 0. 0.
      4.21617506e-003 1.60223164e-003 1.62800052e-003 1.43787013e-002
      4.96827215e-001 3.49467695e-002 0. 1.32610393e-003 4.66285535e-004
      0. 0. 0. 2.40233559e-002 4.96827215e-001 3.57198343e-002 0. 0. 0.
      3.21179000e-003 3.37953982e-003 1.20779232e-003 3.03244311e-002
      4.96827215e-001 5.41795008e-002 4.75576567e-003 1.06295838e-003
      9.98201082e-004 0. 0. 0. 3.24576236e-002 4.96860325e-001
      1.03886891e-002 0. 0. 0. 0. 1.71507045e-003 1.35737355e-003
      5.28374091e-002 4.96860325e-001 8.55366420e-003 4.34044842e-003
      1.45050173e-003 0. 0. 0. 0. 1.74467452e-002 4.96860325e-001
      2.66894344e-002 0. 0. 0. 0. 2.11007631e-004 2.22968077e-003
      2.88814828e-002 4.96860325e-001 4.05136049e-002 2.60426942e-003
      8.70301155e-004 0. 1.24597147e-001 1.40392125e-001 1.03631131e-001
      6.00419566e-002 1.69083878e-001 7.95316324e-002 1.49570748e-001
      1.27751976e-001 9.61390883e-002 1.23630203e-001 1.80521771e-001
      1.64244547e-001 1.52704090e-001 1.47975042e-001 1.37613490e-001
      1.66039944e-001 1.28343940e-001 1.87918633e-001 2.09006622e-001
      2.49405384e-001 1.30451530e-001 1.72628373e-001 2.28151888e-001
      1.06847085e-001 1.90155581e-001 7.95737579e-002 1.31266564e-001
      2.49405384e-001 2.49405384e-001 1.98194906e-001 2.29988694e-001
      1.43121362e-001 6.75967708e-002 2.29402721e-001 1.19844422e-001
      2.49405384e-001 2.19009239e-002 1.69865438e-003 2.88569666e-002
      1.12357564e-001 3.15269679e-001 2.35712096e-001 1.50047049e-001
      1.97389007e-001 9.30102542e-002 1.50819585e-001 2.01405142e-003
      4.70671104e-003 1.60510819e-002 8.39633122e-002 1.42075762e-001
      1.52136251e-001 2.78310359e-001 3.15269679e-001 1.18886203e-001
      2.10625120e-002 6.88718036e-002 4.12999168e-002 3.15269679e-001
      3.15269679e-001 7.94957802e-002 1.59270644e-001 1.66183844e-001
      3.02926451e-001 2.24208981e-002 3.38945799e-002 1.90989152e-002
      3.04865073e-002 3.30701135e-002 3.85778621e-002 1.78207263e-001
      3.15269679e-001 7.80408911e-004 2.13735513e-002 4.66208272e-002
      2.12844133e-001 4.24572706e-001 9.31285415e-003 0. 0. 0.
      3.56357254e-004 5.36609907e-003 5.05620101e-003 6.12101629e-002
      4.24572706e-001 1.62162278e-002 6.84057130e-003 1.60161895e-003
      1.73116999e-003 1.35721155e-002 2.62823086e-002 5.28987870e-002
      4.24572706e-001 4.24572706e-001 1.99653804e-002 4.95805778e-003
      5.38586872e-003 2.22719880e-003 5.21925744e-003 1.16155604e-002
      3.48038902e-003 1.93972364e-001 4.24572706e-001 1.92596130e-002
      1.14674505e-003 3.09904153e-003 3.24151653e-004 0. 0.
      3.11139366e-003 2.66700596e-001 3.49829376e-001 1.52001977e-001
      2.57701110e-002 0. 0. 2.78752134e-003 2.49359710e-003
      1.21791679e-002 2.92388558e-001 3.49829376e-001 2.14241128e-002
      3.82210105e-003 0. 1.53195695e-004 0. 0. 6.24121502e-002
      3.49829376e-001 3.49829376e-001 2.39089191e-001 1.30095825e-001
      2.54172795e-002 0. 8.12387373e-003 2.00416148e-003 4.40001488e-002
      3.49829376e-001 3.49829376e-001 1.43385567e-002 1.82067528e-002
      3.63104022e-003 7.57539587e-004 9.42299366e-002 7.40036462e-003
      1.67156801e-001 2.72982538e-001 1.03936277e-001 2.76812166e-002
      1.40334189e-001 1.54697612e-001 1.41904458e-001 1.80588156e-001
      2.19770875e-002 1.69818163e-001 2.72982538e-001 1.77190915e-001
      3.91572900e-002 6.16049096e-002 1.46633863e-001 2.59782553e-001
      1.37499869e-001 2.43673008e-002 1.16211705e-001 2.54759192e-001
      5.86294420e-002 1.15531966e-001 1.72223166e-001 2.72982538e-001
      1.46879077e-001 2.72982538e-001 1.06250159e-001 1.68819904e-001
      2.72982538e-001 8.82542133e-002 1.54430062e-001 1.99476913e-001
      1.16983533e-001 1.84368953e-001 2.30981503e-003 3.21579661e-004
      1.93574175e-003 4.96175839e-003 3.20284873e-001 3.20284873e-001
      1.58512533e-001 7.00238273e-002 2.99019217e-002 2.00463478e-002
      2.25105742e-003 3.22623621e-003 8.37318320e-003 8.24181736e-002
      2.18263656e-001 1.32501528e-001 1.26379222e-001 3.20284873e-001
      6.95888884e-003 0. 2.01357086e-003 1.39727574e-002 2.49398321e-001
      3.20284873e-001 3.20284873e-001 1.63760945e-001 8.85157660e-002
      8.70435238e-002 0. 0. 0. 2.78847758e-002 2.21423462e-001
      1.86820343e-001 2.69288123e-001 3.20284873e-001 1.57973589e-003
      1.51020028e-002 6.37024045e-002 3.60117555e-001 3.60117555e-001
      2.21327157e-003 1.31333177e-003 1.78836496e-003 1.00222700e-004
      1.90011086e-003 1.18909441e-002 3.07745039e-002 3.55051935e-001
      3.33876938e-001 1.73174497e-002 1.11072613e-002 1.11855771e-002
      6.69431826e-003 1.97801888e-002 3.21213119e-002 2.16054171e-001
      3.60117555e-001 3.60117555e-001 9.10384115e-003 3.52878193e-003
      2.52976408e-003 4.06234321e-004 9.77787282e-003 2.12934730e-003
      1.32349143e-002 2.31972381e-001 3.60117555e-001 3.55410427e-002
      2.72447374e-002 1.10201128e-002 6.46893540e-003 4.65444149e-003
      1.20208897e-001 2.75114745e-001 2.75114745e-001 2.75114745e-001
      2.75114745e-001 2.01155543e-001 2.75114745e-001 7.08955005e-002
      1.51674161e-002 8.00382569e-002 2.75114745e-001 2.75114745e-001
      2.75114745e-001 3.58211175e-002 3.82433385e-002 5.56753241e-002
      3.58236693e-002 4.35304977e-002 1.76377520e-001 2.72861838e-001
      5.32885753e-002 1.98049083e-001 7.11200833e-002 1.20494096e-002
      1.97108254e-001 1.62483841e-001 2.74230037e-002 1.09621800e-001
      1.86774805e-001 1.33022100e-001 1.71448082e-001 1.04289753e-002
      2.04385184e-002 2.96139568e-002 4.35462967e-002 8.35505649e-002
      1.00354046e-001 2.99591068e-002 1.03378437e-001 2.06355140e-001
      2.34501705e-001 1.14458978e-001 9.83638614e-002 4.74630520e-002
      2.23115325e-001 1.67380527e-001 1.99792624e-001 2.48782068e-001
      1.20680228e-001 1.24015659e-001 9.29916203e-002 1.11578643e-001
      1.88555002e-001 5.48204370e-002 1.00337677e-001 4.63722087e-002
      1.37573168e-001 2.04846889e-001 2.16427177e-001 1.83729917e-001
      2.24693388e-001 7.38043636e-002 1.29792437e-001 1.60408184e-001
      1.83371171e-001 2.48782068e-001 2.38829449e-001 1.11043379e-001
      1.90214857e-001 2.48782068e-001 2.48782068e-001 1.74500465e-001
      6.49104416e-002 1.11374771e-002 0. 8.21820274e-002 3.18959989e-002
      1.79968983e-001 2.63085097e-001 3.20031583e-001 3.46168339e-001
      5.59950098e-002 1.27692113e-003 4.01784852e-003 1.37312887e-002
      3.95382904e-002 2.21051455e-001 3.42131108e-001 3.46168339e-001
      1.28185093e-001 3.52368616e-002 1.27889831e-002 9.49522667e-003
      1.01909555e-001 8.96161497e-002 1.61268294e-001 1.19382314e-001
      7.43840858e-002 1.68184474e-001 3.96946482e-002 1.82417294e-004
      2.81249415e-002 1.31413639e-001 2.19789252e-001 3.46168339e-001
