<?xml version="1.0"?>
<opencv_storage>
<my_svm type_id="opencv-ml-svm">
  <svm_type>C_SVC</svm_type>
  <kernel><type>RBF</type>
    <gamma>4.0000000000000001e-002</gamma></kernel>
  <C>10.</C>
  <term_criteria><epsilon>1.1920928955078125e-007</epsilon>
    <iterations>1000</iterations></term_criteria>
  <var_all>1152</var_all>
  <var_count>1152</var_count>
  <class_count>2</class_count>
  <class_labels type_id="opencv-matrix">
    <rows>1</rows>
    <cols>2</cols>
    <dt>i</dt>
    <data>
      -1 1</data></class_labels>
  <sv_total>43</sv_total>
  <support_vectors>
    <_>
      0. 0. 0. 0. 0. 0. 0. 0. 0. 0. 0. 0. 0. 0. 0. 0. 0. 0. 0. 0. 0. 0.
      0. 0. 0. 0. 0. 0. 0. 0. 0. 0. 0. 0. 0. 0. 0. 0. 0. 0. 0. 0. 0. 0.
      0. 0. 0. 0. 0. 0. 0. 0. 0. 0. 0. 0. 0. 0. 0. 0. 0. 0. 0. 0. 0. 0.
      0. 0. 0. 0. 0. 0. 0. 0. 0. 0. 0. 0. 0. 0. 0. 0. 0. 0. 0. 0. 0. 0.
      0. 0. 0. 0. 0. 0. 0. 0. 0. 0. 0. 0. 0. 0. 0. 0. 0. 0. 0. 0. 0. 0.
      0. 0. 0. 0. 0. 0. 0. 0. 0. 0. 0. 0. 0. 0. 0. 0. 0. 0. 0. 0. 0. 0.
      0. 0. 0. 0. 0. 0. 0. 0. 0. 0. 0. 0. 9.16649774e-002
      8.46362731e-004 1.92549497e-001 1.84463382e-001 2.10138634e-001
      9.80971009e-002 3.40890661e-002 4.53110412e-002 2.18138039e-001
      5.49188219e-002 1.20908968e-004 2.75070667e-002 2.63519101e-002
      2.61291683e-001 1.53877631e-001 2.04534382e-002 2.71866247e-002
      1.30882829e-001 2.45459750e-002 0. 3.02070916e-001 3.38476628e-001
      3.38476628e-001 3.38476628e-001 5.68151027e-002 7.55184069e-002
      9.58881602e-002 1.47275859e-002 0. 4.31529917e-002 8.00891146e-002
      3.38476628e-001 3.38476628e-001 3.40890661e-002 4.53110412e-002
      5.75328991e-002 0. 0. 0. 0. 1.29968841e-002 0. 0. 0. 0.
      2.04166919e-001 2.35127425e-003 4.11450490e-002 4.62775558e-001
      4.86768097e-001 0. 0. 0. 7.91702643e-002 0. 0. 0. 0.
      9.20718238e-002 0. 0. 0. 0. 8.18685964e-002 3.86856287e-003
      6.85750842e-002 4.86768097e-001 4.86768097e-001 1.87862609e-002 0.
      0. 8.82909633e-003 0. 0. 0. 0. 4.35481250e-001 3.66714001e-001
      1.71910167e-001 0. 0. 0. 0. 0. 0. 0. 0. 0. 0. 0. 0. 0. 0. 0.
      5.22522628e-001 5.22522628e-001 3.08294713e-001 0. 0. 0. 0. 0. 0.
      0. 0. 0. 0. 0. 5.53584024e-002 0. 1.75595999e-001 1.70258924e-001
      1.30383164e-001 2.92511005e-002 2.12798938e-002 2.78795883e-002
      1.33061394e-001 9.17223319e-002 0. 1.05357580e-001 1.02155350e-001
      2.98654884e-001 1.66527972e-001 3.54664922e-002 4.64659818e-002
      2.21227318e-001 1.39577193e-002 0. 2.43023485e-001 3.39733750e-001
      3.39733750e-001 1.53011143e-001 3.54664922e-002 4.64659818e-002
      5.91568351e-002 2.32628658e-002 0. 1.45814106e-001 3.24682683e-001
      3.39733750e-001 3.39733750e-001 5.91108166e-002 7.74432942e-002
      9.85947102e-002 0. 0. 0. 1.61777498e-004 4.98753071e-001
      2.28944802e-004 0. 0. 0. 0. 0. 0. 2.69629149e-004 4.98753071e-001
      3.27064045e-005 0. 0. 0. 0. 0. 0. 0. 4.98753071e-001 0. 0. 0. 0.
      0. 0. 0. 0. 4.98753071e-001 0. 0. 0. 0. 0. 0. 0. 0.
      8.48141685e-002 0. 0. 0. 0. 0. 0. 0. 2.53508013e-004
      6.97670043e-001 0. 0. 0. 0. 0. 0. 0. 0. 1.11153968e-001 0. 0. 0.
      0. 0. 0. 0. 0. 6.97670043e-001 0. 0. 0. 0. 0. 0. 0.
      2.80729641e-004 7.04615593e-001 0. 0. 0. 0. 0. 0. 0. 0. 0. 0. 0.
      0. 0. 0. 0. 0. 0. 7.04615593e-001 0. 0. 0. 0. 0. 0. 0. 0. 0. 0. 0.
      0. 0. 0. 0. 0. 4.20376200e-005 4.98752743e-001 2.10179962e-004 0.
      0. 0. 0. 0. 0. 2.94263329e-004 4.98752743e-001 1.26107974e-004 0.
      0. 0. 0. 0. 0. 0. 4.98752743e-001 8.47006042e-004 0. 0. 0. 0. 0.
      0. 0. 4.98752743e-001 8.73868237e-004 0. 0. 0. 0. 0. 0. 0.
      4.98726904e-001 2.71061086e-003 0. 0. 0. 0. 0. 0. 0.
      4.98726904e-001 4.51768562e-003 0. 0. 0. 0. 0. 0. 0.
      4.98726904e-001 4.51768562e-003 0. 0. 0. 0. 0. 0. 0.
      4.98726904e-001 7.52947619e-003 0. 0. 0. 0. 0. 0. 0.
      8.48104954e-002 0. 0. 0. 0. 0. 0. 0. 0. 6.97670639e-001 0. 0. 0.
      0. 0. 0. 0. 0. 1.11149147e-001 0. 0. 0. 0. 0. 0. 0. 0.
      6.97670639e-001 0. 0. 0. 0. 0. 0. 0. 0. 7.04615593e-001 0. 0. 0.
      0. 0. 0. 0. 0. 0. 0. 0. 0. 0. 0. 0. 0. 0. 7.04615593e-001 0. 0. 0.
      0. 0. 0. 0. 0. 0. 0. 0. 0. 0. 0. 0. 0. 0. 4.98753071e-001
      3.52834846e-004 0. 0. 0. 0. 0. 0. 0. 4.98753071e-001
      3.64025647e-004 0. 0. 0. 0. 0. 0. 0. 4.98753071e-001 0. 0. 0. 0.
      0. 0. 0. 0. 4.98753071e-001 0. 0. 0. 0. 0. 0. 0. 3.12184729e-003
      4.98743683e-001 0. 0. 0. 0. 0. 0. 0. 5.20307897e-003
      4.98743683e-001 0. 0. 0. 0. 0. 0. 0. 2.90490047e-004
      4.98743683e-001 3.88724642e-004 0. 0. 0. 0. 0. 0. 4.84150107e-004
      4.98743683e-001 6.47874433e-004 0. 0. 0. 0. 0. 0. 0.
      8.48104954e-002 0. 0. 0. 0. 0. 0. 0. 0. 6.97670639e-001 0. 0. 0.
      0. 0. 0. 0. 0. 1.11149147e-001 0. 0. 0. 0. 0. 0. 0. 0.
      6.97670639e-001 0. 0. 0. 0. 0. 0. 0. 0. 7.04615593e-001 0. 0. 0.
      0. 0. 0. 0. 0. 0. 0. 0. 0. 0. 0. 0. 0. 0. 7.04615593e-001 0. 0. 0.
      0. 0. 0. 0. 0. 0. 0. 0. 0. 0. 0. 0. 0. 1.94119907e-003
      4.98727471e-001 6.34473632e-004 0. 0. 0. 0. 0. 0. 5.85932238e-003
      4.98727471e-001 1.05745613e-003 0. 0. 0. 0. 0. 0. 4.72351443e-003
      4.98727471e-001 1.05745613e-003 0. 0. 0. 0. 0. 0. 6.02419022e-003
      4.98727471e-001 1.76242669e-003 0. 0. 0. 0. 0. 0. 7.27622025e-003
      4.98192608e-001 9.99479927e-003 0. 0. 0. 0. 0. 0. 3.11970431e-003
      4.98192608e-001 3.44514567e-003 0. 0. 0. 0. 0. 0. 2.77655069e-002
      4.98192608e-001 3.19629014e-002 0. 0. 0. 1.35245296e-004 0. 0.
      1.23692555e-002 4.98192608e-001 1.09948982e-002 0. 0.
      1.35245296e-004 0. 0. 0. 0. 8.48517641e-002 0. 0. 0. 0. 0. 0. 0.
      0. 6.97661221e-001 0. 0. 0. 0. 9.55740921e-004 0. 0. 0.
      1.11203238e-001 0. 0. 0. 9.55740921e-004 5.40047011e-004 0. 0.
      2.19968008e-003 6.97661221e-001 0. 0. 0. 5.40047011e-004 0. 0. 0.
      0. 7.04605818e-001 0. 0. 0. 0. 0. 0. 0. 0. 0. 0. 0. 0. 0.
      1.44097710e-003 0. 0. 0. 7.04605818e-001 0. 0. 0. 1.44097710e-003
      3.42116831e-003 0. 0. 0. 0. 0. 0. 0. 3.42116831e-003 0. 0. 0.
      2.66239862e-003 4.98506367e-001 1.01355242e-003 0. 0. 0. 0. 0. 0.
      8.80390219e-003 4.98506367e-001 3.74567416e-003 0. 0. 0.
      5.93187360e-005 0. 0. 4.49000951e-003 4.98506367e-001
      5.26338490e-003 0. 0. 5.93187360e-005 0. 0. 0. 2.77345926e-002
      4.98506367e-001 8.37681256e-003 0. 0. 0. 9.78174582e-002
      9.70016867e-002 8.75655338e-002 1.27893806e-001 1.78260982e-001
      2.56732672e-001 2.01875865e-001 6.97096065e-002 1.10514119e-001
      2.56732672e-001 2.56732672e-001 1.96515635e-001 2.32621744e-001
      1.58362538e-001 8.89183134e-002 7.14483783e-002 9.33807641e-002
      2.56732672e-001 1.56903807e-002 5.52939177e-002 1.18093342e-001
      2.13755533e-001 2.56732672e-001 1.65354013e-001 1.65400043e-001
      3.85387391e-002 6.05236925e-002 7.80160502e-002 1.56179443e-001
      2.43418753e-001 2.56732672e-001 2.56732672e-001 1.31811604e-001
      9.94703397e-002 3.91947404e-002 1.50269449e-001 3.10685337e-001
      8.48075189e-003 0. 0. 2.45233439e-003 7.25354417e-004
      1.19947137e-004 2.44759955e-002 3.10685337e-001 3.10685337e-001
      1.37177080e-001 7.63287023e-002 1.47158384e-001 1.67613551e-001
      9.73282233e-002 1.06767461e-001 1.93857566e-001 3.10685337e-001
      2.81569034e-001 1.07117936e-004 0. 4.33788373e-004 3.86575516e-003
      5.07748080e-003 8.39629851e-004 1.43795582e-002 2.62752861e-001
      2.62396932e-001 6.64036274e-002 8.27494860e-002 1.04604848e-001
      3.10685337e-001 1.08728580e-001 1.90303043e-001 1.52720317e-001
      2.64129251e-001 3.60553086e-001 7.95914009e-002 1.19692400e-001
      1.19343258e-001 4.01712507e-002 4.61180657e-002 0. 1.59677751e-002
      3.60553086e-001 3.60553086e-001 0. 1.87253361e-004 2.63916038e-004
      0. 0. 0. 2.28111050e-003 3.60553086e-001 2.54648596e-001
      4.77548465e-002 1.18495762e-001 2.04044163e-001 8.84084851e-002
      3.95037234e-002 2.38478999e-003 2.74099130e-002 2.11052343e-001
      3.60553086e-001 0. 1.31077354e-003 1.84741244e-003 8.82064342e-004
      0. 8.58924643e-004 4.08888841e-003 3.60553086e-001 2.54897565e-001
      1.16879493e-001 7.22567812e-002 1.77424520e-001 1.23552367e-001
      2.76262015e-001 2.33109325e-001 1.31661505e-001 1.78776011e-001
      1.66670352e-001 1.80963397e-001 7.38090649e-002 2.76262015e-001
      2.76262015e-001 1.70559719e-001 9.89888906e-002 3.39823253e-002
      5.34407096e-003 1.06406704e-001 8.53892565e-002 4.50420305e-002
      1.88069791e-001 2.76262015e-001 2.76262015e-001 1.02785796e-001
      6.39123023e-002 5.09307981e-002 1.13095522e-001 1.18988581e-001
      3.07000671e-002 1.41622141e-001 2.76262015e-001 2.76262015e-001
      3.71454582e-002 1.12852734e-002 7.63438642e-004 3.16296034e-002 0.
      0. 0. 1.82023406e-001 1.42026857e-001 3.69303584e-001
      6.89488128e-002 8.84392709e-002 3.69303584e-001 1.32947729e-003
      3.97828780e-003 0. 1.42706737e-001 2.41480485e-001 3.69303584e-001
      3.69303584e-001 3.69303584e-001 2.04872880e-002 0. 0. 0.
      1.11786770e-002 5.13682142e-003 2.71618329e-002 7.78740691e-003
      2.86029559e-002 2.60203540e-001 0. 0. 0. 2.28543952e-002
      8.56136903e-003 4.52697203e-002 5.45118451e-002 3.05448979e-001
      4.25982714e-001 0. 0. 0. 4.13821224e-004 0. 5.74564037e-004
      3.17074737e-004 4.25982714e-001 4.25982714e-001 1.38646320e-001
      6.35441765e-002 7.73012685e-003 2.72581093e-002 0. 4.02194820e-003
      2.21952307e-003 4.25982714e-001 2.19059303e-001 0. 0. 0.
      9.82529833e-004 0. 0. 0. 2.19778225e-001 2.91865855e-001
      7.96441361e-003 3.57439509e-003 0. 1.01958830e-002 0. 0. 0.
      2.53294557e-001 4.32530075e-001 1.50983408e-003 1.12572999e-003
      2.20543123e-003 3.57275596e-003 8.87175789e-004 1.57283656e-002
      1.80017613e-002 4.32530075e-001 4.32530075e-001 4.61029267e-004
      1.00326841e-004 2.05216915e-004 0. 0. 0. 0. 4.32530075e-001
      2.04826564e-001 7.80755607e-003 2.89776968e-003 3.67571856e-003
      1.05424703e-003 0. 1.93288794e-003 2.24716333e-003 2.12422535e-001
      2.82838702e-001 2.79606902e-003 1.67211401e-004 3.42028186e-004 0.
      0. 2.04982949e-004 6.85017003e-005 2.82101065e-001 3.40996116e-001
      3.40996116e-001 3.40996116e-001 3.40996116e-001 3.40996116e-001 0.
      4.10260633e-003 4.54726716e-004 3.40996116e-001 4.63425070e-002
      9.10800621e-002 8.69507045e-002 2.50642508e-001 3.16711336e-001 0.
      0. 0. 2.04568673e-002 2.53327489e-001 9.18329433e-002
      5.68629196e-003 7.02293683e-003 5.69417849e-002 0. 0. 0.
      1.99392289e-001 1.67266745e-002 1.30114378e-002 4.90485458e-004
      1.00327667e-003 3.23498659e-002 0. 0. 0. 1.30287269e-002</_>
    <_>
      4.84411083e-002 2.15312536e-003 4.39387921e-004 0. 1.12256715e-002
      0. 3.77010927e-003 4.15061275e-003 4.14077640e-002 1.07574508e-001
      2.86612776e-004 0. 0. 5.07165026e-003 0. 2.17968621e-003
      2.46283808e-003 1.01020947e-001 4.25626189e-001 3.02818507e-001
      3.16193134e-001 1.44793794e-001 4.56690975e-002 0. 1.21296418e-003
      2.16599251e-003 4.16144371e-001 4.25626189e-001 1.75270990e-001
      8.29317197e-002 2.68133152e-002 2.99842865e-003 0. 6.27624046e-004
      1.26612559e-003 4.25626189e-001 7.73422346e-002 1.00497164e-004
      3.00724700e-004 0. 0. 0. 3.12537217e-004 1.04444443e-004
      7.91662931e-002 9.06438455e-002 7.03480153e-004 2.10507284e-003 0.
      3.30530270e-003 0. 2.76264013e-003 9.23226355e-004 9.97735634e-002
      4.86648560e-001 1.43567377e-005 4.29606698e-005 0. 0. 0.
      1.87522339e-004 6.26666661e-005 4.86648560e-001 4.86648560e-001
      1.00497164e-004 3.00724700e-004 0. 4.08165297e-003 4.42334376e-002
      4.67057712e-002 1.15032874e-001 4.86648560e-001 9.19849332e-003 0.
      0. 0. 1.32469982e-001 0. 1.41879484e-001 4.74136248e-002
      9.19849332e-003 0. 0. 0. 0. 1.45092951e-002 0. 0. 0. 0.
      5.51909627e-003 0. 0. 0. 9.47672546e-001 0. 2.07873791e-001
      6.94677681e-002 5.51909627e-003 0. 0. 0. 0. 6.37043789e-002 0. 0.
      0. 0. 0. 0. 0. 0. 0. 0. 0. 0. 0. 0. 0. 0. 0. 0. 0. 0. 0. 0. 0. 0.
      0. 0. 0. 0. 0. 0. 0. 0. 0. 0. 0. 0. 0. 0. 0. 0. 6.87234700e-002
      4.37997421e-003 1.84292402e-002 1.27235457e-001 3.06623757e-001
      2.86731273e-001 1.80738598e-001 1.02595411e-001 7.63995498e-002
      2.74560541e-001 5.94573049e-003 4.49349079e-003 1.49607752e-002
      2.02883165e-002 4.58947308e-002 2.66127978e-002 5.32139950e-002
      2.25259945e-001 2.64170438e-001 1.62138697e-003 1.14417468e-004
      2.34039035e-004 1.33659258e-001 1.67298093e-001 2.85426587e-001
      3.00903827e-001 3.22984755e-001 3.22984755e-001 2.70231161e-003 0.
      0. 3.67474277e-003 2.35707946e-002 4.08885106e-002 1.22139499e-001
      3.22984755e-001 1.96771920e-001 1.68400332e-002 2.88828975e-003
      2.65543326e-003 6.55749347e-004 8.21587862e-004 0. 6.02456927e-003
      2.29461104e-001 1.42704263e-001 2.00168133e-001 1.50618613e-001
      2.72270590e-001 1.73728123e-001 1.47586493e-002 8.29116162e-003
      5.98213077e-002 1.42369628e-001 3.23719203e-001 3.50277610e-002
      4.12612833e-004 1.49825262e-003 2.24397774e-003 0. 0.
      3.88823356e-003 3.23719203e-001 3.23719203e-001 3.23719203e-001
      1.16227947e-001 1.68570191e-001 3.03673238e-001 6.98802294e-003
      4.62008268e-002 1.78737834e-001 3.23719203e-001 0. 2.13680253e-003
      6.39412785e-003 0. 4.75989878e-001 7.79532734e-003 1.23174869e-001
      1.63066015e-001 0. 0. 3.05257505e-004 9.13446886e-004 0.
      8.75375140e-003 0. 1.56144914e-003 5.21808863e-004 0. 0.
      3.56133725e-003 1.06568793e-002 0. 4.75989878e-001 4.75989878e-001
      4.75989878e-001 2.14265451e-001 0. 0. 5.08762489e-004
      1.52241148e-003 0. 3.13078165e-002 0. 3.35835433e-003
      1.12230296e-003 0. 0. 0. 0. 0. 0. 0. 0. 0. 0. 0. 0. 0. 0. 0. 0. 0.
      0. 0. 0. 0. 0. 0. 0. 0. 0. 0. 0. 0. 0. 0. 0. 0. 0. 0. 0. 0.
      2.20474049e-001 2.58783232e-002 7.74378106e-002 0. 4.90703173e-002
      0. 3.98828499e-002 1.33281816e-002 2.20474049e-001 5.17990053e-001
      1.55269941e-002 4.64626886e-002 0. 5.79570711e-001 0. 0. 0.
      5.17990053e-001 0. 0. 0. 0. 0. 0. 0. 0. 0. 4.35485877e-002 0. 0.
      0. 0. 0. 0. 0. 4.35485877e-002 3.71257984e-003 0. 0. 0.
      4.69855368e-002 0. 1.20036292e-003 4.01141180e-004 3.71257984e-003
      1.04078185e-003 0. 0. 7.31603068e-004 7.02429473e-001
      3.39641585e-003 2.00060476e-003 6.68568653e-004 1.04078185e-003
      3.12968274e-004 0. 0. 0. 6.25935346e-002 0. 1.71480395e-004
      5.73058860e-005 3.12968274e-004 8.77372804e-005 0. 0. 0.
      7.02429473e-001 0. 2.85800663e-004 9.55098076e-005 8.77372804e-005
      0. 0. 0. 3.18169827e-003 7.00778008e-001 8.38922616e-003 0. 0. 0.
      0. 0. 0. 0. 6.29214570e-002 0. 0. 0. 0. 0. 0. 0. 0.
      7.00778008e-001 0. 0. 0. 0. 0. 0. 0. 0. 8.23731199e-002 0. 0. 0.
      0. 0. 0. 0. 0. 0. 0. 0. 0. 0. 0. 0. 0. 0. 0. 0. 0. 0. 0. 0. 0. 0.
      0. 0. 0. 0. 0. 0. 0. 0. 0. 0. 0. 0. 0. 0. 0. 0. 0. 0. 0. 0. 0. 0.
      0. 0. 0. 0. 0. 0. 0. 0. 0. 0. 0. 0. 0. 0. 0. 0. 0. 0. 0. 0. 0. 0.
      0. 0. 0. 0. 0. 0. 0. 0. 0. 0. 0. 4.78383042e-002 0. 0. 0. 0. 0. 0.
      0. 0. 7.02413440e-001 0. 0. 0. 0. 0. 0. 0. 0. 6.26949146e-002 0.
      0. 0. 0. 0. 0. 0. 0. 7.02413440e-001 0. 0. 0. 0. 0. 0. 0. 0.
      7.00823247e-001 0. 0. 0. 0. 0. 0. 0. 0. 6.27408922e-002 0. 0. 0.
      0. 0. 0. 0. 0. 7.00823247e-001 0. 0. 0. 0. 0. 0. 0. 0.
      8.22256282e-002 0. 0. 0. 0. 0. 0. 0. 0. 0. 0. 0. 0. 0. 0. 0. 0. 0.
      0. 0. 0. 0. 0. 0. 0. 0. 0. 0. 0. 0. 0. 0. 0. 0. 0. 0. 0. 0. 0. 0.
      0. 0. 0. 0. 0. 0. 0. 0. 0. 0. 0. 0. 0. 0. 0. 0. 0. 0. 0. 0. 0. 0.
      0. 0. 0. 0. 0. 0. 0. 0. 0. 0. 0. 0. 0. 0. 0. 0. 0. 0. 0.
      4.78383042e-002 0. 0. 0. 0. 0. 0. 0. 0. 7.02413440e-001 0. 0. 0.
      0. 0. 0. 0. 0. 6.26949146e-002 0. 0. 0. 0. 0. 0. 0. 0.
      7.02413440e-001 0. 0. 0. 0. 0. 0. 0. 0. 7.00823247e-001 0. 0. 0.
      0. 0. 0. 0. 0. 6.27408922e-002 0. 0. 0. 0. 0. 0. 0. 0.
      7.00823247e-001 0. 0. 0. 0. 0. 0. 0. 0. 8.22256282e-002 0. 0. 0.
      0. 0. 0. 0. 0. 0. 0. 0. 0. 0. 0. 0. 0. 0. 0. 0. 0. 0. 0. 0. 0. 0.
      0. 0. 0. 0. 0. 0. 0. 0. 0. 0. 0. 0. 0. 0. 0. 1.59721430e-002
      1.09607237e-003 3.27985385e-003 0. 4.48488723e-003 0.
      9.84150101e-004 3.28885682e-004 1.59721430e-002 1.54322935e-002 0.
      0. 0. 3.47028021e-003 0. 8.28185771e-003 2.76765134e-003
      1.54322935e-002 4.91665095e-001 1.50866196e-001 1.30291972e-002 0.
      5.07996678e-002 0. 1.64025021e-003 5.48142823e-004 4.91665095e-001
      4.91665095e-001 2.09302939e-002 0. 0. 2.42919605e-002 0.
      2.12313998e-002 7.09516043e-003 4.91665095e-001 1.85507571e-003
      3.39672610e-004 1.01642613e-003 0. 4.34453450e-002 0. 0. 0.
      1.85507571e-003 5.20050526e-004 5.66121074e-004 1.69404363e-003 0.
      5.87714553e-001 1.14113921e-002 0. 0. 5.20050526e-004
      2.60956466e-001 1.20752435e-002 6.03174698e-003 0. 3.89985181e-002
      0. 0. 0. 2.69227117e-001 1.71449006e-001 7.93112516e-002
      5.10095656e-002 8.52993652e-002 5.87714553e-001 2.21364707e-001 0.
      0. 2.53841400e-001 5.52841835e-003 6.42057369e-003 1.44932175e-003
      8.04520398e-003 4.46171969e-001 6.51827198e-004 1.48146378e-003
      1.68232725e-003 5.52841835e-003 2.42730230e-002 3.85234412e-003
      8.69592943e-004 0. 4.21093553e-002 0. 8.88878363e-004
      1.00939639e-003 2.42730230e-002 3.08192760e-001 3.85234412e-003
      1.80475917e-002 1.87858641e-001 4.46171969e-001 5.93305789e-002
      2.16374788e-002 9.54475254e-002 2.24610642e-001 4.46171969e-001
      2.31140642e-003 5.21755836e-004 0. 4.03783359e-002 0.
      2.88186432e-003 1.77445300e-002 4.46171969e-001 4.68601994e-002
      2.54006288e-003 1.43930910e-003 0. 2.62402054e-002 7.87877943e-003
      6.53791800e-003 1.11930063e-002 5.81442267e-002 1.70668997e-002
      4.40826314e-003 9.49428231e-003 0. 3.25420462e-002 1.31312981e-002
      3.30922715e-002 1.78411342e-002 2.44072285e-002 4.73420382e-001
      1.77804418e-002 1.00751631e-002 0. 3.60417850e-002 4.72726766e-003
      4.38952120e-003 4.20411378e-002 4.73420382e-001 4.73420382e-001
      3.45537066e-002 3.79234739e-002 0. 7.69238546e-002 7.87877943e-003
      2.31227558e-002 2.75584579e-001 4.73420382e-001 4.35334407e-002
      4.95765917e-002 1.17414162e-001 2.74329573e-001 3.11163396e-001
      3.11163396e-001 1.37466252e-001 0. 3.30810435e-002 1.51513472e-001
      3.07695754e-002 2.18071043e-002 4.81863581e-002 2.02650763e-002
      5.05864881e-002 3.31685804e-002 0. 1.45646989e-001 2.01425210e-001
      9.64367937e-004 5.40103065e-004 7.08989501e-002 2.62618870e-001
      3.11163396e-001 3.11163396e-001 2.27255166e-001 1.64107770e-001
      3.11163396e-001 2.50244397e-003 3.24061839e-004 3.13387290e-002
      6.95773773e-003 1.30015910e-001 1.45842388e-001 1.35013223e-001
      3.11163396e-001 1.79448113e-001 0. 2.17534881e-003 3.72641208e-003
      5.55203948e-003 2.26952834e-003 0. 3.52643011e-003 1.80280924e-001
      1.62601665e-001 4.27177874e-003 6.88976198e-002 8.65796655e-002
      3.74465078e-001 1.56244367e-001 5.81048839e-002 9.16179717e-002
      1.84233725e-001 3.74465078e-001 0. 1.62834849e-003 2.12537916e-003
      2.41480558e-003 3.24218359e-004 0. 1.28693809e-003 3.74465078e-001
      3.74465078e-001 1.41763523e-001 2.07038254e-001 7.09844828e-002
      2.13940278e-001 8.68821591e-002 1.44560952e-002 7.72162864e-004
      3.74465078e-001 1.26476303e-001 8.90117213e-002 1.42248183e-001
      1.63985923e-001 1.63676724e-001 1.68452524e-002 2.14033294e-002
      1.24107590e-002 1.29890680e-001 2.51422852e-001 1.18992282e-002
      1.75353815e-003 2.53344607e-003 1.32355501e-003 1.37546950e-003
      7.12356414e-004 2.55098403e-003 2.63494730e-001 4.22009468e-001
      2.85904715e-003 2.60083694e-002 4.49441560e-002 1.20985419e-001
      3.82005237e-002 8.98588374e-002 9.01027694e-002 4.22009468e-001
      4.22009468e-001 2.70518358e-003 2.02154290e-004 9.05191933e-004
      7.94132997e-004 2.29244912e-003 3.09796538e-004 3.64426320e-004
      4.22009468e-001 9.25038233e-002 7.89186393e-004 3.39604542e-002
      5.97585738e-002 2.81486921e-002 5.25864251e-002 2.66663898e-002
      2.39825584e-002 8.09744000e-002 2.76117753e-002 0. 1.65389374e-001
      3.09410214e-001 3.09410214e-001 3.09410214e-001 1.36409014e-001
      4.47669476e-002 3.06305140e-002 3.09410214e-001 1.35062814e-001
      1.52445987e-001 1.43150538e-001 1.11993114e-002 2.88036037e-002
      2.32690317e-003 7.84447417e-003 3.09410214e-001 1.30941331e-001
      2.29608715e-001 3.09410214e-001 3.09410214e-001 3.09410214e-001
      7.24047348e-002 3.87817202e-003 4.45608143e-003 1.36174411e-001
      3.74100745e-001 3.79588194e-002 3.64599749e-002 1.15284687e-002
      2.90148348e-001 0. 1.51839852e-001 6.51204363e-002 3.70009989e-001
      4.16197032e-001 1.23369910e-001 3.08873773e-001 8.06992799e-002
      1.46838143e-001 0. 4.11216915e-002 1.57961939e-002 4.16197032e-001
      8.80209059e-002 0. 3.56748933e-003 1.64692418e-003 2.86510643e-002
      0. 6.95968270e-002 2.32580956e-002 8.80209059e-002 2.13793486e-001
      1.07581140e-002 5.71648069e-002 1.15284687e-002 1.40099339e-002 0.
      2.46730149e-002 8.24530795e-003 2.13793486e-001 4.35883999e-001
      2.73219962e-002 1.04098823e-002 0. 0. 0. 1.08187664e-002
      3.86847034e-002 4.35883999e-001 4.35883999e-001 6.40902296e-002
      7.28691742e-002 0. 0. 5.38048334e-002 2.84191579e-001
      7.70643875e-002 4.35883999e-001 1.63795337e-001 4.96970781e-004
      1.48712611e-003 0. 0. 0. 6.49125967e-003 2.16927053e-003
      1.63795337e-001 1.94218516e-001 3.47879529e-003 1.04098823e-002 0.
      0. 7.68640498e-003 6.75596893e-002 1.70131493e-002 1.94218516e-001
      4.13712889e-001 1.84676319e-001 3.41544926e-001 5.02996296e-002 0.
      0. 0. 0. 4.13712889e-001 4.13712889e-001 9.86620858e-002
      1.78432241e-001 3.01797800e-002 0. 0. 0. 0. 4.13712889e-001
      1.47585943e-001 2.28418335e-002 8.39166492e-002 7.18566170e-003 0.
      0. 0. 0. 1.47585943e-001 1.73228309e-001 1.78310964e-002
      6.26965761e-002 4.31139721e-003 0. 0. 0. 0. 1.73228309e-001
      4.04909700e-001 5.76172508e-002 5.59607446e-002 0. 1.44079864e-001
      9.28204879e-003 6.81376010e-002 1.88104600e-001 4.04909700e-001
      3.20495695e-001 1.42286420e-001 2.31688514e-001 0. 3.25128496e-001
      6.49743378e-002 1.01442628e-001 1.79259881e-001 4.04909700e-001
      1.55413330e-001 1.12206787e-002 3.35764475e-002 0. 1.97941475e-002
      0. 3.81598547e-002 2.02342235e-002 1.65663734e-001 1.14224806e-001
      4.45740148e-002 1.33382276e-001 0. 4.09260914e-002 0.
      2.28959154e-002 2.01211609e-002 1.31308809e-001</_>
    <_>
      1.48504004e-001 1.01093523e-001 1.48896545e-001 9.54981819e-002
      7.15864599e-002 0. 0. 0. 5.56654893e-002 3.00554574e-001
      1.43762127e-001 1.07010782e-001 7.12447241e-002 1.02266371e-002 0.
      0. 0. 3.00554574e-001 1.05840929e-001 1.43071741e-001
      3.00554574e-001 3.00554574e-001 3.00554574e-001 0. 0. 0.
      3.77834775e-002 3.00554574e-001 2.25629628e-001 2.75399983e-001
      3.00554574e-001 7.34378695e-002 0. 0. 0. 3.00554574e-001
      3.32261890e-001 0. 0. 0. 0. 0. 0. 0. 3.32261890e-001
      3.32261890e-001 0. 0. 0. 3.08634859e-004 2.78194044e-002
      3.21913548e-002 1.10864408e-001 3.32261890e-001 3.32261890e-001 0.
      9.80562647e-004 4.52672743e-004 0. 7.28441810e-004 1.09272962e-003
      0. 3.32261890e-001 3.32261890e-001 1.95117400e-003 6.86393911e-003
      3.16870911e-003 1.77963570e-001 1.95949897e-001 6.19675033e-002
      1.59449145e-001 3.32261890e-001 3.52477700e-001 1.72024537e-002
      4.80610831e-003 4.30890033e-003 1.15648087e-004 0. 0. 0.
      3.52477700e-001 3.52477700e-001 0. 0. 0. 0. 0. 0. 0.
      3.52477700e-001 3.52477700e-001 2.49613672e-002 1.21293943e-002
      3.01623009e-002 2.03185659e-002 1.09893596e-002 1.69983658e-003 0.
      3.52477700e-001 3.52477700e-001 0. 0. 0. 0. 2.00290597e-004
      2.42833776e-004 0. 3.52477700e-001 3.04099262e-001 0. 0. 0.
      5.14866002e-002 1.11421883e-001 1.49450287e-001 1.14980876e-001
      3.05865228e-001 3.96733657e-002 0. 0. 0. 9.48097482e-002
      1.51527822e-001 1.21091545e-001 6.89885318e-002 9.91387069e-002
      3.05865228e-001 0. 7.15859496e-005 6.17653038e-003 1.28325775e-001
      3.05865228e-001 3.05865228e-001 1.15282670e-001 3.05865228e-001
      3.61681581e-002 0. 1.02265640e-005 8.82361550e-004 3.05865228e-001
      3.05865228e-001 3.05865228e-001 6.74412549e-002 8.36054608e-002
      1.68598309e-001 7.52224624e-002 9.96529758e-002 7.47300014e-002
      1.69663057e-001 2.53795773e-001 1.99686140e-001 1.37743294e-001
      1.67024925e-001 2.92688996e-001 2.86349542e-002 3.69685367e-002
      1.54876923e-002 4.10647057e-002 1.30670905e-001 1.24958180e-001
      9.97032300e-002 2.92688996e-001 1.39938831e-001 7.23814592e-002
      1.51835009e-001 1.98530629e-001 2.92688996e-001 2.17689544e-001
      1.58768237e-001 1.29049852e-001 1.88374519e-001 2.92688996e-001
      3.16342488e-002 4.76474650e-002 7.10060224e-002 2.51938015e-001
      4.00209017e-002 5.12635335e-002 6.64510652e-002 2.92688996e-001
      3.02207083e-001 1.97554193e-002 2.91940644e-002 2.57083252e-002
      5.17711788e-003 2.73802271e-003 1.83028739e-003 3.01308883e-003
      3.02207083e-001 3.02207083e-001 1.38287932e-001 3.02207083e-001
      3.02207083e-001 8.33551586e-002 1.91661566e-002 3.05047887e-003
      5.02181426e-003 2.86631167e-001 3.02207083e-001 2.07777992e-002
      1.75164398e-002 3.62428580e-003 4.31304041e-004 0. 0. 0.
      3.02207083e-001 3.02207083e-001 1.45444602e-001 1.48893759e-001
      1.33426651e-001 5.05880341e-002 0. 0. 0. 3.02207083e-001
      3.45976979e-001 0. 0. 2.53489614e-002 5.98596260e-002
      1.17634758e-001 1.08084150e-001 5.45166545e-002 3.45976979e-001
      3.45976979e-001 0. 0. 3.12596676e-003 3.18948738e-003 0.
      9.48508387e-006 7.38096947e-004 3.45976979e-001 3.45976979e-001 0.
      0. 2.89358664e-003 1.66329462e-002 2.24506501e-002 4.99909371e-002
      5.39975129e-002 3.45976979e-001 3.45976979e-001 0. 0.
      4.13369504e-004 4.46076068e-004 0. 0. 0. 3.45976979e-001
      2.37116680e-001 1.44768700e-001 2.45802432e-001 1.53519943e-001
      4.62734103e-002 1.52984662e-002 6.00306783e-003 1.91842597e-002
      1.83240592e-001 1.10425554e-001 1.99533090e-001 2.45802432e-001
      1.70675278e-001 7.31040910e-002 1.70427531e-001 2.13061810e-001
      1.01063594e-001 2.52971239e-002 2.45802432e-001 1.01291142e-001
      2.26547331e-001 2.40617305e-001 1.80109784e-001 0. 2.38194373e-002
      4.21876535e-002 1.97725400e-001 1.02232710e-001 1.06864341e-001
      2.45802432e-001 2.45802432e-001 2.45802432e-001 2.45802432e-001
      2.20426351e-001 3.97474915e-002 1.80810485e-002 6.29861024e-004 0.
      0. 0. 5.03681839e-001 0. 0. 0. 6.29861024e-004 0. 0. 0. 0.
      4.83614087e-001 0. 0. 0. 0. 2.92027777e-004 0. 0. 0.
      5.03681839e-001 0. 0. 0. 2.92027777e-004 0. 0. 0. 0.
      5.03681839e-001 0. 0. 0. 0. 0. 0. 0. 0. 0. 0. 0. 0. 0. 0. 0. 0. 0.
      0. 0. 0. 0. 0. 0. 0. 0. 0. 0. 0. 0. 0. 0. 0. 0. 0. 0. 0. 0. 0. 0.
      0. 0. 0. 0. 0. 0. 0. 0. 0. 0. 0. 0. 0. 0. 0. 0. 0. 0. 0. 0. 0. 0.
      0. 0. 0. 0. 0. 0. 0. 0. 0. 0. 0. 0. 0. 0. 0. 0. 0. 0.
      6.79372170e-004 4.98534054e-001 1.51647860e-002 0. 0. 0. 0. 0. 0.
      1.13228697e-003 4.98534054e-001 2.52746418e-002 0. 0. 0. 0. 0. 0.
      1.13228697e-003 4.98534054e-001 4.12073743e-004 0. 0. 0. 0. 0. 0.
      1.88714499e-003 4.98534054e-001 6.86789572e-004 0. 0. 0.
      7.98818473e-006 0. 0. 0. 5.03688931e-001 0. 0. 0. 7.98818473e-006
      0. 0. 0. 0. 4.83592689e-001 0. 0. 0. 0. 0. 0. 0. 0.
      5.03688931e-001 0. 0. 0. 0. 0. 0. 0. 0. 5.03688931e-001 0. 0. 0.
      0. 0. 0. 0. 0. 0. 0. 0. 0. 0. 0. 0. 0. 0. 0. 0. 0. 0. 0. 0. 0. 0.
      0. 0. 0. 0. 0. 0. 0. 0. 0. 0. 0. 0. 0. 0. 0. 0. 0. 0. 0. 0. 0. 0.
      0. 0. 0. 0. 0. 0. 0. 0. 0. 0. 0. 0. 0. 0. 0. 0. 0. 0. 0. 0. 0. 0.
      0. 0. 0. 0. 0. 0. 0. 0. 0. 0. 0. 4.98753130e-001 0. 0. 0. 0. 0. 0.
      0. 0. 4.98753130e-001 0. 0. 0. 0. 0. 0. 0. 0. 4.98753130e-001 0.
      0. 0. 0. 0. 0. 0. 0. 4.98753130e-001 0. 0. 0. 0. 0. 0. 0. 0.
      5.03688931e-001 0. 0. 0. 0. 0. 0. 0. 0. 4.83592689e-001 0. 0. 0.
      0. 0. 0. 0. 0. 5.03688931e-001 0. 0. 0. 0. 0. 0. 0. 0.
      5.03688931e-001 0. 0. 0. 0. 0. 0. 0. 0. 0. 0. 0. 0. 0. 0. 0. 0. 0.
      0. 0. 0. 0. 0. 0. 0. 0. 0. 0. 0. 0. 0. 0. 0. 0. 0. 0. 0. 0. 0. 0.
      0. 0. 0. 0. 0. 0. 0. 0. 0. 0. 0. 0. 0. 0. 0. 0. 0. 0. 0. 0. 0. 0.
      0. 0. 0. 0. 0. 0. 0. 0. 0. 0. 0. 0. 0. 0. 0. 0. 0. 0. 0.
      4.98753130e-001 0. 0. 0. 0. 0. 0. 0. 0. 4.98753130e-001 0. 0. 0.
      0. 0. 0. 0. 0. 4.98753130e-001 0. 0. 0. 0. 0. 0. 0. 0.
      4.98753130e-001 0. 0. 0. 0. 1.87258265e-004 0. 0. 0.
      5.03688216e-001 0. 0. 0. 1.87258265e-004 0. 0. 0. 0.
      4.83594358e-001 0. 0. 0. 0. 4.75235109e-004 0. 0. 0.
      5.03688216e-001 0. 0. 0. 4.75235109e-004 0. 0. 0. 0.
      5.03688216e-001 0. 0. 0. 0. 0. 0. 0. 0. 0. 0. 0. 0. 0. 0. 0. 0. 0.
      0. 0. 0. 0. 0. 0. 0. 0. 0. 0. 0. 0. 0. 0. 0. 0. 0. 0. 0. 0. 0. 0.
      0. 0. 0. 0. 0. 0. 0. 0. 0. 0. 0. 0. 0. 0. 0. 0. 0. 0. 0. 0. 0. 0.
      0. 0. 0. 0. 0. 0. 0. 0. 0. 0. 0. 0. 0. 0. 0. 0. 0. 0.
      1.99593231e-003 4.98712152e-001 1.11275772e-003 0. 0. 0. 0. 0. 0.
      3.32655408e-003 4.98712152e-001 1.85459643e-003 0. 0. 0. 0. 0. 0.
      3.40053020e-003 4.98712152e-001 5.15172724e-003 0. 0. 0. 0. 0. 0.
      5.66755049e-003 4.98712152e-001 8.58621113e-003 0. 0. 0.
      3.07758804e-002 1.08635807e-002 2.69721262e-002 2.51153976e-001
      3.21223795e-001 1.21801615e-001 5.84515231e-003 2.16860157e-002
      4.47445288e-002 1.04573883e-001 1.55194011e-003 3.85316089e-003
      3.58791389e-002 3.21223795e-001 5.03957495e-002 0. 7.73788895e-003
      1.12955078e-001 1.58349916e-001 1.71475634e-001 1.83473513e-001
      3.21223795e-001 2.55660951e-001 2.08267778e-001 1.23177215e-001
      1.76338986e-001 3.04997534e-001 3.21223795e-001 6.81219399e-002
      5.28246835e-002 7.07289651e-002 1.03599586e-001 9.27680731e-002
      1.17515931e-002 5.45321479e-002 3.21223795e-001 1.57921433e-001 0.
      0. 0. 0. 0. 0. 0. 1.59697771e-001 1.62401929e-001 0. 0. 0.
      4.64357156e-003 0. 0. 2.05800366e-002 1.92961603e-001
      4.36913937e-001 0. 0. 0. 0. 0. 0. 1.94626010e-003 4.36913937e-001
      4.36913937e-001 0. 0. 0. 1.38135567e-001 8.89664292e-002
      2.30725363e-001 1.93209261e-001 4.36913937e-001 1.49599776e-001
      9.50758718e-003 0. 0. 2.10922956e-003 0. 0. 0. 1.36811718e-001
      2.01975971e-001 0. 0. 0. 0. 0. 0. 0. 2.01975971e-001
      4.58789319e-001 1.02580562e-001 1.21692888e-001 6.95225149e-002
      2.28165481e-002 0. 0. 0. 4.58789319e-001 4.58789319e-001 0. 0. 0.
      0. 0. 0. 0. 4.58789319e-001 4.07624543e-002 2.44539138e-002
      1.03212576e-002 1.55906240e-002 2.73701578e-001 1.87816635e-001
      3.91052924e-002 4.78712464e-004 6.27832040e-002 4.56221821e-003
      1.46723492e-002 1.02549747e-001 2.73701578e-001 2.73701578e-001
      2.73701578e-001 9.70463902e-002 3.35098710e-003 4.36711162e-002
      2.73701578e-001 5.67351356e-002 4.08436395e-002 5.60413897e-002
      7.64397681e-002 2.12727085e-001 9.77863818e-002 1.05196461e-001
      2.73701578e-001 8.14452916e-002 1.69347823e-001 2.73701578e-001
      2.73701578e-001 1.17616616e-001 2.73701578e-001 2.03334287e-001
      1.11590154e-001 2.73701578e-001 2.66547333e-002 7.30411615e-004
      1.32423756e-003 3.75599042e-002 2.72082716e-001 2.80933350e-001
      2.80933350e-001 1.23938017e-001 4.56027649e-002 2.80933350e-001
      3.32228793e-003 2.20706267e-003 1.91317704e-002 8.92214105e-002
      1.46183178e-001 1.93759888e-001 1.62009761e-001 2.45735154e-001
      5.96998669e-002 0. 0. 1.29056897e-003 1.50781885e-001
      1.49119720e-001 2.80933350e-001 2.75648713e-001 9.63849798e-002
      2.80933350e-001 0. 0. 2.15094816e-003 2.55042817e-002
      5.43994308e-002 2.44587690e-001 2.80933350e-001 2.80933350e-001
      3.31690848e-001 0. 1.71038439e-003 3.78304074e-004 0.
      1.21980680e-004 4.63124336e-004 1.66249694e-003 3.31690848e-001
      2.61541545e-001 6.71067014e-002 1.36385992e-001 1.41258791e-001
      1.88632801e-001 2.03499217e-002 3.24187055e-003 1.28851412e-002
      3.31690848e-001 3.31690848e-001 0. 0. 0. 0. 0. 0. 2.37499538e-004
      3.31690848e-001 3.31690848e-001 2.40157202e-001 1.34857163e-001
      5.38880937e-002 1.20004416e-002 0. 0. 1.66249694e-003
      3.31690848e-001 3.34588259e-001 6.11855043e-003 6.34226855e-003
      1.92612410e-002 2.24806480e-002 1.93716064e-002 2.82398723e-002
      1.19735152e-002 3.28776151e-001 3.58693272e-001 9.92295681e-004
      2.14360378e-004 1.60880067e-004 0. 5.40302484e-004 7.19914562e-004
      5.21088718e-004 3.58693272e-001 3.58693272e-001 8.37135885e-004 0.
      0. 2.34585372e-003 5.80827938e-003 2.21636333e-002 4.00568843e-002
      3.58693272e-001 3.58693272e-001 1.19590833e-004 0. 0. 0. 0. 0. 0.
      3.58693272e-001 8.92988890e-002 5.24139367e-002 2.76708454e-001
      2.76708454e-001 1.67319566e-001 1.96322575e-002 5.27884054e-004
      1.23485988e-002 2.18865693e-001 3.41767888e-003 3.10716685e-002
      2.76708454e-001 2.76708454e-001 2.76708454e-001 2.78492570e-002
      3.16730438e-004 1.76408561e-003 2.18149442e-002 2.23238647e-001
      2.38882259e-001 2.76708454e-001 1.92185774e-001 5.02410159e-002 0.
      0. 3.78047340e-002 2.76708454e-001 4.77866717e-002 1.43329352e-001
      2.76708454e-001 2.76708454e-001 2.14445725e-001 0. 0.
      5.40067675e-003 4.58826683e-002</_>
    <_>
      1.96376085e-001 1.26442939e-001 3.69186886e-002 5.73276468e-002
      1.11003339e-001 1.01558253e-001 1.22099675e-001 1.67338088e-001
      1.71953753e-001 1.45415232e-001 1.42968833e-001 6.05612397e-002
      1.92809254e-001 2.80124962e-001 2.65637845e-001 9.15827155e-002
      1.53878868e-001 1.42932132e-001 2.08746985e-001 5.31362332e-002
      7.74930865e-002 6.31081015e-002 1.66684791e-001 2.80124962e-001
      2.56240219e-001 2.08791375e-001 1.33169711e-001 8.97577181e-002
      7.83706009e-002 1.30472049e-001 1.65537283e-001 1.53103814e-001
      2.80124962e-001 2.57408708e-001 1.76433474e-001 1.06665954e-001
      3.59719433e-002 6.84057921e-002 2.65941676e-002 8.58407244e-002
      2.55657732e-001 1.48133636e-001 1.70683563e-001 1.08021282e-001
      8.46939683e-002 1.62715524e-001 1.63910598e-001 1.15226023e-001
      2.14065328e-001 2.55657732e-001 1.04059994e-001 1.86009780e-001
      1.18409380e-001 1.84412569e-001 7.68043995e-002 4.61613871e-002
      2.19407156e-002 9.87286642e-002 2.55657732e-001 2.55657732e-001
      1.60826921e-001 2.55657732e-001 1.71397388e-001 1.60366565e-001
      9.12293866e-002 7.97650367e-002 2.55657732e-001 2.55657732e-001
      1.75364107e-001 1.09381124e-001 1.67539239e-001 2.55657732e-001
      1.79447219e-001 1.00054525e-001 1.48559496e-001 1.85600773e-001
      9.75071862e-002 2.50394940e-001 1.73561513e-001 7.49863982e-002
      1.66727856e-001 1.49648279e-001 1.60222113e-001 1.62795559e-001
      1.26819253e-001 2.08381668e-001 2.50394940e-001 4.41278778e-002
      1.44271739e-002 5.20718209e-002 1.11518562e-001 6.47938028e-002
      1.45953447e-001 2.08571404e-001 1.64715588e-001 2.50394940e-001
      1.86956525e-001 1.33530155e-001 2.50394940e-001 2.47885302e-001
      1.42652720e-001 1.84657902e-001 1.40362918e-001 2.27062434e-001
      2.50394940e-001 1.21218249e-001 3.67553420e-002 9.34532359e-002
      4.01894487e-002 5.87944761e-002 9.27550942e-002 2.58942008e-001
      2.58942008e-001 2.62255371e-002 9.03560147e-002 9.89995077e-002
      4.21027131e-002 8.75067413e-002 7.65183866e-002 1.09978318e-001
      2.58942008e-001 2.58942008e-001 5.34054153e-002 1.10806458e-001
      1.30256489e-001 2.08372161e-001 1.50806963e-001 2.24848941e-001
      2.58942008e-001 2.58942008e-001 1.90491319e-001 1.03540875e-001
      7.25529119e-002 7.35073686e-002 8.93998984e-003 1.41618922e-001
      2.36493275e-001 2.58942008e-001 2.58942008e-001 2.58942008e-001
      6.34689927e-002 9.99031439e-002 1.48113191e-001 1.25470757e-001
      1.80882722e-001 1.24984466e-001 1.74314305e-001 1.23143472e-001
      7.43323192e-002 7.87129104e-002 7.68578649e-002 1.52757168e-001
      1.93641901e-001 1.79995462e-001 7.01892450e-002 1.49466082e-001
      1.74577206e-001 2.72757202e-001 5.69432154e-002 8.97086337e-002
      1.32560581e-001 1.44373044e-001 1.91905782e-001 6.57525733e-002
      6.43711388e-002 7.22210035e-002 2.72757202e-001 8.71359780e-002
      2.12010652e-001 2.08858609e-001 2.63562560e-001 1.24684468e-001
      2.78647449e-002 1.34273142e-001 1.21033207e-001 2.72757202e-001
      5.52554540e-002 2.72757202e-001 2.72757202e-001 2.11898148e-001
      1.72760114e-001 1.57298535e-001 1.38354972e-001 1.85623959e-001
      2.53533095e-001 4.44841720e-002 4.46379781e-002 2.85379756e-002
      2.04553232e-002 1.30899742e-001 2.26977155e-001 2.53533095e-001
      2.06207439e-001 2.18126476e-001 2.53533095e-001 7.05258176e-002
      9.03824642e-002 1.65674631e-002 1.03355803e-001 9.32605565e-002
      1.52335048e-001 1.94463432e-001 2.53533095e-001 1.29772186e-001
      8.36217776e-002 6.23815879e-002 1.02957122e-001 1.38043955e-001
      1.86802357e-001 1.80586711e-001 2.31571019e-001 2.53533095e-001
      2.41825044e-001 2.22854227e-001 1.13062866e-001 1.03279635e-001
      6.47027865e-002 2.71872252e-001 1.32950023e-001 1.43232480e-001
      7.28894845e-002 2.06111118e-001 1.13059849e-001 4.07427400e-002
      1.48787545e-002 6.68866783e-002 2.21966833e-001 9.04506668e-002
      3.39291953e-002 6.42311797e-002 2.71872252e-001 2.71872252e-001
      1.76365256e-001 6.52593151e-002 8.97496492e-002 2.71872252e-001
      7.12799504e-002 1.07251711e-001 2.71872252e-001 2.71872252e-001
      1.12072214e-001 5.10097779e-002 4.97759357e-002 1.26748964e-001
      2.71872252e-001 1.41518146e-001 3.07561029e-002 2.09487751e-001
      2.71872252e-001 2.45237976e-001 7.22809881e-002 9.99873877e-002
      4.25274782e-002 2.12894857e-001 4.64418568e-002 8.18584785e-002
      2.35811219e-001 9.67020541e-002 2.62499571e-001 1.82811633e-001
      7.07393885e-002 2.32545242e-001 4.08761241e-002 2.13720407e-002
      5.54620363e-002 2.62968838e-001 2.62968838e-001 8.37684199e-002
      8.47160146e-002 1.56945944e-001 3.49151678e-002 1.35102510e-001
      7.25719333e-002 1.57818750e-001 1.29400432e-001 2.09577650e-001
      2.47988909e-001 1.39500961e-001 1.38130859e-001 2.22976357e-001
      1.96641430e-001 2.10740611e-001 2.62968838e-001 1.09018452e-001
      2.62968838e-001 5.44175170e-002 9.59225968e-002 1.64860457e-001
      1.91038679e-002 1.38659254e-001 2.82114714e-001 2.52356559e-001
      1.40894398e-001 2.26373617e-002 3.75138670e-002 1.46041848e-002
      1.99400745e-002 4.58275825e-002 1.19036011e-001 2.65406311e-001
      2.82114714e-001 2.62795419e-001 1.08642697e-001 7.44295344e-002
      6.76726550e-002 2.72330474e-002 2.55212262e-002 2.82114714e-001
      1.78106040e-001 2.02350110e-001 2.82114714e-001 3.26298811e-002
      5.92025183e-002 2.47748774e-002 3.35177071e-002 1.84999760e-002
      2.82114714e-001 2.54231721e-001 2.82114714e-001 2.82114714e-001
      3.58494595e-002 5.51417470e-003 9.42920074e-002 3.40389684e-002
      5.38748764e-002 6.53138459e-002 1.09144941e-001 1.54676750e-001
      1.89168975e-001 8.33837762e-002 1.20535731e-001 7.72945061e-002
      1.00200653e-001 6.01431951e-002 1.52605370e-001 1.61341563e-001
      1.28177688e-001 1.54361293e-001 1.39588982e-001 1.78881571e-001
      5.56991696e-002 2.24552453e-001 3.28000300e-002 1.12130277e-001
      2.59444565e-001 1.11244887e-001 2.16386169e-001 2.59444565e-001
      2.36990422e-001 1.50327384e-001 1.01265103e-001 4.71939258e-002
      2.59444565e-001 2.59444565e-001 2.59444565e-001 1.00544274e-001
      2.48440653e-001 2.59444565e-001 6.27039075e-002 1.97969526e-001
      1.12548813e-001 6.15669489e-002 1.13017105e-001 1.64771080e-001
      1.08406611e-001 8.95132646e-002 2.06527278e-001 1.49993002e-001
      2.08464209e-002 1.42249092e-001 1.13828599e-001 1.21502861e-001
      1.68369159e-001 2.24569663e-001 1.22632198e-001 1.83570653e-001
      1.72238082e-001 1.04240566e-001 1.75645873e-001 2.52055436e-001
      1.74171492e-001 2.30195045e-001 1.30701616e-001 1.40794009e-001
      2.52055436e-001 9.93177742e-002 5.92083335e-002 2.52055436e-001
      1.88142061e-001 1.50802895e-001 1.65504873e-001 2.25640997e-001
      1.98395476e-001 2.52055436e-001 1.30428597e-001 1.68373913e-001
      6.16044179e-002 7.34348968e-002 4.30640429e-002 1.29187644e-001
      8.66813064e-002 2.00239480e-001 1.26287073e-001 2.18569010e-001
      6.26643226e-002 5.60231693e-002 1.42388865e-001 1.85117945e-001
      2.38763005e-001 2.07871571e-001 2.39427552e-001 1.03864767e-001
      1.21510915e-001 4.33665104e-002 7.67370462e-002 2.67264783e-001
      1.60131067e-001 1.14818498e-001 7.25408122e-002 2.67264783e-001
      2.67264783e-001 1.75857440e-001 6.19286336e-002 7.93009922e-002
      2.67264783e-001 2.67264783e-001 2.41394281e-001 6.62728101e-002
      1.59907401e-001 2.67264783e-001 5.34985699e-002 3.12563181e-002
      1.87984452e-001 1.15352832e-001 1.71565428e-001 7.19990134e-002
      9.37157124e-002 1.22133993e-001 8.66419524e-002 4.57397811e-002
      1.32894725e-001 6.45875186e-002 1.76547080e-001 2.13013187e-001
      7.50939399e-002 1.41682521e-001 2.61351228e-001 1.14203647e-001
      5.56068942e-002 2.67378658e-001 2.76007831e-001 1.01096816e-001
      1.98819768e-002 7.90311769e-002 2.76007831e-001 1.88720033e-001
      1.60484612e-001 1.25896588e-001 1.89167216e-001 1.16171770e-001
      6.68408945e-002 1.90146733e-002 1.44982904e-001 2.76007831e-001
      2.76007831e-001 1.76118329e-001 1.39750406e-001 2.76007831e-001
      7.19078705e-002 1.28713742e-001 1.72590241e-001 8.11836421e-002
      1.13124721e-001 1.32656962e-001 7.12793171e-002 9.54072699e-002
      6.76950440e-002 2.72825304e-002 1.05927587e-001 2.40354285e-001
      8.27092379e-002 1.28489494e-001 1.79444864e-001 2.67084897e-001
      1.90165535e-001 6.50215521e-002 3.10516451e-002 1.04290411e-001
      2.29830891e-001 9.66683924e-002 2.67084897e-001 2.02930138e-001
      2.43895128e-001 4.19100411e-002 1.32053504e-002 1.04290932e-001
      2.67084897e-001 2.67084897e-001 1.72475845e-001 2.67084897e-001
      2.67084897e-001 2.67084897e-001 8.34411755e-002 2.90834904e-002
      9.35532376e-002 2.44553797e-002 6.74251541e-002 1.83897823e-001
      2.02143267e-001 1.92733943e-001 1.58982992e-001 1.09721452e-001
      9.74438339e-002 4.67173494e-002 7.17516690e-002 1.45271927e-001
      2.45515212e-001 2.11743265e-001 2.84847707e-001 2.41204500e-001
      2.27403473e-002 3.69340815e-002 1.13005310e-001 3.38110304e-003
      2.84847707e-001 2.84847707e-001 1.73185319e-001 4.83975336e-002
      5.09651937e-002 7.60747939e-002 1.69852719e-001 1.16837204e-001
      3.29959951e-002 2.84847707e-001 2.84847707e-001 2.84847707e-001
      1.94252625e-001 5.38312979e-002 1.83106586e-002 7.82570243e-002
      8.49783346e-002 2.98229661e-002 6.89742789e-002 2.65384354e-002
      1.90081775e-001 2.21510962e-001 1.48330420e-001 1.03852913e-001
      6.70986846e-002 9.78831202e-002 2.99772713e-002 9.92826093e-003
      2.47487184e-002 2.82587916e-001 2.34502643e-001 2.57799983e-001
      1.85708418e-001 7.84129053e-002 5.16291857e-002 4.79379576e-003
      9.15159360e-002 1.60715938e-001 2.50813603e-001 1.54408187e-001
      2.82587916e-001 2.82587916e-001 1.33996323e-001 9.30199474e-002
      1.87347196e-002 8.24473575e-002 1.79628462e-001 2.82587916e-001
      7.51738846e-002 2.82587916e-001 2.70736873e-001 1.41216666e-001
      2.89187551e-001 7.27035031e-002 4.40394804e-002 9.25665647e-002
      1.31073460e-001 1.75874054e-001 7.27270618e-002 1.12503089e-001
      9.76875499e-002 2.92233050e-001 2.39465684e-001 1.58119887e-001
      1.05760209e-001 1.27039909e-001 1.58072174e-001 5.07961586e-002
      6.91541061e-002 7.48591647e-002 2.92233050e-001 1.66448087e-001
      1.92098022e-002 3.32608409e-002 8.04621726e-002 1.50057912e-001
      8.45781043e-002 1.95654675e-001 2.11847320e-001 2.92233050e-001
      2.92233050e-001 1.73242867e-001 2.92233050e-001 1.82985589e-001
      6.37992769e-002 2.36723404e-002 1.04131341e-001 1.41334340e-001
      2.06684694e-001 1.58211410e-001 1.36107221e-001 1.09789915e-001
      1.46629632e-001 6.50298744e-002 8.24537799e-002 5.79321831e-002
      8.25397223e-002 2.61945605e-001 1.46090597e-001 1.73970953e-001
      2.00855568e-001 6.88370392e-002 9.18305293e-002 1.78413510e-001
      7.54036456e-002 2.00694114e-001 7.75428489e-002 1.69030845e-001
      2.61945605e-001 1.98997155e-001 1.89667404e-001 9.31668505e-002
      1.05684772e-001 8.39233994e-002 2.05348164e-001 1.29141375e-001
      1.54227957e-001 2.61945605e-001 2.61945605e-001 1.53354734e-001
      8.35326985e-002 2.61945605e-001 1.34072348e-001 2.49417514e-001
      1.42974108e-001 9.43434462e-002 1.23224489e-001 1.25981793e-001
      1.85643822e-001 1.23251610e-001 2.44528800e-001 5.11668846e-002
      9.57358256e-002 9.96152312e-002 1.71132147e-001 1.97626576e-001
      1.77008599e-001 2.26967290e-001 1.23401850e-001 1.26353770e-001
      1.32799953e-001 5.79477213e-002 2.09558934e-001 1.51497990e-001
      7.71719813e-002 4.95924912e-002 9.55731869e-002 2.52708793e-001
      2.52708793e-001 8.97080004e-002 1.66978940e-001 1.56311065e-001
      2.52708793e-001 1.94484353e-001 1.97536618e-001 1.77049443e-001
      2.21569315e-001 2.45877370e-001 1.67783886e-001 1.42443776e-001
      1.05541386e-001 8.33660886e-002 1.20492555e-001 2.06886515e-001
      1.73850104e-001 1.11888438e-001 7.84240514e-002 1.46656930e-001
      1.54090628e-001 2.41698354e-001 5.38995042e-002 1.18474863e-001
      2.56381631e-001 1.56355470e-001 5.44304810e-002 8.49907547e-002
      1.61311761e-001 1.37189284e-001 1.57298654e-001 1.98946550e-001
      1.32557511e-001 1.05664544e-001 1.54650599e-001 2.12466031e-001
      2.56381631e-001 1.11873917e-001 2.01835930e-001 2.56381631e-001
      1.92431837e-001 6.61259294e-002 1.75679117e-001 1.14269480e-001
      1.37529612e-001 2.20150873e-001 2.05052376e-001 2.56381631e-001
      2.32139751e-002 5.63228801e-002 1.53872490e-001 4.31235731e-002
      1.43161342e-001 3.57974321e-001 3.36361825e-001 7.07224905e-002
      1.70904715e-002 3.91748361e-002 9.66020301e-003 2.87058717e-003
      2.18270551e-002 1.31685510e-001 2.38071695e-001 7.56013319e-002
      2.51563862e-002 2.11909432e-002 4.12842408e-002 1.47824651e-002
      1.22891992e-001 1.63333610e-001 3.57974321e-001 3.57974321e-001
      2.33435184e-001 3.72539787e-003 2.79654693e-002 3.12793925e-002
      1.31635666e-002 1.86528880e-002 3.08434777e-002 3.57974321e-001
      3.57974321e-001 4.84961309e-002 2.01264303e-002 1.97797846e-002
      1.83960944e-001 1.06911078e-001 6.95165768e-002 1.29502028e-001
      5.97156659e-002 2.10038386e-002 4.80572395e-002 9.76457745e-002
      1.76702186e-001 2.49504074e-001 1.20543420e-001 4.25259285e-002
      8.64743143e-002 8.22614282e-002 1.64186999e-001 2.49504074e-001
      1.09308966e-001 2.09505081e-001 2.09098995e-001 1.50961861e-001
      2.49504074e-001 1.42346948e-001 2.32418627e-001 6.08021319e-002
      5.04250787e-002 1.08212501e-001 2.32824460e-001 2.49504074e-001
      1.87356174e-001 2.21476182e-001 2.25773096e-001 2.44614065e-001
      1.34770393e-001 2.49504074e-001 6.25237450e-002 1.70081049e-001
      7.31585473e-002 4.78656180e-002 1.10492028e-001 1.61266908e-001
      1.87904879e-001 9.63470265e-002 4.54757065e-002 1.11915059e-001
      1.22528657e-001 5.86336516e-002 8.37569311e-002 2.46078104e-001
      2.69236773e-001 2.34814540e-001 4.42482717e-002 1.42814741e-002
      1.19804583e-001 2.69236773e-001 8.52879584e-002 4.76353504e-002
      9.89040360e-002 1.15203798e-001 2.18079627e-001 1.12689957e-001
      2.62566209e-001 2.20218047e-001 2.69236773e-001 5.90596423e-002
      1.08946890e-001 1.66030064e-001 2.69236773e-001 2.69236773e-001
      5.98953553e-002 1.21439487e-001 1.67665914e-001 2.69236773e-001
      5.03967106e-002 7.68528134e-002 5.18394187e-002 4.70690541e-002
      2.17384562e-001 2.51178473e-001 1.55691296e-001 9.51833799e-002
      4.99171689e-002 1.16047509e-001 6.35760650e-002 2.56543588e-002
      1.39457554e-001 1.21946797e-001 2.70556420e-001 1.80146232e-001
      1.09039411e-001 1.84822679e-001 1.40884265e-001 5.19571938e-002
      5.75823756e-003 6.92138597e-002 2.70556420e-001 2.70556420e-001
      1.74850985e-001 1.53958037e-001 8.58943537e-002 2.70556420e-001
      5.66539802e-002 4.26706765e-003 1.56303495e-001 2.70556420e-001
      2.70556420e-001 2.70556420e-001 2.34290808e-001 1.51126787e-001
      3.07700522e-002 6.20554015e-003 1.91795435e-002 6.11852221e-002
      1.90832987e-001 2.91181386e-001 1.77236423e-001 4.53194454e-002
      4.53938060e-002 2.91181386e-001 1.37178824e-004 0. 0.
      6.32398650e-002 2.91181386e-001 2.30118215e-001 7.55323991e-002
      2.91181386e-001 4.48643826e-002 0. 9.78776603e-004 4.61855829e-002
      2.09514558e-001 2.91181386e-001 2.51305282e-001 1.14929818e-001
      9.38794911e-002 2.91181386e-001 0. 0. 0. 1.23821134e-002
      2.25652531e-001 2.09566250e-001 1.88875586e-001 2.91181386e-001
      3.11481714e-001 2.88844734e-001 7.80820772e-002 0. 0. 0.
      5.42779230e-002 1.09265432e-001 8.13207701e-002 3.11481714e-001
      1.59127191e-001 4.68492471e-002 0. 0. 0. 0. 4.63019460e-005
      3.11481714e-001 3.11481714e-001 3.11481714e-001 2.06184268e-001 0.
      0. 0. 8.77735540e-002 1.91280469e-001 7.34398365e-002
      3.11481714e-001 2.68061161e-001 1.23063482e-001 0. 0. 0. 0.
      4.22021112e-005 3.11481714e-001 2.22906955e-002 0. 0.
      5.45858406e-004 6.20091967e-002 2.24563017e-001 3.11066359e-001
      2.68282682e-001 2.14974910e-001 0. 3.54331313e-003 1.47131563e-003
      1.77538441e-003 1.24984555e-001 2.34167099e-001 1.60831332e-001
      4.93111275e-002 3.94797884e-003 2.70496737e-002 0. 0. 0.
      2.43624568e-001 3.17514628e-001 3.17514628e-001 2.75317460e-001
      2.03236818e-001 0. 3.05908965e-003 4.66696220e-003 3.71823437e-004
      3.17514628e-001 3.17514628e-001 2.15161070e-001 3.92414667e-002
      3.41249601e-004 2.63559431e-001 1.94292411e-001 6.86571822e-002
      7.70702884e-002 2.47665524e-001 2.18937006e-002 5.80019988e-002
      4.31615487e-002 2.11485401e-002 2.63559431e-001 2.15021893e-001
      6.48030788e-002 2.63559431e-001 1.91603467e-001 2.43387800e-002
      5.32997549e-002 1.43105403e-001 5.44453524e-002 1.82257742e-001
      2.10178837e-001 2.23691568e-001 1.25993446e-001 2.63559431e-001
      5.81189431e-002 4.80427817e-002 8.43305886e-002 9.82652530e-002
      2.63559431e-001 2.63559431e-001 2.29982480e-001 2.50967681e-001
      1.56803176e-001 5.59545457e-002 1.12784319e-002 1.29204690e-001
      1.56500280e-001 1.33323789e-001 5.68767525e-002 3.01735718e-002
      4.86170948e-002 3.94618601e-001 3.94618601e-001 1.61386784e-002
      5.32906242e-002 8.50863978e-002 3.94618601e-001 1.08002573e-001
      4.57195900e-002 3.51955071e-002 5.33175841e-002 3.17207463e-002
      1.00319488e-002 3.54524553e-002 1.86761230e-001 4.54393625e-002
      3.08639556e-002 2.86509003e-002 5.48992045e-002 3.94618601e-001
      3.94618601e-001 3.16320322e-002 1.74002498e-002 3.98465097e-002
      7.00273886e-002 7.69021437e-002 6.06334619e-002 5.49264215e-002
      2.09950775e-001 2.06432790e-001 4.08271439e-002 9.00934413e-002
      6.32627085e-002 3.98658775e-002 2.64886498e-001 2.75399446e-001
      2.75399446e-001 1.08854175e-001 1.19823098e-001 1.76959351e-001
      2.14126576e-002 8.69122520e-003 2.75399446e-001 1.85833260e-001
      2.75399446e-001 2.52804995e-001 6.67893514e-002 4.50030575e-003
      1.14636961e-003 1.82550086e-003 2.06597880e-001 8.98633618e-003
      1.72044411e-002 1.40880734e-001 2.75399446e-001 2.75399446e-001
      2.53721744e-001 7.11601451e-002 1.08709466e-003 9.89992823e-003
      9.49932039e-002 4.76204120e-002 8.71619806e-002 2.30262786e-001
      2.75399446e-001 1.21895708e-001 1.41013768e-002 1.22239022e-002
      1.18462622e-001 1.36746431e-003 0. 0. 9.88798123e-003
      4.26315844e-001 3.82569969e-001 2.34074369e-002 7.54986517e-003
      6.39406312e-003 0. 1.43554644e-004 1.18493894e-003 2.21681204e-002
      4.26315844e-001 2.25162759e-001 9.29903984e-003 8.30534962e-004 0.
      4.65094308e-005 0. 0. 1.34010434e-001 4.26315844e-001
      1.40461475e-001 2.55400711e-003 1.37338310e-003 2.32334528e-003 0.
      1.00488251e-003 6.03555003e-003 1.68856785e-001 4.26315844e-001
      6.39689937e-002 5.50338859e-003 1.58700161e-003 0. 9.87548381e-002
      1.32135645e-001 1.59724131e-001 2.24598244e-001 2.25975946e-001
      1.33686617e-001 7.38401115e-002 6.59328252e-002 9.21598375e-002
      2.43263245e-001 2.43263245e-001 1.74209759e-001 2.21506312e-001
      8.45935792e-002 3.40846963e-002 1.16098143e-001 5.40984049e-002
      1.53756768e-001 1.20907307e-001 1.38262495e-001 1.51296318e-001
      1.87502667e-001 2.34831423e-001 1.16890639e-001 1.18373707e-001
      1.42236620e-001 8.75981152e-002 2.43263245e-001 2.43263245e-001
      1.94794461e-001 2.43263245e-001 2.43263245e-001 6.83798268e-003
      2.38255095e-002 2.00976446e-001 2.07049638e-001</_>
    <_>
      7.88179561e-002 4.02103104e-002 6.40806630e-002 4.87136096e-002
      1.29771903e-001 2.45353922e-001 2.47324660e-001 5.81186339e-002
      1.73867494e-001 1.17990032e-001 1.50172427e-001 2.54901975e-001
      1.93050861e-001 1.70597881e-001 1.62101090e-001 2.13349149e-001
      4.66024550e-003 9.82312337e-002 1.04383662e-001 1.70270294e-001
      4.66212556e-002 5.27703241e-002 1.12510748e-001 1.85146034e-001
      2.54901975e-001 1.22020386e-001 2.54901975e-001 7.33233541e-002
      1.64754197e-001 2.06965521e-001 2.54901975e-001 1.82076707e-001
      2.54901975e-001 2.54901975e-001 1.37538295e-002 1.47638708e-001
      1.82765260e-001 2.18199402e-001 1.34929225e-001 1.08532012e-001
      9.40279737e-002 7.12702647e-002 6.61901757e-002 1.46779463e-001
      8.04800615e-002 1.26825035e-001 1.97297111e-001 2.00694829e-001
      1.55444652e-001 6.10730276e-002 5.21779768e-002 1.50051028e-001
      1.10171221e-001 9.10355896e-002 2.13128060e-001 2.47653410e-001
      1.00664154e-001 2.47653410e-001 2.47653410e-001 6.66744485e-002
      4.92459759e-002 1.49067953e-001 1.92876548e-001 1.77386194e-001
      2.47653410e-001 1.38207763e-001 2.47653410e-001 1.71047628e-001
      1.67655766e-001 1.61785692e-001 2.47653410e-001 2.17730552e-001
      9.47786774e-003 1.64051503e-001 2.48982504e-001 2.05444574e-001
      2.48982504e-001 5.15046529e-003 8.07384495e-003 2.87549123e-002
      2.49392688e-002 4.86290045e-002 2.48982504e-001 1.92801401e-001
      2.02763095e-001 2.48982504e-001 5.29456623e-002 1.66847289e-001
      1.34874001e-001 6.85783848e-002 1.06637262e-001 2.01582164e-001
      2.48982504e-001 2.48982504e-001 1.51064709e-001 4.56245095e-002
      1.74345244e-002 4.57576066e-002 6.85573742e-002 1.97105706e-001
      5.67983277e-002 1.28043264e-001 2.48982504e-001 2.32741266e-001
      2.18955219e-001 1.94451496e-001 2.48982504e-001 1.19320691e-001
      5.03462516e-002 1.60932437e-001 1.11379340e-001 2.28205040e-001
      2.14870691e-001 1.58095971e-001 4.41906527e-002 4.05315422e-002
      9.58798528e-002 2.56840527e-001 2.14317381e-001 1.12296835e-001
      1.86149478e-001 2.56840527e-001 2.02351734e-001 1.17231876e-001
      8.79710019e-002 1.87348574e-001 6.53919354e-002 2.03154266e-001
      2.56840527e-001 2.56840527e-001 1.14549764e-001 1.14051566e-001
      1.80442501e-002 5.84538914e-002 4.67359237e-002 2.56840527e-001
      2.19370335e-001 2.56840527e-001 2.56840527e-001 8.67085159e-002
      1.33971676e-001 2.41339207e-002 8.69274735e-002 9.34867784e-002
      1.75676003e-001 1.62250325e-001 1.59786224e-001 9.72911865e-002
      2.45090067e-001 1.71190113e-001 1.09793223e-001 1.31030101e-002
      5.62451407e-002 1.76989600e-001 4.37901430e-002 2.55099535e-001
      2.04174638e-001 2.55099535e-001 2.55099535e-001 2.41770104e-001
      3.36597003e-002 1.24832273e-001 1.23585634e-001 1.64015487e-001
      1.56733230e-001 2.04784915e-001 5.87975904e-002 7.14900494e-002
      2.02346638e-001 8.25172588e-002 3.67232524e-002 1.58131301e-001
      7.99506530e-002 2.55099535e-001 2.55099535e-001 1.73229411e-001
      2.55099535e-001 8.97988155e-002 1.19193107e-001 9.96200219e-002
      1.22946940e-001 9.19667035e-002 1.19852267e-001 1.76282406e-001
      2.37900496e-001 1.60190910e-001 5.56740910e-002 3.42542119e-002
      2.69228220e-002 7.37210885e-002 1.33695140e-001 1.48664951e-001
      2.87467301e-001 2.87467301e-001 9.83996615e-002 5.08828722e-002
      4.87020612e-002 1.96937546e-002 3.69099900e-002 6.50118962e-002
      2.24794105e-001 2.87467301e-001 1.81653082e-001 2.63530403e-001
      1.76051319e-001 3.22047248e-002 2.04648972e-002 1.35892667e-002
      4.35560457e-002 1.63490638e-001 2.87467301e-001 2.87467301e-001
      1.68195322e-001 2.87467301e-001 1.36522740e-001 1.33548290e-001
      5.35919517e-003 1.46355137e-001 1.58340007e-001 2.09838763e-001
      2.09633380e-001 1.34815887e-001 1.27211362e-001 7.54525736e-002
      2.08875984e-002 1.71888142e-003 1.35241225e-001 1.32533699e-001
      2.09642544e-001 2.64979213e-001 2.63647288e-001 1.80479333e-001
      8.41149762e-002 5.68839088e-002 2.91499048e-002 2.01316401e-001
      2.59589761e-001 2.64979213e-001 1.97824702e-001 8.63993168e-002
      8.24930146e-002 6.43309206e-002 3.61163877e-002 0. 2.15770811e-001
      2.31128410e-001 2.64979213e-001 2.64979213e-001 2.64979213e-001
      8.42931867e-002 5.98447509e-002 2.85931360e-002 1.20974667e-001
      1.48087382e-001 1.79448694e-001 1.02114424e-001 7.02776611e-002
      1.24971546e-001 2.05485761e-001 1.34936303e-001 3.91928479e-002
      2.43958816e-001 1.69161126e-001 1.68970615e-001 2.10248381e-001
      1.54467702e-001 1.12492263e-001 9.45038721e-002 3.91725264e-002
      1.71054035e-001 6.96992651e-002 8.16614479e-002 2.31558695e-001
      1.55446678e-001 2.65230983e-001 2.65230983e-001 1.95350811e-001
      1.06371552e-001 8.21371526e-002 1.51370555e-001 1.06722735e-001
      1.75280213e-001 1.60508394e-001 2.65230983e-001 2.65230983e-001
      2.57117271e-001 6.22714683e-003 1.21012434e-001 7.54248649e-002
      9.76132601e-002 4.17384505e-002 2.48623610e-001 1.40602216e-001
      9.55664888e-002 1.64346442e-001 3.56767848e-002 3.31187807e-002
      5.64055704e-002 1.24825798e-001 2.77545333e-001 2.79813617e-001
      2.55446613e-001 1.07443698e-001 2.56133318e-001 2.90587991e-002
      1.35392053e-002 6.00471199e-002 9.18970257e-002 2.94101276e-002
      1.94668189e-001 1.23243384e-001 2.79813617e-001 2.79813617e-001
      3.31296772e-002 1.39321787e-002 6.02763444e-002 9.26338062e-002
      9.14931670e-002 2.79813617e-001 2.79813617e-001 2.45125428e-001
      2.79813617e-001 5.60034811e-002 7.19853444e-003 0. 1.21663988e-001
      7.10467547e-002 7.04180077e-002 2.04797402e-001 1.98883638e-001
      1.99461356e-001 9.36515480e-002 3.27175111e-002 1.74647108e-001
      1.12321831e-001 1.43273503e-001 1.32692933e-001 2.65700310e-001
      2.65700310e-001 9.34140235e-002 4.76416089e-002 1.12942994e-001 0.
      2.26118892e-001 2.65700310e-001 2.22298801e-001 2.65700310e-001
      1.27855659e-001 1.19480312e-001 1.87209584e-002 8.38011596e-003
      1.01055130e-001 2.33720779e-001 2.65700310e-001 1.72026709e-001
      2.65700310e-001 2.65700310e-001 4.84579988e-002 4.41814102e-002
      1.09141961e-001 1.41468629e-001 8.83506387e-002 1.11559726e-001
      1.94388092e-001 2.62145877e-001 2.41287351e-001 2.62145877e-001
      5.86883305e-003 1.49396285e-002 1.96111664e-001 1.25515014e-001
      1.19010873e-001 1.31471828e-001 2.62145877e-001 1.52477860e-001
      2.12634176e-001 2.99990047e-002 3.78093943e-002 1.66736543e-001
      1.19135551e-001 1.27503604e-001 8.25573802e-002 1.78105652e-001
      2.18389139e-001 2.62145877e-001 7.06459433e-002 6.53322488e-002
      2.55285829e-001 2.33800620e-001 9.60133448e-002 1.46373466e-001
      1.45446494e-001 1.35928243e-001 2.62145877e-001 1.14718750e-001
      6.15129545e-002 6.94249049e-002 3.13716941e-002 1.63858399e-001
      1.90128878e-001 1.61734864e-001 1.33932948e-001 9.82776806e-002
      1.00286476e-001 5.35608642e-002 1.29044905e-001 9.08774734e-002
      7.21920133e-002 6.82642385e-002 2.22835854e-001 1.65240243e-001
      1.64955586e-001 3.12261105e-001 6.00747056e-002 1.45656109e-001
      1.35226697e-001 1.56506956e-001 1.29931360e-001 3.12261105e-001
      1.46588385e-001 3.64861116e-002 1.76410317e-001 1.14118449e-001
      9.06976834e-002 2.09562946e-002 9.14398134e-002 2.11555019e-001
      3.12261105e-001 2.07568973e-001 1.05057202e-001 3.12261105e-001
      2.55069882e-001 4.75734547e-002 2.80699925e-003 6.02478385e-002
      3.13562416e-002 1.60698563e-001 2.65286863e-001 2.19866633e-001
      9.58395228e-002 7.04791024e-002 8.90704617e-002 4.00999881e-004
      7.00935498e-002 9.66639146e-002 2.65286863e-001 2.47512847e-001
      2.65286863e-001 1.23839065e-001 1.08678639e-001 4.37103659e-002
      1.39963103e-003 1.76239356e-001 1.21851996e-001 2.65286863e-001
      1.97852373e-001 1.38366356e-001 1.80180371e-001 1.69614166e-001
      1.15841456e-001 9.79741849e-003 1.71239316e-001 7.00482428e-002
      2.65286863e-001 2.24757031e-001 2.65286863e-001 2.65286863e-001
      1.82483897e-001 8.46593082e-003 2.34718844e-002 5.70700355e-002
      2.00210065e-001 2.56689578e-001 2.56689578e-001 1.29910842e-001
      5.29467501e-002 2.13956963e-002 5.80212511e-002 4.55232821e-002
      1.54766664e-001 2.23429978e-001 2.56689578e-001 2.34218583e-001
      1.25410721e-001 6.48988858e-002 1.49769887e-001 1.64454766e-002
      7.10235238e-002 2.00851694e-001 2.56689578e-001 2.56689578e-001
      2.56689578e-001 7.25351498e-002 4.05490622e-002 2.23980360e-002
      7.75213018e-002 1.92542180e-001 2.28443637e-001 2.56689578e-001
      2.56689578e-001 2.56689578e-001 7.79657364e-002 4.27587666e-002
      8.68731141e-002 2.17494592e-002 1.15002833e-001 1.62468210e-001
      2.52395213e-001 1.94782153e-001 1.34892359e-001 7.03030974e-002
      1.00559592e-001 1.07388236e-002 1.50558380e-002 2.13386282e-001
      2.62680024e-001 2.62680024e-001 1.16965830e-001 6.67107478e-002
      2.60325167e-002 1.33442611e-001 1.45078488e-002 6.73730969e-002
      2.62680024e-001 1.44986361e-001 1.70592040e-001 2.62680024e-001
      2.62680024e-001 1.17564023e-001 1.10365711e-001 1.93978194e-002
      1.04857430e-001 2.62680024e-001 2.62680024e-001 2.62680024e-001
      2.62680024e-001 1.36170238e-001 4.50453535e-002 6.71018064e-002
      3.95963863e-002 6.50264323e-002 4.69575152e-002 1.82454288e-001
      2.36767173e-001 2.01658204e-001 8.60399753e-002 7.26308376e-002
      8.81466568e-002 1.06138021e-001 7.40347356e-002 1.13709681e-001
      2.52696753e-001 2.52696753e-001 2.28018507e-001 8.42669755e-002
      1.51959777e-001 1.03651419e-001 1.10564806e-001 3.16981017e-003
      2.26098299e-002 2.33254701e-001 2.32356265e-001 2.52696753e-001
      8.07923451e-002 1.31611228e-001 2.22277567e-001 2.47247458e-001
      7.53383934e-002 1.13031939e-001 2.52696753e-001 2.52696753e-001
      2.52696753e-001 9.29439515e-002 9.18670744e-002 8.72985572e-002
      1.90153137e-001 7.34463781e-002 8.62750411e-002 1.46300465e-001
      1.43176541e-001 1.39350489e-001 2.63215482e-001 2.60337353e-001
      3.65506634e-002 5.15899025e-002 6.21414855e-002 1.08723104e-001
      6.48322999e-002 1.19744770e-001 2.63215482e-001 2.63215482e-001
      2.63215482e-001 9.84003171e-002 5.97152859e-002 1.00083932e-001
      2.07942724e-001 2.04991281e-001 1.56939670e-001 1.74835473e-001
      1.59661874e-001 9.80589539e-002 1.32393062e-001 9.11413729e-002
      1.29589126e-001 1.93081111e-001 9.08622071e-002 2.63215482e-001
      1.86321467e-001 2.63215482e-001 1.90857232e-001 1.51633844e-001
      1.42783314e-001 7.09461868e-002 2.82169580e-002 4.88791503e-002
      5.52236959e-002 2.44490504e-001 2.57561892e-001 2.57561892e-001
      1.28050685e-001 3.53394151e-002 1.10859454e-001 1.52224246e-002
      1.04418486e-001 2.30572581e-001 1.65421501e-001 2.57561892e-001
      2.55888671e-001 3.63490246e-002 3.41173224e-002 3.61685194e-002
      8.40721428e-002 7.60687813e-002 7.33444914e-002 2.57561892e-001
      2.57561892e-001 1.97307900e-001 2.57561892e-001 9.33436155e-002
      9.84746963e-002 2.84928624e-002 1.34885341e-001 1.25434741e-001
      2.27433503e-001 2.57561892e-001 2.57561892e-001 1.80846348e-001
      1.00300521e-001 5.60784750e-002 3.06843501e-002 1.51817232e-001
      1.81475207e-001 2.48198286e-001 7.62792230e-002 7.87367299e-002
      2.46781781e-001 1.73028529e-001 1.11261986e-001 1.15363948e-001
      2.55821466e-001 2.11322635e-001 1.01661459e-001 2.25770548e-001
      9.46050510e-002 2.39082187e-001 1.32432416e-001 1.15619853e-001
      2.77540321e-003 1.94505110e-001 2.44865701e-001 2.43801400e-001
      1.36194199e-001 7.93014988e-002 1.01042137e-001 2.12293208e-001
      7.59128183e-002 4.03702743e-002 2.55821466e-001 2.55821466e-001
      1.28931418e-001 1.10128231e-001 4.09911759e-002 1.91716328e-001
      1.89679489e-001 1.14629522e-001 1.52270898e-001 9.83977467e-002
      1.35244265e-001 1.48532748e-001 7.17331395e-002 4.81713228e-002
      5.71551621e-002 1.36380225e-001 1.19912893e-001 9.59777907e-002
      1.65700823e-001 1.73562795e-001 2.55883157e-001 1.68650404e-001
      1.81575879e-001 2.55883157e-001 1.57788381e-001 8.28876123e-002
      8.56280699e-002 1.00064136e-001 2.55883157e-001 2.55883157e-001
      1.57240331e-001 5.32144532e-002 1.16755255e-001 2.08308667e-001
      1.09709255e-001 2.19265576e-002 2.55883157e-001 2.55883157e-001
      2.55883157e-001 2.19283208e-001 1.01299509e-001 2.06635386e-001
      1.83238521e-001 1.90788493e-001 2.78895441e-002 3.30055977e-004
      7.13086978e-004 2.50866324e-001 3.06296557e-001 3.42476785e-001
      1.80426110e-002 3.43772471e-002 0. 2.43695849e-003 9.46142827e-004
      1.33819617e-002 1.88432038e-001 1.13779463e-001 9.02284607e-002
      4.11182530e-002 1.43504946e-003 2.39252269e-001 3.00049260e-002
      2.31039175e-003 4.62245243e-003 3.42476785e-001 3.42476785e-001
      2.86342829e-001 1.77247636e-002 7.74697214e-002 2.60905060e-003
      1.99775416e-002 3.85065307e-003 1.82326864e-002 3.42476785e-001
      3.42476785e-001 8.59329551e-002 3.91605124e-002 8.29572044e-003
      7.27654994e-002 6.76098019e-002 1.20877914e-001 1.96387425e-001
      2.86740959e-001 8.78155380e-002 9.91596580e-002 2.73066573e-002
      2.82834843e-002 7.95829371e-002 1.25229612e-001 7.54425898e-002
      2.85879761e-001 2.86740959e-001 6.53037354e-002 6.85846284e-002
      1.07789330e-001 3.84680443e-002 5.70781752e-002 7.64604285e-002
      1.91888139e-001 2.15466887e-001 2.19813406e-001 7.21253902e-002
      7.10867196e-002 2.18408868e-001 1.48281559e-001 1.46718606e-001
      1.55383304e-001 2.20572680e-001 2.20243081e-001 2.75944531e-001
      3.69515307e-002 1.16883971e-001 2.86740959e-001 2.86740959e-001
      1.62135139e-001 5.11223488e-002 4.64636050e-002 1.63158923e-001
      2.21082419e-001 9.74118933e-002 2.66940981e-001 4.06692699e-002
      7.64586553e-002 1.65202275e-001 9.24986899e-002 6.39360845e-002
      1.30006820e-001 2.49381766e-001 2.61468500e-001 2.66940981e-001
      9.20255333e-002 1.14821047e-001 1.20166838e-001 3.68787907e-002
      2.80622002e-002 2.52012927e-002 2.31793329e-001 2.66940981e-001
      2.66940981e-001 5.04231006e-002 1.06436014e-001 1.32008895e-001
      1.26014248e-001 1.76874116e-001 5.99874780e-002 2.66940981e-001
      2.66940981e-001 2.19670668e-001 7.86499828e-002 1.72456518e-001
      9.17614251e-002 2.20924333e-001 7.71607682e-002 1.54306352e-001
      9.50327441e-002 1.26123086e-001 6.50048330e-002 1.12863794e-001
      7.15761185e-002 1.55566931e-001 5.24651110e-002 2.52515897e-002
      2.55610257e-001 2.55610257e-001 1.75321817e-001 8.11290145e-002
      2.55610257e-001 1.16709620e-001 3.95465195e-002 2.55610257e-001
      2.45169267e-001 2.55610257e-001 7.22212419e-002 1.59783095e-001
      7.65554160e-002 8.81325081e-002 4.58118394e-002 1.22334264e-001
      6.02315925e-002 1.78838730e-001 2.55610257e-001 2.55610257e-001
      1.99486136e-001 1.10135511e-001 2.55610257e-001 2.27061257e-001
      2.21266616e-002 0. 0. 1.63250559e-004 3.02896440e-001
      3.06133956e-001 1.40242502e-001 6.14502206e-002 6.44179955e-002
      2.19659254e-001 6.97442912e-004 0. 1.29187026e-003 1.15650415e-001
      2.92322785e-001 1.22132733e-001 9.30364504e-002 3.06133956e-001
      7.83148482e-002 5.22212125e-004 0. 0. 2.29129642e-001
      3.06133956e-001 2.37094685e-001 8.56492370e-002 1.79719284e-001
      3.06133956e-001 0. 0. 0. 4.85900268e-002 2.09867626e-001
      1.51743665e-001 1.18131280e-001 3.06133956e-001 2.37072051e-001
      3.03926826e-001 1.94409024e-002 0. 0. 1.80265470e-005
      1.11683989e-002 8.19884166e-002 4.21517119e-002 3.50211740e-001
      1.63460195e-001 8.85040034e-003 0. 0. 0. 5.18959248e-004
      1.67507445e-003 1.89322114e-001 3.50211740e-001 3.50211740e-001
      1.53606623e-001 0. 0. 0. 5.11864573e-002 1.92931876e-001
      5.09325527e-002 3.50211740e-001 3.00346643e-001 8.24615508e-002 0.
      0. 0. 0. 0. 3.50211740e-001 4.58473004e-002 0. 0. 0.
      6.43513128e-002 1.46838114e-001 2.79371142e-001 2.84469873e-001
      2.04283819e-001 7.77909241e-004 1.96778827e-004 7.49650004e-004
      6.20634947e-003 1.58842146e-001 1.78600624e-001 1.51130021e-001
      4.15726192e-002 4.50900430e-003 7.55604953e-002 0. 0.
      2.62954913e-004 2.80954212e-001 3.06328982e-001 3.06328982e-001
      3.06328982e-001 2.59574294e-001 2.25903699e-003 9.56201518e-004
      3.17026209e-003 1.59982368e-002 3.06328982e-001 3.06328982e-001
      2.50245512e-001 5.06750047e-002 2.46706273e-004 1.55788347e-001
      7.53903296e-003 4.80771698e-002 2.14831263e-001 2.23566607e-001
      8.06550980e-002 6.87543005e-002 3.11719924e-002 1.48003131e-001
      2.58076787e-001 8.56858306e-003 1.22075118e-001 8.47585946e-002
      2.72903293e-001 7.46439621e-002 1.61407053e-001 1.51249841e-001
      1.80694237e-001 1.30877733e-001 2.30907686e-002 2.39873737e-001
      2.72903293e-001 2.72903293e-001 1.60436362e-001 8.25482830e-002
      1.81713142e-002 1.05840184e-001 2.41252393e-001 8.41851905e-002
      2.72903293e-001 1.52477577e-001 2.72903293e-001 1.90426871e-001
      1.70964405e-001 4.15126793e-002 1.30591333e-001 3.48424345e-001
      4.04733643e-002 5.22556081e-002 4.11084034e-002 3.48424345e-001
      1.40313670e-001 6.50541559e-002 8.74427631e-002 2.45244369e-001
      3.48424345e-001 8.94418061e-002 1.39992470e-002 1.23997228e-002
      1.57776307e-002 5.66888088e-003 1.43235493e-002 7.10828602e-002
      3.23908061e-001 1.34134725e-001 6.64134622e-002 4.28795218e-002
      8.37087110e-002 3.48424345e-001 3.48424345e-001 1.72210969e-002 0.
      5.58491088e-002 2.89036989e-001 1.30894706e-001 3.11881639e-002
      6.41349480e-002 1.50859579e-001 6.92267194e-002 5.92376366e-002
      1.99025515e-002 3.26202996e-002 8.04562122e-002 2.83524126e-001
      2.83524126e-001 2.83524126e-001 7.30379671e-002 4.44593579e-002
      1.53548524e-001 1.38993219e-001 1.17814653e-002 2.83524126e-001
      2.06695229e-001 2.64061183e-001 2.31720030e-001 4.01058309e-002 0.
      0. 0. 1.50182664e-001 1.29503310e-002 2.31683254e-002
      1.68153211e-001 2.83524126e-001 2.83524126e-001 1.81291401e-001
      8.31273422e-002 1.61478780e-002 3.37976776e-003 1.70428097e-001
      2.85165906e-002 6.22366592e-002 2.78291702e-001 2.83524126e-001
      6.69090673e-002 2.43984796e-002 7.83496257e-003 4.46795449e-002
      4.23668511e-003 0. 0. 2.87624844e-003 4.12549794e-001
      4.06566411e-001 1.99882872e-002 1.05612287e-002 4.66682622e-003 0.
      2.93657836e-003 8.46541196e-004 4.00631689e-003 4.12549794e-001
      3.26420903e-001 2.82894867e-003 2.89930322e-004 2.01233925e-004
      1.10409711e-003 2.43389804e-004 0. 7.78381452e-002 4.12549794e-001
      1.32341012e-001 2.39770021e-003 3.51769006e-004 1.15147326e-003 0.
      1.15837716e-003 1.82461459e-003 6.95566386e-002 4.12549794e-001
      1.19222067e-001 3.46373324e-003 0. 0. 1.22435391e-001
      1.68757930e-001 1.80066377e-001 1.37542680e-001 1.70877859e-001
      2.31805965e-001 2.74889991e-002 4.85706031e-002 8.39095935e-002
      8.42444524e-002 1.72786400e-001 2.31493026e-001 2.46492535e-001
      2.46492535e-001 1.81151569e-001 1.05970360e-001 1.01524822e-001
      1.49791762e-001 6.45475537e-002 1.78387180e-001 1.38361484e-001
      2.46492535e-001 2.46492535e-001 1.12009645e-001 2.25442946e-002
      4.76330295e-002 1.70550808e-001 1.66548252e-001 1.51916623e-001
      1.81496322e-001 2.18546391e-001 2.28104696e-001 1.18375443e-001
      1.39408633e-001 1.48219481e-001 2.46492535e-001</_>
    <_>
      1.14668764e-001 3.85630094e-002 7.40545839e-002 1.54609740e-001
      1.27267554e-001 1.80484891e-001 1.85753986e-001 8.55761617e-002
      6.36048689e-002 8.09070021e-002 1.17018498e-001 5.01601733e-002
      2.95935959e-001 2.95935959e-001 1.77741453e-001 8.26767758e-002
      1.81246251e-002 4.68550511e-002 8.35280940e-002 1.25527233e-001
      2.95935959e-001 1.89814150e-001 1.61602676e-001 2.35912874e-001
      1.53732598e-001 6.62649944e-002 6.11463562e-002 1.04307346e-001
      2.34351277e-001 2.46424571e-001 2.95935959e-001 2.95935959e-001
      2.17366442e-001 6.80290163e-002 1.16325375e-002 7.70843029e-002
      1.21226929e-001 6.22483902e-002 2.21961364e-002 2.46573724e-002
      1.71161145e-001 2.51512885e-001 1.79992437e-001 7.74849877e-002
      7.43630305e-002 1.73933163e-001 8.56367648e-002 3.12352162e-002
      1.58006623e-001 2.78210729e-001 2.78210729e-001 1.58059895e-001
      2.13832855e-002 5.51784523e-002 6.85232356e-002 2.01609358e-001
      2.06616327e-001 1.95190877e-001 1.71091974e-001 2.78210729e-001
      1.26295775e-001 1.81666967e-002 4.91103418e-002 5.50123230e-002
      9.50060561e-002 2.43681952e-001 2.78210729e-001 2.78210729e-001
      2.78210729e-001 1.96071908e-001 1.35297365e-002 2.20228937e-002
      2.84301788e-002 9.69351530e-002 1.29865140e-001 2.27970183e-002
      2.04897568e-001 2.02232197e-001 5.63282408e-002 1.45899013e-001
      2.39682347e-001 1.10115983e-001 5.27378581e-002 1.77230060e-001
      3.60250436e-002 2.48660550e-001 2.06631199e-001 2.04786777e-001
      2.01561868e-001 2.15846702e-001 2.48660550e-001 1.03212610e-001
      9.31256935e-002 8.62426087e-002 2.48660550e-001 6.75897747e-002
      1.38326272e-001 1.30247787e-001 1.93284139e-001 2.48660550e-001
      2.16382831e-001 1.96509674e-001 1.28879696e-001 2.48660550e-001
      1.11721516e-001 1.58666417e-001 1.10028327e-001 1.41109407e-001
      5.33158891e-002 1.83782712e-001 2.55376786e-001 1.88723281e-001
      1.31687194e-001 3.41819599e-002 6.93743750e-002 1.19011924e-002
      1.88865848e-002 9.64305103e-002 1.55722365e-001 2.28435397e-001
      2.55376786e-001 2.21244827e-001 1.11001879e-001 3.15654390e-002 0.
      6.89466745e-002 1.21532388e-001 2.55376786e-001 2.03730121e-001
      1.06511354e-001 2.55376786e-001 1.45284906e-001 1.51853710e-001
      3.79060917e-002 9.11643449e-003 1.44337818e-001 2.55376786e-001
      2.55376786e-001 2.55376786e-001 2.55376786e-001 2.55376786e-001
      9.69815031e-002 1.56088555e-002 1.33767232e-001 4.79682609e-002
      3.11477464e-002 8.98305327e-002 8.74392167e-002 5.20795770e-002
      1.26314968e-001 1.59513295e-001 1.82102144e-001 1.76092342e-001
      7.81008974e-002 2.51151204e-001 2.51151204e-001 1.81800470e-001
      1.61900550e-001 1.50556952e-001 1.11911848e-001 1.32230788e-001
      2.51151204e-001 5.17667644e-002 9.90361795e-002 3.67221721e-002
      9.67838541e-002 7.81118050e-002 7.32885003e-002 2.51151204e-001
      2.21372083e-001 2.23390356e-001 7.84620047e-002 2.51151204e-001
      2.33941302e-001 2.51151204e-001 2.30712339e-001 1.29619002e-001
      1.98216796e-001 1.48134559e-001 2.19061241e-001 9.96327698e-002
      2.19443753e-001 1.85504287e-001 5.58516681e-002 1.47665858e-001
      1.18242942e-001 5.90691902e-003 1.36316847e-002 1.43474847e-001
      2.49595881e-001 2.19139993e-001 1.20461315e-001 1.50314838e-001
      2.91964710e-001 1.47060901e-001 4.97373082e-002 4.11736667e-002
      1.09679066e-001 1.67424724e-001 1.71718702e-001 1.47001147e-001
      7.21881464e-002 2.91964710e-001 2.91964710e-001 2.05660164e-002
      1.97859872e-002 6.38261661e-002 1.07803188e-001 1.46785796e-001
      2.30487436e-001 8.88995230e-002 2.91964710e-001 2.91964710e-001
      1.90338969e-001 1.11494564e-001 3.64158154e-002 1.76680356e-001
      4.65323627e-002 6.32024556e-002 1.52109057e-001 1.35861307e-001
      1.82940736e-001 8.91285911e-002 1.28770769e-001 1.18421435e-001
      2.50101894e-001 1.20017819e-001 1.81164101e-001 2.38664523e-001
      1.98020682e-001 1.24340385e-001 3.55566852e-002 2.60672495e-002
      1.96693525e-001 2.02283531e-001 1.30324960e-001 1.72091976e-001
      1.11281566e-001 4.13635001e-002 1.93422154e-001 2.50101894e-001
      1.11759640e-001 1.50566399e-001 2.50101894e-001 1.57206044e-001
      2.42894247e-001 2.49436975e-001 2.38961384e-001 1.12905033e-001
      4.81745079e-002 6.73163682e-002 2.50101894e-001 1.15667410e-001
      1.98170021e-002 3.14240903e-002 2.46794745e-001 1.51108727e-001
      1.23074073e-002 6.42104149e-002 2.02496931e-001 2.09826857e-001
      1.31027341e-001 3.03530935e-002 7.56157115e-002 2.46794745e-001
      1.48141369e-001 2.19014287e-001 6.46788925e-002 2.36188233e-001
      2.35302538e-001 1.02254413e-001 4.03428525e-002 1.76846102e-001
      2.46794745e-001 2.46794745e-001 1.39101475e-001 1.33755133e-001
      1.06731996e-001 5.84484600e-002 1.93154961e-001 1.05832480e-001
      2.46794745e-001 1.27317265e-001 1.94982007e-001 1.94325924e-001
      1.75557151e-001 2.22516358e-001 2.01991513e-001 4.19293121e-002
      8.91394913e-002 1.49197191e-001 2.63233870e-001 1.61756307e-001
      7.61676654e-002 5.75836040e-002 1.93624884e-001 2.06457693e-002
      8.49126205e-002 3.96893919e-002 2.63233870e-001 2.63233870e-001
      2.38507673e-001 9.94385779e-002 6.66358992e-002 2.63233870e-001
      1.30158797e-001 4.13133651e-002 4.94315438e-002 2.16021985e-001
      1.07892491e-001 5.36765754e-002 1.16934933e-001 1.78681582e-001
      2.63233870e-001 6.22203015e-002 1.05539814e-001 4.09372784e-002
      2.15172887e-001 1.97040528e-001 2.37173915e-001 2.11288884e-001
      2.47194305e-001 2.63233870e-001 6.90270215e-002 5.71658239e-002
      9.27256867e-002 1.51736662e-001 5.60421459e-002 1.41493976e-001
      1.31603733e-001 2.46936679e-001 7.79743418e-002 1.15748897e-001
      1.48466751e-001 1.95037499e-001 1.80704758e-001 8.56533125e-002
      1.33700013e-001 2.10720271e-001 1.22009784e-001 1.01576559e-001
      1.41939372e-001 3.54864113e-002 6.36074394e-002 2.56010979e-001
      1.24381155e-001 1.13107935e-001 2.57536799e-001 2.57536799e-001
      1.17414452e-001 2.22525090e-001 1.76589534e-001 2.39529356e-001
      1.58428654e-001 9.29334834e-002 1.26767412e-001 2.57536799e-001
      1.03444085e-001 2.38992333e-001 2.57536799e-001 8.36578757e-002
      1.32746354e-001 2.57412702e-001 2.06933185e-001 1.66113049e-001
      1.06823280e-001 9.97469574e-002 6.35273159e-002 3.55393551e-002
      2.50563115e-001 1.04353890e-001 9.24969167e-002 1.70180380e-001
      2.74526685e-001 1.39959604e-001 1.37889892e-001 3.71285118e-002
      6.21911362e-002 6.59294426e-002 1.37303799e-001 2.74526685e-001
      2.74526685e-001 2.74526685e-001 4.90065813e-002 9.73914042e-002
      1.05708174e-001 1.58765689e-001 1.83307856e-001 1.88996270e-002
      6.62810355e-002 1.97258517e-001 2.74526685e-001 1.86279774e-001
      2.74526685e-001 1.10919796e-001 7.96322972e-002 2.66203862e-002
      2.66906228e-002 9.45086703e-002 9.15132910e-002 2.57078022e-001
      2.24094719e-001 2.34954178e-001 1.96730554e-001 3.37033421e-002
      1.47288099e-001 2.01464836e-002 1.46710128e-001 1.99265674e-001
      2.57078022e-001 1.92591786e-001 1.30358696e-001 5.85745834e-002
      1.04018129e-001 3.49322185e-002 1.53991997e-001 2.33970210e-001
      1.24917760e-001 1.73819289e-001 1.51811823e-001 2.57078022e-001
      1.32202625e-001 2.70508807e-002 1.06156059e-001 8.29707459e-002
      2.57078022e-001 2.13861361e-001 2.57078022e-001 2.57078022e-001
      2.15190306e-001 4.72180918e-002 7.78829083e-002 1.03295110e-001
      8.24373811e-002 1.11894466e-001 1.34265974e-001 1.77450523e-001
      2.71285456e-002 1.53723165e-001 2.37122342e-001 6.84742257e-002
      4.98026572e-002 5.56125492e-003 5.04537858e-002 1.54959694e-001
      1.74969867e-001 5.44384718e-002 2.84045398e-001 2.84045398e-001
      1.17202714e-001 2.84045398e-001 1.03862502e-001 1.61411569e-001
      1.09106563e-001 1.90767139e-001 1.28000397e-002 1.26094937e-001
      2.60111213e-001 8.66791680e-002 1.36632919e-001 7.80328363e-002
      1.11368477e-001 1.70582622e-001 2.84045398e-001 1.27171054e-001
      2.84045398e-001 2.84045398e-001 1.14449203e-001 7.24378675e-002
      7.32540041e-002 8.12240466e-002 4.60841060e-002 2.40386605e-001
      1.41998410e-001 1.50934979e-001 7.00421780e-002 1.95179388e-001
      2.41912883e-002 1.48237050e-001 2.57633507e-001 4.68852147e-002
      1.36866033e-001 1.77428633e-001 2.57633507e-001 4.13201302e-002
      7.10831955e-002 1.75762400e-001 6.09362312e-003 9.74706188e-002
      1.11829333e-001 2.57633507e-001 2.57502109e-001 1.60375148e-001
      6.69499263e-002 2.57633507e-001 5.35131879e-002 1.14264339e-001
      2.57633507e-001 1.95581704e-001 2.57633507e-001 2.57633507e-001
      2.34825537e-001 4.66201045e-002 1.64525673e-001 1.27408862e-001
      8.84208828e-002 9.89648551e-002 1.30723491e-001 1.07491516e-001
      1.66613132e-001 6.63082749e-002 2.59629041e-001 1.52728736e-001
      1.08070984e-001 1.44347891e-001 1.19943351e-001 2.59629041e-001
      2.59629041e-001 1.22745357e-001 9.84773785e-002 9.85774472e-002
      1.25948504e-001 1.73805818e-001 1.22315086e-001 7.58377090e-002
      6.22536875e-002 1.79618150e-001 2.59629041e-001 1.15853310e-001
      2.59629041e-001 1.20695435e-001 6.97796345e-002 2.42925167e-001
      1.34162068e-001 2.59629041e-001 2.59629041e-001 2.59629041e-001
      9.63559747e-002 9.94043201e-002 1.63811356e-001 2.10205261e-002
      5.21904714e-002 4.52523977e-002 1.45246610e-001 2.45448798e-001
      1.88819617e-001 5.01986332e-002 2.65782565e-001 1.21181011e-001
      7.57203847e-002 1.99905843e-001 8.44881758e-002 2.14880168e-001
      2.39893630e-001 2.65219092e-001 1.33067325e-001 1.06516764e-001
      8.96984339e-002 4.27841060e-002 2.50980984e-002 1.34240136e-001
      1.48165107e-001 2.65782565e-001 2.07024589e-001 2.25785393e-002
      1.73304126e-001 1.62238970e-001 7.40813166e-002 7.81053156e-002
      2.32103974e-001 2.65782565e-001 2.65782565e-001 2.65782565e-001
      1.34456709e-001 4.97931391e-002 1.12053350e-001 4.40367833e-002
      1.93294510e-002 4.41474169e-002 1.62784472e-001 1.56848758e-001
      1.14639737e-001 9.12090018e-002 1.39123738e-001 4.63258959e-002
      6.67544967e-003 3.71981822e-002 1.02235608e-001 2.19048053e-001
      1.63321823e-001 1.67164981e-001 1.01953991e-001 1.28860041e-001
      2.30094474e-002 2.96288967e-001 1.20052554e-001 1.09074973e-001
      1.01381637e-001 5.18850684e-002 2.96288967e-001 2.96288967e-001
      2.96288967e-001 1.40374646e-001 2.69925292e-003 3.67587581e-002
      2.26475388e-001 2.28759527e-001 1.21366240e-001 2.55327702e-001
      2.96288967e-001 2.47650430e-001 1.12028763e-001 1.28853261e-001
      8.77856016e-002 4.07841317e-002 1.26893908e-001 1.11308083e-001
      9.82291177e-002 1.14290714e-001 7.05379695e-002 2.57365644e-001
      2.19981715e-001 2.10576534e-001 3.81660089e-002 2.57365644e-001
      1.50978297e-001 1.85304374e-001 2.22936235e-002 4.95951399e-002
      2.57365644e-001 1.26131266e-001 2.25486055e-001 2.80579049e-002
      1.31067812e-001 2.57365644e-001 2.57365644e-001 1.13979012e-001
      2.99571007e-002 1.79782182e-001 1.73069641e-001 2.57365644e-001
      5.18805757e-002 2.57365644e-001 2.57365644e-001 1.33425146e-001
      8.26185495e-002 3.92116569e-002 2.03372762e-001 7.81638101e-002
      1.30412251e-001 8.22992176e-002 1.06029868e-001 2.03099653e-001
      1.99684277e-001 9.65684578e-002 7.04183802e-002 6.96295276e-002
      4.64736000e-002 8.00018683e-002 6.40698671e-002 3.02798804e-002
      2.20543951e-001 2.63351411e-001 2.63351411e-001 2.04572752e-001
      9.43556726e-002 1.02424800e-001 7.98692554e-002 1.12244904e-001
      2.33471245e-001 2.63351411e-001 1.58393070e-001 2.33986124e-001
      1.21146590e-001 8.53313953e-002 1.39345422e-001 1.48383677e-001
      6.35424331e-002 5.05222604e-002 2.63351411e-001 2.63351411e-001
      2.63351411e-001 2.63351411e-001 1.54042780e-001 9.35207754e-002
      6.22154400e-002 3.06370892e-002 1.59441069e-001 2.62471169e-001
      1.79702103e-001 1.70668796e-001 7.16914460e-002 7.81496242e-002
      1.33565336e-001 1.19818822e-001 1.08955197e-001 2.62471169e-001
      2.62471169e-001 1.28250301e-001 3.57368141e-002 1.40635539e-002
      1.14701152e-001 9.66567844e-002 5.12407459e-002 2.34171823e-001
      2.25195587e-001 2.62471169e-001 2.33482331e-001 1.95051968e-001
      5.72612993e-002 4.26982567e-002 1.35248110e-001 2.10108683e-001
      2.62471169e-001 2.62471169e-001 2.62471169e-001 7.42973462e-002
      3.42374630e-002 1.57864049e-001 1.38266519e-001 1.88951902e-002
      9.63263884e-002 2.33699866e-002 4.12816735e-004 2.03714535e-001
      3.62265021e-001 1.89690247e-001 1.21485256e-003 1.90718416e-002
      9.94122494e-003 3.65768792e-003 2.53068958e-003 4.82013496e-003
      2.84518242e-001 3.62265021e-001 5.38522974e-002 1.30336396e-002
      1.28032463e-002 2.23953035e-002 5.21904416e-002 2.38990765e-002 0.
      3.62265021e-001 3.62265021e-001 8.24101865e-002 1.36095975e-002
      3.74445431e-002 6.71712160e-002 2.19461299e-003 1.58017466e-003
      3.23221111e-003 3.62265021e-001 3.62265021e-001 5.02846129e-002
      9.11871623e-003 1.31501272e-001 8.90835673e-002 4.00936417e-002
      5.88433929e-002 6.54055625e-002 6.88005015e-002 6.07826486e-002
      6.59445822e-002 4.47484441e-002 8.19161534e-002 1.34088874e-001
      1.12200782e-001 1.49660259e-001 4.57572341e-002 1.82450656e-002
      4.20731232e-002 1.54518103e-002 1.35577977e-001 2.02921942e-001
      3.74679774e-001 3.74679774e-001 8.44598487e-002 1.26628339e-001
      5.14815748e-002 4.28061709e-002 4.12730165e-002 1.61831230e-001
      2.45048851e-001 3.74679774e-001 3.74679774e-001 1.44619375e-001
      3.22572999e-002 5.93977934e-003 1.26554230e-002 3.29631323e-004
      2.92264149e-002 3.74679774e-001 2.36167274e-002 1.03880442e-003
      1.65353585e-002 1.03222512e-001 4.04722616e-002 6.77417740e-002
      3.04492056e-001 2.24207267e-001 6.27132580e-002 2.40837242e-002
      1.43471351e-002 5.08863367e-002 2.13352948e-001 2.05926612e-001
      8.03516507e-002 1.71350121e-001 1.12986863e-001 1.09239876e-001
      8.73931944e-002 1.73134054e-003 4.86422665e-002 3.15397717e-002
      6.66331872e-002 1.62479445e-001 3.04492056e-001 3.04492056e-001
      3.04492056e-001 1.41249644e-002 4.85126972e-002 1.44828791e-002
      1.12467870e-001 2.14137301e-001 3.04492056e-001 3.04492056e-001
      3.03513527e-001 1.47322699e-001 1.60976782e-001 2.59583332e-002
      1.01761565e-001 2.55397052e-001 2.14062795e-001 1.05619177e-001
      1.42985791e-001 9.66664478e-002 7.40565509e-002 1.75061569e-001
      1.26388595e-001 2.43392184e-001 2.55397052e-001 1.69388354e-001
      1.17515661e-001 1.01825260e-001 1.11202933e-001 1.62259564e-001
      6.48784712e-002 5.92417233e-002 1.54333770e-001 2.36193091e-001
      2.55397052e-001 1.23349980e-001 2.12673917e-001 1.44309834e-001
      4.83035408e-002 9.65235904e-002 2.42843106e-001 2.23245293e-001
      2.55397052e-001 1.08831860e-001 1.46850452e-001 1.36450976e-001
      1.97161570e-001 1.73086539e-001 4.72383723e-002 1.54834474e-002
      1.99207142e-002 1.20911011e-002 3.35897272e-003 1.22479014e-001
      2.84352154e-001 2.46268928e-001 7.24826828e-002 2.84352154e-001 0.
      0. 0. 2.01538368e-003 7.32941478e-002 2.84352154e-001
      2.82683343e-001 2.84352154e-001 7.79070631e-002 1.08862557e-002
      2.81888023e-002 1.03273839e-001 5.41776279e-003 2.85384618e-003
      2.84352154e-001 2.84352154e-001 1.12397127e-001 2.84352154e-001
      3.06828617e-004 0. 0. 0. 1.71230780e-003 2.64417678e-001
      2.84352154e-001 2.84352154e-001 2.99948484e-001 2.99948484e-001
      1.31220579e-001 0. 0. 0. 2.32383087e-002 1.64922297e-001
      6.84619546e-002 2.99948484e-001 2.46309310e-001 7.89129809e-002 0.
      0. 0. 0. 0. 2.99948484e-001 2.46204674e-001 2.99948484e-001
      2.26871133e-001 0. 0. 0. 4.61878963e-002 1.45192191e-001
      5.53902090e-002 2.99948484e-001 2.99948484e-001 1.52991608e-001 0.
      0. 0. 0. 0. 2.98165470e-001 2.27853376e-002 0. 2.79548665e-004
      1.79670053e-003 5.58019951e-002 3.74072999e-001 2.79346973e-001
      1.21218532e-001 7.48163760e-002 2.73712398e-003 1.07380713e-003
      2.51790532e-003 1.29699409e-002 1.46128237e-001 3.74072999e-001
      1.08855411e-001 1.17276227e-002 1.12786898e-002 1.02298064e-002 0.
      0. 0. 2.81607896e-001 3.74072999e-001 2.60534436e-001
      8.21340755e-002 3.09687573e-002 1.79510319e-003 2.57462205e-004
      3.75428982e-003 1.14689860e-002 3.74072999e-001 3.74072999e-001
      7.64541700e-002 8.50639946e-004 3.25713214e-003 2.79250406e-002
      1.63224548e-001 2.60000020e-001 2.31817603e-001 9.86684114e-002
      2.87669059e-002 8.52850303e-002 9.04070213e-002 1.10663641e-002
      4.46683839e-002 2.31534451e-001 2.60000020e-001 2.57918626e-001
      2.02767700e-001 3.79240625e-002 1.12684429e-001 1.68709531e-001
      5.14218248e-002 1.40152887e-001 1.16974816e-001 2.60000020e-001
      1.87321767e-001 1.96458712e-001 1.00547999e-001 1.08699657e-001
      5.40180616e-002 2.87758131e-002 1.48808077e-001 1.28597438e-001
      1.89036384e-001 2.60000020e-001 2.60000020e-001 4.70835119e-002
      1.82094604e-001 2.60000020e-001 1.83167592e-001 6.12995885e-002
      1.74384341e-002 1.60254110e-002 1.02666870e-001 3.88107538e-001
      3.28492433e-001 5.26499599e-002 9.70224515e-002 7.36399516e-002
      2.84199655e-001 1.35998130e-001 4.59598340e-002 6.68296814e-002
      7.19029382e-002 8.60443190e-002 8.56150165e-002 1.27908379e-001
      7.95689672e-002 5.75265959e-002 4.38610464e-003 4.74182190e-003
      3.69833596e-002 3.88107538e-001 3.88107538e-001 7.94450045e-002
      3.70079791e-003 5.97317927e-002 4.06529978e-002 5.33475913e-002
      5.61118685e-002 1.35231167e-001 3.88107538e-001 2.28738368e-001
      9.85139310e-002 3.52828093e-002 3.13333198e-002 6.38095103e-003
      1.21208042e-001 2.99423486e-001 2.99423486e-001 2.14719519e-001
      5.97707406e-002 5.95366396e-003 5.45294695e-002 2.40393411e-002
      1.48401439e-001 1.50393918e-001 2.81748086e-001 2.99423486e-001
      2.11436018e-001 1.41437147e-002 2.74563511e-003 0. 6.53987601e-002
      1.51721615e-004 1.33216074e-002 6.32605031e-002 2.99423486e-001
      2.99423486e-001 2.80568391e-001 1.27948886e-002 3.87195125e-003
      1.28370128e-003 2.35892627e-002 1.32776713e-002 5.61733767e-002
      2.79085159e-001 2.99423486e-001 2.21208766e-001 5.66094182e-002
      2.26107687e-002 1.91899110e-002 0. 0. 0. 2.97713582e-003
      4.72200006e-001 2.15124682e-001 2.06959224e-003 1.72039436e-003
      2.25934768e-004 0. 3.38085199e-004 1.29299890e-003 1.18299611e-002
      4.72200006e-001 2.10097060e-001 8.40477645e-004 6.71106682e-004 0.
      0. 0. 0. 4.31347303e-002 4.72200006e-001 6.01728559e-002
      4.94435662e-004 9.15260534e-005 0. 0. 4.82978830e-005
      1.32170506e-003 6.81035668e-002 4.72200006e-001 5.18166460e-002
      2.43966654e-003 1.11851131e-003 0. 7.21153319e-002 6.15349337e-002
      5.12567721e-002 1.36905700e-001 2.58217245e-001 7.03232065e-002
      2.58217245e-001 4.13509272e-002 6.47924468e-002 1.78379804e-001
      1.60612807e-001 6.95808157e-002 1.82559773e-001 2.58217245e-001
      7.25270361e-002 2.44137242e-001 1.22825332e-001 1.58053681e-001
      1.30619377e-001 8.06975588e-002 6.37417808e-002 2.58217245e-001
      2.58217245e-001 1.67409718e-001 8.07035640e-002 1.71311162e-002
      1.02728106e-001 2.58217245e-001 1.23205155e-001 9.67720374e-002
      2.58217245e-001 2.58217245e-001 1.45444885e-001 1.86301127e-001
      4.44850996e-002 2.58217245e-001</_>
    <_>
      1.93383738e-001 1.47641644e-001 2.62579232e-001 8.25891346e-002
      1.23269454e-001 2.52209790e-002 1.08562894e-001 5.61692193e-002
      8.58937353e-002 1.29097179e-001 2.06925571e-001 2.62579232e-001
      2.08380565e-001 1.76766470e-001 2.62579232e-001 4.72851917e-002
      5.50627038e-002 2.45522540e-002 1.41824678e-001 1.37548998e-001
      1.90932676e-001 8.41545835e-002 2.04039469e-001 2.62579232e-001
      1.35063425e-001 7.54198879e-002 8.01784322e-002 7.97169432e-002
      2.37350106e-001 1.74826711e-001 2.58579195e-001 2.62579232e-001
      2.62579232e-001 1.41112342e-001 4.97604273e-002 4.92974035e-002
      1.13266874e-002 1.81898661e-002 1.76927179e-001 2.74060965e-001
      2.69493222e-001 1.10315420e-001 4.94852737e-002 3.79675031e-002
      7.35986456e-002 7.99508318e-002 1.03816427e-001 1.42793819e-001
      2.74060965e-001 2.74060965e-001 2.28188589e-001 3.17508727e-002
      3.97902578e-002 1.16670858e-002 7.41007179e-002 7.89577663e-002
      2.74060965e-001 2.74060965e-001 2.59766787e-001 4.17989641e-002
      4.08383878e-003 6.13747314e-002 1.49944499e-001 1.71045139e-001
      1.26751363e-001 2.74060965e-001 2.74060965e-001 2.74060965e-001
      1.10654622e-001 3.20197195e-002 1.02407642e-001 4.31907400e-002
      5.64212874e-002 1.08185835e-001 1.01198524e-001 9.01304707e-002
      2.63856858e-001 1.66681692e-001 8.29355121e-002 1.07218601e-001
      4.07513380e-002 1.07312404e-001 1.76889613e-001 1.65442750e-001
      2.63856858e-001 2.19982475e-001 7.21816868e-002 2.57113993e-001
      1.04758672e-001 1.40690461e-001 6.28257692e-002 1.24054320e-001
      1.92894727e-001 2.44130254e-001 2.63856858e-001 9.62453187e-002
      1.57115012e-001 5.10091744e-002 3.24527323e-002 1.14051946e-001
      1.44742817e-001 2.02426150e-001 2.63856858e-001 2.40623266e-001
      1.46412522e-001 2.63856858e-001 1.11143783e-001 1.64815202e-001
      6.18273877e-002 1.65510103e-002 1.30607203e-001 1.99220717e-001
      2.63206720e-001 1.55991599e-001 1.70511127e-001 1.01136401e-001
      1.05256252e-002 1.64591134e-001 6.06158227e-002 1.23488352e-001
      2.07187638e-001 2.63206720e-001 1.28445864e-001 1.72272339e-001
      6.52463809e-002 4.96872999e-002 1.73746362e-001 2.86355447e-002
      2.12589279e-001 2.40088612e-001 2.63206720e-001 1.59765735e-001
      1.34272933e-001 1.31552488e-001 2.31312532e-002 2.63206720e-001
      3.24831232e-002 1.49473310e-001 2.63206720e-001 2.63206720e-001
      1.98584244e-001 1.73314229e-001 1.57819569e-001 4.74564992e-002
      8.97189081e-002 9.91727412e-002 8.33007023e-002 8.22674483e-002
      1.16609782e-001 1.34233579e-001 1.09068580e-001 2.25993842e-001
      1.45449862e-001 4.06587236e-002 1.98847875e-001 1.40008554e-001
      4.45300825e-002 1.99363068e-001 2.43973717e-001 7.92048723e-002
      1.69526190e-001 2.07549453e-001 1.19637094e-001 9.48342681e-002
      1.56783938e-001 1.39711916e-001 2.43973717e-001 2.43973717e-001
      6.51267692e-002 1.86357006e-001 2.43973717e-001 3.89700122e-002
      7.21633807e-002 1.43453613e-001 2.25424930e-001 1.98710516e-001
      2.43973717e-001 1.94631979e-001 2.24964708e-001 2.43973717e-001
      1.66299362e-002 8.89149085e-002 7.63925090e-002 1.48629978e-001
      2.54461884e-001 1.38475850e-001 9.35777873e-002 8.60652328e-002
      6.12664707e-002 2.28298102e-002 5.81414960e-002 1.99416161e-001
      2.58006662e-001 2.44100511e-001 1.92396149e-001 2.58006662e-001
      2.01926753e-001 8.85531008e-002 1.00844175e-001 1.16225079e-001
      1.30490318e-001 2.58006662e-001 2.28832111e-001 1.23582892e-001
      3.99489477e-002 8.64021853e-002 1.14700623e-001 5.04206568e-002
      6.51800931e-002 1.52662247e-001 2.16665789e-001 2.58006662e-001
      2.58006662e-001 1.81536138e-001 2.58006662e-001 1.69181541e-001
      1.03208823e-002 7.82316923e-003 1.49506861e-002 6.53793290e-002
      2.46246368e-001 2.46246368e-001 1.90772220e-001 1.35932326e-001
      1.36064723e-001 5.40250563e-004 5.47094084e-002 2.22609118e-002
      1.45968735e-001 2.21815825e-001 2.26088256e-001 2.46246368e-001
      1.27843514e-001 8.16388279e-002 2.76096235e-003 1.95612162e-002
      1.22349881e-001 9.68669504e-002 2.46246368e-001 2.46246368e-001
      2.46246368e-001 2.32775375e-001 9.53383073e-002 1.42883388e-002
      6.15458637e-002 2.46246368e-001 2.10357010e-001 2.46246368e-001
      2.46246368e-001 2.46246368e-001 1.55180693e-001 6.82114735e-002
      1.50665969e-001 2.69661456e-001 1.14385657e-001 2.35036761e-001
      2.32092366e-001 8.76059458e-002 3.69741917e-002 1.18714636e-002
      4.19877097e-002 2.52430975e-001 1.77942753e-001 1.23221323e-001
      2.71999866e-001 2.71999866e-001 2.92242728e-002 7.20261708e-002
      2.48681884e-002 4.27424386e-002 1.40472308e-001 1.65159464e-001
      2.20519647e-001 2.71999866e-001 2.71999866e-001 9.00390297e-002
      8.33818913e-002 2.12750044e-002 1.10346213e-001 1.71686530e-001
      1.08837262e-001 9.98858809e-002 2.59663045e-001 2.71999866e-001
      6.59284294e-002 9.71995443e-002 2.47610454e-002 1.52614981e-001
      1.27481744e-001 2.15397879e-001 5.40181920e-002 2.48358265e-001
      6.80343360e-002 1.13281704e-001 8.59192312e-002 3.63173336e-002
      9.53466296e-002 1.01446353e-001 7.71813616e-002 4.21247929e-002
      1.65228173e-001 1.75122216e-001 2.52057463e-001 2.50041723e-001
      1.53402880e-001 1.45464823e-001 9.04931948e-002 2.15022653e-001
      2.52057463e-001 2.52057463e-001 1.03635639e-001 2.48412102e-001
      2.53163837e-002 7.94281438e-003 1.64143696e-001 1.58343762e-001
      2.52057463e-001 2.15087652e-001 1.88160628e-001 1.52802736e-001
      2.52057463e-001 6.63196966e-002 6.58617616e-002 2.01906741e-001
      9.53988284e-002 9.83152092e-002 1.39366239e-001 2.01371685e-001
      1.47324860e-001 1.70326442e-001 1.34252176e-001 1.41209930e-001
      6.32809177e-002 1.46769091e-001 1.09396428e-001 1.14866264e-001
      2.57180363e-001 2.57180363e-001 1.05362818e-001 1.65256947e-001
      1.61809117e-001 1.39953926e-001 1.68336213e-001 8.44014436e-002
      1.51126012e-001 9.19762999e-002 1.96319193e-001 2.57180363e-001
      1.43102065e-001 1.72273651e-001 9.09687132e-002 1.01452716e-001
      2.36292668e-002 1.38558820e-001 1.23213954e-001 2.57180363e-001
      2.57180363e-001 2.57180363e-001 2.57180363e-001 1.52204722e-001
      6.38626888e-002 3.33260372e-002 9.30095688e-002 8.73171836e-002
      1.04397304e-001 2.09274799e-001 2.58677334e-001 7.90911987e-002
      2.59538978e-001 6.08735606e-002 1.29187837e-001 1.22204110e-001
      2.59538978e-001 1.07286908e-001 1.49134934e-001 2.59538978e-001
      5.35079353e-002 1.23903558e-001 6.27788007e-002 1.14069887e-001
      1.81184486e-001 1.54447511e-001 1.62008226e-001 1.09816454e-001
      2.59538978e-001 7.57168531e-002 2.59538978e-001 1.00384928e-001
      1.39922157e-001 2.44442374e-001 2.59538978e-001 1.13283791e-001
      1.28298506e-001 2.59538978e-001 9.54624712e-002 2.09213391e-001
      9.59822442e-003 9.66122672e-002 1.63622171e-001 8.03485047e-003
      8.04829746e-002 2.63281822e-001 1.70611292e-001 2.31918573e-001
      1.15132377e-001 6.17252626e-002 1.16803581e-002 1.70953646e-002
      1.41961984e-002 8.07383880e-002 2.71376848e-001 2.71376848e-001
      2.71376848e-001 2.22976029e-001 6.53253347e-002 7.19862133e-002
      1.45797282e-001 9.64876451e-003 5.23081459e-002 2.71376848e-001
      2.71376848e-001 1.81116179e-001 1.46890759e-001 7.65954182e-002
      2.49109007e-002 1.13696337e-001 1.18017815e-001 9.01111662e-002
      2.71376848e-001 2.71376848e-001 2.50876695e-001 1.43416807e-001
      2.44484209e-002 2.60341708e-002 1.01800755e-001 2.19745085e-001
