<?xml version="1.0"?>
<opencv_storage>
<my_svm type_id="opencv-ml-svm">
  <svm_type>C_SVC</svm_type>
  <kernel><type>RBF</type>
    <gamma>4.0000000000000001e-002</gamma></kernel>
  <C>10.</C>
  <term_criteria><epsilon>1.1920928955078125e-007</epsilon>
    <iterations>1000</iterations></term_criteria>
  <var_all>1152</var_all>
  <var_count>1152</var_count>
  <class_count>2</class_count>
  <class_labels type_id="opencv-matrix">
    <rows>1</rows>
    <cols>2</cols>
    <dt>i</dt>
    <data>
      -1 1</data></class_labels>
  <sv_total>67</sv_total>
  <support_vectors>
    <_>
      1.06293857e-002 0. 0. 9.35172439e-002 3.97481889e-001
      2.24725142e-001 0. 0. 1.06293857e-002 0. 0. 0. 6.69727251e-002
      3.97481889e-001 2.36217320e-001 0. 0. 0. 1.17862169e-002 0. 0.
      6.92031682e-002 3.97481889e-001 3.97481889e-001 0. 0.
      1.17862169e-002 0. 0. 0. 1.51584849e-001 3.97481889e-001
      2.41388187e-001 0. 0. 0. 0. 0. 0. 2.55404823e-002 3.65786403e-001
      3.56158346e-001 4.29033637e-002 1.99762136e-002 0. 0.
      9.24807414e-003 2.76737642e-002 1.74961220e-002 3.65786403e-001
      3.65786403e-001 9.72394273e-002 1.23282382e-002 4.69880132e-003 0.
      0. 0. 4.25674692e-002 3.65786403e-001 3.02750081e-001
      2.65771616e-002 0. 0. 0. 5.54884505e-003 2.84503009e-002
      1.88413803e-002 3.65786403e-001 2.80869424e-001 1.12065360e-001
      1.27122167e-003 0. 1.89716043e-003 2.68811011e-004 2.04360369e-003
      1.80268705e-001 4.74856615e-001 7.23419636e-002 1.43481744e-003 0.
      1.89716043e-003 4.55105118e-003 0. 4.54368768e-003 1.87303219e-002
      4.74856615e-001 9.91529599e-003 0. 0. 4.55105118e-003
      1.13829633e-003 1.88167696e-003 5.14088348e-002 2.23697886e-001
      4.74856615e-001 4.16442454e-002 0. 0. 1.13829633e-003
      2.73063104e-003 0. 9.97553300e-003 2.17528138e-002 4.74856615e-001
      5.94917778e-003 0. 0. 2.73063104e-003 4.11634427e-003
      2.27082837e-002 9.77356136e-002 3.01729381e-001 2.77798474e-001
      1.79360807e-001 5.58079109e-002 3.88658158e-002 2.65345350e-003
      2.94938479e-002 6.54393509e-002 1.73270345e-001 3.01729381e-001
      3.00851673e-001 2.19550386e-001 7.38656446e-002 1.72890313e-002
      1.92536116e-002 1.17122419e-002 3.03584002e-002 5.21403514e-002
      3.01729381e-001 3.01729381e-001 1.08772099e-001 6.45792782e-002
      1.26912901e-002 1.47200702e-003 1.03715412e-001 1.56397611e-001
      9.19852331e-002 3.01729381e-001 3.01729381e-001 2.79246479e-001
      6.35467917e-002 1.87467062e-003 3.20337564e-002 4.35469951e-003 0.
      6.56190314e-005 5.84554113e-002 4.24460649e-001 1.25671893e-001 0.
      0. 4.35469951e-003 0. 0. 1.07422168e-003 1.00578971e-001
      4.24460649e-001 1.18478745e-001 0. 0. 0. 5.58906607e-003 0.
      4.59333212e-004 1.44118354e-001 4.24460649e-001 2.29555175e-001 0.
      0. 5.58906607e-003 0. 0. 7.51955248e-003 2.50781983e-001
      4.24460649e-001 3.08566242e-001 2.22014249e-004 0. 0. 0. 0. 0.
      5.02027385e-002 4.39940929e-001 5.79390451e-002 1.20419115e-002 0.
      0. 1.46857987e-003 1.82483941e-002 9.06955972e-002 1.83877110e-001
      4.39940929e-001 9.11890268e-002 4.18307409e-002 7.38634355e-003
      1.46857987e-003 0. 1.23918487e-003 3.70809925e-003 4.11781631e-002
      4.39940929e-001 8.27339068e-002 2.98521928e-002 0. 0. 0.
      1.07198581e-002 9.66934860e-002 3.03431094e-001 4.39940929e-001
      2.23282188e-001 4.53929640e-002 2.77682091e-004 0. 2.76021846e-002
      1.03640087e-001 2.02285498e-001 1.17364109e-001 2.93687701e-001
      1.00858815e-001 9.80660468e-002 1.79458912e-002 1.09794177e-002
      7.99564123e-002 1.66667283e-001 1.91942796e-001 2.44050145e-001
      2.93687701e-001 2.02949941e-002 5.29424958e-002 4.80932258e-002
      2.00533792e-002 2.34900750e-002 8.17242339e-002 2.48166785e-001
      2.82116294e-001 2.44081572e-001 2.59047598e-001 1.66022152e-001
      5.23722218e-003 1.89690329e-002 5.84051199e-002 1.12005375e-001
      2.56251067e-001 2.93687701e-001 2.93687701e-001 1.79744378e-001
      5.84907643e-002 8.30896944e-002 4.27788310e-002 8.14278722e-002
      1.25072584e-001 7.39427432e-002 7.05981404e-002 2.96184897e-001
      2.96184897e-001 4.49838899e-002 3.20665142e-003 3.07734683e-002
      2.14108974e-002 3.56736928e-002 1.14295110e-001 2.15494365e-001
      2.96184897e-001 2.96184897e-001 1.39446616e-001 2.24465616e-002
      9.22245253e-003 1.20250575e-001 1.09866619e-001 1.03332058e-001
      9.60428417e-002 2.96184897e-001 2.96184897e-001 8.97548348e-002
      4.58093098e-004 8.52359757e-002 6.79566190e-002 1.91655114e-001
      1.12829432e-001 1.21001631e-001 2.96184897e-001 2.96184897e-001
      2.16743231e-001 3.20665142e-003 2.82898191e-002 4.09602467e-003 0.
      0. 1.23242311e-001 3.88982981e-001 9.84666795e-002 0. 0.
      4.09602467e-003 0. 0. 0. 1.75744921e-001 3.88982981e-001
      9.70072672e-002 0. 0. 0. 8.46028980e-003 0. 0. 1.60220996e-001
      3.88982981e-001 3.70245725e-001 1.70461219e-002 0. 8.46028980e-003
      0. 0. 0. 3.21015209e-001 3.88982981e-001 2.43772566e-001
      2.43516034e-003 0. 0. 0. 0. 4.55183275e-002 2.58855820e-001
      4.25299615e-001 2.02145539e-002 0. 0. 0. 0. 0. 1.22215683e-002
      1.80267766e-001 4.25299615e-001 1.18780686e-002 0. 0. 0. 0. 0.
      2.01589614e-002 1.99995011e-001 4.25299615e-001 1.71429515e-001
      3.36642377e-002 0. 0. 2.20224704e-003 1.06280111e-002
      2.14571264e-002 2.93516040e-001 4.25299615e-001 1.09575905e-001
      1.36207528e-002 1.05180806e-002 0. 4.33434441e-004 3.68589349e-002
      4.18916792e-002 2.27729097e-001 3.30657363e-001 1.86537981e-001
      2.66116541e-002 6.28172187e-003 4.33434441e-004 0. 2.38520429e-002
      4.94139045e-002 3.30657363e-001 3.30657363e-001 8.23395401e-002
      6.14263155e-002 2.71400791e-002 5.83556704e-002 0. 6.44900501e-002
      7.73423761e-002 3.16538453e-001 3.30657363e-001 2.60033339e-001
      5.78441769e-002 8.97388789e-004 0. 0. 4.90157008e-002
      1.10072814e-001 3.30657363e-001 3.30657363e-001 1.60890535e-001
      9.17662755e-002 3.05270832e-002 3.75172980e-002 1.27571942e-002
      2.09607109e-002 5.79382032e-002 1.38573766e-001 2.98082173e-001
      6.26060367e-002 5.38520180e-002 4.13754173e-002 1.52213005e-002
      7.30590150e-002 1.12260848e-001 1.08459935e-001 2.71988750e-001
      2.98082173e-001 5.85199855e-002 1.38497725e-001 4.85549197e-002
      5.28609939e-002 2.12619919e-002 5.56582697e-002 1.25959814e-001
      1.40989289e-001 2.98082173e-001 1.77175134e-001 1.25177085e-001
      1.33459479e-001 3.95615175e-002 9.53261852e-002 1.99724093e-001
      2.32659265e-001 2.98082173e-001 2.98082173e-001 2.90178865e-001
      2.72394419e-001 1.29654586e-001 7.30864257e-002 6.22751703e-003 0.
      0. 3.48277658e-001 3.48277658e-001 1.91219732e-001 2.42072958e-002
      0. 6.22751703e-003 0. 0. 0. 3.48277658e-001 3.48277658e-001
      2.77651660e-002 0. 0. 0. 2.27302015e-002 0. 2.77762618e-002
      3.48277658e-001 3.48277658e-001 1.76011145e-001 2.77475850e-003 0.
      2.27302015e-002 0. 0. 1.66657586e-002 2.60179818e-001
      3.48277658e-001 9.31441262e-002 0. 0. 0. 0. 0. 6.42908318e-003
      1.62042364e-001 4.17172343e-001 8.04640055e-002 4.38094232e-003 0.
      0. 9.80180106e-004 4.73033451e-003 8.43370799e-003 1.90021858e-001
      4.17172343e-001 7.17075169e-002 0. 1.40849792e-003 2.91856879e-004
      0. 0. 2.28021741e-002 2.37061456e-001 4.17172343e-001
      1.74682885e-001 2.81027635e-003 0. 0. 0. 4.42047976e-003
      1.32277608e-002 1.02059849e-001 4.17172343e-001 3.56872559e-001
      1.87941045e-002 0. 0. 6.15982665e-003 6.63526952e-002
      1.54796928e-001 2.55199999e-001 2.25397885e-001 7.10313842e-002
      4.02633958e-002 1.35301212e-002 0. 3.69589590e-003 2.94628907e-002
      1.47156850e-001 3.31422895e-001 3.31422895e-001 2.56559491e-001
      7.03540817e-002 4.12170552e-002 1.16115157e-002 1.34734120e-002
      1.12293251e-001 1.59285530e-001 1.66226164e-001 3.31422895e-001
      2.45380983e-001 5.85110709e-002 1.14939711e-003 0. 6.61797449e-003
      5.68321422e-002 1.54231697e-001 1.69087201e-001 3.31422895e-001
      3.31422895e-001 1.05849855e-001 6.87065050e-002 1.22046713e-002
      7.27923727e-003 5.71065396e-002 1.35496333e-001 1.03393383e-001
      2.98910618e-001 1.06171325e-001 1.69074714e-001 6.09016009e-002 0.
      2.52976362e-002 9.73987132e-002 6.54549226e-002 2.19123051e-001
      3.18075031e-001 1.87152267e-001 1.60373390e-001 2.30685268e-002
      7.08051845e-002 0. 1.36300679e-002 4.61028367e-002 5.50831147e-002
      2.97089875e-001 3.18075031e-001 3.18075031e-001 8.96493644e-002 0.
      3.23415287e-002 4.84274812e-002 3.30451573e-003 5.92516735e-002
      3.18075031e-001 3.18075031e-001 2.95706689e-001 2.14414038e-002
      2.25356575e-002 2.72551067e-002 0. 0. 3.03678155e-001
      3.34266186e-001 1.78108633e-001 8.83679166e-002 2.84178890e-002
      3.30763273e-002 0. 0. 2.62069050e-002 3.34266186e-001
      3.34266186e-001 8.66856948e-002 5.80111472e-003 4.05969797e-003
      8.31603014e-004 1.99474208e-002 0. 0. 3.34266186e-001
      3.34266186e-001 2.02989727e-001 1.50140971e-001 1.68559458e-002
      2.34401524e-002 0. 0. 7.54481256e-002 3.34266186e-001
      3.34266186e-001 3.46058607e-002 0. 2.40799226e-003 4.98961832e-004
      2.24390576e-004 1.52979214e-002 9.82184485e-002 2.01504603e-001
      3.17082226e-001 2.14114234e-001 6.40110821e-002 0. 0.
      5.54294372e-003 1.35826590e-002 1.70381546e-001 2.90383190e-001
      3.17082226e-001 9.96285528e-002 1.30522680e-002 0. 3.65572888e-003
      1.57073385e-003 2.15292796e-002 7.52927139e-002 2.41834819e-001
      3.17082226e-001 3.04393560e-001 1.11719735e-001 0. 0.
      1.70880184e-002 6.00074381e-002 8.88650790e-002 3.17082226e-001
      3.17082226e-001 2.96485603e-001 2.30877809e-002 1.40137912e-003
      6.09288178e-003 4.91120480e-003 1.45728569e-002 3.62459980e-002
      6.85571656e-002 3.59420270e-001 1.48431778e-001 1.01347603e-001
      1.00384362e-001 5.07518370e-003 2.13863701e-003 1.50712123e-002
      3.48705500e-002 1.16581276e-001 3.59420270e-001 3.59420270e-001
      8.02248195e-002 5.34505583e-002 0. 9.50056408e-003 5.37159182e-002
      6.81067035e-002 9.80033278e-002 3.59420270e-001 2.68579960e-001
      1.03094205e-001 5.70036359e-002 1.38658518e-003 1.49704581e-002
      8.02267566e-002 1.11430176e-001 1.25271231e-001 3.59420270e-001
      3.59420270e-001 8.98231193e-002 4.74450067e-002 0. 8.72051269e-002
      1.90377280e-001 8.93011093e-002 1.56386271e-001 3.53714436e-001
      7.06218779e-002 5.64747155e-002 2.86667105e-002 9.73914936e-002
      5.02754934e-002 9.74748880e-002 7.45524839e-002 3.37494552e-001
      3.96756709e-001 9.59725007e-002 3.82989831e-002 1.33325569e-002
      5.23853488e-002 7.18413964e-002 2.71967538e-002 3.45261693e-002
      6.44040182e-002 3.96756709e-001 7.45721236e-002 1.20602138e-001
      7.79502168e-002 7.94323161e-002 7.85056800e-002 1.39249843e-002
      9.29735415e-003 9.15198773e-002 3.96756709e-001 2.78645843e-001
      7.79833496e-002 8.83939341e-002 9.34460461e-002 7.33257271e-003 0.
      5.99242235e-003 3.39954287e-001 3.39954287e-001 6.36935309e-002
      1.27113669e-003 0. 7.33257271e-003 4.16205125e-003 3.03790579e-003
      0. 2.25451499e-001 3.39954287e-001 2.44048342e-001 5.66855725e-003
      0. 0. 9.84512269e-003 0. 4.75633740e-002 3.39954287e-001
      3.39954287e-001 2.48172551e-001 8.89795739e-003 0. 9.84512269e-003
      1.09907649e-002 6.08867360e-003 1.40924174e-002 1.59446120e-001
      3.39954287e-001 3.12699318e-001 2.92586461e-002 0. 0.
      5.90155162e-002 5.07969921e-003 5.65492734e-003 5.89506030e-002
      3.50520790e-001 3.41647118e-001 5.52123524e-002 7.13141693e-004
      2.45534722e-002 8.17653537e-003 4.04269667e-003 3.08890734e-002
      2.93004494e-002 3.50520790e-001 2.62794018e-001 1.49662644e-001
      8.98838136e-003 3.50763882e-003 1.09926179e-001 6.30106777e-003
      4.98091206e-002 2.71650970e-001 3.50520790e-001 2.00698450e-001
      7.66501995e-003 0. 1.28182963e-001 2.51000486e-002 5.77528146e-004
      3.46523300e-002 2.25924909e-001 3.50520790e-001 2.86631882e-001
      5.68588711e-002 0. 2.77081579e-002 8.63556936e-003 5.38150594e-002
      1.16693474e-001 2.02941164e-001 3.10639113e-001 1.38245478e-001 0.
      0. 0. 4.28507430e-003 4.96889241e-002 2.16627210e-001
      3.10639113e-001 3.10639113e-001 1.50067478e-001 9.73995700e-002
      6.92280233e-002 0. 5.18134190e-003 2.50051823e-002 6.76981360e-002
      2.13762313e-001 3.10639113e-001 2.02116147e-001 6.92569837e-002
      7.97003414e-003 0. 1.86149143e-002 1.05825454e-001 1.73716187e-001
      3.10639113e-001 3.10639113e-001 3.10639113e-001 1.33865595e-001
      4.51331213e-002 0. 1.21649290e-002 1.36939166e-002 9.01347250e-002
      1.50501341e-001 2.97218889e-001 2.08301336e-001 4.09336276e-002
      5.36438823e-002 2.20015701e-002 3.39170769e-002 4.46428098e-002
      2.53499746e-001 1.76988140e-001 2.97218889e-001 5.81039824e-002
      5.67796081e-002 3.21863331e-002 3.98190580e-002 2.71409526e-002
      6.14621527e-002 1.81850538e-001 2.97218889e-001 2.31737122e-001
      2.90192664e-001 1.42645732e-001 7.44367540e-002 1.98738910e-002
      1.05608754e-001 9.77382436e-002 2.97218889e-001 2.20857173e-001
      2.50288486e-001 1.61733672e-001 2.97218889e-001 7.39008933e-002
      4.81351018e-002 7.32688420e-003 1.92085281e-003 6.54061465e-003
      2.30111614e-001 3.69673878e-001 1.30337939e-001 0. 0.
      7.32688420e-003 0. 9.31826420e-003 6.03615195e-002 2.00238258e-001
      3.69673878e-001 1.78304449e-001 0. 0. 0. 9.87928826e-003
      3.71318101e-003 1.11112548e-002 3.69673878e-001 3.69673878e-001
      1.59221783e-001 8.35952908e-003 0. 9.87928826e-003 0.
      6.18863571e-003 6.57856688e-002 2.72506416e-001 3.69673878e-001
      2.50397086e-001 1.39325475e-002 5.25293825e-003 1.08846894e-003
      1.74987491e-003 1.11568607e-002 1.38378581e-002 2.62478799e-001
      3.50879282e-001 1.51906952e-001 3.03222928e-002 1.01332041e-002 0.
      1.04992476e-003 2.00682599e-002 9.89008099e-002 3.50879282e-001
      3.50879282e-001 7.72940069e-002 2.14143712e-002 6.07992290e-003 0.
      0. 0. 3.62050999e-003 1.23080485e-001 3.50879282e-001
      2.27981254e-001 1.38290543e-002 4.35211472e-002 0. 0.
      3.99286114e-002 1.34485245e-001 3.12866151e-001 3.50879282e-001
      2.88334459e-001 1.84022821e-002 2.61126887e-002 0. 0. 0.
      6.77484879e-003 3.90332788e-002 3.64469022e-001 9.84636992e-002
      5.16864657e-002 1.29014431e-002 1.71750819e-003 0. 1.58514001e-003
      3.88049334e-002 2.00179145e-001 3.64469022e-001 2.54971176e-001
      8.32157657e-002 1.23864589e-002 2.45358300e-004 3.88119966e-002 0.
      6.69818968e-002 2.05092415e-001 3.64469022e-001 1.74206585e-001
      1.93920899e-002 2.06645820e-002 4.30939198e-002 5.68699017e-002
      3.74626964e-002 1.57430664e-001 3.64469022e-001 3.64469022e-001
      3.04254740e-001 3.34628671e-002 1.23987496e-002 8.11372511e-003
      2.71698590e-002 3.16825882e-002 6.88064769e-002 1.46570936e-001
      3.89282256e-001 7.83612207e-002 4.97791059e-002 3.83295841e-003 0.
      5.52951768e-002 6.85839802e-002 7.65152946e-002 2.84279604e-002
      3.89282256e-001 4.45100013e-003 8.01731553e-003 8.19567032e-003
      1.65750794e-002 5.25926575e-002 1.01449758e-001 2.87303060e-001
      3.89282256e-001 3.89282256e-001 1.08331375e-001 7.97010288e-002 0.
      7.93174841e-003 1.11745708e-001 9.20365453e-002 1.62293956e-001
      1.37772217e-001 3.89282256e-001 3.88055295e-002 6.35375381e-002 0.
      3.73108611e-002 4.96674981e-003 6.25863438e-003 5.13986219e-003
      2.29895398e-001 3.64188522e-001 2.23285362e-001 7.42540583e-002 0.
      3.05576017e-003 1.33769279e-002 4.38104384e-002 0. 8.84561613e-002
      3.64188522e-001 3.64188522e-001 9.77580175e-002 0. 0.
      1.43348556e-002 1.71585679e-002 8.04858934e-003 1.36889711e-001
      3.64188522e-001 2.08048403e-001 1.82601083e-002 0. 6.48048101e-003
      5.49806133e-002 1.20109975e-001 6.08060621e-002 2.09506348e-001
      3.64188522e-001 2.76523590e-001 3.04335151e-002 0. 0.
      4.72214445e-003 3.56093608e-002 1.31517157e-001 2.89942235e-001
      3.45338315e-001 8.46613050e-002 1.16739394e-002 0. 0.
      1.46368043e-002 1.44609679e-002 4.16581631e-002 3.00543547e-001
      3.45338315e-001 2.27870986e-001 2.61715390e-002 0. 0. 0.
      3.91633622e-003 6.44902065e-002 1.82287410e-001 3.45338315e-001
      2.48524800e-001 8.96599665e-002 0. 0. 1.01264548e-002
      2.35177130e-002 1.39153032e-002 1.15760945e-001 3.45338315e-001
      3.45338315e-001 1.54103518e-001 0. 0. 2.47029793e-002
      2.14274484e-003 1.96177345e-002 6.81908727e-002 3.84367555e-001
      3.63794938e-002 3.66383940e-002 5.87181281e-003 2.47029793e-002
      3.26193008e-003 1.31917531e-002 9.76845026e-002 3.84367555e-001
      3.84367555e-001 8.78281966e-002 5.69102988e-002 9.78635438e-003
      3.26193008e-003 0. 2.91397143e-003 2.55410541e-002 1.03038773e-001
      3.84367555e-001 1.10342912e-001 0. 0. 0. 0. 0. 1.14903539e-001
      3.84367555e-001 3.84367555e-001 2.08151579e-001 0. 0. 0.
      1.97489560e-002 1.85779249e-003 1.57059804e-002 6.99323490e-002
      4.69559997e-001 1.53257206e-001 2.51099980e-003 3.96204926e-003
      3.25960889e-002 7.45409727e-003 1.30045461e-002 8.92733186e-002
      1.25943333e-001 4.69559997e-001 2.34607160e-001 3.69077809e-002
      1.02989832e-002 1.51623776e-002 1.80228613e-003 0. 1.02907065e-002
      2.26140115e-002 4.69559997e-001 3.29981521e-002 1.19455764e-002
      3.99200153e-003 1.80228613e-003 6.43673702e-004 0. 7.19410880e-003
      1.47154313e-002 4.69559997e-001 1.76367424e-002 3.56908864e-003
      1.19272980e-003 6.43673702e-004</_>
    <_>
      0. 0. 2.48561054e-002 6.46276549e-002 4.00081486e-001
      6.97163120e-002 3.36521282e-003 0. 0. 0. 3.10366158e-003
      2.97500938e-002 2.49614716e-001 4.00081486e-001 3.34987678e-002
      2.33821222e-003 6.20732899e-004 0. 2.42903037e-003 1.77321043e-002
      1.29534185e-001 1.88929096e-001 4.00081486e-001 1.60552323e-001
      3.22224386e-002 0. 2.42903037e-003 0. 7.61082396e-003
      7.93898106e-002 1.87256441e-001 4.00081486e-001 4.00081486e-001
      2.49240529e-002 4.34513064e-003 0. 2.95616776e-001 1.68699920e-001
      8.72788802e-002 4.65788618e-002 1.49980724e-001 0. 0.
      1.14893708e-002 2.21206784e-001 2.95586914e-001 1.27772510e-001
      4.05092873e-002 1.81907296e-001 1.60375133e-001 1.09641120e-001
      5.36017083e-002 1.83694094e-001 3.08853388e-001 7.75622055e-002
      2.10203808e-002 2.01871656e-002 4.12923880e-002 3.42136413e-001
      5.10221766e-003 2.49438453e-003 0. 6.65921047e-002 8.30976516e-002
      9.19927843e-003 2.54099406e-002 3.56150746e-001 3.56150746e-001
      2.96707988e-001 6.55913875e-002 1.47526460e-002 8.42483863e-002
      5.15720760e-003 3.83116677e-002 1.73215270e-001 2.98537523e-001
      3.89243543e-001 2.27840454e-003 1.11387437e-003 0. 5.15720760e-003
      4.68933173e-002 1.91025622e-002 1.49052590e-001 3.23718399e-001
      3.89243543e-001 1.59488302e-002 6.93032295e-002 2.05542576e-002
      4.68933173e-002 8.59534554e-003 1.16147120e-002 3.93488370e-002
      8.35650638e-002 3.89243543e-001 8.21858495e-002 1.32891312e-001 0.
      8.59534554e-003 1.14112310e-001 1.94848683e-002 1.14902258e-001
      1.05263583e-001 3.89243543e-001 1.96268559e-001 1.33305818e-001
      8.05672724e-003 6.99341670e-002 1.00238610e-003 1.89625646e-003
      7.03619793e-003 7.61530548e-002 2.64354229e-001 2.85438508e-001
      5.21394163e-002 3.29545103e-002 1.53056085e-002 1.12547344e-002 0.
      0. 6.00183345e-002 3.06038916e-001 3.06038916e-001 1.01129487e-001
      6.07214402e-003 1.20740831e-002 2.09889747e-003 9.85890478e-002
      9.33766924e-003 7.02830106e-002 3.06038916e-001 1.97245434e-001
      3.06038916e-001 3.06038916e-001 8.94700736e-002 1.51790911e-002 0.
      0. 8.68282467e-002 3.06038916e-001 3.06038916e-001 2.88075894e-001
      1.14357457e-001 2.09145267e-002 8.07642713e-002 3.19861807e-002
      3.16736884e-002 3.26584615e-002 3.03713650e-001 1.99698418e-001
      1.43613592e-001 1.16713971e-001 4.79067266e-002 1.30852595e-001
      1.09630905e-001 1.26965091e-001 1.29287884e-001 3.03713650e-001
      5.57541959e-002 1.45069256e-001 7.40223750e-002 3.62576544e-002
      9.52872932e-002 1.41574278e-001 2.05628768e-001 6.59877881e-002
      3.03713650e-001 2.09248021e-001 1.79220706e-001 9.08360556e-002
      3.00961379e-002 2.10942164e-001 3.03713650e-001 3.03713650e-001
      1.06289700e-001 1.28977835e-001 1.48054704e-001 2.52012551e-001
      1.91891402e-001 3.59029882e-002 0. 0. 0. 0. 4.20872688e-001 0. 0.
      0. 0. 0. 0. 0. 0. 5.22063971e-001 0. 0. 0. 0. 0. 0. 0. 0.
      5.22063971e-001 0. 0. 0. 0. 0. 0. 0. 0. 5.22063971e-001 0. 0. 0.
      0. 4.83629555e-002 6.64186105e-002 5.79420105e-002 1.19731864e-002
      1.71548545e-001 6.12042174e-002 4.07721512e-002 9.21118446e-003
      3.82072367e-002 2.34524831e-002 7.68519044e-002 6.65098354e-002
      2.98176140e-001 4.03073996e-001 3.55604708e-001 1.18158020e-001
      1.53519725e-002 1.00176549e-002 4.53619771e-002 3.30244116e-002
      1.08249262e-002 0. 1.97470546e-001 1.59901977e-002 3.62545475e-002
      1.98724885e-002 4.14171740e-002 5.41410968e-002 3.92065458e-002
      7.78904557e-003 4.03073996e-001 4.03073996e-001 4.03073996e-001
      7.79823214e-002 1.58386920e-002 4.60801944e-002 1.14559822e-001
      4.98266742e-002 4.16129902e-002 2.44730823e-002 5.03472239e-003
      1.19435098e-002 9.01241079e-002 3.03228140e-001 2.53786445e-001
      3.03228140e-001 1.60780251e-001 7.97940325e-003 2.89147557e-003
      3.62409838e-003 2.24942043e-002 6.41725659e-002 2.56033778e-001
      2.22580165e-001 8.14932734e-002 3.37854438e-002 7.14359805e-002
      1.04067683e-001 5.08762263e-002 1.94536429e-002 2.53519684e-001
      3.03228140e-001 3.03228140e-001 3.03228140e-001 7.54552260e-002
      1.13991497e-003 0. 0. 1.28534576e-003 1.42820865e-001
      3.03228140e-001 3.03228140e-001 3.60311009e-002 3.84457931e-002
      2.86352299e-002 4.96760681e-002 4.09552813e-001 2.36125849e-003
      6.50243983e-002 2.88277805e-001 8.44533220e-002 9.04991105e-002
      3.15543334e-003 6.29281923e-002 1.23155437e-001 4.09552813e-001
      1.86724529e-001 7.17752725e-002 1.16164371e-001 1.10306039e-001
      5.21079004e-002 6.85061142e-002 4.36954647e-002 9.23840329e-003
      4.09552813e-001 2.83218417e-002 3.98584567e-002 3.03968251e-001
      1.01809964e-001 1.54300600e-001 0. 3.16155218e-002 6.46688268e-002
      3.11717272e-001 1.03273124e-001 4.52503860e-002 1.20479152e-001
      1.76707044e-001 1.51632622e-001 0. 1.07545955e-002 2.19982769e-002
      2.64855742e-001 8.85829106e-002 1.12140901e-001 2.30032280e-002
      1.51632622e-001 3.96819077e-002 0. 0. 0. 4.85710353e-001 0.
      1.66436449e-001 5.56202829e-002 3.96819077e-002 1.55459106e-001 0.
      6.45275740e-003 1.31989652e-002 4.85710353e-001 4.43277434e-002
      1.36394709e-001 3.83387133e-002 1.55459106e-001 2.85698716e-002 0.
      0. 0. 4.85710353e-001 0. 1.97937459e-001 6.61473870e-002
      2.85698716e-002 1.91521615e-001 4.00771499e-002 1.03396714e-001
      1.75768118e-002 2.82230079e-002 4.81001101e-002 5.26307076e-002
      4.40038182e-002 1.96991593e-001 1.07009888e-001 1.95976928e-001
      2.49084681e-001 2.40047798e-002 2.63622582e-001 2.88018346e-001
      2.97595382e-001 1.92922249e-001 8.30537677e-002 1.42360508e-001
      8.65723938e-002 1.23958133e-001 1.39541030e-001 5.41946962e-002
      1.08033605e-001 9.05364603e-002 2.63530407e-002 1.37596697e-001
      5.25075495e-002 2.46604651e-001 2.04709694e-001 1.09157823e-001
      2.97595382e-001 2.97595382e-001 2.97595382e-001 1.19560733e-001
      3.31874304e-002 1.11689992e-001 9.73749161e-003 3.70346406e-003
      2.49993056e-002 1.40602753e-001 2.84862608e-001 2.30716854e-001
      1.93771273e-001 2.34223902e-001 3.87773775e-002 4.12384756e-002
      7.25486577e-002 9.78757963e-002 2.05911487e-001 2.84862608e-001
      2.84862608e-001 9.27211046e-002 5.90112470e-002 1.34080932e-001
      1.07154407e-001 1.00600399e-001 1.82517111e-001 2.84862608e-001
      2.84862608e-001 8.44593868e-002 6.36626631e-002 5.73662519e-002
      4.11534607e-002 2.40780022e-002 8.13525021e-002 2.52189219e-001
      2.84862608e-001 2.84862608e-001 1.29169598e-001 1.20273642e-002
      3.59735079e-002 2.21217666e-002 0. 3.19805667e-002 6.54157326e-002
      4.33893114e-001 1.15457170e-001 5.64450845e-002 0. 2.21217666e-002
      2.35681189e-003 1.28028600e-003 2.30194330e-002 3.92494388e-002
      4.33893114e-001 3.20358835e-002 3.26466858e-002 5.67606278e-003
      2.35681189e-003 5.42347319e-002 0. 5.33009470e-002 1.09026209e-001
      4.33893114e-001 3.69217008e-001 1.80504113e-001 0. 5.42347319e-002
      1.64976828e-002 0. 3.19805667e-002 6.54157326e-002 4.33893114e-001
      1.14323020e-001 8.41987729e-002 9.46010556e-003 1.64976828e-002
      4.80680168e-002 2.88653839e-002 8.63759518e-002 0. 5.01854241e-001
      0. 3.93687598e-002 1.31563498e-002 4.80680168e-002 1.10658361e-002
      2.12731976e-002 6.36573657e-002 0. 5.01854241e-001 0. 0. 0.
      1.10658361e-002 1.76237971e-001 6.59836456e-002 1.97447538e-001 0.
      3.11488628e-001 0. 7.77247623e-002 2.59742625e-002 1.76237971e-001
      5.45696877e-002 2.21214592e-002 6.61955923e-002 0. 5.01854241e-001
      0. 0. 0. 5.45696877e-002 0. 0. 6.56381191e-004 1.43741649e-002
      1.97291300e-001 0. 0. 0. 0. 0. 3.40136909e-003 3.45085189e-002
      3.90437156e-001 4.60654110e-001 1.76149517e-001 0. 0. 0. 0. 0.
      4.59466828e-003 1.72172189e-002 2.56231308e-001 0. 0. 0. 0. 0. 0.
      3.21626812e-002 2.59587675e-001 4.60654110e-001 4.60654110e-001
      2.44286358e-002 0. 0. 1.56695992e-001 3.13159436e-001
      3.26042354e-001 1.57468960e-001 8.04703981e-002 5.55432066e-002
      7.80632859e-003 3.28662209e-002 2.54102666e-002 1.25734568e-001
      2.77312726e-001 3.05406183e-001 9.62741077e-002 4.85128909e-002
      1.01317108e-001 4.76550534e-002 5.34961298e-002 8.56210589e-002
      1.24784239e-001 3.07345297e-002 1.09333478e-001 9.39588323e-002
      1.56305030e-001 1.13195948e-001 6.58539981e-002 2.68196315e-001
      3.26042354e-001 1.79873034e-001 7.61334151e-002 9.17607099e-002
      1.55087039e-002 4.44340222e-002 9.97730121e-002 4.11628978e-003
      2.98603714e-001 3.26042354e-001 2.37390716e-002 3.70600782e-002
      8.18763152e-002 4.86320779e-002 3.49842340e-001 0. 4.26255129e-002
      5.44926003e-002 2.84229089e-002 9.40707475e-002 5.59839830e-002
      1.63379356e-001 6.94743963e-003 3.49842340e-001 0. 7.02835321e-002
      5.52680157e-002 1.00133739e-001 9.33936834e-002 1.25145316e-001
      4.45291325e-002 8.10534582e-002 3.34392548e-001 0. 1.81852534e-001
      3.42507243e-001 1.26180559e-001 2.79664755e-001 3.94923948e-002
      7.10398853e-002 1.15790647e-002 2.55545795e-001 0. 1.81890056e-001
      2.83247739e-001 3.22105706e-001 1.38069883e-001 0. 0. 0.
      3.07202316e-003 0. 1.44994438e-001 4.84547168e-002 1.38069883e-001
      2.95357883e-001 4.75601070e-002 8.90479162e-002 0. 3.21189761e-002
      0. 2.50076264e-001 8.35713223e-002 2.91669160e-001 1.34502351e-001
      8.90449714e-003 2.66456492e-002 0. 1.57557428e-001 0.
      2.04312056e-002 1.30988777e-001 1.60229936e-001 2.47879580e-001
      1.86944723e-001 3.00578892e-001 2.38998175e-001 1.88058585e-001
      3.52585047e-001 1.86519369e-001 2.87805736e-001 2.68779129e-001
      3.20379734e-002 5.68656437e-003 2.29139477e-002 3.45963463e-002
      2.99868315e-001 0. 0. 1.30911730e-002 3.47506106e-002
      3.97436135e-002 1.07035497e-002 4.24538739e-002 2.81346798e-001
      3.85239929e-001 3.48684907e-001 5.84675446e-002 8.92508924e-002
      1.04066871e-001 1.24938741e-001 3.71285342e-002 1.14640884e-001
      1.04570761e-002 2.48564482e-001 1.16075668e-002 4.66372035e-002
      1.05327174e-001 1.43927231e-001 1.95298210e-001 7.80650526e-002
      4.23593000e-002 1.93809167e-001 3.85239929e-001 1.86157674e-001
      7.21010119e-002 3.02971691e-001 1.93451211e-001 2.22013921e-001
      3.06464672e-001 1.60265878e-001 1.98479965e-002 0. 0.
      7.51305278e-003 1.31580178e-002 2.56135520e-002 3.06464672e-001
      3.06464672e-001 3.16144414e-002 4.30062326e-004 0. 0.
      2.13517416e-002 2.37049311e-002 2.80620277e-001 1.53859168e-001
      3.06464672e-001 3.06464672e-001 1.93879455e-001 1.84462834e-002
      1.23524312e-002 0. 4.82534291e-003 2.76270490e-002 3.06464672e-001
      3.06464672e-001 1.48481563e-001 5.03554828e-002 3.15760635e-002
      1.90759655e-002 0. 8.26103147e-003 3.06464672e-001 2.81812787e-001
      6.51082695e-002 9.17160809e-002 0. 3.22902091e-002 0. 0. 0.
      2.74672657e-001 3.33566427e-001 5.81553625e-003 1.74023043e-002 0.
      4.51264344e-002 0. 0. 0. 3.33566427e-001 3.81679803e-001
      9.10400450e-002 1.00572035e-001 0. 0. 0. 4.14340105e-003
      1.38465536e-003 3.81679803e-001 3.81679803e-001 6.66159252e-003
      1.99340265e-002 0. 1.43801356e-002 0. 2.90038101e-002
      9.69258789e-003 3.81679803e-001 2.44620927e-002 1.10312458e-002
      8.17625783e-003 0. 3.33508849e-001 3.24450061e-002 1.15775667e-001
      5.85228056e-002 2.79503688e-002 9.81896464e-003 1.04840882e-002
      3.37220617e-002 4.80633741e-003 4.30303067e-001 0. 1.84892621e-002
      4.69963178e-002 1.82768255e-002 1.79302797e-001 3.46308611e-002
      5.72338030e-002 0. 3.31627339e-001 9.93456841e-002 2.02024236e-001
      2.09449321e-001 2.51419425e-001 2.22016975e-001 3.18775102e-002
      9.53896791e-002 0. 4.30303067e-001 1.20562740e-001 2.37015784e-001
      7.34066144e-002 2.24896625e-001 5.77802444e-003 6.16216799e-003
      1.84395071e-002 2.04750225e-002 9.95345116e-002 1.07007198e-001
      2.03662757e-002 1.36720645e-003 5.77802444e-003 3.44658550e-003
      3.40413377e-002 1.01864427e-001 2.08118126e-001 4.72089976e-001
      3.53286743e-001 1.95427835e-001 2.93034371e-002 3.44658550e-003
      4.83312346e-002 1.84875075e-002 5.53215370e-002 0. 1.73053935e-001
      9.28256884e-002 1.32663138e-002 1.95315210e-004 4.83312346e-002
      5.97680034e-003 2.20051128e-002 9.31151509e-002 1.34000033e-001
      4.72089976e-001 4.72089976e-001 1.06260777e-001 4.18620557e-003
      5.97680034e-003 1.19280890e-001 1.86807126e-001 1.48528174e-001
      3.05093139e-001 2.71720916e-001 1.38099948e-002 2.12031463e-003
      3.43966717e-003 1.00410311e-002 3.05093139e-001 3.05093139e-001
      9.88842547e-002 1.13196023e-001 7.52740204e-002 1.38736721e-002
      1.18837913e-003 3.66917029e-002 8.42943937e-002 2.91787330e-002
      1.00658141e-001 8.19947422e-002 3.05093139e-001 3.05093139e-001
      2.39879876e-001 2.73372922e-002 1.34699671e-002 5.84684638e-003
      1.63609698e-001 1.91531703e-001 9.91126150e-002 2.04781115e-001
      3.05093139e-001 2.30734766e-001 4.05271202e-002 7.40481541e-002
      6.66655004e-002 3.19532424e-001 8.12385380e-002 2.01883197e-001
      3.54511589e-002 6.51373118e-002 0. 6.21057004e-002 1.21704511e-001
      3.19532424e-001 2.31138006e-001 7.78924972e-002 1.76400825e-001 0.
      3.19532424e-001 2.63113584e-002 5.85011169e-002 9.52939689e-002
      2.42907926e-001 2.53469795e-001 1.31794915e-001 2.33697355e-001
      5.06445114e-003 5.37189096e-002 0. 1.83502197e-001 1.28975749e-001
      2.56190032e-001 2.17477292e-001 9.45920721e-002 1.14723980e-001 0.
      2.61235803e-001 0. 1.33288562e-001 5.18192761e-002 2.07328796e-001
      1.51136190e-001 2.33733058e-002 6.99415654e-002 0. 2.05381289e-001
      7.27588758e-002 3.30302715e-002 8.54187682e-002 1.67785168e-001
      1.45792246e-001 9.77811590e-002 3.81970763e-001 2.55871594e-001
      3.80548894e-001 2.51375306e-002 3.48230405e-003 3.35343517e-002
      1.51345342e-001 7.66736865e-002 5.70281595e-002 1.73180401e-001
      5.17723756e-003 2.79208153e-001 4.60421480e-002 4.28705513e-002
      2.15756912e-002 7.90521204e-002 4.78482097e-002 1.71881139e-001
      3.81970763e-001 1.26983047e-001 3.81970763e-001 4.04395349e-002
      1.97702199e-002 3.78167555e-002 3.48314568e-002 8.84356797e-002
      8.59921891e-003 2.64249109e-002 6.32538050e-002 2.86854543e-002
      5.08891046e-002 1.55021828e-002 1.27030881e-002 8.92860293e-002
      2.36834027e-002 5.15953172e-003 7.11315274e-002 3.61445546e-001
      3.73882204e-001 3.73882204e-001 6.07440993e-002 1.18203112e-003
      2.28592176e-002 1.55805439e-001 6.55737296e-002 5.13054319e-002
      9.22809169e-002 2.29809619e-002 4.20944020e-002 3.43543477e-002
      9.13472846e-002 1.62260592e-001 4.62637469e-002 4.50820439e-002
      8.55090618e-002 3.73882204e-001 3.73882204e-001 3.73882204e-001
      2.03400016e-001 8.27421807e-003 4.04944494e-002 3.70836034e-002
      1.47552285e-002 0. 0. 1.36037633e-001 3.01832229e-001
      1.64972052e-001 2.60030717e-001 1.12848125e-001 2.09143490e-001
      8.02288484e-003 0. 0. 3.27343750e-003 3.49309742e-002
      8.26703161e-002 3.01832229e-001 3.01832229e-001 8.35119709e-002
      8.85313842e-003 0. 0. 1.38826907e-001 3.01832229e-001
      1.74596325e-001 2.96355426e-001 3.01832229e-001 3.01832229e-001
      2.57028006e-002 0. 0. 4.85713407e-003 2.02606944e-003
      2.55748704e-002 1.83713466e-001 3.01832229e-001 4.49631959e-002
      1.51026044e-002 4.51926216e-002 2.20401771e-002 2.66801566e-001
      2.98734270e-002 1.52079418e-001 4.59416695e-002 4.49631959e-002
      8.19114819e-002 2.01426912e-002 8.70236531e-002 2.08996013e-001
      3.62476438e-001 4.97890450e-002 2.24794924e-001 6.69882223e-002
      8.19114819e-002 1.52671924e-002 1.66196916e-002 4.97322641e-002
      6.33002222e-002 4.31141436e-001 4.97890450e-002 1.26263916e-001
      3.40608507e-002 1.52671924e-002 3.47796232e-002 1.11743128e-002
      1.10446744e-001 4.31141436e-001 4.31141436e-001 8.29817429e-002
      1.72050610e-001 4.39391173e-002 3.47796232e-002 1.41571846e-003
      9.86615289e-003 1.26106357e-002 8.71887952e-002 4.14833516e-001
      2.23595034e-002 1.36689946e-001 3.36959064e-002 0. 0.
      1.79603594e-004 2.52615195e-002 3.57822955e-001 4.14833516e-001
      4.07682778e-003 1.39087699e-002 3.55994422e-003 0. 8.49431090e-004
      7.06049567e-003 1.09801088e-002 2.67803073e-002 4.14833516e-001
      1.32570401e-001 2.34821245e-001 3.80537771e-002 0. 0. 0.
      1.48344487e-002 2.69153446e-001 4.14833516e-001 4.52319644e-002
      2.54342556e-002 4.68400028e-003 0. 2.16781790e-003 0.
      1.58615112e-002 3.46136615e-002 2.05612987e-001 2.12092623e-002
      4.77089896e-004 1.59435484e-004 2.16781790e-003 2.01716975e-004
      1.25531647e-002 1.50279969e-001 2.17513487e-001 4.10621017e-001
      2.25768998e-001 1.23035654e-001 7.82775600e-003 2.01716975e-004 0.
      0. 1.63643844e-002 5.02246022e-002 2.88557142e-001 1.14319205e-001
      3.08844317e-002 0. 0. 0. 1.79330935e-003 1.20928288e-001
      1.91055924e-001 4.10621017e-001 4.10621017e-001 3.94270092e-001
      5.47942929e-002 0. 3.35497797e-001 9.26802903e-002 5.54830171e-002
      8.56106915e-003 0. 3.84917273e-003 4.50160243e-002 1.09220915e-001
      3.35497797e-001 3.35497797e-001 1.16866767e-001 7.87498280e-002
      3.34103890e-002 2.99828947e-002 3.96462344e-003 8.16542879e-002
      9.66312662e-002 3.35497797e-001 3.35497797e-001 9.66789201e-002
      5.58161400e-002 2.61859689e-002 6.10779263e-002 1.67048592e-002
      3.27572576e-003 4.78510968e-002 3.35497797e-001 3.35497797e-001
      7.12610632e-002 1.12499753e-002 4.77291318e-003 7.56811053e-002
      3.93011346e-002 0. 2.47545913e-002 3.35497797e-001</_>
    <_>
      1.88120790e-002 2.16606557e-002 1.12247199e-001 2.02510193e-001
      3.97934496e-001 5.11158668e-002 2.49897055e-002 0. 8.06040317e-003
      1.02170698e-001 5.90460114e-002 1.07462548e-001 1.75451368e-001
      3.97934496e-001 3.30968685e-002 4.73527648e-002 6.28301352e-002
      3.77694890e-002 8.42768420e-003 1.12110178e-003 3.17227580e-002
      3.97934496e-001 3.97934496e-001 1.74339600e-002 8.52317642e-003 0.
      6.89173071e-003 1.56702902e-002 7.84771238e-003 2.65493132e-002
      2.80119061e-001 3.97934496e-001 0. 1.87033489e-002 1.37379048e-002
      6.47011586e-003 1.06750242e-002 2.72762310e-003 1.49819236e-002
      7.06568286e-002 2.28349462e-001 1.78523198e-001 1.42561039e-002 0.
      1.06750242e-002 0. 2.31675375e-002 8.91483203e-003 3.60170193e-002
      3.30408901e-001 3.30408901e-001 3.19988340e-001 1.57931387e-001
      4.21225466e-002 1.38329866e-003 6.76533440e-003 5.45977913e-002
      8.37923512e-002 2.59679705e-001 1.39866963e-001 3.87502424e-002 0.
      1.38329866e-003 4.35142480e-002 1.15533166e-001 9.36312303e-002
      1.67540088e-001 2.26085469e-001 3.30408901e-001 3.30408901e-001
      1.92892373e-001 3.16823244e-001 1.65313616e-001 2.06616279e-002
      1.29563864e-002 5.43816108e-003 1.13508878e-002 3.42552527e-003
      8.89811218e-002 2.22351864e-001 2.61411875e-001 2.61411875e-001
      2.61411875e-001 1.63478881e-001 9.33736116e-002 2.19899788e-002
      2.16791891e-002 1.04105487e-001 1.70331463e-001 2.61411875e-001
      2.61411875e-001 1.18450060e-001 9.06947032e-002 3.80671211e-002
      2.85531953e-002 5.70920855e-003 1.28087118e-001 1.89155251e-001
      2.61411875e-001 2.61411875e-001 1.89997911e-001 1.73477218e-001
      2.02196509e-001 7.59921744e-002 1.21305220e-001 1.44865125e-001
      2.52402246e-001 2.61411875e-001 1.16450321e-002 2.25230809e-002
      9.21627209e-002 1.32172436e-001 3.81323785e-001 1.03149250e-001
      1.28258374e-002 6.60170848e-003 3.37633258e-003 1.81290898e-002 0.
      1.17743760e-001 3.22146326e-001 3.81323785e-001 5.15527278e-002
      1.05207728e-003 0. 1.81290898e-002 1.03838975e-002 2.29648370e-002
      1.17305860e-001 1.84536889e-001 3.81323785e-001 1.22390650e-001
      2.34212782e-002 8.29583406e-002 9.33779404e-002 2.41757799e-002
      2.05746689e-003 4.18050922e-002 3.46939802e-001 3.81323785e-001
      2.29885951e-001 1.33848069e-002 1.68026227e-003 2.86906920e-002
      1.19763222e-002 0. 2.03039423e-002 1.48164719e-001 3.97567660e-001
      2.94134259e-001 8.17605928e-002 5.53073548e-002 2.21179891e-002
      1.87428668e-002 4.53138649e-002 1.42127603e-001 2.83418655e-001
      3.97567660e-001 4.07927297e-002 2.68399511e-002 9.57024172e-002
      6.19154386e-002 6.49987347e-003 0. 6.44817110e-003 5.23662083e-002
      3.97567660e-001 2.71004170e-001 6.93687275e-002 3.99724469e-002
      1.25848735e-002 2.67755240e-003 1.51393041e-002 7.79362246e-002
      1.45236924e-001 3.97567660e-001 1.01584777e-001 2.82913912e-002
      6.14942871e-002 3.28734517e-002 2.79052579e-003 1.34670911e-002 0.
      0. 2.48007789e-001 9.63865817e-002 1.44554414e-002 1.53818419e-002
      6.46149274e-003 1.35573791e-002 3.16946320e-002 5.58713898e-002
      1.58519179e-001 4.07935858e-001 4.07935858e-001 3.88711281e-002
      2.59292927e-002 8.76317546e-003 2.89525813e-003 8.52721464e-003
      1.33747479e-003 1.51081337e-003 3.74904335e-001 1.25380903e-001
      4.11971100e-003 6.24753861e-003 2.74580671e-003 2.79052579e-003
      1.35309426e-002 1.91067840e-004 2.41639186e-002 4.07935858e-001
      4.07935858e-001 2.43199214e-001 1.03616253e-001 5.06899459e-003
      7.79357553e-002 4.00919504e-002 2.41733983e-001 1.54335588e-001
      7.13253841e-002 7.07744434e-002 6.52638599e-002 8.59045908e-002
      1.74001321e-001 2.41733983e-001 2.41733983e-001 1.79076552e-001
      8.47001821e-002 1.71561502e-002 1.09962150e-001 2.41733983e-001
      2.41733983e-001 2.41733983e-001 4.92014512e-002 7.41720870e-002
      2.19046801e-001 2.41733983e-001 1.59855470e-001 4.57212254e-002
      1.33358255e-001 7.17411637e-002 5.67836314e-002 2.09880456e-001
      1.85427204e-001 1.93652242e-001 1.80358231e-001 1.02102496e-001
      2.41733983e-001 2.41733983e-001 1.71766475e-001 1.96034282e-001
      1.13661559e-002 3.66078541e-002 1.34956121e-001 3.01927269e-001
      3.05186570e-001 5.42667806e-002 3.01322043e-002 9.04033985e-003
      7.20149558e-003 4.63859737e-002 1.45893546e-005 1.66595250e-001
      3.20993632e-001 3.12609255e-001 2.48974189e-002 2.22898764e-003
      1.04359817e-004 4.63859737e-002 1.66316759e-002 6.89007118e-002
      2.08415389e-001 2.72003561e-001 3.20993632e-001 4.14077155e-002
      1.37710187e-003 1.65187055e-003 7.10081775e-003 1.14161938e-001
      1.02125487e-004 3.04366469e-001 3.20993632e-001 3.20993632e-001
      5.78712933e-002 0. 0. 1.14161938e-001 1.21437758e-001
      4.47171219e-002 7.87886679e-002 4.16340679e-002 2.72004455e-001
      1.08586639e-001 1.22043520e-001 2.73259878e-001 1.82186693e-001
      8.52951184e-002 7.45285302e-002 1.49694860e-001 1.76061332e-001
      3.49211663e-001 8.53184983e-002 1.54232293e-001 1.00136399e-001
      8.73254910e-002 3.97479422e-002 1.22456523e-002 7.03754500e-002
      7.25691020e-002 3.49211663e-001 3.68297659e-002 1.61964074e-001
      3.49211663e-001 1.29555002e-001 3.58182080e-002 1.25605185e-002
      8.11711326e-002 2.12762490e-001 3.49211663e-001 8.78385305e-002
      1.60938412e-001 1.19925357e-001 5.40282018e-002 1.99759882e-002
      1.29121179e-002 4.14449722e-002 1.09063946e-001 1.59405708e-001
      7.59181008e-002 2.95472667e-002 1.47342430e-002 1.99759882e-002
      3.09071273e-001 2.11360827e-001 9.66147408e-002 1.07387312e-001
      1.98462754e-001 1.58602059e-001 1.67260230e-001 7.63341114e-002
      2.29243904e-001 1.47584407e-002 2.11967193e-002 3.63525040e-002
      2.02810481e-001 3.09071273e-001 6.50452748e-002 2.59170942e-002
      2.93930750e-002 1.47584407e-002 3.09071273e-001 3.09071273e-001
      3.09071273e-001 3.09071273e-001 3.09071273e-001 3.04028261e-002
      3.04171126e-002 3.00885309e-002 1.14444956e-001 4.38591186e-003
      3.17293555e-002 8.05149972e-002 2.61042774e-001 2.88399190e-001
      2.88399190e-001 2.42224187e-002 4.86947224e-003 4.37871506e-003
      1.09318994e-001 3.60872895e-002 6.02245070e-002 6.67684078e-002
      2.88399190e-001 2.87929624e-001 9.06422436e-002 4.18852493e-002
      6.61375076e-002 1.90254729e-002 6.61698580e-002 9.70729589e-002
      2.47576982e-001 2.88399190e-001 2.13466868e-001 8.27225447e-002
      3.52581255e-002 4.22930345e-002 2.30199307e-001 1.60192907e-001
      1.76953658e-001 1.78073570e-001 2.88399190e-001 2.88399190e-001
      1.38742089e-001 1.05942354e-001 1.24843158e-002 8.97652935e-004
      1.47623138e-003 3.91930481e-003 1.88464746e-001 2.66085714e-001
      7.65196308e-002 2.07560230e-002 1.72071194e-003 0. 1.70136802e-002
      0. 0. 3.08052391e-001 4.73520726e-001 8.69351104e-002
      1.71621330e-003 0. 1.70136802e-002 7.95791484e-003 4.24208725e-003
      1.85494982e-002 3.01290751e-001 3.49259764e-001 6.11500777e-002
      3.67493019e-004 0. 1.67434476e-003 7.58638605e-003 0.
      2.56233558e-004 1.41596571e-001 4.73520726e-001 3.06711584e-001 0.
      0. 7.58638605e-003 4.05221507e-002 1.07518714e-002 3.57587896e-002
      7.33346073e-003 3.62391919e-001 9.26883668e-002 4.26704213e-002
      7.73180276e-002 4.05221507e-002 8.29640776e-002 3.10077769e-004
      3.07899201e-003 4.40007634e-003 3.62391919e-001 6.30557090e-002
      1.12045392e-001 7.80365393e-002 9.75222811e-002 1.16189033e-001
      2.71712877e-002 8.13065469e-002 0. 3.62391919e-001 1.40923500e-001
      8.80072191e-002 2.01600835e-001 1.16189033e-001 2.17860937e-001
      2.17054435e-003 6.49507064e-003 0. 3.62391919e-001 7.18757883e-002
      3.39587957e-001 2.85807908e-001 2.42124602e-001 2.70772353e-003
      2.08457792e-003 9.95950308e-003 1.01500349e-002 3.16776276e-001
      1.71792001e-001 3.17673869e-002 1.96828227e-003 2.70772353e-003 0.
      0. 4.53289924e-003 1.73942093e-002 3.56511205e-001 3.56511205e-001
      2.74249166e-001 6.69793338e-002 1.03297345e-002 1.07542612e-002
      3.39203048e-003 2.48737205e-002 2.02138182e-002 2.07556292e-001
      1.83288381e-001 5.61342090e-002 1.61261000e-002 1.07542612e-002 0.
      1.76291695e-004 2.17363220e-002 9.09105409e-003 2.69409448e-001
      3.56511205e-001 3.56511205e-001 3.49624038e-001 9.23742075e-003
      1.68662548e-001 8.57615396e-002 8.48753676e-002 1.06560895e-002
      1.14405915e-001 5.64385355e-002 2.00008228e-002 7.06236577e-003
      7.95422643e-002 1.73797086e-001 4.79038320e-002 1.07059665e-001
      1.74975395e-002 1.80121679e-002 5.17057925e-002 1.13190413e-001
      7.22130463e-002 1.80230349e-001 3.96778226e-001 1.86014220e-001
      1.52997756e-002 1.36774441e-003 3.51824164e-002 1.35559011e-002
      5.27431548e-004 9.99162439e-003 3.96778226e-001 3.96778226e-001
      7.75132403e-002 3.24770212e-002 6.67799124e-003 1.08073009e-002
      3.38653009e-003 3.64728272e-002 3.96778226e-001 3.96778226e-001
      3.07947194e-004 1.09815119e-004 5.25120122e-004 3.80274020e-002
      4.16097254e-001 1.03015400e-001 8.38618027e-004 3.54707800e-003
      1.18508982e-003 5.44148358e-003 0. 0. 2.44465753e-001
      4.28640932e-001 5.93763255e-002 0. 0. 5.44148358e-003
      2.15563015e-003 7.68705795e-004 4.32605576e-003 1.00932918e-001
      4.28640932e-001 3.97465937e-002 1.19802586e-004 3.96459876e-003
      1.74369302e-003 7.30332686e-003 0. 0. 4.28640932e-001
      4.28640932e-001 1.76342167e-002 0. 0. 7.30332686e-003
      6.99663162e-002 0. 1.35670295e-002 2.77510472e-002 2.85285443e-001
      4.27143648e-002 1.54664710e-001 2.01890662e-001 1.19549103e-001
      1.18010625e-001 4.44536731e-002 7.80505985e-002 9.65859294e-002
      1.60078332e-001 1.67566434e-001 1.56701535e-001 9.92325768e-002
      1.56738475e-001 4.82114106e-002 9.62722674e-003 3.07463706e-002
      3.96443484e-003 2.55836397e-001 1.80398643e-001 2.40959793e-001
      2.85285443e-001 2.18102992e-001 8.25860724e-002 8.42300523e-003
      2.84350235e-002 6.95998818e-002 2.85285443e-001 2.85285443e-001
      2.56260186e-001 2.77705401e-001 2.80386627e-001 4.31607338e-003
      6.23020343e-003 3.09583321e-002 7.09300339e-002 1.78722650e-001
      6.89525157e-002 7.52294902e-003 3.84953601e-004 3.54463933e-003
      9.47969705e-002 1.96980134e-001 3.46260965e-001 3.82302344e-001
      3.58459473e-001 5.20286709e-002 2.87681771e-003 1.53998034e-002
      4.78196293e-002 9.05705895e-003 9.28981509e-003 2.64738556e-002
      1.28495008e-001 3.82302344e-001 7.69244581e-002 4.22648108e-003 0.
      3.65701900e-003 3.86883058e-002 4.72649634e-002 1.63536161e-001
      3.82302344e-001 3.82302344e-001 1.16109557e-001 4.96178283e-004 0.
      6.76785549e-003 3.48203212e-001 3.33698839e-002 1.22643793e-002
      3.95609392e-003 2.86663836e-003 4.76383575e-004 4.92608035e-003
      5.31127788e-002 3.48203212e-001 3.48203212e-001 1.08730219e-001
      2.25159507e-002 3.99787305e-003 1.24131218e-002 1.43037811e-002
      3.13725360e-002 7.37076327e-002 3.48203212e-001 2.58558840e-001
      7.11750835e-002 5.92682734e-002 4.27114591e-002 5.86548857e-002
      3.96059006e-002 8.77133757e-003 3.97927463e-002 3.48203212e-001
      3.48203212e-001 1.25186175e-001 3.79092097e-002 4.28351760e-002
      9.77294445e-002 5.54352738e-002 2.86105908e-002 9.07585844e-002
      3.48203212e-001 3.25739826e-003 5.31417143e-004 7.71973515e-004
      6.11875243e-002 3.81607711e-001 7.01600388e-002 2.41497345e-003
      3.50863696e-003 9.20217019e-004 2.20776000e-003 0. 0.
      1.30503401e-001 5.18546581e-001 1.16919084e-002 0. 0.
      2.20776000e-003 4.65342659e-004 7.59167378e-005 0. 3.77504528e-002
      5.18546581e-001 5.99667281e-002 4.01097769e-003 2.49912916e-003
      5.52130165e-004 2.31031282e-003 0. 0. 1.00877285e-001
      5.18546581e-001 3.76810730e-002 0. 0. 2.31031282e-003
      2.24296493e-003 0. 0. 4.87917587e-002 4.63209718e-001
      1.72386497e-001 1.05374949e-002 0. 2.24296493e-003 0. 0. 0.
      6.00544438e-002 4.63209718e-001 1.80228457e-001 5.86362882e-003 0.
      0. 2.61326451e-002 0. 0. 1.40468583e-001 4.63209718e-001
      1.24518782e-001 7.76539091e-003 2.59505725e-003 2.61326451e-002
      1.14967991e-002 0. 0. 1.77832976e-001 4.63209718e-001
      1.39942085e-002 4.65923501e-003 1.55703444e-003 1.14967991e-002 0.
      0. 1.52489706e-003 4.77325469e-002 3.87123168e-001 6.81281388e-002
      2.79702683e-004 9.34717100e-005 0. 0. 0. 7.33743189e-004
      2.94515342e-002 4.38767254e-001 2.36590803e-001 0. 0. 0. 0. 0. 0.
      2.80542392e-002 4.38767254e-001 1.00709438e-001 0. 0. 0. 0. 0. 0.
      3.14835571e-002 4.38767254e-001 4.38767254e-001 0. 0. 0.
      4.21588542e-003 1.09627806e-002 3.24199125e-002 1.88887432e-001
      3.68779093e-001 1.74282521e-001 2.15686895e-002 1.74322340e-003
      4.21588542e-003 6.93822056e-002 2.58272327e-002 1.51290685e-001
      3.68779093e-001 3.68779093e-001 6.64926469e-002 1.59838907e-002
      2.38650963e-002 2.19658408e-002 2.52953125e-003 1.13643380e-003
      2.87945941e-002 2.57148653e-001 3.68779093e-001 9.79259759e-002
      9.37002245e-003 0. 2.52953125e-003 6.83378754e-003 6.81860314e-004
      2.87610292e-002 3.68779093e-001 3.68779093e-001 2.75439024e-002
      3.23224370e-003 1.43190604e-002 2.56474712e-003 0. 0.
      4.27069404e-004 2.16257181e-002 4.50721771e-001 9.65695679e-002
      2.11963452e-005 1.90738021e-004 0. 1.88557699e-003 0. 0.
      9.07411352e-002 4.81537908e-001 8.39774981e-002 0. 0.
      1.88557699e-003 5.93335018e-004 9.18160822e-006 0. 8.84306654e-002
      4.81537908e-001 7.05716759e-002 1.93211308e-003 0. 0.
      6.70447946e-003 0. 0. 7.63510615e-002 4.81537908e-001
      2.29332432e-001 0. 0. 6.70447946e-003 6.89056749e-003 0. 0. 0.
      2.51930356e-001 3.71629953e-001 6.87140301e-002 1.85384396e-002
      6.89056749e-003 0. 0. 0. 2.16942932e-003 3.71629953e-001
      3.71629953e-001 4.57336120e-002 1.11230649e-002 0. 1.25393830e-002
      0. 0. 2.51563620e-002 3.24319661e-001 3.71629953e-001
      1.01014227e-001 6.96732383e-003 1.25393830e-002 0. 0.
      1.13009720e-003 1.52441755e-001 3.71629953e-001 3.03824246e-001
      5.42629249e-002 4.18039458e-003 0. 0. 1.65362265e-002
      6.53899461e-003 7.26607293e-002 2.17120484e-001 2.20481724e-001
      2.56516244e-002 0. 0. 0. 5.73519953e-002 2.38459647e-001
      1.40076429e-001 3.67489487e-001 3.67489487e-001 2.48576075e-001
      3.99287939e-002 1.80492904e-002 8.28837138e-003 2.80063264e-002
      6.91673858e-003 5.14424965e-002 2.29480058e-001 1.57318905e-001
      1.00566633e-003 1.04914661e-002 2.17395206e-003 1.18405302e-003
      1.78822070e-001 3.12454820e-001 9.82448161e-002 2.65163064e-001
      3.67489487e-001 1.79198116e-001 8.35064128e-002 1.26345038e-001
      6.86481744e-002 2.01160297e-001 8.81408080e-002 2.78072208e-001
      2.78072208e-001 2.78072208e-001 2.13926718e-001 2.61107851e-002
      3.82160884e-004 4.11888994e-002 1.20696165e-001 6.29514679e-002
      2.78072208e-001 2.78072208e-001 2.61883736e-001 1.26371309e-001
      6.73258305e-003 2.67512631e-003 1.54809445e-001 1.54052615e-001
      1.99351981e-002 1.77062094e-001 2.08456770e-001 7.52580538e-002
      1.95090041e-001 1.11177072e-001 7.50449151e-002 8.78796652e-002
      9.47117656e-002 3.55625823e-002 2.78072208e-001 2.78072208e-001
      1.28090665e-001 1.68681383e-001 4.83544432e-002 4.41946834e-002
      8.69450625e-003 2.44353595e-003 1.54446736e-002 1.18489459e-001
      3.88632238e-001 1.12901546e-001 5.58959495e-004 0. 6.76411996e-003
      8.03940892e-002 0. 0. 5.16940840e-003 3.88632238e-001
      3.88632238e-001 3.91271617e-003 0. 8.03940892e-002 8.86821561e-003
      2.42459515e-004 3.74136604e-002 8.09728056e-002 3.88632238e-001
      1.25684306e-001 5.14034601e-003 0. 6.86883321e-003 1.10410310e-001
      0. 0. 8.98503698e-003 3.88632238e-001 3.88632238e-001
      3.76759619e-002 0. 1.10410310e-001 6.21537957e-003 0. 0.
      2.17169635e-002 4.18216944e-001 3.21285814e-001 1.04432069e-002 0.
      6.21537957e-003 0. 0. 0. 1.80575065e-002 4.18216944e-001
      1.29841864e-001 8.05449579e-003 0. 0. 3.87357851e-003 0. 0.
      1.51685044e-001 4.18216944e-001 2.89104372e-001 1.62230618e-002 0.
      3.87357851e-003 0. 0. 0. 4.79691885e-002 4.18216944e-001
      2.56327808e-001 1.34241600e-002 0. 0. 7.71980791e-004
      2.42470927e-003 7.25565478e-003 1.11654840e-001 3.97127002e-001
      1.02835603e-001 4.56576385e-002 3.56634124e-003 7.71980791e-004
      2.53338180e-002 3.30325104e-002 4.59457887e-003 1.10814460e-001
      3.97127002e-001 3.97127002e-001 2.06841305e-001 9.05629434e-003
      1.87656155e-003 0. 4.04118188e-003 1.20927570e-002 3.81890573e-002
      3.97127002e-001 9.52250138e-002 2.73945834e-002 2.13980488e-003 0.
      7.88750034e-003 8.66488088e-003 6.56368444e-004 1.35118924e-002
      3.97127002e-001 3.10743958e-001 1.29684135e-001 1.50938258e-002
      3.12760286e-003 3.07406113e-002 6.62766397e-002 7.39254802e-002
      2.44358703e-001 3.94551128e-001 1.45700634e-001 1.68047026e-002
      2.54709832e-002 5.07610058e-003 4.21641534e-003 8.62305518e-003
      4.41682525e-002 1.34608805e-001 3.94551128e-001 2.22030386e-001
      6.73758537e-002 4.24516350e-002 8.46016780e-003 5.07465750e-002
      8.81232917e-002 4.22342382e-002 5.20375222e-002 3.94551128e-001
      3.94551128e-001 5.07591926e-002 1.03160562e-002 7.25157268e-004
      9.99612641e-003 2.58441661e-002 3.26862969e-002 6.44145980e-002
      3.94551128e-001 1.37434989e-001 8.02850500e-002 1.71934273e-002
      1.20859535e-003 4.53338798e-005 1.18599599e-003 1.62687115e-002
      2.37485897e-002 2.83859015e-001 3.57829094e-001 1.46192769e-002
      1.09132758e-004 0. 3.14265564e-002 0. 0. 1.38439145e-002
      3.57829094e-001 3.57829094e-001 2.81590503e-002 0. 3.14265564e-002
      0. 3.27398244e-004 1.94817118e-003 1.67656634e-002 1.57683656e-001
      3.57829094e-001 1.04892865e-001 7.24949269e-003 0. 5.28898165e-002
      0. 0. 8.30634870e-003 3.57829094e-001 3.57829094e-001
      3.18373054e-001 1.91342141e-002 5.28898165e-002</_>
    <_>
      2.06644065e-003 0. 0. 0. 4.48142111e-001 5.60728088e-002
      5.38253598e-003 1.79874885e-003 2.06644065e-003 3.38707902e-002
      5.59575437e-003 9.90061462e-003 0. 4.48142111e-001 3.36436890e-002
      3.48664075e-002 1.16517404e-002 2.48292536e-002 1.72202904e-002
      1.37451692e-002 4.11306247e-002 0. 4.48142111e-001 0.
      3.76777500e-002 1.25912409e-002 1.72202904e-002 3.00297648e-001
      1.17718317e-001 1.66306108e-001 0. 4.48142111e-001 0.
      1.14732698e-001 7.42922723e-002 1.73804775e-001 0. 1.96994486e-004
      3.78778903e-003 8.63343850e-003 3.98215026e-001 0. 3.84389446e-003
      1.28456531e-003 0. 0. 0. 3.01708467e-003 6.65165707e-002
      4.65391725e-001 2.95914859e-001 1.04414336e-002 7.70739221e-004 0.
      8.72327480e-003 1.37896114e-003 1.91115458e-002 8.99711624e-002
      3.50817084e-001 0. 2.69072615e-002 8.99195671e-003 8.72327480e-003
      5.23396535e-003 0. 2.11195927e-002 2.73998260e-001 4.65391725e-001
      3.20693851e-001 2.10254136e-002 5.39517403e-003 5.23396535e-003 0.
      2.30823383e-002 1.97562128e-001 2.31203109e-001 2.95272946e-001
      1.66238070e-001 5.22375368e-002 1.03161611e-001 1.98527966e-002 0.
      8.12034756e-002 3.08130860e-001 3.08130860e-001 1.90052301e-001
      1.45356610e-001 5.30691855e-002 7.53090158e-002 1.19116772e-002 0.
      1.80125795e-002 9.31780115e-002 2.05053404e-001 3.08130860e-001
      1.50855720e-001 4.26830985e-002 8.26821104e-002 3.30879949e-002 0.
      4.39379252e-002 2.40700603e-001 3.08130860e-001 1.93050712e-001
      3.08130860e-001 2.00832427e-001 8.18123370e-002 1.98527966e-002
      4.96266689e-003 2.09935494e-002 1.73584018e-002 1.88946482e-002
      4.30557251e-001 2.30128691e-003 1.39536047e-002 4.28708456e-003
      1.17493630e-003 5.09525230e-003 1.62836560e-003 1.20202200e-002
      1.46201486e-002 4.30557251e-001 1.61090065e-002 7.87542854e-003 0.
      5.09525230e-003 1.60830114e-002 5.37971854e-002 1.60579741e-001
      2.57155001e-001 4.30557251e-001 8.91710594e-002 1.38671510e-002
      2.00232840e-003 8.22455343e-003 6.01801537e-002 1.92326680e-002
      1.07584096e-001 2.67558873e-001 4.30557251e-001 2.34533131e-001
      5.51279970e-002 0. 6.01801537e-002 5.93043456e-004 1.86269148e-003
      6.70960033e-003 2.32312689e-003 4.32358116e-001 1.16156423e-002
      5.67868352e-003 0. 5.93043456e-004 0. 5.74063882e-003
      2.51282807e-002 1.62618868e-002 4.32358116e-001 6.96938625e-003
      3.40721034e-003 0. 0. 2.06582006e-002 6.51704893e-002
      6.27438873e-002 4.44607548e-002 4.32358116e-001 2.20309943e-001
      1.66461512e-001 2.63615213e-002 1.09484391e-002 4.09289598e-002
      1.55189514e-001 2.86334783e-001 1.60831347e-001 4.32358116e-001
      1.11081757e-001 1.09616749e-001 2.25197263e-002 2.47460250e-002
      1.11399265e-002 1.97232291e-002 7.39593208e-002 5.68480343e-002
      2.85133809e-001 3.03265881e-002 1.48261646e-002 6.37613190e-003
      1.24611324e-002 3.97880794e-003 1.18339378e-002 6.03114963e-002
      9.47467163e-002 5.27982473e-001 6.34876564e-002 2.14246940e-002 0.
      3.97880794e-003 7.51429936e-003 2.61360537e-002 1.24532901e-001
      9.47545543e-002 3.61626625e-001 5.47787249e-002 6.95033893e-002
      8.68893638e-002 2.16607060e-002 0. 2.63422169e-002 1.56032383e-001
      1.57924265e-001 5.27982473e-001 3.25314015e-001 2.00752802e-002
      2.41295225e-003 0. 0. 1.06416584e-003 4.74295765e-003
      3.18802358e-003 3.61515015e-001 2.53730834e-001 9.07622650e-002
      1.14843855e-002 0. 1.79984979e-002 8.86399448e-002 3.72595303e-002
      6.53218329e-002 1.67382240e-001 3.61515015e-001 3.38809401e-001
      1.44868746e-001 0. 0. 0. 1.43832881e-002 4.14320044e-002
      3.61515015e-001 1.87395573e-001 3.52149121e-002 6.25618454e-003 0.
      2.21962780e-002 5.31579517e-002 5.75250648e-002 1.17666528e-001
      3.61515015e-001 3.61515015e-001 1.69824257e-001 6.98209777e-002 0.
      2.27091624e-003 0. 1.54147316e-002 1.20202832e-001 3.36813956e-001
      3.03178906e-001 6.13907464e-002 1.50844334e-002 2.27091624e-003
      1.61805879e-002 7.44765159e-003 4.79774289e-002 2.99288958e-001
      3.36813956e-001 2.47030258e-002 2.89309435e-002 8.10806453e-003
      1.61805879e-002 1.58964135e-002 0. 2.56912187e-002 3.36813956e-001
      3.36813956e-001 3.36813956e-001 7.31617361e-002 2.55877357e-002
      1.75737273e-002 6.98942617e-002 1.06395024e-003 4.60024439e-002
      3.36813956e-001 2.70140767e-001 8.24668333e-002 7.54225850e-002
      7.09466040e-002 8.16354528e-002 4.02753754e-003 0. 0. 0.
      4.19573307e-001 3.16422343e-001 9.73998383e-003 0. 4.02753754e-003
      0. 0. 0. 0. 4.19573307e-001 2.64422029e-001 0. 0. 0.
      4.24374873e-003 0. 0. 2.11911634e-001 4.19573307e-001
      1.74782857e-001 3.19213271e-002 1.79659354e-003 4.24374873e-003 0.
      7.99625367e-003 2.39277501e-002 1.78820312e-001 4.19573307e-001
      1.06659666e-001 2.98635438e-002 8.77901819e-003 0. 0.
      5.14960801e-003 4.65743095e-002 1.49096558e-002 3.81505430e-001
      2.19128296e-001 5.76755367e-002 7.87980575e-003 0. 0. 0.
      4.40497650e-003 2.92496160e-002 3.81505430e-001 3.56329590e-001
      1.99419260e-002 3.72151932e-004 0. 4.13736707e-004 2.47586984e-003
      6.83944449e-002 5.96697852e-002 3.81505430e-001 2.07380980e-001
      1.45110905e-001 3.96596864e-002 0. 0. 0. 1.54410517e-002
      4.86470722e-002 3.81505430e-001 3.81505430e-001 9.68168303e-002
      2.30076797e-002 0. 3.30899865e-003 2.44288389e-002 1.08434267e-001
      4.58937772e-002 3.20267022e-001 1.12073831e-001 6.24433123e-002
      1.43322304e-001 1.49993822e-002 2.31629889e-002 1.08882850e-002
      5.37822284e-002 2.22922862e-002 2.23357424e-001 3.20267022e-001
      1.61355287e-001 2.28092194e-001 4.26469631e-002 3.07904585e-004
      6.09714985e-002 3.20267022e-001 1.92741781e-001 3.20267022e-001
      1.65022686e-001 9.73151177e-002 1.13429494e-001 7.32213492e-003
      2.15533236e-003 2.70892922e-002 1.66308835e-001 7.29259551e-002
      1.89015359e-001 3.20267022e-001 3.20267022e-001 1.89049169e-001
      1.38457175e-002 1.53848780e-002 2.39693634e-002 1.13244765e-001
      1.67575836e-001 3.56497973e-001 3.56497973e-001 1.23933874e-001
      8.92472919e-003 2.36406457e-003 4.64682840e-002 2.47277375e-002
      7.54203871e-002 8.44553765e-003 3.21577400e-001 2.48829409e-001
      7.17101991e-002 8.82783905e-003 3.86557952e-002 1.01695247e-001
      5.56621477e-002 9.75697935e-002 8.24649036e-002 3.56497973e-001
      3.56497973e-001 3.20961863e-001 6.85368329e-002 4.53484282e-002
      1.32599294e-001 3.87795679e-002 7.46476427e-002 0. 2.01295778e-001
      1.69927105e-001 7.77830482e-002 3.07457391e-002 9.87912044e-002
      3.87835968e-003 6.97733369e-003 5.35359792e-002 6.67995960e-002
      4.91528511e-001 1.58341881e-002 7.74105685e-003 0. 3.87835968e-003
      0. 9.96761839e-004 1.96834914e-002 3.41611318e-002 4.91528511e-001
      0. 0. 0. 0. 4.85064229e-003 1.16288885e-002 5.60188107e-002
      6.53622672e-002 4.91528511e-001 2.63903122e-002 1.29017606e-002 0.
      4.85064229e-003 0. 1.66126993e-003 3.52672115e-002 9.85623822e-002
      4.91528511e-001 0. 0. 0. 0. 0. 0. 2.00735461e-002 2.48357609e-001
      3.41331750e-001 8.07615072e-002 2.31391434e-002 1.46692432e-002
      9.50333755e-003 0. 0. 6.06370084e-002 3.41331750e-001
      3.41331750e-001 1.81851551e-001 1.12216622e-002 4.85558473e-002
      6.65233657e-002 4.38559102e-003 2.89609488e-002 8.41600746e-002
      3.41331750e-001 3.41331750e-001 4.37509418e-002 1.95061590e-003
      4.81379079e-003 5.70200337e-003 4.15887032e-003 2.95552760e-002
      2.28844836e-001 3.41331750e-001 3.41331750e-001 4.81121540e-002
      1.60309474e-003 2.91335061e-002 3.99140194e-002 0. 6.16233274e-002
      4.23691235e-002 9.90932994e-003 8.15834478e-002 3.54911149e-001
      5.73506057e-002 1.05760582e-001 7.77398348e-002 1.76224932e-002
      9.39648319e-003 1.73257310e-002 1.98328923e-002 2.48364225e-001
      3.54911149e-001 1.70355856e-001 1.29098937e-001 8.53548422e-002 0.
      5.75775802e-002 9.53819603e-002 9.18824747e-002 1.35316536e-001
      3.54911149e-001 1.71899334e-001 6.70578554e-002 9.74932965e-003
      1.05734961e-002 1.73226539e-002 4.07483280e-002 3.94403078e-002
      3.54911149e-001 3.54911149e-001 3.54911149e-001 1.11249879e-001
      5.25013283e-002 3.76586989e-002 2.00540069e-002 6.58879355e-002
      2.52167910e-001 3.66234124e-001 2.36751825e-001 1.67178169e-001
      9.62642431e-002 5.09530455e-002 4.74308059e-002 4.37080003e-002
      1.71943039e-001 8.41765404e-002 1.33929357e-001 1.11863866e-001
      1.64178416e-001 1.04701042e-001 6.11466318e-002 4.00023684e-002
      3.34233455e-002 1.13947339e-001 2.97225118e-001 3.66234124e-001
      2.59628057e-001 3.42277318e-001 4.85509336e-002 4.00023684e-002
      6.01585507e-002 7.28466660e-002 2.44162112e-001 5.35463765e-002
      2.42338941e-001 4.84243147e-002 1.40104800e-001 3.55641693e-002
      6.01585507e-002 2.45911139e-003 9.57809039e-004 2.86611891e-003
      7.92063400e-003 4.91746753e-001 0. 9.34848469e-003 3.12410761e-003
      2.45911139e-003 1.36267999e-002 1.61932819e-002 3.20570096e-002
      4.27126661e-002 4.91746753e-001 0. 8.36421102e-002 2.79517975e-002
      1.21401437e-002 0. 0. 0. 0. 4.91746753e-001 0. 9.64487065e-003
      3.22315469e-003 0. 0. 1.25259236e-002 4.74087782e-002
      5.22067510e-002 4.91746753e-001 5.33539662e-003 1.00460336e-001
      3.27004865e-002 0. 1.21937664e-002 4.19508703e-002 6.98556080e-002
      1.50296733e-001 3.94841224e-001 0. 2.52822004e-002 8.44886713e-003
      1.22698559e-003 8.48578662e-003 3.91140804e-002 5.62518388e-002
      1.08211562e-001 4.67946291e-001 1.17395088e-001 5.72298374e-003
      1.91252050e-003 0. 8.58889893e-003 7.09895836e-003 4.03144397e-002
      3.09967011e-001 4.29168910e-001 2.01852364e-003 4.75644469e-002
      1.55654224e-002 8.58889893e-003 0. 1.08358683e-002 3.51494588e-002
      1.24503344e-001 4.67946291e-001 1.94575965e-001 4.00608815e-002
      1.33876437e-002 0. 4.73556295e-003 1.15985060e-002 6.93931580e-002
      1.82095081e-001 3.00617099e-001 1.43180251e-001 7.01163709e-002
      1.81559082e-002 1.18685151e-002 3.31489369e-002 2.51300316e-002
      6.89676702e-002 2.77547777e-001 3.00617099e-001 2.30559662e-001
      5.00901602e-002 8.30288325e-003 3.19359377e-002 1.29177235e-002
      1.67902503e-002 9.97781754e-002 3.00617099e-001 3.00617099e-001
      2.31163293e-001 5.62837943e-002 8.56547244e-003 1.08754244e-002
      9.04240608e-002 6.99832961e-002 4.82055806e-002 3.00617099e-001
      3.00617099e-001 3.00617099e-001 2.06174538e-001 1.70898259e-001
      7.61279687e-002 3.51283811e-002 3.95204581e-004 1.18259818e-003
      1.31700961e-002 3.69452178e-001 3.69452178e-001 1.39665186e-001
      9.69251022e-002 5.09880409e-002 7.01156855e-002 2.76643177e-003
      8.27818736e-003 0. 1.86830267e-001 5.02361283e-002 1.72528356e-001
      1.60709590e-001 9.17813629e-002 5.79218417e-002 0. 0. 0.
      3.69452178e-001 3.69452178e-001 1.66477695e-001 1.02502182e-001
      6.94626197e-002 1.04321435e-001 0. 0. 0. 2.49277934e-001
      4.72877473e-002 3.35851431e-001 2.43379101e-001 1.31495714e-001
      4.27001938e-002 0. 4.02514637e-002 5.88925704e-002 4.87499446e-001
      7.05452412e-002 2.84581073e-002 3.47436443e-002 4.98994552e-002
      3.17972898e-002 4.59933691e-002 3.92445028e-002 4.14187647e-002
      4.87499446e-001 5.87399825e-002 5.20193577e-002 6.56933263e-002
      3.62325497e-002 0. 0. 0. 0. 4.87499446e-001 0. 0. 0. 0.
      4.53810208e-003 3.77208404e-002 4.73395474e-002 0. 4.87499446e-001
      6.99116439e-002 3.70498635e-002 9.59535711e-004 0. 0.
      5.50954975e-003 1.64866224e-002 2.81657036e-002 3.85117322e-001
      1.05960639e-002 6.65190304e-003 1.32243184e-003 0. 2.02784687e-003
      1.72789302e-002 2.24205479e-002 9.53445863e-003 3.85117322e-001
      2.38768175e-001 2.23134980e-001 1.99022852e-002 0. 0.
      9.18258354e-003 8.49811435e-002 2.36222312e-001 3.85117322e-001
      8.01352635e-002 3.03209089e-002 9.25702322e-003 0. 1.41949272e-002
      8.78771842e-002 1.29891306e-001 2.13854223e-001 3.85117322e-001
      3.52459043e-001 1.67240500e-001 1.69037450e-002 0. 0.
      2.86019798e-002 9.25185531e-002 3.46751176e-002 8.39315280e-002
      3.70437682e-001 1.17198087e-001 8.28896910e-002 3.22783389e-003 0.
      1.71611886e-002 5.65975085e-002 5.52398227e-002 3.70437682e-001
      3.70437682e-001 6.44133240e-002 1.80144832e-002 0. 0.
      6.66421056e-002 7.06392601e-002 1.14887014e-001 3.42262655e-001
      3.21036041e-001 4.07981761e-002 4.15878482e-002 3.72703583e-003 0.
      1.17862532e-002 7.72748441e-002 5.91601543e-002 3.70437682e-001
      3.70437682e-001 7.08778426e-002 5.89722535e-003 5.32433682e-004
      3.67796719e-002 1.59958692e-003 4.78655612e-003 1.33515611e-001
      5.39935529e-001 1.12161137e-001 1.54240290e-002 5.15445275e-003
      3.67796719e-002 5.11125103e-002 2.66597862e-003 2.37361956e-002
      4.37689014e-002 2.39514023e-001 1.51848188e-002 1.59130339e-002
      5.31787006e-003 5.11125103e-002 5.33412509e-002 0. 0.
      1.59890860e-001 5.39935529e-001 3.06749940e-001 1.38000801e-001
      4.61175665e-002 5.33412509e-002 3.78796533e-002 0. 0. 0.
      3.63685489e-001 4.38214242e-002 1.61445558e-001 5.39524108e-002
      3.78796533e-002 1.46587547e-002 3.81305143e-002 1.61158949e-001
      9.62560400e-002 4.47955132e-001 0. 0. 7.54643679e-002
      9.96106863e-002 9.85338315e-002 3.72379608e-002 7.91292712e-002
      6.19149841e-002 3.98551702e-001 0. 0. 2.39500731e-001
      2.60451108e-001 9.37661564e-004 4.33172844e-003 1.72817949e-002
      8.83569289e-003 4.47955132e-001 0. 0. 7.81171536e-003
      9.00613330e-003 5.88323083e-003 3.55616994e-002 1.37268215e-001
      1.17171340e-001 4.47955132e-001 0. 0. 2.92662084e-002
      2.26971693e-002 7.60582695e-003 9.65880975e-003 7.60824978e-003
      1.00795500e-001 2.41572440e-001 1.88120350e-001 1.68126032e-001
      3.81722674e-002 7.15425937e-003 8.09510890e-003 0. 2.92439945e-003
      3.41976881e-001 3.41976881e-001 1.54076040e-001 2.51436591e-001
      8.98273755e-003 8.09510890e-003 1.31765427e-002 3.63220024e-004
      1.34201662e-003 6.23218901e-002 1.13114998e-001 3.19515675e-001
      3.14011216e-001 6.56254143e-002 1.76364128e-002 2.52164504e-003 0.
      2.23518629e-002 3.41976881e-001 3.41976881e-001 2.25931406e-001
      1.84384480e-001 0. 2.52164504e-003 2.80276011e-003 5.34021109e-003
      6.67725354e-002 1.90669894e-001 3.19754094e-001 1.75846592e-001
      7.84848556e-002 0. 1.69620651e-003 1.96193215e-002 3.73814777e-002
      3.41747813e-002 1.24648198e-001 3.19754094e-001 3.19754094e-001
      2.64051378e-001 2.08606888e-002 1.18734455e-002 2.18781922e-002
      8.90035182e-003 2.97019305e-003 9.90609899e-002 3.19754094e-001
      3.19754094e-001 8.89644176e-002 0. 2.00339388e-002 1.53147355e-001
      6.23024628e-002 1.65128335e-002 7.83995166e-002 3.19754094e-001
      3.04590702e-001 2.17052758e-001 6.79946616e-002 1.40237570e-001
      5.22431321e-002 2.97514498e-002 1.54720873e-001 2.69664288e-001
      3.90956849e-001 1.35649279e-001 4.48993687e-003 0. 5.22431321e-002
      3.08954064e-002 4.48567457e-002 1.34227976e-001 0. 3.90956849e-001
      0. 0. 0. 3.08954064e-002 7.65572339e-002 7.76780322e-002
      2.92386055e-001 2.92383164e-001 3.90956849e-001 2.95587014e-002
      6.41419669e-004 0. 7.65572339e-002 6.91668913e-002 6.50868416e-002
      1.94763884e-001 0. 3.90956849e-001 0. 0. 0. 6.91668913e-002
      1.49174770e-002 3.91865261e-002 2.53618266e-002 6.48304075e-002
      4.14397210e-001 1.06678545e-001 4.28395420e-002 2.14082445e-003
      7.55160954e-003 1.22764464e-002 1.06080152e-001 2.50022292e-001
      1.61206305e-001 4.14397210e-001 1.03270058e-002 2.28791237e-002
      3.73371281e-002 6.15237514e-003 1.05736675e-002 5.07824449e-003
      8.68388824e-003 3.88982482e-002 4.14397210e-001 3.27526033e-001
      1.44107699e-001 3.04351114e-002 9.52140056e-003 3.28999683e-002
      5.31499237e-002 1.45927414e-001 1.04577482e-001 4.14397210e-001
      1.00198418e-001 4.27429341e-002 8.05336684e-002 4.28974628e-002 0.
      1.85473263e-002 8.39511082e-002 2.08911702e-001 2.51788318e-001
      8.95521566e-002 5.33927940e-002 6.02994524e-002 1.50365904e-002
      3.20422091e-003 2.57803146e-002 6.66105673e-002 3.60539287e-001
      3.60539287e-001 2.04964831e-001 3.02020404e-002 3.06483302e-002
      8.00720043e-003 2.16504224e-002 1.36447195e-002 1.14911996e-001
      3.10144365e-001 2.65194386e-001 4.35840636e-002 2.08156388e-002
      4.32185195e-002 2.86677368e-002 4.24069958e-003 1.45872338e-002
      1.24593399e-001 3.60539287e-001 3.60539287e-001 3.11484724e-001
      3.85030219e-003 5.60756167e-003 4.07807902e-003 0. 0.
      2.31529091e-004 1.88000947e-002 2.44223893e-001 3.24586928e-001
      2.14135230e-001 2.24203803e-002 1.42401885e-004 2.61933659e-004
      4.52062767e-003 1.72609892e-002 2.89016105e-002 2.22994640e-001
      3.24586928e-001 3.24586928e-001 1.80467870e-002 7.51862815e-003 0.
      0. 3.85881838e-004 4.35559824e-002 3.24586928e-001 3.24586928e-001
      2.41372138e-001 3.06511708e-002 9.96813294e-004 1.83353550e-003
      8.84865131e-003 4.50971723e-003 3.17702070e-002 1.94381520e-001
      3.24586928e-001 3.24586928e-001 3.99964899e-002 6.97769318e-003 0.
      0. 0. 0. 4.79242653e-001 3.96642148e-001 3.03267827e-003 0. 0.
      1.74473021e-002 0. 0. 0. 1.75275832e-001 0. 0. 0. 1.74473021e-002
      0. 0. 0. 2.42780894e-002 4.79242653e-001 4.79242653e-001
      9.81399510e-003 0. 0. 1.63369030e-002 1.86455678e-002
      5.57944328e-002 0. 3.35928321e-001 0. 0. 0. 1.63369030e-002</_>
    <_>
      2.63961731e-003 0. 6.37274119e-004 2.59246647e-001 3.86499792e-001
      5.01439311e-002 0. 0. 2.63961731e-003 0. 0. 3.82364466e-004
      1.55419081e-001 3.86499792e-001 4.97431271e-002 0. 0. 0.
      2.61720526e-003 0. 8.80174618e-003 3.86499792e-001 3.86499792e-001
      9.27953515e-003 0. 0. 2.61720526e-003 0. 0. 5.28104790e-003
      3.86499792e-001 3.86499792e-001 5.72169647e-002 0. 0. 0.
      2.31858459e-003 6.11825555e-004 9.60172154e-003 5.69959432e-002
      2.96943754e-001 1.74660265e-001 4.16118726e-002 4.83415741e-003
      4.84639872e-003 1.62300915e-002 1.13778247e-003 1.37621574e-002
      4.41668667e-002 2.96943754e-001 2.96943754e-001 2.96943754e-001
      2.96943754e-001 3.39247882e-002 1.62300915e-002 1.88659108e-003
      2.74167918e-002 2.56167471e-001 2.96943754e-001 1.01281002e-001
      1.78255271e-002 8.05692933e-003 8.07733182e-003 1.18886858e-001
      7.96447787e-003 2.85849106e-002 1.67940065e-001 2.96943754e-001
      1.98433191e-001 2.96943754e-001 2.96943754e-001 6.57679141e-002
      5.26693240e-002 0. 2.96183061e-002 2.31154915e-002 3.18401791e-002
      1.27588902e-002 1.66526690e-001 2.95685500e-001 2.37791806e-001
      5.62842079e-002 7.38498813e-004 2.88865287e-002 3.80957760e-002
      6.94668591e-002 9.00678113e-002 2.95685500e-001 2.95685500e-001
      1.55690625e-001 8.09830651e-002 6.08569011e-003 1.15273483e-002
      1.45927491e-002 8.79910439e-002 1.55791387e-001 1.94651052e-001
      2.95685500e-001 2.95685500e-001 8.95173773e-002 1.23083137e-003
      4.06697914e-002 2.88063027e-002 2.51856148e-001 2.95685500e-001
      1.80520654e-001 2.95685500e-001 2.63447881e-001 0. 0.
      9.10362750e-002 1.47067472e-001 2.50714034e-001 2.83787280e-001
      3.69034678e-001 1.08930260e-001 1.46273728e-002 9.79913585e-003
      1.91671588e-002 8.34995210e-002 1.49557903e-001 3.23402941e-001
      7.71192387e-002 3.93069163e-002 8.17755703e-003 1.33847585e-002 0.
      0. 2.25374643e-002 1.28990427e-001 3.76729697e-001 3.76729697e-001
      2.28414401e-001 1.26813464e-002 0. 1.75195299e-002 2.58921068e-002
      4.23278920e-002 8.63588080e-002 3.76729697e-001 1.61958218e-001
      2.47334186e-002 2.73018633e-003 1.40358116e-002 6.38009561e-003 0.
      0. 2.11572856e-001 3.99627805e-001 1.52623067e-002 0. 0.
      6.38009561e-003 0. 0. 1.27519749e-003 3.08407605e-001
      3.99627805e-001 9.34442133e-003 0. 0. 0. 6.87878719e-003 0. 0.
      2.33102784e-001 3.99627805e-001 5.24555780e-002 0. 0.
      6.87878719e-003 0. 0. 7.65118573e-004 3.99627805e-001
      3.99627805e-001 5.51132578e-003 0. 0. 0. 0. 2.68583372e-002
      1.18047081e-001 1.55796960e-001 1.13682926e-001 9.54801310e-003
      6.47892291e-003 7.72900460e-003 4.23415285e-003 1.24306220e-003
      3.04441422e-001 3.53133112e-001 3.53133112e-001 8.56775045e-002
      1.86465569e-002 1.67187396e-002 2.09345501e-002 2.96390690e-002 0.
      2.18208898e-002 1.03711784e-001 2.62984037e-001 2.27260754e-001
      1.33682534e-001 6.07769005e-004 0. 0. 1.01446370e-002
      8.78050104e-002 3.53133112e-001 3.53133112e-001 3.53133112e-001
      2.45860472e-001 2.73972228e-002 0. 0. 2.95183420e-001
      1.31141961e-001 1.04955867e-001 1.24817394e-001 2.19030082e-002
      1.03232269e-004 3.18467095e-002 1.20765850e-001 1.19557180e-001
      3.07752162e-001 1.11977562e-001 1.74568355e-001 3.07752162e-001
      5.10940403e-002 7.68973213e-003 8.69072527e-002 2.33569760e-002
      5.68214506e-002 3.07752162e-001 3.07752162e-001 3.07752162e-001
      3.23830433e-002 8.95324443e-003 6.19393686e-005 4.17779759e-002
      3.60939279e-002 7.66051859e-002 3.07752162e-001 3.07752162e-001
      3.07752162e-001 6.34711534e-002 1.63753945e-002 1.42887642e-003
      6.57463148e-002 2.35636570e-002 4.12678607e-002 9.92707908e-004
      3.97266597e-002 1.12732925e-001 3.34662139e-001 3.34662139e-001
      7.25313053e-002 0. 0. 0. 2.45650038e-002 9.19926446e-003
      4.42223474e-002 2.78337210e-001 3.34662139e-001 1.15947589e-001 0.
      0. 2.45650038e-002 3.17213908e-002 1.88263759e-001 1.75613627e-001
      3.34662139e-001 3.09589475e-001 6.23527281e-002 2.13297037e-003
      2.82494933e-003 1.11676333e-002 6.69797286e-002 2.12375205e-002
      1.61257252e-001 3.34662139e-001 3.34662139e-001 9.68656093e-002 0.
      0. 5.88890910e-002 4.54887608e-003 0. 0. 3.55822146e-001
      3.55822146e-001 1.43202012e-002 0. 0. 4.54887608e-003 0. 0. 0.
      3.55822146e-001 3.55822146e-001 4.94922744e-003 0. 0. 0.
      8.41792859e-003 0. 1.57143746e-003 3.55822146e-001 3.55822146e-001
      0. 0. 0. 8.41792859e-003 0. 0. 1.10000623e-002 3.31124306e-001
      3.55822146e-001 0. 0. 0. 0. 8.04245647e-005 1.77594256e-002
      4.32385057e-002 8.37364271e-002 3.15439969e-001 1.34511009e-001
      2.21943911e-002 0. 7.79501861e-004 1.42368317e-001 1.48387045e-001
      1.32371455e-001 1.47368863e-001 3.15439969e-001 3.15439969e-001
      5.49666546e-002 0. 5.74183948e-002 0. 5.18396981e-002
      1.07549354e-001 1.14460044e-001 3.15439969e-001 5.26472740e-002
      2.60685291e-003 0. 0. 2.26426184e-001 2.50629812e-001
      3.15439969e-001 3.15439969e-001 3.15439969e-001 1.55897275e-001
      1.64354295e-002 1.16508815e-003 1.26132548e-001 2.99375236e-001
      1.07371554e-001 2.79281363e-002 3.00915353e-003 8.52065440e-003
      8.25072057e-004 5.51585434e-003 1.86347440e-001 2.51502335e-001
      2.99375236e-001 1.72904745e-001 4.36216556e-002 1.07562207e-002
      3.82719561e-003 8.29537958e-003 1.47782573e-002 2.42096409e-001
      2.88630784e-001 2.99375236e-001 7.11278841e-002 0. 0.
      1.48281211e-003 3.13636754e-003 7.71188922e-003 2.78161108e-001
      2.99375236e-001 2.99375236e-001 5.03719933e-002 2.38260766e-003 0.
      3.79393859e-005 4.48052509e-004 6.87897718e-003 2.99375236e-001
      2.99375236e-001 2.26255343e-003 6.15392998e-002 5.68574667e-002
      1.73503101e-001 2.04068109e-001 4.68449369e-002 1.16720982e-002
      3.32673523e-003 1.12668397e-002 5.40215634e-002 2.84010097e-002
      5.99051788e-002 3.64824861e-001 3.64824861e-001 1.75196882e-002
      1.47027161e-003 0. 5.30013144e-002 1.17979967e-003 1.25499032e-002
      9.04704854e-002 3.64824861e-001 3.64824861e-001 1.44418642e-001
      6.78730607e-002 2.22679880e-002 1.87780652e-002 1.50697783e-001
      3.46436678e-003 1.60535827e-001 3.64824861e-001 3.64824861e-001
      1.68313961e-002 8.40073160e-004 0. 1.50552019e-001 1.77921113e-002
      1.68757662e-002 3.45996410e-001 3.66216540e-001 1.80059686e-001 0.
      0. 0. 1.77921113e-002 3.12886829e-003 1.10346880e-002
      1.82695955e-001 3.66216540e-001 2.38132536e-001 0. 0. 0. 0.
      2.12146826e-002 5.20965643e-002 3.66216540e-001 3.66216540e-001
      6.88755140e-002 0. 0. 0. 2.12146826e-002 2.19020806e-002
      2.64976900e-002 1.93255588e-001 3.66216540e-001 1.88710421e-001 0.
      0. 0. 0. 0. 5.15783811e-003 4.90828715e-002 1.34455204e-001
      1.11216143e-001 7.74096027e-002 3.31977755e-002 1.45066036e-002 0.
      1.11876242e-002 3.89348678e-002 1.08913302e-001 9.78810266e-002
      2.69977182e-001 2.69977182e-001 2.69977182e-001 2.69977182e-001
      2.69977182e-001 0. 8.59639701e-003 6.59480020e-002 2.44781181e-001
      2.69977182e-001 2.17792243e-002 1.40356934e-002 2.00187489e-002 0.
      1.29880950e-001 2.14167163e-001 2.64175415e-001 2.69977182e-001
      2.67511815e-001 7.88636059e-002 1.45764917e-001 2.32295319e-001
      2.69977182e-001 2.85557956e-001 8.16473886e-002 6.92469161e-003
      7.05758575e-004 6.05781155e-004 1.22507324e-003 2.78890436e-003
      2.13507429e-001 2.85557956e-001 2.85557956e-001 1.19451070e-002
      2.36467295e-003 8.22112430e-004 0. 1.75010486e-004 6.03429740e-003
      2.85557956e-001 2.85557956e-001 2.85557956e-001 8.17037374e-002
      1.19466782e-002 2.88245324e-002 2.95205265e-002 6.13578372e-002
      8.68261829e-002 2.82364458e-001 2.85557956e-001 2.85557956e-001
      5.37422709e-002 1.59944687e-002 1.21913694e-001 5.23204990e-002
      4.88678366e-002 8.08174759e-002 2.85557956e-001 2.85557956e-001
      7.29842018e-003 8.85647163e-003 1.07809883e-002 2.05566347e-001
      3.02560717e-001 9.98721272e-003 4.28485358e-003 7.24168401e-003
      2.86552846e-003 1.93231404e-002 0. 8.19800049e-002 4.00636047e-001
      4.00636047e-001 1.03658717e-003 5.82138200e-005 0. 1.93231404e-002
      5.53920260e-003 3.29236151e-003 8.47012363e-003 2.18872979e-001
      4.00636047e-001 4.55177687e-002 2.26445626e-002 1.35433292e-002
      6.54175878e-003 1.01085100e-002 0. 2.63677519e-002 4.00636047e-001
      4.00636047e-001 5.13172522e-003 4.07496787e-004 0. 1.01085100e-002
      5.60445897e-002 1.55299351e-001 2.25094393e-001 2.93253839e-001
      2.87668467e-001 1.07272826e-001 1.55871613e-002 7.19895959e-003
      2.73558274e-002 4.41259965e-002 5.04487716e-002 1.66649476e-001
      2.75943577e-001 2.93253839e-001 1.75332725e-001 4.23417874e-002
      3.27176414e-002 3.19667421e-002 2.93512605e-002 1.09916538e-001
      2.93253839e-001 2.93253839e-001 1.15228802e-001 1.48873493e-001
      4.23867479e-002 2.37093102e-002 4.45348471e-002 1.95054319e-002
      5.66953234e-002 2.93253839e-001 2.93253839e-001 2.93253839e-001
      1.17983513e-001 4.30515595e-002 4.22396511e-002 7.02873543e-002 0.
      0. 2.84548271e-002 1.84951112e-001 2.66846001e-001 3.68795432e-002
      1.84199878e-003 0. 0. 1.85804032e-002 1.91920586e-002
      2.27600276e-001 3.98946315e-001 3.98946315e-001 2.62713898e-002
      9.83361248e-003 0. 2.17445334e-003 0. 0. 5.01624250e-004
      1.79024160e-001 3.98946315e-001 5.26482388e-002 8.10309779e-004 0.
      0. 0. 0. 4.14227955e-002 3.98946315e-001 3.98946315e-001
      5.27626872e-002 2.77515757e-003 0. 0. 3.59743573e-002
      6.58757519e-003 4.97949682e-003 2.13568956e-002 9.20278504e-002
      3.24494004e-001 3.08521867e-001 7.19666556e-002 4.62111346e-002
      1.51781738e-003 1.07914321e-002 1.31622981e-002 2.22363919e-001
      3.24494004e-001 3.24494004e-001 2.23719552e-001 4.44358774e-002
      2.81968266e-002 4.57533002e-002 4.25948715e-003 4.75778012e-003
      1.16525935e-002 2.64108509e-001 3.24494004e-001 1.53397292e-001
      4.83447220e-003 2.31144484e-003 2.52969586e-003 1.03175198e-003
      3.30450498e-002 3.96595933e-002 3.24494004e-001 3.24494004e-001
      2.26287022e-001 1.31513625e-002 6.99307056e-005 0. 0.
      7.25251110e-003 4.22081575e-002 4.07105714e-001 7.21530989e-002
      9.31350794e-003 0. 0. 2.84320605e-003 0. 1.03607296e-003
      6.35001063e-002 5.16529560e-001 2.31214128e-002 0. 0.
      2.84320605e-003 0. 0. 0. 5.95541596e-002 5.16529560e-001
      8.02058652e-002 1.67172775e-003 0. 0. 5.75160328e-003 0. 0.
      7.26690590e-002 5.16529560e-001 4.07133438e-002 0. 0.
      5.75160328e-003 2.24328712e-002 1.04114385e-002 3.29212129e-001
      3.29212129e-001 2.72752255e-001 0. 0. 0. 2.06803344e-002
      1.02284826e-001 9.40384716e-002 2.72724688e-001 2.75713593e-001
      2.16384768e-001 6.85769413e-003 2.75530461e-002 1.45725599e-002
      8.44007730e-002 4.24670763e-002 3.66252623e-002 3.29212129e-001
      2.78140903e-001 3.29212129e-001 0. 0. 0. 3.89930978e-002
      3.72761898e-002 4.39212322e-002 2.27042839e-001 1.13191798e-001
      3.29212129e-001 4.80038561e-002 3.79885100e-002 4.85241739e-003
      3.50631326e-002 6.20805542e-004 8.11500568e-003 2.47837827e-002
      2.75180768e-002 2.70600110e-001 1.86610371e-001 4.78067994e-003 0.
      0. 2.78445240e-003 3.09113506e-003 1.37824770e-002 2.05588676e-002
      4.01937485e-001 4.01937485e-001 2.87317298e-002 1.48779526e-003
      7.11558340e-003 1.56550363e-004 1.45796803e-003 6.86858594e-003
      1.72673464e-002 2.60323673e-001 2.37327769e-001 2.95036323e-002
      8.74061789e-003 1.81115605e-003 3.33018824e-002 4.21473087e-004
      4.12115222e-003 1.89271215e-002 3.64770830e-001 4.01937485e-001
      3.69273722e-001 3.42919156e-002 5.32443821e-002 7.30297156e-003
      1.94156766e-002 2.32673134e-003 5.96588999e-002 2.70749599e-001
      2.70749599e-001 7.19606504e-002 4.91912030e-002 1.78729985e-002
      1.04697861e-001 2.14067668e-001 1.86063185e-001 8.99998024e-002
      1.87586948e-001 2.70749599e-001 2.15529501e-001 2.16065288e-001
      5.94536960e-002 1.19034825e-002 1.78304780e-002 3.26440446e-002
      1.08780712e-001 2.70749599e-001 2.70749599e-001 2.70749599e-001
      8.57661739e-002 1.01018168e-001 1.76298574e-001 1.64110169e-001
      1.10287420e-001 9.08573791e-002 2.70749599e-001 1.81635633e-001
      2.26482525e-001 1.72900319e-001 1.31707296e-001 0. 0.
      6.98329604e-005 4.96365614e-002 4.76459891e-001 2.46600807e-002
      1.73466152e-003 3.11944052e-004 0. 2.76655820e-003 0. 0.
      1.70597658e-001 4.76459891e-001 8.63648485e-003 0. 0.
      2.76655820e-003 0. 1.01617230e-002 2.91630086e-002 1.36970520e-001
      4.76459891e-001 1.98370274e-002 2.75415881e-003 4.45634396e-005 0.
      3.08993296e-003 0. 0. 1.86377347e-001 4.76459891e-001
      6.70940755e-003 3.05726076e-004 0. 3.08993296e-003 5.87471426e-002
      9.19907689e-002 1.50026098e-001 2.09893391e-001 1.31467387e-001
      1.14321463e-001 1.31908327e-001 1.78462371e-001 5.62370420e-002
      4.76688594e-002 5.54718450e-002 1.22576579e-001 9.91435125e-002
      3.09689224e-001 2.09726527e-001 1.65621042e-001 1.41096115e-001
      5.66677153e-002 1.22781945e-002 6.92040520e-003 1.52340680e-001
      3.09689224e-001 3.09008807e-001 1.83622330e-001 1.72771841e-001
      2.25926861e-001 2.69384775e-002 1.15916967e-001 5.88088632e-002
      1.92511186e-001 9.72671583e-002 3.09689224e-001 2.03619257e-001
      1.47384763e-001 2.08309531e-001 1.37776360e-001 4.22071759e-003
      2.76083611e-002 5.00199534e-002 9.64877829e-002 1.62133932e-001
      8.23672861e-002 3.01500596e-002 1.44160981e-003 6.61424856e-005
      1.65883407e-001 1.73444971e-001 2.12026909e-001 2.67623663e-001
      1.24786437e-001 1.09878451e-001 8.29217210e-002 4.20997143e-002
      2.54935920e-001 2.49274494e-003 1.47876674e-002 5.26742265e-002
      2.19933271e-001 3.54422390e-001 2.58536134e-002 8.65938608e-003
      7.35657522e-004 0. 1.08208776e-001 2.34020069e-001 3.54422390e-001
      3.54422390e-001 3.54422390e-001 4.88246828e-002 1.89712942e-002
      6.94559934e-003 2.24897012e-001 2.59463102e-001 1.49998128e-001
      4.15608920e-002 7.36881196e-002 2.67687477e-002 6.58847839e-002
      4.06079628e-002 9.95500982e-002 2.87699193e-001 2.01780662e-001
      1.49887607e-001 3.25823128e-002 6.63395897e-002 2.82929372e-002
      8.08778554e-002 1.07085519e-001 1.92813605e-001 2.87699193e-001
      2.87699193e-001 2.87699193e-001 2.69999839e-002 1.40696950e-002
      3.33486800e-003 5.94291231e-003 2.60164905e-002 1.98368922e-001
      2.87699193e-001 2.31587827e-001 2.87045658e-001 3.22025865e-002
      2.88692135e-002 6.02274155e-003 1.05753941e-002 2.13897340e-002
      2.87699193e-001 2.87699193e-001 2.98080733e-004 2.06272397e-003
      1.07684371e-003 3.86649482e-002 4.73198742e-001 3.33126560e-002
      2.54332330e-002 1.07156243e-002 0. 1.74800830e-003 0. 0.
      5.49860559e-002 4.96317714e-001 4.83417185e-003 0. 0.
      1.74800830e-003 0. 0. 0. 4.52944040e-002 4.96317714e-001
      1.15727216e-001 4.48644087e-002 1.01086358e-002 0. 3.43802385e-003
      0. 0. 8.22359100e-002 4.96317714e-001 3.68990079e-002 0. 0.
      3.43802385e-003 3.15280072e-002 1.53544517e-002 1.77935004e-001
      2.80791163e-001 1.69621140e-001 0. 6.25190586e-002 1.25657007e-001
      1.41233385e-001 9.93184596e-002 1.29842469e-002 1.33307859e-001
      1.81252912e-001 1.26432121e-001 0. 1.40598506e-001 3.07111591e-001
      2.92169303e-001 2.77045034e-002 2.89562233e-002 2.30650567e-002
      3.07111591e-001 3.07111591e-001 4.05403189e-002 6.67729601e-002
      5.89418523e-002 5.43472543e-002 8.41621030e-003 5.96251618e-003
      2.48563085e-002 2.12283134e-001 3.07111591e-001 4.63318229e-002
      3.07111591e-001 3.07111591e-001 8.06240067e-002 5.97252438e-005
      4.88734525e-003 2.31479742e-002 8.59680101e-002 3.60070944e-001
      3.58686410e-002 8.94035504e-004 1.27786270e-003 2.64787785e-004
      5.77488430e-002 5.68083972e-002 2.97621395e-002 2.54416108e-001
      3.60070944e-001 3.24397177e-001 1.38494149e-001 3.19624320e-002
      7.56094307e-002 1.63952401e-003 1.72848976e-003 1.26534821e-002
      2.14576021e-001 3.60070944e-001 5.54313250e-002 1.49005919e-003
      2.12977105e-003 2.08083703e-003 8.24983604e-003 3.34664509e-002
      7.28319883e-002 3.60070944e-001 3.60070944e-001 2.39782035e-001
      1.41470090e-001 3.94052416e-002 2.70693339e-002 2.43807077e-001
      5.39373681e-002 3.47060175e-003 5.07970387e-003 4.57549747e-003
      2.80191377e-002 2.14552358e-002 3.04691017e-001 3.04691017e-001
      2.24741682e-001 4.43465933e-002 5.00654848e-003 1.42042795e-002
      7.89601356e-003 6.37311935e-002 6.03148304e-002 3.04691017e-001
      3.04691017e-001 3.04691017e-001 1.68547139e-001 2.08035689e-002
      1.55069195e-002 4.19962034e-002 2.02624146e-002 3.83084081e-002
      2.39160106e-001 1.90101340e-001 2.54738718e-001 6.82555288e-002 0.
      0. 4.70776670e-002 3.37706916e-002 1.54961422e-001 3.04691017e-001
      3.04691017e-001 0. 4.04351251e-003 1.45429289e-002 1.12162009e-001
      3.56952101e-001 1.55551866e-001 0. 0. 0. 5.08744083e-003 0. 0.
      1.19093759e-002 4.06242132e-001 4.06242132e-001 0. 0.
      5.08744083e-003 0. 8.01949203e-003 1.08789653e-002 9.17759389e-002
      3.44249040e-001 2.08070189e-001 0. 0. 0. 1.39115965e-002 0. 0.
      2.01210510e-002 4.06242132e-001 4.06242132e-001 3.67657572e-004 0.
      1.39115965e-002</_>
    <_>
      6.90945750e-003 0. 0. 8.25186353e-003 9.23014060e-002
      2.35870481e-001 2.11546257e-001 4.56865039e-003 6.90945750e-003 0.
      0. 0. 2.07534075e-001 3.60127062e-001 3.60127062e-001
      3.60127062e-001 3.19805518e-002 0. 2.23900401e-003 0. 0.
      3.44799645e-002 1.87171116e-001 1.61029369e-001 1.00327000e-001
      6.52664399e-004 2.23900401e-003 0. 0. 0. 3.60127062e-001
      3.60127062e-001 2.69153863e-001 2.23757729e-001 4.56865039e-003 0.
      0. 0. 2.15431228e-002 3.37703407e-001 2.72559673e-001
      7.67383212e-003 1.64119750e-002 0. 0. 0. 1.16756428e-002
      5.92375807e-002 3.37703407e-001 3.37703407e-001 1.09730093e-002
      2.34456803e-003 0. 0. 0. 0. 4.72857207e-002 3.37703407e-001
      3.37703407e-001 1.30099833e-001 1.79915950e-002 0. 0. 0.
      1.94594078e-002 1.54916778e-001 3.37703407e-001 3.37703407e-001
      2.66429305e-001 6.79724514e-002 0. 0. 1.11746132e-001
      4.82486300e-002 7.05603184e-003 1.08000703e-001 6.86338693e-002
      3.33036296e-002 2.92571068e-001 2.67726481e-001 1.11038692e-001
      3.65917943e-002 0. 0. 1.50648952e-002 1.03577293e-001
      2.92571068e-001 2.92571068e-001 1.51975960e-001 1.62935704e-001
      8.43306482e-002 2.52054799e-002 5.46529219e-002 1.94331229e-001
      2.92571068e-001 1.38072893e-001 2.92571068e-001 2.32412562e-001
      1.06951825e-001 3.35700810e-002 0. 0. 2.49134060e-002
      2.24600121e-001 2.92571068e-001 2.92571068e-001 1.47038698e-001
      1.12989590e-001 0. 0. 0. 8.89070332e-003 3.11791927e-001
      3.11791927e-001 1.41340077e-001 5.95997535e-002 2.78498093e-003
      8.06840044e-003 0. 0. 1.12051487e-001 3.11791927e-001
      3.11791927e-001 1.02623023e-001 8.79900123e-004 8.06840044e-003 0.
      0. 0. 6.91137612e-002 3.11791927e-001 3.11791927e-001
      2.12170050e-001 1.79751143e-002 3.97854426e-004 6.50025113e-003 0.
      0. 1.71651229e-001 3.11791927e-001 3.11791927e-001 3.03327441e-001
      2.57825274e-002 6.50025113e-003 4.55793086e-003 1.19848587e-002
      1.04826642e-002 4.52137738e-002 2.66113460e-001 5.72320372e-002
      1.79680381e-002 7.00944988e-003 7.21643772e-003 1.09780452e-003
      7.19091622e-003 6.28959900e-003 2.36029148e-001 5.27501941e-001
      2.29179896e-002 5.67362178e-003 5.33356681e-004 0. 1.04156043e-003
      1.65687851e-003 4.95800702e-003 8.69303644e-002 3.83555591e-001
      4.24880721e-002 4.07762127e-003 0. 1.04156043e-003 0.
      9.94127127e-004 2.97480426e-003 3.84593934e-001 5.27501941e-001
      2.38612387e-002 2.44657299e-003 0. 0. 0. 0. 3.56772095e-002
      3.27124119e-001 1.38025597e-001 4.33496013e-003 0. 0. 0.
      3.96123505e-004 7.73682669e-002 4.06653643e-001 4.08534855e-001
      6.57522380e-002 7.08923303e-003 9.98436008e-004 0. 1.45050406e-003
      0. 1.01640937e-003 1.22617409e-001 4.08534855e-001 8.70868117e-002
      1.81412930e-003 0. 0. 0. 0. 2.04284955e-002 4.08534855e-001
      4.08534855e-001 4.68206815e-002 0. 0. 0. 0. 2.94409767e-002
      2.40041260e-002 0. 0. 1.90181006e-002 3.45328808e-001
      3.50853503e-001 1.62468851e-001 1.32962182e-001 1.26356529e-002
      1.44722229e-002 0. 0. 7.39000365e-002 3.58073145e-001
      1.82770550e-001 2.16817521e-002 2.44231950e-002 1.31116165e-002
      3.13706659e-002 4.20173747e-004 0. 1.08491434e-002 3.58073145e-001
      3.58073145e-001 9.71428826e-002 7.60980994e-002 6.02688687e-003
      8.68333504e-003 0. 1.22469943e-002 1.00067303e-001 3.58073145e-001
      3.58073145e-001 5.39831724e-003 1.67996227e-003 0. 0.
      3.50718340e-003 1.08174294e-001 3.60848963e-001 1.98051140e-001
      7.41392141e-003 0. 0. 7.34723359e-003 1.50282122e-002
      7.46571571e-002 2.45096073e-001 3.21727812e-001 8.17672461e-002
      6.63237041e-003 2.51609436e-003 7.86859635e-003 0. 0.
      2.94674411e-002 1.73407957e-001 3.60848963e-001 3.60848963e-001
      8.69307015e-003 0. 0. 6.40601432e-003 9.33170319e-003
      2.34196097e-001 2.21254274e-001 3.60848963e-001 3.33513647e-001
      4.16534282e-002 1.76126622e-002 1.00555466e-002 8.72508041e-004 0.
      2.91282195e-003 1.33267626e-001 2.63695508e-001 1.08653661e-002
      1.67093950e-003 0. 8.72508041e-004 0. 0. 1.74769328e-003
      3.91830027e-001 4.26554650e-001 3.20103876e-002 1.55482063e-004 0.
      0. 8.66782560e-004 0. 2.80273799e-003 8.44607875e-002
      3.86737019e-001 1.45254135e-001 1.83106475e-002 0. 8.66782560e-004
      0. 0. 0. 4.26554650e-001 4.26554650e-001 1.72504798e-001
      2.66312761e-003 0. 0. 0. 1.34379684e-003 4.44846554e-003
      2.20147520e-001 4.03550833e-001 2.36252975e-002 9.93338181e-004
      1.03244046e-003 0. 1.36868213e-004 5.71784389e-004 6.90896483e-003
      4.03550833e-001 4.03550833e-001 4.25859727e-003 5.96002850e-004
      6.19464263e-004 1.36868213e-004 0. 0. 0. 1.89570263e-001
      4.03550833e-001 7.52523690e-002 1.90351845e-003 0. 0.
      5.43708098e-004 0. 6.27961490e-005 3.01491052e-001 4.03550833e-001
      9.36446153e-003 2.71931262e-004 0. 5.43708098e-004 1.41769589e-003
      5.33946732e-005 6.43514853e-004 1.31629477e-003 3.81760538e-001
      2.06996426e-001 2.25418457e-003 1.48165607e-004 7.27725972e-004
      5.58173488e-005 2.69160070e-003 4.89383237e-003 3.28104524e-003
      3.96998882e-001 3.96998882e-001 2.58688378e-004 0. 5.58173488e-005
      5.59101347e-004 0. 1.33733862e-004 1.30054855e-003 3.96998882e-001
      1.37261510e-001 2.66019750e-004 8.88993673e-005 5.59101347e-004
      3.34904107e-005 1.14452618e-003 5.63886948e-003 2.18364708e-002
      3.96998882e-001 3.96998882e-001 0. 0. 3.34904107e-005 0.
      2.23632756e-004 4.56497865e-003 2.07673714e-001 4.25231546e-001
      1.28646329e-001 1.12422695e-002 0. 0. 6.26924215e-003
      1.56542915e-003 3.19548510e-002 1.50020987e-001 4.25231546e-001
      5.94995432e-002 7.86958858e-002 0. 6.26924215e-003 0. 0. 0.
      2.05271259e-001 4.25231546e-001 1.72379553e-001 3.42161544e-002
      1.82524067e-003 0. 3.35790101e-003 6.58797659e-003 7.43729761e-003
      1.54883713e-001 4.25231546e-001 1.63118824e-001 2.35353217e-001
      1.27766849e-002 3.35790101e-003 6.29382487e-003 1.17282271e-002
      1.05777802e-002 7.32786506e-002 2.33589575e-001 2.37120539e-001
      1.37909064e-002 1.61715911e-003 4.03772807e-003 0. 5.04202675e-004
      2.66064797e-003 2.12164521e-002 4.50258553e-001 4.50258553e-001
      1.05466180e-001 2.31022714e-004 0. 2.87348288e-003 7.43777677e-003
      2.18369458e-002 7.03236088e-002 2.09576756e-001 1.91704363e-001
      7.21777305e-002 1.28658339e-002 2.55118334e-003 0. 3.52941873e-003
      1.11663183e-002 4.51812334e-002 3.75184476e-001 4.50258553e-001
      1.56769216e-001 2.54459074e-003 0. 0. 0. 0. 5.39726298e-003
      3.64978135e-001 2.69964814e-001 9.54584277e-004 0. 0.
      1.40883320e-003 9.87638050e-005 0. 1.27010760e-004 3.64978135e-001
      3.64978135e-001 4.09232778e-003 1.05389615e-003 2.18379355e-004 0.
      0. 0. 9.36624501e-003 3.64978135e-001 3.51246506e-001
      4.79065021e-003 0. 0. 8.45299917e-004 5.92582837e-005 0.
      1.70203939e-003 3.64978135e-001 3.64978135e-001 2.60787811e-002
      1.50556603e-004 3.11970507e-005 4.25279686e-005 2.05240183e-004 0.
      1.38009757e-001 3.73624772e-001 5.80835564e-004 6.09677983e-004
      1.08849184e-004 0. 0. 1.18256312e-005 1.38948695e-003
      3.73624772e-001 3.73624772e-001 1.58283030e-004 1.57266040e-003
      1.40579199e-004 0. 1.11985777e-004 1.80515781e-004 8.53931240e-004
      3.73624772e-001 3.73624772e-001 9.07383859e-004 5.90083131e-004
      4.89505437e-005 1.05910352e-004 0. 0. 6.52175164e-004
      3.73624772e-001 3.73624772e-001 6.68735709e-003 0. 0. 0. 0. 0.
      5.01386356e-003 1.69592515e-001 4.07210022e-001 9.66074988e-002
      6.99282158e-003 1.01329258e-003 0. 3.19309793e-002 1.62710492e-002
      3.84101309e-002 2.31810153e-001 4.07210022e-001 3.69182997e-003
      4.60261526e-003 1.56082809e-002 2.10364461e-002 0. 0.
      1.16211467e-003 4.07210022e-001 4.07210022e-001 4.74296212e-002
      2.62199668e-003 0. 0. 1.57645550e-002 1.84529019e-003
      7.45867006e-003 2.61722684e-001 4.07210022e-001 8.50871764e-003 0.
      5.10914018e-003 1.68232266e-002 8.69935285e-003 1.57207120e-002
      6.00809492e-002 2.08088189e-001 3.11249137e-001 5.92956096e-002
      2.22547948e-002 2.01820652e-003 4.75456007e-003 0. 4.58650989e-003
      3.21014971e-002 9.74526554e-002 3.86890858e-001 3.86890858e-001
      1.81129083e-001 3.36367753e-003 0. 6.84695765e-002 2.88173072e-002
      5.13941161e-002 1.62358433e-001 2.89007694e-001 2.58492418e-002
      7.64585957e-002 2.38370858e-002 4.08560224e-002 1.38544885e-003 0.
      2.96012894e-003 2.56430842e-002 3.86890858e-001 3.86890858e-001
      2.77193666e-001 3.97284776e-002 1.38544885e-003 0. 0. 0.
      1.29520167e-002 1.21894494e-001 3.35870564e-001 6.01511709e-002
      3.08769546e-003 0. 0. 0. 0. 7.29515217e-003 2.38814846e-001
      3.69120687e-001 3.69120687e-001 2.62600258e-002 0. 0. 0.
      1.26928405e-003 4.35564965e-002 2.59617299e-001 2.87790895e-001
      2.70253941e-002 1.85261737e-003 0. 0. 0. 2.11547338e-003
      3.73177938e-002 3.58618975e-001 3.69120687e-001 3.35212797e-001
      5.23045361e-002 1.89380646e-002 5.61758876e-002 2.45191395e-001
      2.64204741e-001 3.10235202e-001 1.40452787e-001 7.83564989e-004
      2.86095979e-004 1.77673288e-002 2.44272593e-002 6.23384840e-004
      3.56614962e-002 1.27327055e-001 3.10235202e-001 3.10235202e-001
      8.36184900e-003 2.00267159e-003 0. 0. 2.13086024e-001
      2.90586323e-001 2.51315147e-001 3.10235202e-001 1.61299601e-001
      7.86678679e-003 2.72156019e-003 1.10848928e-002 4.56597172e-002
      1.10991104e-002 5.27647920e-002 1.43248692e-001 3.10235202e-001
      3.10235202e-001 5.51160276e-002 1.90509222e-002 2.62225210e-003
      3.59258521e-003 0. 0. 2.73657702e-002 3.61769885e-001
      3.61769885e-001 3.21219239e-004 1.57038783e-004 0. 0.
      3.33833732e-002 1.01770069e-002 2.00158376e-002 2.82239079e-001
      3.22960258e-001 2.24853447e-003 2.18999409e-003 3.64501262e-004
      2.11176164e-002 0. 7.04189471e-004 1.83894083e-001 3.61769885e-001
      3.61769885e-001 0. 0. 0. 0. 2.56409198e-002 5.37171448e-003
      2.14700066e-002 3.61769885e-001 3.46285194e-001 0. 0. 0.
      1.82814654e-002 2.84042880e-002 0. 0. 3.93646546e-002
      2.64719814e-001 1.28894553e-001 1.81381419e-001 8.86577219e-002
      3.55668068e-002 3.59127112e-002 0. 0. 1.16789797e-002
      3.42662185e-001 2.72823036e-001 9.83335450e-002 5.31524047e-002
      4.02102210e-002 4.37419005e-002 0. 0. 5.62352175e-003
      3.42662185e-001 1.63884535e-001 3.28240693e-001 1.39918268e-001
      5.56794330e-002 5.98545112e-002 0. 0. 0. 3.42662185e-001
      3.42662185e-001 3.42662185e-001 1.45437822e-001 6.70170337e-002 0.
      0. 1.58369090e-004 3.69819649e-003 3.46482545e-001 3.46482545e-001
      5.24740620e-003 0. 0. 6.59599435e-003 1.14906533e-002
      3.93193513e-002 6.03803471e-002 3.46482545e-001 3.46482545e-001
      6.82635978e-002 7.60794897e-003 0. 0. 0. 0. 0. 3.46482545e-001
      3.46482545e-001 9.66079254e-003 0. 0. 0. 0. 4.10994701e-003
      4.32124594e-003 3.46482545e-001 3.46482545e-001 1.60775080e-001
      5.74961770e-003 0. 1.38493076e-001 7.24036768e-002 1.15150914e-001
